svm_type c_svc
kernel_type linear
nr_class 5
total_sv 141
rho 0.22017 -0.0305631 0.264239 0.36941 -0.470622 -0.108667 -0.143395 -0.114205 0.0991856 0.0633311
label 0 1 2 3 4
probA -3.34158 -2.77309 -2.3303 -2.03681 -1.76814 -3.92804 -3.91743 -3.17614 -3.19457 -4.19228
probB 0.2096 0.45243 -0.202133 -0.0502871 0.256603 -0.39113 -0.158664 -0.0690448 -0.347471 -0.0078766
nr_sv 26 30 26 29 30
SV
0 0 0 0.01 1:-0.7920251 2:2.7138706 3:-1.5424787 4:-0.11082734 5:1.6914391 6:-1.1242101 7:-0.19165719 8:-1.2698044 9:0.79708391 10:0.29701637 11:1.0017996 12:0.57935849 13:1.9128581 14:0.79910304 15:-0.84647061 16:-0.78203905 17:-0.25744126 18:-0.40976513 19:-0.85293286 20:-0.13870544 21:0.93694184 22:-0.83846962 23:1.7232374 24:-0.095481446 25:-0.98807643 26:-1.5668236 27:-1.4936589 28:-0.062288878 29:-1.4239016 30:-1.0981482 31:-1.4798237 32:-1.2214903 33:-1.2412576 34:-0.71364717 35:-0.90848665 36:-1.0965774 37:-1.2237942 38:-0.71890296 39:-0.92528186 40:0.487661 41:0.23663137 42:-0.60291575 
0 0 0.01 0.01 1:-0.1707144 2:0.39098947 3:0.97695821 4:-0.42434128 5:-0.7545431 6:0.32125715 7:-0.5259371 8:-0.29136633 9:1.2555185 10:0.037014915 11:-1.712906 12:-0.23864873 13:-0.06984925 14:-1.1941335 15:0.27091918 16:-0.57415653 17:0.76057041 18:-0.44980168 19:0.4598171 20:0.072689053 21:1.1137827 22:-0.96763358 23:-0.6518999 24:-1.1841867 25:-1.1654633 26:-0.96637704 27:-1.2446291 28:-0.63018484 29:-1.3058065 30:-1.1095134 31:-1.2459351 32:-1.1350863 33:-0.8209869 34:-0.99451705 35:-0.80041132 36:-0.56378739 37:-0.43732491 38:-0.10946683 39:-0.52821824 40:-0.16317527 41:0.22702255 42:-0.17657905 
0 0 0 0.01 1:-1.3330386 2:2.9199993 3:-1.5669136 4:-1.523359 5:-0.90777811 6:-1.4281169 7:0.73030828 8:-1.2549088 9:0.62768044 10:1.413746 11:0.45939054 12:0.92263099 13:2.1114495 14:1.2157535 15:1.3772763 16:-0.44878156 17:1.0667564 18:1.8328161 19:1.8818316 20:0.45907417 21:-0.52198074 22:-1.1930725 23:2.554353 24:-0.057984343 25:-0.74472606 26:0.3300463 27:-1.6211322 28:0.41091004 29:-1.3696432 30:-0.81690844 31:-1.03619 32:-0.98753143 33:-0.96033797 34:-1.0075675 35:-1.039299 36:-0.51113898 37:-0.72337115 38:-0.40060722 39:-0.23779024 40:-0.64182519 41:-0.60306073 42:-0.75114232 
0.01 0.01 0.01 0.01 1:-0.58424779 2:0.3452884 3:0.3165074 4:-0.76275532 5:-0.74060561 6:-0.31615405 7:-0.41554842 8:-0.59582439 9:1.0705103 10:0.69620218 11:-1.1187699 12:0.46077021 13:0.93170091 14:-0.30170574 15:0.26777903 16:-0.1882224 17:1.2303883 18:0.30326919 19:0.31259424 20:-0.41854572 21:-0.39740756 22:-1.038381 23:-0.27281235 24:-0.91101229 25:-1.1139094 26:-0.77144377 27:-1.2250129 28:-0.56578421 29:-1.2388628 30:-1.1472419 31:-1.2203145 32:-1.1502896 33:-0.85103974 34:-0.46964033 35:-0.55625497 36:-0.70037975 37:0.092696807 38:-0.025877475 39:-0.077415709 40:-0.22162094 41:0.06315302 42:-0.076840732 
0 0 0 0.005657944670060319 1:-0.86045549 2:0.66314023 3:-1.0244668 4:-0.62870022 5:0.7633047 6:-1.1109987 7:-0.13856949 8:-1.0663124 9:0.77033969 10:1.355758 11:0.77336019 12:0.81570098 13:1.6474715 14:0.31327403 15:0.35584585 16:-0.94770216 17:-1.7358831 18:-0.65799634 19:0.18940794 20:-0.35891703 21:-0.11685108 22:-1.0165408 23:-0.025633522 24:-0.63006017 25:-1.1022356 26:-1.4960874 27:-1.4645203 28:-0.24874259 29:-1.3578457 30:-1.1434488 31:-1.3097958 32:-1.0845179 33:-0.98111994 34:-0.93910614 35:-0.96465501 36:-0.91564742 37:-0.66627748 38:0.79827185 39:-0.57452654 40:-1.0780808 41:-0.41541904 42:-0.68429868 
0.01 0.01 0.003372617796719957 0.01 1:-1.2531331 2:0.45680837 3:-2.0950739 4:-1.1541419 5:0.28909316 6:-1.3875309 7:0.90924867 8:-1.3132278 9:-0.10770422 10:0.70863973 11:0.57074517 12:1.8072229 13:1.121215 14:1.5851323 15:2.6167413 16:-0.36842108 17:-1.9928795 18:-0.15260109 19:-0.51393204 20:1.3069111 21:1.6054282 22:-0.84620469 23:1.3750382 24:0.17799541 25:-0.14229531 26:0.88126739 27:-1.4736257 28:0.428529 29:-1.4097714 30:-0.42870673 31:-0.84931734 32:-1.1177627 33:-0.36986388 34:-0.61567178 35:-0.11991199 36:0.039646542 37:-0.94288839 38:-0.043621106 39:-0.50346039 40:-0.65369733 41:-0.56713789 42:-0.56751703 
0.001126183377682423 0 0.01 0.01 1:0.41733946 2:0.064128652 3:0.87926449 4:0.78806162 5:1.2014335 6:0.8166987 7:-0.60863794 8:0.46952706 9:0.88644014 10:-0.32852466 11:-0.021985073 12:0.43058847 13:0.5227127 14:0.56064248 15:0.48332614 16:0.37140144 17:1.0741259 18:-0.40447676 19:-0.90969397 20:-0.98459031 21:-0.77857462 22:-0.72235345 23:-0.82498065 24:-1.0723614 25:-0.9582788 26:-1.6173403 27:-0.48200639 28:-0.57552788 29:-0.61491822 30:-1.0521839 31:-0.8293441 32:-0.99856883 33:-1.1244429 34:-0.63300662 35:-1.1305714 36:-0.33053693 37:-1.06307 38:-0.14616069 39:0.0095207807 40:-0.41984271 41:-0.32532896 42:-0.38062374 
0 0 0.0060726577812909 0 1:-1.1221597 2:0.28404423 3:-1.6945133 4:-0.14118515 5:1.9500081 6:-1.3323276 7:-0.43498862 8:-1.4144162 9:0.027287657 10:-0.57703934 11:-0.63254108 12:0.34755569 13:0.64508307 14:0.017486709 15:1.2641972 16:0.26461459 17:0.44080393 18:0.97726396 19:0.097620549 20:-0.4986201 21:2.4434659 22:-1.2239717 23:-1.0537771 24:-1.0922153 25:-1.2944986 26:-1.8592481 27:-1.8482472 28:-0.49055314 29:-1.5492255 30:-1.2825174 31:-1.4930635 32:-1.5579953 33:-1.7185292 34:-1.6486634 35:-1.4335804 36:-1.8227065 37:-1.6275608 38:-2.0010602 39:-1.8867734 40:-1.9433748 41:-1.7552354 42:-1.7155502 
0 0 0.001434485062658864 0.007410514530496216 1:-0.29507804 2:1.0351114 3:0.91102204 4:-0.13202172 5:1.0524262 6:-0.35886278 7:-0.30118105 8:-0.61206899 9:1.2054923 10:0.87244409 11:-1.6827887 12:-0.42522549 13:0.48170644 14:-0.11779917 15:-0.44995742 16:-0.5847442 17:-0.31626764 18:0.96507364 19:-0.15947743 20:-0.54362754 21:-1.5592462 22:-0.93290022 23:-0.80236073 24:-1.3235397 25:-1.1335976 26:-1.562107 27:-1.1976583 28:-0.63119232 29:-1.2829918 30:-1.2730112 31:-1.2502149 32:-1.5679367 33:-0.71689513 34:-0.078595846 35:-0.57568039 36:-1.8549299 37:-1.4993543 38:-1.253529 39:-2.2190545 40:-1.8160899 41:-2.2298388 42:-1.3762298 
0.004157880953237259 0 0 0.01 1:-0.60346366 2:0.71389142 3:0.42171556 4:-0.77220227 5:-0.041009844 6:-0.40245305 7:-0.2368284 8:-0.62824825 9:0.9894253 10:1.1484547 11:-2.9869798 12:0.73072929 13:0.69557915 14:-0.080477901 15:1.5163898 16:1.3018178 17:0.90374459 18:0.45839368 19:-0.13516137 20:-0.24639448 21:0.20821988 22:-1.0102984 23:-0.23216289 24:-1.1301267 25:-1.1443943 26:-1.2595175 27:-1.1734682 28:-0.50350113 29:-1.3614955 30:-1.0477973 31:-1.0192326 32:-0.76504792 33:-0.60665675 34:-0.80445965 35:-1.0546205 36:-0.43961617 37:0.14613478 38:-0.442816 39:-0.22230086 40:0.056729834 41:-0.11287249 42:-0.19858161 
0.01 0.01 0.01 0.01 1:2.3859927 2:-0.56515824 3:2.1009354 4:2.3855185 5:0.92335783 6:1.9772302 7:-0.76376879 8:2.1170908 9:0.44781878 10:-2.3101256 11:0.017359828 12:-0.90382124 13:-0.54439594 14:-0.48469135 15:-1.0370341 16:-0.9174206 17:0.6380613 18:-0.081132149 19:-0.13289728 20:1.1725331 21:0.40610543 22:1.715201 23:-0.84762044 24:-1.7590609 25:-0.22267997 26:-0.77309888 27:1.5523163 28:-0.68490543 29:0.92437884 30:-0.97020996 31:-0.70827013 32:-0.75479991 33:-0.51044061 34:-0.29106617 35:-0.68849548 36:-0.5305054 37:0.039301144 38:-0.45980459 39:-0.95081554 40:-0.095697166 41:-0.45784647 42:0.35792551 
0 0 0.01 0.01 1:1.6940191 2:-0.759994 3:1.8892547 4:1.7495205 5:1.0341057 6:2.0521967 7:-0.7953702 8:1.9802371 9:0.62251615 10:-2.1252968 11:-0.99146985 12:-0.22385356 13:-0.088698608 14:-1.0409812 15:-0.54499464 16:-1.0091517 17:0.54657395 18:-0.30673751 19:0.2016934 20:0.73125013 21:1.8444542 22:-0.10039832 23:-1.217137 24:-1.3663437 25:-0.99567869 26:-1.6423246 27:0.1866637 28:-0.68715808 29:-0.26214171 30:-1.1080497 31:-1.2064231 32:-0.9357923 33:-0.80983271 34:0.023584852 35:-0.66589728 36:-0.59214667 37:-0.11241422 38:-0.25636707 39:-0.15200975 40:-0.14145409 41:0.13361499 42:-0.21749362 
0.01 0.003669342651376162 0.01 0.01 1:1.9208957 2:-0.88762109 3:1.909016 4:1.9814723 5:1.4937384 6:2.0431007 7:-0.80410353 8:2.2828047 9:0.55503366 10:-1.8598594 11:-0.69473621 12:-0.78500461 13:-0.55616805 14:-0.96434886 15:0.35301084 16:-1.024206 17:-0.56359399 18:-0.57594303 19:-0.60032399 20:-0.93170904 21:0.60253689 22:-0.20278525 23:-1.4133627 24:-1.5708757 25:-1.1007646 26:-1.793663 27:0.36064691 28:-0.68637184 29:-0.21954812 30:-1.126669 31:-1.1840134 32:-1.2350781 33:-0.65431688 34:-0.85736084 35:-0.41005356 36:-0.10419465 37:-0.5763716 38:-0.6341908 39:-0.32464945 40:-0.092550798 41:0.21358036 42:-0.29324072 
0.007402699591782105 0 0 0.01 1:-1.3286756 2:1.6644652 3:-1.4623122 4:-1.2089235 5:-0.1097804 6:-1.3436566 7:0.6947185 8:-1.3042506 9:0.44941992 10:0.56156975 11:0.1485649 12:1.4181527 13:0.72911213 14:-0.35180689 15:0.67962677 16:0.5812729 17:0.4781605 18:0.29703461 19:0.083362081 20:-0.2366197 21:0.0038803952 22:-1.0464154 23:1.6622858 24:-0.15016254 25:-0.81935993 26:-0.41793705 27:-1.5292209 28:0.24838249 29:-1.3536598 30:-0.92283347 31:-1.2369975 32:-1.1848732 33:-1.0230306 34:-1.2165094 35:-0.62579913 36:-0.50215116 37:-0.06541647 38:-0.33514494 39:-0.19530943 40:-0.13526597 41:-0.2259938 42:-1.1847888 
0.01 0.001117840188113695 0 0.01 1:-0.73925343 2:0.92250629 3:0.17658772 4:-0.92582221 5:-0.92342531 6:-0.64672388 7:-0.26604237 8:-0.77849225 9:1.1440698 10:0.7701168 11:0.17222614 12:0.88603347 13:-0.17432661 14:0.11347329 15:-0.6691977 16:-0.10944329 17:-0.71400775 18:-0.56809844 19:-0.89106061 20:0.13451125 21:0.44433259 22:-1.0830291 23:-0.40557796 24:-0.97709058 25:-1.1018629 26:-0.67529768 27:-1.2583132 28:-0.40783089 29:-1.2156196 30:-1.1934404 31:-1.2472496 32:-1.1191634 33:-1.1427502 34:-1.0233393 35:-0.91055292 36:-0.67456043 37:-0.32590677 38:-0.5661806 39:-0.79295146 40:-1.0506884 41:-0.19844318 42:-0.67547473 
0 0.002415647846665653 0.01 0 1:-0.67422378 2:0.5358732 3:-0.8631 4:-0.88933848 5:-0.71086852 6:-0.5972211 7:-0.15682843 8:-0.69550782 9:0.76305067 10:0.80028305 11:0.16592124 12:1.2765256 13:0.14355156 14:-0.3094416 15:-1.2097474 16:-0.4166528 17:0.22447208 18:0.52540886 19:-0.019149549 20:0.59103772 21:0.94721258 22:-1.012242 23:-0.13675748 24:0.012066134 25:-0.69321511 26:0.11525605 27:-0.9664764 28:-0.46388934 29:-1.039711 30:-1.0415151 31:-0.88492051 32:-1.2373766 33:-0.72565726 34:-1.3108308 35:-1.3424759 36:-1.018877 37:-0.50942211 38:-0.75071777 39:-0.6450046 40:-1.0718005 41:-0.75676141 42:-1.114784 
0.01 0.01 0.01 0.01 1:-1.2102198 2:-0.060953028 3:-0.59221465 4:-1.5056916 5:-1.2033464 6:-1.2461033 7:0.3065868 8:-1.0596363 9:0.10374622 10:1.7001246 11:-0.2557952 12:1.2348254 13:0.33857596 14:0.86678266 15:1.4079605 16:0.86278186 17:0.59921598 18:1.5288006 19:1.0980522 20:0.045542401 21:0.68969127 22:-1.1287505 23:0.76154958 24:-0.3854407 25:-0.63650416 26:0.91004557 27:-1.3936577 28:-0.032164329 29:-1.220523 30:-0.5379468 31:-0.48240937 32:-0.53934844 33:-0.38172345 34:-0.867121 35:-0.26617521 36:-0.2151203 37:-0.43974714 38:0.29696384 39:-0.17474625 40:-0.51635415 41:-0.049539299 42:-0.020240147 
0.01 0.009553955063312176 0.01 0 1:-1.4246255 2:0.51971871 3:-1.9719124 4:-1.3743394 5:-0.24435611 6:-1.4444788 7:2.2355154 8:-1.315655 9:-0.34676351 10:1.0513657 11:1.6339506 12:1.6652082 13:0.85342365 14:1.4530344 15:0.60404367 16:0.74927031 17:1.8281048 18:0.20384796 19:1.0683553 20:0.46761308 21:0.10815935 22:-1.1866844 23:1.7456359 24:0.37265231 25:-0.29691825 26:0.86062886 27:-1.4465943 28:1.8711845 29:-1.3801649 30:0.1284644 31:-0.69405999 32:-0.72867644 33:-0.7015912 34:-1.7364712 35:-0.90908685 36:-1.7510915 37:-1.4366052 38:-1.1087371 39:-0.77653193 40:-1.1842728 41:-1.5846945 42:-1.120194 
0 0 0.01 0 1:-1.5012446 2:0.005471746 3:-1.0168557 4:-1.4316294 5:-0.089498466 6:-1.4864117 7:5.813194 8:-1.393489 9:-0.61139135 10:0.38815804 11:1.2413931 12:0.56311498 13:0.96933065 14:0.33429515 15:0.19237327 16:0.65277242 17:0.31684923 18:0.77219956 19:0.24198062 20:0.1319445 21:0.51034616 22:-1.0156593 23:1.5513217 24:1.1159541 25:-0.34455936 26:0.36633505 27:-1.4625684 28:5.2492511 29:-1.3451257 30:0.11291964 31:-1.2605573 32:-0.64046412 33:-1.8186839 34:-1.719741 35:-2.3447499 36:-2.4549287 37:-2.3656646 38:-1.8814861 39:-2.3834613 40:-2.1573817 41:-2.2680699 42:-2.3795167 
0 0 0.01 0.01 1:-0.39411841 2:0.31473319 3:0.37193952 4:-0.11314866 5:0.21307726 6:0.03966451 7:-0.30658774 8:-0.36873482 9:0.93917458 10:-0.54887554 11:0.10567428 12:1.6691827 13:1.3590499 14:1.459391 15:1.328947 16:1.4845381 17:1.140421 18:1.2146414 19:0.92045175 20:0.93898385 21:0.5012976 22:-0.80417281 23:-0.29728501 24:-0.95502175 25:-1.1964234 26:-1.6080895 27:-0.8399844 28:-0.46477203 29:-0.95191024 30:-1.169063 31:-1.2190366 32:-0.89921374 33:-0.80435697 34:-1.0974391 35:-0.93105721 36:-0.4838891 37:-0.70425499 38:-0.18783942 39:-0.24052934 40:-0.23082299 41:-0.47354314 42:0.050721146 
0.01 0.01 0.01 0.01 1:-0.10818825 2:-0.53969103 3:-0.70920538 4:0.77146857 5:2.4916029 6:-0.37033756 7:0.019613664 8:-0.41911401 9:0.49021717 10:0.18075875 11:0.48979418 12:0.39435895 13:0.70400855 14:-0.15638353 15:0.26183648 16:0.32001926 17:0.4169438 18:-0.029948299 19:0.18462336 20:0.13512082 21:0.39880018 22:-0.3276416 23:-0.87161037 24:-0.23563058 25:-0.19351012 26:-0.71675391 27:-0.27902237 28:0.034239536 29:0.59795657 30:-1.0671334 31:-1.0817389 32:-1.1816298 33:-0.82919943 34:-0.83416601 35:-0.71667008 36:-0.67393671 37:-0.62825843 38:-0.76717164 39:-0.26024659 40:-0.13481308 41:-0.36512507 42:-0.39216907 
0 0 0 0.01 1:-0.84301337 2:0.64055839 3:-0.35202307 4:-0.91458139 5:-0.33510665 6:-0.77866448 7:-0.26065724 8:-0.83089645 9:0.90705604 10:0.80224582 11:-0.46519672 12:0.97111526 13:0.89689906 14:0.27397066 15:0.92747929 16:0.45194457 17:-0.42174226 18:-0.75958265 19:0.48345304 20:1.2610355 21:1.2608498 22:-1.0286962 23:-0.24262635 24:-0.49386138 25:-0.94271257 26:-0.77396575 27:-1.2016552 28:-0.41508186 29:-1.1158538 30:-1.0150395 31:-1.2329823 32:-1.0901165 33:-1.0378167 34:-1.0350895 35:-0.71252102 36:-0.54091989 37:-0.65903769 38:-0.7961262 39:-0.41836086 40:-0.19591441 41:-0.23056059 42:-0.27743144 
0 0 0.001240758283222522 0 1:-0.44002353 2:0.36441333 3:0.72125625 4:-0.81798611 5:-1.1430521 6:0.14669419 7:-0.44395722 8:-0.56229496 9:1.0268257 10:0.24849798 11:-1.7841427 12:1.2311884 13:2.4502105 14:1.8401688 15:-2.0860614 16:-2.6281853 17:0.93981343 18:1.3817503 19:-1.2177444 20:2.3486798 21:1.8371188 22:-1.0777045 23:-0.78803609 24:-1.0161163 25:-1.1340984 26:-0.62544168 27:-1.1904908 28:-0.59838526 29:-1.3197325 30:-1.1577196 31:-1.203399 32:-1.0051015 33:-1.0282357 34:-0.61515442 35:-0.11432681 36:-0.55490445 37:-1.3823345 38:-0.6132519 39:-0.89011945 40:-0.99594987 41:-0.67101341 42:-0.63470748 
0.01 0.01 0.01 0.01 1:-1.1540258 2:0.32391349 3:-1.0474523 4:-1.6331923 5:-1.6847883 6:-1.1586184 7:0.35038438 8:-1.0019588 9:0.42754663 10:2.0769975 11:-1.710346 12:0.86687047 13:0.90315304 14:-0.57383285 15:-0.060676811 16:0.53700711 17:-0.36630134 18:-0.16962502 19:0.015157193 20:-0.36571597 21:-0.32441583 22:-1.1680145 23:0.84969897 24:-0.15207777 25:-0.7316017 26:1.2822898 27:-1.4241083 28:-0.13010938 29:-1.2884285 30:-0.71296902 31:-0.085155034 32:-0.045525283 33:-0.53382479 34:-0.56794532 35:-0.62515395 36:-0.62574949 37:-0.44648846 38:-0.5336841 39:-0.38288051 40:-0.19506021 41:-0.16557585 42:0.37121464 
0 0 0.01 0 1:-1.5255928 2:-1.0482494 3:2.4203256 4:-2.9721074 5:-6.366078 6:-1.5247219 7:-0.76194404 8:-1.3762461 9:-6.1713934 10:-1.8389672 11:-0.58308542 12:-0.76165791 13:-0.25208694 14:-0.64809582 15:-0.33615353 16:-0.19172235 17:0.18940345 18:0.14718978 19:-0.0095219629 20:-0.19363037 21:-0.0029128494 22:-1.1945023 23:-0.78210672 24:-1.5240045 25:-0.84333121 26:0.24130917 27:-1.5750216 28:0.067732344 29:-1.3746874 30:1.7436309 31:-0.89771367 32:-1.0449162 33:-2.3949711 34:-2.5206544 35:-3.0578832 36:-3.2686663 37:-3.3507987 38:-3.4533306 39:-3.4061 40:-3.576934 41:-3.4235932 42:-3.5577515 
0.01 0.01 0.01 0.01 1:0.69919545 2:-1.1964958 3:0.73369114 4:0.62793213 5:0.50522624 6:1.1941957 7:-0.64507519 8:0.92390177 9:0.080412348 10:-0.32461369 11:-0.70857112 12:0.60278918 13:-0.27005992 14:-0.84112215 15:-0.1728843 16:0.35150806 17:-0.83211604 18:0.36934826 19:0.010502082 20:-0.64080255 21:0.72737471 22:-0.60701912 23:-1.4797333 24:-0.66713477 25:-0.77766138 26:-1.2172333 27:-0.45570737 28:-0.66878272 29:-0.21532011 30:-1.0163574 31:-0.10588949 32:-1.0368916 33:-0.90912483 34:-0.7237248 35:-0.8495628 36:-0.028824992 37:0.091855787 38:-0.35846114 39:-0.21138477 40:-0.62148073 41:-0.236823 42:0.24407038 
-0 0.007174466941439231 0 0 1:-0.048867832 2:-0.84483127 3:-1.943463 4:-0.087312136 5:-0.51142686 6:-0.22650646 7:0.54956632 8:0.031672673 9:-0.73476779 10:0.70648235 11:0.30266279 12:-0.21419187 13:-0.22377629 14:-0.39349154 15:0.48913201 16:-0.092394066 17:0.48070301 18:0.97736523 19:-0.44305499 20:0.46312762 21:-0.097941817 22:1.4356499 23:-0.63929621 24:1.7647407 25:1.7901827 26:1.0680756 27:1.6589927 28:0.93407782 29:1.4364176 30:1.500493 31:2.0802152 32:1.6092865 33:0.59683405 34:2.1302236 35:1.1566683 36:1.528882 37:0.603605 38:1.0399401 39:-0.15351647 40:0.16038113 41:0.051347085 42:-0.59137119 
-0 0.01 0.01 0 1:-0.69813853 2:-0.69926665 3:-1.1472662 4:-0.66183824 5:-0.86111439 6:-0.65207129 7:1.1931472 8:-0.47972476 9:-1.447697 10:0.27427486 11:0.93319524 12:0.12679082 13:-0.66007198 14:-0.46308889 15:1.6549621 16:0.057256836 17:-0.03046626 18:0.65137459 19:0.94836611 20:-0.031923947 21:-0.046709803 22:0.53278611 23:-0.14430637 24:1.3124768 25:1.3035317 26:3.4450265 27:1.2771013 28:3.5589505 29:0.99169875 30:3.8249044 31:1.5724999 32:1.4032023 33:1.0110107 34:0.36905635 35:-0.51369595 36:0.79337194 37:-0.44428517 38:0.48699928 39:-0.14074405 40:0.25181186 41:-0.32807975 42:-0.47730734 
-0 0 0.002756975776927117 0 1:-0.31153786 2:-1.0348108 3:-2.2339804 4:-0.32625527 5:-0.45410049 6:-0.46789312 7:0.29430878 8:-0.2192942 9:-0.92652345 10:0.74339323 11:0.28258995 12:0.44118396 13:0.50767851 14:-1.3217809 15:0.52393468 16:0.54255181 17:0.49569435 18:0.73172624 19:0.15222824 20:0.47129419 21:1.0075128 22:1.2603439 23:-1.0138297 24:1.3465323 25:1.4535691 26:1.44201 27:1.0188595 28:0.46824342 29:1.0969631 30:1.3040707 31:1.8696055 32:2.2111323 33:0.6512262 34:1.7113329 35:1.0491148 36:1.3794411 37:0.20006217 38:-0.018585408 39:0.3554733 40:-0.10283996 41:-0.62711066 42:-0.47239603 
-0.01 0.01 0.01 0.01 1:-0.94526377 2:-0.92192947 3:-1.1004826 4:-0.900093 5:-0.072206869 6:-0.98028445 7:0.088935856 8:-0.9758742 9:-0.7490462 10:1.0814599 11:-0.59256996 12:0.24397318 13:0.36011304 14:0.37898171 15:-0.43517284 16:-0.4186104 17:0.80790648 18:0.066055931 19:-0.53435419 20:-0.078814788 21:0.050977544 22:-0.74238363 23:-0.66047426 24:0.36298771 25:-0.2378075 26:1.327281 27:-0.78994424 28:-0.10099707 29:-0.98030999 30:-0.20845291 31:-0.49733074 32:0.31301819 33:-0.16045204 34:1.4442043 35:-0.25292022 36:-0.26108912 37:-0.18332147 38:0.059239216 39:0.47070221 40:-0.13384669 41:0.21336077 42:-0.35158917 
-0 0.01 0 0.01 1:-0.79128082 2:-0.28564778 3:0.40392515 4:-1.1903143 5:-1.3119191 6:-0.96427985 7:-0.026120397 8:-0.88057378 9:0.25256054 10:0.98681864 11:-1.6408081 12:-1.838901 13:-1.1691285 14:-0.69514058 15:-0.89353865 16:0.25707332 17:-0.56620434 18:1.8856326 19:1.2302253 20:0.92221217 21:0.72905137 22:-1.0939521 23:0.14074017 24:-0.66442674 25:-0.82186263 26:0.74288396 27:-1.0548692 28:-0.29761329 29:-1.2236142 30:-0.42820086 31:-0.42006015 32:0.81481364 33:1.0256155 34:0.46142267 35:-0.25887729 36:2.0188795 37:0.64914581 38:1.9055411 39:0.2014111 40:1.1971003 41:0.4668716 42:1.3002429 
-0.01 0.008338704880639189 0.004003700067950665 0.01 1:-1.3017218 2:1.0652222 3:-0.5670484 4:-1.5764455 5:-1.1374375 6:-1.3277095 7:4.1230084 8:-1.1561677 9:0.36903467 10:1.1420636 11:0.42866613 12:0.1577073 13:-1.0809808 14:-0.090919692 15:0.70580569 16:0.25253848 17:-0.63421594 18:0.65608756 19:-0.31535055 20:0.055713316 21:-0.017062803 22:-0.98519421 23:0.5185837 24:0.058764069 25:-0.54416231 26:1.2658112 27:-1.1037971 28:3.9801663 29:-1.0562413 30:-0.13665218 31:0.044558016 32:0.070143787 33:-0.08400864 34:0.72726643 35:0.38991808 36:0.51359568 37:-0.2494634 38:-0.17620128 39:-0.50967643 40:-1.172655 41:-0.45138812 42:-1.1579938 
-0 0.01 0 0.001534165244502598 1:0.36155524 2:-0.45943585 3:-0.69526238 4:0.55987219 5:0.85043554 6:-0.061244132 7:0.063975857 8:0.063354992 9:-0.61773384 10:0.22347955 11:0.65678261 12:0.16376543 13:0.27623798 14:0.9671507 15:0.72193145 16:-0.41163228 17:1.4154871 18:0.82403887 19:0.0031542885 20:-0.51279245 21:-0.00043678261 22:2.1053801 23:0.48338267 24:0.50558561 25:2.1555771 26:1.4880815 27:1.6218807 28:-0.085773195 29:1.9072412 30:1.8549242 31:1.3809184 32:0.80191756 33:1.9313273 34:1.3088303 35:2.831193 36:1.5409498 37:0.78470283 38:0.61654965 39:1.447865 40:0.8937265 41:0.81220345 42:0.55088633 
-0.01 0 0.01 0.01 1:-0.10746853 2:0.20954492 3:-0.87076501 4:-0.63337585 5:-1.638007 6:0.10941106 7:-0.27143157 8:-0.2191966 9:0.96530487 10:0.18219399 11:-0.54047438 12:-0.35726851 13:-2.7599812 14:2.3307198 15:-0.3420585 16:1.2219555 17:0.57078644 18:-0.50113025 19:-0.77834454 20:1.1399141 21:-0.60657141 22:-0.52600725 23:-0.51933716 24:-0.67946819 25:-0.47196391 26:-0.55302594 27:0.32567045 28:-0.48544262 29:-0.40494499 30:-0.73357488 31:0.65526412 32:0.36244694 33:-1.4291318 34:0.64307174 35:-0.73645995 36:0.62489017 37:-0.33501779 38:-1.075409 39:-1.4022212 40:-1.7665084 41:-1.7689391 42:-1.0155123 
-0.01 0 0.004049821616227465 0.01 1:-0.41535174 2:-0.71503421 3:0.14868595 4:-0.71221885 5:-0.74648957 6:-0.70062024 7:-0.31290444 8:-0.49647265 9:-0.018932718 10:1.1097514 11:-0.38482686 12:-0.56403029 13:-0.31919802 14:0.47414746 15:1.7949165 16:2.2118347 17:2.8968247 18:-0.1275971 19:-1.42594 20:-1.9335299 21:-1.432363 22:0.50296704 23:-0.57950684 24:-0.22691968 25:0.74015501 26:0.42499575 27:0.14673825 28:-0.36783616 29:0.12435582 30:-0.50862092 31:0.55539509 32:0.014027831 33:-0.28050741 34:-0.020341218 35:1.0370449 36:-0.3027033 37:0.79118176 38:-0.06336505 39:-0.44932377 40:-0.021467641 41:0.10223586 42:-0.10260119 
-0.01 0.01 0 0.01 1:-0.7362149 2:0.43493263 3:0.52614229 4:-0.88372 5:-0.8552082 6:-0.78781133 7:-0.22626188 8:-0.77762777 9:0.59774087 10:0.76049394 11:0.4850437 12:-1.1186373 13:0.64435337 14:1.2960558 15:0.21687547 16:0.91904076 17:-0.70698716 18:2.4680084 19:0.032882995 20:0.18263035 21:-0.75511145 22:-0.7205547 23:1.6586847 24:-0.78097707 25:-0.66723524 26:0.16135067 27:-0.55074969 28:-0.30324669 29:-0.79895389 30:-0.18055454 31:-0.20849019 32:0.7672986 33:0.24424957 34:0.47943422 35:0.15804845 36:1.3090285 37:0.96660472 38:0.085195941 39:0.28285921 40:1.0527452 41:0.61488302 42:1.0190197 
-0.009136200088367968 0.01 0.01 0.01 1:1.3631089 2:-0.53754543 3:0.71396627 4:1.323966 5:0.76106198 6:0.6402191 7:-0.51261004 8:1.080189 9:0.038760861 10:-0.12089867 11:1.4191965 12:-1.7666235 13:-2.139909 14:-0.92063354 15:0.42749913 16:-1.6612156 17:0.22961332 18:0.044547016 19:0.58812758 20:0.34529983 21:0.81295291 22:1.1710607 23:-0.11207344 24:-0.61916036 25:0.752595 26:-0.32798559 27:0.44042983 28:-0.51401926 29:0.80614748 30:0.4451197 31:-0.33127995 32:0.32455756 33:0.49948473 34:1.0138964 35:0.63007511 36:0.56974265 37:1.5068016 38:0.47471208 39:-0.23142357 40:0.55712688 41:0.46370607 42:-0.15617306 
-0 0.006871530059815535 0 0 1:-0.93026545 2:-0.49662445 3:-0.32710453 4:-0.74858919 5:-0.21005501 6:-1.0826179 7:1.5969823 8:-0.84187714 9:-0.61871484 10:0.70918682 11:2.376097 12:-0.6111255 13:-0.613736 14:-0.39736915 15:-0.31681159 16:0.29480552 17:1.3607035 18:0.97915679 19:0.66773702 20:0.51207747 21:-0.21486175 22:0.040394986 23:0.94848698 24:0.51019079 25:0.60869053 26:0.96699052 27:-0.072708229 28:1.5922348 29:0.37785187 30:0.84077252 31:1.0885427 32:0.37334041 33:0.7898812 34:1.3851668 35:0.64803859 36:1.5296057 37:0.27418454 38:-0.0037323482 39:0.0061286676 40:-1.0069975 41:0.25727003 42:-0.37280292 
-0 0.01 0.01 0 1:0.59342508 2:-0.83879268 3:0.18273469 4:0.51187386 5:0.31979608 6:0.63215285 7:-0.35297565 8:0.5184477 9:-0.73170974 10:-0.2467964 11:-1.5450797 12:-0.60032803 13:-1.5514133 14:0.13141831 15:0.83497139 16:0.53684615 17:1.0197431 18:1.1922398 19:-1.7359831 20:-0.14607267 21:-1.5544338 22:0.59871654 23:-0.26523447 24:0.30998622 25:0.78170638 26:0.76851175 27:0.76514574 28:-0.42347505 29:1.1951423 30:0.65341316 31:0.22098844 32:0.89449708 33:0.47406817 34:0.90975249 35:0.24455701 36:1.0477589 37:-0.16481275 38:0.061407876 39:-0.25077428 40:0.34366301 41:-0.47588467 42:0.52234597 
-0.01 0.01 0.009363631244331882 0.01 1:-0.97207205 2:-0.11471009 3:-0.36052473 4:-1.1659455 5:-0.74638771 6:-1.2118442 7:0.61267163 8:-1.0497835 9:0.21039924 10:1.0744719 11:-0.042176447 12:-1.2427095 13:-0.089414685 14:-0.01058433 15:1.1977428 16:0.2281756 17:0.54856838 18:0.60203178 19:-0.086432549 20:0.035569965 21:-0.34109419 22:-0.9703519 23:0.33544481 24:0.42578991 25:-0.66853737 26:0.47381301 27:-1.255163 28:0.20121872 29:-1.2645894 30:-0.16398895 31:-0.35739959 32:0.40550888 33:1.1453235 34:0.87913223 35:0.73710906 36:0.17329356 37:0.30911049 38:0.628276 39:0.78041801 40:1.0079523 41:1.2648577 42:1.6592123 
-0 0.01 0 0.01 1:0.79932495 2:0.33548887 3:1.0614483 4:1.4344598 5:1.8441202 6:0.64336256 7:-0.28796449 8:1.1910977 9:0.49750064 10:0.20957768 11:-0.026927156 12:-1.0199173 13:0.46846459 14:-0.75021175 15:-0.079887561 16:-0.84535337 17:-1.1776952 18:-1.5309727 19:-2.1081377 20:-1.6947137 21:0.72867021 22:0.92970552 23:0.95259398 24:-0.52695959 25:0.87309367 26:0.078576949 27:1.1705464 28:-0.27072498 29:1.9461294 30:0.20339045 31:0.87400081 32:0.96264735 33:1.6990312 34:2.3466145 35:0.41404952 36:1.8984519 37:1.0865108 38:2.3179291 39:1.9617485 40:1.0131572 41:2.3157173 42:2.4300556 
-0 0.01 0 0.01 1:0.1085453 2:-0.15933433 3:-0.26125788 4:-0.080074373 5:-0.3951477 6:-0.1607911 7:-0.36906463 8:0.10362573 9:0.25871877 10:0.77903718 11:-0.093942179 12:-1.2757225 13:-0.43861639 14:-0.15584162 15:1.5816556 16:0.96021884 17:0.073478798 18:-1.235031 19:-0.66855332 20:0.8403744 21:0.48656293 22:1.005662 23:0.27003555 24:0.19514472 25:1.2632638 26:0.86536502 27:0.93102892 28:-0.33775273 29:1.1943821 30:0.025512357 31:1.0758828 32:0.75164449 33:-0.03241677 34:-0.071580815 35:0.72532115 36:0.42556697 37:1.3308542 38:-0.61784922 39:0.12070517 40:0.034523724 41:-0.17689464 42:-0.42374689 
-0 0.01 0.004998363833945321 0 1:0.64573275 2:-0.2131576 3:-1.1470965 4:0.70812216 5:0.39374031 6:-0.03826756 7:-0.14559532 8:0.3888867 9:-0.039161377 10:0.72370687 11:1.2848062 12:-0.43772225 13:-0.20144346 14:0.16739666 15:-0.2545888 16:-0.21585404 17:0.089685987 18:-0.23826403 19:-0.54108468 20:0.30220924 21:-0.31501239 22:1.7707313 23:0.10974153 24:0.71345522 25:1.997288 26:1.4565688 27:1.4182888 28:-0.34125336 29:1.7499574 30:0.73318348 31:1.4479801 32:0.96456561 33:0.80160788 34:-0.45861113 35:0.24207852 36:0.11847287 37:0.65033982 38:0.41979459 39:0.0016698487 40:-0.65005403 41:0.80342974 42:0.41517917 
-0 0.01 0 0 1:0.3179345 2:-0.76362903 3:-1.2960762 4:0.25190156 5:-0.070997693 6:0.018920437 7:-0.13972106 8:0.18848634 9:-0.19286048 10:0.14073697 11:1.5343896 12:0.28342123 13:-0.30244113 14:0.51843923 15:0.80644606 16:-0.030498571 17:-0.28852181 18:0.64207197 19:-0.12064974 20:0.22606046 21:-0.38252479 22:1.7911129 23:-0.22835814 24:1.409966 25:1.9542458 26:0.45728394 27:1.7317279 28:-0.069798674 29:1.4465426 30:0.44018581 31:2.7516468 32:0.95838861 33:1.2034128 34:1.1153165 35:1.2682303 36:1.4951466 37:0.58561278 38:-0.303168 39:0.29280013 40:-0.32284358 41:0.13553526 42:0.4622902 
-0 0.01 0 0 1:0.37566231 2:-0.5086459 3:-0.67920008 4:-0.034087439 5:-0.92436452 6:-0.02043444 7:-0.045831817 8:0.086008771 9:0.064530756 10:0.25530169 11:0.077735015 12:1.2640616 13:-0.98675424 14:0.69500251 15:-0.36369174 16:-1.3810224 17:-0.79547747 18:-0.091359662 19:-0.86894245 20:1.0215724 21:-0.95159921 22:1.7598025 23:-0.44099284 24:0.21102266 25:1.8191698 26:0.9415354 27:1.2232795 28:-0.061596277 29:1.0021156 30:0.76323422 31:2.3624206 32:1.5099083 33:1.2697634 34:1.4360295 35:1.2240442 36:0.77840389 37:0.92450251 38:1.260809 39:1.0354848 40:-0.1810923 41:0.68231062 42:0.21536368 
-0.01 0.0002140675233101098 0.01 0.01 1:0.49571785 2:-0.46039611 3:-2.4548741 4:0.29162468 5:-0.43427688 6:0.20367607 7:-0.70903048 8:0.31594075 9:0.54380916 10:0.035253034 11:0.59375445 12:-0.57384738 13:-0.69181458 14:-0.64343752 15:-0.0026845399 16:0.74222265 17:-0.40073082 18:-0.011802759 19:-0.44770989 20:-1.6770399 21:0.85664095 22:0.71361313 23:-0.81393617 24:0.34271218 25:0.68673156 26:-0.38347519 27:-0.54741952 28:-0.55453366 29:-0.13024825 30:-0.3393045 31:-0.26136157 32:-0.070634955 33:-0.08502581 34:-0.34119696 35:-0.59076802 36:-0.36101452 37:-0.4654852 38:-0.81132411 39:-0.63638629 40:-0.47164457 41:-0.72923036 42:-0.41958672 
-0 0.01 0 0 1:0.64456928 2:-0.27799987 3:-0.0058342704 4:0.77202456 5:-0.32388421 6:0.6574373 7:-0.0016868351 8:0.71167719 9:0.03763264 10:-0.77234748 11:0.37689065 12:-1.8968501 13:-1.522433 14:-0.5169338 15:-0.65115545 16:0.60953258 17:0.62004804 18:-0.49761195 19:-0.66647792 20:-1.9007093 21:-2.7532206 22:1.4356434 23:0.19410919 24:1.4323059 25:0.95879051 26:0.019026711 27:1.1998476 28:0.084538819 29:1.0821336 30:0.99433761 31:1.3696018 32:1.8681246 33:1.6408073 34:2.1777131 35:2.2167991 36:1.1569436 37:0.49786923 38:0.78078683 39:1.0183167 40:0.5561399 41:0.45590366 42:1.6097519 
-0 0.008582199769088051 0.01 0 1:0.71755463 2:-1.2225523 3:-1.898416 4:0.63761024 5:-0.052038159 6:0.44310851 7:-0.30656235 8:0.74459161 9:-1.1821562 10:0.082586621 11:1.1214593 12:-1.2574108 13:-1.1256617 14:0.22049612 15:-1.1724696 16:0.54687159 17:-0.12102823 18:0.62571936 19:0.062520245 20:0.24531839 21:0.66413878 22:1.4074916 23:-1.3593611 24:1.5845343 25:1.4394446 26:0.35775247 27:1.4928362 28:-0.35964298 29:1.3181118 30:1.083365 31:1.6158327 32:2.078041 33:0.43904484 34:0.28299899 35:0.83660539 36:0.61575965 37:0.44560996 38:-0.60357746 39:-0.39403709 40:-0.63208523 41:-0.44276907 42:0.0067349965 
-0 0.01 0.01 0 1:-0.010381133 2:-0.58261032 3:-0.67858854 4:0.081517348 5:0.28105977 6:-0.24067791 7:-0.35395218 8:-0.12462113 9:-0.2594785 10:0.38000333 11:-0.016843527 12:-1.397501 13:-1.7779714 14:-1.6310695 15:-1.2777858 16:-0.74883444 17:0.099555235 18:1.2434876 19:0.048830349 20:-0.85043437 21:-0.49613088 22:0.47104781 23:-0.13272439 24:1.1418749 25:0.55869268 26:0.57067691 27:0.58334146 28:-0.32132546 29:0.68295707 30:0.81149934 31:0.61384146 32:0.32456217 33:0.12287188 34:0.56670077 35:1.0439473 36:0.90292575 37:1.3659398 38:0.78805042 39:0.45648527 40:0.51868947 41:-0.073711063 42:0.031879039 
-0.002579331415604074 0.01 0 0.01 1:-0.50302404 2:0.10285156 3:0.67935113 4:-0.78912113 5:-0.81368868 6:-0.61274863 7:-0.27500113 8:-0.58419139 9:0.50103876 10:0.69974398 11:-1.1693504 12:-1.1867499 13:-0.11820841 14:1.1072956 15:0.12412934 16:0.58844265 17:-1.8684397 18:-0.55245052 19:-0.86760459 20:-0.14869516 21:-0.8529506 22:-0.62621342 23:0.8379824 24:-0.01378604 25:-0.38522287 26:0.36109323 27:-0.22447762 28:-0.27955863 29:-0.57577476 30:-0.27898859 31:0.22386103 32:0.46373062 33:0.31486463 34:0.31135909 35:0.81276853 36:1.0529343 37:0.68790819 38:0.89943578 39:0.38997267 40:0.96241207 41:0.89406074 42:1.4408351 
-0.01 0.01 0.01 0.01 1:0.25218908 2:-1.0772782 3:0.35312331 4:0.28022562 5:0.041935049 6:0.59306411 7:-0.51555395 8:0.36809487 9:-0.20943282 10:0.053112365 11:-0.60268539 12:-0.42251163 13:-0.36871035 14:-0.040197738 15:-0.78422508 16:-0.026135875 17:0.4208237 18:-0.18600395 19:-0.3164669 20:-0.82936223 21:0.79398914 22:0.20895153 23:-1.1037756 24:-0.73835331 25:0.15463533 26:0.45238717 27:0.010105369 28:-0.5943247 29:0.3514729 30:-0.39189376 31:-0.54852451 32:0.47736689 33:0.22389504 34:0.65860617 35:-0.062362999 36:0.39565916 37:0.49863523 38:-0.24251795 39:0.08224524 40:-0.50970141 41:-0.20064454 42:0.57469876 
-0.01 0.01 0.01 0.01 1:-0.7246408 2:-0.87450103 3:-0.73722811 4:-0.91646776 5:-0.67588981 6:-0.69279159 7:-0.23601874 8:-0.69890848 9:-0.26874433 10:0.87416253 11:-0.050111137 12:0.81303328 13:0.34961094 14:0.35184119 15:-0.84660303 16:-0.50215264 17:-0.90245946 18:-0.69432799 19:0.19857794 20:0.47828974 21:-0.85645647 22:-0.7578818 23:-0.38725385 24:-0.33553615 25:-0.63110494 26:-0.37149935 27:-0.41512988 28:-0.38651346 29:-0.60499763 30:-0.056961958 31:-0.46517272 32:-0.57741726 33:-0.88127027 34:-0.0016329288 35:0.27543723 36:0.36941235 37:0.032535649 38:-0.30639773 39:-0.023319398 40:-0.054861727 41:-0.48524433 42:-0.097609998 
-0 0.01 0.01 0.007486336870504533 1:1.5390594 2:-0.4785141 3:-0.17798797 4:1.4315912 5:0.52527468 6:0.67432153 7:0.012724788 8:1.1186177 9:-0.45147695 10:-0.48754362 11:2.1070966 12:0.076302806 13:-0.68094173 14:-0.25790176 15:-0.62758661 16:1.2297283 17:1.5016933 18:-0.29567282 19:2.0490928 20:-0.12553079 21:1.0811951 22:2.4221159 23:0.5172168 24:0.86455677 25:2.3918292 26:0.41562987 27:2.5567564 28:0.028319189 29:2.2983593 30:0.72759681 31:2.1633189 32:1.4049901 33:0.10763656 34:0.74718498 35:-0.61725742 36:0.44338895 37:0.41956113 38:0.20551118 39:0.52371059 40:0.1436838 41:0.64466297 42:1.0519612 
-0.0009712324187297434 0 0.002570391973367043 0.01 1:0.38366117 2:-0.22037036 3:-0.043153223 4:0.33253822 5:0.289021 6:0.17763929 7:-0.30498301 8:0.43419426 9:-0.04544585 10:0.46172844 11:0.3127899 12:-1.8013887 13:-2.1626099 14:0.26815762 15:-0.85577624 16:1.7119983 17:0.49438184 18:1.3566771 19:-0.69924257 20:0.1845835 21:0.22711743 22:0.047651926 23:0.41406051 24:-0.11696658 25:0.16334824 26:0.077136594 27:0.29437932 28:-0.44356423 29:0.40306788 30:0.019804147 31:-0.0015484217 32:0.25119607 33:0.19191645 34:0.93787361 35:0.84397788 36:0.60322441 37:-0.46759516 38:-0.41687817 39:-0.28057141 40:0.095078834 41:-1.2902299 42:0.66610639 
-0.01 0.01 0.01 0.01 1:-0.60983491 2:-0.93034927 3:-0.93444593 4:-0.47254294 5:-0.32009653 6:-0.51738338 7:0.26180776 8:-0.366389 9:-1.0758672 10:0.31177555 11:0.19657721 12:0.25491386 13:0.1423197 14:-0.37617226 15:1.6028938 16:0.23884905 17:-2.1921881 18:-0.66534371 19:-0.67474818 20:0.25732927 21:1.3899272 22:-0.47683743 23:-0.77266555 24:0.85502469 25:0.13797217 26:0.59490512 27:0.040692783 28:1.1288541 29:0.26936204 30:-0.11947581 31:-0.36204871 32:0.079705298 33:0.14051791 34:0.068860954 35:0.53060028 36:0.53337994 37:-0.5016306 38:2.0755174 39:0.77638546 40:0.061137327 41:0.32439919 42:-0.013646773 
-0 0.01 0 0.004758319447037528 1:-0.017645028 2:0.36507349 3:-0.29318725 4:-0.11854863 5:-0.33577333 6:-0.077030357 7:0.04428116 8:-0.0028898566 9:0.4022991 10:0.5758834 11:-0.09663273 12:-0.81379985 13:0.77140433 14:-2.2844761 15:-0.01308789 16:0.66026971 17:1.0989211 18:0.32521583 19:-0.93084254 20:-0.6751947 21:-0.48815153 22:0.89234588 23:1.0576777 24:0.13976804 25:1.0007676 26:0.43737015 27:0.91952757 28:0.034406421 29:0.93100517 30:0.57875679 31:1.3220012 32:1.6410283 33:1.5125219 34:1.4140696 35:1.5202273 36:1.5578018 37:1.3210654 38:0.90665965 39:1.1410077 40:0.48555543 41:0.6065995 42:0.11223743 
-0.01 -0.01 0.004809153813765627 0.01 1:-0.88332112 2:-0.20084118 3:-0.36937108 4:-1.0064046 5:-0.82149749 6:-0.95904303 7:0.62317354 8:-0.83399069 9:0.00247601 10:1.3782215 11:0.91037064 12:0.20542609 13:0.28050968 14:-1.0510882 15:-0.93078005 16:-0.080360371 17:-0.35958554 18:-1.1138865 19:-1.1337051 20:-0.92264129 21:-0.94086966 22:-0.37300979 23:0.509144 24:0.30727321 25:-0.00070694023 26:0.78641665 27:-0.10226109 28:0.2647732 29:-0.28877889 30:0.35211766 31:0.16522541 32:0.69205234 33:0.90293697 34:0.21200429 35:0.93678067 36:0.19021641 37:0.089854469 38:0.47021998 39:0.8790671 40:0.34784742 41:0.77166826 42:0.2650947 
-0.01 -0.01 0.01 0.01 1:-0.53964164 2:-0.65916153 3:-0.73008114 4:-0.49552145 5:-0.37690934 6:-0.69671987 7:0.023681943 8:-0.44460051 9:-0.35077833 10:0.85681062 11:0.85482399 12:0.77523017 13:0.27722765 14:-0.58760237 15:-0.036791897 16:-1.2209629 17:0.039513674 18:-0.75639675 19:0.48545811 20:0.34222586 21:0.11735059 22:0.6101822 23:-0.49839966 24:0.4643463 25:0.9361763 26:0.60052698 27:0.17471539 28:0.21046474 29:0.84231899 30:1.4135793 31:0.66691963 32:0.88586926 33:0.43450405 34:0.27878532 35:0.30475808 36:0.27499267 37:1.5576433 38:-0.36704821 39:0.72226633 40:-0.50897657 41:-0.38586648 42:-0.1448966 
-0.01 -0.01 0.01 0.01 1:-0.14019112 2:1.2901492 3:0.51378257 4:-0.30461789 5:-0.59597656 6:-0.2867835 7:-0.038054572 8:-0.27598621 9:0.87324393 10:0.16369403 11:-0.15921276 12:0.74745518 13:-1.1777011 14:-2.0470447 15:-0.45966041 16:0.33966629 17:1.3210014 18:0.51646619 19:0.22784293 20:0.15212964 21:-0.43613292 22:0.072589213 23:1.6437664 24:-1.3755036 25:-0.16117027 26:-0.60878705 27:-0.13735672 28:-0.36277599 29:0.16739485 30:-0.96609362 31:-0.41499132 32:-0.70618515 33:-0.76220094 34:-1.6481337 35:-1.2110901 36:-1.3018098 37:-1.9364098 38:-1.7486567 39:-1.4905435 40:-1.5333865 41:-1.4776816 42:-1.7241503 
-0.01 -0.01 0.009244553850462502 0.00836671311750223 1:-0.66612104 2:-0.4801465 3:-1.325722 4:-0.83790835 5:-0.65588569 6:-0.74412407 7:0.050272712 8:-0.66666416 9:0.23686316 10:1.2825417 11:-1.4336548 12:-0.86116805 13:-0.9271914 14:0.5388654 15:0.64407089 16:-1.4970153 17:-0.35748 18:-0.99690257 19:-0.03486769 20:-0.67799019 21:-0.13432676 22:-0.43778905 23:-0.37233471 24:1.0937324 25:0.11040582 26:1.4287666 27:-0.40303228 28:-0.19433048 29:-0.2755242 30:0.049501985 31:-0.24984878 32:1.7329656 33:1.0660614 34:0.11202428 35:0.33479102 36:0.099696381 37:0.13730807 38:-0.71717508 39:-0.19061947 40:-0.15552264 41:0.42468952 42:1.0929257 
-0 -0.01 0 0 1:0.30105481 2:0.65695381 3:0.11921848 4:0.075943519 5:-0.80591218 6:0.10515489 7:-0.17841352 8:0.2141733 9:0.41577837 10:0.38691697 11:-0.15875257 12:-0.062186413 13:-0.93125054 14:-0.30694957 15:-1.3933289 16:-0.95921265 17:-0.17616947 18:-1.7511448 19:-0.12091401 20:-0.51325584 21:-0.74632486 22:1.7927893 23:2.0350086 24:1.0945446 25:1.7639743 26:0.61351794 27:1.0034031 28:-0.2056811 29:1.0183932 30:0.36140425 31:1.318545 32:1.6180246 33:1.4056864 34:1.6250073 35:0.77558501 36:1.1796731 37:0.39202877 38:1.8900955 39:1.6917645 40:1.1403968 41:-0.3027318 42:0.29559862 
-0.01 -0.01 0.01 0.01 1:-0.24278423 2:-0.42830463 3:0.78577052 4:-0.39538993 5:-0.64021737 6:-0.21134685 7:-0.24993405 8:-0.34281707 9:0.54415141 10:0.2337011 11:-0.56619814 12:-1.2679656 13:-0.51971252 14:-0.6763335 15:-0.56920967 16:-2.6702729 17:-0.23285764 18:-0.46684363 19:-0.45942807 20:0.39605944 21:0.1361898 22:-0.42386014 23:-0.58634751 24:-0.77397197 25:-0.47380693 26:-0.033147461 27:-0.35248835 28:-0.4070044 29:-0.48010044 30:-0.7316737 31:-0.2904252 32:0.236403 33:-0.077638633 34:-0.50916996 35:0.022932987 36:0.41781434 37:0.4885563 38:0.31979954 39:0.87674039 40:1.3122812 41:1.1878509 42:1.1979849 
-0 -0.01 0 0 1:-0.17961897 2:0.74624632 3:-0.41446459 4:-0.27491854 5:-0.55194683 6:-0.378168 7:-0.31930764 8:-0.1985436 9:0.60531803 10:0.84533253 11:-0.52129674 12:-1.8365862 13:-0.83409303 14:-1.2460389 15:0.023928175 16:1.1460158 17:-0.74145362 18:0.067438864 19:-0.10113311 20:1.1424094 21:-1.9807949 22:1.399878 23:0.39005915 24:1.398526 25:1.4472799 26:0.99291401 27:1.2223157 28:-0.29822903 29:1.3294731 30:0.10540511 31:1.4895769 32:2.2967011 33:1.0775969 34:0.77432125 35:1.1204005 36:0.55275273 37:0.47785673 38:0.36641194 39:1.7759975 40:0.28995579 41:0.70869841 42:1.1305876 
-0 -0.01 0.007842616153695633 0 1:2.5735334 2:-0.46952093 3:-0.45319322 4:2.3918886 5:0.79797325 6:0.73766483 7:-0.0074739756 8:1.6871998 9:-0.45632948 10:-0.74418225 11:1.1917386 12:0.34704152 13:-1.2857077 14:-0.5523093 15:-0.12797121 16:-1.573286 17:-0.63739164 18:-0.93721069 19:-0.17415659 20:-1.0756238 21:0.29538263 22:3.7373761 23:0.32035412 24:2.000737 25:3.4550141 26:0.44195123 27:1.6300925 28:0.0070440186 29:2.5087148 30:1.4557744 31:2.1815159 32:0.26756698 33:1.5007059 34:1.5949474 35:0.15618219 36:0.46330024 37:0.73044349 38:1.0489582 39:1.9348322 40:1.0725404 41:0.1932513 42:1.2889058 
-0.002624024165862711 -0 0 0.01 1:-0.70585561 2:3.695463 3:1.2791074 4:-0.84444248 5:-0.47234551 6:-1.1097312 7:0.34675317 8:-0.75450851 9:0.43828811 10:1.3764483 11:1.0046672 12:-0.25035703 13:0.34735881 14:0.2147086 15:-1.594414 16:-2.5857114 17:-2.4177311 18:-2.0491348 19:-2.4949294 20:-2.3430399 21:-1.7296863 22:0.47512769 23:1.1386458 24:0.016493421 25:0.47322275 26:-0.1301745 27:-0.45760779 28:0.35951279 29:0.15544545 30:0.0025126808 31:0.1252579 32:0.55900128 33:0.68155398 34:-0.4491068 35:-0.14872767 36:-0.32440766 37:1.6987779 38:0.24453593 39:-0.33697418 40:-0.051349686 41:-0.40400059 42:-0.018661379 
-0 -0.01 0 0.003565545113071728 1:-0.62687226 2:0.80351689 3:-0.11081643 4:-0.59838917 5:-0.20655619 6:-0.95339529 7:0.41079939 8:-0.65837142 9:-0.17070005 10:0.81569365 11:0.59201023 12:-1.3726654 13:-0.9032642 14:0.42382072 15:-1.1704252 16:-2.3335761 17:-2.3013879 18:-1.5399631 19:0.23202976 20:1.8571042 21:1.5878186 22:0.15334775 23:1.973171 24:2.1213967 25:0.47151721 26:1.078042 27:0.15417408 28:0.44360022 29:0.17738068 30:1.287451 31:1.4757679 32:-0.30216364 33:1.6574495 34:0.6500953 35:0.7238876 36:0.77148179 37:2.2491759 38:1.3948535 39:0.6541554 40:-0.43004036 41:2.320885 42:-0.63739304 
-0.001783686062062118 -0.01 0.01 0 1:-0.01588806 2:-0.86410386 3:0.48072437 4:0.14818665 5:0.11116609 6:0.020792293 7:-0.23426681 8:0.022921373 9:-0.4278388 10:0.040267563 11:-1.5805011 12:-1.483646 13:-1.9330568 14:-1.0987716 15:-0.0091228459 16:-1.733604 17:-0.72663525 18:-0.058788464 19:-0.44513336 20:-0.046944772 21:-2.2802853 22:0.49191278 23:-0.57841309 24:0.4377465 25:0.36486944 26:0.46306201 27:0.62602006 28:0.036843489 29:0.75160525 30:0.68078757 31:-0.32158235 32:0.23669842 33:0.30195463 34:0.89704216 35:0.91942913 36:0.26665387 37:0.35442708 38:-0.2582552 39:-0.18607312 40:0.51647904 41:0.94230041 42:1.0191496 
-0 -0.01 0 0 1:-0.53732786 2:-0.24535639 3:-0.83323287 4:-0.7575857 5:-1.0794464 6:-0.50640113 7:0.26459025 8:-0.47758385 9:-0.4304475 10:0.40771851 11:0.44644611 12:-0.11916678 13:-0.58215089 14:-0.29872155 15:0.67223769 16:-0.89112892 17:-0.19605655 18:0.0072287222 19:-0.76052618 20:0.12812644 21:-1.1236666 22:0.206091 23:1.0256568 24:2.2320866 25:-0.10926225 26:0.52549154 27:0.78447287 28:0.07929272 29:0.23361583 30:1.4246671 31:1.3156063 32:0.96484336 33:1.2358696 34:1.1062955 35:0.13292444 36:0.86766974 37:1.0484492 38:0.76365188 39:-0.1059316 40:0.40819382 41:0.58553166 42:1.3653483 
-0 -0.01 0 0 1:-0.38944376 2:-0.31684801 3:-0.26766711 4:-0.51518214 5:-0.81256508 6:-0.59124959 7:0.22934744 8:-0.48558908 9:-1.0403075 10:0.057604464 11:0.012487517 12:-1.0285994 13:-0.41109069 14:-0.49184873 15:-0.52439076 16:-0.5974078 17:-0.1775579 18:-0.19495996 19:-0.29059274 20:0.38083665 21:0.79905872 22:0.6852024 23:0.89975902 24:0.56814849 25:0.26965161 26:0.84685905 27:0.64334682 28:0.29386795 29:0.34427771 30:3.2259204 31:1.7479059 32:0.93101805 33:2.870478 34:1.755752 35:0.24203991 36:-0.11763647 37:1.0390765 38:1.6093584 39:0.56222144 40:0.83788645 41:0.82889169 42:-0.035119604 
-0 -0.01 0.01 0.005735171699825913 1:-0.30810097 2:-0.12868714 3:0.012154038 4:-0.70068557 5:-1.2256712 6:-0.21734002 7:0.086687525 8:-0.2853383 9:-0.68466939 10:0.20410644 11:-0.36000936 12:-0.55475188 13:-0.039940373 14:-1.1215386 15:-1.1397853 16:-0.05209753 17:-0.11010072 18:-1.0856674 19:-0.12003788 20:-0.56535429 21:-0.2820615 22:0.37767256 23:0.70391853 24:0.72598336 25:-0.078567436 26:0.083640292 27:1.2916119 28:0.21572843 29:0.33045166 30:1.0445018 31:1.6336281 32:0.79414935 33:1.3899723 34:0.48054127 35:0.69219343 36:0.99809509 37:0.090712403 38:1.1828785 39:1.0982598 40:0.80504182 41:1.2815223 42:1.4622029 
-0 -0.01 0.01 0 1:-0.56693335 2:-0.74063283 3:-0.72111591 4:-0.80746854 5:-1.0944845 6:-0.54777799 7:0.33280893 8:-0.64744613 9:-1.4567068 10:0.26366249 11:-0.58096314 12:-0.60273607 13:0.072117925 14:-0.75935373 15:-0.40951795 16:-0.2157785 17:0.60456971 18:-0.94482124 19:-0.011095612 20:-0.20846522 21:-0.3264102 22:-0.14003216 23:-0.073285559 24:1.0675999 25:-0.37239383 26:0.44741554 27:0.1705311 28:0.15975767 29:-0.29896601 30:2.2731832 31:1.0825644 32:2.2501125 33:1.5194115 34:1.0643701 35:0.53677278 36:0.47238014 37:0.57879599 38:0.83181711 39:0.79171833 40:0.73066892 41:0.43501643 42:0.88323012 
-0 -0.01 0 0 1:-0.20224285 2:-0.10655658 3:-0.52476692 4:-0.64284936 5:-1.4258927 6:-0.17604951 7:0.10952634 8:-0.28933022 9:-0.37451732 10:0.023181761 11:-0.81658963 12:-0.94030468 13:-0.89246255 14:-2.2987015 15:0.45683459 16:1.2751243 17:-0.62188023 18:-0.54710566 19:-1.9236102 20:-0.3693981 21:-1.0169497 22:0.27001935 23:1.2531008 24:1.2262707 25:-0.13918411 26:0.54028157 27:0.74699618 28:0.019354497 29:0.077032959 30:1.8163993 31:1.6740638 32:1.9386848 33:1.5832759 34:1.2509644 35:0.55815842 36:0.26190543 37:0.65892705 38:0.4166843 39:1.3579371 40:2.1402676 41:1.5603163 42:1.1672118 
-0 -0.01 0 0.01 1:0.27436213 2:-0.37877953 3:0.83275944 4:0.83736192 5:1.0956525 6:0.29677217 7:-0.38481047 8:0.47948988 9:0.33296273 10:0.1854551 11:-0.7287833 12:-1.0808224 13:-0.47551906 14:-1.9478391 15:-1.3749129 16:-1.7530816 17:-1.7635141 18:-1.3598612 19:-0.66364131 20:-0.57872564 21:-0.31542508 22:0.75114635 23:-0.0092819742 24:-0.31682455 25:0.92939712 26:1.0629786 27:1.1244847 28:-0.4206523 29:1.5517485 30:-0.10827139 31:0.55518583 32:0.68694753 33:1.0148084 34:-0.25690757 35:0.46031561 36:0.78619602 37:0.98658062 38:1.8445036 39:0.19241507 40:1.8549256 41:2.0277296 42:1.3499669 
-0.002349075521542858 -0.01 0.01 0.01 1:0.54732259 2:-0.9481761 3:0.84508477 4:0.71892265 5:0.54252696 6:0.53198416 7:-0.41992249 8:0.51343076 9:-0.615209 10:-0.8595983 11:-0.29033556 12:-0.32120273 13:-0.10597448 14:-1.0431768 15:-0.3073284 16:-1.3501893 17:-0.87421644 18:0.4216947 19:0.78170489 20:1.5836575 21:-0.17162456 22:0.53449627 23:-0.81535096 24:-0.3352407 25:0.26237826 26:0.46724125 27:1.1627975 28:-0.36520493 29:0.95948507 30:0.43251948 31:0.83837956 32:1.3222396 33:1.8553623 34:0.92336949 35:1.5624857 36:0.92220946 37:1.3752023 38:0.79922957 39:0.7177299 40:1.1567294 41:1.0079577 42:1.1036512 
-0 -0.01 0 0.001705265425347045 1:-0.48326929 2:-0.83159519 3:0.10696989 4:-0.4038965 5:-0.14440606 6:-0.69768782 7:0.28500094 8:-0.45077718 9:-1.5441205 10:0.19654996 11:1.3923813 12:-1.7708959 13:-0.95249387 14:-1.0207657 15:0.91104335 16:1.6077685 17:0.090420901 18:0.21949975 19:-0.64090759 20:-0.99625516 21:-1.162993 22:0.49808556 23:-0.10789843 24:0.56767028 25:0.79614116 26:0.74937641 27:0.71056492 28:0.57319942 29:0.78079186 30:1.0159101 31:0.59720955 32:0.80443653 33:2.5581965 34:1.0477758 35:1.1072524 36:0.69172132 37:0.15645849 38:0.92172291 39:1.1921898 40:0.93046158 41:0.97848628 42:0.032382675 
-0.01 -0.01 0.01 0.01 1:-1.1177834 2:0.1543403 3:-0.67362195 4:-0.68489878 5:0.393803 6:-1.152796 7:1.6618251 8:-1.1135272 9:-0.84207708 10:0.36720737 11:0.32632071 12:0.039595983 13:0.17293149 14:0.96043196 15:0.086571376 16:-0.31511311 17:0.86713651 18:-0.17840844 19:0.31502285 20:-0.95653417 21:-0.79523167 22:-0.14375105 23:2.9322371 24:1.7218959 25:0.95596173 26:1.7883274 27:-0.54575609 28:1.8545187 29:-0.45943827 30:1.1430569 31:0.10381256 32:0.42389571 33:0.02763519 34:0.19976819 35:-0.091504941 36:-0.75607863 37:0.029220287 38:-1.3390411 39:0.17092125 40:0.24500223 41:-0.84332316 42:0.15019842 
-0 -0.001525257009055581 0 0 1:0.10970038 2:0.64900826 3:-0.40381772 4:-0.1223707 5:-0.41096102 6:-0.20165967 7:0.06167419 8:0.049758845 9:0.14399281 10:0.70397838 11:-0.083614393 12:-0.093907004 13:-0.51129122 14:-0.42463981 15:-1.0153379 16:-0.1999628 17:-1.2817452 18:-2.1288052 19:-1.4018503 20:-0.62962472 21:-0.84856312 22:2.0017923 23:2.2738044 24:1.8714367 25:1.9804665 26:1.9445493 27:1.5119509 28:0.041495286 29:1.7958758 30:1.0031981 31:1.5769398 32:1.2283494 33:0.53905031 34:1.2769327 35:0.92826975 36:2.0278206 37:1.5280902 38:1.3809222 39:1.0745411 40:1.3248769 41:0.98106332 42:2.1685035 
-0 -0.01 0 0.002721941939217351 1:-0.094524933 2:1.3122515 3:-0.22278822 4:-0.18688753 5:-0.53180058 6:-0.57658901 7:-0.035267176 8:-0.14135656 9:0.48100951 10:0.82836244 11:0.43479022 12:-0.67543501 13:-0.94807079 14:-0.1277416 15:-0.35331492 16:0.57719681 17:0.050105471 18:-0.54806124 19:-1.0530659 20:-1.306432 21:-2.4397534 22:1.5466784 23:1.988012 24:0.5168381 25:1.6934361 26:1.9525628 27:0.53304565 28:-0.12664473 29:1.3267619 30:0.75316688 31:0.6744343 32:1.0048094 33:0.34679082 34:1.1451897 35:0.63961961 36:0.30555173 37:0.054570872 38:-0.22428605 39:0.85932388 40:0.6396562 41:1.0132025 42:2.3633929 
-0 -0.01 0.0007921412097973966 0.009977602136498192 1:2.1975857 2:-0.72496158 3:0.28565632 4:2.0432251 5:0.42131785 6:1.5316034 7:-0.54638173 8:1.9092926 9:-0.026148302 10:-1.2512373 11:0.98123911 12:-0.86183023 13:0.40691487 14:0.22738516 15:-0.089924957 16:-0.82915396 17:1.4082761 18:0.43733411 19:0.89702778 20:-0.30300071 21:-0.035127552 22:2.978893 23:-0.38740925 24:0.63894402 25:2.6959993 26:0.4712101 27:2.0070488 28:-0.43865448 29:2.3007542 30:0.35196503 31:1.9643547 32:2.9548789 33:1.4868458 34:-0.077343521 35:2.1617357 36:0.34908841 37:1.3471565 38:0.34084495 39:0.88016209 40:0.37251315 41:0.89382323 42:1.0302591 
-0 -0.00965571216523654 0 0.01 1:-0.2321416 2:0.4357723 3:0.99675822 4:-0.41130078 5:-0.91646783 6:-0.11932679 7:0.46883946 8:-0.32715117 9:0.41982207 10:-0.30822921 11:-1.6752868 12:-1.4745213 13:-2.5171864 14:1.6667599 15:-1.2183984 16:-0.2364066 17:-1.5042196 18:-0.9214145 19:-0.80028284 20:-0.24624542 21:-1.2691261 22:-0.34833513 23:1.6341558 24:-0.16276241 25:-0.58961044 26:-0.20974886 27:0.10819592 28:0.19642187 29:-0.52579187 30:0.081215502 31:0.58318216 32:1.0376426 33:1.6456347 34:2.3541956 35:2.0430817 36:3.1564624 37:1.9068868 38:2.4440815 39:2.0130662 40:2.8824992 41:2.1063209 42:1.1762496 
-0.01 -0.01 0.01 0.01 1:-0.96391838 2:-0.21772902 3:-0.14653963 4:-0.70919805 5:0.13129956 6:-1.0714351 7:0.23878791 8:-0.76825794 9:-0.061025211 10:1.0633621 11:0.87771009 12:0.95163565 13:0.78416419 14:0.76267654 15:0.52982939 16:1.1277889 17:0.19373166 18:0.4953115 19:0.70857148 20:0.0038553765 21:0.47776391 22:0.12920548 23:-0.0077980425 24:-0.55464661 25:1.0852757 26:1.9151177 27:-0.02319039 28:0.27427288 29:0.48636552 30:-0.045521922 31:0.38897375 32:0.27653041 33:-0.22834144 34:-0.10011873 35:0.51123085 36:-0.36408929 37:-0.0016737827 38:-0.37915428 39:-0.3351828 40:0.10544222 41:-0.37867644 42:-0.28162554 
-0.01 -0.01 0.01 0.01 1:0.085971546 2:-0.48663919 3:0.6908523 4:-0.21449775 5:-1.0598467 6:0.51501867 7:-0.46995074 8:0.360506 9:0.48393937 10:-0.61635166 11:-1.4861461 12:-0.32645898 13:-1.0186 14:1.4190314 15:-1.2289228 16:0.46038078 17:-0.78490535 18:0.83557527 19:0.073819102 20:0.22063222 21:-1.7652266 22:0.22730512 23:-0.15889807 24:0.17936583 25:0.15554503 26:0.93196317 27:0.13332313 28:-0.49651691 29:0.48218423 30:-0.21477523 31:0.11647033 32:0.82881415 33:2.0225768 34:0.10370455 35:0.40015593 36:0.99871363 37:1.0487665 38:-0.27073428 39:-0.85440322 40:-0.17964495 41:-0.10082681 42:0.43164008 
-0.01 -0.01 -0.01 0.01 1:-0.82038467 2:-1.138242 3:-1.1390168 4:-0.8066682 5:-0.37689858 6:-0.76205793 7:0.095363174 8:-0.7261137 9:-0.94701587 10:0.9404535 11:0.77329177 12:1.6611866 13:0.33467407 14:-0.24114624 15:0.70584221 16:0.48238114 17:0.15435771 18:0.23309852 19:0.45612861 20:0.2975309 21:0.33164673 22:-0.49420957 23:-0.85952773 24:0.67542482 25:0.069725353 26:-0.46868906 27:0.82528063 28:-0.052615044 29:0.28209504 30:0.72246946 31:0.55363197 32:-0.54820231 33:-0.57367018 34:-0.98752667 35:-0.93808095 36:-0.66719357 37:-0.41527376 38:-0.21314303 39:0.2378382 40:0.09375039 41:-0.056976298 42:-0.22047264 
-0 -0.01 -0.01 0.01 1:0.89313718 2:-1.1890644 3:0.56392945 4:0.62897501 5:0.26582898 6:0.81709723 7:-0.5345141 8:0.86751134 9:-0.41371513 10:-0.22064922 11:0.2457559 12:0.061291353 13:-0.039981274 14:-0.18486741 15:-0.81320402 16:0.19842759 17:-0.030238066 18:-0.11620627 19:0.85482035 20:-0.55843508 21:-0.075550338 22:1.150621 23:-1.1764724 24:-0.45228894 25:0.73351199 26:-0.32105923 27:1.0826409 28:-0.47945859 29:1.0683926 30:0.35375856 31:0.041556379 32:-0.66686847 33:-0.48621604 34:-0.41232654 35:-0.622191 36:-1.0032354 37:-0.4794545 38:-0.38846695 39:-0.30806158 40:-0.47343853 41:-0.22848208 42:0.051684856 
-0 -0.01 -0.01 0.01 1:0.22546563 2:-1.2365564 3:-0.44192215 4:0.29213024 5:0.14696801 6:0.6640891 7:-0.42477887 8:0.35603096 9:-1.2372697 10:-0.24353564 11:0.10362962 12:0.71449363 13:-0.18062344 14:-0.72415857 15:-0.077946452 16:0.59712548 17:-0.29991929 18:-0.79259085 19:0.83886616 20:-0.34226016 21:0.83120181 22:0.081855075 23:-1.1171657 24:1.2230799 25:0.057397416 26:0.050442159 27:1.1507939 28:-0.43865525 29:0.66285115 30:1.2371504 31:0.29005007 32:0.27944256 33:0.18520379 34:0.38890093 35:0.59752701 36:0.1361513 37:-0.21014369 38:0.58734987 39:1.293672 40:0.091987211 41:1.4267532 42:0.83701995 
-0.01 -0 -0 0 1:-1.5312163 2:-0.37419565 3:-0.94633191 4:-1.3187783 5:-0.086804443 6:-1.4098363 7:4.2882873 8:-1.2966993 9:-0.8721855 10:0.49332609 11:0.75675534 12:0.58528515 13:0.76639908 14:0.36006196 15:0.44256571 16:0.55801296 17:0.7830215 18:0.9034027 19:0.50267827 20:0.25607917 21:0.53821588 22:-1.1731204 23:0.60334007 24:0.13687489 25:-0.096356936 26:0.71002782 27:-1.109573 28:3.4673453 29:-0.97034098 30:0.64146432 31:-0.88938052 32:-1.5647547 33:-1.9793347 34:-2.3877244 35:-2.7899969 36:-2.9801465 37:-3.1327712 38:-2.9247651 39:-2.8921367 40:-2.8883243 41:-3.1810668 42:-2.8986286 
-0.01 -0 -0 0 1:0.38787875 2:-1.2985817 3:0.56654282 4:0.31674091 5:-0.12025517 6:1.2287973 7:-0.63872333 8:0.2710405 9:-2.0343867 10:-1.4985422 11:-2.1429708 12:0.83522531 13:0.24941441 14:0.92091671 15:-0.22680872 16:-0.018828599 17:2.4053259 18:1.6086436 19:0.15835704 20:0.35657801 21:0.71487295 22:-0.79724617 23:-1.5410772 24:1.1057554 25:-1.0405118 26:-0.65210148 27:-1.1354905 28:-0.62861026 29:-0.98306813 30:1.2382793 31:-0.59524 32:-0.62918806 33:-0.6114168 34:-0.73064215 35:-0.90519243 36:-0.64728536 37:-0.11773977 38:-0.98204109 39:-0.55759357 40:-0.33005295 41:-0.32528991 42:-0.28502475 
-0.01 -0.01 -0.01 0.01 1:-0.96309671 2:-1.0302029 3:-1.1326408 4:-1.1658466 5:-0.9005491 6:-1.0177319 7:0.33138076 8:-0.93365513 9:-1.2581035 10:0.97099717 11:-0.070684199 12:0.88319586 13:1.0128917 14:0.69204428 15:0.1162047 16:-0.788119 17:0.64333189 18:1.2891111 19:0.13655551 20:-0.49039594 21:0.51900205 22:-0.75198762 23:-0.17243115 24:-0.0044441164 25:-0.51725629 26:0.27556584 27:-0.63563359 28:0.59404175 29:-0.75382298 30:0.1744362 31:0.081973431 32:-1.0563516 33:-0.5432098 34:-0.58304226 35:-0.91011756 36:-0.96024657 37:-0.68063407 38:-0.74356203 39:-0.60898386 40:-0.23739003 41:-0.053126083 42:0.18986656 
-0.01 -0.01 -0.01 0.008813310203458085 1:-0.19933417 2:-1.2333661 3:0.31349052 4:-0.39020633 5:-0.59595225 6:0.13923822 7:-0.39527673 8:-0.36665305 9:-1.3773299 10:-0.030525345 11:-2.3074191 12:-0.88070141 13:-0.30259246 14:-0.71323588 15:-1.6569266 16:-1.263554 17:-0.49580377 18:-0.76967951 19:0.43779273 20:1.5993703 21:1.0407777 22:-0.79501776 23:-1.1715181 24:-0.54456618 25:-0.55738241 26:0.26239592 27:-0.41240864 28:-0.46783045 29:-0.73116741 30:1.2570167 31:-0.14942298 32:1.1524829 33:-0.59323184 34:-0.21027557 35:-0.51942689 36:-0.24796039 37:0.15447425 38:0.48940958 39:0.34956948 40:0.17780011 41:1.1445398 42:0.0063656855 
-0.01 -0 -0 0 1:1.0671997 2:-1.1265683 3:0.55806381 4:0.98653186 5:0.67313128 6:1.4553856 7:-0.5783951 8:1.2934862 9:-0.22299354 10:-0.81614022 11:0.41444372 12:-0.036499364 13:0.5222725 14:-0.7682204 15:-1.7483496 16:0.40798737 17:-0.10953348 18:0.19279576 19:0.4732841 20:0.090194507 21:0.25131057 22:-0.39665486 23:-1.2287461 24:0.20379615 25:-0.79646974 26:-1.5640827 27:-0.1382476 28:-0.42424964 29:-0.080512605 30:0.24035878 31:-0.31075243 32:-0.74313328 33:-1.3460964 34:-1.537134 35:-1.2760155 36:-0.48700722 37:-0.22650316 38:-0.19135248 39:-0.89451632 40:-0.7371316 41:-0.86604584 42:-0.20822209 
-0 -0.01 -0 0 1:1.6928531 2:-1.2040019 3:0.28194717 4:1.5077519 5:0.67026713 6:1.9030391 7:-0.44976344 8:1.7035924 9:-0.63982384 10:-1.8352068 11:-0.49773254 12:0.060548918 13:-0.012959666 14:-0.086900991 15:0.21345605 16:0.20392113 17:0.003731418 18:-0.0053000432 19:0.10917057 20:0.030280856 21:1.0929131 22:0.52219401 23:-1.4052298 24:0.57866557 25:-0.14429631 26:-1.09249 27:0.98501995 28:-0.28820865 29:0.6996042 30:-0.054254863 31:-0.2256997 32:-0.32434169 33:0.066542168 34:-0.27912213 35:0.19955792 36:0.054279262 37:-0.041807482 38:-0.34578346 39:-0.053077019 40:0.15410975 41:-0.12755609 42:-0.34316717 
-0 -0.01 -0.01 0 1:1.6138366 2:-1.1755681 3:-1.0846694 4:1.1978581 5:-0.62360117 6:2.0216088 7:-0.65277474 8:1.4698453 9:-0.9251158 10:-2.3436378 11:-1.0877658 12:0.35637498 13:-0.0040885344 14:-0.2452767 15:-0.63768043 16:-0.51749401 17:-0.73862372 18:-0.24609654 19:-0.54939399 20:0.053304455 21:0.71375308 22:-0.058472824 23:-1.2085019 24:2.1816234 25:-0.073876581 26:-0.42307134 27:-0.065069578 28:-0.61433191 29:0.042510899 30:0.4457216 31:0.50069197 32:0.065316303 33:0.04203483 34:0.37972038 35:-0.057779734 36:-0.18520769 37:0.061519123 38:0.13982011 39:0.29934826 40:0.03941213 41:-0.11676374 42:0.21588317 
-0.01 -0 -0 0.01 1:-0.84918055 2:-1.1110489 3:-0.38943201 4:-1.0515949 5:-0.73197822 6:-0.90052455 7:-0.37355262 8:-0.92068794 9:-0.22410025 10:1.2583549 11:-0.031674359 12:0.84713601 13:0.40693398 14:-0.47070015 15:-0.94519091 16:-0.091160096 17:-0.69381096 18:-0.40770628 19:-0.98555014 20:-0.89405196 21:0.088764243 22:-0.98133655 23:-1.1983311 24:-0.56490924 25:-1.0143633 26:-0.96407178 27:-0.91691663 28:-0.5618211 29:-1.0929582 30:-0.7036172 31:-0.89080805 32:-1.0038339 33:-1.3526389 34:-1.5580829 35:-0.79665488 36:-1.2996924 37:-1.3193854 38:-1.3869055 39:-1.6676313 40:-1.2169958 41:-1.3465153 42:-0.89460498 
-0 -0.01 -0.01 0 1:-0.39106431 2:-1.1701966 3:-0.78564148 4:-0.32960494 5:0.15438287 6:-0.16267805 7:2.5660236 8:-0.36675649 9:-1.7112423 10:-0.13310663 11:0.25464865 12:0.80131288 13:1.0262078 14:0.65290153 15:-0.16151446 16:0.25591125 17:-0.24605534 18:0.089712445 19:-0.15840853 20:-0.14601495 21:0.38745448 22:0.14918576 23:-1.1786255 24:0.70591209 25:0.35005998 26:1.1389624 27:1.6216749 28:3.3276308 29:0.580233 30:1.7708336 31:0.52257743 32:0.61566324 33:-0.22975155 34:-0.36225715 35:-1.0379231 36:-0.4202395 37:-0.30949392 38:-0.1442789 39:-0.56600751 40:0.19022253 41:0.18004365 42:-0.018799218 
-0 -0.01 -0.01 0 1:0.55090995 2:-1.2939568 3:-1.0013104 4:0.59322812 5:-0.040244615 6:1.2019118 7:-0.53251404 8:0.56468623 9:-1.7119457 10:-1.2477949 11:-2.713457 12:-2.2404345 13:-1.82898 14:-1.7466085 15:-2.0780277 16:-1.6478171 17:-1.3705731 18:-0.63117483 19:-0.36245305 20:-0.38266473 21:-0.23188132 22:-0.57921072 23:-1.5228065 24:2.7235766 25:-0.7447804 26:-0.65315034 27:-0.23866216 28:-0.60438014 29:-0.19611268 30:0.15920434 31:0.3333869 32:0.48013929 33:0.46401026 34:0.051140013 35:0.270617 36:0.031670831 37:-0.2823367 38:-0.036475034 39:-0.32012715 40:-0.8324474 41:-0.14108259 42:-0.59886201 
-0 -0.004682216694400088 -0.003851653253602255 0 1:0.10457384 2:-1.2279267 3:-1.5964367 4:0.69197838 5:1.4881045 6:0.11911109 7:0.33551833 8:0.056372663 9:-2.04577 10:-0.61764299 11:0.38546789 12:0.22362356 13:0.92872431 14:0.29644429 15:-0.040786876 16:0.6709198 17:0.11275326 18:-0.074212007 19:0.46303591 20:0.010190778 21:0.46656147 22:0.64635014 23:-1.1367356 24:2.6071634 25:0.49848118 26:0.53575559 27:1.4449873 28:0.74869733 29:1.2997511 30:2.5721228 31:-0.11033938 32:-0.97242579 33:0.73302499 34:-0.68638862 35:0.38864774 36:-0.65737118 37:-1.159983 38:-0.11431007 39:0.76931702 40:-0.41486682 41:-0.59356348 42:0.28128518 
-0.01 -0 -0 0.01 1:0.21650423 2:-1.0140527 3:0.33540343 4:0.62615353 5:0.85536412 6:0.56994227 7:0.45190732 8:0.36971183 9:-0.21970887 10:-1.2265506 11:-0.3164348 12:0.45737855 13:0.43211136 14:0.17500292 15:0.90211076 16:0.30719959 17:0.37372702 18:0.85712232 19:0.14397802 20:-0.00087769211 21:0.49867508 22:0.43159633 23:-1.1777044 24:-0.059277078 25:-0.31780571 26:-1.2752304 27:1.2121963 28:0.77966061 29:0.60679859 30:-0.064851199 31:-0.017571592 32:-0.70723695 33:-0.61312054 34:-0.93872207 35:-0.80352917 36:-1.0772374 37:-0.76033156 38:-0.51691893 39:-0.97213135 40:-0.47481087 41:-0.48908288 42:0.049088907 
-0.01 -0.001111928808730507 -0.0005258888517127053 0.01 1:1.4316081 2:-0.87500326 3:1.1987187 4:1.3101102 5:0.70273998 6:1.804132 7:-0.55332332 8:1.5746414 9:0.45402085 10:-1.6619182 11:-0.52131828 12:-0.078315192 13:0.28321125 14:-0.090874568 15:0.29569854 16:-0.20757967 17:-0.53437149 18:0.48277581 19:-0.23102787 20:0.38424597 21:0.8261507 22:0.079382465 23:-1.033779 24:-0.61963471 25:-0.65149472 26:-1.2631014 27:0.44823231 28:-0.43766089 29:0.14767783 30:-0.50569009 31:-0.52753358 32:-0.59443052 33:-0.62229561 34:-0.34462662 35:-0.58788164 36:-0.5504159 37:-0.44570548 38:-0.34322334 39:-0.14576781 40:-0.21064741 41:-0.0024024642 42:0.043563036 
-0 -0.01 -0.00200515182204664 0 1:-0.26319384 2:-1.2677377 3:-1.3228338 4:0.2679642 5:1.4231236 6:-0.62223926 7:0.01562894 8:-0.43820443 9:-2.2012766 10:0.7119884 11:1.5582397 12:-0.6518073 13:0.060728011 14:-1.0341013 15:-0.18235762 16:0.67618108 17:0.00167436 18:0.89340518 19:0.55347167 20:0.3524446 21:0.39185489 22:-0.075647056 23:-1.3495399 24:1.1773876 25:-0.030445842 26:-0.22783436 27:0.044388026 28:-0.21598994 29:0.60054049 30:0.30446989 31:-0.45777481 32:-0.087118684 33:-0.56496885 34:-0.74231059 35:-0.95759977 36:-0.47563988 37:-0.73187072 38:-0.83765016 39:-0.70759956 40:-0.12858263 41:-0.16141428 42:-0.66751139 
-0.01 -0.01 -0.01 0.01 1:-0.94996612 2:-1.0971955 3:-1.1472856 4:-0.9340927 5:0.22545088 6:-1.0750642 7:0.2375699 8:-0.88344885 9:-1.8129091 10:1.7252593 11:0.3925898 12:-0.051789193 13:0.054828297 14:-1.2895258 15:-1.0385057 16:-0.086168742 17:0.63466012 18:1.2961276 19:0.43810971 20:-0.47849902 21:-1.261017 22:-0.6323259 23:-0.21982548 24:0.57172638 25:-0.32809285 26:0.24757855 27:-0.23488276 28:-0.043523383 29:-0.44435094 30:1.7456757 31:0.043321839 32:0.53449712 33:-0.7532176 34:-1.2119794 35:-0.64468967 36:-0.1367436 37:0.3592477 38:-0.062394768 39:-0.28390821 40:-0.12434415 41:0.30506494 42:-0.9948668 
-0.01 -0.01 -0.01 0.01 1:0.18121742 2:-1.133099 3:0.18091298 4:-0.17126802 5:-0.39917827 6:0.40236877 7:-0.13411811 8:0.13721252 9:-0.80669268 10:-0.75362642 11:-0.82025523 12:0.75140068 13:0.3894143 14:0.91170257 15:-0.17356522 16:1.1552934 17:0.29024045 18:0.26401317 19:0.064992959 20:-0.17884034 21:-0.23182749 22:-0.03507677 23:-0.92395473 24:-0.23340712 25:-0.6942522 26:-0.76457242 27:0.0093516806 28:-0.25903411 29:-0.040102173 30:0.95453454 31:-0.7368081 32:-0.52448224 33:-0.25749049 34:0.091977793 35:0.15160491 36:-0.0092023629 37:0.41970785 38:-0.37859826 39:0.31346829 40:-0.27752629 41:-0.59059587 42:-0.015635615 
-0.002972937224565146 -0.0002199503300105211 -0 0 1:-0.78130094 2:-1.0051698 3:-0.41834984 4:-0.059908933 5:1.3580835 6:-0.99134207 7:5.1568273 8:-0.68345066 9:-2.0922548 10:0.05923079 11:0.87714725 12:0.3933185 13:0.37597639 14:0.32647494 15:0.16962382 16:0.44641108 17:0.42390067 18:0.38633195 19:0.43358531 20:0.28585631 21:0.60031315 22:1.1951084 23:-0.19573308 24:0.78689782 25:2.0247923 26:1.1203811 27:0.74452436 28:4.9907471 29:1.5098417 30:1.616515 31:0.39304554 32:-1.1932746 33:-1.0903603 34:-1.1263571 35:-1.6151444 36:-2.0252321 37:-2.0111301 38:-2.2049079 39:-1.6651164 40:-1.8503881 41:-1.7493236 42:-1.9152122 
-0 -0 -0.004028705023714649 0 1:2.9744333 2:-0.38588988 3:0.09631267 4:2.6947196 5:0.45752276 6:1.090487 7:-0.39884973 8:1.7802531 9:-0.87716034 10:-3.2951075 11:-0.54433838 12:0.69273712 13:3.0241764 14:-4.856947 15:2.6211176 16:0.51243846 17:-0.60777166 18:-1.6812226 19:3.3387526 20:-1.2185022 21:1.6013195 22:0.27580249 23:0.79405565 24:2.336572 25:0.093942482 26:0.90107886 27:-0.13097577 28:-0.42689239 29:0.46323516 30:1.418567 31:2.0623233 32:-0.32481873 33:-0.4600786 34:0.46504524 35:2.2985592 36:0.24613193 37:-0.33629854 38:-0.48490465 39:0.12502064 40:0.69264901 41:-0.64847486 42:-1.0414567 
-0.009147581699327096 -0 -0 0 1:3.3542905 2:-1.1286518 3:1.366044 4:2.8543414 5:0.59099687 6:3.0406549 7:-0.8071159 8:3.5383827 9:-0.59768314 10:-3.8994544 11:-2.5907895 12:-0.90808508 13:-0.24446057 14:-1.9048035 15:-1.1397323 16:0.092001365 17:0.21939233 18:-0.42414284 19:0.61212712 20:-1.1045744 21:-0.42713557 22:-0.8286992 23:-1.1837242 24:-0.88208824 25:-1.13922 26:-1.3908511 27:-1.3261235 28:-0.74196858 29:-0.81909949 30:-0.61260412 31:-0.23520875 32:-1.1492606 33:-0.96016871 34:-1.3912285 35:-1.6272414 36:-1.5431997 37:-1.5209497 38:-1.8407959 39:-1.8046659 40:-1.5786584 41:-1.4326868 42:-1.5939278 
-0.01 -0 -0 0.01 1:3.0255133 2:-0.65705339 3:1.9843811 4:2.4476534 5:0.63942474 6:3.1186859 7:-0.83455796 8:3.1493376 9:0.602398 10:-2.4146129 11:-0.5079188 12:0.28800818 13:0.1590734 14:-0.19611335 15:0.14250378 16:0.68387145 17:0.54357831 18:0.3066029 19:0.065076955 20:-0.43866467 21:0.36232571 22:-0.52511659 23:-0.79422535 24:-1.3923495 25:-0.94534163 26:-1.6570408 27:-1.2705155 28:-0.74045436 29:-0.93288393 30:-0.77493979 31:-0.67186269 32:-0.77568448 33:-0.76811615 34:-0.40162621 35:-0.79252288 36:-0.57621645 37:-0.66368835 38:-0.72172742 39:-0.52546208 40:-0.59457945 41:-0.68799429 42:0.21740848 
-0.01 -0 -0 0.005310320382502678 1:-0.43242439 2:-1.291268 3:-0.71604754 4:-0.14679971 5:0.62664421 6:-0.43172372 7:-0.28533322 8:-0.62546022 9:-2.3984848 10:0.32185001 11:0.5196373 12:0.82792795 13:0.7460589 14:0.53388571 15:0.3270501 16:0.27351214 17:0.3461457 18:0.15619618 19:0.3807545 20:0.036949768 21:-0.3639051 22:-0.4203433 23:-1.458274 24:0.1307744 25:-0.69654007 26:-1.4835835 27:-0.17602295 28:-0.45408462 29:-0.38327946 30:-0.40228921 31:-0.61271222 32:-0.72273158 33:-0.82274428 34:-0.99331617 35:-0.54189165 36:-0.54296955 37:-0.39727001 38:-0.14214746 39:-0.67656375 40:-0.12998946 41:0.1386428 42:-0.66916826 
-0.01 -0.01 -0.01 0.01 1:0.91146313 2:-0.95255187 3:0.88556613 4:0.95512568 5:0.80242279 6:1.3433846 7:-0.39434718 8:1.3141147 9:-0.21273892 10:-0.9445144 11:-0.088492782 12:0.26020987 13:0.30534828 14:-0.1931374 15:0.03683227 16:0.6494189 17:0.4585848 18:0.22128066 19:0.23326301 20:-0.22779098 21:0.42991152 22:0.084860804 23:-0.42558922 24:-0.63884087 25:-0.34259572 26:-1.4447574 27:0.62953996 28:-0.1123627 29:0.47606959 30:-0.63681321 31:-0.6041889 32:-0.79072735 33:-0.61077238 34:-0.20523664 35:-0.072808655 36:-0.14853583 37:-0.95198722 38:-0.14492462 39:-0.4796136 40:-0.19076915 41:-0.55154904 42:-0.48062587 
-0 -0 -0 0.01 1:1.6305852 2:-1.2563994 3:0.95446554 4:1.6916062 5:1.3968981 6:1.6892831 7:-0.6913728 8:2.2025756 9:-0.59692563 10:-0.74113719 11:0.56675192 12:0.10627923 13:0.64933 14:0.23810841 15:0.13453668 16:0.24536196 17:0.64222782 18:0.50773772 19:0.40397658 20:0.023488439 21:0.664414 22:0.43452385 23:-1.386158 24:-0.3870531 25:-0.28311821 26:-1.3211156 27:0.83963964 28:-0.56621299 29:0.63197782 30:-0.47310406 31:-0.54569824 32:-0.42312867 33:-0.71612796 34:-0.4093604 35:-0.50025422 36:-1.0229513 37:-0.36750087 38:0.035342308 39:-0.70962275 40:-0.36378001 41:-0.1589836 42:-0.25978459 
-0 -0 -0 0.01 1:2.5185239 2:-1.2286592 3:1.3848115 4:2.1356849 5:1.1661811 6:2.588154 7:-0.79707446 8:2.8860382 9:-0.22630397 10:-1.3209133 11:0.5439212 12:0.12396022 13:0.45540738 14:0.15399825 15:0.28550997 16:0.52728699 17:0.52723322 18:0.22865428 19:0.6697097 20:-0.34973372 21:-0.19095234 22:0.15877932 23:-1.4473978 24:-0.72936118 25:-0.50956991 26:-1.640454 27:0.011005059 28:-0.70770404 29:-0.17200227 30:-0.54896105 31:-0.78888088 32:-0.8222593 33:-0.50183466 34:-0.6134705 35:-0.3418527 36:-0.35656896 37:-0.58040381 38:-0.38039542 39:0.33130563 40:-0.26310151 41:-0.52686832 42:-0.52718903 
-0 -0.001728788679608377 -0.002277066076644903 0 1:-0.25800309 2:-1.129651 3:-0.36648071 4:-0.40517804 5:-0.37785455 6:-0.01493352 7:1.4704826 8:-0.29415162 9:-1.1334795 10:-1.054637 11:0.051647433 12:1.0807297 13:1.0025831 14:-0.51235941 15:-0.85268484 16:0.10187211 17:-1.0421773 18:-0.24755612 19:1.132179 20:-2.1962471 21:3.3480432 22:0.26907231 23:-0.97743402 24:0.66386953 25:0.18627818 26:0.24951485 27:1.3978554 28:2.9270541 29:0.38737311 30:1.7529203 31:0.36760297 32:-0.36056065 33:-0.7048111 34:-0.75901053 35:-0.01768044 36:-0.43583184 37:-0.032349731 38:0.1762678 39:-0.77415765 40:1.297739 41:-0.032940178 42:0.54916137 
-0.01 -0.01 -0 0 1:-0.74095362 2:-1.2250454 3:-2.5918256 4:0.12382276 5:1.5962955 6:-0.92629024 7:0.80185017 8:-0.86167433 9:-1.6687662 10:0.12591515 11:1.8132899 12:1.0470762 13:1.0603545 14:0.73509233 15:1.0292698 16:0.53244986 17:1.0219683 18:0.8065422 19:0.75422156 20:0.12035534 21:0.89139966 22:-0.074296171 23:-0.97685281 24:0.86208038 25:0.2684279 26:-0.57933776 27:0.064331797 28:0.42663841 29:0.5373351 30:0.10863694 31:-0.12450595 32:-0.21355895 33:-0.62299516 34:-1.0654872 35:-0.83984009 36:-0.51466323 37:-0.45248199 38:-0.61934029 39:-0.5704506 40:-1.2952285 41:-0.79561089 42:-1.36971 
-0 -0.01 -0.01 -0 1:-0.83051445 2:0.70518752 3:0.77014553 4:-1.2042566 5:-1.3775524 6:-0.93564555 7:-0.64037069 8:-0.75349658 9:0.50995518 10:1.0585919 11:-0.85907295 12:-1.5557154 13:-0.84916099 14:1.7306833 15:0.27009119 16:-1.3524305 17:-0.17738042 18:0.54400555 19:3.4646556 20:2.0397203 21:0.75784163 22:-0.84874303 23:1.5551054 24:-0.65253048 25:-0.68025549 26:0.045789935 27:-0.6614128 28:-0.34909141 29:-0.84117858 30:-0.55559872 31:0.17557522 32:-0.29036793 33:-0.10105296 34:0.21322942 35:1.864083 36:1.7989288 37:1.8448238 38:1.6187577 39:0.40963691 40:0.15252647 41:0.19789101 42:0.31939551 
-0.01 -0.01 -0.001059587144168182 -0.01 1:-0.57503797 2:0.59127799 3:0.98557265 4:-1.0965408 5:-1.429659 6:-0.53119739 7:-0.32618813 8:-0.74225064 9:0.87616824 10:1.0052928 11:-1.6533494 12:-0.71317116 13:-1.8400573 14:-0.76623864 15:0.37351389 16:0.98639011 17:-0.31413273 18:-0.80098703 19:3.0526995 20:3.338291 21:-0.17953973 22:-1.1409819 23:-0.21542731 24:-1.2267331 25:-1.0697132 26:-0.46943284 27:-1.3453603 28:-0.46538205 29:-1.4268554 30:-1.0273108 31:-1.1183496 32:-1.0279307 33:-0.85253821 34:-0.65779195 35:-1.2772943 36:-0.6989528 37:-0.69843674 38:-0.95019945 39:-0.6576629 40:-0.96184746 41:-0.29117598 42:-1.6906804 
-0.01 -0 -0 -0 1:-0.35902462 2:0.94653435 3:0.92616017 4:-0.86631317 5:-1.3695345 6:0.23697832 7:-0.51931518 8:-0.23267553 9:0.94489803 10:0.23677968 11:0.17797963 12:3.4558151 13:0.056369307 14:-0.22499931 15:-0.082059511 16:1.9924214 17:0.51474127 18:-1.641198 19:-1.202676 20:-0.21769999 21:-0.12936929 22:-0.86944226 23:0.33011391 24:-1.0024905 25:-1.0058241 26:-0.035727399 27:-0.92620831 28:-0.48168401 29:-1.0723466 30:-0.97074082 31:-1.0766811 32:-0.62716743 33:-0.097114146 34:-0.13777993 35:0.58320213 36:0.07631014 37:-0.39991018 38:1.0641645 39:0.26745237 40:1.4838253 41:0.1010464 42:0.52551204 
-0.01 -0.01 -0.01 -0 1:-0.71620354 2:1.2060611 3:0.799507 4:-1.1707204 5:-1.2183789 6:-0.49133488 7:-0.55901498 8:-0.57193578 9:0.85426212 10:1.3816103 11:0.036978632 12:1.7656784 13:-0.72669793 14:0.86147252 15:0.12426686 16:-1.215274 17:-1.2076587 18:0.1955889 19:0.31199358 20:-2.3284399 21:-1.2580932 22:-0.89948133 23:0.54256944 24:-0.72081536 25:-0.87947255 26:0.20265999 27:-0.76510808 28:-0.57001443 29:-0.82325612 30:-1.0187445 31:-0.71180641 32:-0.38172286 33:0.28233333 34:0.09372169 35:-0.13883749 36:-0.14824785 37:-0.36724579 38:0.19118904 39:0.030024136 40:0.20961078 41:0.27506661 42:0.078608621 
-0.01 -0.01 -0.01 -0.01 1:-0.15786132 2:0.7794386 3:0.84570336 4:-0.40763152 5:-0.70421488 6:0.4116076 7:-0.53368253 8:-0.11996994 9:1.051096 10:-0.16812179 11:-0.66622667 12:-0.17691471 13:-0.74764282 14:0.41412531 15:-0.43727657 16:1.791584 17:1.3564169 18:0.14215821 19:-0.78393762 20:1.1550168 21:-0.92301073 22:-0.68819278 23:-0.20356512 24:-0.80534488 25:-0.70717732 26:-0.14896771 27:-0.13480601 28:-0.46689774 29:-0.61912763 30:-0.7687868 31:-0.23329116 32:-0.29657444 33:-0.56371416 34:-0.15483579 35:0.046737879 36:0.74596915 37:-0.47887614 38:0.17565159 39:-0.66285149 40:-0.4590079 41:-0.53474317 42:-0.41503075 
-0.01 -0.006812632049892533 -0 -0 1:-0.23860128 2:1.3942824 3:1.0721773 4:-0.38836695 5:-0.4881095 6:-0.060044394 7:-0.70724935 8:-0.28914057 9:1.2845413 10:0.14917803 11:-0.52640792 12:-0.74048388 13:0.50474562 14:1.3055 15:0.72149359 16:-0.40722535 17:-0.65420087 18:0.4761351 19:-0.016884557 20:0.42076931 21:-1.1043639 22:-0.80916536 23:-0.26796319 24:-1.1841984 25:-0.89122892 26:-0.66135929 27:-0.67178568 28:-0.57475666 29:-0.68727071 30:-1.174263 31:-0.78986479 32:-0.16720779 33:0.26869204 34:0.28826171 35:-0.2642843 36:-0.29721353 37:-0.29253272 38:0.11169776 39:0.057947376 40:1.1391611 41:-0.28550594 42:0.23716467 
-0.01 -0 -0 -0.01 1:0.76989679 2:1.0350923 3:0.98417294 4:0.81700794 5:0.50746712 6:1.2093077 7:-0.74874949 8:1.1112474 9:1.2641099 10:-0.97490707 11:1.600749 12:0.21027893 13:0.84477003 14:0.93968442 15:-0.016959783 16:-0.069819317 17:-0.2769037 18:0.066345378 19:0.077391091 20:0.36893996 21:-0.92027355 22:-0.36693461 23:0.1950281 24:-1.012167 25:-0.75603487 26:-1.1226539 27:-0.14783541 28:-0.65812877 29:-0.49933551 30:-1.0266741 31:-0.95994223 32:-0.86460798 33:-0.5544612 34:-0.39173003 35:0.13561285 36:-0.6567374 37:-0.47984321 38:-0.12456956 39:-0.25437025 40:-0.64346603 41:-0.42785234 42:0.28446217 
-0 -0.01 -0.008432858176046413 -0.0001308737837142597 1:-0.35979605 2:0.18484716 3:1.0005792 4:-0.6137368 5:-0.61500281 6:-0.14919846 7:-0.42178684 8:-0.3712265 9:0.59453752 10:0.26266717 11:-0.34097036 12:0.70980241 13:-0.31949031 14:1.3945911 15:2.4758992 16:1.0709856 17:-0.96394608 18:-1.7481442 19:1.8551697 20:0.23520624 21:0.46105936 22:-0.21543222 23:-0.24302881 24:-0.85881833 25:-0.24191661 26:0.21753573 27:0.3486688 28:-0.3713621 29:-0.11233241 30:-0.51456328 31:0.33463093 32:0.18535991 33:0.17000151 34:0.23179095 35:0.58140987 36:0.29696166 37:0.90663368 38:2.0258162 39:1.3146932 40:2.4131863 41:2.0266037 42:-0.15376727 
-0.01 -0 -0 -0.01 1:0.78294947 2:0.19350358 3:1.4320697 4:0.76048241 5:0.26836558 6:1.3525534 7:-0.67000954 8:0.99712516 9:1.1009154 10:-1.1813199 11:1.2177329 12:0.33677254 13:0.44568377 14:1.7146839 15:0.3859358 16:0.65720351 17:-0.70029588 18:1.4559361 19:1.4352148 20:0.72129048 21:-0.96185563 22:-0.64671994 23:-0.82852169 24:-1.2744048 25:-0.889731 26:-0.95763167 27:-0.75735905 28:-0.65266916 29:-0.75685029 30:-0.91537433 31:-1.0403889 32:-0.9067121 33:-0.65408678 34:-0.47882606 35:-0.33522693 36:-0.54358074 37:-0.69464571 38:-1.0701186 39:-0.077488616 40:0.35634471 41:-0.13966505 42:0.087927543 
-0.01 -0.01 -0.01 -0.01 1:0.011023596 2:-0.48337026 3:0.91746563 4:0.038113286 5:0.10461278 6:0.32544395 7:-0.66459722 8:0.1042792 9:0.63438461 10:0.17766218 11:-0.039835816 12:-0.24846218 13:-0.14869123 14:0.67767544 15:-0.6550936 16:-0.093299849 17:-0.2843681 18:1.5818255 19:-1.1523991 20:-0.57193284 21:0.84880364 22:-0.37162239 23:-0.14839108 24:-0.61282022 25:-0.20899484 26:-0.051214212 27:0.15080414 28:-0.60188008 29:0.036359414 30:-0.5505471 31:-0.39718319 32:-0.423769 33:-0.053536178 34:-0.33691241 35:0.72794278 36:0.19496244 37:0.13343468 38:-0.0073488033 39:0.76098789 40:0.32637173 41:0.81050335 42:-0.16984165 
-0 -0.01 -0.01 -0 1:0.18689566 2:0.60156483 3:0.88261096 4:0.64302673 5:0.97196244 6:0.40050279 7:-0.48424838 8:0.33542972 9:0.85567277 10:-0.46602746 11:1.1041631 12:0.52366061 13:-0.10082321 14:0.7289966 15:-0.91305342 16:-0.17811141 17:-0.62702455 18:0.31564512 19:-0.77094482 20:-1.3113412 21:-0.63137726 22:0.13663743 23:0.53134037 24:-0.58506584 25:0.0031795617 26:0.28861817 27:0.23488541 28:-0.4325185 29:0.48225919 30:-0.57209152 31:0.075123686 32:1.0112334 33:0.95023363 34:1.2206981 35:0.7611069 36:1.354126 37:1.1577034 38:1.4401166 39:2.0135259 40:1.5887702 41:1.0906709 42:0.82513916 
-0.01 -0.01 -0 -0 1:-0.55603042 2:1.5202358 3:0.16953325 4:-0.12563495 5:0.85493696 6:-0.44371352 7:-0.10239158 8:-0.57961297 9:0.81252644 10:-0.06711631 11:-0.86005705 12:-0.055935547 13:0.66337895 14:0.81720557 15:2.9372583 16:1.3456251 17:-0.57563642 18:0.61603775 19:1.005124 20:0.40111293 21:0.23926837 22:-0.38196486 23:0.53663203 24:-0.17623751 25:0.027381944 26:0.5153803 27:0.08989558 28:-0.0030248277 29:-0.080716078 30:-0.73630642 31:-0.23952224 32:0.72009851 33:0.31572297 34:0.57283602 35:-0.020542759 36:1.2550944 37:0.17053555 38:0.58778539 39:0.5098667 40:-0.18816344 41:0.26429904 42:0.00071768394 
-0 -0 -0 -0.006170753895155211 1:0.43759015 2:0.18781305 3:1.2604829 4:0.44911974 5:0.070038863 6:0.87603246 7:-0.47465935 8:0.42614877 9:0.90868154 10:-0.90313277 11:0.043394744 12:1.337863 13:-0.7541542 14:0.02443806 15:-0.36408008 16:-1.3249461 17:-0.51441164 18:1.7762295 19:2.3471875 20:2.5274213 21:0.66715148 22:-0.62119131 23:-0.19174405 24:-1.0983295 25:-0.95741661 26:-1.2516227 27:-0.32577494 28:-0.4284496 29:-0.61772383 30:-0.66589674 31:-0.36866271 32:1.6128158 33:0.10178809 34:0.58306716 35:0.90004682 36:1.5241499 37:1.4718879 38:0.53465694 39:0.90377634 40:1.3452689 41:1.6317253 42:0.37720048 
-0 -0.01 -0.01 -0 1:0.41780453 2:0.67713378 3:0.53321267 4:0.63890034 5:0.55649668 6:0.62370637 7:-0.3454624 8:0.35682766 9:0.49620911 10:-1.1788381 11:-0.52422939 12:0.37984001 13:0.28585635 14:0.70000082 15:-0.77870629 16:0.44728794 17:-1.9137258 18:-0.89227071 19:0.14416182 20:2.816148 21:1.8190487 22:0.63099646 23:1.4643477 24:0.21552125 25:0.47623919 26:-0.09855254 27:1.350898 28:-0.13706482 29:0.92883807 30:-0.24343521 31:0.69239835 32:1.554915 33:1.3583069 34:2.2303105 35:2.0920088 36:1.0531604 37:1.3742595 38:1.6153142 39:1.7791553 40:0.55234675 41:1.5145042 42:0.48631744 
-0.01 -0 -0 -0.002027016374959402 1:0.56664209 2:1.6351601 3:1.8866711 4:0.74434018 5:0.058943584 6:1.1504273 7:-0.65895297 8:0.81812117 9:1.2871113 10:-1.1152862 11:-0.51709796 12:-1.5404483 13:0.65714117 14:0.72198983 15:-1.674579 16:0.038085935 17:-1.3632706 18:1.1760143 19:-1.1453401 20:-1.0919217 21:-1.2638474 22:-0.54871317 23:-0.21724249 24:-1.4371032 25:-0.96007847 26:-1.246418 27:-0.35302532 28:-0.5886568 29:-0.84573787 30:-1.0152746 31:-0.66479843 32:-0.50660399 33:-0.022683097 34:-0.65632394 35:-0.32396726 36:0.059096005 37:0.3482325 38:0.76989037 39:0.2491543 40:0.58503885 41:-0.5961936 42:0.2951395 
-0.01 -0 -0 -0.01 1:-0.56887687 2:-0.063020871 3:1.0545774 4:0.36693023 5:0.69109429 6:0.037971253 7:-0.72452715 8:-0.23397939 9:0.71360836 10:-0.77481066 11:0.12958273 12:2.3295393 13:0.59010619 14:1.6643371 15:-0.28146897 16:0.74155877 17:2.0288207 18:1.303724 19:1.5365703 20:0.67703015 21:1.4371952 22:-0.35521104 23:-0.71752841 24:-1.1974101 25:-0.42312867 26:-0.36621969 27:-0.079870474 28:-0.52885431 29:-0.3005803 30:-0.80233037 31:-0.57607422 32:-0.94394822 33:-0.65903924 34:-0.49143181 35:-0.34391915 36:-1.0256734 37:-0.2519097 38:-0.53433612 39:-0.021849888 40:0.19047544 41:-0.40349742 42:-0.35993222 
-0 -0.01 -0.01 -0.01 1:-0.4907165 2:-0.53512177 3:0.03738328 4:-0.34556015 5:0.15683333 6:-0.2147443 7:-0.29088194 8:-0.39593781 9:0.0073699765 10:0.21473274 11:0.36592453 12:1.3039618 13:1.1152979 14:0.73147395 15:0.3435231 16:0.75059409 17:0.2799583 18:0.78879365 19:0.54742408 20:-0.43424094 21:0.23493847 22:-0.26175273 23:0.062028155 24:0.77812136 25:0.2535214 26:1.4029143 27:-0.19057026 28:-0.17941857 29:-0.24814181 30:-0.065326997 31:-0.10887242 32:0.29182091 33:0.83976175 34:0.49287032 35:0.97161935 36:0.71358097 37:1.7135961 38:1.0545524 39:1.3089994 40:0.25309897 41:0.73275131 42:0.32301418 
-0 -0.005596039104704521 -0.01 -0.01 1:0.81852879 2:1.1291687 3:0.82256221 4:1.4182401 5:1.7559296 6:1.0048158 7:-0.68077972 8:1.0622049 9:1.0340836 10:-0.60935134 11:0.49703934 12:0.64946571 13:0.63169504 14:0.58427267 15:0.52529238 16:-0.47386174 17:-0.94742654 18:1.127565 19:-0.12714168 20:-1.1147065 21:-0.49171236 22:0.88978044 23:1.091352 24:-0.87025301 25:0.7280658 26:-0.25828087 27:1.2602375 28:-0.56823488 29:1.5160081 30:-0.73290447 31:-0.49051097 32:-0.62162407 33:-0.34094267 34:0.1861293 35:0.47093377 36:0.27370949 37:0.51355585 38:0.90455337 39:0.11544933 40:-0.13119544 41:0.11153993 42:0.99196694 
-0.01 -0 -0 -0.00198689726132817 1:-0.14535402 2:1.5107041 3:0.73532346 4:0.51278391 5:1.4933134 6:0.068370779 7:-0.71009046 8:-0.084670388 9:0.94926318 10:-0.50783806 11:-0.613902 12:-0.37281774 13:0.57221244 14:0.077514519 15:3.3605713 16:3.1621274 17:1.3006297 18:-3.7318473 19:-0.71484405 20:1.5065517 21:-0.64365487 22:-0.60256223 23:-0.34000402 24:-1.1554045 25:-0.44130872 26:-0.44324195 27:-0.80472621 28:-0.6178529 29:-0.019644784 30:-0.98474956 31:-0.77545892 32:-0.80806273 33:-0.69156312 34:-1.0208106 35:-0.36196078 36:-0.80572322 37:-0.11294992 38:-0.81679822 39:-0.13658301 40:0.28413907 41:-0.29145282 42:0.014027642 
-0.01 -0.01 -0.001414396665772461 -0.01 1:-1.3435098 2:0.59208906 3:-0.73778533 4:-0.97044885 5:0.88074423 6:-1.4318198 7:0.16682286 8:-1.2288414 9:0.20149341 10:1.3159866 11:1.5666419 12:0.77366034 13:1.1342061 14:0.533313 15:0.76370134 16:0.22783966 17:-1.4050171 18:-1.1183029 19:-0.5006837 20:0.28338157 21:1.1685668 22:-1.1397022 23:0.39309924 24:-0.88378367 25:-0.86139963 26:-0.81521413 27:-1.6593433 28:-0.09740467 29:-1.450799 30:-0.6228494 31:-1.1823957 32:-1.2086384 33:-1.4621746 34:-1.2514583 35:-1.1478361 36:-0.96813374 37:-0.93249864 38:-0.86270618 39:-0.71189857 40:-0.066563213 41:-1.6677141 42:-1.018198 
-0.01 -0 -0 -0 1:0.45722293 2:2.0320024 3:1.2106199 4:0.8386949 5:1.0681442 6:0.94428425 7:-0.74649886 8:0.70815278 9:1.3938157 10:-0.87467292 11:0.80636016 12:0.59855337 13:0.93236309 14:2.3889298 15:-0.055437831 16:-0.56781218 17:1.2496852 18:0.47848685 19:0.41432444 20:-0.45853072 21:0.74247588 22:-0.74918459 23:0.22244031 24:-1.4372802 25:-1.0164963 26:-1.1513136 27:-0.74219882 28:-0.63439231 29:-0.75285356 30:-1.1556351 31:-1.0888233 32:-1.0510912 33:-0.95625994 34:-0.12342476 35:0.36219104 36:-0.021684325 37:-0.65153932 38:-0.33137661 39:-0.23399207 40:-0.51053654 41:0.22108891 42:0.54720427 
-0 -0.01 -0.001681456019708391 -0.01 1:1.1123811 2:0.22934503 3:1.7940147 4:1.0277563 5:0.64212741 6:1.6476771 7:-0.68347057 8:1.4541315 9:0.96873444 10:-0.91357378 11:-0.10403349 12:1.4934707 13:-1.5048514 14:-0.89825833 15:0.22491247 16:-0.38895386 17:2.0053024 18:-0.23276547 19:-1.0687185 20:-0.83544433 21:0.21263945 22:-0.29296679 23:-0.44209829 24:-1.4142865 25:-0.80782685 26:-1.3984166 27:-0.20604788 28:-0.58090614 29:0.13516757 30:-0.91787999 31:-0.15161148 32:-0.20365618 33:0.2338497 34:0.1793729 35:0.92186008 36:0.77564802 37:1.1216365 38:0.95869643 39:1.2134427 40:0.77002842 41:1.0970967 42:0.31003461 
-0 -0.01 -0 -0 1:-0.3522335 2:1.7154796 3:0.65677006 4:-0.21883746 5:0.20642862 6:-0.14044831 7:-0.27926147 8:-0.19545668 9:1.0570661 10:0.11717658 11:-0.28506646 12:0.83682874 13:-0.62387511 14:0.8621435 15:0.99242044 16:0.39764815 17:-0.60776726 18:0.85983081 19:0.77510971 20:-0.37480302 21:-0.71435267 22:-0.30254581 23:0.11434066 24:-1.1107412 25:-0.15829509 26:0.57767557 27:-0.20041889 28:-0.32499746 29:-0.096528721 30:-0.94003004 31:-0.37672898 32:0.35846049 33:0.51164648 34:1.8598523 35:1.0457848 36:1.1602479 37:0.29467898 38:0.21872225 39:0.69795321 40:0.87856113 41:-0.029401077 42:0.52537669 
-0 -0 -0.009483941425767013 -0 1:-0.48084024 2:2.0720682 3:0.65137755 4:-0.29938314 5:0.38018141 6:-0.47008364 7:-0.28718763 8:-0.56489618 9:0.95685971 10:0.33729259 11:0.13001905 12:0.51088855 13:0.76024185 14:1.2187121 15:-0.7398512 16:-1.4087634 17:0.42311478 18:0.89158274 19:1.8414092 20:1.0518155 21:-0.29567031 22:-0.44649884 23:-0.20715612 24:-0.58948982 25:-0.20694961 26:0.5035621 27:-0.43097496 28:-0.1213094 29:-0.52283036 30:-0.81446568 31:-0.75806566 32:0.28061374 33:0.6996066 34:0.3689969 35:0.52638211 36:0.91640375 37:1.2921225 38:-0.020087313 39:1.1084466 40:2.3121659 41:1.6588592 42:0.9023496 
-0.01 -0 -0 -0 1:-0.61372334 2:1.1790993 3:0.65792215 4:-0.67407984 5:-0.81781807 6:-0.067509755 7:-0.36874107 8:-0.42214963 9:0.88802853 10:-0.56654503 11:-1.4507331 12:2.8417058 13:1.7277897 14:1.7193898 15:1.9337013 16:1.9605929 17:0.40287794 18:0.43236192 19:2.3331124 20:0.981646 21:-0.70266095 22:-0.55365017 23:0.29140012 24:-1.1877484 25:-0.36587341 26:0.26245341 27:-0.23101742 28:-0.41264574 29:-0.50083149 30:-0.72307309 31:-0.57184929 32:-0.27731745 33:-0.7223978 34:-0.43675305 35:-0.16308769 36:0.72393023 37:0.16544491 38:-0.58486927 39:-0.55360383 40:-0.31384197 41:-0.38720818 42:-0.64039774 
-0.003483386174972517 -0.01 -0.01 -0.01 1:0.77789234 2:0.82212024 3:1.0164305 4:1.1718057 5:1.3371161 6:1.0094209 7:-0.76397304 8:1.2512819 9:1.0829719 10:-0.3561226 11:1.3537056 12:0.38004668 13:0.81169285 14:0.24750725 15:-0.43661802 16:-0.032171018 17:-0.6751425 18:0.5196691 19:-0.069457959 20:-0.0099710828 21:-0.17241005 22:0.22330913 23:0.010895782 24:-0.64005069 25:0.05848413 26:-0.40773 27:1.0267783 28:-0.63217309 29:1.0469006 30:-1.0004438 31:-0.13818301 32:-0.82095462 33:-0.24987241 34:-0.16757276 35:-0.15979377 36:-0.10184211 37:0.048676982 38:-0.3210779 39:0.051196741 40:-0.059038838 41:0.21670774 42:0.3376933 
-0.01 -0.01 -0.01 -0.00907875238827315 1:-0.24610324 2:1.2800326 3:-0.34471085 4:0.066385406 5:0.97813559 6:-0.3298241 7:-0.41197042 8:-0.44647142 9:0.71556775 10:0.032289109 11:0.63995031 12:-0.63944894 13:2.4536436 14:0.61572303 15:0.95648924 16:1.3753056 17:2.0656233 18:-0.70230159 19:-0.93646448 20:-0.73843182 21:0.96721405 22:-0.30546328 23:1.2147816 24:-0.22517368 25:-0.3088505 26:0.44560216 27:0.35745817 28:-0.2732702 29:0.10006828 30:-0.40823861 31:0.4267928 32:0.005287043 33:0.029489627 34:1.5390336 35:0.19051967 36:0.2359497 37:-0.39465109 38:0.23084215 39:-0.41037073 40:-0.7512218 41:-0.28546842 42:0.32529344 
-0.009585073025584015 -0.01 -0.01 -0.004729336882530574 1:-0.56372423 2:0.69525776 3:0.11558687 4:-0.084533509 5:1.1655809 6:-0.81554527 7:-0.38708517 8:-0.66266814 9:0.53272125 10:1.2553436 11:0.48664547 12:-0.75071684 13:-1.1157423 14:-0.95336182 15:0.0053646466 16:0.1948414 17:1.3886932 18:0.55347215 19:-0.43467726 20:-1.427551 21:-1.8425453 22:0.057958555 23:1.3786428 24:-0.38971384 25:0.7974693 26:1.5256107 27:0.047053852 28:-0.3562879 29:0.31825097 30:-0.39348167 31:-0.38174138 32:-0.12561995 33:-0.08864715 34:-0.23497972 35:0.62188351 36:0.14878491 37:0.35853254 38:0.80581394 39:-0.12218575 40:0.64780318 41:-0.059278302 42:0.50763298 
-0.01 -0 -0.01 -0 1:-0.28641262 2:1.5905041 3:0.63422316 4:-0.16098796 5:0.44943638 6:-0.18226288 7:-0.58969472 8:-0.42509773 9:1.1163192 10:0.44982497 11:0.019181389 12:-0.68361817 13:0.8021324 14:-0.92843733 15:-1.2135981 16:-1.6023247 17:-1.4308522 18:-0.83208448 19:1.4676916 20:1.2464468 21:-1.3542965 22:-0.80779691 23:0.26923353 24:-0.84490014 25:-0.63991249 26:-0.092521968 27:-0.59507912 28:-0.5020302 29:-0.78481431 30:-1.0329381 31:-0.65724535 32:-0.51488994 33:0.016336848 34:0.92339461 35:-0.22863223 36:0.1185111 37:0.3409049 38:0.43497729 39:1.3381219 40:1.266733 41:1.1939893 42:0.47858327 
-0.01 -0.001370150407447604 -0 -0.01 1:0.3409175 2:0.77591919 3:-0.02160688 4:0.82873308 5:1.3590233 6:0.53334314 7:-0.6147781 8:0.65646138 9:0.9829851 10:-0.76098452 11:2.0486673 12:0.16860062 13:0.97000354 14:0.83603125 15:-0.59765093 16:0.39984204 17:-0.9936476 18:0.24097214 19:-0.91086263 20:-0.16658485 21:0.063070636 22:-0.55833008 23:1.6692343 24:-0.54627779 25:-0.91887849 26:-0.88439452 27:-0.32485011 28:-0.46249118 29:-0.4002289 30:-0.72305079 31:-0.90441502 32:-1.0218917 33:-0.81529072 34:-0.99057119 35:-0.29569392 36:-0.29277038 37:0.26333195 38:-0.53070741 39:-0.58522071 40:-0.66633882 41:-0.54525215 42:-0.29364656 
