svm_type c_svc
kernel_type linear
nr_class 2
total_sv 134
rho 0.160424
label 0 1
probA -2.66378
probB 0.0703304
nr_sv 67 67
SV
0.001897313411797222 1:0.29505131 2:1.0563694 3:0.41336083 4:-0.10122739 5:-1.3743093 6:0.51455272 7:-0.64140216 8:0.32543467 9:0.80175878 10:-2.1613597 11:1.253196 12:1.7932053 13:0.26769344 14:3.4094885 15:-0.4420966 16:1.523247 17:1.5185932 18:-0.65157038 19:1.8625673 20:-0.24163037 21:-0.069436418 22:-0.25817942 23:0.52928725 24:-0.66063929 25:-0.90173449 26:-1.0064713 27:-0.34530636 28:-0.47785733 29:-0.81344612 30:-0.95631572 31:-0.054191824 32:-0.58796575 33:-0.071171243 34:0.26645918 35:0.49848204 36:-0.13374109 37:-0.036826368 38:-0.34682907 39:-0.02212183 40:0.13311629 41:0.27931662 42:0.13996103 
0.007494420159540014 1:0.21409501 2:0.64279809 3:-0.53158907 4:1.2239688 5:2.5579698 6:-0.20368982 7:0.55544397 8:0.36837367 9:-0.14949849 10:-0.25304688 11:0.97381449 12:0.5265948 13:0.98087627 14:0.54124055 15:0.41048622 16:0.86316372 17:1.8027395 18:0.61092724 19:0.45520591 20:-0.77290663 21:-0.35816027 22:0.10958041 23:3.9194122 24:0.94944855 25:-0.11610463 26:-1.1529956 27:0.48990424 28:2.5463678 29:0.77642475 30:-0.43565036 31:0.27025541 32:-1.0743077 33:0.057767319 34:-0.62715155 35:-1.2933996 36:-0.35243681 37:0.22356936 38:1.0621905 39:-0.48968936 40:-0.89976267 41:-0.084877078 42:-0.5248148 
0.01 1:-1.4230134 2:0.090145772 3:-0.19045416 4:-1.4444725 5:-0.44412602 6:-1.2509886 7:0.31984851 8:-1.5072002 9:0.065230413 10:1.0899133 11:-1.1250691 12:1.1551397 13:0.19933011 14:-0.47847687 15:1.2575166 16:-0.24678688 17:-0.82656454 18:-0.98590735 19:0.42407729 20:-0.11309779 21:1.614421 22:-0.85188915 23:0.60081044 24:-0.097648138 25:-0.48053939 26:1.0694652 27:-0.88131328 28:0.14579444 29:-1.1053544 30:-0.68493497 31:-0.60443853 32:-0.15620103 33:-0.696421 34:-0.37359898 35:-0.67754995 36:-0.45124499 37:-0.9693865 38:-0.78841728 39:-0.15089943 40:-1.0085469 41:0.19231383 42:0.20965939 
0.01 1:-0.90899926 2:0.21127063 3:0.19561381 4:-0.44047822 5:-0.1524083 6:-0.5444185 7:1.5132026 8:-0.79299508 9:-0.081311564 10:-1.2018981 11:-0.048082019 12:-0.76626244 13:0.90212725 14:-0.049500356 15:1.7293566 16:0.97364942 17:-0.24246815 18:1.1096222 19:0.89395533 20:0.68094612 21:0.03412399 22:-0.26703515 23:0.27415777 24:-0.42336312 25:-0.38210065 26:-0.047834967 27:0.51339697 28:1.8498457 29:0.015733309 30:0.14324433 31:0.25352663 32:0.83953592 33:0.29060551 34:0.39508087 35:0.52992609 36:2.0268488 37:-0.11009088 38:0.73598823 39:0.97394799 40:-0.18457305 41:0.0023711757 42:1.2097352 
0.01 1:0.13974616 2:0.73172822 3:0.54242947 4:0.35383693 5:0.25564325 6:0.48364528 7:-0.25673322 8:0.23854199 9:0.46276516 10:-1.4408566 11:0.63895975 12:-0.10515213 13:0.34370958 14:1.646061 15:-0.18599303 16:2.0188226 17:-0.32075952 18:0.15994523 19:-0.23834269 20:2.3142587 21:2.2864449 22:-0.30213229 23:1.3353027 24:-0.55845423 25:-0.29087768 26:1.5847771 27:0.31451884 28:0.093089657 29:-0.089618946 30:-0.20559355 31:0.13073862 32:0.58874403 33:0.61729078 34:0.43618588 35:1.693907 36:2.7540172 37:0.80441249 38:1.4469308 39:1.2081009 40:-0.38532357 41:1.0480281 42:1.3668569 
0.01 1:-0.45589706 2:-0.30520139 3:0.41395077 4:-0.26641378 5:0.38111574 6:-0.61278546 7:-0.043843662 8:-0.20636616 9:-0.32014545 10:0.4043191 11:0.85493552 12:-1.8191973 13:0.89964219 14:-0.52776147 15:0.42018932 16:-1.3386721 17:-1.2690179 18:-1.7345202 19:-0.51860826 20:0.46283625 21:1.0028292 22:-0.27133361 23:1.5019266 24:0.53846587 25:-0.37913444 26:0.2502777 27:-0.15510385 28:-0.14430267 29:0.23587144 30:0.21964446 31:-0.68082929 32:-0.032973386 33:1.8260087 34:-0.14321839 35:0.3316433 36:-0.04937047 37:-0.78099939 38:-0.62267299 39:1.1811141 40:0.5028291 41:0.82692393 42:-0.038938587 
0.01 1:-1.3415561 2:0.58075954 3:-0.91722886 4:-0.65717504 5:0.70861595 6:-1.3689303 7:3.0540759 8:-1.4266116 9:-1.5949493 10:0.015974635 11:0.39221419 12:1.571637 13:1.7789599 14:0.33186874 15:0.34336851 16:1.4145629 17:1.9048187 18:0.33161448 19:1.4229625 20:0.86065097 21:1.3788511 22:0.1827943 23:1.8575288 24:1.924458 25:0.57091069 26:-0.033722481 27:0.71357939 28:3.6788143 29:0.20768287 30:2.6872084 31:1.6989496 32:0.42469109 33:0.61681535 34:0.63694008 35:-1.0479608 36:-0.83838748 37:-0.504023 38:-0.88123323 39:-0.65406773 40:-0.56663343 41:-0.071880772 42:-0.24038136 
0.01 1:0.72678264 2:-0.49353109 3:0.0069514355 4:1.7009403 5:2.625213 6:0.8032952 7:-0.74669127 8:1.21424 9:0.091397569 10:-0.4503037 11:1.0453551 12:0.15596785 13:0.63504526 14:0.47812806 15:1.1179345 16:0.044680227 17:0.43562191 18:0.68310676 19:0.14933199 20:0.98455029 21:0.68762167 22:0.078241876 23:0.81584545 24:0.013136072 25:-0.19772476 26:-1.0054478 27:0.6167372 28:-0.17099266 29:0.7934742 30:-0.062410909 31:0.035723173 32:-0.45893997 33:-0.80793031 34:-0.11160379 35:-1.1087826 36:-0.93058638 37:-0.85763344 38:0.1305075 39:-0.61687748 40:-0.83080772 41:-0.92155837 42:-1.0997362 
0.01 1:-1.8442912 2:-0.44089657 3:-1.2763743 4:-1.7708763 5:-0.41786418 6:-1.9225977 7:0.68227494 8:-1.7260648 9:-0.084613402 10:1.932286 11:-0.10635832 12:1.1671985 13:1.0197261 14:0.176561 15:-0.0970297 16:0.32365466 17:0.6649373 18:0.60412924 19:-0.043646363 20:0.1832644 21:0.47958938 22:-1.0649555 23:-0.83647235 24:-0.00022288505 25:-0.44790489 26:1.1625297 27:-1.5541617 28:0.2606395 29:-1.030551 30:-0.80589743 31:-0.54357176 32:-0.74898711 33:-0.50492409 34:-0.68980471 35:-0.56272036 36:-0.29489459 37:1.182473 38:0.21150398 39:-0.43127845 40:-0.31716787 41:-0.41563901 42:-1.0100279 
0.01 1:-0.83923836 2:-0.19251069 3:-0.7673252 4:-0.25981277 5:1.0808938 6:-1.2183119 7:0.80417518 8:-0.79694975 9:-0.39323874 10:0.92225747 11:1.5978003 12:0.40057713 13:2.6090618 14:0.46795934 15:1.2846483 16:-0.39840216 17:0.33564364 18:0.27748818 19:1.7460591 20:0.67272807 21:0.29827493 22:0.15263874 23:0.23095266 24:0.061430125 25:0.25739669 26:0.10529268 27:0.23504264 28:0.49449211 29:0.68730334 30:-0.20474783 31:0.32860341 32:-0.27632682 33:-0.15623594 34:-0.53289455 35:-0.98491397 36:-0.99224351 37:-0.38817439 38:-0.68675841 39:-0.54972871 40:-0.29425614 41:-1.6397165 42:-0.14640382 
0.01 1:-1.626049 2:-0.23321997 3:0.42067701 4:-2.1638243 5:-1.7126354 6:-2.1246924 7:-0.59167211 8:-1.7428205 9:-0.74366813 10:2.6055481 11:-2.1599803 12:-1.6065157 13:-2.0636279 14:-1.4530818 15:-0.085491325 16:-1.4459345 17:-0.65886799 18:-0.91341217 19:-1.2861135 20:-1.8189267 21:-0.33006087 22:-1.3779566 23:-0.40174874 24:-0.90468307 25:-0.92002059 26:0.59916843 27:-1.9240507 28:-0.63809058 29:-1.7149665 30:-0.10324484 31:-0.4505221 32:-1.0572723 33:-1.2921956 34:-0.77918932 35:-1.5077608 36:-1.2389847 37:0.27748547 38:-1.620558 39:-0.26591108 40:-0.53549565 41:-0.26952494 42:-0.32919975 
0.008925499903401607 1:0.4710409 2:-1.3936499 3:1.7165659 4:-0.093501527 5:-1.3827092 6:1.0892332 7:-1.3860996 8:0.5439111 9:-0.75025436 10:-1.4185461 11:-1.6146974 12:-0.8945736 13:-0.5569083 14:-0.5885226 15:1.7925103 16:3.5039893 17:2.5289433 18:2.5907521 19:-0.28619243 20:-2.8084543 21:-0.754912 22:-0.87462122 23:-1.4808996 24:-1.5075874 25:-1.1508046 26:-1.3432863 27:-1.0627246 28:-1.1692486 29:-0.88779504 30:-1.0976901 31:-0.89903182 32:-0.88327819 33:-0.9163705 34:-0.72710205 35:0.45077811 36:-0.60697603 37:2.3540758 38:1.4436668 39:1.0599995 40:-0.63972044 41:1.2100086 42:-0.68043618 
0.01 1:-1.2080318 2:-0.11021615 3:-0.20561884 4:-1.0542549 5:0.035315053 6:-1.4091981 7:0.15180207 8:-1.1424536 9:-0.066784921 10:0.90243198 11:0.71662788 12:0.089778314 13:0.16012224 14:1.0102827 15:-0.50048915 16:-0.086977367 17:-0.85648422 18:0.19721683 19:1.4970556 20:1.5158959 21:1.9721621 22:-0.45762639 23:0.1636073 24:-0.016214114 25:-0.25607975 26:0.48990754 27:-0.3354573 28:0.18945267 29:-0.043780844 30:-0.1610562 31:-0.095407294 32:-0.48395048 33:0.90414523 34:-0.48427135 35:0.22599744 36:-0.76199534 37:-0.43943154 38:1.070033 39:0.47812417 40:1.3129484 41:2.4646512 42:1.2187035 
0.008193541475969157 1:-1.5630837 2:0.17980879 3:0.65691734 4:-1.5559603 5:-0.38491969 6:-1.7871799 7:0.10075722 8:-1.697073 9:-0.47467041 10:1.4486485 11:-0.16536666 12:-0.30447461 13:0.097272216 14:-1.1477586 15:-0.42526076 16:0.83462792 17:-0.46047802 18:1.780213 19:3.6214653 20:2.0357018 21:-0.71565489 22:-1.0405098 23:0.49223961 24:-0.49285018 25:-0.8669593 26:-0.42205927 27:-1.2294967 28:0.32740523 29:-1.1827092 30:-0.45653269 31:-0.61395736 32:-0.35248764 33:-0.6662912 34:0.13150759 35:-0.28985058 36:-0.19731369 37:-0.64637354 38:0.1839793 39:-0.25262232 40:0.36708258 41:1.4057139 42:0.10630704 
0.01 1:-0.55572095 2:0.14052679 3:0.63559507 4:-0.74387893 5:-1.6508927 6:-0.94455448 7:-0.51659963 8:-0.93697464 9:-0.38673745 10:-0.85136074 11:-1.3167109 12:-4.0857844 13:-2.0846302 14:0.87225128 15:1.4972379 16:1.1045555 17:-1.7183913 18:-2.1956774 19:0.45804111 20:-0.24062349 21:-1.2088616 22:-0.78776884 23:0.11002583 24:-0.81707409 25:-0.75038805 26:-0.74372122 27:-0.89241716 28:-0.43072116 29:-0.76928495 30:-0.50979376 31:-0.54163922 32:0.26836248 33:-0.25467502 34:-0.37258456 35:-0.75658864 36:-0.69292477 37:-0.35183893 38:0.42778352 39:-0.45573773 40:-0.31769874 41:-0.89722189 42:-0.42416971 
0.01 1:-1.1910905 2:0.88861094 3:0.85829584 4:-1.1556415 5:-0.10363268 6:-1.4703984 7:-0.16331644 8:-1.3008336 9:0.64751558 10:1.7738211 11:-1.0866258 12:-0.88360091 13:-0.4741422 14:-0.098144145 15:0.30411668 16:-0.90455002 17:-2.2318536 18:-2.2901462 19:-2.9379186 20:-0.84365656 21:1.0336527 22:-0.83189031 23:0.3420067 24:-0.80083003 25:-0.36168046 26:0.76041384 27:-0.81200616 28:0.064477151 29:-0.61662713 30:-0.73077044 31:-0.65853403 32:-0.074050525 33:-0.40473107 34:-0.11151838 35:0.67792462 36:-0.080849716 37:-0.93201872 38:0.011233758 39:0.79125805 40:1.2742804 41:0.59618033 42:1.9484331 
0.01 1:0.22821143 2:-0.0734721 3:0.66322248 4:0.31323965 5:0.16897773 6:0.61753954 7:-0.14450806 8:0.30765928 9:0.33255938 10:-1.3205233 11:-0.32057357 12:1.4727847 13:0.15205299 14:0.46022237 15:1.174878 16:-0.0062362122 17:-0.20856144 18:0.31437935 19:0.61950148 20:0.32307556 21:0.087660762 22:0.0040512639 23:0.17834943 24:-0.58448034 25:0.027266904 26:0.02698841 27:0.43399027 28:-0.20922018 29:0.28294299 30:-0.25720312 31:0.22361445 32:0.33718424 33:1.0768602 34:0.29231786 35:-0.14145684 36:1.1264085 37:-0.75012427 38:0.82345247 39:1.7534116 40:0.55983968 41:1.1033524 42:0.66777304 
0.01 1:-0.35795687 2:-0.64324415 3:0.20419932 4:-0.3753955 5:-0.30583378 6:0.0032253027 7:0.024956388 8:-0.30695552 9:-0.20542624 10:-0.95533209 11:1.2657961 12:1.1251766 13:-0.34386292 14:2.0847251 15:-0.17085626 16:0.42554121 17:1.4837864 18:-0.2706788 19:1.6170103 20:0.050352882 21:-0.01458998 22:-0.44696131 23:-0.025375657 24:-0.50588717 25:-0.63235847 26:-0.43301965 27:-0.043587259 28:-0.19057327 29:-0.40272115 30:-0.29977997 31:-0.21184154 32:-0.34510191 33:0.12102299 34:0.22877982 35:-0.71625836 36:-0.45352956 37:0.72562514 38:0.36720809 39:-0.48934953 40:-0.76363232 41:-0.21900019 42:0.73308758 
0.01 1:0.13692333 2:-0.91316892 3:0.29029046 4:0.34884077 5:0.55291753 6:0.82309981 7:-0.66191995 8:0.25554573 9:-0.047770331 10:-0.82837127 11:0.29594863 12:1.0105431 13:0.59624209 14:0.23975683 15:-0.3230899 16:0.81140403 17:-0.16333625 18:-0.38828907 19:-0.52304166 20:0.18961916 21:-0.050456433 22:-0.40381643 23:0.18608454 24:0.15845966 25:-0.58771851 26:-0.6383 27:0.11510075 28:-0.50261451 29:-0.40795264 30:0.35009239 31:-0.090069486 32:-0.29995541 33:1.3755721 34:-0.013307672 35:1.138786 36:-0.74227168 37:0.50603917 38:0.44524248 39:1.654002 40:1.4117961 41:0.2515031 42:-0.11790298 
0.01 1:-1.1044787 2:-0.15629571 3:0.32205708 4:-1.2733448 5:-0.87210088 6:-0.86784958 7:-0.28635788 8:-1.0906891 9:0.19536557 10:0.20417234 11:-0.1800737 12:0.71967973 13:-1.1000484 14:0.18981239 15:0.21364422 16:0.20491964 17:-1.8676151 18:-0.78756868 19:-0.67649333 20:0.42430441 21:0.16976494 22:-0.80831525 23:0.0033205826 24:-0.41583189 25:-0.8457365 26:0.12325584 27:-0.32826932 28:-0.17423383 29:-0.85103427 30:-0.13808909 31:-0.10922886 32:-0.33250025 33:0.79646623 34:0.92600159 35:0.68958057 36:0.94919076 37:2.0382564 38:1.4241905 39:0.24930113 40:3.0347615 41:-0.23919739 42:0.93512188 
0.01 1:-1.129647 2:-0.85467162 3:-0.07907324 4:-0.86291709 5:-0.088177404 6:-0.87940948 7:-0.37970992 8:-1.0418642 9:-0.44718022 10:0.56583298 11:0.96656727 12:2.111288 13:-0.076541186 14:0.36472244 15:0.25186885 16:0.29604492 17:0.63651861 18:0.43665037 19:-1.9515182 20:-1.1256089 21:0.70102804 22:-0.66296966 23:0.45227906 24:0.18782585 25:-0.29320542 26:0.55146361 27:-0.18016211 28:-0.16213036 29:-0.4736906 30:0.28803505 31:-0.11269563 32:-0.88097126 33:0.12880208 34:-0.28054426 35:0.13978642 36:0.64679494 37:-0.57989754 38:-0.4374698 39:-0.21108829 40:-0.6749115 41:-0.68844709 42:-0.33746743 
0.01 1:0.09787544 2:-0.32995066 3:1.5951027 4:-0.35980432 5:-1.4324488 6:0.93047311 7:-0.26866027 8:0.13918358 9:0.29118774 10:-0.96148462 11:-1.6596742 12:-0.78374733 13:-0.88098289 14:-1.6467928 15:-2.1702918 16:-3.3813612 17:-1.0021534 18:-1.1124749 19:3.1724605 20:1.7315933 21:0.19006306 22:-0.5128081 23:-0.38625407 24:-1.0656241 25:-0.74145943 26:-0.80217554 27:0.0023174117 28:0.51676943 29:-0.58644208 30:-0.26807285 31:-0.029888479 32:0.19365566 33:0.95089209 34:0.2676543 35:0.96067056 36:0.15744277 37:-0.49802827 38:0.66863209 39:2.5041873 40:5.3407147 41:1.3669175 42:1.4638651 
0.005595597147833873 1:0.70074212 2:0.13491859 3:0.8751332 4:0.71337635 5:0.81667584 6:1.0485336 7:-0.91962449 8:1.0746739 9:0.96485736 10:-0.3690838 11:-0.33864536 12:-0.38897276 13:0.07826 14:1.2460376 15:0.84337061 16:-0.6446757 17:0.066528056 18:0.32032306 19:0.95761066 20:-0.7655198 21:-0.94565834 22:-0.62810109 23:-0.24123221 24:-0.65941185 25:-0.92918885 26:-0.25078575 27:-0.17283727 28:-0.89600907 29:-0.18386349 30:-0.39665768 31:-0.46949906 32:-0.74464466 33:-1.2437162 34:-0.15949029 35:-0.20314127 36:-0.5460079 37:-0.30565773 38:-0.52052727 39:-1.4358364 40:-0.5491355 41:1.1683995 42:-0.032127068 
0.01 1:-1.2276095 2:1.484584 3:-0.076304219 4:-0.79577259 5:1.1723629 6:-1.3605839 7:0.39669097 8:-1.3620039 9:0.79195484 10:1.2225029 11:-0.44511194 12:-0.62932471 13:0.15727976 14:-0.468142 15:0.044839689 16:0.45199107 17:0.30614534 18:0.32732686 19:0.6076018 20:-1.0831331 21:0.049974662 22:-0.74355838 23:1.8130518 24:-0.0081814224 25:-0.47953124 26:0.37218131 27:-1.0390762 28:1.056085 29:-0.5473616 30:-0.7055075 31:-0.81693194 32:0.21183316 33:-1.0240983 34:-0.9503923 35:-1.3073225 36:-0.41247882 37:-1.2260815 38:-0.90294176 39:-1.3818681 40:-0.58841251 41:-1.5772369 42:-0.88985275 
0.01 1:-1.7607352 2:0.78141662 3:0.53485543 4:-1.8514635 5:-0.76616823 6:-2.2058602 7:-0.58179415 8:-1.7568755 9:0.035224517 10:2.7824966 11:-0.57281772 12:-0.93501479 13:-0.98597203 14:-0.36328536 15:-1.4752762 16:-1.9858501 17:-2.2810965 18:-2.1082483 19:-1.9077025 20:-1.6327049 21:-0.62754374 22:-1.0710398 23:0.068597091 24:-0.80513721 25:-0.61729275 26:0.72266238 27:-1.6718064 28:-0.34098491 29:-1.2527455 30:-0.57280856 31:-0.33527655 32:-0.24770029 33:-0.736903 34:0.26465818 35:-0.63304103 36:-0.67819629 37:-0.40783728 38:0.31658746 39:0.70874475 40:0.73137068 41:1.0674994 42:2.3063146 
0.01 1:-0.35990422 2:1.2095185 3:0.23579987 4:0.59202608 5:1.4257526 6:-0.043550326 7:0.67703096 8:-0.42051587 9:0.43645617 10:-1.506837 11:-0.17054702 12:0.47922314 13:0.73547928 14:0.41429493 15:1.4744638 16:0.66585676 17:-0.97661126 18:0.97943895 19:0.44745359 20:0.52555312 21:-2.0780966 22:-0.20435062 23:1.4922897 24:-0.13604257 25:-0.59188126 26:-1.006356 27:0.31787304 28:1.0882321 29:-0.092764724 30:-0.16744006 31:0.030333337 32:0.48512964 33:0.58838188 34:0.23228392 35:-0.9106461 36:0.10473555 37:-0.11269902 38:-0.026196178 39:0.43884169 40:0.97134837 41:1.4656941 42:1.5784025 
0.01 1:0.51422622 2:-0.37309908 3:0.60157808 4:0.68284551 5:0.38606251 6:1.1327629 7:0.084674664 8:0.62441933 9:0.16702599 10:-1.9388001 11:-0.76616423 12:1.1081527 13:0.31967452 14:-0.55115464 15:2.5417654 16:-2.2333007 17:-1.1733307 18:0.20518813 19:0.96010089 20:1.5608818 21:0.46226215 22:-0.27494573 23:-0.24789562 24:-0.4491292 25:-0.41861563 26:1.1949916 27:0.18887804 28:-0.30979603 29:-0.080373913 30:-0.25655145 31:0.229648 32:0.24158338 33:0.21675933 34:0.31427741 35:0.46370761 36:0.57393435 37:1.3640276 38:1.2151946 39:0.56383983 40:0.43624168 41:-0.30840244 42:-0.83987229 
0.01 1:-1.3016191 2:0.69893382 3:-1.3259305 4:-1.0289597 5:-0.3568713 6:-0.9226288 7:1.8472342 8:-1.3849428 9:-0.82756214 10:-0.75762272 11:-0.29909662 12:1.9122097 13:0.54129027 14:1.3990762 15:-0.030262165 16:0.71318962 17:0.90255764 18:0.16148721 19:0.56627882 20:0.61527114 21:0.090297139 22:-0.54814524 23:2.7251849 24:1.2468828 25:-0.22397634 26:0.29234833 27:0.55760364 28:2.5577673 29:-0.55510003 30:0.50294255 31:1.249229 32:-0.0017290115 33:-0.0013427371 34:0.50113742 35:-0.43478988 36:-1.2462576 37:-0.88204218 38:-1.0742912 39:-1.2784726 40:-1.5122508 41:0.51555362 42:1.1302624 
0.01 1:-0.30738308 2:0.70590644 3:0.19871345 4:0.81811994 5:1.9218463 6:-0.23757138 7:-0.18728785 8:-0.12208237 9:0.42129685 10:-0.80952131 11:-0.2957267 12:-0.029784201 13:1.0950879 14:1.8651399 15:1.2709154 16:0.62935578 17:0.30267292 18:0.19791301 19:1.3039489 20:-0.55107199 21:-0.1930748 22:0.027141056 23:0.22667803 24:-0.61126681 25:0.073664701 26:-0.32658057 27:0.66671213 28:0.38870979 29:0.50441337 30:-0.55297851 31:-0.2306646 32:0.046834985 33:0.61785124 34:-0.47589521 35:0.24476351 36:-0.86076111 37:1.1338808 38:-0.61750777 39:-0.91545706 40:-0.80234892 41:-0.42529555 42:0.75811886 
0.01 1:-1.4471447 2:0.077924899 3:-0.60511193 4:-1.5496197 5:-0.77766809 6:-1.2948578 7:0.11737387 8:-1.4010566 9:0.26524984 10:1.1365897 11:-0.27005431 12:1.6196033 13:0.71388079 14:-0.34311392 15:1.2609089 16:0.65758908 17:-0.028343275 18:0.94464698 19:1.3450047 20:-0.47075391 21:-0.23874665 22:-0.71769755 23:-0.0050703299 24:0.1863607 25:-0.61405937 26:0.063180011 27:-0.49293274 28:-0.05874848 29:-0.85666518 30:-0.41657728 31:0.14335216 32:-0.73466742 33:-0.013099731 34:-0.86667264 35:-0.38120197 36:0.060000087 37:0.37971793 38:-0.1565676 39:0.11214475 40:-0.18148196 41:-0.25902417 42:0.32669818 
0.01 1:0.96351646 2:0.65071293 3:0.66595605 4:1.7303123 5:1.7020999 6:1.1481999 7:0.51560025 8:1.1718868 9:0.2084025 10:-2.1961721 11:-0.73985245 12:0.5721088 13:0.1103098 14:0.2979032 15:-0.24447557 16:-0.72580551 17:-1.4447401 18:-0.4525766 19:-0.10344837 20:1.6780022 21:1.8013174 22:0.52754847 23:1.720092 24:-0.26288921 25:0.034208952 26:-0.48535368 27:1.4727407 28:0.79558888 29:1.0211304 30:-0.099765232 31:0.81839545 32:1.7141463 33:1.0629974 34:1.8969463 35:1.9243382 36:1.0749369 37:0.99306926 38:2.23085 39:1.4502315 40:1.5643768 41:1.880741 42:0.21688488 
0.01 1:-0.53599733 2:0.79873621 3:-0.061857603 4:0.12051153 5:1.2970333 6:-0.31414916 7:0.77683011 8:-0.4326497 9:0.7024573 10:-0.59759695 11:0.11320038 12:0.3866516 13:0.32166479 14:0.1848961 15:0.042923172 16:0.30142195 17:-0.1912171 18:0.025198533 19:0.38113057 20:0.91947472 21:1.1813852 22:-0.36621143 23:0.24269853 24:0.1139938 25:-0.20295047 26:0.59032455 27:0.12880295 28:0.25384764 29:0.13246212 30:-0.4092572 31:-0.16846971 32:0.52312314 33:-0.18867073 34:-0.0045587071 35:1.2875684 36:0.53840631 37:-0.082527174 38:0.25495719 39:0.49115937 40:0.71782458 41:0.62530247 42:0.6982117 
0.01 1:0.6784908 2:0.84208561 3:0.53393918 4:0.98540133 5:0.93766194 6:0.52064849 7:0.10330584 8:0.60204165 9:0.3806968 10:-0.56314606 11:0.046635605 12:-0.16619967 13:-0.39992746 14:0.68250633 15:0.78826154 16:-0.21601839 17:-0.036550965 18:-0.99147403 19:-0.6416 20:-0.83044155 21:0.2491301 22:1.0587675 23:1.4870581 24:0.35027082 25:0.78269803 26:-0.098003257 27:1.0275097 28:0.290294 29:0.8991997 30:0.67815805 31:0.50839708 32:1.2511433 33:2.3147987 34:1.6562838 35:1.4853489 36:0.40120176 37:1.1688176 38:1.4251324 39:1.2456409 40:1.5953881 41:0.97862502 42:1.1871928 
0.01 1:0.54703659 2:0.3973985 3:0.82518532 4:0.81418766 5:1.3795869 6:1.0044571 7:0.025444051 8:0.66265248 9:0.49588159 10:-0.87067679 11:-0.50599122 12:0.0085066152 13:0.025391294 14:0.23313653 15:0.23707622 16:0.99575073 17:-2.2288307 18:-0.87845856 19:0.34453921 20:-0.58115304 21:-1.5126885 22:0.14966497 23:1.5777483 24:-0.49389911 25:-0.064667156 26:-0.28720327 27:1.1423745 28:0.98844512 29:0.72083809 30:-0.53605692 31:-0.58175196 32:-0.7353976 33:0.13217009 34:-0.11585954 35:0.65058725 36:0.026354812 37:0.10747818 38:1.7063694 39:0.36369566 40:0.44558565 41:-0.053242361 42:0.03816758 
0.01 1:-0.11914673 2:1.3154487 3:0.11240489 4:0.40161428 5:1.0723897 6:0.09089134 7:-0.070982723 8:-0.061008694 9:0.50794973 10:-1.0697876 11:0.18551518 12:1.0504626 13:-0.81046975 14:0.8177651 15:0.80501659 16:1.1430691 17:0.85807604 18:1.1118914 19:0.82499466 20:1.3318355 21:0.068266168 22:0.32678711 23:1.3762436 24:-0.091156299 25:0.12127243 26:0.36350609 27:0.74216504 28:0.634009 29:0.49488781 30:-0.20956414 31:0.11213692 32:0.20496205 33:0.81564788 34:0.47332013 35:0.059762381 36:-0.37163143 37:-0.47701151 38:-0.29001722 39:1.1266497 40:-0.3563412 41:0.57164603 42:-0.2180365 
0.01 1:-0.73746076 2:1.5366848 3:0.054016216 4:-0.015896359 5:0.50847467 6:-0.14541453 7:-0.022411753 8:-0.52854609 9:0.62309237 10:-0.98283385 11:0.60548267 12:1.0757171 13:0.51538268 14:0.057591497 15:1.0282413 16:-0.0020496883 17:0.1130407 18:0.28334245 19:-0.24400689 20:0.052348707 21:0.92339489 22:-0.14168922 23:1.2142648 24:-0.031689889 25:-0.41912254 26:-0.88445347 27:0.58367691 28:0.12418722 29:-0.11546492 30:-0.41739367 31:0.22479141 32:-0.63191976 33:1.4827438 34:0.70458442 35:0.54707522 36:0.067383065 37:-0.52826203 38:-1.1825875 39:-0.49115489 40:-1.0230285 41:-0.0017946172 42:1.455084 
0.01 1:0.67115961 2:-0.27243628 3:1.1319986 4:0.73981968 5:0.5511632 6:1.1186207 7:-0.78292142 8:0.79096593 9:0.60789191 10:-1.1100809 11:1.0129089 12:-0.12896629 13:0.60519615 14:0.48761716 15:-1.3472959 16:-0.38656654 17:-0.62104652 18:0.2981068 19:-0.49781645 20:-0.88366833 21:-2.6097667 22:-0.14884083 23:0.12762145 24:-0.43814366 25:-0.5153872 26:-0.36129397 27:0.20468797 28:-0.78081524 29:-0.32060363 30:-0.64542345 31:-0.1832108 32:-0.48964556 33:0.036549028 34:-0.64858354 35:0.950148 36:0.13042398 37:-0.0076656578 38:-0.25864188 39:0.033637573 40:1.7461055 41:0.11783285 42:0.072528777 
0.01 1:-1.4802188 2:0.74559785 3:-1.0366093 4:-0.93811961 5:0.43862331 6:-1.2470932 7:4.0258525 8:-1.2580624 9:-0.21030746 10:-0.31195889 11:0.077620056 12:1.8036355 13:0.29023649 14:1.7209967 15:0.34271823 16:0.58038697 17:1.1648435 18:0.91335418 19:1.5046514 20:0.41692016 21:-0.26691547 22:-0.4471135 23:1.5451807 24:0.033581094 25:-0.31670252 26:-0.11085488 27:-0.21580128 28:3.6743778 29:-0.26113274 30:-0.1191982 31:-0.050927518 32:-0.86614982 33:0.13710099 34:-0.59139334 35:-1.363393 36:-1.9385396 37:-1.5908133 38:-1.847327 39:-1.3335997 40:-1.4544791 41:-1.8888018 42:-1.738898 
0.01 1:-0.77520833 2:-0.56293968 3:1.2112333 4:-0.83710423 5:-0.70694639 6:-0.71957144 7:-0.47234707 8:-0.85039748 9:0.083990106 10:0.59171235 11:-1.8347791 12:-0.3775188 13:-1.5419282 14:-2.1695437 15:-1.5274987 16:-1.1286233 17:-0.30626601 18:0.65726806 19:1.4285912 20:-0.40637551 21:-1.4336446 22:-0.26483336 23:-0.27892538 24:-0.0043481533 25:-0.25585855 26:0.20167311 27:-0.5400428 28:-0.1621041 29:-0.60441068 30:-0.058120782 31:-0.30144103 32:0.16991666 33:0.38846052 34:-0.12139237 35:-1.0282769 36:-0.27963042 37:-0.28060093 38:0.23610992 39:1.3110275 40:0.99944086 41:-0.27628657 42:1.1800788 
0.01 1:-0.19140129 2:-0.084166313 3:0.36197046 4:-0.13045631 5:0.20634468 6:-0.15023238 7:-0.63278768 8:-0.11181522 9:0.66022956 10:0.36274812 11:-0.13606708 12:-0.20670439 13:0.042004981 14:0.030601423 15:0.88941152 16:0.82937258 17:1.2098334 18:1.422277 19:-0.53902563 20:-0.22213771 21:-0.84477195 22:-0.064982097 23:-0.19803233 24:-0.6537937 25:0.18060612 26:0.52946701 27:0.0041090314 28:-0.61395765 29:0.24444818 30:-0.40484026 31:-0.73114651 32:-0.76052708 33:-0.13090212 34:-0.27743257 35:0.35318542 36:-1.3636398 37:-0.47696624 38:-1.0598801 39:-0.79236367 40:-0.20859392 41:-0.75117879 42:-0.16107446 
0.01 1:0.41216224 2:-0.61546214 3:0.32282608 4:0.57470901 5:0.76448219 6:0.69185013 7:-0.63153032 8:0.64062387 9:0.30081101 10:-0.81027946 11:1.5896556 12:1.0844658 13:-0.95902368 14:-1.5487228 15:-1.0649402 16:1.648256 17:0.83086199 18:-0.035905526 19:1.2456354 20:-0.49293176 21:-0.31385297 22:0.077590805 23:0.57872644 24:-0.32492848 25:-0.10674026 26:-0.49373578 27:0.48679099 28:-0.59383015 29:0.20933999 30:-0.76328967 31:-0.50147259 32:-0.67228971 33:-0.47063723 34:-0.52974224 35:-0.54440874 36:-0.62708421 37:-0.84727089 38:-0.73659235 39:-0.1264113 40:-0.85943088 41:-0.76479853 42:-0.26345776 
0.01 1:-0.94559796 2:-1.3993995 3:0.122017 4:-0.74963577 5:0.47669172 6:-1.0334921 7:-0.096452488 8:-0.97674291 9:-1.0554359 10:1.0926042 11:-0.74246951 12:-0.63819837 13:0.14433725 14:-0.44233555 15:1.6001269 16:-0.78317897 17:0.25729225 18:-1.3032804 19:0.60541613 20:-0.63090577 21:0.72788305 22:-0.61158723 23:-0.92858153 24:0.007484945 25:-0.31240476 26:0.2102418 27:-0.24097698 28:0.15182454 29:-0.44151511 30:0.00016271761 31:-0.0056653905 32:0.27356159 33:0.31501917 34:-0.95747897 35:0.25305373 36:-0.41255987 37:-0.24649032 38:1.032353 39:0.072750973 40:-0.13500415 41:-0.014123151 42:-0.040858973 
0.009473309020192005 1:-1.5165475 2:0.014977413 3:-0.58675867 4:-0.98374091 5:1.3872352 6:-1.855725 7:0.90974794 8:-1.7761115 9:-0.050418404 10:1.9788869 11:0.35901336 12:-0.18132009 13:1.6243608 14:0.21620937 15:1.2139221 16:0.13886107 17:-0.522099 18:0.36577765 19:0.27575295 20:-0.3489045 21:0.34542841 22:-0.93808804 23:-0.19299282 24:-0.18483916 25:-0.72921524 26:-0.81718584 27:-1.1223812 28:0.67476379 29:-1.2373407 30:-0.44846864 31:-0.40253992 32:-0.55748567 33:-0.39448961 34:-0.55259602 35:-0.32319589 36:-0.63991889 37:-1.3645992 38:-0.92880064 39:-0.59644796 40:-0.77722892 41:-0.67881174 42:-0.87435727 
0.01 1:2.7713178 2:-0.88692278 3:1.4487976 4:3.2566152 5:2.1031585 6:2.3977309 7:-0.17450508 8:3.2414515 9:-0.61873024 10:-2.0721429 11:-0.44170984 12:-1.3697254 13:0.11915793 14:-2.1609085 15:-1.8480731 16:0.31059114 17:0.99570884 18:0.030678023 19:-0.74318541 20:-0.5688505 21:1.2535618 22:1.1601731 23:-0.06238319 24:-0.34813398 25:0.50011865 26:0.21074199 27:0.98945294 28:-0.094067374 29:1.2818745 30:0.53888119 31:1.0382587 32:1.1307775 33:1.7108693 34:0.60818117 35:1.0264338 36:1.7245841 37:2.3075092 38:3.7652798 39:3.8615794 40:1.693349 41:0.53128019 42:0.4636892 
0.01 1:0.041207942 2:0.063187848 3:0.63954544 4:0.060785672 5:0.40009714 6:-0.015937123 7:-0.3214526 8:0.083005524 9:0.62908483 10:0.44536705 11:-0.15197852 12:1.031269 13:-0.60161539 14:1.0163842 15:0.043541746 16:-1.2641602 17:-0.20317537 18:0.23165979 19:-0.68168439 20:-0.32093151 21:0.38260205 22:0.26580023 23:-0.20334765 24:-0.67020563 25:0.15077103 26:0.47988277 27:-0.042635236 28:-0.15216418 29:0.35010837 30:-0.071623289 31:-0.6020567 32:-0.049275829 33:0.83528179 34:0.44779112 35:1.8805452 36:1.5133047 37:1.6348747 38:0.38143276 39:-0.22741749 40:0.11287294 41:0.67082986 42:-0.21238026 
0.01 1:-1.279383 2:0.36295999 3:-0.23661112 4:-1.4187129 5:-0.76611998 6:-1.163342 7:-0.13083227 8:-1.2192662 9:0.57221996 10:1.2055964 11:-0.61600971 12:1.2025853 13:-0.60421002 14:-1.2223567 15:0.060399216 16:-1.168891 17:-1.6888647 18:-1.3516611 19:-0.70687912 20:-0.9288349 21:-0.29330244 22:-0.58101491 23:-0.098284353 24:-0.42664306 25:-0.085075922 26:1.6017947 27:0.09781904 28:0.17479339 29:-0.46396555 30:-0.6033196 31:-0.23145958 32:-0.51525387 33:-0.20898246 34:-1.0986942 35:-1.991267 36:-0.85131915 37:0.51253333 38:1.4120554 39:0.82857588 40:0.10311067 41:-0.89306537 42:-0.72219011 
0.01 1:0.88880445 2:-1.248635 3:0.39976235 4:1.0766423 5:1.1972845 6:0.90146076 7:-0.81903846 8:1.0714908 9:-1.1669566 10:-0.65247624 11:-0.64178632 12:-0.30072324 13:0.27272185 14:-1.8591726 15:2.3450732 16:0.26007557 17:-0.82775249 18:1.5436152 19:-1.1690116 20:-1.1918863 21:-0.30617607 22:0.55095205 23:-0.37660738 24:0.36034693 25:0.35953877 26:0.30846971 27:1.1074481 28:0.061701839 29:0.964843 30:0.53487302 31:0.16689625 32:0.28290672 33:0.64644171 34:-0.38525063 35:-0.68839696 36:0.8019697 37:1.3510369 38:-0.7526247 39:1.6825432 40:-0.61914552 41:-1.4423874 42:-0.077585851 
0.01 1:-0.25558542 2:-0.28377043 3:0.80942204 4:-0.89923986 5:-1.8288035 6:0.20754872 7:-1.0660916 8:-0.19679313 9:0.91191064 10:-0.066677137 11:-0.40092791 12:-0.47158933 13:-1.3397078 14:0.18971395 15:-0.5884092 16:-0.77899181 17:-1.0351335 18:-0.81405523 19:-1.924268 20:-0.53631195 21:0.28160209 22:-0.80810342 23:-0.93547624 24:-1.1631013 25:-0.83487881 26:-0.56498835 27:-1.0145397 28:-1.0462678 29:-0.90715133 30:-0.75336714 31:-0.98463708 32:-0.60065278 33:-1.0391646 34:-0.85367158 35:-0.29350867 36:-0.53802582 37:-0.74298634 38:0.031794456 39:-0.59144888 40:-0.47799229 41:-1.837583 42:-0.38765907 
0.005458750783707382 1:-0.56992813 2:-0.59604033 3:0.441126 4:-0.54934536 5:-0.1557107 6:0.02287602 7:-0.73475034 8:-0.39006617 9:0.58072698 10:0.2795088 11:0.13887648 12:0.79275415 13:-0.70648059 14:-0.52663638 15:-0.46779002 16:-0.026128782 17:-0.22778546 18:0.112463 19:-0.89804951 20:-0.33741501 21:-1.375378 22:-0.86099301 23:-0.29373178 24:-0.74662832 25:-0.89170267 26:-0.7999059 27:-0.48255709 28:-0.60325375 29:-0.89643519 30:-0.4075221 31:-0.39760016 32:-0.43749834 33:-0.77394155 34:-1.0410285 35:-0.6639746 36:0.26618501 37:-0.43122089 38:-0.2431963 39:-0.43644776 40:-0.087972392 41:0.65685069 42:-0.26195974 
0.01 1:-1.0391852 2:-0.56731896 3:0.96508014 4:-1.5239766 5:-1.5543583 6:-1.1217544 7:0.33614071 8:-1.2122659 9:-0.46195062 10:1.6347656 11:-1.9576824 12:-1.5444603 13:-2.3690863 14:-2.3827077 15:0.84575609 16:-0.15621222 17:1.3470978 18:-2.7853252 19:-2.1737156 20:1.3587453 21:-0.0098358534 22:-1.0135484 23:0.85523417 24:-0.76597013 25:-0.71468224 26:0.91618239 27:-1.0126509 28:0.065591673 29:-1.109731 30:-0.49427805 31:-0.0083310487 32:-0.74374439 33:-0.65269345 34:-0.19641522 35:1.6213056 36:0.46626705 37:-0.49408989 38:-1.0971365 39:1.9105478 40:0.015737317 41:-0.27686068 42:0.44677854 
0.01 1:-0.14877599 2:-0.18599329 3:1.1163951 4:-0.87648681 5:-2.1516974 6:0.34893174 7:-0.58607811 8:0.32172036 9:0.74769295 10:-0.59148796 11:-1.2368297 12:-2.3838516 13:-0.97823959 14:-0.80987312 15:-1.694674 16:1.8098359 17:-2.6565568 18:1.4057599 19:-3.2111425 20:1.9306331 21:-0.90710527 22:-0.96316579 23:0.16153985 24:-1.1329603 25:-1.1187633 26:-0.71652535 27:-1.0562925 28:-0.58423249 29:-0.92350839 30:-0.84878305 31:-0.98263447 32:-1.0800711 33:-0.11934247 34:-0.085519264 35:-1.1815461 36:-0.75040082 37:-0.041966674 38:-0.31878846 39:-0.69146433 40:0.064387896 41:-0.6248116 42:0.22209118 
0.01 1:-1.4719108 2:-0.60852379 3:1.1376495 4:-2.086828 5:-2.6561546 6:-1.0664074 7:-0.77685551 8:-1.2603223 9:-0.2216364 10:1.4715275 11:-2.2067397 12:1.7734204 13:-1.902671 14:-1.8131711 15:-1.5045407 16:-2.7140548 17:-1.8974849 18:-1.2435933 19:-1.9339572 20:-0.68050509 21:-0.16027781 22:-1.1584985 23:-0.65968736 24:-0.71739045 25:-0.99869572 26:0.86695258 27:-1.1620859 28:-0.13964641 29:-1.2179266 30:0.13274718 31:-0.73631735 32:-0.79163432 33:-0.45025906 34:-0.71870791 35:-1.3234041 36:-0.703009 37:-0.26820786 38:0.49518396 39:0.1103228 40:-1.2863436 41:0.14625069 42:-1.5140872 
0.01 1:-0.7776296 2:-0.33237081 3:-0.27081998 4:-0.33423638 5:1.0971168 6:-0.59341601 7:0.32760985 8:-0.92075582 9:-0.12294204 10:0.54047247 11:0.096463081 12:0.58960696 13:1.0710006 14:0.62158722 15:0.7238591 16:0.33164081 17:1.0341442 18:-0.54041114 19:0.063851459 20:-1.0839735 21:-0.32616167 22:-0.52145241 23:1.2436111 24:-0.11722576 25:-0.28951851 26:0.46295451 27:0.31773949 28:0.38582173 29:-0.23087071 30:0.075597405 31:-0.060721239 32:-0.17317185 33:0.06217735 34:-0.61890601 35:-0.39179028 36:0.70345691 37:-0.32101762 38:0.44201535 39:0.57344704 40:0.25381913 41:1.3236582 42:0.8360152 
0.01 1:-0.54479661 2:1.483078 3:1.097833 4:-0.59048857 5:-0.13160598 6:-0.25071361 7:-0.54141997 8:-0.62564469 9:0.762827 10:-0.24757886 11:-0.54407563 12:0.50395984 13:1.4167465 14:2.5287902 15:-0.71019584 16:-1.370941 17:2.0281452 18:1.665099 19:-0.34386902 20:-0.7207059 21:-0.53035414 22:-0.68536205 23:0.43154427 24:-0.61832086 25:-0.77853163 26:-1.1548369 27:-0.38516067 28:-0.36770972 29:-0.61362452 30:-0.71167242 31:-0.51131297 32:0.28422395 33:-0.044954075 34:0.031761055 35:-0.096417791 36:2.3735325 37:1.3891192 38:2.4042811 39:0.23342028 40:1.0627327 41:0.7403023 42:0.65046567 
0.01 1:-1.2590638 2:-0.59060583 3:-0.21074433 4:-1.139475 5:-0.35023261 6:-0.76494107 7:0.17112158 8:-1.2027704 9:0.0028208718 10:0.35912938 11:0.31314343 12:1.5773265 13:-0.15506912 14:0.85584331 15:0.22261696 16:0.81922674 17:0.47216844 18:-2.223375 19:-2.5066977 20:-0.12219775 21:1.8039172 22:-1.0240993 23:-0.44368629 24:0.024522318 25:-0.80703278 26:-0.39204966 27:-0.71910741 28:-0.20320407 29:-1.1003726 30:-0.55788601 31:-0.69131416 32:-1.0155517 33:-0.23399058 34:-0.71245344 35:-0.72785449 36:-0.65235426 37:-0.0087504173 38:-0.18846414 39:-0.91444347 40:-0.24196244 41:-0.88795775 42:-1.7561847 
0.01 1:1.3667722 2:0.49410285 3:0.26623053 4:1.9526773 5:2.2637202 6:1.7148254 7:-0.52767529 8:1.6596906 9:0.59459233 10:-1.6512214 11:0.31631547 12:1.0092289 13:-0.3789642 14:0.92949502 15:0.16717418 16:-1.006999 17:1.4192027 18:0.023942901 19:1.7115035 20:0.98241211 21:-0.45197631 22:-0.052725021 23:0.64252849 24:0.27039072 25:-0.45441525 26:-1.4837927 27:0.85025784 28:-0.54631236 29:0.52871256 30:-0.30484829 31:-0.10495696 32:-0.37249415 33:0.35053042 34:-0.38561514 35:1.1731041 36:-0.48086096 37:0.92925869 38:1.2178683 39:-0.13127288 40:1.6107207 41:-0.0013577333 42:-0.36855784 
0.01 1:0.089131463 2:-0.19233742 3:0.46269787 4:0.38958237 5:0.32594999 6:0.75637866 7:-0.59228463 8:0.19924324 9:0.076711872 10:-1.2031457 11:-0.79835572 12:0.36675285 13:0.030485464 14:0.35370896 15:1.8128979 16:1.1797222 17:0.95659139 18:0.044452602 19:0.92277371 20:-0.57786357 21:0.91645438 22:-0.33577165 23:-0.082129918 24:-0.39395881 25:-0.38506885 26:0.36955162 27:0.16025866 28:-0.45034335 29:-0.11943759 30:-0.26589011 31:-0.057309108 32:-0.059259554 33:0.3777616 34:0.52397624 35:-0.90661 36:-0.76202252 37:0.12158078 38:0.2639942 39:-0.8539335 40:-0.78434394 41:0.66865888 42:-0.69941257 
0.01 1:-0.30927316 2:0.79872945 3:0.074944869 4:0.89385858 5:2.7299993 6:-0.23233622 7:0.58586877 8:-0.31377172 9:0.25155032 10:-0.5966719 11:-0.23431872 12:0.91442496 13:0.701938 14:1.5549224 15:0.3518532 16:-0.36414051 17:0.81887969 18:1.1072733 19:-0.19955029 20:0.77156925 21:-0.80307431 22:-0.13725747 23:0.73932752 24:-0.35973385 25:-0.1118873 26:0.19338964 27:0.11478744 28:0.30167402 29:0.12310953 30:-0.26509297 31:-0.27889277 32:0.2379016 33:0.60935379 34:-0.52648375 35:0.53447628 36:-0.026349517 37:0.44773024 38:0.21976466 39:0.036615702 40:0.090997958 41:0.065908359 42:1.3934357 
0.01 1:-0.46566653 2:0.27345327 3:-0.16389343 4:-0.36105797 5:0.049225371 6:-0.17750467 7:-0.13580539 8:-0.2500743 9:0.72100707 10:-0.29375566 11:0.26776449 12:1.8066669 13:0.048905334 14:0.82382369 15:-0.45436621 16:-0.024722909 17:-0.583925 18:-0.32174276 19:-0.41217681 20:-1.1072921 21:-0.02066866 22:-0.48334125 23:0.36152432 24:-0.27116448 25:-0.23371081 26:0.75345072 27:-0.49102476 28:-0.49124541 29:-0.2173326 30:-0.45660264 31:-0.57323385 32:-0.49766028 33:-0.5208592 34:0.074561408 35:0.78611633 36:-0.80278479 37:-0.93451838 38:0.26029731 39:-0.94913113 40:-0.75024099 41:-0.59941169 42:0.29221614 
0.01 1:1.1943091 2:-0.32404884 3:1.1132321 4:1.1154054 5:0.37701565 6:0.74714644 7:-1.1003597 8:1.268228 9:0.45714761 10:-0.24018926 11:-0.79210663 12:-1.7289198 13:-0.85416547 14:-0.57723163 15:-2.0417399 16:-1.6526628 17:-0.46323886 18:-1.5428471 19:-0.50016411 20:-1.3467968 21:-1.4188791 22:0.4784181 23:-0.47403351 24:-1.0950537 25:0.33716973 26:0.12778108 27:0.25039488 28:-0.62810405 29:0.63218221 30:-0.42922086 31:-1.0003596 32:-0.48083175 33:-0.86543607 34:-0.96520605 35:-0.53704624 36:-0.38707494 37:0.10884726 38:-1.0110229 39:0.65690713 40:2.1871558 41:2.0559935 42:3.0706724 
0.01 1:0.49715828 2:-0.1172679 3:0.90285317 4:0.46429715 5:0.09093735 6:1.1005516 7:-0.29137002 8:0.51227367 9:0.61108705 10:-1.1721926 11:-0.93957742 12:1.0172665 13:-0.89447189 14:-0.44842162 15:0.71666138 16:0.11978505 17:0.16402003 18:-0.1652143 19:-1.3807779 20:-1.5697893 21:-0.66462204 22:-0.053473167 23:0.54787738 24:-0.79311805 25:-0.018465275 26:-0.06418586 27:0.71299636 28:-0.2075764 29:0.28340835 30:-0.74417251 31:-0.50721371 32:-0.52212694 33:0.27606754 34:-0.35274585 35:-0.3717825 36:-0.5587309 37:0.76173005 38:0.33148925 39:-0.19657358 40:-0.35349886 41:-0.69570783 42:0.22170908 
0.0007283393661550914 1:-0.58545302 2:2.337291 3:0.3299511 4:0.15482542 5:1.7805843 6:-0.63896719 7:-0.31340504 8:-0.48941729 9:1.1022639 10:1.1277866 11:-0.48188594 12:0.060999421 13:1.460248 14:0.40675752 15:-0.78245958 16:0.17131347 17:1.4963993 18:-0.34226905 19:-0.58389014 20:-0.34566998 21:0.28314151 22:-0.099964622 23:2.4971897 24:-0.54849519 25:0.2843009 26:1.6946609 27:-0.30155943 28:-0.22182549 29:0.45321579 30:-0.52770199 31:-0.62314438 32:-0.44160924 33:0.30366879 34:-0.21682848 35:0.23011258 36:-0.14175815 37:-0.4406566 38:-0.86253439 39:-0.025722303 40:0.58168647 41:-0.28745446 42:1.0861644 
0.007674436485525777 1:-1.3881646 2:-1.1212455 3:-0.69805532 4:-0.74712296 5:1.297478 6:-1.4743776 7:0.23562414 8:-1.5485721 9:-0.97110764 10:1.1638659 11:1.2365183 12:1.2593148 13:1.040365 14:0.79385489 15:0.13197644 16:-0.45846295 17:0.7867734 18:0.87303819 19:-0.095922224 20:-0.21867629 21:-0.50370443 22:-0.78336709 23:-0.018736331 24:0.13941718 25:-0.46020915 26:0.02380414 27:-0.9348571 28:0.29732001 29:-0.96274885 30:-0.12933124 31:-0.95605698 32:-0.47823422 33:-0.35677826 34:-1.3512341 35:-0.22015204 36:-1.0592472 37:-0.29833652 38:-0.57308283 39:-0.53302078 40:-0.68718947 41:-1.6514338 42:-0.46989392 
0.01 1:1.2498372 2:-0.39226295 3:1.4470554 4:0.81107152 5:0.55696814 6:0.92155736 7:-0.93011671 8:1.4950593 9:0.5923309 10:-0.15977674 11:0.26179696 12:-2.3204565 13:0.94284926 14:-1.6726129 15:-1.1407427 16:-1.4778326 17:-2.0630615 18:-2.9175409 19:-3.2614538 20:0.31270989 21:-0.86917505 22:0.1062542 23:-0.74353988 24:-1.3515453 25:-0.012113766 26:0.69845426 27:-0.41119338 28:-0.73802197 29:0.33628222 30:-0.74541865 31:-0.94100987 32:-1.2544991 33:0.28560447 34:-1.2131749 35:0.36042468 36:-0.78602604 37:-0.14769397 38:-0.80708445 39:-1.3684139 40:-0.54975922 41:-0.98593272 42:0.0077322679 
0.01 1:-1.6619359 2:-0.23224886 3:-1.3628282 4:-1.1534495 5:1.0477951 6:-1.8730169 7:0.73254815 8:-1.6364989 9:-0.54741681 10:1.5060022 11:1.2904429 12:0.96791317 13:1.4723628 14:1.2234235 15:0.36512091 16:0.50485529 17:0.47237198 18:0.34724746 19:0.40329614 20:0.92100929 21:-0.49358926 22:-0.68078758 23:0.034387734 24:-0.37498878 25:0.040862436 26:0.77363825 27:-0.47249949 28:0.87692204 29:-0.317693 30:0.14601616 31:-0.27442611 32:-0.50628699 33:-0.38727397 34:-0.89588549 35:-1.0422743 36:-1.778646 37:-1.5497706 38:-2.2336052 39:-1.2055857 40:-2.3674202 41:-2.2025349 42:-1.747505 
0.01 1:-1.3302709 2:-0.72127482 3:-0.45578467 4:-0.91824562 5:0.54294151 6:-1.3281522 7:0.43804569 8:-1.2886802 9:-0.20209443 10:1.4166285 11:0.37881028 12:1.9576172 13:1.6998355 14:-1.2803208 15:-0.35404878 16:-0.13923521 17:-0.57133389 18:0.063748182 19:-0.4792873 20:-1.1581303 21:2.0022407 22:-0.56180042 23:-0.74278375 24:-0.40442234 25:-0.058435608 26:0.8162534 27:-0.55669199 28:0.30584754 29:-0.26359443 30:-0.381954 31:-0.60478479 32:-1.1496038 33:0.095281251 34:-0.26391871 35:-1.3285646 36:-1.4009185 37:-0.26934226 38:-1.2120068 39:-1.5662689 40:-1.2239098 41:-0.70469254 42:0.069710476 
0.01 1:-0.39111908 2:0.74733154 3:0.77460987 4:-0.038881975 5:1.1292268 6:0.22924928 7:0.16285779 8:-0.06543081 9:0.58930016 10:0.31556933 11:-1.4654081 12:-0.11524191 13:1.2387964 14:-0.54493247 15:-1.6469844 16:-0.28776864 17:0.89918729 18:-0.26252457 19:-0.0522174 20:0.43136045 21:0.7975646 22:-0.1832932 23:2.8973251 24:-0.35038486 25:0.1731487 26:1.1518928 27:0.20938826 28:0.078365197 29:0.51584835 30:-0.23180502 31:0.1039568 32:-0.11292983 33:0.82686154 34:0.24778253 35:1.0346761 36:0.97492591 37:-0.20624865 38:0.25570964 39:1.2009442 40:-0.34980584 41:1.5022261 42:0.20040719 
-0.01 1:-0.67634838 2:-0.63123222 3:-0.68821471 4:-1.0467927 5:-1.6402277 6:-0.69878058 7:0.91420541 8:-0.91771211 9:-0.08152255 10:0.069682003 11:-1.8533889 12:-1.3691596 13:-1.6011161 14:-0.9431099 15:-0.96258867 16:-1.3980854 17:-0.60427913 18:0.64600527 19:0.97396071 20:0.41443551 21:-0.47296368 22:-0.72653231 23:-0.80651447 24:-0.10899723 25:-0.64292947 26:0.11910355 27:-1.1710463 28:0.026608139 29:-1.1283425 30:-0.04679404 31:-0.011897882 32:0.4199522 33:0.26573019 34:0.67873892 35:0.21519036 36:-0.12576843 37:2.9914017 38:1.9772492 39:0.32717575 40:0.45986698 41:1.1734811 42:-0.24380918 
-0.01 1:0.70071349 2:0.23736131 3:0.10113895 4:0.53378194 5:0.24753711 6:0.31576822 7:-0.37654325 8:0.53799516 9:-0.19456851 10:-0.35312936 11:0.2564611 12:0.060915367 13:-0.81981698 14:0.89013636 15:1.3842544 16:1.1402455 17:1.2976863 18:-0.11281897 19:0.86528233 20:-0.31821919 21:0.15251583 22:0.044693758 23:0.07043434 24:0.48929355 25:0.0075531007 26:-0.4640964 27:-0.25897698 28:-0.24927573 29:-0.12199896 30:0.041803303 31:0.34590525 32:0.36683098 33:0.16439116 34:0.15119963 35:-0.41773933 36:-0.13219644 37:-0.4289043 38:0.202683 39:-0.59660293 40:-0.42916135 41:-0.24506997 42:-0.5378924 
-0.01 1:-0.49404218 2:-0.89103324 3:-0.018327075 4:-0.19916619 5:0.080126279 6:-0.70994314 7:0.6301338 8:-0.43736344 9:-0.71121092 10:0.76075696 11:1.3780246 12:-2.0391911 13:-0.83468418 14:-1.9180018 15:-0.21607076 16:0.408386 17:-1.3655677 18:0.15654751 19:0.46212598 20:0.040416717 21:0.68168848 22:-0.14481985 23:-0.4708274 24:-0.4221473 25:-0.079881929 26:0.31023472 27:-0.21403758 28:0.60956241 29:0.22863077 30:0.20561476 31:-0.70699997 32:0.15238009 33:0.19206818 34:0.27802723 35:-0.52097432 36:-0.17934483 37:-2.0071142 38:-1.0832513 39:0.38914437 40:2.732584 41:-0.95397346 42:1.3869325 
-0.01 1:1.1672244 2:-1.0402409 3:0.46711008 4:0.69396639 5:-1.7015213 6:1.2508614 7:-0.52478584 8:0.98514883 9:-0.41880558 10:-3.407149 11:-0.88448478 12:0.91053283 13:-0.46425099 14:-0.23349021 15:0.51697665 16:-0.69809229 17:-0.093988146 18:-0.18179215 19:-0.54519419 20:-0.55818652 21:-1.370802 22:-0.62958465 23:-0.75520328 24:-0.36940412 25:-0.8665347 26:-0.32034708 27:-0.54810742 28:-0.81025822 29:-0.68006926 30:0.036642568 31:1.0356669 32:0.88046001 33:1.5883384 34:0.46722185 35:0.74407084 36:-0.22103514 37:-0.91939751 38:0.64132969 39:-0.00011146925 40:0.95346037 41:-0.028290861 42:1.6994162 
-0.01 1:0.14480272 2:-0.3360416 3:1.0806585 4:0.30852563 5:0.095806881 6:0.58555528 7:0.71884089 8:0.18428191 9:-0.29261284 10:-0.79468169 11:-2.1862611 12:-0.66573261 13:-1.9373832 14:-1.0651036 15:-1.5967213 16:-2.099165 17:-2.8022613 18:-0.19911528 19:-0.54965277 20:1.0258254 21:0.87626945 22:0.1650404 23:0.66398557 24:-0.11057685 25:0.13820498 26:-0.2503623 27:0.6214615 28:0.35461632 29:0.31692941 30:0.038131355 31:0.62815418 32:0.41097553 33:1.831125 34:0.11248745 35:1.3703222 36:0.3325603 37:0.78023034 38:1.3243185 39:1.1395781 40:0.95883731 41:2.3904645 42:1.5339099 
-0.01 1:1.8695809 2:-0.57646184 3:1.1688033 4:1.6312305 5:-0.082354376 6:2.144765 7:-0.41214555 8:2.009907 9:0.29422725 10:-1.7301469 11:-0.56978316 12:-1.4697321 13:-0.41952649 14:-0.63776089 15:0.35591184 16:-0.60023359 17:-0.72463744 18:-0.59857447 19:-2.3380437 20:-1.1221836 21:-1.5179197 22:0.29387405 23:-0.52202371 24:-1.1923561 25:-0.09240751 26:-1.0520941 27:-0.67784682 28:-0.96015057 29:-0.126136 30:-0.90370165 31:-0.99692237 32:0.58181952 33:-0.47998812 34:-0.17858956 35:-1.2040725 36:-0.98483511 37:-1.1478458 38:0.44610002 39:0.51766978 40:0.62579939 41:0.048733244 42:-0.23727528 
-0.01 1:0.55988134 2:-1.2772576 3:-0.81363129 4:0.88832603 5:1.0229592 6:0.62650595 7:-0.39812643 8:0.59559873 9:-1.1911906 10:-0.60031118 11:0.88441716 12:0.85861284 13:0.89139913 14:0.33816545 15:0.26541977 16:0.33260171 17:-0.24300471 18:0.49557403 19:1.0577369 20:0.16180068 21:0.031453457 22:0.18740155 23:-0.73360025 24:0.80975403 25:0.23624926 26:-0.94733557 27:0.83152141 28:-0.48386738 29:0.52496779 30:0.55108579 31:0.79770142 32:0.27548882 33:0.32551844 34:0.36376697 35:0.73442467 36:-0.7486923 37:-0.19465933 38:-0.99996974 39:-0.8498196 40:-0.23577832 41:1.1793118 42:-0.95641503 
-0.01 1:1.07764 2:-1.2533267 3:0.80114931 4:1.1937459 5:0.76933668 6:0.36262544 7:0.0045223466 8:0.76042167 9:-1.472537 10:-0.11336435 11:-1.3840694 12:-2.146069 13:0.37085032 14:-1.0679303 15:-1.4975467 16:-1.2898724 17:-1.5353356 18:-1.9283497 19:-2.8460226 20:-1.301043 21:0.37918283 22:1.2500653 23:-0.92550576 24:-0.81102364 25:1.1243532 26:0.99086728 27:0.31420176 28:0.10476516 29:0.91200994 30:0.39768184 31:-0.30180765 32:0.038721985 33:-0.28814737 34:-0.67894704 35:-0.67562595 36:-0.60644794 37:-1.6395579 38:-0.9524854 39:-0.56556767 40:0.54635267 41:0.78433733 42:1.5859383 
-0.01 1:-0.6545048 2:-0.75112336 3:0.075065462 4:-0.9086815 5:-1.0882592 6:-0.32288263 7:0.62391534 8:-0.56136548 9:-0.28959583 10:0.30774653 11:-0.86249678 12:-0.46154829 13:-0.56163795 14:0.89678496 15:-1.330767 16:-0.53367216 17:-0.92341904 18:-0.24135503 19:-0.49364321 20:0.028929685 21:-0.86507547 22:-0.59250863 23:0.30169128 24:0.34068373 25:-0.6057272 26:-0.47006511 27:0.016090642 28:0.022912749 29:-0.61859631 30:0.36443961 31:0.58767784 32:1.2474779 33:0.61250642 34:0.13179129 35:1.7173935 36:0.20548513 37:0.26406508 38:-0.077093859 39:1.0219869 40:1.0248146 41:-0.45174103 42:1.1120107 
-0.01 1:0.010293065 2:0.32406222 3:0.68633151 4:-0.10452202 5:-0.4060115 6:0.68483634 7:-0.2316792 8:0.37063755 9:0.94577899 10:-0.51543997 11:-0.52438237 12:-0.73939512 13:-1.3950531 14:0.31422342 15:0.42346142 16:-0.13246683 17:0.87668688 18:-0.3625151 19:-0.75445485 20:-0.41305592 21:-0.92376992 22:-0.47109798 23:0.60629383 24:-0.62551332 25:-0.41071306 26:0.42656405 27:-0.37250533 28:-0.54582735 29:0.00065404497 30:-0.46307908 31:-0.7616421 32:0.80874966 33:0.56762074 34:0.39450553 35:1.46415 36:0.55689545 37:2.420334 38:1.5472613 39:0.87664202 40:0.77824954 41:-0.43321148 42:1.7663629 
-0.01 1:0.1825457 2:-0.47074646 3:1.0685319 4:-0.14268105 5:-0.89606393 6:0.91079403 7:-0.16821838 8:0.18371731 9:0.64588763 10:-0.85390681 11:-1.4412844 12:0.044703695 13:-0.66273912 14:0.60360354 15:0.89014455 16:-1.6988308 17:-1.4205507 18:0.37531906 19:0.067730198 20:2.2463563 21:0.027687251 22:-0.5752239 23:0.30636209 24:-0.67232476 25:-0.74551954 26:-0.69420947 27:-0.67442982 28:-0.4908317 29:-0.67352019 30:-0.40370832 31:-0.80261371 32:0.064669195 33:-0.45790383 34:-0.23279728 35:0.5364764 36:0.11565001 37:0.090325163 38:1.9723878 39:1.003519 40:0.039136562 41:1.6062737 42:0.47768036 
-0.003227398537273981 1:-0.36734997 2:-0.71210377 3:-0.082712577 4:-0.25305441 5:0.12381713 6:-0.35190907 7:0.60729426 8:-0.31287147 9:-0.70203389 10:0.40555839 11:-0.072726131 12:0.95396194 13:0.82508752 14:-0.45750285 15:-1.1999858 16:1.3812103 17:0.63776182 18:-0.61864337 19:-0.7090011 20:-0.078846067 21:-0.48740866 22:0.06831983 23:-0.15447293 24:-0.064733522 25:0.27512536 26:1.439388 27:0.38223805 28:0.13188493 29:0.43638648 30:0.15024957 31:0.42519076 32:0.63075543 33:1.2556535 34:1.2812554 35:0.21705038 36:-0.99690942 37:0.068112132 38:0.7600565 39:-0.19838809 40:-0.052979192 41:-0.37324441 42:2.0115195 
-8.564348961910961e-05 1:0.63519093 2:0.45278887 3:0.21694775 4:-0.08663048 5:-2.4233331 6:1.2357494 7:-0.0067617242 8:0.45311427 9:0.066007853 10:-2.7441054 11:-2.1715494 12:-2.0336341 13:-1.4954033 14:-0.4528852 15:-0.49942975 16:-0.99213088 17:0.020930528 18:0.7828604 19:0.13956847 20:0.0041935031 21:-0.79872103 22:-0.42851443 23:1.3003866 24:1.7804628 25:-0.87672119 26:-0.55974555 27:-0.6425122 28:-0.46763915 29:-0.84081292 30:1.453681 31:0.0024025516 32:1.0606663 33:0.58593305 34:0.79853039 35:0.29451663 36:0.80951632 37:1.1285694 38:0.74314542 39:1.7300055 40:0.016474895 41:0.80624371 42:1.1167832 
-0.01 1:-1.7456146 2:2.2760362 3:-0.78932921 4:-1.311049 5:-0.2351353 6:-1.7453422 7:0.81732822 8:-1.5307836 9:0.17809774 10:1.0573748 11:1.3482986 12:0.87274922 13:0.9369309 14:0.14878748 15:0.72928421 16:0.94972367 17:1.2878145 18:1.4009414 19:0.89481822 20:1.4481733 21:0.47753379 22:-0.27525927 23:2.8963951 24:0.20532147 25:0.19389259 26:0.93877798 27:-0.13683296 28:0.98810325 29:0.092951935 30:0.15463803 31:0.027792084 32:0.46895467 33:-0.57815115 34:0.43266997 35:0.68270709 36:-0.26835431 37:-0.25853132 38:-1.5204653 39:-1.6821898 40:-1.7583892 41:-0.93082656 42:-0.68710449 
-0.001596186773938252 1:-0.4144809 2:1.0172529 3:0.80779961 4:-0.28009269 5:-0.1803292 6:-0.21695941 7:0.94901299 8:-0.36311409 9:0.36293929 10:-0.096194269 11:-0.69211044 12:0.021883308 13:-0.78533224 14:-0.54259694 15:-1.5140478 16:-1.23701 17:-1.2352983 18:-0.64068258 19:-0.53435387 20:0.06030095 21:-0.32649701 22:-0.13483935 23:1.7502866 24:0.24116168 25:-0.19681725 26:0.49468255 27:0.16093579 28:0.81454757 29:-0.022871402 30:0.88642666 31:0.42763586 32:1.7641801 33:1.2996754 34:1.7315009 35:1.7316997 36:1.975547 37:2.083124 38:1.7242912 39:3.4714734 40:3.8295524 41:3.6023265 42:2.4300931 
-0.01 1:-0.62050529 2:-0.39713413 3:-0.69115669 4:-0.37345032 5:-0.33242351 6:-0.2811358 7:-0.3042005 8:-0.54577948 9:0.16682489 10:-0.056971079 11:0.49435957 12:0.30640192 13:-0.13737145 14:-0.4839472 15:0.34198658 16:0.15302305 17:-0.46849189 18:0.68899703 19:-0.55373846 20:0.29047369 21:1.2599085 22:-0.14698708 23:-0.17609219 24:-0.28892676 25:-0.2259526 26:-0.036797423 27:0.37398027 28:-0.49113106 29:-0.011157179 30:-0.089544053 31:0.20003071 32:1.5915864 33:-0.015879007 34:-0.026419173 35:-0.0776553 36:0.80061885 37:-0.67935652 38:0.35094018 39:-0.14151629 40:-1.1485134 41:-0.74993833 42:-1.0175553 
-0.01 1:-1.4787706 2:0.81578298 3:-0.92776341 4:-1.3532532 5:-0.5073668 6:-1.7741949 7:1.0518541 8:-1.3060422 9:-0.7316893 10:1.9505703 11:1.3195305 12:1.471655 13:0.61075614 14:0.089730067 15:2.0336012 16:0.35866652 17:0.42425256 18:-0.17028116 19:-0.19698052 20:0.23944422 21:0.68260323 22:0.047297019 23:0.35169979 24:0.46135459 25:0.59273791 26:1.5469966 27:0.063835299 28:1.4437382 29:0.1916801 30:0.49497588 31:0.39734731 32:-0.31424035 33:-0.32166591 34:-0.75021164 35:-1.6826374 36:-0.70251891 37:-1.6532865 38:-1.512264 39:-1.6106713 40:-1.1809032 41:-1.7620727 42:-1.8765068 
-0.01 1:-1.7964748 2:1.818472 3:-0.67812563 4:-1.6223984 5:-0.32258021 6:-1.9377988 7:1.7637787 8:-1.6503885 9:-0.47162476 10:1.7565951 11:0.82317845 12:0.86516981 13:0.39879106 14:1.2526583 15:1.6252367 16:1.4526762 17:1.348912 18:0.42534841 19:0.62793989 20:0.16692819 21:1.4443793 22:-0.38608797 23:1.2984319 24:-0.51360431 25:0.21346202 26:1.2788645 27:-0.45367771 28:1.3725954 29:-0.12483808 30:0.38679645 31:0.046563675 32:-0.11751402 33:-0.068927902 34:-0.50063889 35:0.021595438 36:-0.54703574 37:-1.2107397 38:-0.85318486 39:-1.9498382 40:-1.2087386 41:-1.2334024 42:-1.0485925 
-0.01 1:-0.54052081 2:-0.36740319 3:0.37193778 4:-0.43907838 5:-0.065862278 6:-0.41874062 7:0.99517308 8:-0.10189101 9:0.074546324 10:0.32156904 11:-0.97429655 12:-0.64951531 13:-0.48104747 14:0.18208025 15:-0.71651516 16:-0.29787951 17:-0.84182063 18:-0.64529694 19:-1.0198146 20:-1.0833922 21:-0.99355427 22:-0.23029089 23:0.44242415 24:0.27590203 25:0.06459739 26:2.0383387 27:-0.01072476 28:0.42594775 29:0.69059517 30:0.13125502 31:-0.30428873 32:-0.069599579 33:0.58358907 34:0.1931822 35:-0.15001059 36:-0.26808267 37:1.3678586 38:0.46859432 39:0.76517046 40:1.6213442 41:0.41309393 42:0.34558097 
-0.01 1:0.87406104 2:-1.0292908 3:0.50792315 4:1.0913851 5:1.3377173 6:0.57490872 7:0.072261954 8:0.78359139 9:-0.008375915 10:0.11145297 11:-0.58408156 12:-0.45378451 13:-0.54581457 14:-0.19937764 15:0.23923948 16:0.26681405 17:-0.40951999 18:-1.0657548 19:-0.68519725 20:-1.2615761 21:-1.7764174 22:1.2579597 23:-0.49048552 24:-0.46442684 25:0.94410182 26:0.26131849 27:0.78641648 28:-0.16887609 29:1.2757922 30:-0.36063874 31:-0.65316407 32:-0.58926636 33:0.28934858 34:0.3713473 35:-0.87296638 36:-0.4463472 37:-0.79119295 38:-0.74587332 39:1.1905869 40:1.7223604 41:1.7182319 42:1.0762149 
-0.01 1:-2.0417643 2:1.3294605 3:-1.0494379 4:-1.6280377 5:-0.025334032 6:-2.1040978 7:1.5312201 8:-1.9053313 9:-0.25542078 10:1.5697709 11:0.99050013 12:0.83826942 13:0.22961819 14:1.0789515 15:0.59604669 16:1.1003105 17:1.1757802 18:0.81896657 19:0.87937403 20:0.9328595 21:1.2516467 22:-0.84176357 23:3.8635836 24:0.38420729 25:-0.14492115 26:1.1893228 27:-0.94578102 28:1.639493 29:-0.45027813 30:0.26541025 31:-0.36205086 32:-0.18370964 33:0.52930816 34:0.50683319 35:-0.47787382 36:-0.53859656 37:-0.7226105 38:-1.2366886 39:-1.8844357 40:-2.1028735 41:-1.2894082 42:-2.3340388 
-0.01 1:-1.1027318 2:0.14636342 3:-0.26797356 4:-1.2976822 5:-0.7738352 6:-1.4914153 7:0.22171229 8:-1.1344477 9:-0.10670083 10:1.4918453 11:1.085402 12:1.0676683 13:-0.90236935 14:0.18049534 15:-0.13499818 16:0.27489123 17:0.25864626 18:0.058710851 19:-0.0078152711 20:0.055653063 21:0.55816994 22:0.12951003 23:0.95681625 24:-0.52103912 25:0.41294413 26:0.8956655 27:0.36127487 28:-0.036527004 29:0.22616716 30:-0.15075671 31:1.0064874 32:0.49052344 33:-0.15909211 34:0.81925264 35:-0.53534118 36:0.021100055 37:-0.58830587 38:-0.32676726 39:-1.6083294 40:-0.85786256 41:-2.1562129 42:-0.78149316 
-0.01 1:0.32470337 2:-0.73023154 3:0.78403457 4:0.29571343 5:-0.18508663 6:0.86453519 7:0.22614161 8:0.44829149 9:0.024772599 10:-0.93063361 11:-1.0107169 12:0.28941341 13:0.11863047 14:-0.30214015 15:-1.051275 16:-1.2386803 17:0.12077467 18:-0.63080201 19:-0.93180654 20:0.32846763 21:-1.8733966 22:-0.12953289 23:-0.78226304 24:-0.3037732 25:-0.12746723 26:0.57722329 27:-0.32516986 28:-0.18031755 29:0.097117711 30:0.18621909 31:-0.12881732 32:0.68367738 33:0.04413223 34:0.36336353 35:0.51727049 36:0.83330363 37:0.10276449 38:1.0603406 39:0.75365447 40:1.0023787 41:2.1323547 42:1.283696 
-0.01 1:0.80105922 2:-1.2001664 3:-0.030112868 4:1.3371469 5:2.3527428 6:0.06958421 7:-0.61515943 8:0.56097301 9:-1.6177007 10:0.74448255 11:-0.010241019 12:-0.69518968 13:0.30160354 14:-1.0932888 15:0.51968049 16:0.45438228 17:0.95675373 18:0.31919542 19:0.34479256 20:-1.4832125 21:-0.52872408 22:0.93690894 23:-0.37915422 24:-0.48349682 25:0.70807471 26:-0.13509176 27:0.4557639 28:-0.65895886 29:1.1295423 30:0.058067309 31:-0.19626276 32:-0.2664045 33:0.19881176 34:-0.67808748 35:-0.062130771 36:0.18393738 37:-0.81618167 38:0.45483278 39:0.81870891 40:-0.094830079 41:-0.34054915 42:0.3358695 
-0.01 1:-0.88683385 2:0.9367491 3:0.42882198 4:-0.6212927 5:0.058589687 6:-0.81642697 7:1.69046 8:-0.7977214 9:0.25155345 10:0.81745326 11:-1.0697253 12:0.050296091 13:1.0363881 14:-1.2510072 15:0.098616825 16:-0.68436323 17:-0.63959862 18:-1.7225128 19:-0.52912041 20:0.13107971 21:0.93472047 22:-0.54888881 23:0.26704431 24:-0.24794199 25:-0.093727234 26:1.6945881 27:-0.49349367 28:0.98800855 29:-0.12928174 30:-0.068156716 31:-0.18783722 32:1.6769018 33:1.587375 34:0.38302936 35:0.62667405 36:-0.19475346 37:1.2554697 38:2.2002217 39:-0.005240811 40:0.42887104 41:2.5670488 42:2.8138065 
-0.01 1:-1.7629116 2:0.36666516 3:-0.82328878 4:-1.9430668 5:-1.0841664 6:-1.8220964 7:1.1694493 8:-1.6364989 9:-0.2696417 10:2.0053911 11:0.12229653 12:0.98610257 13:-0.53502983 14:0.19917131 15:1.64562 16:1.3118324 17:0.49152744 18:0.75275765 19:1.3634638 20:0.63209561 21:0.72334312 22:-0.8737305 23:1.1388178 24:0.065511231 25:-0.60802851 26:0.35802244 27:-0.67083833 28:1.6639427 29:-0.93638265 30:0.74060869 31:0.45614426 32:0.28910073 33:-0.57384682 34:0.45199126 35:-0.1738171 36:0.25811323 37:0.10725124 38:-0.52240751 39:-0.34341111 40:-0.20738574 41:-0.74838102 42:-0.95480997 
-0.01 1:-1.7196534 2:1.697868 3:-0.75938919 4:-1.5489295 5:-0.54631481 6:-1.7550224 7:0.90948761 8:-1.6097953 9:-0.37261299 10:1.5193583 11:2.0277597 12:1.1371641 13:0.48546812 14:0.18396047 15:1.0958167 16:-0.066494715 17:1.1789197 18:0.22101301 19:-0.35963432 20:0.8772637 21:0.18167495 22:-0.48541893 23:2.3340507 24:0.26802175 25:-0.025031781 26:0.79866874 27:0.091293593 28:1.1298366 29:-0.17717486 30:0.71332951 31:0.33692322 32:0.38165349 33:0.27413194 34:-0.14246179 35:0.21599152 36:-0.55404224 37:0.078862556 38:-0.28766848 39:-0.88904781 40:-0.95425102 41:-0.79376938 42:-0.77425933 
-0.01 1:-1.0319686 2:0.74222583 3:0.32956828 4:-0.76853146 5:0.41045591 6:-1.3219793 7:0.74175936 8:-1.1800712 9:0.61451315 10:1.1359927 11:-0.46534462 12:-0.96631133 13:-0.47186884 14:-0.17680463 15:0.79401887 16:-0.073252171 17:0.36409637 18:1.2002977 19:0.18153128 20:1.1239432 21:0.65335084 22:-0.68259432 23:0.72304882 24:-0.57030939 25:-0.57714641 26:-0.20617565 27:-0.81992246 28:1.1524855 29:-0.62067316 30:-0.65773962 31:-0.78302248 32:0.17801419 33:0.25559535 34:0.1108711 35:0.68992046 36:0.13403785 37:0.58993802 38:-0.30440686 39:0.10407375 40:0.36948448 41:1.4129014 42:-0.048851427 
-0.01 1:-1.4205219 2:-0.98270885 3:-0.97878253 4:-1.3144813 5:-0.37310462 6:-1.7808506 7:3.5548309 8:-1.3073926 9:-1.0340881 10:1.8488304 11:0.64007631 12:0.96257728 13:1.4037798 14:0.53957898 15:1.5150756 16:0.67861657 17:1.0261844 18:0.29215843 19:0.96437309 20:0.25622488 21:0.8828526 22:0.49532898 23:-1.0794259 24:-0.31111138 25:0.7940891 26:0.86474342 27:-0.24132428 28:2.9063571 29:0.29155335 30:0.270165 31:0.26972729 32:0.14731514 33:-0.20036203 34:-1.1614627 35:-1.4222655 36:-1.2887513 37:-0.84660188 38:-1.8990887 39:-0.65600397 40:-1.5123391 41:-1.9337594 42:-1.5684415 
-0.01 1:-0.45608797 2:0.10096839 3:0.18291377 4:-0.002084796 5:0.84253631 6:-0.2352537 7:1.6341154 8:-0.25122565 9:-0.077209207 10:-0.22760433 11:0.10035307 12:0.50481012 13:-0.51867909 14:0.95647166 15:-0.22270321 16:-0.045415853 17:-0.36878199 18:-1.365805 19:-0.82804695 20:-0.53379277 21:0.34516389 22:-0.16417537 23:0.99643502 24:0.41687864 25:-0.20463139 26:0.4350611 27:0.37864093 28:0.73543135 29:0.13327628 30:0.5598865 31:0.28161435 32:0.60922796 33:1.4040324 34:0.84445077 35:1.6717058 36:2.6411585 37:0.79039227 38:2.0462143 39:1.3059855 40:1.1439541 41:1.2554613 42:2.4052681 
-0.01 1:-2.2055325 2:2.526381 3:-1.1845111 4:-1.6452767 5:0.10744881 6:-2.269673 7:0.90006606 8:-2.1450126 9:-0.23557387 10:0.84943159 11:1.4316893 12:0.82050305 13:1.0373209 14:1.0282072 15:1.7316538 16:1.2072109 17:1.4184498 18:0.78583688 19:1.5716269 20:0.42616307 21:1.5313165 22:-0.91570055 23:3.2640668 24:-0.26266011 25:-0.26971942 26:0.44544596 27:-1.3214083 28:1.1107238 29:-0.86506552 30:-0.34483809 31:-1.0611896 32:-0.34703888 33:-1.066213 34:-1.4614056 35:-1.6420833 36:-1.383203 37:-1.842417 38:-2.1678624 39:-2.6178968 40:-2.9604979 41:-1.9140859 42:-2.6882592 
-0.01 1:-0.40686969 2:-0.16709682 3:-0.13236118 4:-0.7905448 5:-1.8375124 6:0.08194935 7:-0.54235741 8:-0.12150364 9:0.48937867 10:-0.36229168 11:-0.38053398 12:-1.6021306 13:-2.0060881 14:-1.7210046 15:-2.3808084 16:-1.3421986 17:-1.5620684 18:-0.66906409 19:-0.98560395 20:-0.89502015 21:-1.6086918 22:-0.81606224 23:-0.43696348 24:-0.15455678 25:-0.97776677 26:-0.68005495 27:-0.93857405 28:-0.66280234 29:-1.0931899 30:-0.38930811 31:-0.43274897 32:0.010242309 33:-0.26497382 34:0.93950763 35:-0.08405916 36:-0.038896971 37:-0.65971814 38:0.63629852 39:-0.78866542 40:-0.76444962 41:-1.0025919 42:-1.6451728 
-0.01 1:-0.57617447 2:-0.39012449 3:-0.26875652 4:-0.17956942 5:0.48122424 6:-0.35304117 7:0.21796458 8:-0.41093462 9:0.17238012 10:0.054678374 11:0.42154541 12:0.54964078 13:-0.15848756 14:0.81435856 15:0.24445073 16:0.27725688 17:0.28393778 18:0.42214815 19:-0.5332539 20:-1.0682937 21:-0.77792512 22:-0.1052964 23:0.081758487 24:0.21092328 25:-0.044968978 26:-0.24789072 27:0.3149973 28:-0.36283261 29:0.32675008 30:-0.12787691 31:0.037026956 32:0.3028846 33:-0.1764252 34:1.4000098 35:0.53295597 36:-0.43367875 37:-0.59266777 38:-0.51766191 39:-0.82202763 40:-0.87631814 41:-0.14419592 42:-0.6666053 
-0.01 1:-0.1907933 2:-0.8490001 3:0.46262282 4:-0.10349873 5:-0.1340722 6:-0.095767825 7:-0.24102161 8:-0.27174348 9:-0.11952708 10:-0.11207608 11:-1.6255441 12:-1.5526644 13:-0.23668422 14:0.51041958 15:-0.53348651 16:-1.2015395 17:-0.30670546 18:-1.6599977 19:-0.78451239 20:-3.2037301 21:-2.4847617 22:-0.13621111 23:-0.24603528 24:0.47169378 25:-0.38909933 26:-0.42809377 27:0.22996317 28:-0.2812528 29:-0.12959967 30:-0.22004723 31:0.43953458 32:0.071540339 33:2.5710587 34:0.34613745 35:0.6454505 36:-0.37879453 37:0.84724865 38:0.27881942 39:0.68509783 40:0.49415307 41:0.58176901 42:0.99265746 
-0.01 1:0.27435868 2:-1.3045576 3:0.82057449 4:0.25108004 5:0.24390574 6:0.10804288 7:-0.75968258 8:0.19191262 9:-0.64485949 10:0.25393002 11:-1.1884781 12:-1.5098299 13:-0.20350414 14:0.92709145 15:-0.22181501 16:-0.73146389 17:-1.7503675 18:-1.0181991 19:-0.048462609 20:-2.1548452 21:-1.1874315 22:-0.088133182 23:-0.6822725 24:-0.36437037 25:-0.18343456 26:-0.2858581 27:-0.12149167 28:-0.69064972 29:0.10668572 30:-0.45669978 31:-0.34311738 32:-0.25716755 33:0.20456204 34:-1.1501933 35:-1.6406127 36:-1.0811704 37:-1.0282581 38:-0.4433851 39:-1.0818283 40:-1.415456 41:-1.2945178 42:-0.78975121 
-0.01 1:-1.3904526 2:1.4178722 3:-0.97155047 4:-1.0040107 5:0.12014329 6:-1.7095035 7:2.2658639 8:-1.4810126 9:-1.0172337 10:0.6415554 11:1.7308194 12:1.0542849 13:0.58735112 14:1.017634 15:0.26694899 16:1.1942241 17:1.7975555 18:1.8167946 19:0.77663327 20:1.9544556 21:0.44391077 22:0.33897353 23:3.2833599 24:0.48530942 25:0.42889329 26:0.043429312 27:-0.18035686 28:1.5734825 29:0.011731986 30:1.0998272 31:-0.074447104 32:0.046365944 33:-0.41696584 34:-0.30677169 35:-1.4522501 36:-0.76598447 37:-1.5233634 38:-1.4714003 39:-1.0154658 40:-1.4949937 41:-0.020864882 42:-2.6427167 
-0.01 1:-1.508715 2:-1.1828065 3:-0.13668289 4:-0.9995343 5:0.25161435 6:-1.3490786 7:1.1872365 8:-1.2383538 9:-1.0210992 10:0.67825873 11:-0.11865335 12:1.1258997 13:1.4159621 14:0.93562736 15:0.9528219 16:1.1702655 17:0.69073038 18:1.2495621 19:1.4638286 20:0.93034214 21:0.75534526 22:-0.45626096 23:-1.047829 24:-0.16270012 25:0.21665286 26:1.9638097 27:0.10974769 28:1.3419581 29:0.10187257 30:0.022728072 31:-0.13154141 32:-0.28537936 33:1.1303064 34:0.1499735 35:-0.13314908 36:-0.43218897 37:0.17945006 38:-0.28097602 39:0.32984605 40:0.75019034 41:0.27757715 42:-0.4265107 
-0.01 1:-0.19655604 2:-1.0273388 3:0.64748126 4:-0.10204803 5:-0.0042701153 6:0.026943321 7:0.22460122 8:-0.14581044 9:-1.0659924 10:-0.58989443 11:-1.0727259 12:0.42807023 13:-0.58944724 14:0.59238776 15:0.52407535 16:1.343911 17:0.20340436 18:-0.49930144 19:-0.33157507 20:0.61101268 21:0.97849057 22:-0.17566787 23:-0.5355487 24:0.55282413 25:-0.15229416 26:1.2553809 27:0.10407714 28:0.93068463 29:0.15236981 30:0.20278625 31:-0.027681793 32:0.62505747 33:1.7883214 34:0.56767807 35:1.5530316 36:1.1232551 37:3.0145615 38:3.0634568 39:2.04533 40:2.9778758 41:0.19006233 42:1.0219657 
-0.01 1:-1.6464807 2:1.2206196 3:-0.22693535 4:-1.4360446 5:-0.3786386 6:-1.7474687 7:0.60659892 8:-1.5234869 9:-0.11111659 10:1.2925122 11:0.16526734 12:1.3356419 13:0.57354085 14:-0.11408459 15:1.3447387 16:0.93211131 17:0.87441716 18:0.51370617 19:0.38224187 20:-0.0055393367 21:0.91804684 22:-0.48260123 23:1.4772876 24:-0.54749951 25:0.20130154 26:1.418755 27:-0.39543663 28:0.12025396 29:-0.11522815 30:-0.48145739 31:-0.26804058 32:0.026173556 33:0.19306349 34:-0.22946817 35:-0.59589391 36:-1.1274683 37:-1.1000099 38:-0.58547276 39:-0.84654496 40:-0.88561309 41:-0.47225503 42:-1.0903093 
-0.01 1:0.59429661 2:0.038139418 3:-0.077908993 4:1.1077872 5:1.1048575 6:0.41730467 7:0.047608502 8:0.77257507 9:-0.018265551 10:0.018072724 11:-0.94679598 12:-1.3087978 13:-1.0135266 14:-0.51101117 15:2.1960227 16:-0.3073742 17:1.2850691 18:-0.11723727 19:-0.351727 20:0.87256553 21:-0.10831549 22:0.76977692 23:0.092095203 24:-0.26243295 25:0.68447162 26:-0.20955083 27:0.56312852 28:-0.18486606 29:0.86968512 30:0.45146673 31:0.27593913 32:-0.22911558 33:-0.64054962 34:0.28069635 35:0.12690875 36:-0.84568614 37:-0.7286961 38:-1.3622865 39:-0.15603133 40:-1.9352302 41:0.27600216 42:-0.82484285 
-0.01 1:-1.0102041 2:-0.69731314 3:-1.3216374 4:-1.0409 5:-0.1786373 6:-1.3107622 7:0.56622218 8:-1.245661 9:-1.0149668 10:1.0978453 11:1.1563217 12:1.2648265 13:0.31435084 14:-0.41760488 15:0.31774229 16:-0.59034125 17:0.049654503 18:1.029769 19:-0.59503044 20:0.095056583 21:0.19886234 22:-0.11449946 23:-0.83715503 24:0.34569235 25:0.034571317 26:0.2550072 27:-0.015945628 28:0.76127216 29:-0.35254941 30:0.68653225 31:0.1704814 32:0.092263755 33:-0.44395442 34:0.01007372 35:-0.63134916 36:-0.30217489 37:-0.065015835 38:-0.071915341 39:-0.018630542 40:0.24022891 41:-1.1957003 42:-0.78141044 
-0.01 1:-0.46947122 2:1.9541967 3:-0.13222774 4:-0.67342527 5:-0.55822078 6:-1.002208 7:0.49516479 8:-0.62728443 9:0.003178684 10:0.98101059 11:1.098311 12:-0.61135107 13:-1.4871881 14:0.79685835 15:0.41188409 16:1.1780792 17:1.648663 18:0.19735299 19:0.086433731 20:0.2946286 21:-0.17959183 22:0.35254857 23:4.863765 24:-0.038808691 25:0.31229482 26:0.22379194 27:0.32690907 28:-0.078669921 29:0.2325511 30:0.81376052 31:1.1172952 32:0.77598291 33:0.21309791 34:0.82472306 35:1.1094034 36:-0.63246218 37:0.67349761 38:-0.40675515 39:0.88401045 40:-0.64372098 41:0.081904834 42:-0.94498676 
-0.01 1:0.57127208 2:-0.87910678 3:-2.689816 4:0.27344566 5:-0.46848124 6:0.10357472 7:-1.2370273 8:0.32396027 9:0.15524016 10:0.17783756 11:0.19734633 12:-0.58369534 13:-0.33940253 14:-0.83639037 15:0.12074649 16:0.58689682 17:-0.18634989 18:-0.22324013 19:-0.40043305 20:-2.0067921 21:1.0005037 22:0.31078404 23:-1.2549228 24:0.57891164 25:0.26327114 26:-0.75804362 27:-0.91481166 28:-0.84586641 29:-0.42714964 30:-0.21128068 31:-0.49747861 32:-0.47731211 33:-0.56917033 34:-0.90895492 35:-1.2893132 36:-1.0968356 37:-1.3024888 38:-1.8211814 39:-1.5278724 40:-1.2693807 41:-1.6535805 42:-1.1501309 
-0.01 1:-0.86394569 2:0.45083193 3:0.27965513 4:-1.0206047 5:-0.65018554 6:-0.52810691 7:0.58991455 8:-0.89770447 9:0.4220831 10:0.061934368 11:-2.346355 12:1.0956895 13:1.523708 14:1.3329243 15:-0.098439575 16:-0.50049369 17:0.56437053 18:0.59181903 19:-0.079150663 20:0.070108061 21:0.23693538 22:-0.61263079 23:1.0680114 24:-0.19195803 25:-0.31717838 26:0.61382072 27:-0.1675126 28:0.10780685 29:-0.50063469 30:-0.10172733 31:0.27770414 32:1.0645058 33:-0.054126551 34:1.0129763 35:0.92499294 36:1.4198829 37:0.57344862 38:1.2228038 39:1.155384 40:0.22174033 41:0.52200613 42:0.53277872 
-0.01 1:-0.42095933 2:-0.81607254 3:-0.1859625 4:-0.50250483 5:-0.077235036 6:-0.5964199 7:0.33768735 8:-0.39813818 9:-0.05229653 10:1.0668741 11:0.10196763 12:-0.21734545 13:-0.74458186 14:0.47450178 15:-1.3994305 16:-0.64563474 17:0.02494258 18:-1.0747789 19:0.33334873 20:0.080465882 21:-0.11089232 22:0.22888201 23:-0.065781939 24:0.34322477 25:0.29247183 26:0.96170019 27:0.32511345 28:0.069735767 29:0.35679955 30:-0.55375559 31:-0.39932245 32:-0.27557564 33:0.27076566 34:-0.34139908 35:-0.4358914 36:-0.68238779 37:0.46552741 38:0.29235557 39:1.5571951 40:1.0208314 41:0.70963989 42:0.47427576 
-0.01 1:0.16679631 2:0.19544741 3:0.22362483 4:-0.021158665 5:-0.011766717 6:0.23315566 7:0.2412441 8:0.013662747 9:-0.74504303 10:-0.01726344 11:-0.35207942 12:-0.47765144 13:-0.89012426 14:-1.3332725 15:-0.9611951 16:-0.27306521 17:-1.4964832 18:-2.0417915 19:-1.5152164 20:-0.96127024 21:-0.84457744 22:-0.22135534 23:0.95770074 24:0.49937848 25:-0.35103127 26:-0.74764677 27:0.4346039 28:-0.02583911 29:-0.17423078 30:-0.74434749 31:-0.097636604 32:-0.91025477 33:-0.1127376 34:-1.6424551 35:-0.88200068 36:-1.8455455 37:-1.8779185 38:-0.57432241 39:-0.86375198 40:-0.6000986 41:-1.6219376 42:0.69706509 
-0.01 1:0.042051446 2:-0.79462558 3:0.58237237 4:-0.11539984 5:-0.37971669 6:-0.018424672 7:0.060132748 8:0.065748748 9:-0.64740619 10:0.098176705 11:-0.85158491 12:-1.3946266 13:-0.92759467 14:0.014439478 15:-0.92896376 16:-1.3111143 17:-1.7965406 18:-1.0617443 19:-0.87384653 20:-1.1682795 21:-0.80238438 22:0.24675587 23:0.012651848 24:-0.070276622 25:0.18395764 26:0.58652733 27:0.87972652 28:0.0060582175 29:0.49148298 30:0.33703768 31:0.13140474 32:0.55591453 33:-0.22944051 34:0.38594643 35:0.18367092 36:0.47244422 37:1.093895 38:1.2648569 39:0.43125813 40:0.0067169259 41:2.1182637 42:1.5729571 
-0.01 1:0.76062309 2:-0.70945259 3:0.16432596 4:0.47852205 5:-0.50336036 6:0.22242981 7:0.55894378 8:0.87854758 9:-0.50103354 10:0.51986597 11:0.82886319 12:-0.48493461 13:0.72687643 14:0.96830653 15:-0.26442253 16:0.10608792 17:0.4660155 18:0.11888236 19:0.58536344 20:0.01856801 21:-0.29969291 22:-0.390937 23:-0.49330217 24:-0.36221073 25:-0.025340714 26:0.40191276 27:-0.47319457 28:0.47263274 29:-0.10978672 30:0.24379607 31:-0.31138583 32:0.23643058 33:-0.307423 34:0.50685185 35:0.043295834 36:-0.033624916 37:0.30004594 38:-0.18197652 39:-1.4896722 40:-0.23793928 41:-1.8760638 42:-0.60680158 
-0.01 1:0.27951343 2:0.57181452 3:1.2684279 4:-0.18872733 5:-1.2897828 6:0.87577098 7:0.6141132 8:0.10741755 9:0.046100247 10:-1.4775788 11:-2.8492135 12:-1.3893153 13:-1.0455068 14:-0.73005447 15:1.1511003 16:1.3201089 17:-0.099681091 18:-0.73016233 19:-0.65795676 20:0.81796573 21:-0.56647286 22:-0.58844885 23:-0.18996377 24:-0.72011627 25:-0.71157991 26:-1.0684614 27:-0.76594463 28:0.029292563 29:-0.73066156 30:0.11453133 31:0.39132512 32:0.0072949916 33:-0.36675313 34:0.74074584 35:-1.0913345 36:0.02467864 37:-0.15056773 38:0.39257409 39:-0.89223454 40:-0.313612 41:-0.86244524 42:1.0348533 
-0.01 1:-0.62966928 2:0.17268741 3:-0.30172972 4:-0.45822102 5:0.25411351 6:-0.22794339 7:0.32748624 8:-0.60982597 9:0.90656238 10:-0.15945592 11:0.1282806 12:0.639256 13:0.38888042 14:0.11423929 15:-0.3871463 16:0.24398419 17:-1.0158342 18:-0.15920349 19:-0.9299625 20:-0.1290631 21:0.024902492 22:-0.55812795 23:0.27152282 24:0.05347584 25:-0.70053097 26:-1.1943571 27:-0.081833132 28:-0.027629345 29:-0.38345276 30:-0.70077918 31:-0.78462719 32:-0.83229704 33:-0.63075605 34:-0.89389724 35:-0.98571375 36:-0.060895905 37:-0.053925915 38:-1.3404979 39:-1.6094343 40:-0.064413273 41:-1.475335 42:-0.46177954 
-0.01 1:-0.50057152 2:-0.2220307 3:-0.029273417 4:-0.41435375 5:-0.13941194 6:0.13069804 7:-0.16313336 8:-0.25216877 9:0.72443988 10:-0.38267981 11:0.22335247 12:1.0703295 13:0.58742976 14:-0.041936313 15:-0.17296327 16:0.19851542 17:-0.36912868 18:-0.073809469 19:-0.89598913 20:0.39821059 21:-0.069957457 22:-0.49395441 23:-0.018380508 24:-0.38153831 25:-0.6178511 26:-0.34319275 27:0.051660462 28:-0.3464082 29:-0.31607878 30:-0.44456978 31:-0.47883787 32:-0.26132679 33:0.11592222 34:-0.45505981 35:-0.47414933 36:1.1334557 37:-0.4434719 38:-0.66890447 39:-0.11031953 40:-0.5250337 41:-0.66094173 42:-0.25656552 
-0.01 1:0.23254796 2:0.47660615 3:0.43037944 4:0.62070752 5:0.71472209 6:0.36437538 7:0.36051379 8:0.21133234 9:-0.17393533 10:-1.2820917 11:0.30491888 12:0.40425941 13:0.57647147 14:-0.69221004 15:-0.83266167 16:0.17491946 17:-1.3275125 18:-1.0434359 19:-0.96453325 20:-0.25624137 21:0.54736497 22:0.5198663 23:0.8274345 24:0.42351528 25:0.25644045 26:0.1312392 27:1.6163654 28:0.78315917 29:0.72802529 30:0.39709638 31:1.3057704 32:0.6422215 33:2.3631431 34:-0.16829157 35:0.75948442 36:2.1003168 37:0.23032466 38:2.628508 39:1.8493379 40:0.5124805 41:0.4013193 42:2.1624899 
-0.01 1:-0.87252057 2:1.3346214 3:0.23474404 4:-0.34444544 5:0.55472006 6:-0.83388144 7:0.65120742 8:-0.56861649 9:0.43118354 10:-0.2161249 11:0.45879863 12:0.29185477 13:0.12726036 14:-0.2702911 15:-0.61567733 16:-0.32188607 17:0.22777463 18:0.037604532 19:0.32898651 20:-0.070502981 21:-0.87600738 22:-0.22377677 23:-0.058726781 24:-0.51904304 25:0.22888876 26:1.7735969 27:-0.029564276 28:0.1053894 29:0.5626052 30:-0.24434531 31:-0.21652464 32:1.0908761 33:0.44174441 34:0.47704631 35:0.9040643 36:1.2049334 37:0.30680319 38:1.1553215 39:0.0941876 40:2.8470259 41:0.68263107 42:0.98321139 
-0.01 1:-0.57308162 2:0.889843 3:0.91007711 4:-0.34468521 5:-0.37955015 6:-0.14761953 7:0.58134597 8:-0.48443375 9:0.52209214 10:-0.91931578 11:-0.12823053 12:-0.27972466 13:-0.18484539 14:-0.91932494 15:-1.3229753 16:-0.70084822 17:-0.82586102 18:-0.57796491 19:-0.81669364 20:-1.1446836 21:0.67258049 22:-0.5568162 23:0.53894552 24:-0.58985466 25:-0.80930474 26:-1.0522845 27:0.090904381 28:0.15441628 29:-0.48968261 30:-0.31435361 31:0.013432974 32:1.0532066 33:1.0998289 34:0.3582313 35:1.4648376 36:0.2435951 37:-0.13838192 38:0.35122708 39:0.57838793 40:1.1107623 41:1.9305408 42:0.5112526 
-0.01 1:-0.66586706 2:-1.1063656 3:-1.5537234 4:-1.0988225 5:-1.0085528 6:-0.56363329 7:0.0089164097 8:-0.82704389 9:-0.4120555 10:0.76183036 11:0.47212586 12:0.85679929 13:0.044794264 14:-1.4144524 15:-0.40485793 16:1.2906077 17:-1.6988966 18:-0.037065389 19:0.10211796 20:1.7446154 21:-0.10288977 22:-0.24462932 23:-1.3456031 24:0.63733786 25:-0.15354044 26:0.18742155 27:-0.47849284 28:0.17400563 29:-0.50743886 30:-0.23134573 31:-0.17126658 32:0.1391191 33:-0.13689008 34:-0.13636647 35:0.52073999 36:0.025083938 37:-0.097725628 38:0.38780904 39:-1.0706666 40:-0.080805885 41:0.76324034 42:-1.0512009 
-0.01 1:-0.094148409 2:-0.27123223 3:0.85612941 4:-0.39950378 5:-0.52418317 6:0.18431574 7:-0.22920694 8:-0.17191774 9:0.12766363 10:-0.32429266 11:-0.13941119 12:0.83733275 13:0.1849352 14:2.1492706 15:1.431734 16:0.055321566 17:-0.1461217 18:0.39513067 19:-0.60519412 20:-0.93679334 21:-0.93930867 22:-0.12949156 23:0.26637547 24:-0.32732029 25:0.065282618 26:0.45645026 27:0.069979317 28:-0.19052854 29:-0.11131993 30:-0.062391702 31:-0.38287092 32:0.13053376 33:0.60031253 34:0.22992748 35:0.085596677 36:1.710853 37:0.57735236 38:0.89983803 39:1.5529644 40:0.78617783 41:1.3295107 42:0.16927068 
-0.01 1:0.023952559 2:-0.80399995 3:-0.0063667945 4:0.6941286 5:1.4596332 6:0.031903926 7:0.61143084 8:0.16979214 9:-0.44322318 10:-0.17407926 11:-0.71806493 12:0.66069522 13:1.2408326 14:0.56970314 15:0.08080018 16:-0.45922738 17:-0.74978068 18:0.34381733 19:-1.0698754 20:-3.0810935 21:-1.1303519 22:0.33274476 23:-0.14728048 24:-0.099599335 25:0.41463628 26:1.0644231 27:0.076965982 28:-0.14444344 29:0.69107283 30:0.34741254 31:-0.36586424 32:0.98343629 33:0.30141129 34:0.16256116 35:0.33309043 36:0.022913704 37:-0.16034259 38:-0.42924181 39:-0.61359404 40:1.1343326 41:2.3907763 42:1.9874886 
-0.01 1:-0.024502058 2:-0.45623373 3:0.77263749 4:0.37626349 5:1.4208897 6:-0.22119399 7:-0.44397892 8:-0.077005477 9:0.086215038 10:0.67015644 11:-0.72816767 12:-0.67984565 13:-0.15390116 14:-1.6357162 15:0.6164619 16:-2.0226659 17:-0.95048582 18:0.78416911 19:0.6779451 20:-0.6112339 21:-0.4947475 22:-0.13188126 23:-0.38786563 24:-0.80373124 25:0.096957674 26:0.591854 27:-0.19405376 28:-0.43826659 29:0.28197983 30:-0.23913641 31:-0.54401993 32:-0.08592392 33:-0.92000428 34:-0.36586677 35:0.46382784 36:1.1391055 37:1.0926715 38:0.85018033 39:0.66805457 40:2.1672857 41:2.9015213 42:0.90275982 
-0.01 1:0.81237302 2:-0.070143882 3:0.38172651 4:1.1227613 5:1.2973108 6:0.7452244 7:-0.85794929 8:0.94359302 9:-0.17740977 10:-0.7755372 11:-0.4082747 12:1.6713143 13:-0.37840952 14:0.20311798 15:1.5704114 16:0.013095108 17:0.10472866 18:1.2482927 19:0.49219768 20:0.97060114 21:1.3314027 22:0.64112318 23:-0.20944141 24:-0.35310774 25:0.38951043 26:0.30563785 27:0.58855889 28:-0.69961619 29:0.7085523 30:0.0015478025 31:0.80234902 32:0.54215327 33:0.67669415 34:0.76065092 35:-0.23523466 36:-0.1117706 37:0.27986318 38:-0.5038649 39:-0.49148699 40:-0.55944759 41:-0.77809165 42:-0.33186953 
-0.01 1:0.52178651 2:-0.071636639 3:0.26147906 4:1.5977068 5:2.0210426 6:0.41871791 7:0.066074811 8:1.0252886 9:-0.22055987 10:-0.51249703 11:0.9914499 12:0.31617948 13:1.1078604 14:0.55012568 15:-0.086973626 16:-0.43955677 17:-0.30582527 18:-0.16502753 19:-0.39363766 20:0.076105371 21:0.96054965 22:0.41819145 23:0.51033792 24:-0.0633012 25:0.86323239 26:1.9280018 27:0.80378439 28:0.2870124 29:1.3989327 30:0.52110034 31:0.39686283 32:0.53963605 33:0.69719911 34:0.41331305 35:1.0399754 36:1.1199565 37:0.43343338 38:0.8499179 39:1.9144876 40:1.629034 41:0.40827727 42:2.3717639 
-0.01 1:-0.13849196 2:1.0728411 3:-0.020853459 4:0.58072964 5:1.1604143 6:0.17675354 7:-0.44498543 8:0.1584604 9:0.8314996 10:-0.61039314 11:1.3531253 12:0.5048494 13:1.3113966 14:0.57952734 15:-0.90551316 16:0.99796931 17:0.6130201 18:0.71322822 19:-0.019721491 20:0.40028784 21:0.99144631 22:-0.43143385 23:0.48738953 24:-0.28880458 25:-0.42701273 26:-0.29124605 27:0.035374832 28:-0.27930548 29:0.10880729 30:-0.76665339 31:-0.65535747 32:0.11054383 33:-0.61162436 34:0.3568194 35:0.71656671 36:0.69022148 37:0.3301177 38:1.6727881 39:1.0721269 40:-0.44453919 41:-0.363442 42:0.74101667 
-0.01 1:0.10228388 2:-0.88720692 3:-0.3421117 4:-0.26434556 5:-0.5122604 6:0.33226778 7:-0.40057907 8:0.1240079 9:-0.24646891 10:-0.34432603 11:-0.14336508 12:0.33295257 13:-1.0917275 14:1.2648326 15:0.73431319 16:1.5607433 17:-1.3052703 18:0.0016689497 19:0.66921219 20:0.20079865 21:1.7112595 22:-0.16479363 23:-0.35981213 24:0.052206078 25:-0.064861802 26:0.41338221 27:0.16859025 28:-0.48420243 29:-0.058002136 30:-0.023328681 31:0.24774922 32:0.47094337 33:-0.60641281 34:0.12612859 35:0.36311657 36:1.767363 37:-0.4514646 38:0.76804474 39:-0.046453024 40:-0.21966046 41:-0.83354709 42:0.26603869 
-0.01 1:-0.63390763 2:-0.5741039 3:0.2397185 4:-1.0952342 5:-1.2843025 6:-0.027303762 7:0.4646821 8:-0.50140993 9:0.48195719 10:0.14027891 11:-0.92133651 12:0.83225596 13:-0.78964255 14:-0.42483263 15:0.75259758 16:0.20902771 17:0.084804011 18:0.128742 19:0.61180361 20:-0.36466835 21:-0.58087145 22:-0.59532478 23:-0.50911877 24:-0.31856629 25:-0.79157534 26:0.037215626 27:-0.52509209 28:-0.29697708 29:-0.63489213 30:-0.55637623 31:-0.51712469 32:0.48010759 33:0.68817885 34:0.70032878 35:-0.1005527 36:0.42558762 37:1.5667213 38:-0.097674866 39:0.12304757 40:-0.57949633 41:-1.1788235 42:-1.1482431 
-0.0005319789532907919 1:2.7929678 2:-1.0075204 3:0.5315172 4:2.9855542 5:1.8155314 6:1.4059372 7:-0.10404798 8:2.5714069 9:-0.76636416 10:-0.80747479 11:0.91691876 12:0.15025755 13:0.57457978 14:-0.71959556 15:0.19284675 16:-1.4145034 17:1.1839723 18:-1.6268297 19:0.55542392 20:0.23967518 21:-0.47725597 22:1.8579806 23:-0.74773218 24:-0.39330174 25:1.2259357 26:0.18582275 27:1.1837228 28:-0.27001539 29:1.5589682 30:0.0492684 31:0.97257433 32:1.057209 33:0.49046465 34:-0.61332634 35:1.2235827 36:0.53982651 37:0.66541685 38:1.4738001 39:1.817957 40:0.99829991 41:0.20993558 42:1.6028909 
-0.01 1:1.5152289 2:0.16831056 3:1.1853591 4:1.5029613 5:1.0559323 6:1.8074633 7:-1.1164159 8:1.8633496 9:0.81717845 10:-1.0755019 11:-0.086628916 12:0.10032024 13:1.2287112 14:0.38189901 15:0.44190153 16:0.40433281 17:0.28919833 18:-0.57292849 19:-0.73008699 20:0.5105573 21:0.12821417 22:-0.10662573 23:-1.0166129 24:-0.96111509 25:-0.48755711 26:-1.8534914 27:-0.43699687 28:-1.0559358 29:-0.43447341 30:-0.82504351 31:-0.8169671 32:-0.4059163 33:0.11511276 34:0.10155214 35:0.10595728 36:0.16794137 37:0.027417374 38:-0.58933158 39:0.44534022 40:1.3502096 41:-0.28157068 42:-0.49073516 
-0.01 1:1.5993576 2:0.0023881922 3:1.3688737 4:1.5178114 5:0.68095445 6:2.061123 7:-0.48835353 8:1.5838306 9:0.90858798 10:-1.4736096 11:-0.65960147 12:-0.52936568 13:0.46765692 14:-0.43919453 15:0.34438325 16:0.49073741 17:0.1587126 18:-1.0420862 19:-1.8290332 20:-0.17243304 21:-0.42585664 22:-0.2824914 23:-0.89400297 24:-0.90736245 25:-0.44195515 26:-0.47830652 27:-0.41199552 28:-0.82143654 29:-0.20771294 30:-1.0101741 31:-0.23589642 32:0.7089251 33:1.5277475 34:0.40148677 35:0.84998182 36:0.64813507 37:1.4935152 38:0.8018628 39:-0.63305705 40:1.4090815 41:1.2258928 42:1.1993856 
-0.01 1:0.30910631 2:-0.75157251 3:0.32205722 4:0.12734916 5:-0.32795446 6:0.51636093 7:-0.12326227 8:-0.00305348 9:0.013820438 10:-1.4085763 11:-2.2915046 12:-0.38727192 13:-0.3977687 14:1.7773981 15:0.47753812 16:1.0513496 17:0.0060941056 18:-0.088451 19:1.1098693 20:0.52193043 21:-0.043396888 22:-0.82474737 23:0.016151107 24:0.087955789 25:-0.92594351 26:0.57458768 27:-0.96551524 28:-0.31851042 29:-1.0264691 30:-0.29975128 31:-0.26407429 32:0.99147659 33:-0.89080975 34:2.9882456 35:1.3702669 36:0.84648278 37:-0.23539923 38:1.1885366 39:-0.28639171 40:0.088627496 41:0.25445265 42:-0.42879287 
