svm_type c_svc
kernel_type linear
nr_class 3
total_sv 70
rho 0.146495 2.16516 0.231566
label 0 1 2
probA -2.47191 -1.79677 -3.04107
probB -0.257625 -0.070005 -0.360127
nr_sv 26 15 29
SV
0.02948713651043105 0.3496844997995367 1:0.073965369 2:-0.3259553 3:0.93989589 4:-0.24574901 5:-0.52151543 6:0.60489644 7:-0.99798501 8:0.050575946 9:0.8608286 10:-0.23595834 11:-0.45468555 12:0.32645312 13:-0.12983069 14:0.46321428 15:0.13118218 16:0.29106698 17:0.62320585 18:0.57763424 19:0.22521978 20:-1.0976485 21:-0.11294907 22:0.57346658 23:0.65623426 24:-0.56072307 25:-0.18183093 26:1.1280909 27:-0.74328005 28:-0.54289597 29:0.25542797 30:-0.33300927 31:-0.073019646 32:-0.88810624 33:1.3129513 34:-1.1002626 35:-0.82465873 36:-0.50211118 37:-1.0770365 38:-1.2833664 39:-1.1464207 40:-0.76821846 41:-0.98622029 42:-0.82805814 43:-1.0248364 44:-1.5686917 45:-1.7432078 46:-2.0649122 47:-1.9471174 48:-2.1083521 49:-1.936791 50:-1.7295251 51:-1.730714 52:-1.4308153 53:-1.4395755 54:-1.7676477 55:-1.2302513 56:-0.19343856 57:0.43656554 58:-0.76071487 59:-0.53319617 60:0.11882916 61:-1.1174326 62:-0.75252046 63:-0.27293165 64:-0.66791697 65:-0.81387154 66:-1.325281 67:0.92050056 68:-1.264876 69:-1.045549 70:-0.7321396 
0 0.586264770257485 1:-0.85911741 2:-0.78203859 3:-0.11832509 4:-1.4177502 5:-1.4366094 6:-1.0788681 7:0.11778674 8:-0.9701139 9:-1.0264201 10:1.6153322 11:-1.4204844 12:-0.46324974 13:-1.2269032 14:-0.5472977 15:-0.87595279 16:-0.90520455 17:-0.48174315 18:-0.71396054 19:0.20051879 20:-0.41608248 21:-0.4892058 22:0.89798717 23:-0.097617275 24:-0.81600859 25:1.5556541 26:0.19376709 27:0.57186658 28:-0.41557886 29:1.3203329 30:1.8692885 31:0.68654875 32:-0.60598634 33:1.6435886 34:-0.43256571 35:-1.0898977 36:-0.73767892 37:-0.065061732 38:-0.61344705 39:1.6342256 40:-0.98841928 41:-0.0043420715 42:-1.1107492 43:-0.2612766 44:0.031481339 45:0.42016659 46:0.9124549 47:0.53447846 48:0.60361212 49:0.6753108 50:0.3784195 51:0.65282067 52:0.33806226 53:0.35213567 54:-0.033574312 55:-0.1753561 56:1.0885835 57:-0.10601095 58:-0.86336888 59:1.8521392 60:0.29870397 61:0.49857691 62:-0.46621067 63:1.3129142 64:2.5260402 65:0.71532828 66:-0.48729857 67:1.8646968 68:-0.73922987 69:-0.3992809 70:-0.55274179 
0 0.1076564108161638 1:0.97046071 2:-0.56698966 3:0.60667804 4:0.6224866 5:-0.0022445005 6:1.1146618 7:-0.58600746 8:1.0743488 9:0.0046967817 10:-0.93804936 11:0.65808047 12:-1.2762055 13:-0.9737559 14:-0.97773198 15:-0.56967336 16:0.19140667 17:-1.4712248 18:-1.0511006 19:0.1528688 20:0.32730921 21:-0.36909982 22:0.021250576 23:2.0592132 24:-0.71386263 25:0.59108443 26:-0.76020242 27:2.9306389 28:-0.75468508 29:1.7434393 30:-0.34951079 31:-0.74637087 32:0.34649591 33:-0.34423832 34:-0.30474527 35:0.81317192 36:-0.45156862 37:-0.49986152 38:-0.015000943 39:-1.1921244 40:1.035539 41:-0.58615763 42:0.66551588 43:0.19750725 44:0.31743784 45:-0.29533218 46:0.40886406 47:0.91083907 48:0.78716367 49:1.6248138 50:1.1321947 51:2.2296843 52:1.7422294 53:2.0029301 54:2.3601221 55:0.87532979 56:0.11682079 57:3.1998063 58:-0.66593982 59:1.5373251 60:-0.495756 61:2.9334099 62:-0.72172804 63:1.523879 64:0.010825288 65:-0.29665488 66:0.32908431 67:-0.22346563 68:-0.34132653 69:1.1086779 70:-0.2714013 
0.01998804771520139 0.13826514402849 1:1.5266324 2:-0.77469115 3:0.65306513 4:1.0398957 5:0.25729515 6:1.4966092 7:-0.53714 8:1.2022974 9:-0.59835939 10:-1.5234177 11:-1.369348 12:-2.1696983 13:0.94987568 14:0.33164404 15:-1.6049077 16:-1.1351406 17:0.020166162 18:-0.19928579 19:-1.2696146 20:-0.66813948 21:0.037060573 22:0.31041581 23:-0.40485997 24:-0.97132106 25:-0.37081459 26:-0.64926905 27:-0.48792906 28:-0.89805047 29:0.81475546 30:0.35046233 31:-0.89799795 32:-0.16888221 33:0.81887628 34:-0.94412904 35:0.2588894 36:-0.72279329 37:-0.42262681 38:-0.59088498 39:-1.3295672 40:0.26683176 41:-0.38093452 42:0.1638502 43:-0.11539595 44:-0.060784845 45:0.11675442 46:0.62963258 47:1.2374241 48:1.4955076 49:2.3965352 50:2.46974 51:2.0114422 52:1.6759356 53:0.71734584 54:0.93833935 55:0.68193946 56:0.65373137 57:-0.2178342 58:-0.94967827 59:-0.26366496 60:-0.30088769 61:-0.51914195 62:-0.84454366 63:0.53128893 64:0.70824512 65:-0.70995411 66:0.10630302 67:0.81857585 68:-0.67762201 69:-0.92126666 70:-0.11166374 
0 0.05266379404889762 1:2.3751061 2:-0.45339819 3:1.4347446 4:1.2612566 5:0.11815601 6:2.2394717 7:-0.77569327 8:2.2960418 9:0.47682623 10:-1.4417864 11:-0.086476559 12:-1.1332751 13:-0.16949147 14:-0.93307798 15:0.46664249 16:2.8617894 17:-0.47718386 18:-0.072183749 19:-0.41124384 20:-0.015281558 21:0.79157171 22:-0.80815414 23:2.0114209 24:-0.98145045 25:0.58878802 26:-1.073094 27:0.29001025 28:-0.95911933 29:1.775381 30:-0.80955693 31:-0.61900967 32:-1.2220689 33:-0.17271377 34:-1.1118301 35:0.63913212 36:-0.4939709 37:-1.2602857 38:-0.72188747 39:-1.4041373 40:-0.072851413 41:-0.8196225 42:0.13108969 43:-0.97803001 44:-0.51011121 45:-0.043654349 46:0.76059116 47:0.85816913 48:1.4940681 49:1.444865 50:1.7706716 51:1.6323342 52:1.9937652 53:1.8441022 54:1.9530115 55:1.0316509 56:-0.96323011 57:2.1136765 58:-1.0270527 59:0.71978103 60:-1.0549341 61:0.52625554 62:-1.01339 63:1.8200929 64:-0.93926299 65:-0.70631803 66:-1.1025049 67:-0.16805321 68:-0.80642948 69:-0.77627061 70:-0.74108765 
0.0336866365396141 0.1305909177853977 1:0.98868719 2:-0.69216099 3:0.61436567 4:0.25782798 5:-0.8539578 6:1.0097197 7:-0.23339797 8:1.045726 9:-0.46539976 10:-1.3069337 11:-0.47940118 12:-2.2578197 13:0.10530936 14:-1.0588081 15:1.8349696 16:-1.6360407 17:-3.1535618 18:-0.40268924 19:2.1693063 20:1.0279399 21:-1.3351424 22:-1.3571725 23:0.047805538 24:-1.0510182 25:-0.16241143 26:-0.68000797 27:0.73293755 28:-0.062437114 29:3.2448772 30:0.45262315 31:-0.37000843 32:-0.90142143 33:-0.66933358 34:-0.79483441 35:0.14395636 36:-0.73275395 37:-0.77489606 38:-0.38529688 39:-0.64666383 40:0.052955053 41:-0.53396417 42:0.11585881 43:-0.23407602 44:0.6314875 45:0.52168263 46:0.42059661 47:2.0437989 48:1.664091 49:1.8215099 50:1.0836387 51:0.80673653 52:0.90459578 53:0.79092077 54:0.49634714 55:0.39568973 56:-1.4510989 57:-0.10608013 58:-1.0749177 59:-0.15818103 60:-0.67720304 61:0.75450906 62:0.022581 63:3.2348392 64:0.29024214 65:-0.33228068 66:-0.73663879 67:-0.73638195 68:-0.36000779 69:1.1086779 70:-0.73955972 
0 0.1370416891618746 1:-1.4318389 2:-0.80283541 3:0.35842629 4:-1.7511394 5:-1.3661341 6:-1.9397589 7:-0.66516786 8:-1.4659317 9:-1.6404943 10:2.562194 11:-0.81481608 12:-0.51044769 13:-1.7029859 14:-1.9158443 15:-0.616654 16:-0.9976129 17:-1.5180401 18:-0.46276242 19:0.45168194 20:-0.41232059 21:-1.4115776 22:0.73942596 23:-0.16153265 24:-0.92178521 25:3.6475975 26:0.93113446 27:0.40936548 28:-0.88390827 29:-1.0545897 30:1.807813 31:3.346074 32:-0.93748166 33:-0.16038195 34:-0.28449319 35:-1.752782 36:-0.74305669 37:-0.44061369 38:-0.32958618 39:2.708745 40:-2.0672893 41:-0.12223831 42:-1.5148129 43:0.32924859 44:0.8246912 45:-0.12746387 46:0.32167479 47:-0.31520392 48:-0.055504461 49:-0.36393365 50:0.086761225 51:-0.043866649 52:-0.1545265 53:-0.029807858 54:-0.71108968 55:0.08689649 56:0.66522208 57:-0.17184952 58:-1.0328923 59:2.8434343 60:0.4055511 61:0.67312158 62:-0.9335086 63:-1.0309724 64:1.3924719 65:1.8964682 66:-1.1241096 67:-0.19423844 68:-0.77587869 69:0.16620367 70:-0.89241607 
0.02341848566796247 0.08431621558189667 1:1.211216 2:-0.82734063 3:0.90754128 4:-0.31482801 5:-1.1377386 6:0.84222033 7:-0.48694887 8:0.79160089 9:-1.0844076 10:-0.98976203 11:-0.29169091 12:1.4027776 13:-0.85266207 14:-0.23777728 15:-1.0869511 16:0.055991901 17:-1.8185826 18:0.05077502 19:-1.9524284 20:0.23913175 21:0.2776987 22:-0.64990357 23:-0.49525788 24:-0.41245885 25:0.94292982 26:-0.90362939 27:-0.23761147 28:-0.44362235 29:1.1375965 30:-0.49797961 31:0.82091468 32:-0.076786045 33:-0.26232653 34:-0.63341359 35:0.034932537 36:-0.81519577 37:-0.78765217 38:-0.64676711 39:0.28253905 40:-0.69672845 41:-0.23950778 42:-0.5399767 43:-0.43888019 44:-0.49306315 45:0.14915152 46:1.2881908 47:1.4697663 48:1.3283685 49:1.2079496 50:0.9053772 51:0.44494351 52:0.44453768 53:0.29973131 54:1.714223 55:1.5855194 56:-0.68839232 57:-0.5319203 58:-0.44705491 59:0.67912388 60:-0.89435254 61:-0.083296545 62:-0.49267181 63:1.1487485 64:-0.60533507 65:1.0237564 66:-0.29907951 67:-0.38723535 68:-0.73042008 69:0.16620367 70:-0.42608215 
0 0.136925278363742 1:-1.1458908 2:-0.73044967 3:0.40947155 4:-1.7043489 5:-1.567171 6:-1.7249155 7:-0.17200718 8:-1.3329905 9:-1.3193388 10:2.2810993 11:-1.5435139 12:-0.91046611 13:-1.520737 14:-0.82857655 15:-0.23682865 16:0.063300218 17:0.72717666 18:0.14661071 19:0.030736531 20:-1.0900933 21:-1.5882216 22:5.6324809 23:0.75593803 24:-0.76989502 25:-0.19768745 26:-1.4190635 27:0.8932668 28:-0.58186584 29:-0.3432452 30:-0.12026444 31:1.3046753 32:-0.93906265 33:0.3064878 34:-0.090323537 35:-1.5590266 36:-0.66655122 37:-0.32716733 38:-0.5397148 39:2.3738531 40:-1.7017956 41:0.40681999 42:-1.4809219 43:0.079138027 44:0.46593337 45:-0.050253957 46:0.71031668 47:1.1001533 48:0.88432403 49:1.062958 50:1.3467915 51:0.95270954 52:1.0087515 53:0.77378445 54:0.45554312 55:0.12830712 56:3.7130562 57:1.000779 58:-0.80002866 59:-0.12038505 60:-1.1103725 61:0.89680855 62:-0.46746691 63:0.17578333 64:-0.27746843 65:2.0923094 66:-0.87663004 67:0.2825792 68:-0.20439818 69:-0.92126666 70:-0.81208565 
0.01819458664304854 0 1:0.16789095 2:-0.374729 3:0.89580924 4:-0.12861016 5:-0.1918919 6:0.19837478 7:-1.0256249 8:0.24443546 9:0.16118023 10:-0.025678816 11:0.99022981 12:-0.26392967 13:-0.54881151 14:-1.8009482 15:-2.0856813 16:-0.91067354 17:-2.2704013 18:-0.11232162 19:-1.0188211 20:-1.750736 21:-0.51142118 22:0.5869147 23:-0.7243247 24:-0.67519001 25:4.132369 26:-0.11766531 27:-0.45709202 28:-0.46857922 29:-0.31444872 30:0.87296182 31:1.2509395 32:1.1735763 33:-0.55974399 34:-0.021011693 35:-0.26968575 36:-0.52602961 37:-1.1208981 38:-0.96997308 39:-0.94543548 40:-0.33899972 41:-1.0337018 42:-0.28727543 43:-1.3189272 44:-1.2547973 45:-1.3726869 46:-1.2173683 47:-1.4214087 48:-0.9708897 49:-0.60957941 50:-0.83804915 51:-0.53122078 52:-0.40458938 53:0.0018976808 54:0.35105115 55:-0.25081185 56:-0.033701559 57:-0.76173322 58:-0.87045308 59:2.4274868 60:-0.82534673 61:-0.60720684 62:-0.3853871 63:-0.50469744 64:0.57671955 65:0.59150924 66:-0.056780931 67:-0.73841631 68:-0.52280665 69:-0.14795443 70:-0.57748417 
0 0.0004058590161633345 1:-0.53635626 2:-0.76848595 3:-0.44213088 4:-1.3096871 5:-1.7165152 6:-0.69365494 7:1.3396177 8:-0.83836078 9:-1.4769269 10:1.1266943 11:-2.4637914 12:-0.025734352 13:-0.67352767 14:-1.4973765 15:-2.206975 16:-0.18269899 17:-0.76344608 18:-1.0402538 19:-0.47299768 20:-0.4111761 21:0.67614119 22:1.9746295 23:2.6741155 24:-0.891355 25:0.020403642 26:-1.0917463 27:0.95091929 28:-1.0605934 29:0.32157787 30:1.8208317 31:-0.16255181 32:-1.3190749 33:0.1530329 34:-0.69940151 35:-1.0875803 36:-0.63059549 37:0.83083903 38:-0.68204073 39:1.5023255 40:-0.63242153 41:1.2669466 42:-1.264643 43:0.91442653 44:0.54346282 45:0.018785031 46:0.90736965 47:1.6218675 48:1.5955959 49:2.4559635 50:3.0156851 51:2.4483447 52:2.0481796 53:1.7415448 54:1.1364475 55:1.4242352 56:4.1992358 57:3.4092317 58:-0.74994289 59:0.52126071 60:-0.575892 61:1.7095498 62:-1.1058851 63:0.46264869 64:2.0280368 65:1.263132 66:-1.1081283 67:0.58547863 68:-0.020050594 69:2.9936265 70:-0.25898518 
0.001787126309664794 0 1:0.80673277 2:-0.49857432 3:1.0956443 4:0.19687207 5:-0.70025344 6:1.2505052 7:-0.93893237 8:0.56629395 9:0.17596041 10:-1.2502225 11:-1.227851 12:-0.24095841 13:-1.314686 14:-0.75675626 15:-0.48467745 16:-0.99486099 17:-0.64969428 18:0.041772936 19:0.28389418 20:-2.5479417 21:-2.3129947 22:0.51484988 23:0.41056499 24:-1.0597721 25:-0.11458519 26:-0.45576513 27:-0.25722507 28:-1.0033594 29:2.1773207 30:-0.27287321 31:-0.5527625 32:-0.71521008 33:3.7484177 34:-1.262198 35:-0.70008706 36:-0.55387109 37:-1.1664225 38:-0.97178473 39:-0.76646485 40:-0.83633963 41:-0.8577985 42:-0.80652661 43:-0.32024965 44:-1.0296378 45:-0.94708179 46:-1.1299184 47:-1.1688998 48:-1.2452923 49:-0.81177691 50:-1.1427016 51:-0.66065767 52:-0.80867061 53:-0.87372811 54:-0.92593525 55:-0.69666944 56:-0.062306428 57:0.22889965 58:-1.1613012 59:-0.38747937 60:-0.98739295 61:-0.6900758 62:-1.1206283 63:1.2993875 64:-0.60575701 65:-1.0578385 66:-1.1786565 67:2.8715464 68:-1.2566936 69:-0.92126666 70:-0.58585048 
0.007759982669165086 0 1:1.0929545 2:-0.72110512 3:0.59204204 4:0.57739956 5:0.16942953 6:1.1415027 7:-0.78536217 8:1.0502197 9:0.2724542 10:-0.38818582 11:0.21180074 12:0.23283722 13:-0.17238932 14:-0.1059129 15:0.25066988 16:-0.65987867 17:-0.48329941 18:-0.20686843 19:-0.043660013 20:-0.0054956118 21:1.1298182 22:-0.061602733 23:0.18989028 24:-0.162918 25:0.194111 26:-0.18405211 27:0.90938236 28:-0.44040305 29:0.064408683 30:-0.3907548 31:-0.087312071 32:-0.89388179 33:0.29437685 34:-1.1367468 35:1.0349026 36:-0.64363932 37:-0.67988269 38:0.4370241 39:-0.65656683 40:0.82023376 41:-0.85409944 42:0.61727847 43:-0.26174484 44:-0.75696996 45:-1.3664218 46:-0.9457055 47:-1.4177384 48:-1.7454098 49:-1.3738086 50:-0.68558404 51:-0.38483313 52:-0.63676603 53:-0.88783172 54:-1.1695607 55:-0.91026962 56:-0.37408529 57:0.2827778 58:-0.30087719 59:-0.12767268 60:-0.44127378 61:0.31727397 62:-0.59562037 63:-0.10430169 64:-0.62234953 65:-0.26088505 66:-1.1450717 67:0.29022671 68:-1.0402382 69:0.57012122 70:0.0427369 
0 0.1691207725540149 1:-1.1633152 2:-0.43562053 3:0.64925643 4:-1.4704174 5:-1.2042721 6:-1.761636 7:-0.43775555 8:-1.3649281 9:-0.91425602 10:1.882437 11:-1.6286478 12:-2.0586519 13:-1.8899407 14:-1.486292 15:-1.1103528 16:-1.0728141 17:-0.50866485 18:-0.53719392 19:-0.7086141 20:-0.85941796 21:-1.7160471 22:-0.5552681 23:2.0956494 24:-1.0828519 25:3.7829793 26:-0.73052117 27:0.79562883 28:-0.80871819 29:-0.70918842 30:-0.068833472 31:1.3210635 32:-0.17623721 33:5.6805106 34:0.21839904 35:-1.6539186 36:-0.34108577 37:-0.27224699 38:-0.30504206 39:2.4164271 40:-1.7323888 41:0.70131531 42:-1.5125383 43:0.67271268 44:0.59484233 45:-0.21228421 46:-0.083171533 47:0.052031685 48:0.027536078 49:0.26613808 50:0.69419422 51:0.68930951 52:0.49667946 53:0.16814195 54:-0.39880302 55:0.51790493 56:-0.76148643 57:2.1196361 58:-1.1513729 59:3.7070915 60:-0.83813057 61:0.5611801 62:-0.8689299 63:-0.79159354 64:-0.21755671 65:1.7242118 66:-0.30277118 67:3.9169011 68:-0.64554235 69:1.1086779 70:-0.79392689 
0 0.2182013434106491 1:-0.19135555 2:-0.81505673 3:0.50147869 4:-0.59370121 5:-0.72100538 6:0.026787737 7:-0.0024842932 8:-0.2115561 9:-1.7719158 10:-0.099400196 11:-0.15551437 12:-0.25733168 13:0.12927404 14:1.5136679 15:1.6044519 16:2.242874 17:-0.77907496 18:-1.2414492 19:0.45231613 20:0.11169007 21:0.41659772 22:-0.18651646 23:0.53918827 24:0.15471986 25:0.66550338 26:0.95871913 27:0.70010776 28:-0.30954053 29:-0.67428793 30:-1.1902817 31:-0.55646615 32:-0.77648996 33:-0.10498922 34:-0.02612996 35:-0.12793714 36:-0.74791135 37:-0.3750915 38:-0.30267738 39:0.037471358 40:0.16517274 41:0.016394183 42:-0.26283255 43:0.47024357 44:0.78842728 45:-0.029719989 46:0.63299187 47:0.6405015 48:1.0174044 49:1.1665398 50:1.4582217 51:1.6220827 52:1.5773081 53:1.6489818 54:1.8385971 55:0.72495865 56:-0.0673324 57:1.3361278 58:0.33400171 59:1.2883655 60:1.2276031 61:0.38212564 62:-0.20720935 63:-0.5979439 64:-1.1241222 65:-0.28957715 66:-0.75141818 67:0.055742548 68:-0.10171065 69:-1.045549 70:-0.089940345 
0 0.09434516859715532 1:-1.4854835 2:-0.55894511 3:0.28805054 4:-1.6549674 5:-1.2436054 6:-1.9065904 7:-0.76955043 8:-1.4833255 9:-1.3376859 10:2.1997411 11:-0.84419676 12:-1.0946203 13:-2.1882719 14:-3.3024928 15:-1.8908294 16:-1.722071 17:-2.2733986 18:-1.0511837 19:1.2594301 20:0.76507087 21:-0.39888154 22:2.5268647 23:-0.48681307 24:-1.0182909 25:1.2544492 26:0.78008488 27:0.90724937 28:-0.49114613 29:-0.73064605 30:7.4687636 31:-0.68587007 32:-1.216331 33:0.34672362 34:-0.12950021 35:-1.7892832 36:-0.56062604 37:-0.66459388 38:-0.39152292 39:2.4343971 40:-2.1882645 41:-0.24769526 42:-1.5471244 43:-0.185553 44:0.13850959 45:-0.83423502 46:-0.90423719 47:-1.2641101 48:-0.85503275 49:-0.90734575 50:-1.0694869 51:-1.1154467 52:-0.95112197 53:-0.39238699 54:-0.50312018 55:-0.80049138 56:1.6044942 57:-0.5213317 58:-1.2278719 59:0.91627765 60:0.72949794 61:0.39039757 62:-0.7145136 63:-0.76630551 64:4.4300783 65:-1.4929236 66:-1.5615593 67:-0.18979654 68:-0.87161972 69:1.8626574 70:-0.83488156 
0 0.1219571771807752 1:-1.2445891 2:-0.78891691 3:0.28139876 4:-1.6777284 5:-1.3134104 6:-2.0576018 7:0.076120488 8:-1.4138453 9:-2.2210589 10:2.2000514 11:-1.3435831 12:-1.5952624 13:-1.0296507 14:0.39165501 15:1.2371079 16:0.48383501 17:-0.54059816 18:0.45992049 19:1.1158768 20:1.4775602 21:-0.32688418 22:-0.63815917 23:3.8926174 24:-1.0216243 25:0.23985092 26:-0.25380511 27:0.73011916 28:-0.26427379 29:1.2922638 30:1.3847817 31:1.1076924 32:-0.99356479 33:-0.76272987 34:0.12555752 35:-1.675968 36:-0.57840526 37:0.22460665 38:-0.28147049 39:2.4821135 40:-2.1437296 41:1.1181685 42:-1.5680176 43:1.0097718 44:1.3727605 45:0.46472661 46:0.65305122 47:0.33137044 48:0.72397305 49:0.1254885 50:0.74786333 51:-0.14288522 52:0.097430966 53:0.065206977 54:-0.74713991 55:-1.0102872 56:-0.46684479 57:3.2438382 58:-1.0446836 59:1.1564769 60:-0.13047099 61:1.2096387 62:-0.41751516 63:0.51440397 64:0.97003566 65:0.70335808 66:-1.0749472 67:-0.78036339 68:0.2190571 69:0.16620367 70:-0.91120056 
0.03236805230397592 0.2630536454120938 1:-1.8756635 2:-0.87252072 3:-0.69833732 4:-1.804864 5:-0.94696933 6:-1.8574135 7:0.78054487 8:-1.6690087 9:-2.6658063 10:1.6930391 11:0.48444819 12:0.52218112 13:0.30092493 14:0.221458 15:0.042588015 16:1.5448956 17:0.39669287 18:0.58107105 19:0.73345368 20:0.40529539 21:1.3828285 22:-0.3773231 23:-0.86335006 24:0.88238378 25:-0.24669784 26:0.74608114 27:-0.98143533 28:1.2812175 29:-1.2961259 30:-0.97877633 31:-1.2103803 32:2.1202826 33:-0.027686644 34:1.6409777 35:-1.125396 36:-0.74272413 37:0.10001715 38:-0.48486455 39:1.3568933 40:-1.3681594 41:0.30140996 42:-1.0951946 43:0.9509273 44:-0.6153354 45:-1.2048515 46:-0.82452845 47:-0.61528122 48:-0.87991432 49:-0.38594436 50:-0.66847447 51:-0.49849265 52:-0.53670835 53:-0.53175534 54:-1.3180951 55:-1.386408 56:-0.29421743 57:-0.73271235 58:0.91584906 59:-0.01860397 60:0.97755923 61:-0.96378717 62:1.1766282 63:-1.2390985 64:-0.74787939 65:-1.1955383 66:1.4895661 67:0.13178423 68:0.98136932 69:0.57012122 70:-0.73573637 
0.09619258781936769 0.08555619334220134 1:1.4525961 2:-0.54216508 3:0.41225462 4:1.077484 5:0.65986754 6:1.2181712 7:-0.66531838 8:1.7085827 9:0.16150992 10:-0.40505681 11:0.91392489 12:0.33290043 13:0.36556937 14:0.58941815 15:1.0297321 16:0.036151977 17:1.2675501 18:0.50865765 19:0.42386522 20:0.060534388 21:0.13663757 22:0.25645688 23:-0.48490503 24:0.62346526 25:-0.67643462 26:-1.5464934 27:-0.038076936 28:-0.55511086 29:-0.7081888 30:-0.8605863 31:0.063566493 32:-0.59936899 33:0.067969238 34:-0.51959148 35:0.94687135 36:-0.62488606 37:-0.45283498 38:0.61117355 39:-0.71394576 40:0.44135555 41:-0.81879454 42:0.63657468 43:-1.1342828 44:-0.90645859 45:-1.5727258 46:-1.6644776 47:-1.7963242 48:-1.8864172 49:-0.99702171 50:-0.60985174 51:-0.48742446 52:-0.50348323 53:-0.91680099 54:-0.96519019 55:-1.2224395 56:-0.20225231 57:-0.59758769 58:0.68148005 59:-1.0068526 60:-1.5111574 61:-0.36619936 62:-0.60697184 63:-0.72700624 64:-0.99079177 65:-0.075402625 66:-0.84056073 67:0.16445992 68:-0.58750314 69:0.57012122 70:0.096616231 
0 0.01052157693065668 1:0.31162869 2:-0.42557267 3:0.38648444 4:-0.1961285 5:-0.32736198 6:0.4630632 7:-0.59311913 8:0.2792993 9:0.21550634 10:-0.044519795 11:0.55422389 12:0.71724913 13:0.085863593 14:0.2474069 15:0.48704328 16:0.64786621 17:-0.025013999 18:1.2063179 19:-0.26874231 20:-0.72915335 21:-0.074484339 22:0.14237803 23:-0.61752266 24:-0.088133428 25:0.24699322 26:2.084669 27:-0.81955011 28:-0.70340805 29:0.45137063 30:0.064220262 31:1.7564804 32:-0.37015523 33:-0.15254132 34:-0.87309424 35:-0.17992728 36:-0.51350159 37:-0.77270662 38:-0.83438092 39:-0.88117828 40:-0.066341713 41:-0.72765523 42:-0.14447221 43:-0.72020412 44:-0.98540102 45:-1.4856474 46:-1.5805528 47:-1.630528 48:-1.2031373 49:-0.81777406 50:0.16740195 51:0.23561015 52:-0.24623964 53:-0.56496391 54:-0.99133491 55:-1.043867 56:-0.16234172 57:-0.7033063 58:-0.27008983 59:-0.12370073 60:0.76019833 61:-0.8834797 62:-0.83986503 63:0.051425199 64:-0.15672651 65:1.319326 66:-0.6885211 67:-0.33194192 68:-1.0742486 69:-0.60491165 70:-0.28331888 
0.05884943417360891 0 1:0.22934641 2:-0.077960271 3:1.1174968 4:-0.099332364 5:-0.39436574 6:0.69071827 7:-1.0159135 8:0.1741394 9:1.0613704 10:-0.22209823 11:-0.2721381 12:0.32498757 13:0.065870749 14:-0.72080057 15:-0.61480919 16:-0.98492208 17:-0.89573335 18:0.53973216 19:-1.1434801 20:-1.5809347 21:-0.78032054 22:-0.19713991 23:-0.44190869 24:-0.91604359 25:1.430507 26:-0.37943256 27:-0.39026257 28:-0.79313292 29:1.783573 30:0.90669615 31:4.8055562 32:-0.51464764 33:-0.088945769 34:-1.0337587 35:-0.92465531 36:-0.51401471 37:-1.2657517 38:-1.0794349 39:-0.83664243 40:-0.87109466 41:-0.8615559 42:-0.82793771 43:-1.2922337 44:-1.7897327 45:-1.9849267 46:-2.1955739 47:-1.8814069 48:-1.6549226 49:-1.9549772 50:-1.8132955 51:-1.6596983 52:-1.6593855 53:-1.5353448 54:-1.4045018 55:-1.0953613 56:-0.83599834 57:-0.74419293 58:-1.2060576 59:0.23124105 60:-1.0728148 61:-0.70205789 62:-0.99855062 63:0.6223628 64:0.16055131 65:2.7211364 66:-1.0313984 67:-0.77103155 68:-1.3260851 69:0.57012122 70:-0.83167979 
0.02322341218359518 0 1:0.74580574 2:-0.84989438 3:0.51257075 4:0.45724519 5:0.0068913076 6:0.96690771 7:-0.54595075 8:0.72935081 9:-1.0532486 10:-1.0037043 11:-0.27234926 12:-0.99039487 13:-0.58072626 14:-0.8100772 15:-0.97310609 16:-0.48245724 17:1.7961402 18:-1.2900126 19:-1.2941109 20:0.9332894 21:1.3146335 22:0.96785754 23:0.33315838 24:-0.96689653 25:-0.31097559 26:0.32788584 27:-0.62260083 28:-0.40821365 29:0.014315546 30:0.26567275 31:-0.41729391 32:-0.70359041 33:0.33354177 34:-0.61782221 35:0.13488955 36:-0.77709224 37:-0.6041344 38:-0.60130878 39:-1.2240587 40:0.13619768 41:-0.78096026 42:0.057965371 43:-0.52860899 44:-0.5045068 45:-0.92393343 46:-0.5268153 47:-0.28789146 48:0.016050713 49:0.26653681 50:0.26393282 51:0.22678207 52:0.38695404 53:-0.0093779476 54:-0.11720872 55:-0.1753137 56:0.8843369 57:0.43807299 58:-1.0771536 59:-0.61673342 60:0.072925471 61:-0.70055749 62:-0.51434988 63:-0.026150734 64:0.0044632749 65:-0.63959043 66:-0.69016304 67:0.15464248 68:-0.52278727 69:2.9936265 70:0.16223932 
0 0.1430293195446769 1:-0.22404708 2:-0.64088748 3:0.71684198 4:-0.42068634 5:-0.16498949 6:0.015816044 7:-0.65419304 8:-0.28450353 9:-0.2047509 10:0.14629452 11:-0.38999096 12:-0.18188213 13:0.38170363 14:1.6844703 15:0.17460997 16:-0.44130706 17:0.86957604 18:0.97991784 19:0.74785059 20:1.5781879 21:2.4869707 22:-0.30105805 23:0.24292361 24:0.016453983 25:0.76160184 26:-0.68294947 27:-0.30673127 28:-0.43343778 29:0.597474 30:0.35252748 31:0.73707644 32:0.53582945 33:-0.71602501 34:-0.1958071 35:-0.38513927 36:-0.60356527 37:-0.7979884 38:-0.87493674 39:-0.6678939 40:-0.25384592 41:-0.68523442 42:-0.54983263 43:-0.76661448 44:-0.82075182 45:-0.51226459 46:-0.2330982 47:0.19506276 48:0.61070669 49:1.0155539 50:1.1161891 51:0.61160742 52:1.2721862 53:1.1004365 54:0.78873179 55:0.13535006 56:-0.27201143 57:0.22876774 58:-0.0045882131 59:0.75623708 60:-0.71046419 61:-0.41312763 62:-0.63290102 63:0.59578297 64:0.11380997 65:0.84203703 66:0.43121661 67:-1.0338179 68:-0.27711027 69:-1.6777678 70:-0.77349505 
0 0.006410803185819412 1:0.44336992 2:-0.59455423 3:1.0143391 4:0.17148906 5:0.021794729 6:0.70521122 7:-0.96865381 8:0.20139429 9:-0.041078099 10:-0.558406 11:-0.85300638 12:-0.3926188 13:0.46847394 14:0.54117046 15:-0.32986543 16:0.13745606 17:-0.025384887 18:-1.1928439 19:-0.021301627 20:1.2209276 21:2.8516573 22:1.5994858 23:-0.59311939 24:-0.46524466 25:0.97077743 26:-0.40469491 27:0.44284464 28:-0.82214715 29:1.328276 30:0.22737088 31:0.33474295 32:-0.37662164 33:-0.73233533 34:-0.42783388 35:-0.31354919 36:-0.54837141 37:-0.48928932 38:-0.49544427 39:-0.6731255 40:-0.19433232 41:-0.80559626 42:-0.2244408 43:-0.11869186 44:-0.68354487 45:-0.33749697 46:-0.2947867 47:0.69811354 48:1.0800434 49:1.7610574 50:0.98468203 51:0.88059747 52:0.91070955 53:1.4526596 54:0.86779913 55:0.57824564 56:1.9218194 57:-0.75590486 58:-0.81394391 59:0.50614166 60:-1.0429357 61:0.20976769 62:-0.95710073 63:1.0665982 64:0.04692131 65:-0.32153384 66:-0.78548877 67:-0.96988985 68:-0.42028921 69:-1.3306672 70:-0.6885146 
0 0.08714382476850652 1:-0.70980946 2:-0.35424344 3:0.8259109 4:-0.75535096 5:-0.12800545 6:-0.54947903 7:-0.87810358 8:-0.81952684 9:0.42413247 10:0.96923365 11:-0.38328907 12:0.11727977 13:0.83773914 14:-0.26385268 15:-1.1946996 16:-0.4228135 17:0.24567754 18:-0.45618198 19:0.46373187 20:1.038231 21:2.9708205 22:0.92182333 23:0.78493818 24:0.81207388 25:0.403231 26:-0.11914667 27:1.3387516 28:-0.3543937 29:-0.50870779 30:-0.46809568 31:0.91870838 32:-0.016560052 33:-1.0216711 34:0.26753505 35:-0.62287264 36:-0.41948234 37:-0.95602758 38:-0.7451222 39:-0.28968314 40:-0.42044621 41:-0.8281754 42:-0.74003826 43:-1.2405383 44:-1.0441477 45:-0.88837811 46:-0.52351736 47:0.3246165 48:0.16104071 49:1.0507172 50:0.38920075 51:0.98969111 52:0.88326933 53:0.13122263 54:0.10986518 55:0.18557318 56:1.0373069 57:0.45623712 58:0.20485956 59:-0.14915644 60:-0.7594402 61:0.94793428 62:-0.6584343 63:-0.37493346 64:-0.73937236 65:0.79660117 66:-0.24810714 67:-1.2465799 68:-0.4915394 69:-1.4045868 70:-0.46425115 
0 0.2913019773825802 1:-1.3265666 2:-0.22024404 3:0.36505247 4:-1.254763 5:-0.52352033 6:-1.5724193 7:-0.76332055 8:-1.4386992 9:0.1537101 10:1.7326631 11:0.63885651 12:-1.2058417 13:-1.5575384 14:-1.9689209 15:-1.4971892 16:-0.18811763 17:-0.25490233 18:-0.91107197 19:-0.19284293 20:1.663908 21:2.0386896 22:0.98676697 23:-0.80952517 24:0.0284282 25:0.35496805 26:2.7947228 27:3.0301798 28:-0.79253824 29:-1.4841699 30:1.1457656 31:1.305918 32:-0.95078889 33:-0.2478651 34:0.28151782 35:-1.4053284 36:-0.32385629 37:-0.3829719 38:-0.88243418 39:0.45454738 40:-1.4112901 41:-0.38495526 42:-1.3637829 43:-0.79533037 44:-1.1422651 45:-0.75163681 46:-0.74061742 47:-0.35405915 48:0.046485024 49:-0.12119962 50:-0.12624239 51:0.37127757 52:-0.04864986 53:0.76811431 54:0.14772289 55:1.3442114 56:-0.019006506 57:-1.0002109 58:-0.57925331 59:-0.48602414 60:0.67692482 61:2.403993 62:-0.90823891 63:-1.5265665 64:1.7101528 65:0.41473808 66:-1.1739395 67:-0.50242086 68:-0.57629029 69:-0.14795443 70:-0.56429154 
-0.02325154349131333 0.008895702608559737 1:0.58377176 2:1.176865 3:0.24303391 4:0.73288038 5:0.6864895 6:0.30434186 7:-0.91983435 8:0.57164194 9:1.5040638 10:-0.18690863 11:-0.48592179 12:-0.7265893 13:0.23715867 14:-1.104822 15:-0.72729951 16:-2.1644839 17:-0.31855722 18:0.82690009 19:1.3642114 20:-1.3461603 21:-0.56982386 22:-0.77788643 23:1.985776 24:-0.22779051 25:-0.95066096 26:-1.0943561 27:0.051830514 28:-0.12317504 29:1.1462404 30:1.2991005 31:0.12070359 32:-0.034590557 33:-0.087804748 34:-0.47539065 35:0.28009657 36:0.15824402 37:-0.68810912 38:0.10599234 39:-0.77389679 40:0.043962163 41:-0.97711408 42:0.92255059 43:-1.268693 44:-1.0109245 45:-0.19496164 46:-0.69267195 47:-0.0032623306 48:-1.1092139 49:-0.46860675 50:-0.9209586 51:-1.1042834 52:-0.88264826 53:-1.1299704 54:0.16145427 55:-0.1355591 56:-1.13879 57:1.4146954 58:-0.40251963 59:-1.1899371 60:-1.2241346 61:-0.30077559 62:-0.25217194 63:0.92237063 64:1.0481649 65:-0.2324843 66:0.022538138 67:-0.15828724 68:-0.64555173 69:1.1086779 70:-0.73082076 
-0 0.006377546937011809 1:-1.0471382 2:0.40170395 3:-0.31958678 4:-0.33006921 5:0.60207925 6:-0.99670194 7:0.29191357 8:-0.84837805 9:0.68681542 10:0.59654802 11:1.084346 12:0.53480339 13:0.51077822 14:0.55857932 15:0.59755141 16:1.5618242 17:2.244824 18:1.1800817 19:-0.71801979 20:-0.7491989 21:-1.2189688 22:-0.45461433 23:0.72297362 24:0.602429 25:-1.3319922 26:0.78986821 27:-1.3140179 28:2.3281951 29:-1.0361774 30:-1.146212 31:-0.8668306 32:0.33259612 33:-0.31589767 34:1.9799294 35:0.42381252 36:0.25583899 37:0.27527539 38:1.2473377 39:0.76401646 40:0.27060396 41:0.51689251 42:0.61635095 43:-0.10743295 44:0.046451844 45:0.12214995 46:-0.092969097 47:-0.61234543 48:-1.1210295 49:-1.2124825 50:-0.93288672 51:-0.68616331 52:-0.069119223 53:-0.59844522 54:-0.17811475 55:-0.48994753 56:0.16731466 57:0.98037846 58:-0.21615751 59:-1.3720221 60:0.20991149 61:-1.2787478 62:1.5391677 63:-1.0196694 64:-1.1933068 65:-0.88466553 66:-0.10306827 67:0.017780785 68:1.6605597 69:-1.3306672 70:0.66801501 
-0.02865575900652264 0 1:0.13108508 2:1.2237821 3:0.039362238 4:0.68664877 5:1.0522362 6:0.39947178 7:-0.69405992 8:0.15777621 9:1.4415338 10:-0.31721471 11:-0.59435494 12:-0.049782853 13:0.71056817 14:0.4773948 15:0.55276196 16:0.34075992 17:2.6388541 18:1.4678891 19:-1.3490878 20:0.39418978 21:0.53073159 22:0.53741577 23:-1.0092854 24:-0.11193133 25:-1.3750001 26:-1.3888603 27:-1.1033571 28:1.1135086 29:-0.32005928 30:-0.83726021 31:0.53211232 32:0.42328593 33:1.8003695 34:0.30138764 35:0.50297921 36:0.28078932 37:-0.41866328 38:0.55584969 39:0.0057949272 40:0.11329234 41:-0.6892734 42:0.62029152 43:-0.59828573 44:-0.83262225 45:-0.2919451 46:-1.1002447 47:-0.11580698 48:0.24766845 49:-0.59582052 50:-0.76035339 51:-0.20386237 52:-0.43289627 53:-0.39340904 54:-1.202748 55:-1.1550678 56:0.11786368 57:-1.2016517 58:-0.35646682 59:-1.4821982 60:-1.396636 61:-1.1669921 62:0.64246179 63:-0.49145649 64:-1.0125785 65:0.7019121 66:0.237043 67:1.1407065 68:0.071618667 69:0.16620367 70:0.71420947 
-0.01550193201843967 0.03798957019446007 1:0.34446796 2:0.19303997 3:0.28632907 4:0.068833082 5:0.086586804 6:0.30355824 7:-0.66042784 8:0.17866899 9:1.0982466 10:-0.031926399 11:0.15062578 12:1.4091309 13:0.20520401 14:-1.2016075 15:-0.82084807 16:0.59557413 17:-0.25457557 18:0.22004172 19:0.70338617 20:-1.1210566 21:-0.88094126 22:0.76964504 23:-0.7942004 24:-0.29458094 25:-0.28390458 26:-0.52148427 27:-0.092317306 28:-0.56521142 29:4.1435605 30:0.30584795 31:2.1400735 32:0.24606036 33:0.20724853 34:-0.49556899 35:0.018848979 36:-0.11189026 37:-0.54211383 38:0.25282607 39:0.1172363 40:-0.089415379 41:-0.6910077 42:-0.019852862 43:-0.8983043 44:-0.3793224 45:0.66440123 46:1.3906284 47:0.46642536 48:0.76085086 49:0.62717424 50:-0.025641262 51:0.072180068 52:-0.19870135 53:0.15883766 54:-0.19101962 55:0.11269695 56:-0.30061553 57:-0.82342703 58:-0.69525442 59:-0.43402993 60:-0.95756198 61:-0.21667124 62:-0.4931865 63:2.0795851 64:0.062193175 65:0.39727289 66:-0.432156 67:0.32957121 68:-0.70042656 69:-0.14795443 70:-0.040519552 
-0 0.0268083881802761 1:0.36671245 2:-0.23318386 3:-0.4948094 4:0.47681394 5:0.39540553 6:0.5281692 7:0.74327471 8:0.3940352 9:0.59535227 10:-0.6262538 11:0.62716469 12:0.95948045 13:0.11011595 14:-0.86281371 15:0.70120303 16:0.27125438 17:0.31034905 18:-0.44608265 19:0.7604714 20:1.7373865 21:-0.14449349 22:-0.95644591 23:-0.20758597 24:0.46810216 25:-0.9408187 26:-0.89874766 27:-0.39790049 28:0.044966735 29:-0.47198257 30:0.51272154 31:0.47799674 32:1.2404838 33:-0.86014321 34:0.13070455 35:0.86701021 36:-0.15757117 37:0.3846991 38:0.44604046 39:-0.43385588 40:1.0742851 41:0.4575488 42:0.83015746 43:-0.45808707 44:-0.16503796 45:-0.057679412 46:1.1754906 47:1.0747512 48:1.2142302 49:0.75668747 50:0.7407523 51:-0.1235532 52:-0.29709874 53:-0.0028432672 54:0.3520048 55:0.45001483 56:-1.1877913 57:-0.27340977 58:0.76979415 59:-1.0517972 60:-0.46421403 61:-0.081160705 62:0.9850936 63:-0.52321627 64:0.57857769 65:0.56288689 66:1.7550593 67:-1.0335355 68:1.2337268 69:-0.14795443 70:0.64126244 
-0 0.007102649757173439 1:-1.2046393 2:0.818738 3:-0.27355173 4:-0.14347774 5:1.1268991 6:-1.4385812 7:1.1829191 8:-1.1032494 9:-0.062807904 10:1.0256772 11:1.418809 12:0.41927618 13:1.2793434 14:1.612852 15:0.79339498 16:-1.2316805 17:1.8465045 18:1.6512805 19:-1.1693511 20:-0.87111371 21:1.5230493 22:-1.2870784 23:-1.1336467 24:0.58870282 25:0.74236645 26:0.32914591 27:-1.0009131 28:-0.036523073 29:-1.1949738 30:-1.024762 31:-0.49756681 32:5.3236429 33:-1.2153391 34:1.9506237 35:0.33839132 36:0.88798241 37:0.43813742 38:1.6155154 39:0.17191352 40:0.30755194 41:1.6597871 42:0.60047878 43:0.6902688 44:1.3113055 45:1.0708675 46:1.6417475 47:1.6844906 48:1.1584628 49:0.73452518 50:0.86152431 51:0.13501471 52:-0.13356043 53:-0.24533823 54:-0.89978433 55:-1.1491181 56:-1.3475605 57:-1.1169944 58:1.0157227 59:1.6836593 60:0.27949395 61:-1.0414426 62:0.491864 63:-1.0659084 64:-1.0852367 65:-0.23436479 66:3.183629 67:-1.1490626 68:0.53391639 69:-0.14795443 70:-0.5294644 
-0 0.01485281133011844 1:-0.39835328 2:2.2294461 3:-0.011480952 4:0.2990973 5:1.1729147 6:-0.40515151 7:-0.24814295 8:-0.48740572 9:1.8804004 10:0.60765803 11:0.83904471 12:1.2018993 13:1.1622838 14:0.44029964 15:0.28567492 16:-0.36890728 17:-1.7251099 18:-1.2578525 19:-0.15094701 20:0.54014134 21:0.52258163 22:0.44857697 23:-1.1311994 24:-0.10811628 25:0.31359978 26:0.60138487 27:1.4852062 28:1.0850433 29:-0.86778392 30:-0.83995796 31:-0.96927943 32:-0.12035507 33:-0.92322515 34:0.11363818 35:0.42211679 36:1.4390178 37:0.42430961 38:0.76060662 39:0.10093944 40:0.41072177 41:-0.56807638 42:0.30627872 43:-0.53259288 44:-0.19422815 45:0.6528962 46:0.30981896 47:0.20008388 48:0.57396575 49:0.28995742 50:0.82420174 51:-0.10092543 52:0.061457276 53:-0.0037802688 54:-0.033887292 55:0.10391681 56:-0.18365845 57:-1.2003166 58:-0.018770397 59:1.2429887 60:1.1733201 61:1.2715037 62:0.46462898 63:-0.71641387 64:-0.74009169 65:-1.1894658 66:-0.30255893 67:-0.86801458 68:-0.35023426 69:-0.60491165 70:0.31029309 
-0.1022692429482025 0.08787869598548942 1:0.054719136 2:-0.59627191 3:-0.15243317 4:0.72217607 5:0.34825262 6:0.67616148 7:-0.64697133 8:0.6959699 9:-0.55438118 10:-0.55027307 11:0.46186708 12:0.82221959 13:0.085659088 14:-0.62150838 15:-0.47756041 16:-1.0006584 17:-0.93846765 18:-1.4593593 19:-1.3440579 20:-1.7020392 21:-0.68259558 22:0.12351852 23:-0.52400138 24:-0.48184002 25:1.6980163 26:0.89108444 27:0.42956786 28:-0.54728262 29:0.1906516 30:-0.45857831 31:0.90198812 32:-0.38485217 33:-0.21600784 34:-0.63003221 35:0.25550305 36:-0.7090923 37:0.22826723 38:-0.75038447 39:-0.93986141 40:-0.679192 41:-0.93359126 42:-0.33181573 43:-1.0706023 44:-1.2968949 45:-1.1643462 46:-0.67188188 47:-1.0874966 48:0.058585788 49:-0.16876153 50:-0.21298567 51:-0.29410922 52:-0.10385187 53:0.13985231 54:0.1665146 55:0.44137431 56:0.53780556 57:-0.75529289 58:-0.43846502 59:1.9806994 60:1.4473991 61:0.4655036 62:-0.58278573 63:0.058403007 64:-0.76850705 65:1.1392803 66:-0.046580877 67:-0.45321786 68:-0.61954441 69:0.57012122 70:1.6493854 
-0.0369536131967547 0.04238091005372163 1:-0.23983239 2:-0.16090124 3:-0.13740984 4:-0.34477859 5:-0.23873141 6:-0.5643061 7:-0.37075894 8:-0.34954366 9:-0.091565782 10:0.53708719 11:0.24122837 12:-1.0700587 13:0.84154999 14:0.32464634 15:-0.49181162 16:0.54260512 17:-0.40928987 18:1.0546128 19:-1.3639185 20:-0.12870502 21:-1.2079333 22:0.94990711 23:0.51936592 24:0.020003722 25:-0.29632975 26:0.28027161 27:-0.26964553 28:0.86329117 29:-0.31809464 30:-0.50737808 31:-0.22617637 32:-0.80138536 33:0.85282302 34:0.32755086 35:-0.19434758 36:0.15539524 37:0.29737639 38:0.14816336 39:0.38918801 40:-0.26624679 41:-0.60780897 42:-0.35825726 43:-0.36778394 44:0.32219148 45:0.58708793 46:0.36383242 47:-0.10313277 48:0.38367396 49:-0.12669386 50:-0.79807397 51:-0.67643058 52:-1.0473269 53:-0.91059287 54:-0.76805803 55:-0.52286929 56:0.17382135 57:0.55494803 58:-0.13295099 59:-0.26824909 60:-0.57781795 61:-0.3560874 62:0.64833872 63:-0.5627777 64:-0.77930801 65:-0.56816682 66:-0.89120777 67:0.54902666 68:0.44531379 69:0.16620367 70:0.4376227 
-0 0.04338014421014067 1:0.025148351 2:-0.66144993 3:-2.876531 4:-0.33153206 5:-0.56459022 6:0.14858314 7:1.1450202 8:0.0074429515 9:-0.61655295 10:-0.29928107 11:-1.0728913 12:1.0470783 13:0.69582645 14:1.5515138 15:0.17043596 16:0.3996721 17:-0.35482136 18:0.60247527 19:1.3683183 20:1.1166866 21:1.2850103 22:-0.37047531 23:-0.19819006 24:-0.48346447 25:-1.0327988 26:0.18161284 27:1.1722407 28:0.086032563 29:0.95958156 30:-0.30394099 31:-0.75783768 32:0.26604263 33:-0.2380929 34:-0.3919435 35:0.3226748 36:-0.32672879 37:3.9154454 38:0.85651596 39:0.90346873 40:0.99616621 41:0.43782485 42:0.2106627 43:3.0080221 44:3.2982709 45:4.4379883 46:4.9628015 47:3.6105856 48:4.3345527 49:3.1570378 50:2.4559179 51:1.1329476 52:1.3318507 53:1.4727286 54:1.1699587 55:1.0166815 56:-0.079483156 57:0.085247088 58:-0.34941743 59:-0.82933762 60:0.67596871 61:2.3767243 62:0.3276802 63:1.614246 64:0.14271397 65:-0.65214772 66:0.44504644 67:0.2165675 68:0.10699135 69:-0.3992809 70:-0.00081624634 
-0.03427268998261 0.03193459469153516 1:-1.1456751 2:-0.4804339 3:-0.38787326 4:-1.0605104 5:-0.28166873 6:-1.3232546 7:0.017234862 8:-0.97408339 9:-1.0483478 10:1.6449284 11:1.8127152 12:0.34319661 13:0.13013743 14:-0.1876271 15:0.43539443 16:0.33598058 17:0.62912354 18:1.1998766 19:0.16105023 20:-1.0549734 21:1.176117 22:-0.96602443 23:-0.047144733 24:1.2876116 25:-0.46995268 26:1.2384169 27:-0.73221185 28:1.5097749 29:-0.46502825 30:0.92064392 31:-0.4392889 32:-0.68613222 33:-0.38670533 34:1.2117349 35:-0.6607568 36:-0.54622655 37:-0.39607891 38:0.54945814 39:1.9735488 40:-1.3249276 41:-0.13400846 42:-0.61802589 43:0.55541695 44:1.7612014 45:-0.41133418 46:-0.61136338 47:-1.2809696 48:-1.267419 49:-1.671306 50:-1.5127615 51:-1.7684002 52:-1.9391028 53:-1.6170267 54:-1.8557071 55:-1.6408613 56:-1.1030239 57:-0.063628392 58:0.19728919 59:-0.89928796 60:0.581434 61:-0.76816699 62:0.69491205 63:-0.68373311 64:0.97034583 65:-0.60825363 66:-0.77577559 67:-0.7607953 68:0.11738485 69:2.9936265 70:-0.55449728 
-0.05655822120830335 0 1:0.25128979 2:0.50759329 3:0.27560785 4:0.2582497 5:0.20474426 6:0.43852001 7:-0.2884334 8:0.09123285 9:0.66864296 10:-0.57310502 11:-0.10075844 12:1.0340541 13:0.54514376 14:-0.70059285 15:-0.09774387 16:-0.7310633 17:1.1268195 18:1.7366048 19:1.7469233 20:0.45234367 21:-0.48473445 22:-1.2994054 23:-0.68566929 24:-0.33030511 25:-0.60158482 26:-1.2172495 27:-0.38525751 28:-0.10734896 29:1.6574227 30:0.39729609 31:1.6308685 32:1.4582728 33:-0.60162067 34:-0.18267387 35:-0.26088588 36:0.32478403 37:-0.61522683 38:-0.41835388 39:-0.61284775 40:0.10259392 41:-0.48712884 42:-0.26967821 43:-0.7388536 44:-0.48517626 45:-0.46467337 46:-0.52416235 47:-0.85993434 48:-0.36918776 49:-0.55502841 50:-0.62615984 51:-0.98612181 52:-0.88761593 53:-0.88565733 54:-0.61302501 55:-0.75894136 56:-1.526154 57:-0.82427269 58:-0.48403854 59:-0.94092641 60:-1.161939 61:-0.58974288 62:-0.069350754 63:0.96262017 64:-0.01540542 65:0.95490827 66:0.29944022 67:-0.74232757 68:-0.26012153 69:-0.14795443 70:0.83297783 
-0.02416475186159527 0 1:9.087714 2:0.48754081 3:1.8292795 4:5.7467246 5:1.9450863 6:6.4335155 7:-1.7018303 8:8.0733529 9:2.2903477 10:-3.4670002 11:0.38392851 12:-0.61937749 13:0.34073061 14:-0.40183545 15:0.11813838 16:-0.48652454 17:-0.10964078 18:-0.58005809 19:-0.037582905 20:-0.67848185 21:-0.13275827 22:-1.5897287 23:-0.74971147 24:-1.3216168 25:-1.3307734 26:-2.0810862 27:-1.1421315 28:-1.0713675 29:0.08745182 30:-0.93985311 31:-1.6836713 32:-1.8624993 33:-0.8135997 34:-2.6820834 35:-1.1404934 36:-0.82198587 37:-1.6784123 38:-2.2151938 39:-2.9058341 40:-2.8081934 41:-1.5520313 42:-1.4570401 43:-2.4313764 44:-2.7598955 45:-2.7147396 46:-3.3199934 47:-3.3568923 48:-3.446487 49:-3.3063364 50:-2.924679 51:-2.725441 52:-2.6444045 53:-2.6700014 54:-2.7704715 55:-2.6277517 56:-2.19743 57:-1.266192 58:-1.6695122 59:-1.9526158 60:-2.4775804 61:-1.6401008 62:-1.3020465 63:-0.91681372 64:-1.592595 65:-2.4115004 66:-1.9844496 67:-1.4165201 68:-2.339424 69:-0.3992809 70:-1.021631 
-0 0.01167036756219644 1:0.6474205 2:0.46770542 3:-0.56539867 4:0.90803374 5:1.0587194 6:0.72807309 7:-0.31781387 8:0.75663964 9:1.3146875 10:-0.78188324 11:-0.10276786 12:-0.1696493 13:1.5420011 14:1.0062872 15:0.65384349 16:0.62246588 17:1.3229781 18:1.5882874 19:1.2721613 20:0.70985476 21:0.49110754 22:-1.185306 23:-0.52859107 24:1.7264717 25:-1.2935201 26:-1.111267 27:-0.60920699 28:0.35465899 29:-0.020120783 30:-0.59668676 31:-0.6913861 32:1.0101736 33:-0.2719267 34:0.41572611 35:0.88569356 36:0.1204499 37:0.30222812 38:0.7439246 39:-0.72622231 40:0.92808251 41:-0.32882193 42:0.8767723 43:0.15799957 44:-1.046209 45:-0.44806419 46:-0.86921906 47:0.068160853 48:-1.0315201 49:-0.80559199 50:-1.2500476 51:-1.0551129 52:-1.349263 53:-0.60947373 54:0.11222822 55:1.099007 56:-1.3755489 57:-0.68918731 58:2.2604786 59:-1.4929838 60:-0.85548932 61:-0.80904262 62:0.15213447 63:-0.16535292 64:-0.79834893 65:-0.70430049 66:0.46563448 67:-0.39538306 68:0.6719975 69:1.8626574 70:0.17310913 
-0.02332773482189373 0.05696245392114831 1:1.6194049 2:-0.43801687 3:0.67583392 4:1.302847 5:0.55384422 6:1.8403409 7:-0.80718298 8:1.5062028 9:0.75292001 10:-1.2396016 11:-0.57768961 12:-0.79951805 13:-0.31144405 14:0.44375882 15:0.041550255 16:0.098966804 17:0.65394814 18:-0.49893925 19:-0.20169559 20:-0.74242067 21:-0.37790128 22:0.29505316 23:0.29384705 24:-0.7348869 25:-0.29166988 26:-1.1029986 27:-0.46490489 28:-0.58935557 29:1.7446311 30:0.22091137 31:-0.43137803 32:-0.68286649 33:-0.094440377 34:-1.4291995 35:1.0764643 36:-0.42400455 37:-0.50865057 38:0.5002585 39:-0.61518259 40:0.4135224 41:-0.99417635 42:0.7426897 43:-0.66931508 44:-0.62999961 45:1.261892 46:-0.01572838 47:1.6096285 48:0.34941784 49:0.35016596 50:-0.83960052 51:-0.79342755 52:-0.95705719 53:-1.458816 54:-1.2653197 55:-1.0149089 56:0.014018533 57:0.37063506 58:-0.91451843 59:-0.40061076 60:-1.2158677 61:-0.25138089 62:-0.69839388 63:1.5601502 64:0.2277899 65:-0.56208962 66:-0.86117167 67:-0.10412228 68:-1.1451878 69:0.57012122 70:0.28112429 
-0 -0.01307948914800618 1:1.1135397 2:-0.75367586 3:0.0068038813 4:0.89950509 5:0.42744901 6:1.0703296 7:-0.45505984 8:1.3394108 9:-0.30244126 10:-0.44912326 11:1.153362 12:-0.070649164 13:0.65821272 14:-0.10470159 15:0.68734087 16:-0.24912545 17:-0.71333761 18:-0.91456179 19:-1.0070771 20:-1.5212864 21:-0.95736422 22:0.97534447 23:-0.2453122 24:-0.16795396 25:-0.062532539 26:-0.18318338 27:-0.77442071 28:-0.19339638 29:-0.57467012 30:-0.51471603 31:-0.35277578 32:-0.080021274 33:-0.57891845 34:-0.65890764 35:1.1630692 36:-0.65790892 37:-0.035486795 38:0.68115318 39:-0.82185846 40:1.6659718 41:-0.62787245 42:1.099665 43:0.69896778 44:0.28753838 45:-0.031376573 46:-0.53595731 47:-0.5890555 48:-0.72433499 49:-0.58675469 50:-0.50725323 51:0.17053391 52:0.032625431 53:0.32522956 54:0.52654562 55:0.27979261 56:1.2308799 57:-0.066807983 58:-0.10717176 59:-0.00453624 60:-0.05420054 61:-0.62547635 62:-4.1212053e-05 63:-0.52131748 64:-0.37480837 65:-0.24463512 66:-0.013241017 67:-0.36925968 68:-0.30079451 69:0.16620367 70:-0.057684974 
-0 -0.02210605712193554 1:-0.15186873 2:-0.36352671 3:0.75016921 4:0.12550309 5:0.2048752 6:-0.21172964 7:-0.031986502 8:-0.085847184 9:-0.10056274 10:-0.35703031 11:1.0576847 12:0.1162836 13:-0.15037561 14:0.89004247 15:-0.13169832 16:-0.35824829 17:-0.71877525 18:-0.98199402 19:-0.19212482 20:0.080138249 21:-0.6764791 22:0.72408016 23:-0.5703344 24:-0.27046138 25:-0.17609944 26:0.86684135 27:-0.01730696 28:0.83546796 29:-0.37427864 30:-0.2776717 31:0.12072926 32:-0.38961788 33:-0.30610139 34:0.86226546 35:0.34493172 36:-0.36026225 37:-0.68091348 38:0.22862116 39:-0.05156681 40:0.021577648 41:-0.070257489 42:0.23581843 43:0.21797493 44:-0.061060564 45:0.81338459 46:0.45982342 47:1.3019972 48:1.1829564 49:0.4547147 50:0.31136354 51:0.052987744 52:-0.22929634 53:0.018697955 54:0.12173384 55:0.4795182 56:1.0927524 57:-0.4817269 58:0.066659679 59:0.29292715 60:0.82157316 61:0.54075029 62:0.6516354 63:-0.17995206 64:0.10395025 65:0.49118379 66:-0.24195144 67:-0.012787791 68:0.49541674 69:-0.60491165 70:-0.8955155 
-0.1632864101526133 -0 1:-0.047407613 2:-0.74156196 3:0.29865223 4:-0.71105964 5:-0.94059874 6:-0.12215129 7:-0.36967767 8:-0.29489594 9:-0.9473223 10:-0.17460702 11:-1.1211446 12:1.0088575 13:-0.56183354 14:-0.34818751 15:0.0017709398 16:1.3488233 17:0.39666946 18:1.7349289 19:1.2476961 20:0.35663876 21:0.73219693 22:0.53864048 23:0.28722393 24:-0.13903781 25:0.23337627 26:-0.71594449 27:0.69299059 28:-0.45451574 29:3.3021418 30:-0.065344972 31:-0.92344374 32:0.30937018 33:0.13310258 34:-0.095577764 35:-0.47167411 36:-0.52136334 37:0.47169447 38:-0.74503269 39:0.36596743 40:-0.4566757 41:0.23856443 42:-0.78309205 43:0.40002434 44:0.11672656 45:0.068805112 46:0.35670659 47:0.72601071 48:1.14364 49:1.6895489 50:1.9804207 51:1.6572106 52:2.519613 53:1.12191 54:0.20652208 55:0.79800751 56:1.4366837 57:0.50883117 58:0.098871704 59:0.87739417 60:-0.57475542 61:1.4585506 62:-0.38543156 63:3.9580217 64:0.28593744 65:-0.98667194 66:0.29183205 67:0.196651 68:-0.04043647 69:-0.77627061 70:-0.69886883 
-0 -0.05920624686077383 1:0.053577712 2:-0.11218577 3:0.55129158 4:-0.32162531 5:-0.67791407 6:0.32192245 7:-0.35466916 8:0.061163318 9:0.57455935 10:-0.16632341 11:-0.19340154 12:0.5873182 13:0.48056032 14:-0.047372652 15:1.2978291 16:-0.60898695 17:0.66520859 18:-0.40323942 19:1.5748499 20:0.44906602 21:0.19672784 22:-0.47817928 23:-0.37587751 24:1.0402394 25:-0.097972757 26:0.41554287 27:-0.25160921 28:-0.77662542 29:0.40899304 30:-0.11248033 31:-0.30149425 32:-0.22583156 33:0.10124543 34:-0.25920479 35:0.40078891 36:-0.17323333 37:-0.44100535 38:-0.42133451 39:-0.41012966 40:0.60742602 41:-0.4966743 42:0.2029244 43:0.25237296 44:-0.23864108 45:-0.47243725 46:-0.6217572 47:-0.11110972 48:-0.13991849 49:0.41482143 50:-0.11670542 51:-0.30615282 52:-0.063340586 53:-0.19445476 54:-0.2754953 55:-0.12664235 56:-0.57002105 57:-0.37947122 58:1.0160697 59:-0.043114974 60:0.2082288 61:-0.20293605 62:-0.88382321 63:0.51444077 64:0.079186262 65:-0.21063867 66:-0.09285102 67:0.14130126 68:0.03123502 69:0.16620367 70:-0.17202929 
-0 -0.009337097609792277 1:-0.98490897 2:-0.85582186 3:0.14669339 4:-1.1622844 5:-1.3058391 6:-0.69130582 7:0.25732348 8:-0.81192934 9:-1.8487731 10:0.52639995 11:-0.40004874 12:1.6517537 13:-0.3122836 14:-0.56997743 15:-1.1688074 16:0.52926883 17:-0.68561407 18:0.40113639 19:-0.27325259 20:1.3502264 21:-0.69724834 22:0.15400518 23:-0.91010138 24:-0.22929729 25:-0.60638966 26:3.0728756 27:1.512148 28:-0.59748474 29:-0.88088694 30:0.8492401 31:-0.8684002 32:0.15655371 33:2.0117917 34:0.40412498 35:-0.98387394 36:-0.80559179 37:0.69480341 38:-0.57520123 39:1.3785943 40:-0.31672116 41:0.62325625 42:-0.78635237 43:1.1003983 44:0.53949693 45:1.269946 46:1.0368629 47:0.67833572 48:0.73613941 49:0.1078201 50:-0.35017833 51:0.010584449 52:0.06211926 53:0.50797063 54:0.20878481 55:1.0470103 56:-0.27005777 57:-0.96315471 58:0.4305096 59:-0.56740637 60:2.6406281 61:1.3325065 62:-0.66182896 63:-0.7201883 64:0.655044 65:-0.94863132 66:-0.24699918 67:1.1838111 68:0.024751977 69:-0.60491165 70:-0.065877728 
-0 -0.06420559833239338 1:1.7406607 2:-0.63019807 3:0.69822559 4:1.4311995 5:0.34300001 6:1.6259732 7:-0.62381998 8:1.7931719 9:-0.14886339 10:-1.5951526 11:0.4526118 12:0.064252453 13:-0.77388229 14:0.84016161 15:-0.418451 16:-0.24905366 17:-0.3832926 18:0.092470924 19:0.077246508 20:0.14386318 21:-0.044391192 22:-0.54607666 23:-0.21819153 24:-0.65059335 25:-0.71405803 26:-1.4107695 27:0.68825171 28:0.047666807 29:-0.30900502 30:-0.47815044 31:-1.22801 32:0.043009938 33:-0.23872713 34:-0.46780025 35:1.9732509 36:-0.46498078 37:-0.21937648 38:1.5051131 39:0.18616889 40:1.5351698 41:-0.65544997 42:1.2834071 43:0.97435348 44:1.783907 45:1.407659 46:0.95748551 47:2.0025857 48:1.781207 49:1.3359834 50:0.91929796 51:0.86321748 52:0.30738486 53:1.0260844 54:1.0683841 55:1.1936831 56:-0.14869555 57:0.029672969 58:-0.48377879 59:-0.41051462 60:-1.1244705 61:1.0474671 62:0.52923216 63:-0.13420813 64:-0.26667462 65:-1.040405 66:0.35136428 67:0.089119842 68:0.66986309 69:1.1086779 70:-0.6220932 
-0.09979517706122921 -0 1:-0.54791669 2:-0.71444422 3:0.30275035 4:-0.60182421 5:-0.25926797 6:-0.7881702 7:-0.53158659 8:-0.77390645 9:-1.1494799 10:0.93757436 11:-0.57629813 12:-0.011105915 13:0.079379022 14:-0.04973601 15:0.75015669 16:-0.40208762 17:-1.2789128 18:-0.092247824 19:1.5632729 20:1.382356 21:0.33866428 22:-0.30602885 23:-0.96176905 24:-0.19254058 25:0.80881138 26:0.64287779 27:0.85544284 28:0.091431077 29:0.97257273 30:0.11298443 31:0.17460083 32:-0.28979477 33:-0.49531354 34:0.12109839 35:-0.5557429 36:-0.52330163 37:0.23752122 38:-0.51856928 39:0.190748 40:-0.5649135 41:0.15753616 42:-0.77132121 43:0.65887661 44:-0.29946762 45:0.46253497 46:0.40500047 47:0.47155118 48:0.6637903 49:0.96147245 50:1.2416858 51:1.1667286 52:1.2128698 53:0.53507273 54:0.33833823 55:0.81241711 56:-0.47277622 57:-0.96955957 58:0.035399193 59:0.65392576 60:0.56881301 61:0.87406007 62:0.1350423 63:1.3564992 64:0.28148538 65:0.35879456 66:-0.017703883 67:-0.4898249 68:0.16723707 69:-0.14795443 70:-0.82935807 
-0 -0.06469146342499589 1:0.65553614 2:-0.46649994 3:0.17809072 4:0.51186433 5:0.12568425 6:0.99336502 7:-0.10757024 8:0.72049337 9:0.34020922 10:-0.89783301 11:-0.10116931 12:1.0716182 13:0.33560855 14:1.528676 15:-0.039778695 16:-0.064908299 17:-0.82375686 18:-0.0013501915 19:-0.5608606 20:-0.72526621 21:0.45668005 22:0.072698718 23:-0.5807703 24:-0.091548722 25:0.39639324 26:-0.23725329 27:-0.084588267 28:-0.3054383 29:0.50443635 30:-0.4909891 31:-0.81874553 32:0.13185206 33:-0.40759618 34:-0.49469562 35:0.74811871 36:-0.33951675 37:0.37504125 38:0.70924291 39:0.32552279 40:0.92448655 41:-0.1808735 42:0.61861692 43:1.1366603 44:0.97807094 45:1.4346082 46:0.1383881 47:1.1302342 48:0.84977129 49:0.47622612 50:-0.048107784 51:0.22813156 52:0.17233842 53:0.88223761 54:0.69419408 55:0.27585898 56:0.82434504 57:-0.45261364 58:0.22549073 59:1.3998447 60:0.32482028 61:0.075133813 62:-0.15135413 63:0.78719696 64:-0.24363338 65:-0.53485089 66:0.40168759 67:-0.36636142 68:-0.058447797 69:0.16620367 70:-0.08477681 
-0.2094913097132749 -0 1:-1.3503614 2:-0.59915826 3:0.18586683 4:-1.5831745 5:-1.2539607 6:-1.4429771 7:-0.24621763 8:-1.285421 9:-0.78031518 10:1.7150011 11:0.25425645 12:0.48156325 13:-0.17262221 14:-0.76961644 15:-0.30325864 16:0.057221581 17:-1.8875647 18:-1.7172335 19:-0.45376823 20:-0.059930132 21:-0.077318866 22:1.4965427 23:-0.60358782 24:0.19857905 25:1.9635771 26:2.3286324 27:1.3524869 28:-0.70722594 29:-0.99712962 30:-0.24741242 31:-0.054560174 32:-0.15797192 33:-0.40182778 34:0.25999112 35:-1.3078853 36:-0.5818374 37:-0.43837385 38:-0.57091226 39:1.5471016 40:-1.3719288 41:-0.13872952 42:-1.2156529 43:0.13247789 44:-0.1073816 45:-0.48052838 46:-0.21754299 47:-0.44708166 48:-0.57456934 49:-0.45748777 50:0.66122289 51:-0.34188371 52:-0.40970043 53:-0.45969629 54:-0.22811426 55:0.19469521 56:0.38845312 57:-0.5867207 58:0.0062548159 59:1.7305321 60:1.2872766 61:0.99822058 62:-0.78111693 63:-1.0392898 64:-0.38057583 65:-0.41858693 66:-0.80311035 67:-0.55700449 68:-0.66374844 69:-1.1532603 70:-0.36733656 
-0.1694673170987551 -0 1:-0.61625444 2:-0.65077504 3:-0.091904838 4:-1.2227857 5:-1.2133924 6:-1.2682517 7:0.50345933 8:-1.0690298 9:-0.97708293 10:1.3313529 11:-1.5563533 12:0.22588445 13:-0.12055733 14:0.85248586 15:-0.60854942 16:-2.4304738 17:-1.595764 18:-0.55936247 19:0.17389623 20:0.6812022 21:1.0833445 22:-0.0352637 23:-0.6621565 24:-0.51021235 25:0.992404 26:0.7216973 27:0.48645022 28:-0.37380587 29:3.5669411 30:0.8539576 31:1.3265205 32:-1.35095 33:-0.57509327 34:-0.46969385 35:-0.99894841 36:-0.42543795 37:0.74393824 38:-0.37403887 39:1.436094 40:-0.78854632 41:1.0222989 42:-1.2094213 43:1.0572037 44:1.3094809 45:0.057180895 46:1.6068135 47:1.730918 48:2.565731 49:3.0486461 50:3.3626785 51:3.5080162 52:2.0926417 53:1.3846564 54:0.16867775 55:0.1493506 56:0.54412174 57:-0.2489239 58:-0.14672323 59:1.1806198 60:1.5559083 61:0.66165952 62:-0.14531322 63:4.8939976 64:0.83893442 65:2.0753563 66:-1.0214757 67:-0.36604064 68:-0.080212573 69:-0.3992809 70:-0.73949252 
-0.002990529280903556 -0 1:-0.16040782 2:-0.63594641 3:0.58020636 4:-0.6798051 5:-1.1754663 6:-0.31433005 7:-0.30487725 8:-0.17930387 9:-0.49662197 10:0.19578902 11:-0.55895472 12:-2.2459206 13:0.043558385 14:0.021539071 15:-0.48958427 16:-0.2228107 17:-1.1095068 18:0.37707351 19:-1.5534908 20:-1.1301658 21:-0.51831069 22:-0.36603995 23:0.78660766 24:-0.70998539 25:0.35055275 26:-0.16405496 27:1.2372918 28:-0.81998304 29:0.041384532 30:2.8990859 31:-0.41138506 32:-0.68592145 33:0.49935748 34:-0.73799871 35:-0.46743243 36:-0.59040209 37:-0.54409661 38:-0.60644247 39:0.30417368 40:-0.26318028 41:-0.29928805 42:-0.4015442 43:0.37569789 44:0.12148573 45:0.66071211 46:0.086100821 47:-0.15202195 48:-0.29735729 49:-0.02662033 50:0.099717812 51:-0.13635907 52:0.33879131 53:0.5646237 54:0.047928377 55:0.49162907 56:-0.40104047 57:0.83340481 58:-0.49032366 59:0.54483032 60:-0.36674697 61:0.9180269 62:-0.92606671 63:0.26559257 64:3.6620911 65:-0.43715628 66:-0.68366475 67:0.7387861 68:-0.64442066 69:-1.045549 70:-0.59726597 
-0.3969211290967212 -0 1:0.25349078 2:-0.61119709 3:0.88144522 4:-0.64802384 5:-1.6588771 6:0.63340701 7:-0.15627184 8:0.26911976 9:-0.12789505 10:-0.47919326 11:-0.90909003 12:0.094217049 13:-1.5196537 14:1.0853406 15:-3.2908351 16:0.61038326 17:-1.3428682 18:0.57059354 19:0.11214083 20:-0.41422064 21:0.050207964 22:0.1169562 23:0.90867554 24:-0.91948293 25:-0.35171505 26:-0.047606932 27:0.82914581 28:-0.85787082 29:0.23442253 30:0.72290586 31:0.038148872 32:-0.95234497 33:1.2476962 34:-0.8746926 35:-0.69377608 36:-0.66365999 37:-0.68082621 38:-0.84891227 39:0.59331302 40:-0.63686758 41:-0.27938407 42:-0.79972458 43:-0.10977771 44:0.29615733 45:0.20047096 46:-0.30173779 47:0.24415235 48:0.16502297 49:0.27701431 50:-0.003934233 51:-0.013223596 52:0.12166868 53:0.30481782 54:0.54381465 55:1.0266614 56:-0.231234 57:0.98616595 58:-0.86990585 59:-0.33626797 60:-0.5199928 61:0.86065732 62:-0.92446409 63:0.35051358 64:0.81132658 65:-0.082557656 66:-0.86800398 67:1.2197292 68:-0.59219505 69:-1.045549 70:-0.68494161 
-0.2704928531500678 -0 1:-1.2917984 2:-0.7062499 3:0.13723043 4:-1.0775063 5:-0.017147943 6:-1.7197174 7:-0.5810324 8:-1.4890386 9:-1.2547611 10:1.7234526 11:0.082145968 12:0.44319433 13:0.15534787 14:0.75981225 15:1.3214189 16:0.40920372 17:-0.29044367 18:-1.0132423 19:1.4432142 20:1.2204722 21:0.57890883 22:0.10283787 23:-0.77510044 24:0.69786911 25:0.63998831 26:0.62208944 27:0.8584578 28:0.7489708 29:-1.2061251 30:-0.37481164 31:-0.85104627 32:0.43017992 33:-0.42302836 34:1.0534225 35:-1.0454503 36:-0.56884218 37:-0.12128549 38:-0.32761988 39:0.74952227 40:-1.5943008 41:-0.0084029373 42:-1.1884562 43:0.67153933 44:-0.13889397 45:0.53115858 46:-0.089818278 47:0.67324942 48:0.35755922 49:0.61850231 50:0.16420178 51:0.52772919 52:-0.13800559 53:0.19517225 54:-0.56836736 55:-1.0444272 56:-0.13030392 57:-0.82328279 58:0.072628867 59:0.46318316 60:-0.059828629 61:0.76450198 62:0.17567583 63:-1.1424764 64:-0.45781346 65:-0.93662225 66:0.057425305 67:-0.34268539 68:0.020155434 69:0.57012122 70:-0.76561527 
-0.2082743831640493 -0 1:-0.67081438 2:-0.0090292409 3:0.66046377 4:-0.97956597 5:-1.086804 6:-0.54945963 7:-0.23972818 8:-0.71061945 9:0.50358503 10:0.73418396 11:-0.89597332 12:-1.1363946 13:-0.20871446 14:-2.2918392 15:-1.158374 16:-1.4045361 17:-0.79513351 18:0.56339338 19:-1.2284468 20:-0.23416847 21:0.78083729 22:1.2279814 23:1.1292881 24:-0.75316507 25:0.8210179 26:0.00062140388 27:1.6100456 28:-0.63125102 29:-0.17279955 30:1.0923274 31:-0.10205597 32:-0.79885917 33:0.51912401 34:-0.42932169 35:-1.1905217 36:-0.29571499 37:-0.71532348 38:-0.92768063 39:0.40781663 40:-0.98864923 41:-0.22399425 42:-1.0735701 43:-0.45329359 44:-0.64071919 45:0.185699 46:-0.043882323 47:0.74010049 48:0.15050182 49:0.42652301 50:0.11622124 51:0.40707826 52:0.49345472 53:0.51772923 54:1.3429143 55:0.99014356 56:0.93075615 57:0.9224787 58:-0.35846812 59:0.61468896 60:-0.061197909 61:1.3713147 62:-0.66641529 63:-0.16469569 64:0.97564749 65:-0.38941831 66:-0.73421568 67:0.88135658 68:-0.65257137 69:-0.92126666 70:-0.73789722 
-0.21073490350474 -0 1:-0.88535508 2:-0.44303275 3:0.68884081 4:-0.86786786 5:-0.54826574 6:-0.90523582 7:-0.5021416 8:-0.7736787 9:-0.37465509 10:0.92996436 11:0.14117401 12:-1.7032858 13:-1.4296237 14:-0.86507783 15:0.0014774788 16:0.37198257 17:2.2551077 18:0.066817437 19:1.1937907 20:0.82672431 21:0.49694406 22:-0.073828143 23:0.8166725 24:-0.083992249 25:-0.57260255 26:-0.23762354 27:-0.85955551 28:-0.615872 29:-0.34868724 30:0.13038989 31:0.39552692 32:0.73382193 33:2.6565269 34:0.03093915 35:-0.63180682 36:-0.43529591 37:-0.5313433 38:-0.20899642 39:0.29849388 40:-0.22780633 41:0.060471155 42:-0.52884253 43:-0.21201214 44:0.77942523 45:-0.096442174 46:0.33183359 47:-0.016106242 48:0.41915969 49:0.23763291 50:1.1222658 51:0.6735259 52:0.39229027 53:0.68634487 54:0.14346341 55:-0.29797316 56:0.024707793 57:0.46120078 58:0.25381886 59:-0.57065759 60:-0.13728183 61:-0.85179045 62:-0.55938365 63:-0.16457019 64:0.0021999135 65:0.57049033 66:0.39590552 67:2.3505831 68:-0.2454135 69:0.57012122 70:-0.76535673 
-0.2225781738102849 -0 1:-0.74550847 2:-0.38285616 3:0.56539867 4:-0.57531584 5:-0.042634699 6:-0.96651992 7:-0.55493483 8:-0.82676727 9:-0.010325088 10:0.96823783 11:-0.16447261 12:-1.7430375 13:-1.496152 14:-0.46387606 15:0.30392341 16:-0.7660871 17:0.59144596 18:-0.34482085 19:1.2448273 20:0.96763849 21:0.51595586 22:0.21623093 23:-0.58759489 24:-0.39399602 25:0.47103795 26:0.1000595 27:-0.33162491 28:-0.34059276 29:-0.059743598 30:0.86475386 31:0.10204503 32:0.22964462 33:2.2143019 34:-0.19248821 35:-0.78566469 36:-0.4538263 37:-0.37759883 38:-0.44765984 39:0.15968848 40:-0.71349702 41:-0.076490685 42:-0.73929107 43:-0.35301888 44:-0.22231239 45:-0.62454098 46:-0.13030265 47:0.336372 48:-0.10475722 49:-0.2431771 50:0.78239172 51:0.46497145 52:0.57034913 53:0.56102099 54:0.14718554 55:-0.69041383 56:0.24501011 57:-0.62429127 58:-0.07358796 59:0.39222441 60:0.10353821 61:-0.3397887 62:-0.39032521 63:0.20442674 64:0.77647918 65:0.021784374 66:0.051045163 67:1.8073817 68:-0.41363996 69:0.16620367 70:-0.75160208 
-0 -0.003360622944946643 1:0.20920958 2:-0.76075616 3:0.0025660907 4:-0.057969975 5:-0.074478826 6:0.065596561 7:-0.11439163 8:0.40178449 9:-0.53210477 10:0.56967753 11:0.8643422 12:-0.54461195 13:0.39104315 14:-0.49615872 15:-0.24525303 16:-0.23334278 17:0.17560869 18:0.53106937 19:0.37748903 20:-1.2914057 21:-0.24603156 22:0.27095467 23:-0.58512457 24:0.18610688 25:1.278273 26:0.39843865 27:-0.21912214 28:-0.77584229 29:-0.71361216 30:0.16472957 31:0.65360983 32:0.38722331 33:-0.37733755 34:-0.57025606 35:0.64026485 36:-0.69949496 37:0.031077821 38:0.45010192 39:-0.31084511 40:1.0433205 41:-0.027875831 42:0.49961903 43:0.87959202 44:1.1281468 45:0.91636024 46:0.32181474 47:0.044045478 48:-0.51627464 49:-0.96666779 50:-0.56226435 51:-0.55113666 52:-0.22375259 53:-0.21427351 54:0.39669071 55:0.44212376 56:0.33541642 57:-0.52856511 58:0.41958897 59:1.7460403 60:0.43773429 61:0.13519032 62:-0.88482295 63:-0.49774798 64:0.37797481 65:0.36444685 66:0.34027529 67:-0.37545906 68:-0.44271967 69:0.16620367 70:-0.049271024 
-0.5363366606283393 -0.04949711123796813 1:-0.015265548 2:-0.74796019 3:-0.027018544 4:0.12239872 5:0.54094575 6:-0.37568957 7:-0.38765337 8:-0.28966338 9:-0.25458543 10:0.67267138 11:-0.3245077 12:-0.62072353 13:-0.31498471 14:-0.49063068 15:-0.079628591 16:0.49265253 17:-0.38441722 18:0.26276031 19:0.41130637 20:0.16423046 21:-0.085269919 22:0.66667225 23:0.35822802 24:-0.31586985 25:1.4680639 26:0.46975638 27:-0.50663165 28:-0.58139434 29:-0.42922757 30:1.2378814 31:1.390271 32:-0.76424851 33:-0.31470911 34:-0.8751929 35:-0.49153479 36:-0.67507096 37:0.027804595 38:-0.10438452 39:0.11022311 40:-0.75053033 41:-0.42054259 42:-0.41783267 43:-0.07788552 44:-1.1695068 45:-0.82329678 46:-0.33508926 47:-0.46745509 48:-0.96225874 49:-0.43058191 50:-0.83423616 51:-1.0927636 52:-0.56443498 53:-0.27212578 54:-0.32662625 55:-0.33808869 56:0.81134822 57:0.74995473 58:-0.4901536 59:1.9405129 60:0.2736411 61:-0.63941508 62:-0.54504443 63:-0.57930567 64:1.3411391 65:1.4333986 66:-0.73845848 67:-0.46667973 68:-0.88346827 69:-0.14795443 70:-0.39795152 
-0.04906391572733582 -0.02026528286218731 1:-0.60482378 2:-0.16766863 3:0.47804726 4:-1.0094124 5:-1.0614188 6:-1.0490613 7:0.85706888 8:-0.74502143 9:0.098770192 10:1.3867757 11:-0.09358357 12:-1.1762796 13:-0.58695224 14:-2.7394818 15:-0.48314095 16:-2.2197558 17:-1.8169519 18:-2.6823748 19:-1.1546375 20:-1.5368432 21:-0.50135387 22:1.6731909 23:-0.19835399 24:-1.0931933 25:0.48820541 26:1.9520057 27:0.78116793 28:-0.46455322 29:0.64442335 30:1.9816866 31:-0.30032606 32:-1.1738192 33:1.9371265 34:-0.67079492 35:-0.82266281 36:-0.48928974 37:-0.87082922 38:-0.096517481 39:1.18171 40:-1.0467455 41:0.012357008 42:-0.75920568 43:-0.45361484 44:0.48280756 45:0.32883905 46:0.10599751 47:-0.32462891 48:-0.34285631 49:-0.94338272 50:-0.48252951 51:-0.59681547 52:-0.29677146 53:-0.13464463 54:0.31735707 55:-0.064176201 56:0.95901824 57:0.051216884 58:-1.1678822 59:0.58942696 60:1.2241314 61:0.80036076 62:-0.52167922 63:1.3318403 64:2.4257833 65:-0.54902838 66:-1.2118027 67:1.8471265 68:-0.87937673 69:2.9936265 70:-0.78385418 
-0.04416334749987427 -0 1:-0.36679872 2:-0.5773789 3:0.37978765 4:-0.67087905 5:-0.38476424 6:-0.78944153 7:-0.10979329 8:-0.37564265 9:-0.61813319 10:1.284905 11:0.52691311 12:-1.0528838 13:0.16546916 14:-1.927922 15:-0.46383385 16:-0.91373267 17:-1.0598141 18:-0.59076042 19:0.052174298 20:-0.52227512 21:-0.34462458 22:2.6960563 23:-0.70375731 24:-0.27811914 25:0.45743205 26:0.17983244 27:0.12563196 28:-0.38806672 29:-0.97747411 30:1.6989107 31:-0.62966951 32:-0.058276992 33:0.81657315 34:-0.0034446728 35:-0.29567954 36:-0.54765661 37:-0.53884264 38:-0.2089377 39:0.24747701 40:-0.6570848 41:-0.081065179 42:-0.43015547 43:0.0089513682 44:0.13443431 45:0.087571981 46:-0.04917827 47:-0.0037512249 48:-0.12966253 49:0.20245117 50:0.36015541 51:0.82288057 52:0.74946748 53:0.78514381 54:0.64191371 55:0.2925377 56:1.8054142 57:-0.77465039 58:-0.34865404 59:0.49795975 60:-0.091498721 61:0.28434972 62:-0.40712677 63:-0.93801954 64:1.5906001 65:-0.81269241 66:0.0066895387 67:1.1860855 68:-0.34715748 69:0.16620367 70:-0.78021411 
-0 -0.003795166917527852 1:0.49938029 2:-0.14802397 3:-0.18353483 4:0.79166274 5:1.21155 6:-0.090179415 7:-0.41147864 8:0.2384715 9:-0.26191456 10:0.31795344 11:1.0592772 12:-1.2888452 13:-0.41358121 14:-0.45370705 15:1.0085746 16:-0.3405759 17:0.84034314 18:0.16485556 19:1.2377769 20:0.75871472 21:-0.25496918 22:0.46469029 23:-0.46816793 24:-0.34561461 25:-0.182502 26:0.62562677 27:-0.37916078 28:0.073589928 29:0.65788496 30:0.20977399 31:-0.91027642 32:0.18851505 33:-0.052180329 34:-0.1779268 35:0.96341075 36:-0.21463965 37:0.51344145 38:1.0748041 39:-0.32131987 40:0.94655679 41:-0.22780273 42:0.84498419 43:0.46018853 44:0.53816953 45:0.0046797711 46:-0.41117145 47:0.42374763 48:-0.83484742 49:-0.90294071 50:0.59757964 51:-0.16785523 52:0.15734699 53:0.37569324 54:0.61505869 55:0.082110739 56:0.74033531 57:-0.48269837 58:-0.21192123 59:-0.049520666 60:0.89519619 61:-0.38671264 62:0.31830006 63:0.88883805 64:-0.00087491519 65:-0.96499542 66:0.38789706 67:0.00026863246 68:-0.02447828 69:0.57012122 70:-0.4573632 
-0 -0.05113569354610447 1:-1.3053226 2:-0.23126966 3:0.58079874 4:-1.4860422 5:-1.0046359 6:-1.416368 7:-0.34897847 8:-1.2693343 9:-0.27544334 10:1.7498928 11:-0.39188671 12:0.18015912 13:0.91544879 14:0.66420798 15:1.180487 16:1.3444198 17:-0.26884252 18:0.42671003 19:-0.87001237 20:-1.0470028 21:-1.8465891 22:0.36804466 23:-0.0017967735 24:-0.25533346 25:-0.51835041 26:0.27459893 27:-0.27658614 28:-0.68381237 29:2.8203605 30:-0.66044128 31:3.2978601 32:0.46566573 33:-0.50031654 34:0.053267648 35:-1.4115849 36:-0.42322518 37:-0.65397811 38:-0.56192343 39:1.3777855 40:-1.5946676 41:-0.028779724 42:-1.3165897 43:-0.035346466 44:-0.34461432 45:0.1362089 46:-0.27510589 47:-0.60334232 48:-0.046043629 49:-0.27092406 50:-0.22726991 51:-0.018002823 52:-0.31576783 53:-0.30579977 54:-0.58429082 55:-0.63101196 56:0.064552913 57:-0.21032618 58:-0.15218149 59:-0.83255148 60:-0.74584118 61:-0.24590661 62:-0.87408051 63:1.5012812 64:-0.81602815 65:1.5042927 66:-0.19379732 67:-0.56005102 68:-0.81622071 69:-1.1532603 70:-0.74773393 
-0.1969083802569064 -0 1:-1.2624944 2:0.47294701 3:0.48872737 4:-1.7114651 5:-1.5274663 6:-1.9756637 7:-0.1841729 8:-1.3577232 9:0.27674539 10:2.4100049 11:-1.5113698 12:-2.7664184 13:-0.96143055 14:-0.5236203 15:0.76114435 16:-0.0010216112 17:-0.59851389 18:-2.1937117 19:-1.5818088 20:-2.2461632 21:-1.2133322 22:-0.51558472 23:2.1869576 24:-0.37085704 25:3.4504459 26:-0.9630154 27:1.6276615 28:-0.73246143 29:-0.61944496 30:0.070277668 31:1.2695017 32:-0.88380858 33:0.7991433 34:-0.37196831 35:-1.8906409 36:-0.12282999 37:-0.74810282 38:-0.5265208 39:2.3717971 40:-2.2855123 41:-0.10994223 42:-1.6505574 43:-0.065950719 44:0.10708216 45:-0.73280071 46:-1.4663526 47:-0.97676631 48:-0.73478042 49:-0.19679487 50:-0.83057619 51:-1.0649827 52:-1.2768497 53:-1.1060283 54:-1.1765088 55:-1.0701385 56:-0.79892949 57:1.3223678 58:-0.56886631 59:2.023762 60:-1.127139 61:0.9974723 62:-0.7952647 63:-0.59025664 64:-0.26474608 65:0.36964575 66:-0.97653882 67:0.42779664 68:-0.93929754 69:-1.3306672 70:-0.67647443 
-0.1479891141035717 -0 1:-0.99410159 2:-0.3065845 3:0.42430455 4:-1.1929979 5:-1.0208137 6:-1.195218 7:-0.29874536 8:-1.0534664 9:0.071221435 10:1.454021 11:0.35561641 12:-1.2818697 13:-1.6123729 14:-2.27335 15:-1.9711946 16:-0.17749618 17:-1.0670008 18:-1.0858123 19:-1.1173633 20:-1.2699092 21:-3.0659531 22:2.3260683 23:-0.081453244 24:-0.80776352 25:0.89076305 26:0.74285321 27:0.16296085 28:-0.69805573 29:-1.1016065 30:1.7420165 31:0.77166757 32:-0.61307491 33:2.5740743 34:-0.51500904 35:-1.4142097 36:-0.59252985 37:-0.71337042 38:-0.72455144 39:0.88062402 40:-1.530501 41:-0.10962978 42:-1.1913713 43:-0.67592479 44:-0.76021592 45:-0.55278125 46:-0.92754168 47:-1.1492377 48:-0.50216767 49:-0.3493722 50:-0.52645998 51:-0.610002 52:-0.18800393 53:-0.36622496 54:-0.47573653 55:-0.31286225 56:1.2296632 57:-0.20627266 58:-0.84812518 59:0.087402963 60:0.28887953 61:0.083046143 62:-0.79725453 63:-1.0962569 64:1.5329327 65:0.39235565 66:-0.71865746 67:2.1051541 68:-0.86191602 69:0.16620367 70:-0.74485394 
-0.1140947747868589 -0 1:-0.73645024 2:-0.55598957 3:0.74082102 4:-1.0827668 5:-0.75955252 6:-0.83480829 7:-0.047916923 8:-0.70436362 9:-0.52631732 10:1.6210266 11:-0.85469903 12:-0.58638831 13:0.35452421 14:-0.98034774 15:0.50956062 16:-0.56453663 17:-0.34582897 18:0.28405658 19:-0.4930038 20:0.18452406 21:-0.50959624 22:0.79478719 23:0.4462133 24:-0.5446681 25:0.96236655 26:0.83513144 27:0.71288224 28:-0.69499975 29:0.20734911 30:0.014486471 31:0.30094845 32:0.39443281 33:0.50661727 34:-0.14744312 35:-0.94615889 36:-0.59604638 37:-0.59003195 38:-0.57702742 39:0.64744659 40:-0.9204718 41:0.22478766 42:-0.98320647 43:-0.081554544 44:0.30888995 45:0.47993272 46:0.10662222 47:0.02308611 48:0.11556183 49:-0.03167749 50:0.15875345 51:0.4691693 52:0.35112461 53:0.56929249 54:0.51286348 55:0.75679011 56:0.55713765 57:0.27650335 58:-0.50228434 59:1.1406362 60:0.42814585 61:0.61749397 62:-0.70061449 63:0.29752866 64:0.13678297 65:0.22637457 66:0.38666099 67:0.71157709 68:-0.59650394 69:-0.3992809 70:-0.78283309 
-0.05045102965587202 -0.01359578774989986 1:0.65904 2:-0.40429906 3:0.62347159 4:0.46212522 5:1.0209834 6:-0.28315151 7:-0.557463 8:0.58802234 9:-0.28700223 10:0.59133363 11:0.053504456 12:-3.2631895 13:0.27753967 14:1.9410526 15:1.8164012 16:2.6423918 17:1.4969359 18:1.1652049 19:2.4519935 20:-0.90830946 21:2.5538394 22:0.070479464 23:0.56085021 24:-0.45703563 25:-1.2102711 26:0.55639397 27:-0.85733185 28:0.044859527 29:2.3699298 30:-0.98887491 31:-0.37947925 32:-0.21803782 33:-0.19238556 34:-0.0048171173 35:1.0845491 36:-0.46738372 37:-0.35573083 38:0.38056742 39:-0.82146176 40:0.32417292 41:-0.14146277 42:0.71246092 43:-0.71893319 44:-0.1553043 45:0.085028933 46:0.56299577 47:-0.072838627 48:0.48811473 49:0.7457241 50:1.3166144 51:0.13306764 52:0.391308 53:0.71668683 54:0.024470816 55:-0.47525753 56:0.13983879 57:0.18980865 58:-0.17893975 59:-1.478997 60:0.40746437 61:-0.87314841 62:0.12993177 63:0.42911977 64:-1.037375 65:-0.15329744 66:0.13616153 67:0.02331028 68:0.15521065 69:-0.60491165 70:-0.041394303 
-0.07830387111298892 -0 1:-0.040045663 2:-0.40816334 3:0.83662023 4:-0.2175614 5:-0.83227381 6:0.38525851 7:-0.52040084 8:0.085074167 9:-0.32806742 10:-0.59448273 11:-0.97677055 12:0.005712434 13:-1.5432462 14:-0.022193237 15:0.44101265 16:1.0462922 17:0.139928 18:-0.043331696 19:-0.095610847 20:0.38604287 21:0.39283638 22:-0.50594869 23:2.2868831 24:-0.55196661 25:-0.33377964 26:-1.456971 27:0.71171905 28:-0.75003287 29:1.097927 30:0.99547382 31:-1.1681026 32:-0.5117357 33:-0.62894748 34:-0.66874069 35:-0.50751106 36:-0.39578632 37:-0.44263154 38:-0.25573962 39:0.3863233 40:-0.22893588 41:-0.10690812 42:-0.62975471 43:0.038012324 44:1.4825344 45:0.691536 46:1.0777323 47:0.84111434 48:0.91010243 49:1.0123822 50:1.3584664 51:1.8645217 52:1.2240167 53:1.4759192 54:1.1019856 55:1.1190964 56:-0.64434895 57:2.3487582 58:-0.56776833 59:-0.067570211 60:-1.3393578 61:0.820942 62:-0.70498141 63:1.1619092 64:1.0531539 65:-1.3529125 66:-0.46107212 67:-0.5360718 68:-0.56084839 69:1.8626574 70:-0.7716196 
-0 -0.001958217675299804 1:1.691691 2:0.29655371 3:0.56799333 4:1.7841124 5:1.0518773 6:1.7485987 7:-0.813433 8:1.9132558 9:1.468816 10:-1.3232394 11:0.56717977 12:0.58774479 13:0.32046749 14:0.41686325 15:1.2550309 16:-0.13800577 17:-0.18066779 18:0.80896615 19:0.87947124 20:1.1687876 21:-0.504984 22:-0.89669701 23:-0.54880351 24:-0.13771844 25:-0.46589991 26:-0.80065998 27:-0.1948893 28:-0.77360824 29:1.3674985 30:-0.21243531 31:-0.62612334 32:0.80754746 33:-0.51698347 34:-0.74201024 35:0.94459798 36:-0.03670832 37:-0.44449062 38:0.22985629 39:-0.61092037 40:0.85290177 41:-0.70256657 42:1.2621505 43:-0.66169008 44:-0.40626439 45:-0.06424829 46:-1.1478637 47:-1.3043862 48:-0.97868545 49:-1.0223634 50:-0.29519314 51:0.32072455 52:0.82878566 53:1.0732742 54:0.8189181 55:1.1910347 56:-0.90362297 57:-0.42543412 58:0.35171512 59:-0.52230373 60:-0.53513126 61:0.12074145 62:-0.77143628 63:2.0194097 64:0.090153379 65:-0.52095535 66:1.2488502 67:-0.45091797 68:-0.1300793 69:-0.14795443 70:-0.090623009 
-0.04311310136439164 -0 1:0.01322361 2:0.032102293 3:1.1989698 4:-0.44031499 5:-1.0631979 6:0.52436949 7:-0.71433 8:0.060834857 9:0.58599311 10:-0.40098296 11:-1.0894839 12:0.92332199 13:-1.0840712 14:0.27593232 15:0.62017915 16:0.43108049 17:0.055467178 18:0.76832383 19:2.1992194 20:1.3291298 21:0.073628396 22:-1.1488076 23:-0.44229796 24:-0.62448487 25:-0.2606445 26:-0.82731335 27:0.24560095 28:-0.67011554 29:-0.32645533 30:-0.57684891 31:0.94650127 32:-0.047394718 33:0.31634519 34:-0.51770452 35:-0.63028593 36:-0.30728933 37:-0.787119 38:-0.44642469 39:0.30491714 40:-0.52640182 41:-0.27134848 42:-0.84041948 43:-0.56372198 44:0.76092051 45:-0.1851033 46:0.20213408 47:0.44527639 48:0.24598847 49:0.89803232 50:0.30936592 51:0.24063249 52:0.90226198 53:0.62278273 54:0.47098217 55:0.13052188 56:-1.4478761 57:-0.46912668 58:-0.27943669 59:-0.64882566 60:-0.96172038 61:-0.10302297 62:-0.69052372 63:-0.49122222 64:-0.8303663 65:0.5499693 66:-0.16501139 67:-0.099157222 68:-0.39441062 69:1.8626574 70:-0.81464121 
