svm_type c_svc
kernel_type linear
nr_class 6
total_sv 267
rho -1.01027 -0.517918 -0.507669 -0.750507 -0.54118 0.337017 0.919535 0.151926 0.458179 0.174359 -0.0272782 0.286015 -0.331663 -0.143102 0.378032
label 0 1 2 3 4 5
probA -4.25403 -3.19705 -2.0905 -2.47499 -2.59688 -3.1264 -3.77324 -3.06246 -3.14053 -3.45695 -2.17142 -2.23859 -3.45629 -3.11354 -1.85871
probB -0.127669 -0.0323224 0.149206 0.333042 0.0877359 0.136099 0.129585 0.327337 0.0399683 -0.0637243 0.0764372 -0.248906 0.790853 0.00814038 -0.255436
nr_sv 57 37 43 54 32 44
SV
0.01 0 0.01 0 0 1:0.88198481 2:-0.4694418 3:0.89076977 4:0.4914843 5:-0.34193927 6:1.1769243 7:-0.3607432 8:0.6006179 9:0.43490743 10:-1.3594711 11:-1.7340851 12:-0.68858829 13:-0.48824268 14:0.22331535 15:-0.18922512 16:-0.0087242828 17:0.40514015 18:1.2591967 19:0.35869065 20:0.36112665 21:0.52054308 22:-0.28391354 23:0.27066796 24:-0.98821359 25:0.11066151 26:-0.65937489 27:2.2229424 28:-1.0671037 29:0.7775576 30:0.19443723 31:-0.47646252 32:-1.1878963 33:0.80049384 34:-1.2310524 35:-0.31444806 36:-0.36523033 37:-0.4505108 38:-0.68932989 39:-0.55769081 40:-0.31403203 41:-0.60949245 42:-0.42020372 43:-0.39938198 44:0.21161678 45:-0.096985917 46:-0.11260281 47:0.29615878 48:1.0095367 49:0.85084419 50:0.75235766 51:0.98955658 52:0.85078192 53:1.0785458 54:0.76928068 55:0.54295496 56:-0.29107023 57:0.37604617 58:-0.79272248 59:0.35499421 60:-0.35399206 61:2.399974 62:-1.1142813 63:0.66635364 64:0.58463127 65:-0.1995575 66:-0.9043201 67:0.98967377 68:-0.62685071 69:0.40912728 70:-0.39212769 
0 0 0.01 0.01 0 1:-1.1413898 2:-0.75006452 3:-0.63052795 4:-0.94913007 5:-0.21379133 6:-1.2320629 7:0.84570349 8:-1.1674389 9:-0.73224661 10:1.030204 11:0.71125161 12:0.86241271 13:-0.18493953 14:-0.071871241 15:-0.48502667 16:-0.12849574 17:-0.83969506 18:0.13559407 19:0.027135367 20:-1.198494 21:0.55213995 22:-0.53276039 23:-0.1759934 24:0.37550436 25:0.32430613 26:0.69320496 27:1.5040194 28:0.32152752 29:-0.90547141 30:-0.176752 31:0.30073748 32:1.0735531 33:-0.60429415 34:0.91875573 35:-0.52340774 36:-0.51469551 37:0.71091007 38:0.12393835 39:0.71358993 40:-0.44112767 41:0.7339476 42:-0.56029745 43:0.90089758 44:0.012164962 45:0.21477556 46:0.58817671 47:1.4858697 48:0.67876921 49:1.0628032 50:1.0155479 51:0.57896772 52:0.35631047 53:0.67004378 54:0.71481557 55:1.0361719 56:-0.48411943 57:0.43917054 58:1.010543 59:0.93037641 60:1.231828 61:2.5190098 62:0.93196658 63:-0.75321425 64:0.26301096 65:0.69778623 66:0.97401284 67:-0.36154543 68:0.73892631 69:-0.58996655 70:-0.26252039 
0 0.01 0 0.01 0 1:0.4601917 2:-0.092717165 3:-1.0057412 4:0.56806264 5:0.8258595 6:0.40977757 7:-0.32789897 8:0.42599483 9:0.59126207 10:-0.36330704 11:0.34853406 12:0.28406144 13:0.82218845 14:0.067502294 15:0.83158645 16:0.055646921 17:0.71957901 18:0.055994119 19:-0.65211201 20:0.60599235 21:0.80160477 22:-0.76793028 23:-0.50475658 24:0.66987847 25:-0.013100948 26:-0.32644787 27:0.16797939 28:0.4234643 29:-0.75311879 30:-0.48675471 31:-1.0378363 32:0.21267341 33:0.36410244 34:0.10441982 35:0.3200576 36:0.05844533 37:1.3499902 38:0.16167226 39:0.1322582 40:0.51831263 41:-0.32063725 42:0.71367738 43:-0.077824355 44:-0.34855136 45:0.080202335 46:0.64455197 47:0.66731356 48:0.80098875 49:1.0371114 50:0.91344532 51:1.1660577 52:1.7754069 53:0.94875769 54:0.5898092 55:0.078270912 56:-1.0100631 57:-0.47748033 58:0.73337634 59:0.717852 60:-0.29036648 61:0.39571297 62:0.35520033 63:-0.59932336 64:-0.20665878 65:-1.0819179 66:0.029196676 67:0.50083844 68:0.13330496 69:-1.4074069 70:-0.28993462 
0.01 0.004646933882564834 0.01 0 0.01 1:0.41290878 2:-0.025379907 3:1.3902544 4:0.45975836 5:0.14271962 6:0.8081951 7:-0.91427946 8:0.49413624 9:1.3175638 10:-0.73224244 11:0.027069821 12:0.15400888 13:0.31691638 14:1.232334 15:0.74407025 16:0.13480236 17:-0.27028067 18:0.6510892 19:0.33219133 20:2.1359039 21:1.5000571 22:-0.95806564 23:-0.46100178 24:0.47107443 25:-0.62195413 26:1.9366953 27:-0.0555793 28:-0.81751364 29:0.11109862 30:-0.16597518 31:-0.90791264 32:-0.38138438 33:0.60891543 34:-0.45623849 35:-0.20212192 36:-0.54843142 37:-1.245911 38:-1.0745831 39:-1.3006508 40:-0.16516275 41:-0.85352031 42:-0.26777094 43:-1.3228292 44:-0.70507059 45:-1.0405476 46:-0.99275773 47:-1.0261831 48:-0.76768901 49:-0.56677399 50:-0.36599426 51:-0.70026031 52:-0.31561119 53:-0.37474565 54:-0.35210269 55:-0.4757784 56:-1.1743892 57:-0.58159734 58:0.54552479 59:-0.85574581 60:2.0262567 61:-0.40984536 62:-0.9783089 63:0.19195141 64:-0.21813925 65:-1.0826793 66:-0.29529659 67:0.82876465 68:-0.45149717 69:0.40912728 70:-0.25998132 
0 0 0.01 0 0.00759071341621501 1:0.88907362 2:-0.81110422 3:-0.32463499 4:0.84008471 5:0.43597881 6:0.95571173 7:-0.54688708 8:0.98513749 9:0.25545751 10:-1.1476394 11:0.12270099 12:-0.77597881 13:-0.10528535 14:0.60314995 15:1.1037037 16:0.56658898 17:0.35019146 18:-0.19761099 19:-1.1137637 20:0.48683326 21:-0.40494813 22:-0.89276054 23:-0.075563126 24:-0.43035255 25:-0.31079132 26:-0.13926954 27:0.4087784 28:-0.3803508 29:0.19400979 30:0.17238599 31:-0.75364298 32:-0.3787731 33:0.33054764 34:-0.93894393 35:-0.032747682 36:-0.66935192 37:0.93234572 38:-0.4421418 39:-0.80946837 40:0.25230554 41:-0.65554165 42:0.24852641 43:-0.27001911 44:-0.56892382 45:-0.083857636 46:0.015396326 47:0.41659944 48:0.22721655 49:-0.10144292 50:0.68681037 51:0.44777917 52:0.62879343 53:0.44034024 54:0.15662581 55:0.27408573 56:-0.89832587 57:0.0242795 58:-0.42585946 59:-0.42054818 60:-0.069189814 61:0.86181772 62:-0.25649359 63:0.88164996 64:0.39274094 65:-0.64997924 66:-0.059507876 67:0.99653231 68:-0.56966084 69:-0.58996655 70:0.0044343569 
0.0008364826025350917 0 0.01 0 0 1:-0.18057539 2:-0.70633501 3:0.3991725 4:-0.43977534 5:-0.45100345 6:-0.17754602 7:0.19666585 8:-0.19679248 9:-0.29171766 10:0.40293631 11:-0.19127945 12:-0.52404176 13:-0.55728301 14:-0.86378309 15:-0.041797736 16:-1.3326716 17:-1.0933303 18:-0.87479748 19:-1.4127111 20:-1.2894879 21:-1.5396467 22:-0.017204369 23:-0.11055597 24:-0.41512916 25:2.7749739 26:-0.33154604 27:0.19161684 28:-0.97286595 29:0.94235386 30:0.22066861 31:-0.11405743 32:-0.46142767 33:0.24822254 34:-0.75048735 35:0.16965179 36:-0.39510383 37:-0.23788987 38:-0.15485873 39:-0.28171301 40:0.50684855 41:-0.035876313 42:0.15149721 43:0.5906624 44:0.92268139 45:0.8876002 46:1.3581259 47:0.86684801 48:1.3179831 49:1.3123661 50:2.4883675 51:2.7088978 52:1.9528419 53:2.4762488 54:1.4090269 55:0.7711935 56:0.27367051 57:0.43412553 58:-0.13580858 59:2.7980588 60:-0.22151462 61:0.82970703 62:-0.91712617 63:2.009707 64:0.48589332 65:0.1416526 66:-0.29449617 67:0.70027227 68:-0.59958877 69:-0.58996655 70:-0.9934351 
0 0.004037187239808108 0.01 0.01 0.01 1:-0.044688591 2:-1.1199522 3:-0.72306051 4:-0.1541176 5:-0.13645156 6:-0.10008522 7:0.12928523 8:0.051238228 9:-2.1369727 10:-0.42051629 11:0.70456739 12:1.2340999 13:0.85743789 14:0.48958737 15:-0.11801262 16:-0.80945676 17:-1.671978 18:-0.37362952 19:0.54540412 20:-1.2526681 21:-0.92456056 22:0.91895676 23:-1.0731798 24:1.3320438 25:-0.1357212 26:-0.10820855 27:-1.2259349 28:0.51913083 29:0.20224359 30:-0.67293449 31:-0.65044474 32:-0.036791226 33:-0.76629183 34:0.56479476 35:0.39952852 36:-0.94792928 37:0.6079757 38:0.67589197 39:0.323379 40:0.6660695 41:0.057079736 42:0.38382149 43:0.46108211 44:1.0938313 45:0.0074267241 46:0.41999675 47:0.44608353 48:0.38974113 49:0.78241233 50:0.50619554 51:-0.048351347 52:0.82422317 53:-0.053894771 54:-0.45022466 55:-0.7682127 56:1.100471 57:-1.2063603 58:1.3065088 59:0.06407262 60:-0.30847939 61:-1.3165748 62:0.40122443 63:0.46582124 64:-0.56679119 65:-0.3599778 66:-0.18326858 67:-0.53796767 68:0.46239058 69:-0.16178348 70:-0.155133 
0.01 0 0.01 0 0 1:-0.8697402 2:-0.64568943 3:0.86271581 4:-1.1697142 5:-1.235521 6:-0.78979529 7:0.2006231 8:-0.77712037 9:-0.55952859 10:0.71729218 11:-1.0124285 12:-0.6501694 13:0.16039721 14:-0.42145032 15:-0.46288383 16:-0.40698195 17:0.32611343 18:0.43015082 19:-0.63610096 20:-0.99709754 21:-1.0470252 22:-0.30873878 23:0.54881263 24:0.65679016 25:1.8042342 26:-0.99506765 27:-0.078037926 28:0.0098018167 29:0.87174904 30:0.57355263 31:-0.018080159 32:0.10217255 33:-0.059869729 34:0.53360483 35:-0.86253306 36:-0.65367111 37:-0.72517814 38:-0.50819536 39:0.5455922 40:-0.66209769 41:0.12771651 42:-0.88134726 43:-0.142776 44:0.29354282 45:-0.060466796 46:0.30456009 47:0.21632811 48:0.17517235 49:0.56415788 50:0.83269809 51:0.56091627 52:0.79334764 53:1.1640276 54:1.8817832 55:0.77731617 56:-0.15564263 57:1.2431754 58:0.32187068 59:1.8035555 60:-0.85064758 61:0.30525489 62:-0.15829197 63:1.3286451 64:1.3044107 65:0.15011617 66:0.13861797 67:0.12558036 68:0.082593365 69:0.40912728 70:-0.98874326 
0 0 0 0.01 0 1:0.46731304 2:-0.52390668 3:-0.67493615 4:0.50330972 5:0.53544199 6:0.4485718 7:-0.030420948 8:0.50587792 9:0.14583877 10:-0.57989815 11:0.33572895 12:-0.087030487 13:0.79964623 14:0.58302077 15:1.2282602 16:0.12418354 17:-0.078651909 18:-0.17586421 19:0.61433915 20:1.1857151 21:0.18304925 22:-0.24814466 23:-0.71090633 24:0.7168828 25:-0.81270452 26:-0.84338939 27:-0.054441193 28:0.36820524 29:0.058234792 30:0.23459446 31:-0.88069062 32:0.26480047 33:-0.28902762 34:0.24206519 35:0.38590843 36:-0.39151973 37:1.3056733 38:0.19153086 39:0.17887806 40:0.5738504 41:-0.35593468 42:0.57368739 43:0.071783616 44:-0.09433364 45:0.7493469 46:1.001306 47:1.1345209 48:1.3074819 49:1.4342067 50:1.2172935 51:1.3067289 52:1.6109331 53:1.5013692 54:1.2936804 55:0.79481895 56:0.59007464 57:-0.73089272 58:1.2918458 59:-0.74369731 60:-0.60899434 61:0.4083447 62:0.55529466 63:0.74565861 64:0.60247408 65:-0.75152636 66:0.87893083 67:0.1106666 68:0.5744275 69:-0.58996655 70:-0.1896195 
0.01 0.008810799877182796 0.01 0 0.01 1:0.83494372 2:-0.31901049 3:0.89319755 4:0.61438208 5:-0.083571723 6:1.3536714 7:-0.54464833 8:0.73701869 9:0.99958521 10:-1.1774139 11:-1.4485778 12:-0.46519159 13:1.4170427 14:-0.14664365 15:-0.25616186 16:0.26383894 17:-0.21519927 18:1.1864159 19:1.8524547 20:1.6504779 21:0.36486014 22:-0.95617947 23:0.95633578 24:-0.45274264 25:-0.02935961 26:-1.410089 27:-0.017055175 28:-0.80104515 29:0.67320139 30:2.0932555 31:-1.0828342 32:-1.0940314 33:-0.45645065 34:-1.2397983 35:-0.1073454 36:-0.24026326 37:-0.40157349 38:-0.61819057 39:-1.0597871 40:0.0034061988 41:-0.62158317 42:0.0069866877 43:-0.48839995 44:0.10587461 45:-0.08527617 46:-0.19087396 47:-0.62405878 48:-0.49915032 49:0.060720504 50:0.13319921 51:0.073438676 52:0.093545171 53:-0.35830008 54:0.16364072 55:0.39080696 56:-1.0299102 57:0.9497291 58:0.32920619 59:-0.20542328 60:-1.2542799 61:0.12764536 62:-0.82804766 63:1.4084752 64:2.6029796 65:-1.313166 66:-0.71534949 67:-0.51691897 68:-0.34203435 69:-0.16178348 70:0.260252 
0 0.01 0.002926256170250934 0.01 0.01 1:0.036119273 2:-0.2773881 3:-0.91888977 4:-0.38037335 5:-0.35399592 6:-0.084402502 7:0.39265961 8:-0.085920508 9:0.13236959 10:0.30834036 11:1.0119821 12:0.69176497 13:1.024973 14:0.79953358 15:-0.85217343 16:-0.88315978 17:-0.57935324 18:0.7763217 19:0.56266393 20:-0.21441842 21:-2.3362739 22:0.62306973 23:-0.81624723 24:0.2610564 25:0.81650116 26:0.92395863 27:-0.47482703 28:-0.47882287 29:-0.35804928 30:-0.36571318 31:0.76342135 32:0.25411302 33:-0.75188078 34:-0.48767031 35:0.75149126 36:0.15602351 37:1.4318875 38:0.38683674 39:0.25410281 40:0.85705786 41:0.079550313 42:0.27163321 43:0.71547357 44:1.3073233 45:0.072828863 46:0.091817944 47:0.26676918 48:0.67666737 49:-0.012854351 50:-0.050761555 51:0.04135597 52:-0.0026059079 53:0.25232913 54:0.42563084 55:0.44843947 56:0.50515849 57:-0.72472789 58:0.815817 59:0.86959035 60:0.62721657 61:-0.26002181 62:-0.23357759 63:-0.21380085 64:0.052568474 65:0.87051533 66:0.11148114 67:-0.58487663 68:-0.070968305 69:-0.16178348 70:0.54911077 
0.01 0 0.01 0 0.01 1:-0.038894933 2:-0.43412343 3:0.82213271 4:-0.0057357176 5:0.045162043 6:0.275763 7:-0.40920142 8:-0.094849262 9:0.59755659 10:0.035758841 11:-0.96474247 12:-0.64783591 13:0.2065265 14:0.81178544 15:1.0439275 16:-0.40774634 17:-0.013835354 18:0.047780099 19:-1.2990819 20:0.23216336 21:0.92707028 22:-0.6136592 23:-0.29806787 24:-0.8551918 25:1.5811607 26:0.31789238 27:0.044710288 28:-0.91084284 29:-0.33411359 30:0.055448151 31:-0.58830898 32:-0.44813419 33:1.5511617 34:-1.2484317 35:-0.87501734 36:-0.35406921 37:-0.67568053 38:-0.80543272 39:-0.95008505 40:-0.30952415 41:-0.58535562 42:-0.55038833 43:-0.50545033 44:-0.17976759 45:-0.59255979 46:-0.61670935 47:-0.50433597 48:-0.18295042 49:-0.43078546 50:-0.33522623 51:-0.45423748 52:-0.60401047 53:-0.39288804 54:0.059585593 55:-0.23902639 56:-0.70475867 57:-0.21502817 58:-0.8266215 59:1.2929781 60:0.2682405 61:-0.025676406 62:-0.98476497 63:-0.17033343 64:0.1603866 65:-0.6530878 66:-0.1610451 67:1.9928524 68:-0.99108014 69:-0.16178348 70:0.20252633 
0.01 0.01 0.01 0 0.01 1:-0.78840871 2:-0.76986549 3:0.18173007 4:-0.65863347 5:-0.07203194 6:-0.77152898 7:-0.24195467 8:-0.86055625 9:-0.35609015 10:0.65319467 11:0.59981311 12:0.35133418 13:0.47276826 14:-0.34082821 15:0.074032365 16:0.041052462 17:-0.37537427 18:0.82395295 19:1.0005453 20:-0.018159083 21:-0.67769853 22:1.6105465 23:-0.45253695 24:0.19750988 25:-0.60505689 26:0.58472181 27:-1.0280842 28:0.3546404 29:-0.12751085 30:0.025305017 31:-0.53030099 32:1.2403935 33:0.13823497 34:0.46204413 35:-0.28658113 36:-0.68141627 37:-0.2520175 38:-0.21672395 39:0.032733605 40:-0.25227055 41:-0.30648734 42:-0.48160695 43:-0.14635784 44:-0.31292623 45:-0.54977388 46:-0.28975503 47:-0.31045436 48:-0.093108291 49:-0.39057135 50:-0.3067158 51:-0.38829258 52:-0.21236272 53:-0.5779156 54:-0.33803436 55:-0.01017861 56:1.4352996 57:-0.43564856 58:0.53120616 59:-0.52895545 60:0.1435261 61:-1.0620918 62:0.091803317 63:0.19797314 64:0.038515642 65:-0.4414731 66:0.5731081 67:0.17837582 68:0.11217188 69:-0.16178348 70:-0.45225809 
0.01 0.01 0.01 0.01 0.01 1:0.81785465 2:-0.62121226 3:0.26884911 4:0.47686469 5:0.14923394 6:1.0763058 7:-0.48512069 8:0.69427407 9:0.17610969 10:-0.90439293 11:0.087583739 12:-0.016507712 13:0.68226898 14:0.67668785 15:0.23353963 16:0.42166041 17:0.46904689 18:0.82525426 19:-0.93888126 20:1.5059892 21:0.56460603 22:-0.88663696 23:-0.44938537 24:-0.081354807 25:-0.51640549 26:-0.50389966 27:0.051714965 28:-9.2918262e-05 29:-0.44969154 30:-0.42194426 31:-0.40573366 32:0.039592333 33:0.57614826 34:-0.57576499 35:0.085469622 36:-0.29586521 37:0.21022896 38:-0.23736735 39:0.35648437 40:0.23978894 41:-0.53782995 42:-0.07179285 43:0.20317484 44:-0.22675921 45:-0.40237649 46:-0.056003362 47:-0.10208593 48:-0.065007658 49:0.087235766 50:0.19539698 51:0.4740331 52:0.39067118 53:0.14425679 54:-0.051024968 55:0.44201896 56:-1.0594557 57:-0.47181717 58:-0.14773628 59:-0.50857706 60:-0.5222519 61:0.17023033 62:0.36115434 63:-0.37555762 64:-0.45858187 65:0.30781823 66:-0.15273967 67:0.88536129 68:0.037348357 69:0.40912728 70:-0.073941955 
0 0 0.01 0.01 0 1:-0.55369887 2:-0.35689595 3:0.35953936 4:-0.57290372 5:-0.41065048 6:-0.46560627 7:0.16494421 8:-0.53028364 9:0.27928726 10:0.29485753 11:0.37047672 12:0.45247536 13:0.029479234 14:0.34826254 15:0.19146024 16:1.208019 17:-0.55191576 18:0.61045499 19:-0.60721478 20:0.80496282 21:0.86839164 22:-0.30939509 23:-0.37505038 24:0.033283652 25:0.20523994 26:0.69519762 27:-0.43588236 28:0.38215572 29:-0.50745466 30:-0.36954241 31:-0.6896756 32:0.90384787 33:-0.56386411 34:0.47829908 35:0.14059715 36:-0.36539477 37:-0.10702225 38:0.20061234 39:0.95177946 40:0.21352632 41:-0.19861092 42:-0.03135085 43:0.44578343 44:0.86060422 45:1.1571399 46:1.2941946 47:1.1665913 48:1.5333794 49:1.2443931 50:1.6379183 51:0.6234165 52:1.0100348 53:0.84980683 54:1.080496 55:1.821554 56:0.03573287 57:-0.015410563 58:0.28866721 59:0.50003256 60:0.74836023 61:-0.19377573 62:0.58896642 63:-0.070320838 64:-0.063579214 65:-0.66716279 66:1.5820221 67:-0.26918639 68:0.50768832 69:-0.16178348 70:-0.023122728 
0 0 0.01 0 0 1:-0.33653267 2:-0.73105605 3:-0.45295496 4:-0.13503799 5:0.073578571 6:-0.33305611 7:0.1164552 8:-0.26457492 9:-0.1577801 10:0.04903673 11:0.71853423 12:-0.40320322 13:0.2693646 14:0.51821998 15:0.63189766 16:1.0613693 17:0.20292427 18:1.5498981 19:0.64778918 20:0.95953582 21:-0.13185638 22:-0.27598406 23:-0.2477733 24:0.26047067 25:0.16008031 26:0.61569407 27:-0.53888633 28:-0.78301768 29:-0.15645413 30:0.42070392 31:-0.61162471 32:2.2238579 33:0.27460159 34:0.2024716 35:0.30593918 36:-0.62378923 37:0.55738138 38:0.59505037 39:0.59445028 40:0.53300523 41:0.179233 42:0.38260952 43:1.1766501 44:0.84593813 45:1.2428854 46:1.2876197 47:1.1097102 48:1.1764736 49:1.7402181 50:1.2906058 51:1.2321789 52:1.5245348 53:1.7426909 54:1.8086556 55:1.3720805 56:0.2381834 57:0.27914805 58:0.41577857 59:0.68034181 60:0.21652653 61:-0.23036903 62:-0.39921054 63:0.11121518 64:1.0062517 65:-0.54515202 66:2.9978928 67:0.89477142 68:0.15917646 69:-0.16178348 70:-0.29947101 
0 0 0.01 0 0 1:0.38907861 2:-0.38841623 3:0.44452159 4:0.17997855 5:-0.051169056 6:0.17431474 7:-0.27703563 8:0.18309966 9:0.36480239 10:-0.057801781 11:0.47634401 12:-0.93460965 13:-0.57272842 14:0.48153448 15:-0.40263156 16:0.40156027 17:-0.64556693 18:-0.42927169 19:-0.77089394 20:-0.42248097 21:-1.9387316 22:0.37728141 23:0.80719845 24:-0.82645976 25:0.66924666 26:-0.37742622 27:-0.40056299 28:-0.61264143 29:0.55096331 30:0.16796973 31:0.57242082 32:-0.040383656 33:0.084736713 34:-0.74613713 35:0.54878188 36:-0.18269653 37:0.086045783 38:0.25743258 39:0.1838314 40:0.33176877 41:-0.43626563 42:0.18333138 43:0.69145061 44:0.73692492 45:0.69402269 46:0.99942405 47:0.79674184 48:1.0411437 49:0.99235268 50:1.6430974 51:1.2748362 52:1.3322783 53:0.8344215 54:0.80471986 55:0.40138072 56:0.75804469 57:1.3223692 58:-0.7004275 59:0.8218454 60:0.0098187404 61:-0.25368121 62:-0.5148472 63:1.3018095 64:0.36740189 65:1.1485446 66:0.29294133 67:0.45971979 68:-0.59733216 69:0.40912728 70:-0.86856945 
0 0 0.01 0 0 1:-1.041333 2:-0.5451143 3:-0.088929036 4:-1.082778 5:-1.0570937 6:-1.1594109 7:1.523142 8:-1.0830065 9:-0.88097185 10:1.0599383 11:-0.63761478 12:-1.5945534 13:-2.0191959 14:-2.1298008 15:-4.1108922 16:-4.0947271 17:-2.9444534 18:-3.3616218 19:-0.45277342 20:0.43349893 21:-0.29174302 22:0.14699052 23:-0.61984586 24:-1.1437648 25:2.6411145 26:0.12910169 27:3.8211506 28:-0.85076768 29:1.672564 30:5.5753502 31:-0.87327147 32:-1.0662087 33:1.0234985 34:-0.016491139 35:-0.62815931 36:-0.34326623 37:0.54889908 38:-0.13521025 39:0.8857169 40:-0.092579962 41:1.2664679 42:-0.64218051 43:1.9031351 44:1.7322465 45:1.649366 46:1.3798814 47:0.30210843 48:1.0937321 49:0.97508112 50:1.7027003 51:1.3384738 52:1.8039458 53:2.7266243 54:2.5287537 55:2.2628317 56:0.65031588 57:-0.35592526 58:-0.85650767 59:3.6171607 60:1.3602699 61:4.8672584 62:-0.68559782 63:3.5670983 64:6.2387176 65:-0.62105487 66:-0.77973523 67:1.593647 68:-0.058131986 69:0.40912728 70:-0.98566882 
0 0.01 0 0.01 0.01 1:0.060825999 2:-0.62589732 3:-0.32077339 4:0.70213578 5:1.6087159 6:-0.2762031 7:-0.52968613 8:-0.22194337 9:0.27647319 10:0.58340068 11:0.093877676 12:-0.099993901 13:0.05158109 14:1.496808 15:0.19606469 16:0.10252376 17:-0.15878952 18:-0.95268748 19:-1.2448482 20:-1.0218058 21:-2.0647538 22:0.44519012 23:-0.70272764 24:-0.68620177 25:1.6652974 26:-0.92578499 27:0.32785205 28:-0.74622551 29:-0.83888941 30:-0.78050911 31:5.4897558 32:-0.15763402 33:0.80944021 34:-0.83579904 35:0.31300173 36:-0.5132276 37:-0.10784892 38:0.4773393 39:0.76225204 40:0.39142332 41:-0.91176743 42:0.77821925 43:0.75189497 44:0.66610355 45:-1.006314 46:-0.38918069 47:-0.84003927 48:-1.0783925 49:-0.66596389 50:-0.84945112 51:-0.54898834 52:-1.4912612 53:-1.3603336 54:-1.4478033 55:-1.1659108 56:0.24696509 57:-0.76696836 58:-0.72148535 59:1.1893868 60:-0.84181935 61:0.14386403 62:-0.95452427 63:-1.0203632 64:-1.0599831 65:4.9671521 66:-0.36235279 67:0.70547547 68:-0.86861654 69:0.40912728 70:0.091593555 
0.01 0.01 0.004530685936365834 0 0 1:0.051544939 2:-0.89983359 3:-0.50359607 4:0.047019139 5:0.053120604 6:-0.17136267 7:-0.23224608 8:-0.12983477 9:-0.3345743 10:0.13133288 11:0.78947557 12:-0.36333184 13:-0.98469831 14:-0.012920671 15:-2.4820812 16:-1.2940244 17:-1.944613 18:-1.3237743 19:-0.63788967 20:-2.1917056 21:-0.56666999 22:2.2925896 23:0.98929275 24:-1.2446065 25:-0.68848947 26:-1.5033488 27:3.4225212 28:-0.16441428 29:-1.0352768 30:-0.36581384 31:-0.91920649 32:0.43852707 33:-0.28738016 34:-0.81761618 35:0.0034107208 36:-0.729142 37:0.39803983 38:-0.19003063 39:0.082468966 40:0.048823203 41:-0.73826642 42:-0.24805251 43:0.55510414 44:0.53597678 45:-0.66537292 46:-0.77014661 47:-0.12079254 48:0.14636806 49:0.26481564 50:-0.25949114 51:-0.77645743 52:-0.60468421 53:-0.42578788 54:-0.1720827 55:-0.48601924 56:1.148858 57:1.3029257 58:-1.3180792 59:-0.7327663 60:-1.7498299 61:1.9116469 62:-0.28821132 63:-1.0753579 64:-0.63778628 65:-1.1402072 66:0.77409164 67:-0.34019315 68:-1.0426731 69:-1.1894228 70:0.35067138 
0 0 0 0 0.003219348874531395 1:-0.07979412 2:0.22509529 3:0.33977318 4:0.0216571 5:-0.0082692624 6:-0.27654446 7:0.021650878 8:-0.27918361 9:1.0377856 10:0.18384429 11:1.1810044 12:-1.4816109 13:-1.3272934 14:-0.46271981 15:-1.6274878 16:-0.83538718 17:-0.85483636 18:-0.71317112 19:-1.5269072 20:-1.6594551 21:-1.4447883 22:1.4064861 23:0.41771048 24:-0.94124179 25:1.2406001 26:0.28485912 27:0.32728821 28:-1.0161167 29:-0.69753837 30:0.53036969 31:0.080699193 32:0.011451981 33:0.16826132 34:-1.0732731 35:-0.089556705 36:-0.31321528 37:-0.35812966 38:-0.50120442 39:-0.85163316 40:0.14151489 41:-0.56767276 42:0.044033025 43:-0.61075561 44:0.15554092 45:0.18584959 46:-0.073314339 47:0.078198662 48:0.44042835 49:0.13992571 50:-0.49742741 51:-0.6798948 52:-0.15946134 53:-0.37011232 54:0.40505481 55:0.28781099 56:1.5541008 57:0.84137178 58:-0.83777141 59:1.1838885 60:0.33659203 61:0.38888049 62:-1.1153723 63:-0.5336362 64:0.92376221 65:0.0063417878 66:0.31459229 67:0.4073157 68:-0.74561206 69:1.2084023 70:-0.29291799 
0 0 0 0 0.01 1:0.58878138 2:-0.14970816 3:0.36645063 4:0.80346337 5:0.64377421 6:0.27253979 7:-0.68894602 8:0.58573932 9:0.81926482 10:-0.1916221 11:2.3696162 12:-0.86651484 13:-0.15923405 14:-0.45804323 15:-1.0016318 16:-1.4843533 17:-1.6809579 18:-1.7666515 19:1.1383949 20:0.16274196 21:0.36216184 22:0.93366578 23:-0.71930626 24:-0.089912132 25:-0.11607127 26:1.0782638 27:3.4177202 28:-0.82384909 29:-1.018884 30:0.22287005 31:-0.4449268 32:-0.10931686 33:-0.35915042 34:-0.70502053 35:0.15691367 36:-0.51815497 37:-0.69302822 38:-0.62571575 39:-1.4485707 40:0.045701341 41:-0.96570128 42:0.31561812 43:-0.95823455 44:-0.85052316 45:-0.96040084 46:-0.98490372 47:-0.71720604 48:-0.60011707 49:-0.56855652 50:-0.75778968 51:-0.61165205 52:-0.3845922 53:-0.47423702 54:-0.40719309 55:0.11697476 56:0.63689965 57:-0.80330116 58:0.37223188 59:-0.17336423 60:0.65363116 61:3.3891465 62:-0.94698634 63:-0.9982424 64:0.16608361 65:-0.6854377 66:-0.10161134 67:-0.46489659 68:-0.61336072 69:-1.1894228 70:0.087779623 
0 0 0.002534851399326045 0.008410892143861513 0 1:2.5121498 2:-0.77263246 3:0.98336023 4:2.2342423 5:1.7711026 6:1.7705633 7:-0.90901322 8:2.4647915 9:-0.10365434 10:-0.55808497 11:-0.72058899 12:-1.0078011 13:-0.38723252 14:-0.31511874 15:-0.54838417 16:-0.82447686 17:0.35140827 18:0.30950317 19:1.4602742 20:-0.04449186 21:-0.12972008 22:-0.16003889 23:1.0585885 24:-0.97937186 25:-0.54295182 26:-1.4247585 27:-0.34182966 28:-1.166542 29:2.4269714 30:0.9202635 31:0.29740306 32:-1.0043906 33:-0.25622035 34:-1.5825547 35:1.5366606 36:-0.58903686 37:-0.5682607 38:1.2216471 39:0.20588028 40:0.55419151 41:-0.98086519 42:1.898617 43:0.062609288 44:0.41182624 45:-0.079039109 46:0.096971711 47:0.053784647 48:0.48376276 49:0.37449111 50:0.87304649 51:0.38309481 52:0.96990559 53:0.38726571 54:0.78867232 55:1.3246635 56:-0.28185162 57:1.1494333 58:-0.81667195 59:-0.33399761 60:-1.5012712 61:-0.22510151 62:-1.2221108 63:2.4550478 64:0.9283123 65:0.58162272 66:-0.810323 67:-0.34388847 68:-0.98483624 69:-0.92299782 70:0.66898028 
0 0 0 0 0.006570564084862225 1:2.3499792 2:-0.58508591 3:0.46390566 4:2.0816813 5:1.0320676 6:1.6880376 7:-1.0078908 8:2.4969354 9:0.27422244 10:-0.77078516 11:2.1627887 12:-1.4479713 13:0.66081205 14:-0.92365274 15:-0.34939126 16:-1.4081866 17:-1.7790537 18:-2.790458 19:-1.1789416 20:-1.6499301 21:-0.25786342 22:0.4937025 23:-0.4169921 24:-0.40150441 25:-0.21605469 26:0.7053414 27:1.8404178 28:-0.71742609 29:-0.41239831 30:-0.32040972 31:-0.15884262 32:-1.1465501 33:-0.45877674 34:-1.1292234 35:1.1455577 36:-0.44318872 37:-0.83975978 38:-0.11923271 39:-1.2135279 40:0.74509821 41:-1.0839396 42:0.52838417 43:-0.37967506 44:-0.13706263 45:-0.21287278 46:-0.33794 47:-0.036270735 48:0.77716336 49:0.71146647 50:0.57577123 51:-0.088480984 52:0.013852006 53:-0.22652859 54:0.50648253 55:0.80782743 56:0.30108877 57:-0.25834538 58:-0.26270967 59:-0.44826442 60:0.83766503 61:1.9811216 62:-0.70499062 63:-0.68331743 64:-0.44216882 65:-0.23861103 66:-0.62899926 67:-0.56897066 68:-0.86039857 69:-0.16178348 70:0.30684949 
0.00355853580671075 0 0.01 0 0 1:0.43559062 2:-0.42200203 3:0.43004548 4:0.58371958 5:0.60728123 6:0.065596628 7:-0.54805976 8:0.30409977 9:0.52811098 10:0.13622096 11:1.5346104 12:-1.4105984 13:-2.1824243 14:-2.8334173 15:-0.86252172 16:-0.70493237 17:-0.065237872 18:-1.444895 19:-1.168647 20:0.95585248 21:-0.093878392 22:1.7398438 23:-0.519456 24:-1.2814805 25:1.0086522 26:0.5110319 27:1.0614519 28:-0.69114818 29:-0.62442974 30:3.5601412 31:0.49732074 32:-1.0531778 33:1.4341196 34:-0.99862212 35:0.4959227 36:-0.5307123 37:-0.61347423 38:-0.30115835 39:-1.2498078 40:0.20803483 41:-0.87692978 42:0.52887888 43:-0.38606577 44:-0.43067468 45:0.37052159 46:-0.53343718 47:-0.075237294 48:-0.40018429 49:-0.34164786 50:-0.61032695 51:-0.39368179 52:-0.35422355 53:-0.49104517 54:-0.14654975 55:0.31009503 56:1.358593 57:-0.50821347 58:-1.3029808 59:1.1104827 60:0.60859055 61:1.2196719 62:-0.79662397 63:-0.29308654 64:3.1986834 65:0.37253567 66:-1.0294021 67:1.517137 68:-0.86993663 69:1.2084023 70:-0.50582602 
0.01 0 0.01 0 0 1:1.7031837 2:-0.80704502 3:1.0064793 4:0.95824828 5:-0.59960046 6:1.8108257 7:-0.64694958 8:1.4671175 9:-0.18047543 10:-1.9240749 11:0.4334826 12:0.2187242 13:-0.93028033 14:-0.36118606 15:-1.1956548 16:-0.79524011 17:-0.4349806 18:0.36599235 19:0.21062818 20:-0.22143265 21:0.055824897 22:0.22883826 23:-0.16762814 24:-1.2364086 25:-0.77053579 26:-1.1173648 27:1.6924094 28:-0.92977626 29:-0.45090113 30:-0.53435826 31:-0.86188956 32:-1.0984169 33:0.081482996 34:-1.5504956 35:0.092110124 36:-0.60035652 37:-0.51330855 38:-0.73721398 39:-1.0232222 40:-0.34093308 41:-0.42350195 42:-0.49270029 43:-0.37480581 44:0.26540632 45:0.16366406 46:-0.16587852 47:-0.11641052 48:0.14009745 49:0.41871259 50:-0.05109445 51:0.64445838 52:0.82869256 53:0.4850423 54:0.20229046 55:0.35772662 56:0.44461822 57:-0.15145411 58:-1.0605721 59:-0.76661885 60:-0.81853692 61:1.3331483 62:-1.0459234 63:-0.45470951 64:-0.57562088 65:-0.92055709 66:-1.0703739 67:0.16749609 68:-1.0286834 69:0.40912728 70:-0.795168 
0.01 0 0 0 0.01 1:0.88433728 2:-0.59363775 3:0.97525934 4:0.045399219 5:-1.159222 6:1.3788189 7:-0.71455352 8:0.61224393 9:0.63209135 10:-1.3037319 11:-0.17782212 12:1.6573522 13:-0.063773917 14:0.60851211 15:-1.0250632 16:1.0483763 17:-0.8267918 18:-1.1054305 19:-0.096523467 20:-2.1180079 21:-0.5586008 22:0.56943938 23:0.16675459 24:-1.0976586 25:2.1089371 26:-0.34763127 27:-0.55938481 28:-0.97460822 29:0.10180039 30:-0.33231542 31:-0.68653689 32:-0.16023465 33:-0.85233446 34:-1.2624074 35:-0.5997113 36:-0.60818373 37:-0.64354189 38:-1.1200513 39:-0.77559143 40:-0.93706323 41:-0.67657138 42:-0.96765189 43:-0.44279128 44:-0.70750137 45:-0.97763121 46:-0.47132813 47:-0.70975048 48:-0.52001058 49:-0.28713637 50:0.49731726 51:-0.16935257 52:0.49632822 53:0.2224162 54:-0.16729204 55:-0.13688851 56:0.75289259 57:0.48770649 58:-1.0846826 59:2.51975 60:-0.19145824 61:-0.64408637 62:-1.0405619 63:-0.038259965 64:-0.4785452 65:-0.73622165 66:-0.34339388 67:-1.1344697 68:-0.85696868 69:-0.58996655 70:-0.42739313 
0 0.01 0.01 0.0029599322414035 0 1:0.12691254 2:-0.8106115 3:0.50034562 4:0.15262345 5:-0.15534089 6:0.51702578 7:-0.53540758 8:0.35843753 9:0.0023520189 10:-0.4816681 11:-0.60070246 12:-1.485477 13:1.2378952 14:-0.037015693 15:-0.22385006 16:0.96541758 17:0.60153682 18:-0.077537646 19:-0.69895343 20:-0.73294175 21:-0.42465168 22:-0.54064338 23:1.3146374 24:-0.069115962 25:-0.14497986 26:-0.34431032 27:-0.57015165 28:-0.20835193 29:0.12314365 30:-0.41536418 31:-0.91461021 32:0.44961626 33:0.90427896 34:-0.19082125 35:0.49944484 36:-0.6232853 37:-0.13272616 38:0.14787919 39:-0.94620649 40:0.74039399 41:-0.60131373 42:0.52568597 43:0.18649569 44:0.39713465 45:0.59339572 46:1.2486965 47:0.63021844 48:0.31947398 49:-0.20765022 50:-0.24181867 51:-0.56263672 52:-0.42584808 53:0.2037238 54:0.011149361 55:0.26046625 56:-0.35308634 57:1.2278267 58:0.76622395 59:-0.15857802 60:-0.48043041 61:-0.68925049 62:0.23592345 63:0.071045703 64:-0.46604122 65:-0.85737085 66:0.84611613 67:0.96782314 68:0.70998493 69:-0.16178348 70:0.23673741 
0 0 0.01 0 0.01 1:1.3953904 2:-0.4070842 3:0.8646408 4:1.2883184 5:0.81974257 6:1.3645894 7:-0.7630887 8:1.5830204 9:0.6466577 10:-0.6517811 11:0.86946089 12:-0.70448694 13:1.013563 14:0.21917492 15:1.0038191 16:1.194648 17:-0.5448205 18:1.4042883 19:0.62163802 20:0.46342155 21:0.15800412 22:-0.31926998 23:0.37674653 24:-0.25479136 25:-0.91019574 26:0.060826834 27:1.9389707 28:-0.56250131 29:-0.3412403 30:-0.60783021 31:0.1646034 32:-0.27076927 33:-0.45698255 34:-0.96319139 35:0.25239686 36:-0.61646398 37:-0.95772875 38:-0.38598705 39:-0.95413917 40:0.23159875 41:-0.55386689 42:0.31058761 43:-0.80195608 44:-0.32536546 45:-0.21922849 46:-0.20479658 47:-0.093035296 48:-0.32011512 49:-0.32824562 50:-0.2254581 51:-0.33138123 52:-0.51683161 53:-0.1155602 54:-0.15728682 55:-0.043974769 56:-0.38435345 57:0.27307665 58:-0.15721547 59:-1.0112702 60:0.10001858 61:1.3436017 62:-0.73412418 63:-0.4233815 64:-0.4847304 65:-0.0081498536 66:-0.39416335 67:-0.49019115 68:-0.98312078 69:-1.1894228 70:0.13354539 
0 0.01 0.01 0.01 0.01 1:1.0081367 2:-0.48281651 3:0.58723983 4:0.97372106 5:0.63652511 6:1.1290915 7:-0.54280373 8:1.1681327 9:0.44803278 10:-0.76757859 11:0.83228286 12:0.90286645 13:0.50919249 14:0.16177013 15:0.80671579 16:-0.51716988 17:-0.53809334 18:0.39274415 19:0.96737734 20:0.12611202 21:0.82211682 22:-0.28201731 23:-0.79642193 24:0.21984646 25:-0.26646179 26:0.70104946 27:0.25194393 28:-0.41886455 29:-0.46431314 30:-0.39193508 31:-0.41926517 32:-0.64634258 33:-0.26231996 34:-0.68807089 35:0.68674859 36:-0.48789669 37:-0.46965488 38:0.02208364 39:-0.5456297 40:0.82348058 41:-0.34717035 42:0.74996752 43:-0.66894073 44:-0.20201409 45:0.10505348 46:0.23462356 47:-0.062991459 48:0.26439137 49:-0.20890968 50:0.1507385 51:-0.34477483 52:-0.11993678 53:0.04436651 54:-0.039135565 55:0.12226172 56:-0.31126475 57:-0.91252713 58:0.50182345 59:-0.16810443 60:0.87457053 61:0.41738765 62:-0.43412699 63:-0.54835205 64:-0.37214122 65:-0.35439084 66:-0.38172284 67:-0.13572825 68:-0.36978241 69:0.40912728 70:0.46846351 
0 0 0 0.007751021661769591 0.01 1:0.61194808 2:-0.4024488 3:0.22979671 4:0.50898859 5:0.33700345 6:0.50136849 7:-0.42808618 8:0.61148442 9:0.55853526 10:-0.32699683 11:1.3346072 12:-0.48498155 13:0.42357559 14:0.76124514 15:0.2546794 16:1.1110541 17:-1.176909 18:-0.12702314 19:-0.31716351 20:-0.00042916006 21:0.17061016 22:0.41560865 23:-0.66880681 24:-0.44755363 25:-0.24235136 26:0.83615431 27:0.92446352 28:-0.059466713 29:-0.801041 30:-0.66820694 31:-0.10776358 32:-0.12312261 33:-0.17045559 34:-0.64685842 35:0.41196203 36:-0.55692429 37:-0.52732656 38:-0.28849759 39:-0.79823128 40:0.57240204 41:-0.44997131 42:0.55584082 43:-0.49213358 44:0.096658128 45:0.020615379 46:0.046729243 47:0.076900965 48:0.55467236 49:0.25971921 50:-0.31859853 51:0.059551317 52:0.34577697 53:0.45439984 54:0.061587042 55:-0.15026887 56:0.47391848 57:-0.73526356 58:-0.44327385 59:-0.24901971 60:0.88381619 61:0.84521613 62:-0.046742481 63:-0.75921443 64:-0.57312471 65:-0.1430709 66:-0.23072275 67:-0.20538213 68:-0.61655056 69:1.2084023 70:0.1696618 
0 0.01 0 0.01 0.01 1:0.58889549 2:-0.4599802 3:0.81901601 4:0.84076071 5:0.69283717 6:0.71176902 7:-0.86264991 8:0.61865663 9:0.34941453 10:-0.65899927 11:1.0698051 12:0.71320236 13:1.6338281 14:-0.53495257 15:1.5320371 16:1.6406763 17:0.39829174 18:0.63110125 19:0.53498786 20:1.1572821 21:0.51438971 22:-1.1276501 23:-0.78910548 24:-0.30339062 25:-0.59270741 26:2.4134664 27:-0.64373953 28:-0.61337015 29:0.011958291 30:-0.52584832 31:1.3896897 32:0.82072488 33:-0.76029294 34:-0.017632281 35:0.38877627 36:-0.66532737 37:-0.90758278 38:-0.32235806 39:-0.90315906 40:0.4909354 41:-0.52683288 42:0.53709441 43:-0.48146957 44:-0.15620486 45:-0.21802283 46:-0.21464561 47:0.032817826 48:-0.2054439 49:-0.39254316 50:0.10858761 51:-0.55861023 52:-0.0058926111 53:-0.072457718 54:0.029174101 55:-0.1987136 56:-1.221925 57:-0.82510502 58:-0.35940895 59:-0.79735441 60:1.5524436 61:-0.59732009 62:-0.52313715 63:0.12966477 64:-0.51800122 65:1.0541796 66:0.70444513 67:-0.9388307 68:-0.37506681 69:0.40912728 70:-0.13074449 
0 0 0 0.01 0.007493231937271837 1:0.77467025 2:-0.76149506 3:-0.12243276 4:0.47054453 5:-0.33324838 6:1.2341722 7:-0.56224855 8:1.0186965 9:-0.4159691 10:-1.2642836 11:0.56432962 12:-0.10084697 13:-0.081199899 14:0.57708198 15:-1.9195142 16:-0.22274537 17:-1.0135857 18:-1.1263583 19:-0.40741158 20:0.0068271672 21:-2.516648 22:-0.43982866 23:-0.57288153 24:-0.86060307 25:-0.81113224 26:-0.64699315 27:-0.88159516 28:-0.028989628 29:4.9503182 30:1.5736812 31:0.18386123 32:-0.48683088 33:-0.78773016 34:-0.69353933 35:0.55448062 36:-0.52288711 37:0.53682108 38:0.75464984 39:-0.22251147 40:1.05148 41:-0.54636522 42:0.47390986 43:1.9485972 44:0.41947877 45:0.16148155 46:0.98173171 47:1.0207277 48:1.2523685 49:1.1051993 50:-0.17709016 51:-0.14507289 52:-0.25081261 53:-0.25178916 54:0.25588592 55:0.96046015 56:-0.52415432 57:-0.48239936 58:-0.79307355 59:-0.84852589 60:-0.32524029 61:-0.84267812 62:0.47358392 63:3.5884892 64:2.4515335 65:-0.12417391 66:-0.2075958 67:-0.78105235 68:0.22738398 69:-0.58996655 70:2.0732273 
0 0.01 0.01 0.008294658801339356 0.01 1:-0.18986996 2:-0.45070595 3:0.23475944 4:0.57072666 5:1.1994412 6:-0.60581211 7:-0.6110239 8:-0.28465924 9:-0.27448452 10:0.56290765 11:1.1380719 12:-1.9462897 13:0.82311324 14:0.52263704 15:1.0100866 16:1.1326252 17:0.85419191 18:-0.66710668 19:-1.7918677 20:-0.91617441 21:-0.044768177 22:-0.21022216 23:-0.017636166 24:-0.041660206 25:-0.21190465 26:3.9248585 27:-0.79478931 28:-0.71629952 29:-0.45334514 30:-0.86185928 31:0.17071836 32:0.51575257 33:-0.65667417 34:-0.065427045 35:0.47714195 36:-0.3415836 37:-0.073828903 38:0.27487836 39:-0.76329822 40:0.081691977 41:-0.4742198 42:0.97210343 43:0.50887811 44:-0.76433024 45:-0.026836687 46:-0.069439656 47:-0.38020378 48:-0.4573609 49:-0.35654605 50:-0.42184124 51:-0.74882363 52:-0.94713281 53:-0.73922869 54:0.080163172 55:-0.85573374 56:0.18223314 57:0.094937053 58:0.026201289 59:-0.025167258 60:3.6505937 61:-0.74714834 62:-0.65240694 63:-0.22083327 64:-0.81413101 65:0.44781547 66:0.88914299 67:-0.59474916 68:-0.45632741 69:-0.16178348 70:0.61904274 
0 0 0.01 0 0.01 1:-0.47424209 2:-0.55279594 3:0.23315616 4:-0.15897072 5:0.38326981 6:-0.65719586 7:-0.24713378 8:-0.36588781 9:0.017948592 10:0.94160168 11:0.238644 12:-1.0959351 13:-0.31349863 14:0.84322487 15:0.038012254 16:0.38781562 17:0.62461116 18:-0.328745 19:-2.6349668 20:1.7256275 21:-0.41934584 22:-0.19213117 23:0.54875386 24:0.17501822 25:-0.17579025 26:1.3896208 27:-0.35783991 28:-0.8948494 29:0.37353393 30:0.88196508 31:0.65699389 32:0.75201418 33:-0.60865479 34:-0.39147254 35:0.16730596 36:-0.48483404 37:0.11756127 38:0.69311265 39:0.31104321 40:0.4020044 41:-0.18872639 42:0.6281363 43:0.4002701 44:0.63412291 45:0.53203068 46:0.0089574263 47:0.26655597 48:-0.52378581 49:-1.1630993 50:-0.87831821 51:-1.0087262 52:-0.55354199 53:-0.84448406 54:0.19845119 55:0.88431341 56:0.073812002 57:1.121021 58:0.31745561 59:-0.018328936 60:0.93163922 61:-0.26178543 62:-0.95668492 63:0.61260505 64:1.7761658 65:0.86875576 66:0.82097074 67:-0.49344288 68:-0.59214631 69:-0.92299782 70:0.36795867 
0 0 0.008495920616378725 0.00462043767878767 0 1:-0.78747698 2:-0.87249653 3:-0.53524108 4:-0.19128579 5:0.39498014 6:-0.78293273 7:0.40951803 8:-0.49921381 9:-1.0776534 10:0.69482205 11:1.3261887 12:-0.38734967 13:0.33456886 14:-0.53484642 15:-1.2573144 16:-0.31437766 17:-1.9795982 18:-0.42822355 19:0.10991145 20:-1.2114156 21:-0.80302538 22:0.46887887 23:-0.51367127 24:0.17984261 25:-0.69616701 26:0.79359331 27:-0.19037407 28:-0.24291097 29:2.1578555 30:3.8906575 31:1.2363505 32:0.15830077 33:-0.92144474 34:0.34003824 35:0.033795462 36:-0.72958173 37:0.354056 38:1.4304866 39:0.013658154 40:1.3049768 41:0.64197563 42:1.1142133 43:2.0132086 44:1.3036688 45:0.58227268 46:0.42211847 47:0.057419322 48:-0.016783014 49:0.35642257 50:-0.12351874 51:0.76941527 52:0.22484605 53:0.13461457 54:0.48775721 55:1.2400107 56:0.65044396 57:-0.34410298 58:0.12107633 59:-0.46504881 60:1.8923266 61:0.41111873 62:0.003798594 63:1.6581728 64:3.7186063 65:1.3590995 66:0.64665379 67:-0.72436408 68:0.11442431 69:-1.7427671 70:0.42766244 
0 0 0.01 0.01 0 1:-0.35969618 2:-0.64743753 3:-0.12621579 4:-0.4136627 5:-0.38560115 6:-0.29558457 7:-0.0522393 8:-0.002934026 9:-0.22970415 10:0.50050712 11:1.0579624 12:-0.16871579 13:0.67075357 14:-0.96862475 15:-0.91318255 16:-1.3042808 17:-0.45934168 18:-0.79622068 19:0.97217402 20:-1.5135697 21:-0.90637451 22:0.18977361 23:-0.58793894 24:-0.51924351 25:-0.004034976 26:-0.43873402 27:-0.79409982 28:-0.7302014 29:-0.32563885 30:3.1733767 31:3.551849 32:-0.20618856 33:-0.68041811 34:-0.43484543 35:0.4376248 36:-0.57841403 37:0.069551644 38:0.9139878 39:0.27314527 40:1.1953286 41:-0.0017612056 42:0.73132747 43:1.4628989 44:1.8652644 45:0.56860271 46:1.0749565 47:1.0846913 48:0.48377816 49:0.69871949 50:0.14201741 51:0.076127961 52:-0.44595073 53:0.34767648 54:0.2152251 55:0.31498259 56:0.69964286 57:-0.23470818 58:-0.47528189 59:0.31498059 60:-0.14727388 61:-0.68463362 62:-0.76241961 63:-0.31463404 64:2.3125122 65:3.3369542 66:-0.14702322 67:-0.47653947 68:-0.5673367 69:0.40912728 70:-0.61400824 
0 0.01 0.01 0 0 1:-1.2660659 2:-0.78727581 3:-0.46559453 4:-0.80390393 5:0.13434373 6:-1.4119425 7:0.43380253 8:-1.2466864 9:-0.83287974 10:1.4286541 11:1.1633685 12:0.38506925 13:0.49777822 14:-0.078657237 15:-0.0258889 16:0.34101788 17:-0.39707962 18:0.91027466 19:-0.099703039 20:-0.81576914 21:-0.026006498 22:0.33177943 23:-0.39808718 24:-0.4979317 25:-0.012168676 26:1.2886353 27:0.71669789 28:-0.38441785 29:-0.8815921 30:0.24767118 31:1.0386615 32:2.2898381 33:-0.26932272 34:0.41129816 35:-0.42058252 36:-0.65592448 37:0.035949845 38:0.79927274 39:1.0970089 40:-0.48962348 41:0.18998969 42:-0.32747515 43:0.91077375 44:0.17517558 45:0.10053012 46:-0.34816824 47:0.26441634 48:-0.44540888 49:-0.593263 50:-0.3913864 51:-0.18340939 52:-0.39353313 53:-0.5682613 54:0.076312882 55:0.11237631 56:0.68485744 57:-0.041858759 58:-0.40344983 59:0.34804679 60:1.7420325 61:1.1377738 62:-0.33828361 63:-0.70378849 64:0.55992951 65:1.1488866 66:1.6849873 67:0.19550288 68:-0.15588886 69:0.40912728 70:1.096107 
0.01 0 0.01 0 0 1:-1.1646069 2:-0.81825975 3:-0.44525729 4:-1.3896713 5:-1.5331514 6:-1.461048 7:1.3818241 8:-1.1446442 9:-1.1658512 10:1.0293886 11:0.14321845 12:-2.0234522 13:-2.5945507 14:-1.9261791 15:-1.2878142 16:-3.1034374 17:-2.9149663 18:-1.9386188 19:-1.4148387 20:-0.83442195 21:-2.6317781 22:1.5763734 23:1.4240736 24:-0.81540991 25:3.2250813 26:2.0064676 27:1.170031 28:-0.98548839 29:-0.29350391 30:0.42664409 31:1.882322 32:-1.2444846 33:-0.17165615 34:0.18026693 35:-0.90914985 36:-0.5976218 37:0.92413691 38:-0.46881668 39:1.1675486 40:-0.81382792 41:1.0295951 42:-0.89419053 43:1.35599 44:0.64070138 45:0.24506196 46:0.35215803 47:0.22101464 48:0.12808868 49:0.68286829 50:0.80989295 51:0.76826125 52:1.6901098 53:1.5373152 54:1.6128303 55:1.9517803 56:2.217494 57:1.968937 58:-0.39766025 59:3.3704129 60:2.9166898 61:1.5176024 62:-0.83722512 63:0.33403181 64:1.0778653 65:2.9647026 66:-1.149858 67:0.3075631 68:-0.13023326 69:-0.16178348 70:-0.70178222 
0 0 0.006942619212233588 0.001224281691316918 0 1:0.45286068 2:-0.76813076 3:-0.036619648 4:0.80622286 5:1.2972653 6:0.084624063 7:0.21280829 8:0.74441337 9:-0.55818967 10:0.95271923 11:0.32648801 12:1.4309492 13:1.4332391 14:-1.5012133 15:1.1039864 16:-1.8233566 17:-0.36748447 18:-0.93123609 19:-1.657509 20:-2.7764348 21:-0.31568937 22:4.9716769 23:-0.6067147 24:-0.78834217 25:0.32570743 26:0.76343521 27:-0.46138524 28:-0.80863708 29:-0.70453664 30:-0.46885286 31:-0.31871718 32:-0.25298452 33:-0.71749356 34:-0.40575381 35:1.7084859 36:-0.63412113 37:0.0064301756 38:1.9794324 39:-0.097309513 40:1.5881316 41:0.0030504326 42:2.1132352 43:0.68583842 44:1.2046085 45:-0.054375103 46:0.36981975 47:0.28699741 48:0.58491462 49:0.57266209 50:0.012380206 51:0.15366734 52:0.48773576 53:1.9449177 54:0.76709922 55:1.3687105 56:5.0595606 57:-0.40303792 58:-0.56665563 59:0.94640401 60:1.3588302 61:-0.27062829 62:-0.80436705 63:-0.52476365 64:0.041581504 65:-0.19729756 66:-0.18714867 67:-0.61840166 68:-0.15573818 69:-1.4074069 70:-0.73127593 
0.01 0.005271650462259509 0.01 0 0.00811766607907291 1:-1.0435472 2:-0.78645973 3:-0.4106394 4:-0.95886163 5:0.011180347 6:-1.398267 7:0.41918568 8:-1.2149166 9:-0.54854524 10:2.2684933 11:-0.7304603 12:-0.22346619 13:0.024603044 14:-0.35082983 15:-0.77166658 16:-0.76010994 17:-0.68874318 18:-1.0573077 19:0.26114215 20:-0.48224643 21:0.15475471 22:0.47103303 23:-0.34307442 24:-0.79821105 25:2.5606429 26:0.45490947 27:0.83980554 28:-0.5643306 29:1.291225 30:1.7115804 31:1.0601045 32:-0.17329295 33:0.90872972 34:-0.77297502 35:-0.61421989 36:-0.6332263 37:0.070755069 38:0.36180881 39:1.0832171 40:-0.60130944 41:-0.17327963 42:-0.87168823 43:0.75437136 44:0.36609331 45:0.10569877 46:-0.10373128 47:-0.58626402 48:-0.5037981 49:-1.2160193 50:-0.54092247 51:-1.0110781 52:-1.0241153 53:-0.85775758 54:-0.84017829 55:-0.53347928 56:0.48418397 57:-0.17572165 58:-0.84239153 59:2.5423028 60:0.21936218 61:0.59829712 62:-0.68238652 63:1.8801206 64:1.418271 65:0.96981613 66:-0.4553939 67:0.47005342 68:-0.89460777 69:-1.4074069 70:0.67240104 
0.0002980972994967579 0 0.01 0 0 1:-0.04143364 2:-0.50596795 3:0.46778025 4:0.17882282 5:0.86501612 6:-0.25616444 7:-0.28319539 8:-0.32568781 9:-0.047567203 10:0.97388779 11:0.051973969 12:1.1564908 13:-1.0302835 14:-1.9501441 15:0.34366697 16:-1.1409951 17:1.0110606 18:-2.0769447 19:-0.25728789 20:-2.1377706 21:0.11416686 22:1.2647861 23:1.880004 24:-0.22749855 25:-0.10177258 26:0.20226667 27:1.0737767 28:-0.70909787 29:1.0833871 30:0.84164601 31:-0.031261495 32:-0.81475336 33:0.040141267 34:-0.52448297 35:0.30595342 36:-0.52156838 37:-0.34115077 38:0.2271285 39:-0.57013693 40:0.36661 41:-0.3971893 42:0.37039631 43:0.16651107 44:0.24739523 45:-0.45362945 46:0.3635591 47:-0.15574457 48:0.60290817 49:0.39654426 50:-0.41942361 51:0.40832353 52:0.48687495 53:0.39197286 54:0.68604214 55:1.7600846 56:1.5424153 57:2.4454348 58:-0.1952541 59:0.14687003 60:0.68720689 61:1.4714082 62:-0.75194201 63:1.2452313 64:1.3079123 65:0.473865 66:-1.1133123 67:0.76352992 68:-0.63504736 69:-0.58996655 70:0.013912506 
0 0 0 0 0.003136357084032111 1:0.45182633 2:-0.7458959 3:-0.056836956 4:0.69061902 5:1.2474299 6:0.044264997 7:0.1139731 8:0.47633076 9:-0.36379681 10:0.97155804 11:-0.094433378 12:-0.093849545 13:0.72906616 14:-1.2024239 15:0.095611911 16:-2.1559601 17:-1.4864934 18:-1.4113402 19:-1.0550611 20:-3.7433356 21:-2.4839447 22:2.2676537 23:-0.45080775 24:-0.66014236 25:1.1249476 26:0.34780048 27:0.17710817 28:-0.93451789 29:-0.49717352 30:-0.28721194 31:0.84244156 32:-0.17799182 33:0.36503301 34:-0.75232988 35:0.97924968 36:-0.55844404 37:0.13328818 38:0.87620742 39:-0.39939138 40:0.61887497 41:0.016938002 42:1.1926384 43:0.4750929 44:-0.17364567 45:0.49341393 46:-0.01707467 47:-0.10627974 48:0.008560536 49:-0.27984819 50:-0.53976959 51:-0.45712223 52:-0.6623007 53:-0.21443736 54:0.37628533 55:0.69270885 56:2.5383915 57:-0.24747897 58:-0.38444212 59:1.7499865 60:0.68591416 61:0.097378493 62:-0.92625624 63:-0.40224995 64:0.2029254 65:0.91412339 66:-0.21818482 67:0.59675112 68:-0.74975268 69:-1.1894228 70:0.000698654 
0 0 0.01 0 0 1:0.23051406 2:-0.26891515 3:0.38265443 4:0.34963763 5:0.57780859 6:0.05468345 7:0.32679631 8:0.098022762 9:0.43392966 10:0.40442286 11:-0.54774272 12:0.45121555 13:0.33364563 14:-1.1801041 15:0.077646328 16:-2.1336467 17:-2.1062501 18:0.48782142 19:-0.45160108 20:-2.3520697 21:0.7465239 22:0.41889127 23:-0.60994175 24:-0.63509688 25:2.5790638 26:-0.0189572 27:1.6533925 28:-0.97877751 29:0.058818143 30:0.35067059 31:-0.6699103 32:0.45889976 33:-0.45865543 34:-0.52264985 35:0.60434656 36:-0.23582249 37:-0.0548535 38:0.59295995 39:-0.21141768 40:0.69582917 41:-0.11034101 42:0.81974789 43:0.20783271 44:0.70373892 45:0.40526925 46:0.39132339 47:0.0046803789 48:0.51426735 49:0.149045 50:-0.28421469 51:0.26696317 52:0.61941728 53:0.88425383 54:1.3591496 55:1.2681886 56:0.74180856 57:-0.53318602 58:-0.34829218 59:3.7778849 60:0.64721051 61:2.4413276 62:-0.98865219 63:0.63970201 64:0.92828629 65:-0.47672231 66:1.345704 67:-0.24513069 68:-0.10227901 69:0.40912728 70:-0.66318602 
0 0 0.01 0 0 1:-0.33950591 2:-0.39435092 3:0.009011219 4:-0.034721687 5:0.91099415 6:-0.92391979 7:0.95986506 8:-0.23751721 9:-0.38358247 10:1.8525722 11:0.59983605 12:0.57548294 13:-0.20452649 14:-2.1304426 15:-0.45973772 16:-2.7335826 17:-1.4672418 18:-2.4458178 19:-1.7429016 20:-1.9547895 21:-2.0253687 22:3.6580379 23:0.55098308 24:-0.58073723 25:2.0380793 26:1.1993787 27:0.17863758 28:-0.84646477 29:-0.6046873 30:1.3834856 31:0.35686102 32:-0.087864315 33:-0.71769003 34:0.24975293 35:0.71580428 36:-0.35696754 37:-0.26350879 38:1.4380056 39:1.2285172 40:0.25950083 41:0.72742733 42:0.87354544 43:0.91031275 44:0.92631814 45:0.69373072 46:-0.15497176 47:0.15636491 48:0.44676633 49:0.80393968 50:0.56888493 51:0.43948967 52:1.0913882 53:1.6987907 54:1.8000844 55:1.0361333 56:4.2774271 57:1.5633486 58:-0.075924664 59:2.5539274 60:2.4585883 61:0.88736091 62:-0.74020706 63:-0.1212785 64:2.2010584 65:0.93299169 66:0.13339711 67:-0.46452231 68:-0.067308614 69:1.2084023 70:-0.6209343 
0.01 0 0.01 0 0 1:-0.088526639 2:-0.77909299 3:-0.12119681 4:-0.25365108 5:-0.48686468 6:0.08047275 7:0.22888735 8:-0.17925557 9:-0.89312122 10:-0.51491358 11:-0.31026832 12:-0.097250892 13:-0.077254831 14:1.1077254 15:0.34979693 16:0.93822639 17:0.7635008 18:-0.058251809 19:-0.46336246 20:0.052264204 21:0.72683155 22:-0.27365441 23:-0.22776516 24:-0.30650329 25:-0.39905431 26:-0.11814108 27:-0.6312946 28:0.0075693577 29:1.127781 30:-0.54774141 31:-0.69467177 32:0.68098749 33:0.19815087 34:0.21084007 35:-0.24994673 36:-0.66066674 37:0.3953886 38:-0.42186583 39:0.019546749 40:-0.057754295 41:0.17656491 42:-0.33301861 43:0.25584291 44:0.34527413 45:0.004949618 46:0.033918871 47:0.41491567 48:0.37427676 49:0.25418047 50:0.58062214 51:0.66695619 52:0.62146265 53:0.50163732 54:0.34457194 55:0.13430641 56:-0.3965706 57:0.22766526 58:-0.2604393 59:-0.15324773 60:0.060192319 61:-0.46164212 62:0.2393523 63:1.3430018 64:-0.36233168 65:-0.5017934 66:0.68989268 67:0.53920638 68:0.12208205 69:0.40912728 70:-0.44513063 
0 0 0.01 0.01 0 1:-0.52035432 2:0.18114481 3:-0.97806164 4:-0.53090431 5:-0.20130698 6:-0.42399462 7:0.9378315 8:-0.46397213 9:0.35930076 10:0.064364345 11:0.66143186 12:0.20078657 13:0.052667029 14:-0.16532146 15:1.1895242 16:1.1227474 17:2.3677385 18:0.51992818 19:0.33703661 20:1.210401 21:0.33612911 22:-1.0266501 23:0.10694939 24:1.624881 25:-0.66986478 26:-0.64235564 27:-0.72280582 28:0.69072155 29:-0.93850149 30:-0.21463313 31:-1.1790773 32:0.009604099 33:1.9287151 34:0.85150017 35:0.30464438 36:0.14657344 37:1.2560097 38:0.38608201 39:0.54486346 40:0.76831657 41:0.75421932 42:0.3484235 43:1.0333601 44:0.54924134 45:0.41844553 46:1.046364 47:1.7764152 48:2.1750632 49:1.5195758 50:2.8569194 51:2.6413484 52:2.1363515 53:1.7944168 54:1.0940446 55:0.43842738 56:-1.1663472 57:0.74545357 58:1.3098828 59:-0.20014037 60:-0.34466375 61:-0.42580076 62:1.0934021 63:-0.8740763 64:0.33946322 65:-1.3960071 66:0.15051034 67:2.9981163 68:0.84667229 69:-1.1894228 70:0.41513415 
0 0.01 0.01 0.01 0.01 1:-1.0676903 2:0.18488452 3:0.035814108 4:-0.84895789 5:-0.16424254 6:-0.87280483 7:-0.080155899 8:-0.91509171 9:0.27699267 10:0.31763109 11:0.75598018 12:1.0646289 13:0.70031706 14:1.1756215 15:1.0477257 16:1.7068971 17:1.9062729 18:1.5671326 19:0.97941474 20:0.82783148 21:0.69495012 22:-0.25792891 23:-0.93437598 24:0.62301882 25:-1.0948622 26:0.12009952 27:-1.2745559 28:1.5967098 29:-0.88719991 30:-1.0094358 31:-0.88578911 32:2.0003782 33:-0.44248164 34:1.9076497 35:-0.21202169 36:-0.073584516 37:-0.029360941 38:0.1287689 39:0.65459242 40:0.10775118 41:0.40865153 42:-0.14396569 43:0.55447129 44:0.4198981 45:-0.30582688 46:0.016820541 47:0.96982947 48:0.51427054 49:0.99713094 50:1.6596684 51:1.4736901 52:1.9025069 53:1.2324653 54:0.61097974 55:0.20756829 56:-0.00056427748 57:-0.89337047 58:0.24984199 59:-0.89750752 60:-0.29191163 61:-1.1850213 62:1.1568056 63:-0.59248059 64:-0.89036014 65:-1.0368952 66:1.5645122 67:-0.42268311 68:0.47840621 69:0.40912728 70:-0.21875757 
0.01 0 0.01 0.002444758552931011 0 1:-0.14119319 2:-0.11910182 3:0.24604715 4:-0.21184805 5:-0.26582361 6:0.21302504 7:-0.27703405 8:-0.13669303 9:0.73153977 10:-0.22193589 11:-0.45501131 12:0.86188058 13:0.88229588 14:0.7655008 15:0.59514131 16:1.0327246 17:0.51170315 18:1.1730761 19:-0.12194374 20:1.1766245 21:0.75701422 22:-0.52035718 23:0.20798879 24:0.14261703 25:-0.3616182 26:-0.14540997 27:0.32007331 28:-0.25999138 29:-0.1722217 30:-0.41133366 31:0.12593952 32:0.45738732 33:-0.37825554 34:-0.31018529 35:-0.26950086 36:-0.20385694 37:-0.11175047 38:-0.36544879 39:-0.044204975 40:-0.097439781 41:-0.63164852 42:-0.31528712 43:0.14686546 44:-0.21634027 45:-0.011968789 46:0.43591859 47:0.2873038 48:0.43995645 49:0.72302746 50:0.71455236 51:0.76798584 52:1.1910866 53:1.1429151 54:1.5631569 55:0.55731089 56:-0.39609622 57:0.7736263 58:0.39446716 59:-0.25275577 60:0.31913591 61:0.6407775 62:-0.18881225 63:0.16691507 64:-0.17525214 65:0.56269824 66:0.76793469 67:-0.28883409 68:-0.32189704 69:-0.16178348 70:-0.16403964 
0 0.01 0 0.01 0.01 1:0.43394344 2:-0.31732468 3:-0.13105661 4:0.11762872 5:-0.85041627 6:0.64529052 7:-0.1515208 8:0.49146126 9:0.37159451 10:-1.3551306 11:0.30157811 12:0.45262363 13:0.44136026 14:0.36951529 15:-0.31763919 16:-0.44695931 17:-1.3497189 18:0.77840462 19:-0.17069501 20:0.055983015 21:-1.8899534 22:0.10725012 23:-0.11272688 24:0.12714147 25:-0.54196839 26:-1.7447575 27:-0.54588987 28:0.98809797 29:1.3685449 30:-0.43564858 31:-1.379309 32:0.16572502 33:-0.1517056 34:0.47876686 35:0.68938131 36:-0.25314491 37:0.16178008 38:0.1143799 39:-0.27900143 40:0.86730734 41:-0.38815546 42:0.45972351 43:-0.035495856 44:0.030395202 45:0.9921383 46:0.77161438 47:0.3170101 48:0.48174554 49:0.74198468 50:0.98247098 51:-0.11211932 52:0.20578132 53:0.44415742 54:1.214488 55:0.99270359 56:0.50347433 57:0.11959958 58:0.41508686 59:-0.25320253 60:-1.8013629 61:-0.42755082 62:2.0997512 63:1.4787838 64:-0.22752517 65:-1.3603109 66:0.95221325 67:0.1283027 68:1.7810401 69:0.40912728 70:-0.49629032 
0 0 0 0.01 0.01 1:0.8477571 2:-0.60401667 3:0.10635587 4:0.45573825 5:-0.045746997 6:1.010106 7:-0.25287884 8:0.73850162 9:0.16109758 10:-0.94409365 11:0.45591956 12:1.376059 13:1.1653083 14:1.4073925 15:-0.25896781 16:0.48533607 17:-0.086517746 18:0.779248 19:-1.5375176 20:-0.16406382 21:1.4745734 22:0.64272564 23:-0.58521399 24:-0.084865913 25:-0.90663879 26:0.5182821 27:-0.47636146 28:-0.45619752 29:2.2586666 30:-1.0316008 31:-0.17495765 32:-0.5143158 33:-0.92768853 34:-0.75111875 35:0.576801 36:-0.46997721 37:0.49727649 38:0.15957416 39:-0.23874242 40:0.43404593 41:-0.37015552 42:0.2172486 43:0.04971426 44:0.052373098 45:0.034278454 46:-0.058099697 47:0.47908076 48:-0.022950001 49:0.24621168 50:0.21356367 51:0.72957938 52:0.43263813 53:1.1486814 54:0.46065373 55:1.6874763 56:1.0566088 57:-0.6138186 58:-0.19404243 59:-0.88524646 60:0.26882163 61:-0.44560372 62:-0.43648745 63:2.4902247 64:-1.0649704 65:0.2205753 66:-0.20194912 67:-0.91215538 68:-0.7060834 69:-0.16178348 70:-0.58292228 
0.01 0 0.01 0 0 1:0.97314081 2:-0.49649565 3:0.22980766 4:0.94575511 5:0.70709267 6:1.0383398 7:-0.42424247 8:0.86124571 9:0.13114794 10:-0.86417727 11:0.13299313 12:-1.0827726 13:-0.35417202 14:-0.68785539 15:0.17687963 16:0.19023473 17:0.54400515 18:0.32286028 19:-0.49353797 20:0.68354356 21:0.081191018 22:0.44499679 23:-0.52683749 24:-0.93833198 25:0.25712402 26:-1.2828433 27:-0.64200523 28:-0.24786157 29:-0.44700419 30:-0.19534023 31:0.10889351 32:-0.31666647 33:1.4546996 34:-0.75610524 35:-0.079675762 36:-0.31713336 37:0.61259538 38:-0.59484964 39:-0.65453744 40:0.017271682 41:-0.55379405 42:0.092611367 43:1.082127 44:0.41138024 45:0.02005041 46:0.622044 47:0.2837243 48:0.47441382 49:1.2471033 50:1.6974234 51:2.3645294 52:1.6772432 53:1.2764531 54:2.384181 55:1.3337898 56:0.95316053 57:-0.46356579 58:-0.80088089 59:0.64011612 60:-1.1827899 61:-0.30779846 62:-0.072846809 63:-0.072592922 64:0.12271548 65:0.70470728 66:-0.19031206 67:2.018805 68:-0.44683641 69:0.40912728 70:-0.2810331 
0.01 0 0.01 0 0 1:0.92717031 2:-0.34320178 3:0.7003733 4:0.40562932 5:-0.79055051 6:1.1978744 7:-0.60854566 8:0.90543486 9:0.58039547 10:-1.1944526 11:-0.79477963 12:-1.8382151 13:-0.96129556 14:-0.71605258 15:-1.0479554 16:-1.4854315 17:-0.38081376 18:-0.11242568 19:-0.75238867 20:-1.0219292 21:-1.3162067 22:1.2460457 23:-0.01214017 24:-1.0884406 25:0.087598582 26:-1.2086873 27:0.22616727 28:-0.92346629 29:1.5822053 30:0.74564119 31:-0.15166634 32:-1.346676 33:1.2203896 34:-1.2835797 35:0.0086714339 36:-0.27828408 37:-0.56132936 38:-0.47060037 39:-0.80261565 40:0.22913426 41:-0.66718317 42:-0.12125346 43:0.10533561 44:-0.11462064 45:0.10710196 46:-0.05431261 47:-0.023524892 48:0.27063963 49:-0.39599233 50:-0.17140071 51:-0.076293346 52:-0.11617964 53:0.25626162 54:0.66513541 55:0.75616251 56:1.485734 57:0.28624493 58:-0.93816068 59:0.18887067 60:-1.186474 61:0.52721278 62:-0.86670827 63:1.9092825 64:0.83444462 65:0.21754961 66:-1.1567751 67:1.2760051 68:-0.74552872 69:-1.1894228 70:-0.70619324 
0 0 0 0 0.01 1:2.6766983 2:-0.590482 3:1.1568499 4:2.3129527 5:1.3031843 6:1.8447651 7:-0.95207473 8:2.6980468 9:0.34624698 10:-0.95327637 11:1.3991064 12:-1.1794527 13:0.056576209 14:0.45010631 15:0.59949566 16:-0.0060801813 17:0.41741404 18:0.93051916 19:0.76053677 20:-0.024329287 21:0.48104368 22:-0.22752449 23:-0.55520412 24:-0.41046658 25:-0.74436273 26:-0.87015965 27:-0.044099895 28:-0.69055635 29:0.082857628 30:-0.21020663 31:-0.33299983 32:-0.30779991 33:-0.22848312 34:-0.94943292 35:1.0334148 36:-0.67223444 37:-1.0067515 38:-0.36449114 39:-1.2162337 40:0.5446755 41:-0.96956947 42:0.50352062 43:-0.78434397 44:0.15761442 45:-0.038830474 46:0.27404416 47:0.23067809 48:0.19620306 49:0.45129207 50:0.87870361 51:0.8893278 52:1.1767465 53:0.96338211 54:0.47518653 55:0.39727096 56:-0.31759597 57:-0.38705436 58:-0.49091999 59:-0.86492222 60:-0.878677 61:0.029864407 62:-0.76914042 63:0.49848401 64:0.1585306 65:-0.26031759 66:-0.22358679 67:-0.097389817 68:-0.76743938 69:0.40912728 70:-0.54749855 
0.01 0.01 0.01 0 0.01 1:-0.35262052 2:-0.61862947 3:0.43237648 4:-0.61134859 5:-0.7046699 6:-0.023221966 7:-0.57594946 8:-0.38493214 9:0.30318758 10:-0.016031165 11:0.17354584 12:1.9403285 13:0.71935743 14:0.56334745 15:-0.50214328 16:0.25734203 17:0.41099497 18:-0.20921572 19:-0.50843901 20:-0.40964665 21:-1.1507896 22:0.0015588153 23:-0.21300525 24:-0.15724027 25:-0.28123366 26:0.88897248 27:-0.454775 28:-0.12151278 29:-0.40821735 30:-0.29992805 31:0.91762895 32:-0.28390541 33:-0.30239895 34:-0.5081452 35:-0.60612248 36:-0.63954867 37:-0.4691495 38:-0.67425286 39:0.012745582 40:-0.56284069 41:-0.66369195 42:-0.71018608 43:-0.40511247 44:-0.57024631 45:-0.58266326 46:-0.37784952 47:-0.400131 48:-0.68312482 49:-0.41689597 50:-0.66546736 51:-0.50200301 52:-0.16594422 53:-0.5635152 54:-0.35466644 55:0.25562521 56:-0.16430302 57:-0.22185401 58:-0.45252189 59:-0.52143982 60:0.184569 61:-0.40599647 62:-0.47191191 63:-0.027320201 64:-0.20246446 65:0.28517861 66:-0.56976757 67:-0.21083994 68:-0.8885308 69:-0.58996655 70:-0.81160325 
0.004123037369389835 0.01 0.01 0.01 0.01 1:-1.0452135 2:0.15568249 3:-0.47052735 4:-0.82661686 5:-0.24343482 6:-0.89998595 7:-0.047680309 8:-1.0241656 9:0.30961602 10:0.22340242 11:0.51847198 12:1.0837906 13:0.92085872 14:0.62120322 15:0.94401099 16:1.9964333 17:0.6755326 18:1.7926344 19:1.8235364 20:1.2815165 21:1.5512399 22:-1.3052923 23:-0.90708917 24:1.4097393 25:-1.1351723 26:1.2723666 27:-0.63159948 28:1.195925 29:-0.90366801 30:-0.92336947 31:-1.0694463 32:1.0066719 33:-0.058343491 34:1.6255724 35:-0.58799515 36:0.065596326 37:0.12903302 38:-0.22764919 39:0.47267317 40:-0.3419592 41:0.24863079 42:-0.50435094 43:-0.069111552 44:-0.13038046 45:-0.31141241 46:-0.53237178 47:-0.063926043 48:-0.26594881 49:-0.16170098 50:0.35117874 51:0.21206088 52:0.82335595 53:0.4593449 54:0.31143867 55:0.10573331 56:-1.4244246 57:-0.82258381 58:1.000291 59:-1.2008094 60:0.99923405 61:-0.68302946 62:0.57545018 63:-0.77859945 64:-0.71833802 65:-1.1508084 66:0.83429318 67:0.012602479 68:0.26943536 69:0.40912728 70:0.12547287 
0.01 0 0.01 0 0 1:-1.1620215 2:-0.64728336 3:-0.17623482 4:-1.3577563 5:-0.92325448 6:-1.2734991 7:-0.20660358 8:-1.2494555 9:-0.30389479 10:1.716901 11:-0.063208418 12:0.66983367 13:0.74766589 14:-1.7571252 15:-0.31255149 16:-1.6970849 17:-0.85426306 18:-1.1138548 19:-0.55186463 20:-0.13757642 21:-0.33412379 22:3.6233825 23:-1.0129407 24:0.33947512 25:0.33655356 26:-0.39713959 27:1.8659587 28:-0.7233063 29:1.3663489 30:1.4465343 31:2.6476826 32:-1.3517099 33:0.2057423 34:-0.085075074 35:-0.75442532 36:-0.49868981 37:-0.21704249 38:-0.23675679 39:0.9991473 40:-0.77436775 41:-0.02516599 42:-0.96772618 43:0.21691246 44:0.44103081 45:-0.30149439 46:1.6048833 47:0.54359825 48:0.96864451 49:-0.07759837 50:0.10458277 51:0.64326401 52:1.0736168 53:1.0938056 54:1.1584586 55:0.44911406 56:2.3264197 57:-1.1159895 58:-0.029444067 59:0.89022248 60:-0.13211998 61:1.9977948 62:-0.8009497 63:2.2018739 64:1.5424685 65:2.0722597 66:-1.3144646 67:0.34522569 68:-0.95462926 69:0.40912728 70:-1.0441676 
-0.01 0.003345494955681608 0.01 0.006001753389784811 0.01 1:0.45817955 2:-0.77696325 3:1.1607618 4:-0.29724805 5:-1.4706379 6:0.62209519 7:-0.34684062 8:0.32084891 9:-0.6479861 10:-1.0399998 11:-1.3166708 12:-1.1688088 13:0.12338459 14:-0.7394903 15:0.34021495 16:-1.3262446 17:-1.4310325 18:1.2389788 19:-1.4424328 20:0.78240204 21:-1.1796345 22:-0.47057022 23:0.31477935 24:-1.2590232 25:-0.046516355 26:-0.8599551 27:0.50442601 28:-0.90497357 29:2.556961 30:0.64191707 31:0.0080506921 32:-1.0444075 33:-0.042405756 34:-1.3001515 35:-0.89192091 36:-0.82902798 37:-1.1986668 38:-1.2856543 39:-0.6954891 40:-1.057554 41:-0.74037 42:-0.86754771 43:-1.1129228 44:-0.72038851 45:-0.70112015 46:-0.81161531 47:-0.46220601 48:-0.92077847 49:-0.55381757 50:-0.77855456 51:-0.48330825 52:-0.43923146 53:-0.77180888 54:-0.51814629 55:-0.77902987 56:-0.88419543 57:0.01665513 58:-1.3433432 59:-0.42641824 60:-1.0026012 61:0.2960657 62:-1.0128315 63:2.591758 64:0.78684149 65:-0.15020697 66:-1.2936148 67:-0.44123 68:-1.0393696 69:2.4073149 70:-0.74003438 
-0 0.001871430812100548 0.01 0 0 1:-0.9247433 2:-1.1069006 3:0.51839915 4:-1.4986694 5:-1.792981 6:-0.88618768 7:0.098727057 8:-0.99383151 9:-2.1479065 10:0.73281011 11:-1.4837962 12:0.79845492 13:-0.85478513 14:-0.68243046 15:0.020104714 16:1.199172 17:0.77347153 18:0.11545392 19:-0.72975897 20:-0.042242737 21:0.61709216 22:0.26862668 23:1.8388579 24:-0.032165615 25:-0.44430869 26:-1.1531497 27:1.5695491 28:-0.46294975 29:-0.48916807 30:-0.59518946 31:-0.27683596 32:0.47905724 33:0.085195682 34:-0.30399357 35:-1.1830845 36:-0.96041719 37:-0.63729508 38:-0.92594141 39:0.76589838 40:-1.0010525 41:-0.43886502 42:-1.3386875 43:-0.084696558 44:-0.077484108 45:-0.51313222 46:-0.16124035 47:0.21038683 48:-0.47053026 49:-0.35784891 50:-0.41433389 51:-0.30548478 52:-0.0093282485 53:-0.11019566 54:-0.36401163 55:-0.3672969 56:0.27712397 57:2.4776584 58:-0.25666586 59:-0.13237008 60:-1.2267397 61:0.92937958 62:-0.54053195 63:-0.65627912 64:-0.69543582 65:-0.34030074 66:0.083317792 67:0.0371408 68:-0.65192555 69:1.2084023 70:0.41405413 
-0 0.004855592136449243 0 0 0 1:0.13644292 2:-0.77790355 3:1.2624111 4:-0.48787959 5:-0.97121055 6:0.432702 7:-0.77145415 8:-0.036911257 9:-0.80157298 10:-0.21158267 11:-0.82018946 12:-0.38293198 13:-1.6239789 14:-1.2595939 15:-0.87666802 16:-0.54987719 17:-1.1462858 18:-1.1837654 19:-0.39742358 20:-0.081525373 21:-0.063921604 22:-0.055443531 23:-0.22897481 24:-0.75803096 25:1.2225525 26:-0.19155082 27:1.0861088 28:-0.48509346 29:0.2714833 30:-0.53557345 31:1.7992799 32:-0.5455359 33:0.11523344 34:-0.52481058 35:-0.94241024 36:-0.79828385 37:-1.3956136 38:-1.2100076 39:-0.59873346 40:-1.0440708 41:-0.65708593 42:-1.1078165 43:-1.3410524 44:-1.1131712 45:-1.265312 46:-0.84360547 47:-0.69098555 48:-0.49735481 49:-0.51228182 50:-0.31449788 51:-0.35928939 52:-0.16795314 53:-0.2164948 54:-0.73957733 55:-0.53328134 56:-0.45198446 57:-0.43497761 58:-0.86719823 59:0.45662666 60:-0.57082727 61:0.7823242 62:-0.77822206 63:-0.046649968 64:-0.86889871 65:1.2596376 66:-0.69880761 67:-0.22770346 68:-0.86113188 69:0.40912728 70:-0.95020076 
-0 0.001806311002510028 0 0 0.01 1:0.028421857 2:-0.81973692 3:1.2495815 4:-0.44488004 5:-0.45785378 6:0.31041332 7:-1.126296 8:-0.11052139 9:-0.19502871 10:0.021754604 11:-0.33497147 12:-0.032236843 13:-0.530027 14:0.093000681 15:-0.081284849 16:-1.1476599 17:-0.068207106 18:-0.46003277 19:0.22494089 20:2.0517745 21:2.0707881 22:-0.0072635954 23:-0.10923425 24:-0.31282654 25:1.6151207 26:0.186989 27:0.29131481 28:-0.14416194 29:0.22229333 30:0.4956402 31:-0.75261347 32:-0.80300713 33:-0.25442288 34:-0.4946062 35:-1.0285494 36:-0.87898758 37:-1.4174072 38:-1.3936619 39:-1.0926651 40:-1.1003304 41:-1.1228544 42:-1.0104751 43:-1.7490744 44:-1.6667402 45:-1.5966852 46:-1.2637439 47:-1.0679581 48:-0.77826188 49:-0.76062233 50:-0.33866003 51:-0.3851381 52:-0.16403546 53:-0.32415429 54:-0.4260211 55:-0.69845056 56:-0.59193811 57:-0.38569861 58:-0.88927663 59:-0.032301576 60:-0.74773863 61:-0.10427293 62:-0.71053801 63:-0.4614279 64:-0.14896097 65:-1.3266931 66:-1.0978005 67:-0.72359247 68:-0.93599549 69:-1.1894228 70:-1.1228554 
-0.004777030301849399 0 0 0 0.007345960347828919 1:0.17575154 2:-1.0966852 3:0.64585361 4:0.13816496 5:-0.17025873 6:0.33651477 7:-0.55874124 8:0.063153047 9:-2.2559035 10:-0.59591006 11:-0.30638625 12:-0.80262886 13:-1.1905364 14:-0.42786503 15:-0.84542401 16:-0.25379418 17:1.3457223 18:-1.1882608 19:-0.059742808 20:0.5273001 21:0.85460539 22:0.0098957969 23:0.65833333 24:-1.128991 25:-0.38977236 26:1.0456411 27:-0.71114379 28:-0.70325265 29:-0.54235469 30:-0.093786781 31:-0.16573011 32:-0.052313466 33:1.2076216 34:-0.69321677 35:-0.42802907 36:-0.9020132 37:-0.60800747 38:-0.79455577 39:-1.0806861 40:-0.29256316 41:-0.79845642 42:-0.45055538 43:-0.26655918 44:-0.66938928 45:-1.0634777 46:-0.45569004 47:-0.27925873 48:-0.51141447 49:0.037182361 50:0.15669883 51:0.13866656 52:0.33508162 53:-0.1666711 54:-0.22334017 55:-0.47521288 56:-0.28609469 57:0.71201574 58:-1.1001276 59:-0.50509192 60:0.57064262 61:-0.83931907 62:-0.7558711 63:-0.6366756 64:-0.28354612 65:-0.32242565 66:-0.54173561 67:1.2082639 68:-0.67494813 69:-0.16178348 70:0.083725187 
-0 0.01 0 0 0 1:0.48963899 2:-0.66954028 3:0.9012159 4:0.45777485 5:-0.044067361 6:0.87208234 7:-0.64544552 8:0.50662156 9:-0.36940139 10:-1.1440015 11:-0.51037342 12:-0.96312096 13:-0.64667913 14:-0.59505253 15:-1.0354472 16:0.0026434447 17:0.25536322 18:-1.7366622 19:0.16174769 20:2.385891 21:1.6810364 22:0.62938593 23:0.41276968 24:-1.1962768 25:-0.41489946 26:-0.57910484 27:1.4164941 28:-0.62713225 29:-0.25064298 30:-0.30623403 31:-0.92153878 32:-0.16635345 33:1.846306 34:-0.81898085 35:-0.46967895 36:-0.70830168 37:-1.0354416 38:-1.0543419 39:-1.5916714 40:-0.54092754 41:-0.90329534 42:-0.56024132 43:-1.2881951 44:-0.94427837 45:-1.3869202 46:-1.0589081 47:-0.7753795 48:-0.76649397 49:-0.11959834 50:0.15299364 51:0.23086162 52:0.18895245 53:-0.50158277 54:-0.75637629 55:-0.91603536 56:0.30393593 57:0.39296791 58:-1.2813784 59:-0.35460164 60:-0.86614145 61:0.62050839 62:-0.7839146 63:-0.34320867 64:-0.26280625 65:-1.0294622 66:-0.9169874 67:1.357226 68:-1.0266525 69:2.4073149 70:0.029824409 
-0.01 0.004339680730122713 0.002263280514915538 0.002907240917058799 0 1:1.378004 2:-1.0852326 3:0.35361644 4:0.74812931 5:-0.25846925 6:1.4972848 7:-0.42963138 8:1.2783096 9:-1.9507986 10:-1.6690313 11:-0.71733227 12:-1.0491021 13:-0.30971292 14:-1.1561177 15:-1.3904016 16:0.075218909 17:0.12563888 18:-1.7633683 19:0.70073297 20:0.53102504 21:0.5423826 22:-0.6766559 23:-0.12884829 24:-1.4065036 25:0.64904551 26:-0.41302707 27:-0.41607934 28:-0.59330743 29:-0.39424077 30:-0.030018536 31:-0.73506904 32:-0.75836121 33:2.0631819 34:-1.0749223 35:0.16973474 36:-0.92813322 37:-0.57721726 38:-0.81227941 39:-1.4773097 40:-0.12745266 41:-0.72995287 42:-0.2564282 43:-0.52283722 44:-0.51486502 45:-0.96681369 46:-0.71508638 47:-0.4658455 48:0.065251449 49:0.25351143 50:0.70200478 51:0.44818164 52:0.58738848 53:0.57525669 54:-0.10244852 55:-0.6943218 56:-0.87112795 57:-0.32989422 58:-1.4159144 59:0.82817217 60:-0.40341277 61:-0.43678287 62:-0.69848034 63:-0.50931971 64:-0.18320571 65:-0.99024082 66:-0.85162326 67:1.4725783 68:-0.61290065 69:-0.58996655 70:0.14670114 
-0.01 0.01 0.004873904247230505 0.01 0.007120683895561212 1:1.554261 2:-0.97378221 3:0.87677482 4:0.88048482 5:-0.23819307 6:1.6470737 7:-0.2967171 8:1.3836955 9:-1.0140692 10:-1.8355628 11:-0.73382227 12:-0.10346736 13:0.96124468 14:-0.63355381 15:-2.7875042 16:0.46347625 17:1.3985468 18:-0.48784083 19:-0.39587652 20:0.50031329 21:1.1609224 22:0.030971849 23:-0.45161672 24:-1.0310846 25:0.3225039 26:-0.96891413 27:-0.98555483 28:-0.72748918 29:1.5505133 30:-0.06225782 31:-0.19779237 32:-1.4200293 33:1.2372615 34:-1.1643065 35:0.069817797 36:-0.79564763 37:-0.82038619 38:-0.88756028 39:-1.5706664 40:-0.40250766 41:-0.70300235 42:-0.29623533 43:-0.41570166 44:-0.45658195 45:-1.049036 46:-0.48958498 47:-0.44484778 48:0.27901391 49:0.74000746 50:1.3183342 51:0.46931859 52:1.0341298 53:0.9253117 54:0.20485954 55:-0.25531962 56:0.33189953 57:-0.40783324 58:-0.93705569 59:-0.12759097 60:-1.0920026 61:-1.058199 62:-0.88371888 63:1.3441583 64:-0.33536769 65:-0.23055496 66:-1.4219719 67:1.3523704 68:-0.74435157 69:1.2084023 70:-0.38163554 
-0.005586485784496009 0 0.01 0 0 1:-0.43792853 2:-0.99342742 3:0.77490106 4:-0.4705899 5:-0.61112881 6:-0.38240783 7:-0.32882374 8:-0.74911175 9:-1.4033748 10:0.041594823 11:-1.3810864 12:-1.220331 13:-0.7233107 14:-0.60170945 15:-1.4850209 16:-1.3161783 17:-1.5381846 18:-0.97724855 19:0.49678356 20:-0.31036813 21:0.27689512 22:0.2267557 23:0.38932451 24:-1.0532431 25:0.98577871 26:1.099955 27:0.46541775 28:-0.87176046 29:0.11917706 30:1.4700064 31:-0.42707962 32:-0.74488305 33:2.0782261 34:-0.61961282 35:-0.9651547 36:-0.89765293 37:-1.0075562 38:-1.1574738 39:-0.60181001 40:-0.92735098 41:-0.62227536 42:-1.1116313 43:-0.85454734 44:-0.96442462 45:-1.1402103 46:-0.92370369 47:-0.330591 48:-0.12998812 49:0.16360356 50:0.68652526 51:0.50118011 52:0.84753311 53:0.7661773 54:0.16464136 55:0.18182077 56:0.41744942 57:0.55277231 58:-1.0293615 59:0.95757138 60:1.4104242 61:0.19844593 62:-0.908918 63:-0.084468026 64:1.5720054 65:-0.28712599 66:-0.82788519 67:1.9390737 68:-0.58952678 69:0.40912728 70:-0.38530399 
-0.01 0 0.002540781555472722 0 0.007182255572673137 1:-0.50265914 2:-0.8920191 3:0.96321164 4:-0.77099267 5:-0.5210711 6:-0.2586094 7:-0.62065907 8:-0.56178861 9:-0.68304348 10:0.4348252 11:-0.81941248 12:-0.43480765 13:0.032017987 14:1.1612447 15:0.069244393 16:-0.38410466 17:1.0019521 18:0.86011334 19:0.88693921 20:1.6091591 21:2.5486843 22:-0.27397521 23:0.64596019 24:-0.10698521 25:0.87377161 26:-0.69306633 27:-0.12572073 28:-0.5276232 29:0.53694715 30:0.50010018 31:0.50281216 32:0.4984053 33:-0.54648196 34:-0.16698388 35:-0.67949612 36:-0.76872054 37:-1.0138494 38:-0.97764208 39:-0.53704985 40:-0.56362578 41:-0.61792092 42:-0.85788259 43:-0.7627229 44:-0.79295655 45:-0.65953175 46:-0.38033045 47:-0.10673938 48:0.29653753 49:0.79453403 50:1.1440166 51:0.69934588 52:1.3073901 53:1.0389041 54:0.53996036 55:-0.20255429 56:-0.31977486 57:0.54717507 58:-0.1388931 59:0.72892345 60:-0.73014795 61:-0.3180626 62:-0.76777696 63:0.39681442 64:0.16533088 65:0.61037109 66:0.42968582 67:-0.9748024 68:-0.32158206 69:-0.58996655 70:-0.85432246 
-0.01 0 0.01 0.01 0.01 1:0.3958378 2:-1.044953 3:0.89130476 4:0.0021163952 5:-0.24763871 6:0.82293641 7:-0.61478338 8:0.25806709 9:-1.1809747 10:-0.49782426 11:-1.3060018 12:-0.40742797 13:0.79833484 14:0.58529382 15:-0.79756728 16:-0.68993244 17:0.036631846 18:-1.0426291 19:0.45317191 20:-0.044175655 21:0.86310263 22:1.4266135 23:-0.62220748 24:-1.1281536 25:0.68364823 26:-0.34361057 27:0.13970122 28:-0.78083094 29:0.55165613 30:-0.30237252 31:0.032541814 32:-0.41893755 33:0.37168007 34:-0.82876414 35:-0.33289766 36:-0.86891393 37:-0.63984929 38:-0.69873178 39:-0.96815921 40:-0.27527017 41:-0.80161744 42:-0.27245367 43:-0.23336112 44:-0.37331257 45:-0.79344844 46:-0.54180739 47:-0.012061419 48:0.62793488 49:0.65953834 50:0.76719261 51:0.95259013 52:1.3074958 53:1.0131009 54:0.28954446 55:0.036813401 56:1.5037675 57:-0.75416386 58:-1.1811856 59:0.75958218 60:-0.35328608 61:-0.0079898148 62:-0.91818332 63:0.30425148 64:-0.34486247 65:0.20736109 66:-0.50549897 67:0.11674213 68:-0.71484155 69:-0.16178348 70:-0.68630609 
-0.01 0 0.01 0 0.001769795838872474 1:0.071948976 2:-0.84930379 3:1.311045 4:-0.21874597 5:-0.32202026 6:0.367714 7:-0.98730077 8:-0.15431888 9:-0.52504091 10:-0.25531479 11:-1.2402207 12:-0.66185294 13:0.12169828 14:0.14951846 15:-0.43637396 16:0.14873111 17:0.091662852 18:-1.1208913 19:0.14879647 20:1.278988 21:2.8859101 22:1.4823508 23:-0.36679087 24:-0.6473724 25:1.0777368 26:-0.4403219 27:0.66119385 28:-0.95563706 29:1.2522161 30:0.37465499 31:0.17592181 32:-0.42320379 33:-0.56498652 34:-0.41853765 35:-0.6146359 36:-0.72221764 37:-0.68820244 38:-0.66074026 39:-0.54175223 40:-0.51364137 41:-0.75849643 42:-0.5602388 43:-0.15957379 44:-0.67581654 45:-0.52221015 46:-0.42411114 47:0.24210235 48:0.67693067 49:1.441249 50:1.0212724 51:0.96395854 52:0.94823106 53:1.3998864 54:0.60136325 55:0.18155277 56:1.68178 57:-0.63310557 58:-0.96510098 59:0.50066888 60:-1.0612671 61:0.30624703 62:-1.1180639 63:0.8450935 64:0.099082954 65:-0.37077026 66:-0.85590199 67:-0.90476125 68:-0.46518012 69:1.2084023 70:-0.81970579 
-0 0.001220093474004934 0 0 0 1:-0.31188567 2:-1.0859206 3:1.0892032 4:-0.15339816 5:0.19701811 6:0.089673387 7:-0.74726836 8:-0.41780612 9:-1.637906 10:-0.040815829 11:-0.54297064 12:0.026661937 13:0.97061714 14:0.84230444 15:-1.7402768 16:-2.1373543 17:-0.39474783 18:-0.21304337 19:0.48875026 20:0.97475226 21:3.2419878 22:0.73682281 23:-0.74074319 24:-0.95310935 25:-0.23032898 26:-0.28762378 27:2.5464587 28:-0.27769502 29:0.49655936 30:-0.56084359 31:1.0124518 32:0.25941456 33:-0.54292895 34:-0.093389966 35:-0.58056793 36:-0.95775243 37:-1.0388534 38:-0.95801229 39:-1.0794587 40:-0.43512692 41:-0.90807211 42:-0.59049884 43:-0.9194387 44:-1.0523311 45:-1.111195 46:-0.85213598 47:-0.44180967 48:-0.48918702 49:0.4083771 50:0.51053573 51:1.5590267 52:0.62987805 53:0.28274533 54:0.13344226 55:-0.34045041 56:1.3575422 57:-0.93599774 58:-1.0052404 59:-0.4654004 60:-0.57300279 61:2.0086847 62:-0.57015765 63:0.73695741 64:-0.84928786 65:1.5351283 66:-0.090057428 67:-0.78504713 68:-0.73959369 69:-0.92299782 70:-0.11011029 
-0.009405520199958838 0 0 0.007278268738440084 0 1:-0.12942732 2:-1.1021623 3:0.96825383 4:-0.36462008 5:-0.20453063 6:0.22611386 7:-0.65402859 8:-0.18738123 9:-1.3322291 10:0.2321709 11:-0.50153898 12:0.044583813 13:0.77036839 14:0.44870622 15:-1.2677895 16:-1.5252388 17:0.067402007 18:0.39494493 19:0.88623603 20:1.4236913 21:2.248057 22:0.76100293 23:-0.082574436 24:-0.71421362 25:-0.19065976 26:-0.052026609 27:1.7087576 28:-0.25203557 29:0.21606969 30:-0.23343862 31:0.85182247 32:-0.5683185 33:-0.35921163 34:-0.36928737 35:-0.45658464 36:-0.96378131 37:-0.95229997 38:-0.78776145 39:-0.81791672 40:-0.29729583 41:-0.78261243 42:-0.40379345 43:-0.67136362 44:-0.71470583 45:-0.88680623 46:-0.71359217 47:-0.32619868 48:-0.25635774 49:0.87509433 50:0.59407121 51:1.658093 52:1.4320681 53:0.88008986 54:0.34357018 55:-0.17465161 56:1.1934911 57:-0.15635197 58:-0.68870274 59:-0.30119462 60:-0.230049 61:1.496838 62:-0.41524129 63:0.17706272 64:-0.48352268 65:0.9600142 66:-0.56249691 67:-0.41412414 68:-0.57473478 69:-1.1894228 70:-0.47991224 
-0 0 0.01 0 0 1:-0.7885161 2:-0.93222699 3:0.41022096 4:-1.1376507 5:-1.1891178 6:-0.55445529 7:-0.17077866 8:-0.74999763 9:-1.1442469 10:0.76460135 11:-0.82853938 12:-1.2429822 13:-1.4856921 14:-2.0035783 15:-2.0142726 16:-0.38949473 17:0.10017134 18:-0.41896306 19:1.6871645 20:1.9605527 21:2.7012078 22:0.02478654 23:-0.42564223 24:-0.77977354 25:-0.57725544 26:0.16470655 27:1.4898511 28:-0.84688174 29:-1.2302924 30:2.1734112 31:0.49049403 32:-0.60988634 33:0.81616156 34:-0.74766031 35:-1.0050372 36:-0.8384092 37:-0.35423568 38:-0.93887022 39:-0.067656832 40:-0.63169831 41:0.18948428 42:-0.92707276 43:-0.61435855 44:-0.77885718 45:-1.0007554 46:-0.68837503 47:-0.58998168 48:-0.027921968 49:-0.27025949 50:-0.53144123 51:0.74038609 52:0.30678144 53:0.78268874 54:0.24712253 55:0.68182245 56:0.12913917 57:-0.54375782 58:-0.5995631 59:-0.68530746 60:-0.20203887 61:1.6353319 62:-0.95034696 63:-1.3383965 64:1.9859345 65:0.58509592 66:-0.97180313 67:0.66863144 68:-0.74668999 69:-0.58996655 70:-0.18178709 
-0.005045835737913792 0 0.01 0 0 1:-1.4489724 2:-0.50355016 3:0.55157928 4:-1.5475175 5:-0.9048861 6:-1.7002361 7:-0.74762222 8:-1.5294881 9:-0.33763795 10:1.9888774 11:0.11771387 12:-1.5345911 13:-2.0262768 14:-2.0651665 15:-1.6064671 16:-0.15100184 17:-0.13636808 18:-0.86332253 19:-0.011874548 20:1.6865992 21:2.1369759 22:0.91608101 23:-0.62898171 24:-0.093522189 25:0.47729048 26:2.4651986 27:3.3775387 28:-0.92302372 29:-1.5003246 30:1.2952569 31:0.96502625 32:-1.0027001 33:-0.014389692 34:0.35028337 35:-1.5467543 36:-0.5327516 37:-0.57602062 38:-0.98329606 39:0.57402337 40:-1.5311112 41:-0.27236784 42:-1.6024926 43:-0.79053816 44:-1.0694417 45:-0.84490027 46:-0.76381198 47:-0.48338223 48:-0.16050847 49:-0.19233151 50:-0.096845319 51:0.45636191 52:-0.019633372 53:0.70370721 54:-0.065146075 55:0.84783672 56:-0.088965639 57:-0.92605292 58:-0.72548517 59:-0.4047218 60:0.65180761 61:2.5058063 62:-1.0652793 63:-1.6236046 64:1.7455172 65:0.25007133 66:-1.2659394 67:-0.39282275 68:-0.62161917 69:-0.92299782 70:-0.93599202 
-0.01 0 0.01 0 0 1:1.7233354 2:-0.85348102 3:1.2063516 4:0.88835 5:-0.24839979 6:1.7340588 7:-0.39793714 8:1.6605999 9:-0.38677153 10:-1.4101403 11:-0.57482861 12:-2.1907711 13:-1.0016271 14:-1.2719144 15:0.59079231 16:2.2454157 17:-0.2382466 18:0.068435155 19:-0.31601658 20:0.34159834 21:2.0468631 22:-0.57161665 23:3.443078 24:-1.1730663 25:0.69930052 26:-1.2526234 27:1.1789943 28:-1.0274943 29:1.8046116 30:-0.79466582 31:-1.2479483 32:-1.1640313 33:0.41488512 34:-0.98517276 35:0.76000467 36:-0.68994221 37:-0.95140267 38:-0.59126157 39:-1.3439381 40:0.15514649 41:-0.48920142 42:0.073139019 43:-0.92342983 44:-0.31330626 45:-0.47377947 46:0.45677052 47:0.4579069 48:0.85921443 49:2.0360856 50:2.9189629 51:3.6479404 52:2.5309843 53:2.7083896 54:2.6639726 55:1.5680477 56:-0.35299885 57:5.0294494 58:-0.90290703 59:1.2753012 60:-0.74164134 61:1.6670461 62:-0.93928423 63:2.4313231 64:-0.71818218 65:-1.033946 66:-0.93027263 67:1.0443963 68:-0.48565302 69:-0.16178348 70:-0.22614162 
-0 0.00292765667635196 0 0 0.006061820944035106 1:-0.43583762 2:-0.61765807 3:1.3121412 4:-1.2513685 5:-1.4313925 6:-0.25268339 7:-1.3815158 8:-0.42250349 9:-0.17231734 10:1.0087486 11:-1.1098555 12:0.18790072 13:-0.54484476 14:-0.28030587 15:-0.26660183 16:-0.5603229 17:-1.2448448 18:1.0199712 19:0.31300607 20:-1.0126288 21:-0.76573814 22:0.75715052 23:2.1766668 24:-0.0057449494 25:-0.43755256 26:-0.61490223 27:0.54377374 28:-0.45315989 29:-0.40661785 30:-0.14444931 31:-0.26225904 32:-0.30706546 33:0.34475213 34:-0.60017387 35:-1.2609126 36:-0.87422932 37:-1.5067218 38:-1.2636396 39:0.11582004 40:-1.4043394 41:-1.1079893 42:-1.084389 43:-1.5265683 44:-1.4560645 45:-1.3001123 46:-1.2905838 47:-0.84976317 48:-0.98858217 49:-0.84844352 50:-0.47189103 51:0.50674586 52:0.45306699 53:0.17298091 54:-0.67204777 55:-0.15774706 56:-0.094283678 57:1.1580029 58:-0.74670237 59:-0.77265183 60:-1.0647539 61:-0.40617312 62:-0.92547712 63:-0.94970819 64:-0.92952257 65:-0.89400409 66:-0.86073537 67:-0.16419036 68:-1.2106815 69:-0.16178348 70:-0.96349852 
-0 0 0.01 0 0 1:-1.3095951 2:-0.70249509 3:0.51120711 4:-1.748577 5:-1.6339577 6:-1.8823059 7:-0.45787651 8:-1.467636 9:-1.3666891 10:2.1353016 11:-1.9472703 12:-2.4507041 13:-2.3785271 14:-1.6378604 15:-1.2189546 16:-0.96611436 17:-0.39442251 18:-0.52290929 19:-0.50246349 20:-0.64020803 21:-1.3197374 22:-0.50908815 23:2.8902784 24:-1.3401069 25:3.8195558 26:-0.73618751 27:1.0316035 28:-0.9407607 29:-0.74193458 30:0.077750842 31:0.97735182 32:-0.22078364 33:6.7239138 34:0.28207077 35:-1.759495 36:-0.54729194 37:-0.33034686 38:-0.50684679 39:2.5143807 40:-1.7916386 41:0.6150325 42:-1.7384875 43:0.57819968 44:0.42531983 45:-0.42332563 46:-0.26775352 47:-0.20240643 48:-0.17355903 49:0.1415452 50:0.72087292 51:0.77881767 52:0.5228203 53:0.10348517 54:-0.58953069 55:0.12268768 56:-0.76647492 57:2.8138043 58:-1.3085389 59:3.4216503 60:-0.85672697 61:0.65863174 62:-1.0220699 63:-0.92404359 64:-0.16272099 65:1.3542535 66:-0.34536736 67:4.4475491 68:-0.69101171 69:0.40912728 70:-0.58381859 
-0 0 0.01 0 0 1:-1.3792463 2:-1.0288381 3:0.45367935 4:-1.9421908 5:-1.7526789 6:-2.1404694 7:0.2410434 8:-1.5086263 9:-2.6258157 10:2.4467706 11:-1.6880757 12:-1.9528714 13:-1.4650667 14:0.020766787 15:1.135183 16:0.4665758 17:-0.42750747 18:0.38690778 19:1.2383539 20:1.5163653 21:-0.042078274 22:-0.58546645 23:5.0671243 24:-1.2715224 25:0.36506082 26:-0.30332211 27:0.96277045 28:-0.34139368 29:1.2168877 30:1.534832 31:0.80397943 32:-1.0458917 33:-0.59956636 34:0.18127719 35:-1.7790163 36:-0.74756335 37:0.064896031 38:-0.48652465 39:2.5772737 40:-2.1433708 41:1.5319426 42:-1.7892785 43:0.89179382 44:1.0951485 45:0.098181563 46:0.28753254 47:-0.011816665 48:0.39016544 49:0.024403266 50:0.77436094 51:-0.070747044 52:0.12272706 53:-0.0064837958 54:-0.92081625 55:-1.197141 56:-0.49758176 57:4.1615416 58:-1.2004913 59:1.0941994 60:-0.1524953 61:1.308573 62:-0.5350529 63:0.31937307 64:1.0128603 65:0.49348443 66:-1.1613986 67:-0.69720203 68:0.17596008 69:1.2084023 70:-1.0565135 
-0 0 0.01 0 0 1:-1.2943159 2:-0.97483139 3:0.60397399 4:-1.9681385 5:-2.0254698 6:-1.837406 7:-0.037329692 8:-1.4408656 9:-1.7574347 10:2.5260324 11:-1.8699087 12:-1.2177308 13:-1.9863405 14:-1.0578399 15:-0.34378614 16:0.07943068 17:0.85772992 18:0.10125319 19:0.20187849 20:-0.84992051 21:-1.2018804 22:5.2091938 23:1.2674525 24:-0.98900464 25:-0.061535423 26:-1.3615695 27:1.1340962 28:-0.69079074 29:-0.38375897 30:0.026206049 31:0.96401581 32:-0.99111427 33:0.61565493 34:-0.052492136 35:-1.6784834 36:-0.82194793 37:-0.51808871 38:-0.70649679 39:2.464981 40:-1.7724722 41:0.77296039 42:-1.7096873 43:0.025996302 44:0.31454165 45:-0.30013168 46:0.33085808 47:0.51521784 48:0.51204366 49:0.83413876 50:1.3727233 51:1.0442054 52:1.0379014 53:0.70903314 54:0.2237678 55:-0.21195819 56:3.3159979 57:1.4726725 58:-0.94985122 59:-0.071014542 60:-1.1284483 61:0.99504035 62:-0.58772825 63:-0.0030649897 64:-0.2219133 65:1.6646088 66:-0.95178747 67:0.46693622 68:-0.24849462 69:-0.16178348 70:-0.99648162 
-0 0 0.003988983779486549 0 0 1:-1.5398856 2:-1.0416946 3:0.54372673 4:-2.0107646 5:-1.8079862 6:-2.0333193 7:-0.6353691 8:-1.5523047 9:-2.0667032 10:2.8012409 11:-1.2068295 12:-0.78762103 13:-2.1802032 14:-2.0169785 15:-0.72419472 16:-0.8937779 17:-1.4170335 18:-0.45518106 19:0.60541829 20:-0.22708177 21:-1.0424215 22:0.68755097 23:0.15607489 24:-1.1595717 25:3.6875379 26:0.77283056 27:0.62604946 28:-1.023634 29:-1.0799006 30:1.9588865 31:2.6227059 32:-0.98931186 33:0.085063944 34:-0.26309755 35:-1.8441061 36:-0.88651003 37:-0.6366708 38:-0.52831456 39:2.802923 40:-2.0794373 41:0.027558021 42:-1.7407133 43:0.25988311 44:0.62475417 45:-0.35845258 46:0.038396358 47:-0.45496946 48:-0.23891427 49:-0.40539884 50:0.11288735 51:0.030124092 52:-0.13086303 53:-0.10434539 54:-0.88716891 55:-0.24327017 56:0.53530121 57:0.06710821 58:-1.1885608 59:2.6334898 60:0.38141334 61:0.77078942 62:-1.0925656 63:-1.1518139 64:1.43102 65:1.4995066 66:-1.2132429 67:-0.055263641 68:-0.821708 69:2.4073149 70:-0.98566882 
-0.007214070668916631 0 0.002052094221777909 0 0 1:-0.49609607 2:-0.93259833 3:0.82253913 4:-0.78626213 5:-1.0473072 6:-0.22428574 7:-0.46626326 8:-0.55300122 9:-0.55439826 10:0.22730998 11:-0.85454886 12:-0.63491722 13:-1.0619928 14:-1.1423946 15:-1.7759966 16:-0.79257779 17:-0.92296864 18:-0.68423454 19:0.12596875 20:0.50481548 21:-0.070108174 22:0.39083307 23:2.5358889 24:-0.41371898 25:-0.27072057 26:-1.0195705 27:2.1640732 28:-0.46957492 29:-0.01368756 30:0.44262888 31:0.48314792 32:-1.0082402 33:-0.29426513 34:-0.53225611 35:-0.97286837 36:-0.83307399 37:-1.0056888 38:-1.0640241 39:-0.37838934 40:-0.79538014 41:-0.77515668 42:-1.0983607 43:-0.2993598 44:-0.66155124 45:-1.2812939 46:-1.1004633 47:-1.1321663 48:-0.95396374 49:-1.0978655 50:-0.60196266 51:-0.12532762 52:-0.54827429 53:-0.28504566 54:-0.11254072 55:0.13787466 56:-0.01188467 57:2.2898618 58:-0.5468535 59:-0.4176112 60:-1.2791032 61:1.7615794 62:-0.55444278 63:-0.39407036 64:0.25499666 65:0.38668475 66:-1.0959504 67:-0.47569269 68:-0.65148911 69:-0.58996655 70:-0.57701677 
-0.01 0.01 0.006744041265082127 0 0.01 1:-0.1650588 2:-0.64624907 3:1.1725485 4:-0.49904675 5:-0.55117078 6:-0.092906126 7:-1.0507104 8:-0.11827776 9:-0.3311984 10:0.26598908 11:0.43763037 12:-0.5247388 13:-0.9555044 14:-1.914936 15:-2.1979948 16:-0.81709726 17:-2.1816557 18:-0.13559739 19:-0.79881627 20:-1.4588403 21:-0.21071842 22:0.5465737 23:-0.52575567 24:-0.88293448 25:4.1602607 26:-0.17969865 27:-0.28358494 28:-0.5663164 29:-0.35554025 30:1.0217963 31:0.92035055 32:1.1423369 33:-0.36887811 34:0.022447305 35:-0.57912276 36:-0.70336383 37:-1.354326 38:-1.0559702 39:-0.80702476 40:-0.63484261 41:-1.0170299 42:-0.61784071 43:-1.2743919 44:-1.1667466 45:-1.3289907 46:-1.1297642 47:-1.2156703 48:-0.97435043 49:-0.61988841 50:-0.81576845 51:-0.46710177 52:-0.38666528 53:-0.073067215 54:0.12165846 55:-0.53213066 56:-0.10241321 57:-0.64015053 58:-1.0227638 59:2.2540087 60:-0.84456322 61:-0.51260971 62:-0.50037319 63:-0.65079139 64:0.6235715 65:0.39911145 66:-0.085836681 67:-0.65127117 68:-0.56800271 69:-0.58996655 70:-0.55202927 
-0 0 0.001416748794749563 0 0 1:-0.31369946 2:-0.95169113 3:1.0894437 4:-0.62373716 5:-0.85615563 6:-0.43079009 7:-0.76739846 8:-0.41732005 9:-0.82199873 10:0.23259531 11:-0.37865499 12:-3.0491153 13:-1.8026341 14:-0.57538612 15:-0.56151559 16:-1.0043451 17:-2.3109425 18:-0.63421643 19:-0.055886141 20:-0.094824112 21:0.39497844 22:1.2845728 23:0.85605635 24:-1.0619722 25:1.4070174 26:0.98410397 27:-0.083147448 28:-0.77759076 29:-0.26769466 30:-0.25269494 31:-0.78042079 32:-1.1635001 33:5.2437159 34:-0.63941427 35:-0.88190764 36:-0.88840853 37:-1.2826365 38:-1.1431295 39:-0.83061367 40:-0.72883155 41:-0.69039961 42:-0.5716185 43:-1.1076993 44:-1.1558627 45:-1.3181889 46:-1.0631854 47:-1.1069196 48:-1.1675153 49:-0.84668219 50:-0.19729635 51:-0.10630134 52:-0.016427892 53:-0.41429157 54:-0.98038873 55:-0.88391863 56:0.41471357 57:0.83977255 58:-1.2051856 59:0.69698292 60:0.10361009 61:-0.60444408 62:-0.89930732 63:-0.63082795 64:-0.64062155 65:-1.1109321 66:-1.4318937 67:2.9742458 68:-0.99146827 69:-0.16178348 70:-0.94533849 
-0 0 0.01 0 0 1:-0.30108654 2:-1.1182454 3:0.92512591 4:-0.80124658 5:-1.3512863 6:-0.28399843 7:-0.33177395 8:-0.50898075 9:-2.3422568 10:-0.18287443 11:-1.5079558 12:-0.69137154 13:-1.1549881 14:-0.98576944 15:-0.95909897 16:-0.51978465 17:-1.0339501 18:0.13153682 19:0.71263147 20:0.83042598 21:1.5562974 22:0.23966959 23:-0.5128893 24:-1.1326338 25:0.17579932 26:0.28154557 27:-0.22132216 28:-0.66297471 29:0.4186646 30:1.2083606 31:-0.80782448 32:-1.0265446 33:2.2673749 34:-0.93359488 35:-0.93047703 36:-0.96440706 37:-0.91427704 38:-0.86175233 39:0.10330175 40:-0.56581861 41:-0.54903371 42:-0.99019809 43:0.19019796 44:-0.0040542293 45:-0.43733033 46:0.044182818 47:-0.093922973 48:0.18756616 49:0.83850295 50:0.92529695 51:1.0939014 52:1.2915389 53:1.0660135 54:0.35028737 55:0.17268898 56:0.17541497 57:-0.52888736 58:-1.0855637 59:0.040260843 60:0.21153419 61:-0.49066453 62:-0.75989797 63:0.14314802 64:1.2372129 65:-0.94572761 66:-1.1177534 67:2.0267275 68:-0.76207356 69:-0.92299782 70:-0.46503597 
-0.01 0 0.01 0.005007800329319794 0 1:-0.47356254 2:-1.0529835 3:0.71728236 4:-0.93226093 5:-1.1165452 6:-0.24560973 7:0.13610829 8:-0.50060173 9:-2.1930693 10:0.19405595 11:-0.60589862 12:-0.51574987 13:-0.2352761 14:1.0102152 15:1.5028199 16:2.0841735 17:-0.66932706 18:-1.1651144 19:0.60412008 20:0.25728602 21:0.64298104 22:-0.16813821 23:1.0048357 24:0.048139386 25:0.78009084 26:0.79779379 27:0.9313027 28:-0.39143362 29:-0.70773634 30:-1.0464273 31:-0.54821441 32:-0.8264787 33:0.14798733 34:0.016852386 35:-0.45689852 36:-0.89060669 37:-0.56880963 38:-0.50551571 39:0.16009031 40:-0.21122256 41:0.18943144 42:-0.59537324 43:0.38961192 44:0.59298166 45:-0.2846559 46:0.27439304 47:0.19993172 48:0.62427733 49:0.92260221 50:1.4849766 51:1.729212 52:1.6191803 53:1.5913859 54:1.5399748 55:0.30566247 56:-0.13303487 57:1.8746103 58:0.20686487 59:1.214624 60:1.2002694 61:0.47907612 62:-0.30813285 63:-0.73962883 64:-1.0600669 65:-0.34385525 66:-0.81957539 67:0.2184374 68:-0.14617602 69:0.40912728 70:-1.0367826 
-0.0002462261556809445 0 0.01 0 0 1:-1.5862365 2:-0.81641079 3:0.46112321 4:-1.9220677 5:-1.6807278 6:-2.0009334 7:-0.7284703 8:-1.5668893 9:-1.7753611 10:2.4461503 11:-1.232998 12:-1.4177229 13:-2.6942325 14:-3.2426394 15:-2.0025667 16:-1.5650761 17:-2.1832903 18:-0.98820602 19:1.3746466 20:0.85688228 21:-0.10871399 22:2.3392349 23:-0.23801117 24:-1.2678296 25:1.3542914 26:0.63556532 27:1.1488675 28:-0.59116035 29:-0.76295042 30:7.6335006 31:-0.65332216 32:-1.2708782 33:0.66157614 34:-0.095211417 35:-1.8746897 36:-0.73255889 37:-0.87218886 38:-0.5814652 39:2.5241426 40:-2.1814462 41:0.037612812 42:-1.7701775 43:-0.218619 44:0.035307912 45:-0.91214012 46:-0.89003665 47:-1.1012115 48:-0.88316262 49:-0.88192708 50:-1.0524431 51:-1.0644092 52:-0.92577085 53:-0.46981645 54:-0.68590825 55:-1.0025753 56:1.3921018 57:-0.35196503 58:-1.3877056 59:0.87496378 60:0.7040504 61:0.48743187 62:-0.85584484 63:-0.89997422 64:4.4378226 65:-1.3584859 66:-1.6755236 67:-0.050488705 68:-0.91758633 69:1.2084023 70:-0.650202 
-0.01 0.01 0.01 0.009647197013155136 0.01 1:-1.9215404 2:-1.1060636 3:-0.69255531 4:-2.0605063 5:-1.3604325 6:-1.9588436 7:1.0572456 8:-1.7225573 9:-3.0547088 10:1.9497817 11:-0.022925289 12:0.32126816 13:-0.053206158 14:-0.13047577 15:-0.063336494 16:1.4411513 17:0.52314868 18:0.495804 19:0.8738863 20:0.52750689 21:1.532679 22:-0.34447039 23:-0.69417438 24:0.86454461 25:-0.10932597 26:0.6046671 27:-0.83403935 28:1.3603566 29:-1.3163408 30:-0.83438959 31:-1.0795102 32:2.098263 33:0.23581965 34:1.8235438 35:-1.3085137 36:-0.8862294 37:-0.06679833 38:-0.65504742 39:1.4636297 40:-1.4950673 41:0.58077308 42:-1.3567302 43:0.83912291 44:-0.61482337 45:-1.1990831 46:-0.82449108 47:-0.66225212 48:-0.90513493 49:-0.42118674 50:-0.64041088 51:-0.43171388 52:-0.52041968 53:-0.60429268 54:-1.4698314 55:-1.5176541 56:-0.33998536 57:-0.60535995 58:0.80079735 59:0.02181378 60:0.95110787 61:-0.87001527 62:1.1872572 63:-1.3499757 64:-0.68755543 65:-1.1077282 66:1.5476726 67:0.30170331 68:0.94044037 69:-0.16178348 70:-0.63715554 
-0.01 0.002384799295540757 0.01 0.01 0.006771942008172069 1:0.7314057 2:-1.0643484 3:1.1867044 4:-0.67176844 5:-1.5621274 6:0.49103108 7:-0.42427254 8:0.34047951 9:-1.5304334 10:-0.67841979 11:-0.72981275 12:1.2671976 13:-1.2764669 14:-0.53536269 15:-1.1960905 16:0.072894656 17:-1.7213606 18:0.011495821 19:-1.6890193 20:0.37577429 21:0.51664977 22:-0.59635231 23:-0.24826828 24:-0.58819113 25:1.0505829 26:-0.89347497 27:-0.053188838 28:-0.53889115 29:1.0655836 30:-0.3524518 31:0.5709619 32:-0.12017585 33:-0.030812498 34:-0.64117464 35:-0.31795995 36:-0.94740152 37:-1.0030814 38:-0.78683673 39:0.40530751 40:-0.93362981 41:-0.079199002 42:-0.84891736 43:-0.45655385 44:-0.51091926 45:-0.14451477 46:0.76896025 47:0.77415602 48:0.87728204 49:0.95692859 50:0.93780127 51:0.53346553 52:0.46799764 53:0.23263732 54:1.41712 55:1.0483428 56:-0.69979971 57:-0.36466165 58:-0.59072513 59:0.65858373 60:-0.91324705 61:0.012471163 62:-0.61611481 63:0.92333929 64:-0.5465359 65:0.76359774 66:-0.34151812 67:-0.26662458 68:-0.77608821 69:-0.58996655 70:-0.56100872 
-0.01 0.01 0.01 0.0008494164439977667 0.01 1:-0.24585938 2:-0.60119626 3:1.2241092 4:-0.60820397 5:-0.90361028 6:0.27610721 7:-1.0197843 8:-0.2808441 9:0.34370717 10:0.06039545 11:-0.87874255 12:0.11048647 13:-0.51048226 14:0.082117998 15:0.02566847 16:0.28990177 17:0.75246193 18:0.49433263 19:0.38973414 20:-0.85483551 21:0.1532359 22:0.53417507 23:1.1466476 24:-0.75450796 25:-0.046095315 26:0.9516077 27:-0.58405363 28:-0.64814027 29:0.20218503 30:-0.18705751 31:-0.15538991 32:-0.93939507 33:1.7595525 34:-1.1471478 35:-1.0523132 36:-0.68317917 37:-1.3080675 38:-1.3157721 39:-1.012128 40:-0.99359232 41:-0.96576911 42:-1.1124164 43:-1.004357 44:-1.4340494 45:-1.6215776 46:-1.7631138 47:-1.5757249 48:-1.8921182 49:-1.7640837 50:-1.6938236 51:-1.6829464 52:-1.4236853 53:-1.5174636 54:-1.8893152 55:-1.3860189 56:-0.24809858 57:0.79630158 58:-0.91073621 59:-0.44778303 60:0.095868488 61:-1.0240853 62:-0.89703527 63:-0.43018136 64:-0.60842506 65:-0.78590077 66:-1.4257957 67:1.1655289 68:-1.3122121 69:0.40912728 70:-0.90325281 
-0.01 0 0.01 0.001672304045169791 0 1:-0.22269202 2:-0.92511371 3:0.3496268 4:-0.62420973 5:-1.0896932 6:-0.065786966 7:0.74432059 8:-0.44372205 9:-0.75004058 10:-0.24132917 11:-1.4237285 12:0.90401561 13:0.57578859 14:1.1883505 15:-0.47710387 16:-0.3252231 17:-0.43627387 18:-0.267413 19:-0.32340333 20:-0.66910257 21:-0.65218857 22:-0.066065732 23:-0.39390507 24:-1.225192 25:0.90164147 26:-0.22785901 27:0.31093018 28:-1.0362607 29:0.20443851 30:-0.036061609 31:1.9414215 32:-0.49914871 33:-0.066663619 34:-0.73292376 35:-0.95827413 36:-0.74387071 37:-0.19012291 38:-1.0775289 39:-0.16132174 40:-0.61790269 41:0.791712 42:-0.99277519 43:-0.44923435 44:-0.62469385 45:-0.46031455 46:0.16242051 47:-0.24711095 48:0.76529261 49:1.5403342 50:2.507823 51:1.9752545 52:2.3458626 53:1.8231212 54:-0.0035270413 55:-0.28203165 56:0.71201372 57:-0.28483119 58:-1.0532369 59:1.1879964 60:0.21482476 61:0.65795619 62:-1.0469392 63:0.55458325 64:0.75008958 65:3.7776713 66:-0.050329501 67:0.14148822 68:-0.31023438 69:1.2084023 70:0.44197492 
-0.006311255680677485 0 0.01 0 0.0003632035154718528 1:-0.039983559 2:-1.0075514 3:0.74657301 4:-0.80199154 5:-1.1311688 6:0.048638191 7:-0.12050688 8:-0.35189015 9:-1.4166836 10:0.32027416 11:-0.42552027 12:1.9443009 13:-1.2545995 14:-0.072971605 15:0.028011085 16:0.17704797 17:0.46906707 18:-1.4686534 19:-1.1415389 20:-1.1194662 21:-1.2922407 22:0.35770226 23:2.0238777 24:-0.41727094 25:-1.0710737 26:-0.39361947 27:0.14672761 28:-0.9184749 29:0.69581476 30:0.14919334 31:0.49843481 32:-0.53179532 33:0.14080258 34:-0.80355514 35:-0.88960774 36:-0.92989179 37:-1.1023981 38:-1.0110421 39:-0.024803614 40:-1.0539837 41:-0.24808364 42:-1.2532483 43:-0.92553403 44:-0.46683373 45:-0.51456081 46:-0.31006179 47:0.035393044 48:-0.16726098 49:0.51935617 50:0.74364528 51:1.511949 52:0.94630462 53:0.52207411 54:-0.14515784 55:0.021336731 56:0.18353619 57:1.3820946 58:-0.48007479 59:-1.2713251 60:-0.43663982 61:0.098971314 62:-1.0200637 63:0.48107839 64:-0.0037548456 65:0.18017271 66:-0.67655628 67:0.1133965 68:-0.94882616 69:1.2084023 70:-0.53377076 
-0.009808913982017461 0 0.01 0 0 1:-0.99420738 2:-0.78764871 3:0.56886445 4:-1.6902158 5:-2.0803396 6:-1.2635099 7:0.41556421 8:-1.2184546 9:-1.2246453 10:1.5296035 11:-2.2303278 12:-0.69348853 13:-2.0688912 14:-1.1859101 15:-1.7162985 16:-0.88703054 17:1.0776018 18:0.25943602 19:-0.78375948 20:0.48443065 21:-2.0176127 22:4.4169646 23:-0.19703958 24:-1.4344967 25:-0.74554772 26:-0.81174237 27:2.1144427 28:-0.86443835 29:-0.069537071 30:0.66943757 31:-0.10375988 32:-1.222962 33:1.7249112 34:-0.34299868 35:-1.5371728 36:-0.72205863 37:-0.62390097 38:-0.87119147 39:1.8113971 40:-1.3030876 41:1.0633637 42:-1.5319819 43:-0.035318921 44:-0.17898804 45:-0.3657013 46:0.59915372 47:0.82222658 48:1.9126531 49:1.6968465 50:2.1140409 51:2.6833191 52:2.0039582 53:1.0327604 54:0.19933426 55:1.0370333 56:3.2435567 57:-0.070202987 58:-1.3871579 59:-0.76302562 60:-0.24652013 61:1.9910911 62:-0.66073218 63:-0.088261298 64:1.0490923 65:0.209945 66:-1.0607889 67:2.446253 68:-0.35847064 69:-0.16178348 70:-0.71885287 
-0.01 0.01 0.01 0.004717296060961974 0.01 1:-0.97694965 2:-0.66960013 3:0.33973743 4:-1.2860664 5:-1.306961 6:-0.99404741 7:-0.20408553 8:-1.0199983 9:-1.0818106 10:1.2761169 11:-0.54181088 12:-0.46395569 13:-0.067555483 14:-0.1431869 15:0.29011372 16:-1.2268541 17:-0.39366986 18:1.1712363 19:-0.090145205 20:-0.70324908 21:-1.6952658 22:-0.47932717 23:1.3106588 24:-0.75022447 25:-0.52238507 26:-1.0980827 27:0.60768375 28:-0.087358369 29:0.63753046 30:1.3871503 31:2.3862953 32:-1.0420099 33:0.1455244 34:-0.87478491 35:-1.4239761 36:-0.79623504 37:-0.99311432 38:-0.98776147 39:0.37315268 40:-1.5294198 41:-0.45137245 42:-1.391385 43:-0.84788875 44:-1.0778654 45:-1.4796687 46:-1.634121 47:-1.555209 48:-1.6105921 49:-1.673095 50:-1.7441081 51:-1.5884295 52:-1.4660684 53:-1.7623548 54:-1.9752442 55:-1.6801735 56:-0.95748688 57:0.89912443 58:-0.87141622 59:-1.008812 60:-1.3973145 61:0.010254105 62:-0.58213892 63:-0.071282451 64:1.0034611 65:1.4534413 66:-1.239246 67:-0.064352434 68:-1.1951583 69:-0.92299782 70:-0.69642941 
-0 0 0.01 0.004213031577782901 0.01 1:-0.33941664 2:-0.97065696 3:1.1317849 4:-0.75192761 5:-1.0295056 6:-0.024410123 7:-0.60035161 8:-0.35304118 9:-0.8358441 10:0.27246376 11:-0.7001604 12:-0.47891202 13:-0.71483207 14:-0.3125564 15:0.52117285 16:0.37841834 17:-0.44850324 18:0.37079412 19:0.65246768 20:0.84554519 21:1.3556925 22:-0.88553477 23:0.97200774 24:-0.76714593 25:0.053474153 26:1.921834 27:0.041248696 28:-0.81330741 29:0.055344368 30:0.44032153 31:0.32340979 32:-0.63870378 33:0.45048286 34:-0.87762197 35:-0.87281836 36:-0.83233662 37:-1.2650303 38:-1.0234033 39:-0.43424432 40:-0.73879261 41:-0.62672777 42:-0.89478101 43:-0.45579296 44:-0.78352351 45:-1.1006461 46:-0.60016188 47:-0.6171858 48:-0.28507349 49:0.020003288 50:-0.010966899 51:0.087100527 52:0.10147495 53:-0.12382906 54:-0.45126302 55:-0.45381827 56:-1.1740159 57:1.0519788 58:-0.73379428 59:-0.16954356 60:1.4322819 61:-0.1926982 62:-0.89322074 63:-0.13265472 64:0.22977027 65:0.22507175 66:-0.88819379 67:0.44969262 68:-0.94566691 69:0.40912728 70:-0.58940783 
-0.0004208145666218766 0.007171652927633884 0.01 0 0.0006878948915758317 1:0.42921057 2:-1.0115985 3:0.5840387 4:-0.94212732 5:-1.6949475 6:-0.26276262 7:0.4029978 8:-0.00084610646 9:-1.42911 10:0.62969159 11:-0.65926234 12:-0.31757334 13:-1.8203335 14:-0.11538437 15:1.5010027 16:-1.7004483 17:0.56188624 18:-0.89393617 19:-1.7205609 20:0.38107581 21:0.75563534 22:-0.59395446 23:1.0665152 24:-1.0295735 25:0.042891711 26:0.70590822 27:0.025755089 28:-0.57288722 29:-1.0490798 30:-0.21601638 31:-0.34303704 32:-0.59713719 33:-1.0014881 34:-1.1386697 35:-0.29731687 36:-0.8801444 37:-0.93138508 38:-0.59799773 39:0.38924037 40:-0.72430865 41:0.63191146 42:-0.81957002 43:-0.64875556 44:0.2395241 45:-0.64728604 46:-0.75754627 47:-0.82515234 48:-0.19330658 49:0.45748534 50:0.41716211 51:-0.22338702 52:0.58800557 53:-0.43266592 54:-0.84502398 55:-0.96431532 56:-0.74726477 57:1.130313 58:-1.00732 59:-0.14370248 60:0.28038611 61:-0.085128773 62:-0.66579242 63:-1.0638884 64:-0.45551662 65:-0.44878691 66:-0.69148708 67:-1.2037769 68:-0.97325208 69:1.2084023 70:-0.77426166 
-0.0096207642119238 -0 0 0.01 0.001491753146077695 1:0.41211505 2:0.16781164 3:-3.4418864 4:0.53916798 5:0.86822306 6:0.29309187 7:0.84100508 8:0.15831202 9:0.84396691 10:-0.78724258 11:0.16907832 12:0.85979041 13:0.80693161 14:1.0408934 15:0.77927287 16:0.66919605 17:0.84362345 18:0.79754669 19:0.66393545 20:0.7918983 21:0.93029592 22:-1.2130365 23:-0.79600259 24:1.1786881 25:-1.131799 26:-0.55417032 27:0.017059108 28:0.18019807 29:-0.48143901 30:-0.8516086 31:-0.37029117 32:1.4012877 33:-0.72890379 34:0.28996439 35:1.1403748 36:0.14499452 37:2.7711718 38:-0.048381073 39:-0.38934152 40:0.54320396 41:0.7766187 42:0.48833018 43:-0.27591335 44:-0.31946336 45:0.083910848 46:0.6962598 47:0.57459 48:0.78908504 49:1.1587495 50:0.064990844 51:0.33249477 52:0.42360612 53:-0.45421539 54:0.67783574 55:-0.058086973 56:-1.4938463 57:-1.0227423 58:1.0084112 59:-1.2314547 60:-0.11931759 61:0.15135103 62:0.36911895 63:-0.71057097 64:-1.0009931 65:0.24789428 66:1.5840096 67:-0.86199153 68:0.44069467 69:-0.58996655 70:2.7460878 
-0 -0 0 0 0.01 1:0.1755165 2:0.082041335 3:0.82075171 4:0.96791293 5:1.1098156 6:0.44057331 7:-0.67587653 8:0.29889736 9:0.82121045 10:-1.0887256 11:0.5289185 12:1.570335 13:0.86064303 14:-0.014140942 15:0.25287349 16:0.39355758 17:-0.66425601 18:-1.7757415 19:-1.936493 20:-0.68918537 21:-0.28078888 22:-0.1858055 23:-0.49774601 24:-0.29897799 25:-0.29677406 26:2.0499884 27:-1.1898276 28:1.8908258 29:-0.83650718 30:-1.1321713 31:-0.81071667 32:0.3503029 33:-1.1596468 34:1.2519005 35:-0.067266802 36:-0.11561011 37:-0.72275181 38:-0.81729243 39:-1.6134955 40:-0.024297005 41:-0.42436989 42:0.22342001 43:-1.2757045 44:-0.87333742 45:-0.61443456 46:-1.0152838 47:-1.0945525 48:-1.2712425 49:-1.3433518 50:-1.3386567 51:-1.5489222 52:-1.5171676 53:-1.214288 54:-1.2572585 55:-1.1683696 56:-0.073523765 57:-0.77270596 58:-0.54616955 59:-0.43743974 60:1.4339054 61:-1.3316131 62:1.6928544 63:-1.1638026 64:-1.4850802 65:-0.79226574 66:0.43362427 67:-1.4348452 68:1.006436 69:-0.92299782 70:4.067784 
-0 -0 0 0.003061850468326923 0 1:-0.18521998 2:0.092388523 3:-1.4416146 4:1.2664729 5:2.3478797 6:-0.30576563 7:1.2877577 8:0.13491089 9:-0.41755416 10:-0.325651 11:1.928402 12:1.5139271 13:0.77411746 14:-0.61154664 15:-0.3434524 16:0.61659802 17:0.76506923 18:1.1271373 19:1.8334348 20:1.4229695 21:0.82357117 22:-0.62297593 23:-0.78576641 24:0.64467595 25:-1.2684903 26:-0.76493903 27:-1.4659796 28:1.127891 29:-0.75026801 30:4.3176466 31:1.1732283 32:0.85990826 33:-1.3583525 34:0.99217833 35:0.94747891 36:0.74287046 37:0.99701857 38:1.1983356 39:-0.82427864 40:0.76912399 41:1.4526146 42:1.6880379 43:0.015630692 44:-0.035616606 45:0.28870158 46:-0.79966197 47:-0.81208743 48:-0.51198229 49:-0.92566554 50:-0.99650732 51:-0.58310791 52:-0.94149203 53:-1.1594681 54:-0.5937152 55:-1.5323128 56:0.01035321 57:-0.91078927 58:0.79642596 59:-1.1284238 60:-0.57695157 61:-1.5183591 62:1.4214522 63:-1.0327207 64:3.8339387 65:2.0295367 66:0.84990222 67:-1.6079359 68:1.3313854 69:-0.92299782 70:1.8689602 
