svm_type c_svc
kernel_type linear
nr_class 3
total_sv 43
rho 0.361367 1.24713 0.100032
label 0 1 2
probA -2.00657 -2.33591 -2.5795
probB -0.00190475 0.0174808 -0.249493
nr_sv 16 11 16
SV
0 0.01816545182984085 1:0.062912361 2:-0.34016941 3:0.77982104 4:-0.19406092 5:-0.4494333 6:0.67768292 7:-1.0456945 8:0.028093734 9:0.82853684 10:-0.25856176 11:-0.29251988 12:0.41432441 13:-0.24860613 14:0.51875973 15:0.25420186 16:0.55359539 17:0.81051773 18:0.75244292 19:0.56757462 20:-0.88181201 21:-0.0082939523 22:-0.79146455 23:-0.50614789 24:-1.165497 25:-1.4556717 26:-1.0643308 27:-0.8070659 28:-1.1391555 29:-0.82674626 30:-1.0987947 31:-1.7094642 32:-1.7741761 33:-1.8963722 34:-1.6822075 35:-1.9989985 36:-1.7331602 37:-1.4209051 38:-1.3937558 39:-1.1076667 40:-0.81146096 41:-1.1533722 42:-0.33786509 
0.06972570245241649 0 1:-0.9312783 2:-0.40663841 3:-0.33675029 4:-0.94605499 5:-0.74714583 6:-0.89688332 7:0.64530353 8:-0.97084851 9:-0.67133331 10:1.1332125 11:0.016483997 12:-0.18047419 13:0.33655795 14:0.33420615 15:0.63093678 16:-0.90350877 17:0.032210102 18:1.6192224 19:-0.11191874 20:-0.9230461 21:-2.2502302 22:-1.2257037 23:-0.61395888 24:-0.43851761 25:-0.90828908 26:0.35492197 27:-1.3664621 28:-0.2192603 29:-1.1118317 30:-0.94603831 31:-1.3128676 32:-1.4951888 33:-1.6740967 34:-1.4269055 35:-1.2969115 36:-1.5008072 37:-1.559851 38:-1.3090963 39:-1.1136886 40:-1.1760566 41:-0.95347974 42:-0.89798566 
0.0470391970328719 0 1:0.34262515 2:-0.73534235 3:0.68911705 4:-0.31031101 5:-0.57316117 6:0.35100284 7:0.31881031 8:-0.081729341 9:-0.84288526 10:-0.045579598 11:0.1018994 12:2.1222987 13:-1.0382143 14:0.077131894 15:0.22060231 16:0.60131475 17:0.69335144 18:-1.3139395 19:-1.0835067 20:-0.95563867 21:-1.2827133 22:-0.65833832 23:-0.79581855 24:-0.76635371 25:-0.84034974 26:0.063907942 27:-0.8866728 28:-0.11236446 29:-1.0058844 30:-0.96852073 31:-0.42789037 32:-0.39807852 33:0.088781585 34:0.275034 35:0.15291854 36:0.30208268 37:0.78804213 38:1.4048865 39:1.2828082 40:0.71384564 41:0.21390955 42:0.55265361 
0 0.308032731139653 1:-0.50470527 2:-0.77063015 3:0.26438259 4:-1.0044577 5:-1.2742346 6:-0.49971188 7:0.29204766 8:-0.73162764 9:-0.92419842 10:0.2970436 11:-1.3384947 12:1.0324184 13:-0.70502668 14:0.27302311 15:0.87736187 16:1.5558729 17:0.36971248 18:0.52540073 19:0.3294039 20:0.48503729 21:-0.28381883 22:-0.966001 23:-0.75692638 24:-0.66505744 25:-0.80787104 26:0.7153984 27:-0.80816978 28:-0.11435132 29:-1.0963981 30:-0.46525944 31:-0.11829014 32:-0.3197159 33:0.40702497 34:0.44779183 35:0.066936949 36:0.17022193 37:0.25525177 38:0.26319401 39:0.30760207 40:0.36946927 41:0.12276085 42:0.40058389 
0.01638204117681923 0.1321870343502671 1:1.7604199 2:-0.74326443 3:1.6007913 4:1.2085366 5:0.29453336 6:1.6892331 7:-0.97987866 8:1.3462882 9:-0.59295744 10:-1.6845698 11:-1.2464 12:-2.0409938 13:1.1594756 14:0.71863255 15:-1.5643925 16:-1.3882195 17:-0.10304329 18:-0.45763844 19:-1.1648534 20:-0.42258496 21:0.20422538 22:0.22964216 23:-0.73244882 24:-1.059732 25:-0.60510198 26:-1.3337194 27:0.26710945 28:-0.7529971 29:0.15860121 30:-0.1824625 31:-0.0018808595 32:0.095432671 33:0.75384692 34:1.4078343 35:1.4735278 36:2.4426478 37:3.062523 38:2.54763 39:1.8504204 40:0.85868789 41:1.1875505 42:0.80533627 
0.02739903991568796 0 1:1.3906999 2:-0.79055894 3:1.2757462 4:-0.18219864 5:-1.0060461 6:0.94141111 7:-0.59476898 8:0.84770641 9:-1.0088681 10:-1.0731795 11:0.015395817 12:1.6653799 13:-0.86250233 14:0.17185856 15:-0.87920113 16:0.16202444 17:-1.5016675 18:0.12243086 19:-1.6220133 20:0.65377564 21:0.65367617 22:-0.11471706 23:-0.81861173 24:-1.0091097 25:-0.62964637 26:0.38776015 27:-0.8080666 28:-0.42686889 29:-0.6380523 30:-0.49547155 31:-0.38833026 32:0.20483453 33:1.0738622 34:1.3335268 35:1.5042604 36:1.1668151 37:0.98480692 38:0.41207237 39:0.58354258 40:0.25917243 41:1.8568142 42:2.1038841 
0.1524460092563234 0 1:0.17279913 2:-0.38398235 3:0.25583652 4:-0.085772555 5:-0.12049397 6:0.13272995 7:-1.2015486 8:0.23148973 9:0.21561373 10:-0.015467303 11:1.1385346 12:-0.30359741 13:-0.60564448 14:-1.7530612 15:-1.9609087 16:-0.72151488 17:-2.2576274 18:-0.15903632 19:-0.79228645 20:-1.2124608 21:0.55352976 22:-0.31705188 23:-0.55528414 24:-0.63525114 25:-1.044671 26:-0.89626454 27:-0.45629342 28:-1.2015561 29:-0.31561431 30:-1.298465 31:-1.4372347 32:-1.479341 33:-1.4665662 34:-1.1606154 35:-0.8392453 36:-0.62253942 37:-0.86621997 38:-0.39354592 39:-0.36344283 40:-0.13553868 41:-0.17954967 42:-0.3129177 
0.02562950937687656 0 1:0.91948077 2:-0.49523139 3:1.2851809 4:0.25646981 5:-0.69636307 6:1.3741486 7:-1.0924034 8:0.60092981 9:0.18551804 10:-1.2984385 11:-1.067806 12:-0.029302444 13:-1.4057978 14:-0.37011564 15:-0.062327104 16:-0.87482398 17:-0.89434484 18:0.050424274 19:0.84892788 20:-2.1973268 21:-2.6070795 22:-0.70508681 23:-0.58693472 24:-1.4155074 25:-1.1561308 26:-0.80174 27:-0.88788916 28:-1.0780213 29:-0.81011205 30:-0.52006437 31:-1.1502507 32:-1.1669202 33:-1.1232918 34:-1.2439117 35:-1.2710605 36:-0.7540343 37:-1.2246883 38:-0.62819159 39:-0.77530108 40:-0.76831512 41:-0.84216482 42:-0.3704173 
0 0.2765123644788763 1:-1.3831771 2:-0.43868061 3:0.55047109 4:-1.5377452 5:-1.2550981 6:-2.0010929 7:-0.55678334 8:-1.6036246 9:-0.84675182 10:1.9874747 11:-1.6382374 12:-2.1773787 13:-1.9075586 14:-1.3549779 15:-1.1375185 16:-1.2113346 17:-0.57588156 18:-0.66885327 19:-0.80617641 20:-0.82153994 21:-1.5544674 22:-1.7590022 23:-0.37961269 24:-0.48019601 25:-0.45176719 26:2.0304885 27:-1.8665082 28:0.2119559 29:-1.5727186 30:0.32673869 31:0.37955772 32:-0.35009628 33:-0.8078151 34:-0.45975239 35:-0.53144432 36:-0.36066684 37:0.44822562 38:0.49999141 39:0.063126673 40:-0.11169283 41:-1.1363587 42:-0.74621585 
0 0.2233622317845336 1:-0.2476339 2:-0.77952444 3:0.73156683 4:-0.56902004 5:-0.72363598 6:-0.011977552 7:-0.077365155 8:-0.29780137 9:-1.7369179 10:-0.25829805 11:-0.08363798 12:-0.080784426 13:0.042433961 14:1.6604735 15:1.6837598 16:2.3257307 17:-0.96119845 18:-1.2853201 19:0.48896712 20:-0.13532216 21:0.14705892 22:-0.20291993 23:-0.75995459 24:-0.49870068 25:-0.40780992 26:-0.040163325 27:0.082461288 28:-0.066184141 29:-0.3270148 30:0.35118935 31:0.69022112 32:0.030068614 33:0.76642167 34:0.68864515 35:1.049395 36:0.93252978 37:1.6588941 38:1.7535131 39:1.6125133 40:1.7197014 41:1.5032235 42:0.28456397 
0 0.2694700918567103 1:-1.7592469 2:-0.54946188 3:-0.32285967 4:-1.5732728 5:-0.9812487 6:-2.1074969 7:-0.23036022 8:-1.7156023 9:-1.1557972 10:2.2610116 11:-0.74840105 12:-1.4104972 13:-2.287756 14:-3.037634 15:-1.727798 16:-1.6924033 17:-2.1757874 18:-1.2859804 19:1.3677797 20:0.71062584 21:-0.40497293 22:-1.8601988 23:-0.58157414 24:-0.34857281 25:-0.14113744 26:2.3233104 27:-2.1365845 28:-0.16316114 29:-1.5794828 30:-0.29874486 31:0.23227614 32:-1.2326109 33:-1.5407044 34:-1.5706794 35:-1.8052119 36:-1.8570065 37:-2.0400126 38:-2.1426684 39:-1.6410647 40:-1.1960404 41:-1.8907889 42:-1.8027128 
0.06362784036852756 0 1:-2.2154593 2:-0.83114378 3:-2.0658656 4:-1.8010732 5:-0.63807744 6:-2.1123214 7:2.637338 8:-1.9459637 9:-2.6428758 10:1.7532087 11:0.67239646 12:0.70170629 13:0.52921872 14:0.32833601 15:0.12424769 16:1.4160831 17:0.33448862 18:0.46151246 19:0.77541015 20:0.23378909 21:1.2533768 22:-1.1759765 23:-0.75312439 24:0.73474842 25:-0.23770518 26:1.5006378 27:-1.4121008 28:1.4672366 29:-1.1678139 30:0.94427676 31:-0.6198178 32:-1.1593619 33:-0.85998997 34:-0.58959151 35:-0.67143712 36:-0.26150078 37:-0.43638847 38:-0.27298028 39:-0.45552831 40:-0.38306728 41:-0.89801519 42:-1.2463292 
0.1361296997575185 0.08955685114957182 1:1.6736644 2:-0.53438853 3:0.67746596 4:1.0795357 5:0.65383947 6:1.1971755 7:-0.50194387 8:1.6944118 9:0.097302022 10:-0.47088794 11:1.0226287 12:0.43845518 13:0.50992707 14:0.78187865 15:1.2166391 16:0.26546518 17:1.5490374 18:0.76913179 19:0.9611289 20:0.31523074 21:0.1972271 22:1.0962257 23:-0.61152798 24:-0.37666783 25:0.59403853 26:-1.0013644 27:0.39285357 28:-0.73735477 29:0.58170088 30:-1.1580425 31:-0.97981546 32:-1.4382254 33:-1.3207184 34:-1.1910029 35:-1.1812956 36:-0.37553852 37:-0.055875116 38:0.15381404 39:0.15079156 40:0.16448846 41:-0.24124946 42:-0.17365579 
0 0.0654471388387057 1:0.24410308 2:-0.1173979 3:1.0352536 4:-0.029586454 5:-0.31147374 6:0.72652406 7:-1.1144158 8:0.17882355 9:1.0884014 10:-0.20561359 11:-0.27409559 12:0.37784152 13:0.20556349 14:-0.53746931 15:-0.4819328 16:-1.0455251 17:-0.75490672 18:0.97606518 19:-0.5723745 20:-0.98016705 21:-0.054720407 22:-0.88796458 23:-0.52326692 24:-1.2516785 25:-1.2649142 26:-0.84297953 27:-0.94021143 28:-1.1889973 29:-0.80874471 30:-1.3778546 31:-1.9395215 32:-1.8580434 33:-1.9205522 34:-1.6109137 35:-1.4975415 36:-1.7046115 37:-1.6650316 38:-1.3621135 39:-1.1498559 40:-1.0683671 41:-0.98836033 42:-0.17221887 
0.04818322965643428 0 1:1.6994362 2:-0.78317964 3:1.6330034 4:0.84177262 5:-0.039482493 6:1.6027879 7:-0.63746483 8:1.4513977 9:-1.4618198 10:-1.6368981 11:-0.79176136 12:-1.2965891 13:0.1515301 14:-0.048870633 15:-1.6898329 16:-1.094202 17:0.34771676 18:-2.9219045 19:-1.9633784 20:1.0829452 21:-0.64710761 22:0.29052233 23:-0.80484568 24:-1.2819362 25:-0.58331062 26:-1.0705805 27:-0.11173742 28:-0.37373072 29:0.041479539 30:-0.40352666 31:0.26207825 32:-0.35195037 33:0.67101767 34:0.60041309 35:0.94661726 36:1.1790954 37:0.98746283 38:1.0784682 39:0.54599996 40:0.64095409 41:0.33451347 42:-0.10051395 
0.004310998462305688 0 1:0.93548327 2:-0.77171495 3:1.2691883 4:0.47756858 5:0.095094369 6:1.3141747 7:-0.5421983 8:0.72272104 9:-0.74187088 10:-0.90981256 11:-0.81995637 12:0.0047084057 13:1.2662662 14:1.3914261 15:-0.60533115 16:-0.71770336 17:-0.24033473 18:-1.4016894 19:0.37231261 20:-0.071963416 21:0.69358415 22:-0.002496968 23:-0.73761308 24:-0.9155887 25:-0.59991312 26:-1.0801898 27:0.05655444 28:-0.59890226 29:0.069583501 30:-0.24944859 31:-0.26976825 32:-0.63022325 33:-0.002007419 34:0.60986737 35:1.4328912 36:1.3081556 37:1.1929764 38:1.3571551 39:1.7267613 40:1.6513793 41:0.93580045 42:0.96793402 
-0.002013925804806202 0.01441679392747736 1:0.84009382 2:0.91583975 3:0.31058413 4:1.7053039 5:1.8983455 6:0.65491335 7:-0.44944223 8:1.0076084 9:1.1683732 10:-1.1028515 11:0.93832321 12:-0.40471981 13:-0.73654628 14:0.70422799 15:1.1530487 16:0.97613648 17:1.0795634 18:1.2404613 19:0.46648868 20:1.1614709 21:0.96246844 22:0.92681946 23:0.69392533 24:-0.1309311 25:0.021638532 26:-1.7172416 27:0.60222212 28:-0.3934973 29:1.1919318 30:-0.52181761 31:-0.894276 32:-0.54246001 33:0.20950375 34:0.15339241 35:0.38207522 36:-0.60979233 37:-0.80458103 38:-0.82975942 39:-0.70501855 40:0.51904462 41:-0.29605526 42:-0.54882679 
-0.3543036447129658 0.2499904712408913 1:0.040101657 2:-0.58298102 3:0.31464984 4:0.80913612 5:0.54471794 6:0.72815084 7:-0.48794378 8:0.76114385 9:-0.66458467 10:-0.4713895 11:0.62848968 12:0.74028535 13:0.1058896 14:-0.75241095 15:-0.56274503 16:-0.98827804 17:-0.62377516 18:-0.9369999 19:-0.68715119 20:-1.2891088 21:-0.49973082 22:0.34597639 23:-0.69699108 24:0.041032194 25:-0.69331825 26:-0.8117992 27:-0.57225001 28:-0.67628285 29:-0.27434942 30:-0.74810675 31:-1.2757898 32:-0.92770706 33:-0.37691079 34:-0.86589025 35:0.33555885 36:0.18522818 37:0.24641217 38:0.10961014 39:0.29755488 40:0.43896728 41:0.28106578 42:0.58833542 
-0.04803086354643359 0.2053491378354448 1:-0.30340752 2:-0.19190296 3:-0.90429941 4:-0.42595854 5:-0.25793929 6:-0.72250429 7:0.071134562 8:-0.44539964 9:-0.18910615 10:0.72495741 11:0.27173156 12:-1.0692185 13:1.1058817 14:0.58664557 15:-0.19092569 16:0.59773804 17:-0.48714328 18:0.71464985 19:-1.500561 20:-0.28042954 21:-1.7434896 22:-0.21424938 23:0.15729268 24:0.64765812 25:0.1138457 26:0.34836633 27:-0.32612221 28:-0.14582436 29:-0.38912887 30:-0.40878364 31:0.36401863 32:0.46675113 33:0.0072880583 34:-0.03803069 35:0.055648909 36:0.037655403 37:-0.67203318 38:-0.5093141 39:-0.89898454 40:-0.75313617 41:-0.3882818 42:-0.15475788 
-0 0.06668748371361258 1:0.0048521466 2:-0.64154442 3:-0.9626309 4:-0.32807142 5:-0.48365164 6:0.1036531 7:1.8097411 8:-0.024280853 9:-0.82757253 10:-0.25692636 11:-1.2089313 12:1.0444552 13:0.60995557 14:1.2166302 15:0.25345282 16:0.53492934 17:-0.21605876 18:0.4025342 19:1.4426064 20:0.74804696 21:0.8647412 22:0.30022237 23:-0.26300097 24:4.0133026 25:0.98760172 26:0.85603766 27:0.88770902 28:1.2585773 29:0.20547929 30:2.9982272 31:3.3681392 32:3.8340485 33:4.8615248 34:3.2539723 35:3.5519023 36:3.1776775 37:2.2967197 38:0.99843342 39:1.0045845 40:1.4455578 41:1.0889738 42:0.70997633 
-0.06416364488909944 0.03665440319886928 1:-1.3616631 2:-0.47893612 3:-2.1056471 4:-1.0584947 5:-0.11501464 6:-1.5720054 7:1.2648921 8:-1.1540907 9:-1.0029827 10:1.6452645 11:1.9009302 12:0.23136665 13:-0.17211764 14:-0.5462658 15:0.46741444 16:0.7585694 17:0.82274054 18:1.1735819 19:0.27196321 20:-1.1323896 21:1.1636152 22:-0.69279693 23:-0.54921936 24:0.75250859 25:0.5844602 26:1.5587911 27:-1.3473938 28:0.71217282 29:-0.61797652 30:0.40795477 31:1.6233551 32:-0.63542431 33:-1.1853491 34:-1.7421774 35:-1.962583 36:-2.6491809 37:-2.3311015 38:-2.1917835 39:-2.4811815 40:-2.18601 41:-2.7143002 42:-2.8078007 
-0.08170479844695146 0 1:0.27045389 2:0.40859914 3:0.0035539627 4:0.26053491 5:0.3375195 6:0.48948827 7:-0.32843373 8:0.094544762 9:0.67352978 10:-0.49449601 11:0.026002688 12:1.2962958 13:0.84979945 14:-0.47180387 15:0.07757376 16:-0.58555724 17:1.1242403 18:1.8560853 19:2.2721471 20:0.77563934 21:-0.44705529 22:-0.28102849 23:0.28817663 24:0.22609544 25:-0.62840594 26:-0.58251572 27:-0.043642564 28:-0.46185214 29:-0.31172446 30:-0.9165743 31:-0.73646105 32:-0.55441255 33:-0.39549758 34:-0.79595764 35:-0.48300687 36:-0.58007109 37:-0.64086493 38:-0.8951065 39:-0.87858461 40:-0.7116812 41:-0.58985674 42:-0.44942246 
-0 0.01119301861843097 1:1.0023266 2:0.75360804 3:0.99622032 4:1.0227244 5:0.46948261 6:1.1836584 7:0.30200486 8:0.99629841 9:1.3839245 10:-1.2563848 11:-0.1418547 12:0.017704337 13:0.14674433 14:-1.2940306 15:-0.79091001 16:-1.7357037 17:-0.72942715 18:0.76683806 19:1.4130143 20:-1.1230159 21:-1.7898556 22:0.3679369 23:1.0708528 24:-0.9374067 25:-0.19235429 26:-0.92166594 27:0.37862333 28:0.85332552 29:0.49699681 30:-0.86670853 31:-0.60837227 32:-0.0052805978 33:0.49278064 34:0.41074796 35:0.35843316 36:0.092202145 37:0.15343722 38:-0.22898792 39:-0.18476743 40:0.15546679 41:0.11938298 42:0.2198595 
-0.006620213015210906 0 1:-0.43153491 2:1.6015733 3:0.51488733 4:-0.24145032 5:-0.17932011 6:-0.14768936 7:0.0017402177 8:-0.44054021 9:1.5204917 10:-0.21308242 11:-0.9551998 12:0.24030872 13:-0.35380682 14:0.032290536 15:-0.23187424 16:-0.20574721 17:0.28684252 18:-0.066527651 19:-1.7405131 20:-0.93476793 21:-1.0541226 22:-0.200217 23:0.73547857 24:-0.54193387 25:-0.18636841 26:0.24871355 27:-0.29900063 28:-0.11384092 29:-0.4419017 30:-1.1851378 31:-0.68140693 32:0.48001388 33:-0.18463771 34:0.083128761 35:-0.1134512 36:-0.44245664 37:-0.52462936 38:-0.97822973 39:-0.86006367 40:-0.59987809 41:-0.0044315307 42:-0.11509822 
-0 0.01584970996821921 1:0.047355751 2:1.3197376 3:0.20502172 4:0.79608687 5:1.2036291 6:0.1268893 7:1.392742 8:0.26198742 9:1.1346073 10:-0.63214328 11:0.78506787 12:0.57717718 13:1.3995489 14:0.059499037 15:0.1700167 16:-1.4319021 17:0.35363349 18:0.066163535 19:2.0363616 20:2.2559638 21:-0.69914849 22:1.0827369 23:1.3774236 24:-0.35753698 25:0.52064672 26:-0.63172248 27:1.2100467 28:2.2531621 29:1.0618652 30:-0.83849379 31:-0.21321369 32:0.46749666 33:0.79081644 34:1.845911 35:1.0912811 36:0.082507967 37:-0.08202115 38:-0.54924796 39:-0.59947068 40:-0.32971155 41:-0.38093386 42:-0.14458408 
-0.03403617704031401 0.06800726548849968 1:1.8683334 2:-0.44083322 3:0.72069212 4:1.4394788 5:0.71035549 6:1.9884895 7:-0.68373376 8:1.6762793 9:0.64008337 10:-1.2929746 11:-0.50127248 12:-0.86259237 13:-0.31060527 14:0.42130417 15:0.055073361 16:0.2926524 17:0.81524906 18:-0.29538741 19:0.37659044 20:-0.22528156 21:-0.12064592 22:0.99858999 23:-0.45624924 24:-0.45565686 25:0.38362228 26:-0.81731199 27:0.30707505 28:-0.9449561 29:0.6558144 30:-0.69370343 31:-0.77411254 32:1.154582 33:-0.055884327 34:1.8535662 35:0.51389007 36:0.39800846 37:-0.9220356 38:-0.52064484 39:-0.44520609 40:-1.0148627 41:-0.60988313 42:-0.27679041 
-0 0.07380299363149985 1:-1.8406845 2:-0.4654869 3:-2.2351295 4:-1.1381886 5:0.035799649 6:-1.7793729 7:1.9606565 8:-1.5966058 9:-0.93956572 10:1.4300444 11:1.6183086 12:1.8802618 13:0.073828241 14:-0.79434888 15:-0.15784548 16:1.0654779 17:0.41421369 18:-1.0527264 19:-1.1960487 20:-0.034802478 21:-0.085811394 22:0.069083858 23:-0.33446494 24:1.8930563 25:2.5943172 26:2.482346 27:0.11575755 28:2.8356782 29:0.11997935 30:1.7601568 31:2.878816 32:2.4904571 33:2.5672981 34:0.88060838 35:-0.14923112 36:0.043348533 37:-0.26053611 38:-0.62758441 39:-0.35486814 40:-0.392324 41:-0.87992858 42:-0.83807669 
-0 -0.2094993716328334 1:-0.20065872 2:-0.37391944 3:-0.23292084 4:0.11564605 5:0.32965625 6:-0.2747252 7:-0.45570128 8:-0.14048078 9:-0.011853396 10:-0.20579604 11:1.2264966 12:0.21263927 13:-0.073416064 14:0.99533861 15:-0.05867589 16:-0.21606858 17:-0.61775839 18:-0.83510948 19:0.023527271 20:0.043555573 21:-0.72909809 22:0.22742559 23:-0.41667935 24:-0.37660711 25:0.14080582 26:-0.16480184 27:-0.093556666 28:-0.49463034 29:0.13543492 30:0.13654715 31:-0.2998037 32:0.54102839 33:-0.17862974 34:0.83048318 35:0.51632688 36:-0.16469902 37:-0.15218643 38:-0.30487315 39:-0.46454981 40:-0.23673034 41:-0.11290368 42:0.20593919 
-0.003933897590230582 -0 1:-0.61312135 2:-0.57868002 3:0.45525549 4:-1.0366197 5:-1.5246256 6:-0.57252077 7:0.20214143 8:-0.7002971 9:-0.15417438 10:0.48471586 11:-1.8969288 12:-0.5711883 13:-2.0252742 14:0.32285977 15:0.075035307 16:-1.3995845 17:-1.3206097 18:0.31805723 19:-0.98491129 20:-2.4787147 21:-1.0700454 22:-1.1373759 23:-0.49519784 24:0.052865301 25:-0.70261361 26:1.358371 27:-0.62406407 28:-0.10085382 29:-0.97025549 30:1.2972137 31:0.33241308 32:1.1087743 33:0.8413127 34:0.85228465 35:0.81514019 36:0.041519367 37:-0.12378834 38:0.55098624 39:1.9498494 40:1.8470567 41:2.213673 42:2.9041417 
-0.2572991361389744 -0 1:-0.72136483 2:-0.39843108 3:0.35225087 4:-0.4475108 5:0.03893609 6:-0.70448737 7:-0.72379973 8:-0.62459942 9:-0.38773905 10:0.7690659 11:-0.098304224 12:-1.5416822 13:-0.55477072 14:0.76047919 15:0.85112173 16:1.6063585 17:2.1445262 18:-0.36848414 19:2.9656347 20:2.4194108 21:1.2045281 22:-0.42128487 23:-0.33636105 24:-0.37790004 25:-0.061031634 26:-0.07752026 27:-0.14281067 28:-0.11265465 29:-0.3851351 30:-0.016872851 31:0.249744 32:-0.075878848 33:0.06580876 34:-0.23520589 35:-0.35708457 36:-0.1747322 37:1.5703666 38:0.25098018 39:0.081977302 40:-0.46901194 41:-0.97082901 42:-1.5529763 
-0.08260890938276938 -0.09151425729445571 1:-1.174785 2:-0.81614335 3:0.69546229 4:-1.1424614 5:-1.1213837 6:-0.78896211 7:0.015209011 8:-0.9906 9:-1.8674147 10:0.68744633 11:-0.37035561 12:1.3417927 13:-0.29141559 14:-0.55701916 15:-1.2669918 16:0.24591747 17:-0.58104248 18:0.4185788 19:0.014397796 20:1.4241811 21:-0.88902701 22:-1.0175127 23:-0.80365373 24:0.25849692 25:-0.38352486 26:1.4254665 27:-0.53833315 28:0.24511928 29:-0.87497717 30:0.59774771 31:0.68204029 32:0.72844248 33:0.9632855 34:-0.0046203382 35:0.20272577 36:-0.49648514 37:-0.4357692 38:-0.41817425 39:-0.58418102 40:-0.17247069 41:-0.20362472 42:-0.065360505 
-0 -0.01550375440628206 1:0.46444773 2:-0.28759132 3:-0.79461579 4:0.50934341 5:0.72909511 6:0.0042598511 7:0.39974474 8:0.77045619 9:0.12457266 10:0.38438657 11:2.1824186 12:0.29906798 13:1.0242841 14:0.089398741 15:0.78280166 16:-0.11769392 17:-0.18452496 18:1.466788 19:0.13957866 20:0.27203731 21:-1.5706338 22:2.15734 23:-0.36974298 24:0.76402921 25:2.7324927 26:0.31887525 27:2.1357032 28:0.13290925 29:1.8334028 30:0.55938816 31:1.764117 32:1.0014015 33:-0.17744395 34:-0.077135482 35:-0.53574643 36:-0.21236507 37:-0.36276256 38:-0.36156447 39:-0.40572835 40:0.061942501 41:0.57383917 42:0.048136317 
-0.3657442499641276 -0 1:-0.38855977 2:-0.61959824 3:0.71217655 4:-1.1052716 5:-1.6981744 6:-0.066305612 7:-0.91515143 8:-0.56917127 9:-0.43007152 10:0.47267099 11:-2.7366625 12:-0.16500146 13:-0.74461205 14:-0.32535483 15:-1.2034079 16:-0.16340205 17:-1.1179422 18:-0.077012519 19:0.69777218 20:-0.36634364 21:0.37110732 22:-1.1028299 23:-0.61772803 24:-0.58839378 25:-0.69646753 26:1.4363604 27:-1.0572375 28:-0.68661287 29:-1.182654 30:-0.25424 31:0.22645392 32:0.49288536 33:-0.090436679 34:0.46115146 35:-0.26987707 36:-0.013013817 37:0.0053610043 38:-0.24709492 39:0.028960876 40:-0.20205999 41:-0.09796184 42:0.34583423 
-0 -0.1080039020034191 1:0.74285532 2:-0.46641928 3:0.49173659 4:0.59056776 5:0.23244833 6:1.0359167 7:-0.26861508 8:0.74667966 9:0.25828245 10:-0.96478883 11:-0.019847973 12:1.0920294 13:0.3879919 14:1.4810211 15:-0.025488548 16:-0.055727462 17:-0.8351514 18:-0.11951857 19:-0.38427821 20:-0.53766894 21:0.63230101 22:0.67876885 23:-0.37186067 24:0.15669544 25:0.58899638 26:0.027488259 27:0.81074181 28:-0.33451718 29:0.54665484 30:0.95836778 31:1.0408507 32:1.3924903 33:0.0092126345 34:1.0645918 35:0.86516968 36:0.41357135 37:0.17179079 38:0.26195725 39:0.27254416 40:1.0140806 41:0.98212361 42:0.45401763 
-0 -0.013751448922099 1:-1.0810585 2:-0.58389048 3:-0.088039586 4:-0.87942597 5:-0.30639576 6:-1.1273009 7:-0.22916432 8:-1.051181 9:-0.52415018 10:1.2575335 11:0.01440124 12:-0.17240935 13:0.050712783 14:-1.1357486 15:-0.88509613 16:-1.1694016 17:-0.022613199 18:-0.85879337 19:-0.18367413 20:-0.21216522 21:-0.35395752 22:-0.48673254 23:-0.61962291 24:-0.075220129 25:0.39326078 26:1.0776245 27:-0.56226666 28:-0.16061814 29:-0.38331667 30:0.24230724 31:0.084640902 32:0.71249047 33:0.93300479 34:0.10723422 35:0.85913701 36:0.21431489 37:0.014118224 38:-0.49850859 39:-0.50274891 40:0.12693737 41:0.073138643 42:0.054453941 
-0.07842992500865413 -0 1:0.29997904 2:-0.73291026 3:0.41185496 4:-0.28691737 5:-1.1901807 6:0.5979484 7:-0.10051921 8:0.34905441 9:-0.43236399 10:-0.68999638 11:0.054394736 12:-0.44820532 13:-1.0118693 14:0.83274495 15:-1.7829346 16:0.87414652 17:-1.1256732 18:1.0735809 19:-0.92651924 20:-1.0204169 21:-0.73872707 22:-0.087526047 23:-0.71345414 24:-0.18519485 25:-0.32057727 26:0.22883322 27:0.432215 28:-0.42115323 29:-0.29193315 30:0.98771956 31:1.0739037 32:0.21718753 33:0.58973372 34:0.28532909 35:0.17825776 36:0.26616197 37:0.97452599 38:1.1015779 39:0.64871406 40:0.8642803 41:1.1675617 42:2.291409 
-0 -0.06051593546452443 1:0.22103946 2:-0.73074677 3:-0.38849907 4:0.05069625 5:0.091450101 6:0.055144039 7:0.030637301 8:0.42897341 9:-0.53371188 10:0.54843838 11:0.83884838 12:-0.64593755 13:0.34583518 14:-0.64359837 15:-0.33265997 16:-0.086635952 17:0.24289948 18:0.49743645 19:0.65232862 20:-0.96635463 21:0.057407631 22:0.49507646 23:-0.70746061 24:0.23820844 25:0.37016597 26:-0.32214262 27:0.90272262 28:-0.13396146 29:0.40803954 30:0.71215588 31:0.93882657 32:0.65091676 33:0.11065449 34:-0.066829738 35:-0.57756307 36:-1.069658 37:-0.54128601 38:-0.68904893 39:-0.041927543 40:-0.19695634 41:0.27068592 42:0.62941 
-0.03420460070075834 -0 1:-0.1871677 2:-0.09346695 3:0.3597326 4:-0.57845067 5:-1.2052831 6:0.11592651 7:-0.32512632 8:-0.2368235 9:0.98602103 10:-0.17073774 11:-0.97230475 12:-1.4305924 13:-1.3322863 14:-1.2599617 15:-0.30662698 16:-1.2012304 17:-0.6215726 18:1.4655276 19:-0.71780147 20:0.10143876 21:-0.10871117 22:-0.6048138 23:-0.041666339 24:-0.29801848 25:-0.79598589 26:0.26692823 27:0.12091615 28:-0.69190465 29:-0.50207884 30:0.76714087 31:0.33277753 32:-0.54945701 33:-0.575752 34:-0.068757468 35:0.041946924 36:0.13620003 37:0.41225747 38:0.2310268 39:0.41592789 40:0.75954151 41:0.98892444 42:0.95375152 
-0 -0.0243034026911716 1:-0.73019269 2:-0.19798204 3:0.02044478 4:-1.0136632 5:-0.94619854 6:-1.193037 7:0.59767293 8:-0.88880526 9:0.17700768 10:1.4900053 11:-0.14590788 12:-1.1240271 13:-0.47163642 14:-2.2723826 15:-0.21038456 16:-2.1482964 17:-1.9090932 18:-2.9244384 19:-1.5453475 20:-1.8799724 21:-0.79388268 22:-0.89579035 23:-0.49116926 24:-0.49185256 25:-0.13716492 26:1.1154011 27:-1.1507674 28:-0.071231421 29:-0.78819778 30:-0.46514498 31:0.45159506 32:0.22074281 33:-0.061732991 34:-0.43924186 35:-0.76971531 36:-1.2930221 37:-0.86328982 38:-0.98303595 39:-0.63079522 40:-0.53068954 41:-0.22475433 42:-0.30966516 
-0 -0.1459445996125063 1:0.37317599 2:-0.73079894 3:-0.43607069 4:0.6572827 5:0.99452525 6:-0.15344138 7:0.31380485 8:0.48348817 9:-1.0796985 10:0.3633808 11:1.7625659 12:-0.21817045 13:1.2546882 14:-0.68816933 15:0.93828743 16:-0.26317643 17:0.46760677 18:1.5223405 19:0.21594934 20:-0.36424754 21:-0.59765434 22:1.1942923 23:-0.67219157 24:0.68751202 25:1.0539121 26:-0.46009001 27:1.0866098 28:0.26823535 29:1.1615526 30:1.3799031 31:0.40262621 32:0.71439813 33:1.3358278 34:1.2310824 35:0.96265481 36:1.0851213 37:1.1625073 38:1.539471 39:1.0576069 40:1.225412 41:0.70450982 42:0.30084794 
-0.210898242577148 -0 1:-0.45220449 2:-0.56602077 3:-0.044565069 4:-0.63584467 5:-0.2994822 6:-0.87896868 7:-0.13503401 8:-0.47565802 9:-0.51872386 10:1.3366052 11:0.44352625 12:-1.1928701 13:0.22100526 14:-1.8063449 15:-0.38443861 16:-0.92223138 17:-1.0864841 18:-0.81164799 19:0.03844606 20:-0.54965947 21:-0.41731543 22:-0.3764934 23:-0.5720519 24:-0.10828595 25:-0.058733253 26:0.42191411 27:-0.66129227 28:-0.19703905 29:-0.4733021 30:-0.0055247442 31:0.2481274 32:-0.043956605 33:-0.022698059 34:-0.2694503 35:-0.57907675 36:-0.054346945 37:0.11636362 38:0.38348719 39:0.53347509 40:0.35481874 41:-0.093476324 42:-0.20971568 
-0.1469317803783021 -0.07291460559565335 1:-1.4985272 2:0.37747672 3:-0.20955793 4:-1.7157284 5:-1.425547 6:-2.2080296 7:-0.17750669 8:-1.6006845 9:0.39316697 10:2.5205479 11:-1.5611074 12:-2.9135415 13:-1.0658679 14:-0.61785709 15:0.67270295 16:0.00068137596 17:-0.53378678 18:-2.1761792 19:-1.6783042 20:-2.3470647 21:-1.4788256 22:-1.9400321 23:-0.16576086 24:-0.47836717 25:-0.4813894 26:2.1661553 27:-2.2888631 28:-0.39233165 29:-1.7052525 30:-0.13695547 31:0.25172659 32:-1.0070048 33:-1.8123306 34:-1.5906204 35:-1.2532884 36:-0.9321169 37:-1.547963 38:-1.2759859 39:-1.7559148 40:-1.6735485 41:-1.6039469 42:-1.2261852 
-0.2026831536871939 -0 1:-0.5274166 2:-0.24808811 3:0.5658526 4:-0.72939797 5:-0.45013012 6:-0.27027287 7:-0.73549944 8:-0.42216791 9:0.24799007 10:1.0139279 11:0.63359485 12:0.64281875 13:0.3285487 14:-1.2152522 15:0.73428611 16:-0.5492204 17:-1.8785722 18:-0.80467736 19:-1.3462044 20:-0.45412737 21:-3.1677581 22:-0.77950336 23:-0.476317 24:-0.55810937 25:-0.35038904 26:0.48710239 27:-0.7670885 28:-0.51782962 29:-0.73950181 30:-0.47969923 31:0.016666332 32:-0.34590432 33:-0.33102125 34:-0.25443639 35:-0.1881092 36:0.0022056829 37:-0.0087813601 38:0.20492436 39:0.41409979 40:1.2403381 41:0.75543235 42:0.24107564 
