svm_type c_svc
kernel_type linear
nr_class 3
total_sv 62
rho 0.000356722 0.433734 1.85288
label 0 1 2
probA -2.57487 -3.02083 -1.6613
probB -0.0589731 -0.104441 -0.0125037
nr_sv 16 21 25
SV
0.01673394983528656 0.005370768583492811 1:0.55189849 2:1.1987751 3:0.29441963 4:0.73265194 5:0.69782654 6:0.30137002 7:-0.92417434 8:0.55600569 9:1.537249 10:-0.16693005 11:-0.46942241 12:-0.75900633 13:0.20966429 14:-1.0829679 15:-0.66296053 16:-2.0814618 17:-0.26660881 18:0.81001291 19:1.4020174 20:-1.2777993 21:-0.5055363 22:-0.79548037 23:1.9720868 24:-0.23429553 25:-0.83899533 26:-1.0248459 27:0.07810934 28:-0.14702938 29:1.1766998 30:1.2817953 31:0.096228718 32:-0.016414293 33:-0.066012917 34:-0.48595313 35:0.22649013 36:0.14244916 37:-0.70707822 38:0.062486115 39:-0.81416096 40:0.026682 41:-1.0009644 42:0.86513348 43:-1.2977453 44:-1.0727588 45:-0.22111301 46:-0.73509064 47:-0.0094033857 48:-1.1591396 49:-0.44571358 50:-0.9106614 51:-1.0672854 52:-0.8587647 53:-1.1387787 54:0.17143624 55:-0.16026833 56:-1.1601403 57:1.4076678 58:-0.40857005 59:-1.1604303 60:-1.1780135 61:-0.2647555 62:-0.26392195 63:0.97151203 64:1.0404288 65:-0.25596282 66:0.044227862 67:-0.15148375 68:-0.6519592 69:0.33015152 70:-0.62311097 
0.02470648212218885 0.008206035052739242 1:8.687194 2:0.49081621 3:1.7537181 4:5.6311998 5:1.9233073 6:6.3271594 7:-1.6493389 8:7.857088 9:2.3411905 10:-3.4234479 11:0.3805356 12:-0.65692193 13:0.31266731 14:-0.40953561 15:0.15211691 16:-0.42762439 17:-0.05826976 18:-0.57226615 19:0.043295358 20:-0.60544623 21:-0.079520062 22:-1.6148172 23:-0.70608356 24:-1.2854164 25:-1.1799813 26:-1.9231719 27:-1.1020663 28:-1.0463025 29:0.11910098 30:-0.86091906 31:-1.6018844 32:-1.9469972 33:-0.79236436 34:-2.5948484 35:-1.0828531 36:-0.84141971 37:-1.6557364 38:-2.1006247 39:-2.9257741 40:-2.6659734 41:-1.5522253 42:-1.4041544 43:-2.4619168 44:-2.8335315 45:-2.8114577 46:-3.4204918 47:-3.4081011 48:-3.6163746 49:-3.3644675 50:-2.9758539 51:-2.7015567 52:-2.651328 53:-2.7114412 54:-2.7794008 55:-2.551345 56:-2.2122434 57:-1.2011195 58:-1.6130967 59:-1.9243251 60:-2.3695805 61:-1.5560461 62:-1.2690206 63:-0.89910425 64:-1.4961971 65:-2.3481521 66:-2.0337262 67:-1.4169433 68:-2.2592037 69:-0.17007775 70:-0.90103893 
0 0.02807770524335449 1:0.61267826 2:0.47044462 3:-0.45056276 4:0.90304475 5:1.0594246 6:0.71799891 7:-0.36054654 8:0.73604084 9:1.3436293 10:-0.75736629 11:-0.095158408 12:-0.22836611 13:1.5066023 14:0.93914536 15:0.6690102 16:0.66565996 17:1.3682239 18:1.5586768 19:1.3127148 20:0.79474134 21:0.52878279 22:-1.206672 23:-0.48963634 24:1.6434928 25:-1.1465957 26:-1.0402442 27:-0.57529642 28:0.30618783 29:0.011642485 30:-0.53263549 31:-0.66808649 32:1.086734 33:-0.25030354 34:0.36559816 35:0.78604343 36:0.10451462 37:0.24086834 38:0.6622397 39:-0.76977589 40:0.86187048 41:-0.35796587 42:0.82149558 43:0.13138307 44:-1.1107355 45:-0.4810197 46:-0.91491857 47:0.061073742 48:-1.0780154 49:-0.79173138 50:-1.2481126 51:-1.0157917 52:-1.333575 53:-0.60662027 54:0.12109102 55:1.0230037 56:-1.395433 57:-0.63960516 58:2.1214075 59:-1.4639399 60:-0.82758214 61:-0.75479021 62:0.12353676 63:-0.13481266 64:-0.73320909 65:-0.70897432 66:0.50284252 67:-0.389925 68:0.59929328 69:1.0304725 70:1.2260621 
0.001118271403260994 0 1:0.53473894 2:0.43147523 3:0.099440538 4:1.2605585 5:1.19687 6:0.98425301 7:-0.84300216 8:0.77121087 9:1.6286143 10:-1.2472302 11:0.78601627 12:1.8085075 13:1.0424818 14:1.1126539 15:0.8921215 16:0.13852555 17:0.56432783 18:1.2923405 19:0.083104883 20:0.80464776 21:-0.89691347 22:-1.0521235 23:-0.96603318 24:-0.19865561 25:-0.98965431 26:0.54677016 27:-0.25664868 28:1.8174124 29:-0.62454707 30:-1.0745182 31:-0.42511309 32:-0.0091299747 33:-0.87069836 34:0.86539118 35:-0.022027072 36:-0.11579915 37:-0.17747 38:-1.1514461 39:-1.7616982 40:0.0005757461 41:-0.97428816 42:-0.014699871 43:-1.5843735 44:-1.8081397 45:-0.89885529 46:-1.6990421 47:-1.2663282 48:-1.3828646 49:-1.0552361 50:-1.3311129 51:-1.2593148 52:-1.3270496 53:-0.77142861 54:-0.59890078 55:-0.18979259 56:-1.2241732 57:-1.1226906 58:-0.30032295 59:-1.3396391 60:0.63126554 61:-0.40829395 62:1.3303118 63:-0.79201749 64:-1.3149534 65:-0.142014 66:0.16332998 67:-1.1133722 68:0.72928589 69:-0.8370501 70:0.47210477 
0 0.01582473595381033 1:1.4609163 2:0.63114178 3:-0.28632938 4:2.0372057 5:1.5993235 6:1.4949928 7:-0.58842998 8:1.8890725 9:1.8281581 10:-1.2902014 11:0.12302514 12:-0.90422842 13:0.24966756 14:-0.11820467 15:0.71666908 16:-0.14377649 17:-0.66005962 18:-0.88802825 19:0.4294468 20:-0.25829398 21:0.065055913 22:-0.90540349 23:-0.59224118 24:-0.27880243 25:-0.50810924 26:-0.12258566 27:-0.41452323 28:0.79659204 29:0.31546767 30:-0.43138952 31:-1.1823347 32:-0.1170831 33:0.19595668 34:0.0093923057 35:1.0365028 36:-0.0085558769 37:0.0082293513 38:0.23929225 39:-1.2126268 40:1.0437138 41:-0.66063638 42:1.5134102 43:-0.74979498 44:-0.79623207 45:-0.099122347 46:-0.48221629 47:-0.41921993 48:-0.16728044 49:-0.79227413 50:-0.64904031 51:-0.61040315 52:-0.67479177 53:-0.53582503 54:-0.65539144 55:-0.3810679 56:-1.0603727 57:-0.73002421 58:-0.29539978 59:-0.74055308 60:-0.045388391 61:-0.6527016 62:0.8593239 63:0.54591025 64:-0.48988896 65:-1.3314117 66:0.29712527 67:-0.034882765 68:0.90535464 69:-0.17007775 70:-0.18349861 
0 0.005049259503786583 1:-0.53375621 2:1.1042989 3:-0.88174559 4:-0.07082143 5:0.45559699 6:-0.31327352 7:0.54077253 8:-0.52819412 9:1.3294986 10:0.11133766 11:0.35570945 12:1.0261432 13:1.4025343 14:0.43834454 15:0.24427418 16:-0.074028605 17:-0.25441391 18:0.00041253177 19:1.1529829 20:1.1907689 21:0.26143249 22:0.13683241 23:-0.51880582 24:0.056505978 25:-0.74544891 26:1.1962063 27:-0.35435575 28:0.59394809 29:-0.6029281 30:-0.22699193 31:0.46438811 32:0.53592054 33:-0.52814302 34:0.24944687 35:0.017617365 36:2.0785129 37:1.3212113 38:0.17512058 39:-0.23734139 40:0.50291757 41:0.40581998 42:0.12415167 43:-0.057123841 44:-0.59596045 45:-0.12499905 46:-0.19109349 47:-0.039409578 48:0.029571698 49:0.028205122 50:-0.33254294 51:-0.23898506 52:-0.41713139 53:-0.86818214 54:-0.15746382 55:0.2220603 56:0.059732334 57:-0.33515917 58:0.68296665 59:-0.81503469 60:1.8628731 61:-0.048836493 62:0.56736647 63:-0.60403132 64:-0.079540255 65:1.6859421 66:0.65843187 67:-0.56060847 68:0.21404626 69:-1.0704904 70:1.1117391 
0 0.02260029134995872 1:-1.0111914 2:0.40265873 3:-0.22819295 4:-0.30655151 5:0.61431678 6:-0.9778551 7:0.20380837 8:-0.82605995 9:0.7018015 10:0.6110779 11:1.0652924 12:0.44192754 13:0.48136612 14:0.51095042 15:0.61616262 16:1.5915934 17:2.2855812 18:1.1612498 19:-0.60873985 20:-0.67730208 21:-1.1421275 22:-0.46916882 23:0.73568827 24:0.56363774 25:-1.1810383 26:0.69074438 27:-1.2719672 28:2.1780268 29:-1.0032398 30:-1.0584739 31:-0.8330885 32:0.37102083 33:-0.29427701 34:1.860251 35:0.35807252 36:0.24040599 37:0.21544035 38:1.1295369 39:0.7133628 40:0.24127849 41:0.46266108 42:0.573144 43:-0.13425283 44:-0.0089847058 45:0.1048097 46:-0.1224766 47:-0.62678503 48:-1.1715819 49:-1.2100548 50:-0.92293856 51:-0.64593276 52:-0.031413295 53:-0.5961593 54:-0.17042897 55:-0.50049835 56:0.13789426 57:0.9850347 58:-0.23152147 59:-1.3427993 60:0.1852247 61:-1.2076485 62:1.4528687 63:-1.0037398 64:-1.1125788 65:-0.88214445 66:-0.085757414 67:0.025590248 68:1.5381086 69:-0.8370501 70:-0.20277551 
0.03117105344555692 0 1:0.11677263 2:1.2469599 3:0.10690987 4:0.68573883 5:1.0495506 6:0.39420493 7:-0.68554379 8:0.15327686 9:1.4731115 10:-0.29630105 11:-0.57537739 12:-0.11470037 13:0.67997166 14:0.43197652 15:0.57128694 16:0.38749346 17:2.6777737 18:1.4407098 19:-1.2264569 20:0.47698421 21:0.56800941 22:0.5320791 23:-0.96026044 24:-0.12296993 25:-1.2196977 26:-1.2929781 27:-1.0637205 28:1.0259428 29:-0.28793221 30:-0.76286037 31:0.48336983 32:0.4670749 33:1.8236418 34:0.25632775 35:0.43299925 36:0.26544899 37:-0.44913306 38:0.49311475 39:-0.010251258 40:0.092909602 41:-0.5773623 42:0.57701563 43:-0.62360945 44:-0.89370289 45:-0.32046864 46:-1.151954 47:-0.12353704 48:0.26593182 49:-0.57667615 50:-0.74532763 51:-0.16155532 52:-0.39983171 53:-0.3893569 54:-1.2028184 55:-1.1392007 56:0.088795331 57:-1.1382308 58:-0.36479932 59:-1.4531483 60:-1.3419671 61:-1.0998773 62:0.59344379 63:-0.46647231 64:-0.93898617 65:0.64112072 66:0.26629172 67:1.1543685 68:0.029141377 69:2.080954 70:0.71455745 
0.03372641777672391 0.09238547424295544 1:0.32300027 2:0.18835407 3:0.31613491 4:0.082781071 5:0.11189241 6:0.30032544 7:-0.68944515 8:0.17353356 9:1.1223201 10:-0.013019482 11:0.15269587 12:1.2746806 13:0.17788756 14:-1.1755785 15:-0.75312195 16:0.63887506 17:-0.20287915 18:0.21342662 19:0.76166341 20:-1.0506477 21:-0.80920716 22:0.76640995 23:-0.74968395 24:-0.29845832 25:-0.24082101 26:-0.50325537 27:-0.064376971 28:-0.56628543 29:4.1707059 30:0.33117441 31:1.9968473 32:0.27989504 33:0.22931132 34:-0.50523812 35:-0.015442102 36:-0.12868794 37:-0.53608081 38:0.19608375 39:0.067156095 40:-0.099154058 41:-0.73665345 42:-0.033577413 43:-0.92677574 44:-0.43734826 45:0.6623051 46:1.3934136 47:0.4662653 48:0.8071446 49:0.6817339 50:0.01164049 51:0.11835954 52:-0.16293458 53:0.17677814 54:-0.18422127 55:0.076592321 56:-0.32714687 57:-0.77023286 58:-0.6866442 59:-0.4033616 60:-0.92461994 61:-0.18366897 62:-0.49488572 63:2.1485298 64:0.093366359 65:0.34866812 66:-0.42644224 67:0.33914168 68:-0.70408244 69:-0.8370501 70:-0.32800897 
0 0.008499632340822077 1:-0.31651307 2:0.39415458 3:-0.74642686 4:-0.04506196 5:0.68266414 6:-0.63444152 7:-0.15172207 8:-0.34224074 9:0.40620345 10:1.1135585 11:0.80464248 12:0.19436352 13:0.15885319 14:-0.20395874 15:0.37993737 16:1.3449667 17:0.74835498 18:-1.703737 19:-2.1845839 20:-1.7910048 21:-0.70042294 22:-0.67397693 23:2.1703558 24:0.33217801 25:0.55428221 26:0.73671434 27:-0.83177661 28:0.53726288 29:-0.71012652 30:-0.63295118 31:-0.043076891 32:-0.35393326 33:-0.14914688 34:0.3521607 35:1.1252993 36:1.0871384 37:0.50103311 38:1.9850333 39:0.86317569 40:1.4606111 41:-0.15677838 42:1.046324 43:0.13833918 44:1.9070928 45:0.33914545 46:0.85457189 47:0.57768179 48:0.5855069 49:-0.61730607 50:-1.2260987 51:-1.0942272 52:-0.79419272 53:-1.5338322 54:-1.466377 55:-0.96400461 56:-0.77515355 57:2.0781326 58:0.47315457 59:0.50636398 60:0.0019191268 61:-0.89859109 62:1.0620818 63:-0.73836115 64:-0.59957391 65:-0.37259538 66:-0.2622559 67:0.22903539 68:0.78798211 69:0.33015152 70:-0.55947849 
0.02428212892271904 0.008720980245456743 1:-1.2470073 2:-0.3191008 3:-0.71746922 4:-0.7610422 5:0.018345237 6:-1.3832149 7:-0.19071754 8:-1.2348496 9:-0.60151131 10:0.87465358 11:0.21767937 12:0.73308942 13:-0.26167243 14:-0.0014185573 15:-0.066729781 16:-0.14960964 17:-2.4124846 18:-2.7830028 19:-1.9919726 20:-2.391768 21:0.67288169 22:-0.2193252 23:-0.71513284 24:0.88075151 25:6.8674763 26:1.1001856 27:1.0217902 28:0.66845796 29:-0.99411905 30:-1.0834617 31:-0.74231386 32:-0.60578839 33:-1.241095 34:1.3981105 35:-0.84856207 36:0.33896398 37:0.62612623 38:-0.020840892 39:0.41699553 40:-0.66911492 41:0.0094813734 42:-0.77829003 43:0.29502316 44:0.47912824 45:-0.71518897 46:-0.76427957 47:-1.1611116 48:-1.4349992 49:-1.7876596 50:-1.5111462 51:-1.4517109 52:-1.2908139 53:-1.3359641 54:-1.0531233 55:-0.7893272 56:-0.79039479 57:-0.93872623 58:0.53395112 59:2.0504942 60:-0.016475406 61:-0.27174063 62:0.54047976 63:-1.0537113 64:-1.2047991 65:-1.056311 66:-0.27484968 67:-1.3978825 68:0.25358808 69:-0.8370501 70:0.26888758 
0 0.01583909511886598 1:-1.152567 2:0.82076166 3:-1.1783318 4:-0.17584285 5:1.0987003 6:-1.3930419 7:1.6538619 8:-1.254216 9:0.087705719 10:1.0002172 11:1.5938199 12:1.034247 13:1.3698395 14:1.6845982 15:0.5692396 16:1.3952458 17:0.45351722 18:0.20123813 19:0.80162524 20:-0.93192737 21:0.67392021 22:-0.21654015 23:-0.59796565 24:0.60544985 25:-0.31290447 26:1.1696227 27:-0.90028373 28:0.2848657 29:-0.8459647 30:-0.90501018 31:2.0588637 32:1.6089936 33:-1.0446178 34:1.1578751 35:0.11809749 36:1.2884263 37:1.3571892 38:1.1696779 39:0.20267784 40:0.039540049 41:1.3130213 42:0.11109225 43:1.041192 44:0.64711478 45:0.6320083 46:1.1805369 47:0.69896625 48:0.52029874 49:-0.0718698 50:-0.2726342 51:-0.58682523 52:-0.58035018 53:-0.89133969 54:-0.39434712 55:0.092778258 56:0.62011292 57:-0.44602627 58:1.4449538 59:0.52928091 60:1.9941773 61:-0.57367703 62:0.38162661 63:-0.66417657 64:-0.64516325 65:4.0411488 66:2.294538 67:-0.91101691 68:0.64275886 69:2.080954 70:0.25081532 
0.03791066232905537 0.02661923684471817 1:-1.2947716 2:-0.24191009 3:-0.76453752 4:-1.2535037 5:-0.56322059 6:-1.6180016 7:0.39686092 8:-1.1802545 9:-1.0532601 10:1.6652447 11:0.69884459 12:-1.1228281 13:-0.1888708 14:0.93145521 15:-2.4748548 16:-3.0367454 17:-2.1386275 18:-0.29677511 19:-3.6684637 20:-4.0538314 21:0.38675283 22:3.3194979 23:-0.88192703 24:0.61871419 25:2.2353356 26:1.0563801 27:-0.49273143 28:-0.36394272 29:-1.1347815 30:0.42208055 31:1.7738355 32:-0.72301908 33:-0.91539728 34:0.47894904 35:-1.2047408 36:0.70619995 37:0.32573759 38:-0.3954028 39:0.98566575 40:-1.5071269 41:0.40258553 42:-1.0349669 43:0.20278521 44:0.35396874 45:-0.095823763 46:-0.032583707 47:-0.036359367 48:0.39263272 49:-0.47532325 50:-0.61648337 51:-0.75334449 52:-1.1216523 53:0.048121894 54:-1.2046332 55:-1.4007016 56:0.806325 57:-1.1620588 58:1.1052585 59:1.2641628 60:-0.21228172 61:-0.87805955 62:-0.22992787 63:-1.2039235 64:-0.27690202 65:1.6672114 66:-0.51950633 67:-1.0673212 68:0.11318619 69:0.33015152 70:-0.49202515 
0.06820202716777497 0 1:0.23571208 2:0.51141063 3:0.32433149 4:0.26903911 5:0.22834105 6:0.43388068 7:-0.33380654 8:0.08850107 9:0.68318059 10:-0.55082303 11:-0.092710568 12:0.91743071 13:0.51528901 14:-0.69621679 15:-0.055606969 16:-0.66886237 17:1.1712598 18:1.705406 19:1.7727742 20:0.53471804 21:-0.42243948 22:-1.3217651 23:-0.64341112 24:-0.33282025 25:-0.52580224 26:-1.1366786 27:-0.35394039 28:-0.13203999 29:1.6873237 30:0.41873767 31:1.5175815 32:1.5598566 33:-0.58030261 34:-0.20626724 35:-0.27079555 36:0.30960755 37:-0.63711384 38:-0.42455517 39:-0.65788412 40:0.082099985 41:-0.50631979 42:-0.27172824 43:-0.76576774 44:-0.54468909 45:-0.49961114 46:-0.56327698 47:-0.87893639 48:-0.38388508 49:-0.53597565 50:-0.60970915 51:-0.95449083 52:-0.86095969 53:-0.89292062 54:-0.60731884 55:-0.75401651 56:-1.5451205 57:-0.77103955 58:-0.48610477 59:-0.91101853 60:-1.1187988 61:-0.54336051 62:-0.088830331 63:1.0124303 64:0.018859688 65:0.88410915 66:0.33071497 67:-0.73884414 68:-0.28602552 69:0.33015152 70:0.92187644 
0.01111975328842375 0 1:-0.54920469 2:0.28589163 3:-0.48301445 4:-0.22760813 5:0.084881968 6:-0.53077621 7:-0.61030571 8:-0.71008191 9:0.19828176 10:-0.15754325 11:0.82095648 12:0.9064998 13:0.12386509 14:-0.482126 15:-1.2009309 16:-1.5629308 17:-0.83902941 18:-1.3751231 19:-0.84232195 20:-1.8672142 21:-0.72121742 22:-0.19026123 23:-0.68541742 24:1.8068559 25:0.21179581 26:0.90489966 27:-0.060085277 28:0.57150517 29:-1.0494519 30:-0.82960259 31:0.019945833 32:-0.37395789 33:-0.59642797 34:0.78608528 35:-0.53507726 36:0.27227862 37:0.038794094 38:-0.70189255 39:-0.80961535 40:-0.70861442 41:-0.66070433 42:-0.46099554 43:-1.3105727 44:-1.5376896 45:-1.0303115 46:-1.5336779 47:-1.7717714 48:-1.7428425 49:-1.4928287 50:-1.9591424 51:-1.6090204 52:-1.736314 53:-1.618361 54:-1.8072337 55:-1.7584632 56:-0.61200122 57:-0.85141605 58:1.2098607 59:-0.11390207 60:0.46217078 61:-0.52367769 62:0.29740553 63:-1.2123305 64:-1.0371472 65:0.22981427 66:-0.90695721 67:-0.89976969 68:0.26469482 69:-0.17007775 70:0.14773539 
0 0.009890086115761431 1:-0.38757897 2:2.2792471 3:0.059903462 4:0.30792823 5:1.1688839 6:-0.39623219 7:-0.30091265 8:-0.47471238 9:1.9199161 10:0.62046236 11:0.82515694 12:1.0789487 13:1.1293298 14:0.39744075 15:0.31742115 16:-0.30923822 17:-1.669286 18:-1.2460483 19:-0.067204235 20:0.62269253 21:0.55662527 22:0.44236079 23:-1.0796271 24:-0.11930484 25:0.29522312 26:0.51907745 27:1.494939 28:0.99894904 29:-0.83510256 30:-0.76546126 31:-0.92964833 32:-0.10697214 33:-0.9021842 34:0.076922926 35:0.35743519 36:1.4275661 37:0.35756764 38:0.67569617 39:0.062694762 40:0.37314746 41:-0.60967754 42:0.27749512 43:-0.55021291 44:-0.24609026 45:0.65093163 46:0.28928273 47:0.19502759 48:0.60768042 49:0.32878572 50:0.88684115 51:-0.055675758 52:0.10863689 53:0.010253192 54:-0.022228938 55:0.073283373 56:-0.21090957 57:-1.136981 58:-0.043998549 59:1.2762463 60:1.1010617 61:1.2511323 62:0.42304729 63:-0.69529863 64:-0.67725703 65:-1.1747891 66:-0.29226604 67:-0.86524886 68:-0.37150628 69:1.0304725 70:0.17747177 
-0.01620746321765659 0 1:0.84815097 2:-0.54009902 3:0.88664076 4:0.10253751 5:-0.99555009 6:0.97166177 7:-0.45971955 8:0.74729884 9:-0.17248181 10:-1.3308351 11:-0.90918689 12:-0.89103154 13:0.43871749 14:-0.47344921 15:0.46742026 16:-1.3926257 17:-1.4738179 18:1.3690976 19:-1.5589805 20:0.76627185 21:-1.474605 22:-0.52893124 23:-0.0019371815 24:-0.98628121 25:-0.14964092 26:-0.81758715 27:0.3169934 28:-0.76636809 29:2.6902713 30:0.51125074 31:0.10322283 32:-1.027441 33:-0.25088129 34:-1.2180007 35:-0.62117241 36:-0.69382867 37:-0.98004754 38:-1.1994733 39:-0.86806774 40:-0.81285452 41:-0.82344501 42:-0.54903527 43:-1.171271 44:-0.79676499 45:-0.60248039 46:-0.85032569 47:-0.33441834 48:-0.93830606 49:-0.51654877 50:-0.79365791 51:-0.50842522 52:-0.42832736 53:-0.69341566 54:-0.31711847 55:-0.54180699 56:-0.91351063 57:-0.17702072 58:-1.1514775 59:-0.47925383 60:-0.94975778 61:0.21762251 62:-0.84616976 63:2.9844347 64:0.74604342 65:-0.090318565 66:-1.2213098 67:-0.54201806 68:-0.98175116 69:2.080954 70:-0.65787101 
-0.00108705356579674 0 1:2.0685981 2:-0.75893372 3:0.66298893 4:1.3382758 5:0.12589018 6:2.0819152 7:-0.4197321 8:1.9810547 9:-0.56096542 10:-2.1371666 11:-0.28381765 12:0.053491939 13:1.2232728 14:-0.3585526 15:-2.5403336 16:0.52559513 17:1.3060727 18:-0.49382879 19:-0.49691972 20:0.45788496 21:1.0058849 22:0.018837186 23:-0.62134371 24:-0.79106656 25:0.18991315 26:-0.92682476 27:-1.0858559 28:-0.61348251 29:1.6630391 30:-0.16109241 31:-0.1352172 32:-1.4202358 33:0.87604561 34:-1.0982143 35:0.42087959 36:-0.65412641 37:-0.63678205 38:-0.75055517 39:-1.7431177 40:-0.072528857 41:-0.79255044 42:0.046568429 43:-0.42193929 44:-0.48868351 45:-1.0618941 46:-0.41370709 47:-0.30875625 48:0.62609258 49:1.0180041 50:1.3681844 51:0.43440331 52:1.0571914 53:1.0235812 54:0.44811052 55:0.040503588 56:0.41114916 57:-0.52160473 58:-0.77336005 59:-0.15128093 60:-1.035083 61:-1.0849339 62:-0.73164136 63:1.6514872 64:-0.34293737 65:-0.18180792 66:-1.3470798 67:1.1050062 68:-0.70238852 69:1.0304725 70:-0.36794503 
-0 0.04731335285568408 1:-0.22170825 2:-0.66802477 3:0.73106159 4:-0.39453987 5:-0.13150943 6:0.017685367 7:-0.67816587 8:-0.27726978 9:-0.20968434 10:0.16395264 11:-0.37565195 12:-0.2402718 13:0.35316364 14:1.58805 15:0.20684292 16:-0.38284115 17:0.91644231 18:0.96037025 19:0.80490062 20:1.6701046 21:2.4766157 22:-0.31421637 23:0.26572543 24:0.00036479316 25:0.69716224 26:-0.65027171 27:-0.27630343 28:-0.44131738 29:0.62854156 30:0.37584458 31:0.67633391 32:0.58590761 33:-0.69479125 34:-0.21878803 35:-0.39100836 36:-0.6220996 37:-0.81233755 38:-0.85213759 39:-0.70965154 40:-0.25462266 41:-0.72220739 42:-0.5389592 43:-0.79489701 44:-0.8815122 45:-0.54756402 46:-0.26557645 47:0.19109702 48:0.64894147 49:1.0826758 50:1.1884671 51:0.66206463 52:1.3327064 53:1.138504 54:0.80278105 55:0.099173067 56:-0.29870236 57:0.25363581 58:-0.030538403 59:0.78877222 60:-0.68972684 61:-0.37305726 62:-0.62879592 63:0.63933583 64:0.14293561 65:0.77572417 66:0.46725655 67:-1.031986 68:-0.30205367 69:-0.5452497 70:-0.75032411 
-0 0.1913715406491517 1:-1.275394 2:-0.23610253 3:0.40688364 4:-1.2093099 5:-0.48075477 6:-1.5438801 7:-0.77945428 8:-1.4005786 9:0.15685643 10:1.73904 11:0.62984075 12:-1.2153313 13:-1.5741821 14:-1.9112511 15:-1.4045958 16:-0.13300181 17:-0.20188841 18:-0.89890571 19:-0.10722885 20:1.7547642 21:2.0402929 22:0.98552549 23:-0.7646913 24:0.011895001 25:0.33234005 26:2.5160679 27:3.0220913 28:-0.78191655 29:-1.4508024 30:1.1350568 31:1.2117435 32:-0.98382676 33:-0.22620921 34:0.2373316 35:-1.3306899 36:-0.34144051 37:-0.41503592 38:-0.85851339 39:0.40126001 40:-1.3480633 41:-0.43651337 42:-1.3152288 43:-0.82479119 44:-1.2044001 45:-0.79233822 46:-0.78551248 47:-0.36572488 48:0.05300324 49:-0.087804971 50:-0.090831955 51:0.4215799 52:-0.0052669591 53:0.79938136 54:0.16233672 55:1.2670971 56:-0.047288037 57:-0.94227637 58:-0.57645886 59:-0.45544126 60:0.62921952 61:2.3429913 62:-0.89269319 63:-1.5192994 64:1.6763329 65:0.36546386 66:-1.1941922 67:-0.49756673 68:-0.58616903 69:-0.8370501 70:-0.81639053 
-0 0.1009892150876749 1:-1.1202023 2:-0.45730101 3:0.37508885 4:-1.4202719 5:-1.1441599 6:-1.7410975 7:-0.54830153 8:-1.3287805 9:-0.93516198 10:1.8874461 11:-1.5857905 12:-2.02755 13:-1.9040221 14:-1.4478034 15:-1.0319465 16:-1.0066385 17:-0.45541129 18:-0.53166132 19:-0.60508575 20:-0.7889632 21:-1.6230841 22:-0.5709993 23:2.0795987 24:-1.0557242 25:3.4077262 26:-0.69350313 27:0.81334242 28:-0.79719523 29:-0.67675067 30:-0.027412745 31:1.2260209 32:-0.16616189 33:5.7078142 34:0.1771826 35:-1.5611962 36:-0.35873464 37:-0.19210268 38:-0.32123657 39:2.341335 40:-1.6425083 41:0.29716544 42:-1.4570061 43:0.64624661 44:0.54122875 45:-0.2356601 46:-0.11294121 47:0.049664603 48:0.03598674 49:0.30819251 50:0.75221604 51:0.74071902 52:0.54166276 53:0.19212965 54:-0.39267169 55:0.46080785 56:-0.78528082 57:2.0936018 58:-1.1190863 59:3.7441297 60:-0.81053458 61:0.56634512 62:-0.85436467 63:-0.77188164 64:-0.17540271 65:1.6227562 66:-0.29217492 67:3.9472417 68:-0.65187919 69:0.33015152 70:-0.53150058 
-0 0.04796429023096151 1:-1.1977564 2:-0.82014805 3:0.3297833 4:-1.6234216 5:-1.2521881 6:-2.0207394 7:0.0092813798 8:-1.3763622 9:-2.2713341 10:2.2031311 11:-1.3076869 12:-1.5861754 13:-1.0486763 14:0.35111043 15:1.2318969 16:0.52891723 17:-0.48791526 18:0.44986693 19:1.1615215 20:1.5686599 21:-0.26903863 22:-0.65441728 23:3.8389404 24:-0.99698603 25:0.2290719 26:-0.25953103 27:0.74853465 28:-0.28089872 29:1.3225238 30:1.3638021 31:1.0251935 32:-1.0289931 33:-0.74153953 34:0.088304116 35:-1.5823478 36:-0.59693545 37:0.16655499 38:-0.29831993 39:2.4042189 40:-2.0400318 41:1.0552421 42:-1.5099566 43:0.9832789 44:1.3234754 45:0.45297631 46:0.63993266 47:0.33142903 48:0.77102208 49:0.16925526 50:0.80736091 51:-0.10010744 52:0.13826816 53:0.080872748 54:-0.74330415 55:-1.0067025 56:-0.49238268 57:3.1876453 58:-1.0185302 59:1.1896747 60:-0.13841181 61:1.1914704 62:-0.42235973 63:0.55659675 64:0.96536989 65:0.64262956 66:-1.0917585 67:-0.77707161 68:0.16908594 69:1.0304725 70:-0.9138861 
-0 0.1754379922629951 1:0.92116661 2:-0.59222133 3:0.23396093 4:0.62539411 5:0.026662503 6:1.0856462 7:-0.67721403 8:1.0452317 9:0.0039313072 10:-0.91304076 11:0.64855711 12:-1.2826906 13:-0.99413502 14:-0.96162427 15:-0.51052278 16:0.24066606 17:-1.4135099 18:-1.036491 19:0.22931348 20:0.40903148 21:-0.31010384 22:0.011206987 23:2.0441705 24:-0.70167834 25:0.54411824 26:-0.72100593 27:2.9236082 28:-0.74598522 29:1.7732273 30:-0.29626215 31:-0.71962374 32:0.38451608 33:-0.3224819 34:-0.32362279 35:0.71968217 36:-0.46962723 37:-0.42114068 38:-0.048027547 39:-1.2296303 40:0.97108511 41:-0.89761581 42:0.62006684 43:0.17216297 44:0.26377753 45:-0.32477303 46:0.39174877 47:0.91841474 48:0.83399932 49:1.709 50:1.2035476 51:2.2938331 52:1.8076204 53:2.061496 54:2.3861713 55:0.80523695 56:0.087673557 57:3.1448354 58:-0.65908279 59:1.5705535 60:-0.48615105 61:2.8530475 62:-0.71393768 63:1.5829027 64:0.042942756 65:-0.31748604 66:0.36085394 67:-0.21694127 68:-0.36273671 69:0.33015152 70:0.32369878 
-0 0.06977189848216862 1:-1.1031895 2:-0.76010026 3:0.44814671 4:-1.6506472 5:-1.5004092 6:-1.692462 7:-0.21279854 8:-1.2977054 9:-1.3498171 10:2.2834657 11:-1.5027853 12:-0.9344054 13:-1.5367866 14:-0.81872477 15:-0.19034561 16:0.11397551 17:0.77475276 18:0.14169724 19:0.10969089 20:-1.0182264 21:-1.4981808 22:5.6743279 23:0.76801976 24:-0.75502781 25:-0.16346072 26:-1.320484 27:0.90984153 28:-0.58187037 29:-0.31117828 30:-0.076627492 31:1.210573 32:-0.97171123 33:0.32863364 34:-0.11783068 35:-1.4734195 36:-0.68540773 37:-0.36246641 38:-0.54637558 39:2.2919425 40:-1.6208466 41:0.42773599 42:-1.4269813 43:0.05277135 44:0.41185855 45:-0.072985763 46:0.69867476 47:1.1105872 48:0.929938 49:1.1296493 50:1.4242582 51:1.0033771 52:1.0609941 53:0.80476966 54:0.46812301 55:0.088716919 56:3.6616479 57:1.0049205 58:-0.78526839 59:-0.089186419 60:-1.069867 61:0.88990905 62:-0.46908502 63:0.21210081 64:-0.23284234 65:1.9761465 66:-0.88637223 67:0.29193126 68:-0.23284467 69:-0.17007775 70:-0.86532346 
-0 0.3376054856886372 1:-1.3766225 2:-0.8344426 3:0.40069943 4:-1.6953728 5:-1.302514 6:-1.9046747 7:-0.68990121 8:-1.4270642 9:-1.6780096 10:2.5623994 11:-0.79133222 12:-0.55307341 13:-1.7183157 14:-1.8589873 15:-0.55616343 16:-0.92910837 17:-1.4600648 18:-0.4585948 19:0.51920903 20:-0.33732261 21:-1.3291886 22:0.73593218 23:-0.13020321 24:-0.90110748 25:3.2862499 26:0.81937303 27:0.43150452 28:-0.86858255 29:-1.0216961 30:1.7686875 31:3.1319306 32:-0.96982642 33:-0.13862631 34:-0.30353984 35:-1.6528731 36:-0.76219724 37:-0.47007208 38:-0.34544509 39:2.6298353 40:-1.967775 41:-0.18854271 42:-1.4593265 43:0.30413895 44:0.77413435 45:-0.14999696 46:0.30214619 47:-0.32371995 48:-0.049229378 49:-0.3405154 50:0.12539742 51:-0.00027382171 52:-0.11741443 53:-0.018134976 54:-0.70769182 55:0.053901297 56:0.63270919 57:-0.13606477 58:-1.007427 59:2.8790973 60:0.37115368 61:0.67422043 62:-0.9168973 63:-1.0152336 64:1.3711479 65:1.7881506 66:-1.1425579 67:-0.18759353 68:-0.77563996 69:2.080954 70:-0.85657647 
-0.01532902852192477 0 1:0.15419755 2:-0.39476343 3:0.89592329 4:-0.10920014 5:-0.15889808 6:0.19717462 7:-1.0212513 8:0.23755912 9:0.16369002 10:-0.007168791 11:0.97309618 12:-0.32000406 13:-0.57153241 14:-1.7483141 15:-1.9734351 16:-0.84692215 17:-2.2112598 18:-0.11382175 19:-0.90582892 20:-1.6839137 21:-0.44776112 22:0.58196126 23:-0.68126331 24:-0.66418558 25:3.7212259 26:-0.1355915 27:-0.42493601 28:-0.47464781 29:-0.28237681 30:0.87395782 31:1.159993 32:1.2592791 33:-0.5383861 34:-0.051750043 35:-0.28225297 36:-0.54436498 37:-1.1212983 38:-0.9404657 39:-0.97958717 40:-0.33511108 41:-1.05218 42:-0.28871112 43:-1.3448083 44:-1.3180358 45:-1.4315668 46:-1.2816817 47:-1.4483261 48:-1.0081581 49:-0.59491268 50:-0.83202455 51:-0.49238544 52:-0.37532742 53:0.013509518 54:0.36005053 55:-0.26728111 56:-0.061936119 57:-0.71019134 58:-0.85312556 59:2.4626041 60:-0.79892543 61:-0.56017622 62:-0.39159735 63:-0.47993635 64:0.58760782 65:0.53517046 66:-0.037875251 67:-0.7348943 68:-0.53539778 69:-0.5452497 70:-0.50578468 
-0 0.2370036971409416 1:-0.18931023 2:-0.84699434 3:0.53738185 4:-0.56375088 5:-0.67335009 6:0.031766559 7:-0.074433536 8:-0.20624385 9:-1.8121081 10:-0.08007559 11:-0.14656157 12:-0.31203455 13:0.10287485 14:1.4242464 15:1.5854329 16:2.2626567 17:-0.72548838 18:-1.2244846 19:0.51789159 20:0.19220111 21:0.45697776 22:-0.19862454 23:0.55577109 24:0.13321898 25:0.61096186 26:0.84440008 27:0.71890707 28:-0.32400327 29:-0.64184619 30:-1.1007732 31:-0.54113149 32:-0.7995487 33:-0.083213419 34:-0.056683571 35:-0.14982199 36:-0.76706976 37:-0.40849241 38:-0.31973554 39:-0.012612821 40:0.14365931 41:-0.054710105 42:-0.26528837 43:0.44356373 44:0.73702943 45:-0.052550403 46:0.62211772 47:0.64447397 48:1.0762785 49:1.2345722 50:1.5399887 51:1.681338 52:1.6470693 53:1.6974563 54:1.8611958 55:0.66425652 56:-0.095291472 57:1.3311988 58:0.29124629 59:1.3218447 60:1.1526746 61:0.39364526 62:-0.22107195 63:-0.57485113 64:-1.0461783 65:-0.31081886 66:-0.75682497 67:0.063740192 68:-0.13595571 69:0.33015152 70:-0.89792483 
-0.07208140766446786 0.0791944982709335 1:1.382993 2:-0.56672572 3:0.45029753 4:1.0692009 5:0.67146889 6:1.1999853 7:-0.68797007 8:1.6625049 9:0.16458285 10:-0.38346154 11:0.89854873 12:0.2493396 13:0.33732449 14:0.54007616 15:1.0318904 16:0.087631287 17:1.3122998 18:0.49565586 19:0.48936714 20:0.14138948 21:0.18460532 22:0.2484496 23:-0.44686431 24:0.58363887 25:-0.59298738 26:-1.4364919 27:-0.010773651 28:-0.55670546 29:-0.67568397 30:-0.78520415 31:0.042430252 32:-0.61275109 33:0.089874634 34:-0.52818306 35:0.84195536 36:-0.64358825 37:-0.48183871 38:0.53300564 39:-0.75675611 40:0.40203879 41:-0.84590623 42:0.59249114 43:-1.1629599 44:-0.96738233 45:-1.6377103 46:-1.7342995 47:-1.8286559 48:-1.9713297 49:-0.990033 50:-0.5857275 51:-0.44322216 52:-0.46909772 53:-0.92129361 54:-0.97052734 55:-1.1934696 56:-0.22940922 57:-0.55046856 58:0.62131159 59:-0.97708224 60:-1.4508824 61:-0.3278386 62:-0.60391862 63:-0.70606427 64:-0.9180697 65:-0.10519307 66:-0.84911508 67:0.17307561 68:-0.59681704 69:-0.17007775 70:-0.0077422948 
-0 0.1550729715257437 1:-1.4282325 2:-0.58395907 3:0.33564566 4:-1.6023074 5:-1.1867176 6:-1.8695944 7:-0.7641753 8:-1.4439941 9:-1.3688405 10:2.2025024 11:-0.81940981 12:-1.1117169 13:-2.1996423 14:-3.1883146 15:-1.7855028 16:-1.648605 17:-2.2128657 18:-1.0336324 19:1.2998333 20:0.84769564 21:-0.33965824 22:2.5398492 23:-0.44870624 24:-0.99382337 25:1.1393126 26:0.68175684 27:0.92374907 28:-0.49604846 29:-0.69820051 30:7.1867846 31:-0.66288393 32:-1.2642657 33:0.36907373 34:-0.1555 35:-1.6860106 36:-0.5790893 37:-0.68378966 38:-0.4053814 39:2.3510955 40:-2.0830643 41:-0.18022967 42:-1.4900435 43:-0.21012659 44:0.085760731 45:-0.88112666 46:-0.95665175 47:-1.2791124 48:-0.88925909 49:-0.90570602 50:-1.0760305 51:-1.0835492 52:-0.91888142 53:-0.38788636 54:-0.49467764 55:-0.790366 56:1.5659992 57:-0.47625298 58:-1.192764 59:0.94905635 60:0.67908034 61:0.40168198 62:-0.70691589 63:-0.74616569 64:4.2889197 65:-1.4661421 66:-1.595521 67:-0.18320881 68:-0.86643042 69:1.0304725 70:-0.5852013 
-0.0003902394140833331 0 1:0.76603509 2:-0.52200347 3:1.0801492 4:0.20814959 5:-0.6545201 6:1.2369197 7:-0.94586142 8:0.55076455 9:0.17995334 10:-1.223173 11:-1.195998 12:-0.29701357 13:-1.3330919 14:-0.74793062 15:-0.42735962 16:-0.92918163 17:-0.5985359 18:0.03360863 19:0.35605136 20:-2.4893269 21:-2.2026611 22:0.50927792 23:0.42992955 24:-1.0340202 25:-0.088759991 26:-0.44328701 27:-0.22741985 28:-0.98189642 29:2.2067777 30:-0.22264321 31:-0.53768507 32:-0.73506656 33:3.7736723 34:-1.2380104 35:-0.67916714 36:-0.5723469 37:-1.1656161 38:-0.94646425 39:-0.81443236 40:-0.80586003 41:-0.90378637 42:-0.78372925 43:-0.34777789 44:-1.0906311 45:-0.99804657 46:-1.1797371 47:-1.1961917 48:-1.2982318 49:-0.78567167 50:-1.1450182 51:-0.62918382 52:-0.78295127 53:-0.87737577 54:-0.92469045 55:-0.70101574 56:-0.090189078 57:0.25390474 58:-1.1302471 59:-0.35667425 60:-0.95296249 61:-0.6400606 62:-1.0963314 63:1.355064 64:-0.54809396 65:-1.0484514 66:-1.1990063 67:2.8953985 68:-1.2324099 69:-0.5452497 70:-0.66285663 
-0 0.05518333502069554 1:-0.51998074 2:-0.79916455 3:-0.33718665 4:-1.2646528 5:-1.6459355 6:-0.6762849 7:1.1885961 8:-0.81630534 9:-1.5107992 10:1.1371861 11:-2.4022272 12:-0.091809793 13:-0.69515985 14:-1.4590589 15:-2.0898073 16:-0.12931396 17:-0.70919434 18:-1.0257041 19:-0.37847406 20:-0.33601715 21:0.71014851 22:1.9825878 23:2.646037 24:-0.87188971 25:0.03214653 26:-1.0224675 27:0.966877 28:-1.0361426 29:0.35294138 30:1.7809926 31:-0.17038877 32:-1.3727054 33:0.17499392 34:-0.70000211 35:-1.0375465 36:-0.6493182 37:0.74681821 38:-0.67459653 39:1.4290063 40:-0.61347829 41:1.2542432 42:-1.2207951 43:0.88932861 44:0.48987629 45:-0.001424762 46:0.89853452 47:1.635633 48:1.6852871 49:2.5594925 50:3.1466596 51:2.5158785 52:2.1224086 53:1.7908895 54:1.152506 55:1.3379078 56:4.1447609 57:3.3485552 58:-0.73860873 59:0.5534388 60:-0.56189149 61:1.6735438 62:-1.0820804 63:0.50390477 64:1.9817175 65:1.1800138 66:-1.1261026 67:0.59645299 68:-0.057960165 69:2.080954 70:0.30317812 
-0.03593971644523537 0.1879842429255666 1:-1.8015813 2:-0.90601177 3:-0.57292513 4:-1.7475643 5:-0.89527081 6:-1.8240029 7:0.6604295 8:-1.624694 9:-2.726471 10:1.6994151 11:0.47894152 12:0.43005917 13:0.27336147 14:0.18707578 15:0.079347245 16:1.5734662 17:0.44604693 18:0.56734628 19:0.79165434 20:0.48761372 21:1.3998673 22:-0.39120899 23:-0.81738046 24:0.83241726 25:-0.20743521 26:0.65077963 27:-0.94320079 28:1.184994 29:-1.2630191 30:-0.8983205 31:-1.1565625 32:2.2589091 33:-0.0058647136 34:1.5364337 35:-1.0725542 36:-0.76186346 37:0.047050773 38:-0.48835775 39:1.2907369 40:-1.3073269 41:0.26884068 42:-1.059017 43:0.92667134 44:-0.67348274 45:-1.2600273 46:-0.86778305 47:-0.63016284 48:-0.9179086 49:-0.35924078 50:-0.65123508 51:-0.45736152 52:-0.5101855 53:-0.52393755 54:-1.3243815 55:-1.3630793 56:-0.32071713 57:-0.68194963 58:0.8439982 59:0.01269576 60:0.91487342 61:-0.90393539 62:1.105403 63:-1.2269516 64:-0.68469689 65:-1.1806134 66:1.5627096 67:0.14020147 68:0.89299838 69:-0.17007775 70:-0.57464739 
-0.01176133508420515 0.1802360683664941 1:1.1523784 2:-0.85963044 3:0.90707162 4:-0.29042867 5:-1.0787993 6:0.82969353 7:-0.52149303 8:0.77008611 9:-1.1089257 10:-0.96436088 11:-0.27951563 12:1.2687129 13:-0.87207519 14:-0.25205649 15:-1.0099594 16:0.10697021 17:-1.7590478 18:0.044865249 19:-1.80922 20:0.32173562 21:0.32309363 22:-0.66630647 23:-0.45699611 24:-0.41175696 25:0.85985522 26:-0.85119273 27:-0.20801308 28:-0.45102362 29:1.1680951 30:-0.43816837 31:0.75527573 32:-0.060954426 33:-0.2406718 34:-0.63692337 35:0.00071913256 36:-0.83462097 37:-0.80256627 38:-0.6369724 39:0.23256869 40:-0.67279685 41:-0.27680655 42:-0.52961279 43:-0.46584478 44:-0.5521403 45:0.13250224 46:1.2926671 47:1.4933967 48:1.4061691 49:1.2752853 50:0.97586399 51:0.49789046 52:0.48638774 53:0.3227944 54:1.7311663 55:1.4900387 56:-0.7126533 57:-0.48655963 58:-0.45104247 59:0.71157202 60:-0.86447767 61:-0.055143876 62:-0.49426511 63:1.2018801 64:-0.54785293 65:0.95019782 66:-0.28840326 67:-0.38168169 68:-0.73244103 69:-0.5452497 70:-0.51304859 
-0.01967203299922132 0.07907550849116692 1:1.4541487 2:-0.80553754 3:0.67223743 4:1.0326427 5:0.27956402 6:1.47424 7:-0.57052449 8:1.1698643 9:-0.6122032 10:-1.4941495 11:-1.3330154 12:-2.1333606 13:0.91703222 14:0.29293314 15:-1.5081376 16:-1.0658605 17:0.070364943 18:-0.19978978 19:-1.1502196 20:-0.5945825 21:0.086634796 22:0.30286891 23:-0.36852263 24:-0.94876812 25:-0.3188579 26:-0.61968648 27:-0.45542278 28:-0.88200005 29:0.84572979 30:0.37392802 31:-0.86257582 32:-0.15813867 33:0.84141722 34:-0.93387591 35:0.20869778 36:-0.74185864 37:-0.45336337 38:-0.58830466 39:-1.367038 40:0.23689439 41:-0.43638432 42:0.14182192 43:-0.14224464 44:-0.11738765 45:0.09730814 46:0.60980546 47:1.2432644 48:1.5793338 49:2.4983802 50:2.5805874 51:2.0723548 52:1.7324961 53:0.74299111 54:0.94939793 55:0.62161243 56:0.621255 57:-0.18097456 58:-0.92848548 59:-0.2327489 60:-0.30035086 61:-0.47528737 62:-0.83159853 63:0.57409664 64:0.71393903 65:-0.71430494 66:0.13091821 67:0.83086328 68:-0.68237537 69:0.33015152 70:-0.68683939 
-0 0.4163680631785889 1:0.064229023 2:-0.34467111 3:0.93652952 4:-0.22373354 5:-0.47959387 6:0.59688869 7:-0.99657918 8:0.04885155 9:0.87989281 10:-0.21554527 11:-0.43931033 12:0.24318175 13:-0.15482265 14:0.41765072 15:0.16493838 16:0.3395582 17:0.67133333 18:0.56575894 19:0.30032958 20:-1.0235997 21:-0.062047367 22:0.56841987 23:0.67038441 24:-0.55419657 25:-0.1492535 26:0.99860725 27:-0.70783381 28:-0.54513114 29:0.28686619 30:-0.28025062 31:-0.086099948 32:-0.91762748 33:1.3359962 34:-1.083084 35:-0.79495877 36:-0.52035755 37:-1.0793217 38:-1.2334362 39:-1.1846606 40:-0.74056577 41:-1.009799 42:-0.80431544 43:-1.0545909 44:-1.6302003 45:-1.81792 46:-2.1403965 47:-1.9806243 48:-2.2048273 49:-1.9519958 50:-1.7372784 51:-1.6957244 52:-1.4209044 53:-1.4478034 54:-1.7683629 55:-1.2167149 56:-0.2206273 57:0.45586753 58:-0.74886544 59:-0.50270241 60:0.098628021 61:-1.0521228 62:-0.74345356 63:-0.24423445 64:-0.60790956 65:-0.81416011 66:-1.3508265 67:0.93343378 68:-1.240115 69:0.33015152 70:-0.78990621 
-0.06538749406204813 0 1:0.21290789 2:-0.089972069 3:1.1002512 4:-0.080946831 5:-0.35568136 6:0.68253388 7:-1.0165571 8:0.16910604 9:1.0848397 10:-0.20186202 11:-0.26087735 12:0.24287604 13:0.039600726 14:-0.7166557 15:-0.55674212 16:-0.91960308 17:-0.84066128 18:0.52775992 19:-1.0284871 20:-1.5121977 21:-0.71094844 22:-0.20933222 23:-0.40480347 24:-0.89561504 25:1.2970959 26:-0.37383369 27:-0.35878429 28:-0.78253655 29:1.8131841 30:0.90625461 31:4.505572 32:-0.52332569 33:-0.06709143 34:-1.0195466 35:-0.8868461 36:-0.53230522 37:-1.2597856 38:-1.0439105 39:-0.87939156 40:-0.83833723 41:-0.91323154 42:-0.80421072 43:-1.3217001 44:-1.8581569 45:-2.0641898 46:-2.2765972 47:-1.909944 48:-1.7330317 49:-1.9794048 50:-1.8334366 51:-1.6297557 52:-1.6459796 53:-1.5534689 54:-1.4103965 55:-1.0852836 56:-0.85924643 57:-0.69308627 58:-1.1719401 59:0.26302077 60:-1.03419 61:-0.65168465 62:-0.97919214 63:0.66647967 64:0.18771716 65:2.5797949 66:-1.0466471 67:-0.76768991 68:-1.298154 69:-0.17007775 70:-0.54277637 
-0.01111497531635103 0 1:-0.40298291 2:-0.69045683 3:1.0883843 4:-0.77428407 5:-0.96482119 6:-0.41096647 7:-0.95226622 8:-0.44001548 9:-0.62891612 10:0.36141983 11:-0.96042903 12:-1.3212831 13:-2.5360808 14:-1.0079827 15:-1.1570619 16:-2.2758983 17:-1.9221288 18:-1.4607322 19:-0.93519696 20:-1.1274886 21:-0.39064571 22:0.90184194 23:-0.70054545 24:-0.96232463 25:0.56018826 26:0.48055322 27:1.7977538 28:-0.56271336 29:0.3579526 30:1.0988354 31:0.67825681 32:-1.0919309 33:-0.50566841 34:-0.41701771 35:-1.0406833 36:-0.75980657 37:-1.0871811 38:-0.89959189 39:0.50484662 40:-1.0546498 41:-0.81847831 42:-0.93280734 43:-1.188452 44:-0.76284385 45:-0.86627753 46:-0.11545515 47:0.072558526 48:0.20922408 49:-0.092144386 50:-0.19759638 51:-0.49861752 52:-0.23706884 53:-0.11225131 54:-0.079743954 55:-0.47458639 56:-0.15985555 57:-0.9527674 58:-1.2233728 59:-0.35513698 60:-0.75318555 61:0.74740576 62:-0.71514906 63:-0.33829912 64:0.34187474 65:-0.15667768 66:-1.3349489 67:-0.89879572 68:-0.88144849 69:2.080954 70:-0.47920746 
-0 -0.08685618805775079 1:-1.2921804 2:-0.77687477 3:0.098507976 4:-1.2716304 5:-0.50421087 6:-1.7582908 7:-0.67463334 8:-1.4429914 9:-1.5614162 10:2.0399897 11:-0.29693301 12:0.084623809 13:-0.23404695 14:-0.48170633 15:0.044868808 16:-0.10366641 17:-0.42067223 18:-0.071071549 19:1.8256207 20:1.3549367 21:0.92192281 22:0.39871063 23:-0.82284149 24:0.37504532 25:0.8376656 26:0.10547315 27:0.32839992 28:0.34685403 29:-0.97464046 30:1.5347405 31:-0.17110777 32:0.10731949 33:-0.74788414 34:0.54536233 35:-1.1297733 36:-0.64641456 37:-0.084711001 38:-0.51133265 39:0.98027049 40:-1.7519489 41:-0.031779696 42:-1.3017697 43:0.7567871 44:-0.010688121 45:0.60319652 46:-0.15289322 47:0.43024695 48:-0.02206607 49:1.1302521 50:0.19950545 51:0.12218539 52:0.14138857 53:0.3356906 54:-0.0067654363 55:-0.9332843 56:0.041483255 57:-0.92364269 58:-0.028474827 59:0.70792046 60:-0.18678992 61:0.14758386 62:0.051310968 63:-0.69977603 64:1.2175873 65:0.020599285 66:-0.21128324 67:-0.78559045 68:-0.062620292 69:1.0304725 70:-0.87705276 
-0.04312109389929251 -0 1:2.5052335 2:-0.71892455 3:-0.20424368 4:1.9668405 5:0.6084973 6:2.529069 7:-0.80570586 8:2.0818708 9:-0.2927578 10:-2.4921011 11:-1.0755736 12:-0.24018705 13:-0.93334057 14:0.40653807 15:-0.79383836 16:0.19307043 17:-1.2125302 18:-0.45902795 19:-0.91623797 20:-0.87849972 21:-1.5175466 22:-0.72950669 23:-0.090624169 24:-0.43331357 25:-0.084434902 26:-1.0092492 27:-0.51334206 28:-0.92809373 29:1.2215235 30:-0.28987282 31:-0.70856779 32:-1.4905071 33:0.22314132 34:-1.6660509 35:0.97128995 36:-0.45254798 37:0.73216754 38:0.63444507 39:-0.7696986 40:-0.093596625 41:-0.88358017 42:0.66760128 43:1.2122197 44:-0.4885786 45:-0.068705021 46:-0.65701308 47:-0.78130877 48:-1.1655858 49:-1.2380876 50:-1.6476807 51:-1.4747751 52:-1.4335432 53:-1.0916907 54:-0.92188266 55:-0.17611412 56:-0.75762234 57:-0.28809044 58:-0.22786951 59:-0.17178595 60:-1.1271422 61:-0.67989563 62:-0.97843684 63:0.41595693 64:-0.43225875 65:-0.70687475 66:-1.2528074 67:-0.035925165 68:-0.97553734 69:0.33015152 70:-0.72493531 
-0 -0.4497957749279298 1:-0.02816448 2:-0.7780841 3:-0.075598457 4:0.13583069 5:0.55367168 6:-0.3692802 7:-0.69731394 8:-0.28225574 9:-0.26093213 10:0.68621809 11:-0.31184715 12:-0.65869209 13:-0.33915475 14:-0.49443762 15:-0.036778542 16:0.53747083 17:-0.33243474 18:0.25444748 19:0.47646578 20:0.24376031 21:-0.029627785 22:0.66383354 23:0.37928394 24:-0.31862082 25:1.3321444 26:0.40036624 27:-0.47359083 28:-0.58190203 29:-0.38890622 30:1.2248088 31:1.2932843 32:-0.80178814 33:-0.29093758 34:-0.87301486 35:-0.48694826 36:-0.69395927 37:0.024583451 38:-0.13501676 39:0.050914567 40:-0.72313658 41:-0.73322587 42:-0.41316873 43:-0.10588694 44:-1.2346866 45:-0.86754089 46:-0.37269935 47:-0.48209788 48:-1.0029973 49:-0.41175745 50:-0.82144756 51:-1.0571865 52:-0.53733237 53:-0.26967017 54:-0.31646292 55:-0.36600592 56:0.77948857 57:0.76136462 58:-0.49130088 59:1.9762117 60:0.24745956 61:-0.59118243 62:-0.54507446 63:-0.54915986 64:1.3237566 65:1.3463466 66:-0.72443398 67:-0.45953618 68:-0.86766721 69:-0.8370501 70:-0.72191767 
-0 -0.1939626553901461 1:-1.2147856 2:0.47582802 3:0.52082622 4:-1.6562021 5:-1.4590876 6:-1.9395352 7:-0.24377866 8:-1.3217683 9:0.28237071 10:2.4118015 11:-1.4715984 12:-2.7012926 13:-0.98141454 14:-0.52605401 15:0.772487 16:0.050492824 17:-0.54569852 18:-2.1591775 19:-1.451916 20:-2.1845992 21:-1.1341812 22:-0.53075787 23:2.1690508 24:-0.37174828 25:3.1094247 26:-0.9052718 27:1.6357478 28:-0.72493396 29:-0.58700102 30:0.1057086 31:1.177461 32:-0.91306754 33:0.82173911 34:-0.3871048 35:-1.7799442 36:-0.13966809 37:-0.76438368 38:-0.52915691 39:2.2977179 40:-2.1742774 41:-0.17726828 42:-1.5887164 43:-0.093387046 44:0.05169921 45:-0.77377509 46:-1.5245561 47:-0.99624957 48:-0.76488563 49:-0.16547347 50:-0.81867156 51:-1.0280158 52:-1.2602849 53:-1.1119792 54:-1.1740364 55:-1.0575557 56:-0.82236419 57:1.3178313 58:-0.5665964 59:2.0582155 60:-1.0857541 61:0.98691986 62:-0.78437226 63:-0.56698885 64:-0.22065327 65:0.32215962 66:-0.98982443 67:0.43794676 68:-0.9309055 69:-0.17007775 70:-0.85038018 
-0 -0.02779783543837107 1:-0.6506996 2:-0.019177409 3:0.67784296 4:-0.94379373 5:-1.0342244 6:-0.53680263 7:-0.27856916 8:-0.69197111 9:0.51370306 10:0.74830861 11:-0.86969845 12:-1.1492128 13:-0.23380182 14:-2.2196825 15:-1.0781106 16:-1.3310853 17:-0.7411544 18:0.55075891 19:-1.1101382 20:-0.15675496 21:0.81230967 22:1.2289248 23:1.1335962 24:-0.73914075 25:0.75043584 26:-0.027843479 27:1.6183192 28:-0.62905943 29:-0.14094339 30:1.083838 31:-0.11341155 32:-0.8230362 33:0.5413723 34:-0.44194446 35:-1.1355912 36:-0.31319503 37:-0.73112328 38:-0.90498806 39:0.35057125 40:-0.95055551 41:-0.19922291 42:-1.0384655 43:-0.48008483 44:-0.69860178 45:0.16944087 46:-0.072866533 47:0.74473638 48:0.16281847 49:0.47254182 50:0.15474796 51:0.45683643 52:0.53695811 53:0.54552096 54:1.3616251 55:0.91981007 56:0.89640222 57:0.92880956 58:-0.36656631 59:0.64692394 60:-0.072470427 61:1.3473177 62:-0.66122995 63:-0.13419606 64:0.97059065 65:-0.40644404 66:-0.73912401 67:0.89387627 68:-0.65875261 69:-0.17007775 70:-0.91467467 
-0.01126315418742546 -0 1:0.04629917 2:-0.23889615 3:0.015233941 4:0.22325242 5:0.31847126 6:0.17186074 7:-0.052974332 8:0.27270344 9:0.71846009 10:-0.0257385 11:1.2711113 12:0.6857321 13:0.38669941 14:0.22838317 15:0.89039739 16:0.076394527 17:-0.40822424 18:1.4602031 19:0.24950213 20:1.7710746 21:-0.014067904 22:0.14313054 23:-0.74277106 24:0.4419489 25:-0.20139348 26:0.84917487 27:-0.25000279 28:-0.57846507 29:-0.28781516 30:-0.34517319 31:-0.63269193 32:1.2937075 33:-0.3283996 34:-0.29636877 35:0.99147167 36:-0.39059387 37:-0.061500222 38:0.7266387 39:-0.50158233 40:1.6852439 41:-0.066485817 42:1.0370705 43:0.10659561 44:0.79101078 45:-0.47235048 46:-0.51309516 47:-0.20447737 48:-0.59393809 49:-1.0455512 50:-0.37495971 51:-0.016465888 52:0.15319014 53:0.022852343 54:0.65096028 55:0.97316112 56:0.50448079 57:-0.65578177 58:0.5330253 59:0.30880336 60:0.98968581 61:0.13333581 62:-0.63124146 63:-0.0092545112 64:-0.28908022 65:-0.50697997 66:1.1192044 67:0.086276153 68:-0.30074396 69:1.0304725 70:0.19853034 
-0.0371373820428223 -0 1:0.042361962 2:-0.12512268 3:0.57833082 4:-0.29944447 5:-0.63254418 6:0.31980144 7:-0.40311977 8:0.059116681 9:0.58654556 10:-0.14608511 11:-0.18318854 12:0.4922925 13:0.45090175 14:-0.070858016 15:1.2893884 16:-0.54860739 17:0.71333588 18:-0.39766647 19:1.606656 20:0.53150404 21:0.2422829 22:-0.49299692 23:-0.34012396 24:0.98404795 25:-0.07409249 26:0.34988329 27:-0.22184936 28:-0.76685147 29:0.44019679 30:-0.069241986 31:-0.30125639 32:-0.21804682 33:0.12320732 34:-0.27930255 35:0.33448141 36:-0.19025848 37:-0.47094549 38:-0.44022207 39:-0.46496345 40:0.55665788 41:-0.55168386 42:0.17887665 43:0.22401427 44:-0.29243498 45:-0.50597093 46:-0.66311936 47:-0.12511166 48:-0.14638653 49:0.46013718 50:-0.082046885 51:-0.26076143 52:-0.020532933 53:-0.17950497 54:-0.27304347 55:-0.15856939 56:-0.59487735 57:-0.33824828 58:0.93907171 59:-0.011811028 60:0.18352997 61:-0.17043574 62:-0.86928237 63:0.55642317 64:0.10959739 65:-0.2353789 66:-0.075778795 67:0.14978271 68:-0.0098040813 69:-0.5452497 70:0.18218312 
-0.05850883171618763 -0 1:-1.2558691 2:-0.24742552 3:0.60570413 4:-1.4366358 5:-0.95207041 6:-1.3895915 7:-0.37745818 8:-1.2357149 9:-0.28235653 10:1.7562691 11:-0.37754604 12:0.10456568 13:0.88375813 14:0.611059 15:1.176847 16:1.376723 17:-0.21678498 18:0.41742694 19:-0.76216489 20:-0.97569147 21:-1.7504044 22:0.36106303 23:0.026143415 24:-0.26069441 25:-0.45114159 26:0.22159703 27:-0.24650146 28:-0.67869639 29:2.8489719 30:-0.59363941 31:3.0865908 32:0.51173448 33:-0.47889819 34:0.019266993 35:-1.3371573 36:-0.44117838 37:-0.67450696 38:-0.55807281 39:1.314486 40:-1.5217654 41:-0.003185203 42:-1.2702274 43:-0.06158672 44:-0.40228002 45:0.11831579 46:-0.30849827 47:-0.61632308 48:-0.040990624 49:-0.24292701 50:-0.19594103 51:0.027329836 52:-0.28443048 53:-0.29603753 54:-0.58173341 55:-0.63579673 56:0.03570446 57:-0.17357225 58:-0.17063232 59:-0.80249451 60:-0.723436 61:-0.21182022 62:-0.8596703 63:1.5603228 64:-0.75025405 65:1.4117848 66:-0.1796762 67:-0.55556649 68:-0.81422409 69:0.33015152 70:-0.83215924 
-0.02054231785197613 -0 1:0.19232427 2:-0.79122601 3:0.076029994 4:-0.045198309 5:-0.047558804 6:0.068514279 7:-0.13364815 8:0.39067027 9:-0.54501995 10:0.58470154 11:0.85046275 12:-0.58542793 13:0.36228444 14:-0.49926997 15:-0.19788002 16:-0.17810229 17:0.22449727 18:0.51816051 19:0.44476015 20:-1.2223515 21:-0.18966343 22:0.2630043 23:-0.54538044 24:0.16331498 25:1.1607279 26:0.33464095 27:-0.19002845 28:-0.76558827 29:-0.68166522 30:0.19590988 31:0.59763737 32:0.43201381 33:-0.35617009 34:-0.57512035 35:0.55721488 36:-0.71847388 37:-0.026997216 38:0.36549586 39:-0.35372384 40:0.97038039 41:-0.033830467 42:0.46183093 43:0.85472071 44:1.0786827 45:0.9207486 46:0.30074152 47:0.039391738 48:-0.53666669 49:-0.96157691 50:-0.53966326 51:-0.5108205 52:-0.18606896 53:-0.20298876 54:0.40795121 55:0.39012437 56:0.30504042 57:-0.48411267 58:0.37204675 59:1.7800874 60:0.40207713 61:0.15533974 62:-0.86822236 63:-0.47458996 64:0.39676719 65:0.31735426 66:0.36770141 67:-0.37084894 68:-0.46338343 69:-0.5452497 70:0.073960534 
-0 -0.08267659979037795 1:-0.95082281 2:-0.32477654 3:0.46153871 4:-1.1502117 5:-0.96784627 6:-1.1717339 7:-0.33433133 8:-1.0256487 9:0.072307791 10:1.4626033 11:0.3529285 12:-1.2872869 13:-1.6279827 14:-2.2014958 15:-1.8626335 16:-0.12333708 17:-1.0118575 18:-1.0711612 19:-1.0043344 20:-1.2021232 21:-2.9404129 22:2.3373581 23:-0.051849754 24:-0.79134432 25:0.81302676 26:0.64795558 27:0.1879521 28:-0.69233471 29:-1.0686408 30:1.7056594 31:0.70888907 32:-0.62748272 33:2.5982046 34:-0.52381394 35:-1.3276459 36:-0.61111148 37:-0.73189842 38:-0.71028386 39:0.82479852 40:-1.4613623 41:-0.097285122 42:-1.1508081 43:-0.70293998 44:-0.81787711 45:-0.59010451 46:-0.971089 47:-1.1717103 48:-0.52198801 49:-0.32345207 50:-0.50290054 51:-0.57128885 52:-0.15424196 53:-0.36568968 54:-0.47694502 55:-0.33458006 56:1.1938273 57:-0.16965173 58:-0.83145047 59:0.1189571 60:0.26034944 61:0.10535184 62:-0.78641757 63:-1.0815956 64:1.5059335 65:0.34408627 66:-0.72302008 67:2.1248181 68:-0.85739347 69:3.8317564 70:-0.76376663 
-0 -0.109597345170707 1:-0.35523926 2:-0.60289151 3:0.42160333 4:-0.63945133 5:-0.34606761 6:-0.77276961 7:-0.17402292 8:-0.36586888 9:-0.6324716 10:1.2947566 11:0.52035889 12:-1.0698119 13:0.1379479 14:-1.87107 15:-0.40850026 16:-0.8485644 17:-1.0050121 18:-0.58412674 19:0.1316824 20:-0.4463168 21:-0.28442112 22:2.7107329 23:-0.66111794 24:-0.28263361 25:0.42429782 26:0.1352359 27:0.1510441 28:-0.39797256 29:-0.94463038 30:1.6644442 31:-0.61001512 32:-0.041725037 33:0.83916523 34:-0.034726141 35:-0.30215873 36:-0.56607178 37:-0.56445319 38:-0.23240392 39:0.19560382 40:-0.63562674 41:-0.14562409 42:-0.42481096 43:-0.018807026 44:0.078773554 45:0.069540107 46:-0.078088198 47:-0.0098292646 48:-0.12895815 49:0.24318711 50:0.40723557 51:0.87504423 52:0.80114106 53:0.81630257 54:0.65738451 55:0.25043764 56:1.7658658 57:-0.7227207 58:-0.35735768 59:0.5300587 60:-0.10134014 61:0.29934105 62:-0.41179746 63:-0.92062862 64:1.561309 65:-0.81308059 66:0.027657562 67:1.2005445 68:-0.36778874 69:0.33015152 70:-0.83762889 
-0 -0.1371860151888422 1:0.69128147 2:-0.3820476 3:0.39206459 4:0.48840612 5:-0.067116496 6:0.77561203 7:-0.48083398 8:0.91520608 9:0.48981565 10:-0.3826663 11:0.59402354 12:-0.43395939 13:0.095105156 14:-1.1211905 15:0.74586594 16:-1.5285621 17:-0.53368533 18:0.88688017 19:-0.37040746 20:0.39814616 21:0.95788243 22:-0.09119181 23:0.41288082 24:-0.40371341 25:-0.1084744 26:0.81682164 27:0.5313814 28:-0.47492743 29:0.19707288 30:0.94414973 31:-0.42108258 32:-0.99921158 33:-0.54862806 34:-0.74942141 35:0.51650179 36:-0.45167533 37:-0.26239326 38:-0.041131693 39:-0.954253 40:0.7937184 41:-0.43145909 42:0.40729604 43:0.085805905 44:0.070135401 45:0.044785143 46:-0.35338749 47:-0.10416727 48:0.35722842 49:-0.033309662 50:0.050653143 51:0.30006834 52:0.4965012 53:0.47797211 54:0.80142227 55:1.0842529 56:0.17318727 57:0.80097138 58:-0.26651419 59:0.16227933 60:0.90974465 61:0.93293773 62:-0.40231691 63:0.2168956 64:1.0940442 65:-0.35742118 66:-0.95642989 67:-0.47388506 68:-0.54443164 69:1.0304725 70:-0.27368686 
-0 -0.2875364693059749 1:0.23528598 2:-0.63762375 3:0.88213152 4:-0.61925871 5:-1.5923906 6:0.62635842 7:-0.18730416 8:0.26153721 9:-0.13162029 10:-0.45719387 11:-0.88300879 12:0.022852739 13:-1.5357148 14:1.014896 15:-3.1347158 16:0.65444358 17:-1.286532 18:0.55901455 19:0.18873939 20:-0.33732937 21:0.099083731 22:0.10767031 23:0.91752967 24:-0.8988488 25:-0.30167212 26:-0.07177913 27:0.84647279 28:-0.84374926 29:0.26587351 30:0.73038011 31:0.018531452 32:-0.98553164 33:1.2706866 34:-0.86755083 35:-0.67398381 36:-0.68250566 37:-0.70014968 38:-0.82596455 39:0.53793163 40:-0.61702965 41:-0.16632157 42:-0.77734016 43:-0.13565105 44:0.2427384 45:0.18489622 46:-0.33781202 47:0.24121311 48:0.18092601 49:0.32330323 50:0.031696838 51:0.031961245 52:0.1625863 53:0.3257549 54:0.55624455 55:0.95329244 56:-0.25819117 57:0.99064574 58:-0.8525337 59:-0.30546206 60:-0.50871667 61:0.85502989 62:-0.90819826 63:0.3897495 64:0.8130218 65:-0.11204527 66:-0.87765631 67:1.2344159 68:-0.60131672 69:0.33015152 70:-0.91475873 
-0 -0.4269472079928133 1:-1.2987722 2:-0.62525952 3:0.24160941 4:-1.531043 5:-1.1927249 6:-1.4150399 7:-0.30005861 8:-1.2514176 9:-0.7984591 10:1.7216702 11:0.25412015 12:0.39150704 13:-0.19759452 14:-0.76160306 15:-0.25376402 16:0.10837927 17:-1.8296325 18:-1.6908414 19:-0.3596179 20:0.018443424 21:-0.023924265 22:1.5000174 23:-0.56306505 24:0.175785 25:1.7754642 26:2.0916793 27:1.3636885 28:-0.7010015 29:-0.96429217 30:-0.19833803 31:-0.068739037 32:-0.14689773 33:-0.38033202 34:0.21693004 35:-1.2418396 36:-0.60037937 37:-0.46806584 38:-0.57176685 39:1.4807632 40:-1.3113924 41:-0.19706785 42:-1.1740318 43:0.10584773 44:-0.1641847 45:-0.51545173 46:-0.2504903 47:-0.4600253 48:-0.5982796 49:-0.4321995 50:0.71996863 51:-0.30097528 52:-0.37706482 53:-0.45275575 54:-0.21715308 55:0.15602375 56:0.35771742 57:-0.53988477 58:-0.019678526 59:1.7645225 60:1.2094659 61:0.98761993 62:-0.77085756 63:-1.0237027 64:-0.33194803 65:-0.43463248 66:-0.810465 67:-0.55244848 68:-0.66908905 69:1.0304725 70:-0.9074138 
-0.005592718629733244 -0 1:0.39057034 2:-0.28462238 3:-0.074178135 4:0.45004672 5:0.59315206 6:0.090563934 7:-0.012078513 8:0.79295878 9:0.038058513 10:0.35848299 11:2.1126163 12:0.22376901 13:0.98350508 14:0.015659524 15:0.84032641 16:-0.095869675 17:-0.079740246 18:1.6303171 19:0.15464809 20:0.3781662 21:-1.535512 22:0.6324255 23:-0.66520107 24:-0.12857003 25:-0.80645793 26:1.8606587 27:-0.84560521 28:-0.26834669 29:-0.068225 30:-0.30020263 31:-0.034725796 32:0.91960815 33:-0.20471461 34:-0.15977781 35:2.1819904 36:-0.3830252 37:0.03380868 38:2.3331362 39:0.53003964 40:2.1134494 41:-0.043159231 42:1.8856768 43:0.66521358 44:1.5086687 45:1.1267069 46:-0.20051378 47:0.23263277 48:-0.32858777 49:-0.01137395 50:0.087622535 51:-0.091140508 52:-0.11748967 53:0.33929352 54:0.78792617 55:0.60215188 56:0.8076193 57:-0.47027538 58:0.0024602618 59:-0.80280737 60:1.4587099 61:-0.55457104 62:-0.2732016 63:0.42815837 64:0.039399324 65:0.14564318 66:0.89356293 67:0.26619606 68:-0.38413453 69:-0.17007775 70:0.13661496 
-0 -0.07083703802696081 1:-1.2809032 2:-0.88490274 3:0.045245287 4:-1.3506867 5:-0.76041366 6:-1.2881255 7:-0.40099322 8:-1.2587256 9:-1.2043302 10:1.2108354 11:0.59932861 12:1.2927948 13:-0.39238841 14:-0.88626103 15:0.31783348 16:2.0355072 17:0.37443141 18:1.0516107 19:1.570272 20:-0.10569755 21:-0.41247063 22:0.27394846 23:0.34330083 24:0.19030109 25:-0.062797931 26:2.5060433 27:-0.47528687 28:-0.05844576 29:-0.89128531 30:-0.6571721 31:0.3553711 32:0.26144936 33:0.6319232 34:0.22318126 35:-0.86917412 36:-0.80755657 37:0.032018119 38:-0.37169643 39:0.78953146 40:-0.93595167 41:-0.16061244 42:-0.95318693 43:-0.031794738 44:-0.22966614 45:-0.372449 46:0.14000051 47:0.19675547 48:-0.020222703 49:0.068174272 50:0.36116111 51:0.19152636 52:0.73596834 53:0.92592625 54:-0.44534049 55:0.64762456 56:0.416613 57:0.94422531 58:0.14066061 59:0.0073202797 60:1.8452854 61:-0.13559931 62:-0.054234446 63:-0.70399059 64:-0.73488646 65:0.18767892 66:-0.13530234 67:1.2087593 68:-0.38184306 69:1.0304725 70:-0.57360689 
-0.004202436792787294 -0 1:0.45768454 2:-0.16192975 3:-0.35130364 4:0.78615309 5:1.203455 6:-0.10036471 7:-0.43610065 8:0.2318847 9:-0.26974356 10:0.33364853 11:1.0399206 12:-1.2944071 13:-0.43788163 14:-0.45893745 15:1.0107582 16:-0.28116415 17:0.88745691 18:0.15595822 19:1.2798462 20:0.84497125 21:-0.20318807 22:0.45810211 23:-0.43049956 24:-0.3474298 25:-0.14989012 26:0.54031013 27:-0.34804407 28:0.039043674 29:0.6878916 30:0.23831692 31:-0.87485151 32:0.22157223 33:-0.029986724 34:-0.20107642 35:0.85613251 36:-0.2318188 37:0.45056287 38:0.978593 39:-0.34360944 40:0.88555077 41:-0.23110266 42:0.7910805 43:0.43593571 44:0.47591472 45:-0.017332066 46:-0.45294569 47:0.41971999 48:-0.87321587 49:-0.89396016 50:0.65547775 51:-0.12328482 52:0.19806063 53:0.39821993 54:0.62356094 55:0.041481485 56:0.70560312 57:-0.43881445 58:-0.22751035 59:-0.018242471 60:0.83774706 61:-0.34776908 62:0.28183346 63:0.93699581 64:0.032331011 65:-0.96014492 66:0.42734287 67:0.0080985977 68:-0.061317191 69:-0.17007775 70:-0.30837188 
-0 -0.1729427176731998 1:-0.85352331 2:-0.46491346 3:-0.1077026 4:-0.83149115 5:-0.50504807 6:-0.89843366 7:-0.59029152 8:-0.75331452 9:-0.38364912 10:0.94215424 11:0.14373225 12:-1.6889157 13:-1.4466919 14:-0.85400133 15:0.039711991 16:0.4174698 17:2.2964859 18:0.062882041 19:1.2374405 20:0.91329772 21:0.53567992 22:-0.084853149 23:0.8275404 24:-0.095982776 25:-0.49985279 26:-0.24465768 27:-0.8226906 28:-0.61405346 29:-0.31649768 30:0.16327714 31:0.35490771 32:0.79417343 33:2.6808469 34:-0.0019251448 35:-0.61406446 36:-0.45329423 37:-0.42773226 38:-0.23104978 39:0.24685477 40:-0.22581056 41:-0.22341698 42:-0.51898949 43:-0.23960725 44:0.72907231 45:-0.1188937 46:0.31366261 47:-0.02228709 48:0.4502098 49:0.28168663 50:1.1929036 51:0.7255403 52:0.43833024 53:0.7159711 54:0.15256575 55:-0.32081257 56:-0.0037752263 57:0.47991606 58:0.21535335 59:-0.54026604 60:-0.14486647 61:-0.796034 62:-0.55815046 63:-0.13385013 64:0.035825077 65:0.51503658 66:0.43099412 67:2.3716229 68:-0.27206048 69:-0.17007775 70:-0.67552852 
-0.003764799538715421 -0 1:0.62049443 2:-0.48901494 3:0.23453563 4:0.51655211 5:0.15098991 6:0.97893184 7:-0.17001634 8:0.70085622 9:0.34728768 10:-0.87313819 11:-0.093553597 12:0.95347523 13:0.3074746 14:1.4390481 15:0.00042201785 16:-0.011215349 17:-0.77074839 18:-0.0043123338 19:-0.46301504 20:-0.65228471 21:0.49560297 22:0.06299773 23:-0.54071845 24:-0.10336244 25:0.36948808 26:-0.24447369 27:-0.05672835 28:-0.31996072 29:0.53563379 30:-0.43144683 31:-0.78797988 32:0.15936948 33:-0.38608914 34:-0.504447 35:0.65878812 36:-0.35715931 37:0.31056947 38:0.62483901 39:0.27155418 40:0.85843725 41:-0.22901914 42:0.57535041 43:1.1108845 44:0.92696744 45:1.4540652 46:0.11336297 47:1.134776 48:0.9011069 49:0.52617761 50:-0.013309088 51:0.2791013 52:0.2147096 53:0.91522805 54:0.70844603 55:0.23090341 56:0.79084525 57:-0.40941167 58:0.18815717 59:1.4333546 60:0.29445208 61:0.097687064 62:-0.16737877 63:0.83398311 64:-0.2004597 65:-0.54625804 66:0.43666014 67:-0.36073486 68:-0.094473259 69:-0.5452497 70:0.17692498 
-0.003493236773424594 -0 1:0.39369479 2:-0.39893507 3:0.53857486 4:0.57183111 5:0.69911039 6:0.2790299 7:0.30731791 8:0.38993776 9:-0.15267889 10:-0.17480366 11:0.51488339 12:0.69644317 13:0.36355858 14:0.0053535384 15:-0.78539293 16:-1.1874176 17:-0.12135264 18:-0.42735131 19:0.14525588 20:-0.065854514 21:-0.4923638 22:0.57656291 23:-0.39398046 24:0.18987547 25:0.11540228 26:-0.7081983 27:0.66921945 28:-0.43007745 29:0.67939547 30:0.14392221 31:0.33043203 32:0.2185317 33:0.2121622 34:-0.098280759 35:0.64346636 36:-0.38682599 37:-0.13686303 38:0.67116094 39:0.38026429 40:0.6661099 41:0.34813678 42:0.68161366 43:0.29067324 44:0.3396072 45:1.2095819 46:1.6966632 47:0.45531339 48:0.69080974 49:0.41726452 50:0.79801316 51:0.86367476 52:0.76746835 53:1.0001278 54:1.8492021 55:1.7436495 56:1.0436944 57:-0.14705887 58:0.32361985 59:1.0877801 60:0.1618605 61:1.5553382 62:-0.26791179 63:1.2673158 64:1.0387893 65:0.98300218 66:0.40442848 67:1.0836004 68:-0.22938826 69:-0.8370501 70:-0.75108663 
-0.04815557334363974 -0 1:-0.15213831 2:-0.38325827 3:0.76169496 4:0.13912709 5:0.2286498 6:-0.2060309 7:-0.10182389 8:-0.083943954 9:-0.10334641 10:-0.33560229 11:1.0392602 12:0.043333464 13:-0.17561198 14:0.82699414 15:-0.088769599 16:-0.30084178 17:-0.66490402 18:-0.96930007 19:-0.10666286 20:0.15941973 21:-0.60818855 22:0.72041959 23:-0.5305004 24:-0.27530539 25:-0.14411051 26:0.76076643 27:0.009768771 28:0.76223362 29:-0.34214067 30:-0.22730135 31:0.096252593 32:-0.3912823 33:-0.28450582 34:0.79230059 35:0.28635626 36:-0.37798202 37:-0.70013219 38:0.17696388 39:-0.099148182 40:0.0055298291 41:-0.13414825 42:0.21016038 43:0.19065144 44:-0.11699858 45:0.81552151 46:0.44144688 47:1.3116761 48:1.2483574 49:0.50263948 50:0.35949946 51:0.10014946 52:-0.19543145 53:0.035467771 54:0.1314007 55:0.43556856 56:1.0576109 57:-0.43772032 58:0.037132818 59:0.32471836 60:0.76668208 61:0.54659012 62:0.60227522 63:-0.14966148 64:0.13349026 65:0.43885086 66:-0.229543 67:-0.0051581406 68:0.43159182 69:-0.17007775 70:-0.95050409 
-0 -0.1275499705151809 1:0.007793697 2:0.023065878 3:1.1766759 4:-0.41587721 5:-1.0070454 6:0.51780123 7:-0.73118241 8:0.058850871 9:0.59867368 10:-0.37897042 11:-1.0594262 12:0.81200555 13:-1.1031583 14:0.23931528 15:0.63637615 16:0.47651712 17:0.10622738 18:0.75304993 19:2.2111929 20:1.4217188 21:0.1234987 22:-1.1699275 23:-0.40517761 24:-0.61559588 25:-0.21989974 26:-0.78155752 27:0.2695693 28:-0.66570775 29:-0.29442492 30:-0.51360046 31:0.87348508 32:-0.029475661 33:0.33841765 34:-0.52614182 35:-0.61612979 36:-0.32481234 37:-0.80161646 38:-0.45720086 39:0.25286074 40:-0.51207052 41:-0.32863089 42:-0.81613898 43:-0.59210675 44:0.70788739 45:-0.20977004 46:0.181838 47:0.44575478 48:0.26506199 49:0.96245015 50:0.359007 51:0.28868799 52:0.95791384 53:0.65177255 54:0.48151687 55:0.09279824 56:-1.467289 57:-0.42546617 58:-0.29192514 59:-0.61846117 60:-0.92841155 61:-0.074114803 62:-0.68375349 63:-0.46625173 64:-0.76392401 65:0.49535327 66:-0.14904259 67:-0.092000097 68:-0.41383049 69:2.080954 70:-0.63117158 
-0 -0.07348472202385152 1:-0.045201471 2:-0.42910137 3:0.8410876 4:-0.1964068 5:-0.78271616 6:0.3809259 7:-0.55159057 8:0.08243347 9:-0.33586469 10:-0.57154554 11:-0.94932387 12:-0.062181984 13:-1.5594656 14:-0.045953098 15:0.46356938 16:1.0834586 17:0.18887871 18:-0.043665307 19:-0.01221804 20:0.46824175 21:0.43421582 22:-0.52099629 23:2.2668896 24:-0.54567642 25:-0.28557498 26:-1.3549251 27:0.73040283 28:-0.74183501 29:1.1285131 30:0.99127037 31:-1.1167063 32:-0.52016021 33:-0.60764991 34:-0.67092868 35:-0.50240104 36:-0.41363754 37:-0.47207994 38:-0.27434902 39:0.34302847 40:-0.23104716 41:-0.15747082 42:-0.615234 43:0.01073152 44:1.4356857 45:0.68814524 46:1.0698059 47:0.8415826 48:0.96563994 49:1.0753599 50:1.4385321 51:1.9224007 52:1.2847526 53:1.5216684 54:1.1186888 55:1.0482925 56:-0.66870361 57:2.3165821 58:-0.56543983 59:-0.036378785 60:-1.2874328 61:0.81675898 62:-0.69770465 63:1.2152544 64:1.045464 65:-1.3315016 66:-0.45636386 67:-0.53145577 68:-0.57115177 69:1.0304725 70:-0.51368705 
-0.01130175581971773 -0 1:0.62398732 2:-0.42514794 3:0.64446602 4:0.46775129 5:1.0220327 6:-0.2764087 7:-0.58875947 8:0.57193887 9:-0.29380993 10:0.60744494 11:0.057935323 12:-3.1767294 13:0.24901963 14:1.8347664 15:1.79106 16:2.6586722 17:1.5416768 18:1.1406937 19:2.4474538 20:-0.83594353 21:2.5417798 22:0.060442589 23:0.5765293 24:-0.45470409 25:-1.071983 26:0.47792175 27:-0.82067304 28:0.012642481 29:2.3993698 30:-0.90738277 31:-0.3744238 32:-0.20995525 33:-0.17083643 34:-0.036096628 35:0.96932352 36:-0.48552978 37:-0.3879103 38:0.31910308 39:-0.8594231 40:0.28988202 41:-0.20263278 42:0.66470576 43:-0.74715765 44:-0.21566008 45:0.067434389 46:0.54833477 47:-0.08680238 48:0.52577386 49:0.80243166 50:1.3882295 51:0.18182185 52:0.44615633 53:0.73708208 54:0.032191675 55:-0.48475032 56:0.11078772 57:0.21550164 58:-0.19647441 59:-1.4499356 60:0.37313166 61:-0.81688113 62:0.10217485 63:0.47019896 64:-0.96178695 65:-0.18041144 66:0.1617922 67:0.03094199 68:0.10820756 69:-1.2614871 70:-0.5185763 
-0 -0.1134016206752972 1:-0.052273294 2:-0.77151294 3:0.34567627 4:-0.67489452 5:-0.87726193 6:-0.11796006 7:-0.41656971 8:-0.2873864 9:-0.95940832 10:-0.15228687 11:-1.0881116 12:0.89686301 13:-0.58210837 14:-0.35600681 15:0.039339178 16:1.3821454 17:0.45109761 18:1.7125714 19:1.298809 20:0.43632944 21:0.76722959 22:0.53327468 23:0.30909768 24:-0.14901305 25:0.22323658 26:-0.68030694 27:0.71186507 28:-0.46129723 29:3.3302404 30:-0.024092664 31:-0.88651335 32:0.3467503 33:0.15510448 34:-0.12300508 35:-0.46851301 36:-0.53968135 37:0.40290924 38:-0.73262334 39:0.31109093 40:-0.44625673 41:0.15207087 42:-0.76159786 43:0.3635817 44:0.0613846 45:0.055671821 46:0.33625719 47:0.73872543 48:1.2168951 49:1.7766576 50:2.0805798 51:1.717764 52:2.6040621 53:1.1633525 54:0.2214759 55:0.74963222 56:1.3994247 57:0.52617616 58:0.067775028 59:0.91009733 60:-0.56069369 61:1.4314773 62:-0.39163607 63:4.0591424 64:0.30829074 65:-0.98009798 66:0.32296498 67:0.20549471 68:-0.077290138 69:-0.17007775 70:-0.79261259 
