svm_type c_svc
kernel_type linear
nr_class 8
total_sv 1491
rho 2.02618 0.780967 -0.303729 0.102188 0.550961 2.01475 1.16402 -0.816617 -1.82383 -1.53501 -0.686361 0.222743 -0.430948 -0.660255 0.161437 0.148523 1.18142 -0.369425 -0.679813 1.02516 1.28248 1.32134 0.0697103 1.4778 0.530534 1.57751 0.131073 -0.699329
label 0 1 2 3 4 5 6 7
probA -0.628578 -0.580661 -1.01557 -0.851289 -1.63328 -0.668071 -0.579323 -0.631283 -0.598051 -0.532545 -0.809817 -0.912574 -0.787226 -0.665606 -0.393175 -0.846503 -0.606691 -0.526577 -0.385278 -0.80051 -0.693215 -0.87996 -0.61018 -0.510787 -0.523166 -0.944909 -0.611525 -0.666728
probB 0.0346401 -0.032132 0.196736 -0.00764007 -0.18858 0.0632945 0.0510878 -0.0229673 -0.354788 -0.332302 0.186482 -0.0548686 -0.0349772 -0.223385 -0.347042 0.349732 0.0791419 0.126421 -0.0989838 0.214163 0.267098 -0.050398 0.458434 0.495176 0.41912 0.00840085 0.0996086 -0.161595
nr_sv 107 209 199 147 141 228 288 172
SV
0.802484881772033 0 0 0 0 0 0 1:-0.34949428 2:-0.082406598 3:0.22050259 4:-0.58853331 5:-0.61917075 6:-1.1925775 7:1.0115727 8:-0.51109035 9:-0.276997 10:1.357464 11:-0.32564503 12:-2.7387185 13:-1.1995472 14:0.13734653 15:-1.4751956 16:-2.1511823 17:-0.21327801 18:0.67867799 19:-0.42623508 20:-2.2156389 21:-2.7972001 22:-0.36225014 23:0.66147731 24:-1.0799158 25:-0.12630728 26:-0.94850119 27:0.15606627 28:-0.12233101 29:0.20121634 30:1.2486834 31:2.1209451 32:-0.49647477 33:-0.51780586 34:-0.34544042 35:0.12589768 36:-0.042133293 37:-0.45142842 38:0.49996744 39:0.75349714 40:-0.13826018 41:0.13761544 42:0.10771492 43:0.10604756 44:0.20227808 45:1.098588 46:0.71216111 47:0.67329765 48:0.34829778 49:-0.23859241 50:0.14384132 51:0.48800043 52:-0.44015204 53:0.024985855 54:0.3841306 55:-0.68699147 56:-0.4518793 57:0.41263644 58:-1.1936243 59:1.2074545 60:-0.76468058 61:0.41575801 62:0.2554349 63:0.56574355 64:1.4087318 65:2.1034352 66:0.16940138 67:-0.39074987 68:0.45815972 
0.7716531302267208 0 0 0 0 0 0 1:-0.50024839 2:-0.0064567193 3:0.9615515 4:-0.51451405 5:-0.52818007 6:-0.70928811 7:0.70641602 8:-0.70265675 9:-0.5771063 10:1.042598 11:0.75037684 12:-2.5293611 13:0.92385915 14:-3.3068907 15:-0.12983697 16:-0.65898655 17:-0.87957736 18:1.3986829 19:-3.3638326 20:-2.0350134 21:-4.0551302 22:1.7400225 23:1.111139 24:-0.82842042 25:-0.41997036 26:-1.1329579 27:-0.42074338 28:-1.1467495 29:-0.51963379 30:1.0443306 31:0.40016917 32:2.3906494 33:0.51638577 34:0.02968031 35:0.065393136 36:1.1988453 37:-0.27433358 38:0.24212514 39:0.80004583 40:0.047172492 41:0.61129167 42:0.26151996 43:0.55167591 44:0.45371891 45:1.0634246 46:2.0430279 47:1.2896886 48:1.6945188 49:0.67988011 50:-0.04522959 51:1.067452 52:1.9744888 53:0.95593071 54:1.9685193 55:0.61715584 56:2.2531017 57:2.4477246 58:-0.393247 59:-0.08914867 60:-0.92085729 61:0.03879242 62:-1.2070011 63:-0.44353575 64:1.3368819 65:0.16842793 66:2.7623992 67:0.83222379 68:-0.18368676 
3.363433064143334 0 0 0 0 0 0 1:0.17604042 2:-0.63650598 3:-0.067535636 4:-0.08724521 5:-0.16696305 6:-0.39106656 7:0.5157013 8:-0.057917583 9:-0.60633906 10:1.0976581 11:-0.13940509 12:-2.7378955 13:-1.3231035 14:-4.822656 15:0.98914643 16:-0.40984754 17:-0.94104483 18:-0.68857062 19:-1.4250503 20:-1.1411209 21:-1.0331508 22:0.77561177 23:1.0617891 24:-0.97154118 25:0.014233823 26:-0.46481156 27:0.48411149 28:-0.98671722 29:-0.55857514 30:1.0129893 31:0.92371187 32:0.06095018 33:2.0119676 34:-0.83316271 35:0.85537836 36:0.3084137 37:0.068598638 38:1.2333133 39:1.216224 40:0.7615543 41:0.63582194 42:0.97898 43:0.44499325 44:0.19523363 45:0.23661995 46:0.29949068 47:0.89613703 48:1.1024906 49:1.3034322 50:1.0481757 51:1.3812391 52:0.43206045 53:-0.023954659 54:0.14794191 55:0.88353848 56:0.80175031 57:0.92115157 58:-0.93084986 59:0.018412352 60:-0.38064314 61:0.57774953 62:-1.0847154 63:-0.45007258 64:1.0289826 65:0.70011413 66:0.3854868 67:1.9416658 68:-1.0084109 
0 2.379911848770375 0 0 0 0 0 1:-0.34114097 2:0.34106963 3:0.73604141 4:-0.73574155 5:-1.3126511 6:-0.32870141 7:1.1542247 8:-0.4378665 9:0.32274881 10:0.059094213 11:-1.1171873 12:-3.0424347 13:-0.76091067 14:-2.5625142 15:-1.9096014 16:-2.4971385 17:-2.5640423 18:-1.136541 19:-1.1367824 20:-2.1103705 21:-1.7664207 22:0.40407465 23:0.6377481 24:-1.0353037 25:0.059412241 26:-0.5084701 27:4.9115637 28:-0.8609551 29:0.76371012 30:0.1160524 31:-0.18816515 32:-0.40417571 33:0.82500235 34:-0.49440625 35:-0.019853459 36:2.039087 37:-0.019704009 38:-0.39280046 39:0.11121265 40:1.0270576 41:1.4731137 42:0.030965033 43:-0.36175694 44:1.7246314 45:0.83865603 46:2.1541719 47:1.8656953 48:1.7440688 49:1.7056993 50:0.034515101 51:1.0243695 52:0.50651666 53:1.2584739 54:1.9285689 55:1.8154501 56:0.39722773 57:2.0745249 58:-0.85189828 59:0.33651104 60:-0.33751063 61:6.8068308 62:-0.32280713 63:0.59998879 64:-0.090184983 65:-0.090888976 66:0.37191941 67:0.57794647 68:1.1411986 
5 0 0 0 0 0 0 1:-0.38415916 2:0.89205374 3:0.52539229 4:-0.74691682 5:-1.401739 6:-0.30934409 7:0.70834314 8:-0.44180532 9:0.88701276 10:0.27466581 11:-1.6975366 12:-1.5414314 13:-0.036752405 14:-1.3422973 15:-0.78950252 16:-1.9877902 17:-0.0067614856 18:-0.76234901 19:0.7052773 20:-1.7819307 21:-1.0514406 22:-0.2913506 23:0.36402357 24:-1.1100532 25:0.88339833 26:-0.60756163 27:0.40347595 28:-0.74924142 29:0.81911474 30:2.9790024 31:1.0653116 32:-0.49998044 33:0.52623473 34:-0.73243107 35:-0.75862813 36:1.4208316 37:-0.089973155 38:-0.63820315 39:-0.15546205 40:-0.78113702 41:0.11735828 42:-0.7004651 43:-0.78092245 44:0.04552778 45:1.0393441 46:1.7479267 47:1.1178613 48:1.7761506 49:1.5032058 50:0.76340048 51:1.543772 52:0.036209414 53:0.28737945 54:0.94317748 55:2.4948954 56:0.073566145 57:0.17799661 58:-1.1115164 59:2.3997762 60:0.025018936 61:1.5519768 62:-0.52108475 63:0.8935716 64:4.2920393 65:0.46967338 66:-0.24850189 67:0.77266989 68:-0.5494779 
1.76871627659145 0 0 0 0 3.239014059854978 0 1:-0.089222041 2:0.51186002 3:0.62527419 4:-0.22626836 5:-0.71876548 6:-0.053688233 7:0.95569342 8:-0.28831423 9:0.7384604 10:-0.18741766 11:-0.64901975 12:-1.0250006 13:-1.6843044 14:-2.2240359 15:-1.2034316 16:-1.6651475 17:-0.16384903 18:-0.80317137 19:-0.50785862 20:-3.0296439 21:-4.7180223 22:3.4401919 23:0.84141317 24:-0.79083661 25:-0.43366572 26:-1.1512556 27:-0.01582397 28:-1.0536532 29:0.13289563 30:2.1665506 31:0.69779922 32:-0.2378258 33:0.84645402 34:-0.39763595 35:0.47555726 36:1.1318265 37:-0.15855259 38:0.040911363 39:0.1977632 40:1.2628569 41:1.0179888 42:0.25447947 43:-0.73565249 44:0.91462865 45:0.75231947 46:0.55596359 47:0.79091143 48:1.0140246 49:1.3877744 50:1.1672716 51:0.55335269 52:1.8505199 53:0.6015754 54:2.0890391 55:3.4831197 56:5.8437596 57:1.5779102 58:-0.16332923 59:-0.10453286 60:-1.0123008 61:0.36012413 62:-0.96938824 63:0.57053084 64:3.2096193 65:2.1238373 66:0.7559342 67:0.98370179 68:1.029132 
0.6713086404622172 0.02938592802723491 0.01791609916249252 0 0 0.4957899702888434 0 1:-0.80670871 2:-1.2024005 3:-0.31581512 4:-0.78977219 5:-0.59952815 6:-0.74753728 7:0.32751434 8:-0.70174726 9:-1.1020299 10:0.64705875 11:0.80256461 12:0.8190411 13:-0.5118578 14:0.31764684 15:0.71853296 16:-0.096193473 17:-0.56441311 18:-0.25259155 19:0.64796038 20:0.68634607 21:-0.49432105 22:-0.072903805 23:-0.53281945 24:-0.59604891 25:0.55348126 26:0.092771834 27:0.11238811 28:-0.41324473 29:-0.49716998 30:-0.28399485 31:1.5797708 32:2.9534812 33:-0.47693211 34:0.15391543 35:-0.093310355 36:-1.3053387 37:0.35302769 38:-0.056032873 39:-0.17503727 40:0.29122031 41:0.24962886 42:-0.10726202 43:-0.25871368 44:0.26868285 45:0.0037493244 46:0.61961288 47:0.74169203 48:-0.28943277 49:-0.089711434 50:-0.61480021 51:-0.66676119 52:-0.49096918 53:-0.7775847 54:-1.0361952 55:-0.22190321 56:0.75978889 57:-0.56206399 58:-0.62910347 59:0.42829534 60:0.23920603 61:0.33073562 62:-0.57104516 63:-0.42353274 64:-0.25238136 65:1.6738137 66:3.806729 67:-0.3396225 68:0.65713262 
0 2.699277935308135 0.5924152543249618 0.2836501844945259 0 0 0 1:-1.0589814 2:-1.1045451 3:-1.003362 4:-0.84983594 5:0.21570404 6:-1.3181805 7:0.4913288 8:-1.0537182 9:-1.1916828 10:1.8118217 11:0.36598921 12:0.40495567 13:1.2992278 14:0.89989923 15:0.30701992 16:0.24655884 17:0.088729495 18:-1.3692007 19:-1.3222936 20:-0.69876646 21:-0.7607396 22:-0.20823457 23:-0.60633461 24:-0.11778701 25:2.1392468 26:0.33555483 27:-0.66131853 28:0.2460299 29:-0.31061406 30:-0.4616576 31:1.6233704 32:1.2475587 33:-0.55044613 34:-0.0091169496 35:0.090891638 36:-1.3364043 37:-0.17453113 38:-0.045897689 39:-0.040600221 40:-0.20032343 41:-0.28812099 42:-0.13010355 43:-0.10733831 44:0.13762079 45:0.44904075 46:-0.25280445 47:0.035340402 48:-0.37514428 49:-0.84607319 50:-0.19556211 51:0.12857373 52:-0.22669524 53:-0.52219623 54:-0.67107672 55:-0.19217623 56:-0.21584191 57:-0.690383 58:-0.32446049 59:1.8020555 60:0.22737261 61:-0.69682887 62:-0.096336031 63:-0.21817597 64:-0.32393139 65:0.90372855 66:0.55036443 67:-0.32521503 68:-0.60883062 
0 3.815943916964417 0.9002758438504772 0 0 0 0 1:-0.4138719 2:-1.1884804 3:-0.32400794 4:-0.61030781 5:-0.85716285 6:-0.22469962 7:0.17802007 8:-0.32277895 9:-2.0093733 10:0.13985681 11:-0.49366415 12:-0.50124574 13:1.4185834 14:-0.16862979 15:-0.0052515288 16:0.036322323 17:-0.82669415 18:-0.3842012 19:-1.6990661 20:0.32466484 21:-1.2683821 22:0.62474106 23:-0.07124138 24:-0.2016462 25:0.30746694 26:-0.26212102 27:-0.32248948 28:-0.53533128 29:0.26579079 30:0.20623472 31:-0.057869419 32:0.30432902 33:0.14035847 34:-0.44886015 35:-0.21583815 36:-0.58402049 37:0.51918876 38:-0.16022629 39:-0.23501358 40:0.35212266 41:-0.055482343 42:-0.16592114 43:1.3140596 44:2.3939182 45:0.61447648 46:0.045232145 47:0.49663665 48:0.43860764 49:-0.39725628 50:0.82037899 51:0.76147803 52:0.73449362 53:1.0788635 54:1.202355 55:0.69009745 56:0.56715681 57:-0.039001316 58:0.14808447 59:0.69448633 60:0.031400152 61:-0.22585484 62:-0.56502738 63:0.78507259 64:0.63136697 65:0.45432374 66:0.29899003 67:0.35243782 68:-0.50273467 
0 0 0 0.2282058558792543 0 2.247862120425725 0.08709076000615626 1:-0.23254796 2:-0.76861936 3:0.13698993 4:-0.41035123 5:-0.11179956 6:-0.55568436 7:-0.17795405 8:-0.40386678 9:-0.50585069 10:0.78524312 11:0.7171461 12:-1.0036454 13:0.6726887 14:-0.26195704 15:0.10334969 16:0.097143312 17:-0.3133266 18:1.2528253 19:-1.5694108 20:-0.67398158 21:-2.1411897 22:0.35540909 23:-0.38294953 24:-0.11223636 25:2.2293007 26:-0.25863678 27:-0.68624698 28:-0.79676028 29:-0.1696079 30:0.87330857 31:2.5061607 32:0.025835622 33:-0.32653967 34:-0.52430997 35:-0.14391436 36:-0.11153581 37:-0.54636674 38:-0.36521159 39:-1.3411579 40:0.16627218 41:-0.52992152 42:-0.014031331 43:-0.029577325 44:1.2217501 45:-0.370883 46:0.1612206 47:0.47902932 48:0.40596157 49:0.34379551 50:0.1157426 51:0.11487891 52:-0.46605108 53:0.23313618 54:0.247163 55:-0.070235782 56:-0.13799536 57:-0.46802935 58:-0.88740404 59:0.6711647 60:-0.47715796 61:-0.53737638 62:-0.94356379 63:0.12108623 64:1.1177146 65:0.87473388 66:-0.59377169 67:-0.2309209 68:-1.2135205 
0.01707730860939462 0.320485200264389 0 0 0.1858466465728352 3.76119144813518 0.1937599797732464 1:-0.33844724 2:0.18671288 3:-0.31045126 4:-0.54380164 5:-0.96318878 6:-0.59433431 7:0.94893692 8:-0.65277864 9:-0.65154034 10:-0.034846163 11:-1.4747904 12:-0.58815184 13:1.4563143 14:-2.1446467 15:0.22053277 16:-0.98234695 17:-0.81022247 18:-0.50914109 19:-0.4443994 20:2.0834153 21:-0.33899212 22:0.36028324 23:1.172333 24:-0.26628413 25:-0.13167988 26:-0.56896267 27:1.2415236 28:-0.9278202 29:0.49708723 30:-0.30983758 31:0.72173876 32:-0.61274992 33:-0.12463421 34:-0.51512404 35:0.19992577 36:2.8326354 37:0.8350846 38:0.49397696 39:-0.40796366 40:0.82527515 41:1.3275354 42:-0.41315095 43:2.7365038 44:4.9852411 45:2.473777 46:3.76085 47:1.8644967 48:1.94839 49:0.26392024 50:0.61232654 51:2.5324196 52:0.34749806 53:4.0660162 54:1.7247028 55:1.5131396 56:0.12536416 57:1.8652836 58:1.0385161 59:0.21062001 60:-0.058669955 61:4.1577422 62:-1.0165302 63:1.218629 64:-0.40409469 65:1.7057253 66:-0.15394918 67:0.25310112 68:0.52065651 
1.254209420348467 0 0 0 0 5 0 1:-0.69830163 2:-0.93015648 3:-0.64204803 4:-0.52957998 5:-0.14202152 6:-0.75156081 7:-0.17715223 8:-0.61346333 9:-0.36226304 10:0.5417831 11:0.5800461 12:-0.10395686 13:-1.2631477 14:0.11445595 15:1.1356885 16:-0.82014615 17:0.17307108 18:1.0799555 19:-1.0441569 20:1.2633074 21:-0.081722341 22:-0.2373307 23:0.089890175 24:-0.081408699 25:1.0833665 26:0.39579036 27:-0.35716887 28:1.0101375 29:-0.30901817 30:-0.013549277 31:-0.33253503 32:0.70067908 33:-0.44911787 34:0.42656444 35:-0.026612804 36:-0.81309935 37:0.19053797 38:0.44417879 39:1.4347567 40:0.25661098 41:-0.26790633 42:0.6729291 43:0.56416417 44:-0.50081073 45:-0.23923925 46:-0.63696877 47:1.1314883 48:-0.76214223 49:0.59782821 50:-0.84888844 51:1.0185993 52:-0.32714996 53:-0.029559837 54:-0.35207735 55:-0.32825335 56:0.18005179 57:0.73102726 58:-0.022829629 59:1.1970852 60:-0.09466087 61:-0.46357923 62:1.6198652 63:-0.11953447 64:0.24274646 65:-0.29255631 66:1.6248461 67:-0.51195062 68:1.2165719 
0 0 0 0 0 5 0 1:-0.61143311 2:-0.83327836 3:-0.23763105 4:-0.53607374 5:-0.11497853 6:-0.69500381 7:-0.098100656 8:-0.54608161 9:-0.23479291 10:0.61893487 11:0.48673786 12:-0.19226675 13:-0.26207198 14:-0.092915113 15:0.49196924 16:-0.29007085 17:0.02508715 18:-0.0030251927 19:-0.34211635 20:1.0714384 21:0.20130053 22:-0.2231267 23:-0.41488283 24:0.21351781 25:2.6284906 26:0.88843524 27:-0.45869972 28:0.32562128 29:0.012506819 30:-0.30720468 31:0.10675382 32:0.19728078 33:-0.49394248 34:0.28785906 35:0.060498209 36:-0.54590876 37:-0.20358962 38:0.041699122 39:0.45240092 40:0.26989518 41:-0.13187244 42:0.30710589 43:-0.11187839 44:-0.12255898 45:0.11513445 46:-0.11985202 47:0.54116159 48:0.035764756 49:0.44125738 50:0.37684278 51:-0.10664154 52:1.5647987 53:-0.52201724 54:0.20034743 55:0.7592642 56:-0.086208501 57:-0.4727664 58:0.19056717 59:4.409147 60:1.0449197 61:-0.33771563 62:1.2168731 63:0.30932771 64:-0.42961183 65:0.57102345 66:0.79641871 67:-0.47685078 68:0.93079118 
5 0 0.3614851345042106 0.8963892360687675 0 0 0 1:-0.79717482 2:-1.0726958 3:-0.10398525 4:-0.56578074 5:0.061361426 6:-0.83059231 7:-0.29808849 8:-0.83254832 9:-0.54369774 10:0.78653331 11:0.23684281 12:0.29675684 13:0.20687032 14:0.50852835 15:0.32035057 16:0.27142893 17:-0.14632893 18:-0.015580269 19:0.14484942 20:0.73634772 21:-0.16089901 22:0.21420452 23:-0.36581648 24:-0.34128458 25:0.22668208 26:3.9702044 27:-0.1278805 28:-0.47233546 29:0.17384862 30:-0.12174824 31:0.055809798 32:0.3192405 33:-0.51668186 34:-0.19526414 35:-0.79882818 36:-1.1035793 37:-0.53332442 38:-0.84738696 39:0.16202041 40:-0.76735956 41:-0.51235941 42:-0.60354404 43:-0.066135165 44:-0.2273139 45:-0.096602889 46:0.84858793 47:-0.10790494 48:0.5667388 49:-0.39340449 50:-0.18570769 51:-0.33153196 52:-0.55276561 53:-0.62120938 54:-1.127654 55:-0.427489 56:0.14450613 57:-0.33638167 58:-0.38111638 59:-0.26832451 60:2.418637 61:-0.22282302 62:-0.41762094 63:0.87418153 64:-0.04563157 65:-0.084316688 66:-0.01467049 67:-0.65530651 68:-0.74695126 
1.760848095317741 0 0.1498475098587533 0 0 0 0 1:-0.46598349 2:-0.53183621 3:0.095767688 4:-0.37390807 5:-0.029957299 6:-0.46816555 7:0.6899571 8:-0.42220967 9:-0.76534728 10:0.45405821 11:-0.73190523 12:-0.56858859 13:-0.37910441 14:0.010475249 15:0.36496508 16:-0.31040282 17:-0.13333574 18:-0.81838692 19:-0.17522685 20:-0.056323985 21:0.040397403 22:0.029641683 23:0.084707333 24:0.33988099 25:0.66319611 26:-0.12413042 27:0.29417508 28:0.03319282 29:0.27619041 30:-0.14458134 31:-0.39876687 32:-0.14343997 33:0.17113815 34:0.071690306 35:-0.097256579 36:0.74787694 37:0.1230552 38:0.1965381 39:0.56385271 40:0.14842778 41:0.9971427 42:0.31672265 43:0.60571999 44:0.31333834 45:0.60124264 46:1.0340665 47:0.90325137 48:0.31447923 49:0.2707135 50:0.62708242 51:1.4704755 52:0.96796949 53:2.2622359 54:2.6578939 55:2.2359297 56:0.27692906 57:0.22827791 58:0.2607664 59:1.5088602 60:0.2528319 61:0.90231747 62:0.34404545 63:0.77974021 64:-0.017538138 65:0.33199578 66:0.05582157 67:0.06530982 68:0.12911045 
0 0 0 0 0 0.6606366214856227 0 1:-0.15915493 2:-1.0642905 3:0.17359306 4:-0.18017534 5:0.00072842143 6:-0.1586216 7:0.32239792 8:-0.36002 9:-0.74156094 10:0.54989026 11:-0.31141393 12:-0.86781274 13:0.064850012 14:-1.3864742 15:-0.23054507 16:-0.69663467 17:0.18492344 18:-0.58833336 19:-0.66817633 20:-0.70491817 21:-0.94346517 22:0.69757963 23:0.094471369 24:-0.55007889 25:0.73352087 26:-0.17348702 27:0.60511387 28:-0.58135809 29:-0.39581966 30:0.45834335 31:0.53666545 32:-0.16262485 33:0.72288118 34:-0.67837605 35:0.4576581 36:-0.44154877 37:0.051017451 38:0.44386432 39:0.7531785 40:0.59885567 41:0.4748509 42:0.26610207 43:0.78089909 44:0.38142747 45:1.2905293 46:0.84259917 47:1.2379536 48:0.47359137 49:0.56245371 50:0.25512425 51:0.3248197 52:-0.38851861 53:-0.52519443 54:0.17418648 55:0.56744616 56:0.45500561 57:-0.22371267 58:-0.262283 59:0.80119425 60:-0.17948793 61:0.2673174 62:-0.11773307 63:-0.49254261 64:0.98925731 65:0.51585956 66:0.20893997 67:1.3634519 68:-0.70150608 
0 0.09574911441279731 0 0 0.1294283306678886 3.407766078813224 0.476742572246471 1:-0.97669992 2:0.64009281 3:-0.97625285 4:-0.79490193 5:0.15593493 6:-1.1537593 7:2.1099034 8:-1.0336138 9:0.33773446 10:1.0801771 11:0.23491017 12:-0.35320211 13:0.27438123 14:-0.81306881 15:-1.0544419 16:0.24113027 17:1.0710987 18:0.045719942 19:0.3971935 20:2.1907699 21:2.3631625 22:-0.97793744 23:0.040580093 24:3.241416 25:-0.57648223 26:0.3520815 27:0.28775618 28:0.1471691 29:-0.79602452 30:-0.3022345 31:-0.44163777 32:0.074076993 33:-0.58974864 34:2.2645186 35:-0.69076683 36:-0.38828979 37:-0.84375019 38:-0.27331439 39:-0.43625948 40:-1.0502771 41:-0.36032583 42:-0.2473847 43:-1.1629577 44:-1.4457977 45:-1.2811641 46:-1.3320466 47:-1.2040575 48:-1.5350702 49:-1.2968128 50:-1.6209908 51:-0.6500303 52:-0.75534995 53:-0.51577451 54:-1.920351 55:-1.6133649 56:-0.88393049 57:0.31784175 58:-0.36337344 59:-0.60987467 60:1.9395432 61:1.5977323 62:0.091903425 63:-0.72389062 64:-0.80032143 65:-0.92432428 66:-0.90694913 67:-0.59279853 68:-0.46943495 
0 0 0 0 0 5 0 1:-0.93879712 2:-0.99908646 3:0.20015513 4:-1.0181657 5:-0.70851496 6:-1.0211636 7:0.21624024 8:-0.91700816 9:-0.63139136 10:0.99419502 11:-0.58118145 12:-1.4430674 13:-0.13287662 14:0.12030366 15:-0.031042374 16:0.62870063 17:-0.24406968 18:0.7993641 19:-0.29107032 20:0.41428356 21:0.43140553 22:0.43929146 23:-0.14029918 24:0.42471823 25:-0.20619233 26:-0.27466257 27:-0.31093172 28:0.32434408 29:-0.12184229 30:0.32034383 31:0.82384302 32:0.18550743 33:0.52735008 34:0.2042603 35:-0.96724982 36:-0.46779837 37:-0.4586359 38:-0.82496818 39:-0.17251977 40:-0.72253123 41:-0.0526566 42:-0.80913107 43:0.19454033 44:-0.64283686 45:0.64647899 46:0.12362072 47:-0.1977738 48:0.04237952 49:-0.35100724 50:-0.060207337 51:0.065629482 52:0.23364741 53:0.48364775 54:0.28244207 55:2.5002149 56:1.5413957 57:0.07704023 58:0.87102579 59:0.26845384 60:-0.23628028 61:-0.30748146 62:0.4180908 63:0.013339712 64:0.30280542 65:0.73465131 66:0.00065948052 67:1.6458506 68:0.19200441 
0.3599561800862686 0 0.6122328770523108 0.8018075721518407 0.5590598292011131 1.965282411879953 0 1:-0.7974711 2:-0.75729756 3:0.075488895 4:-0.7065357 5:-0.24207978 6:-1.0115339 7:0.20753915 8:-0.71596396 9:-0.040193278 10:1.0162303 11:-0.25537326 12:-1.6282931 13:-0.53271476 14:-0.5673401 15:0.20939126 16:0.5778453 17:-0.29300488 18:1.0544265 19:0.072272886 20:1.3345941 21:0.90550892 22:-0.041560877 23:0.24991551 24:0.15464368 25:-0.12064631 26:-0.27725488 27:0.4167091 28:0.52700674 29:-0.25285291 30:-0.049212143 31:1.0224989 32:0.42978386 33:-0.050291904 34:0.21557013 35:-0.27378487 36:-0.83672272 37:-0.31063362 38:0.25806709 39:0.60101173 40:-0.53065185 41:-0.21395086 42:0.070522452 43:-0.60006544 44:-0.50764743 45:-0.75213256 46:-0.74032299 47:-0.58825168 48:-0.061523224 49:0.09344262 50:-0.025937106 51:-0.1494414 52:-0.35003301 53:-1.0321511 54:-0.45255685 55:0.053254384 56:-0.024967332 57:0.47231432 58:0.064545871 59:-0.084698969 60:-0.36583226 61:0.74065635 62:0.63565982 63:-0.37864682 64:0.016235094 65:1.4015592 66:0.5355612 67:0.16327469 68:-0.18566896 
0 0 0 0 0 0 0.680700857941489 1:-0.7029998 2:0.31237374 3:0.18909452 4:-0.61839077 5:-0.48866341 6:-0.65512522 7:0.44265405 8:-0.54823566 9:0.73783852 10:0.52801483 11:-0.72866812 12:-1.5095311 13:-1.1093061 14:-0.54301717 15:1.3020029 16:0.42972681 17:-1.5175796 18:0.67362265 19:-0.58185204 20:1.6347647 21:0.051835039 22:0.33041779 23:-0.29143667 24:-0.64828922 25:2.4433235 26:1.76162 27:0.66629941 28:-0.3758364 29:0.63161206 30:-0.40146093 31:-0.2974353 32:-0.22948419 33:1.4036897 34:-0.33868675 35:-0.54754635 36:0.22386056 37:-0.3260875 38:-0.40813804 39:0.33637445 40:-0.79265339 41:0.094611921 42:-0.35876765 43:-0.097205428 44:-0.51946673 45:0.19068766 46:0.59710573 47:0.23872316 48:0.72131861 49:0.049514294 50:2.0702924 51:1.4516849 52:-0.73705539 53:-0.58161751 54:-0.2606715 55:0.60702134 56:1.1165037 57:-0.12045315 58:-0.39091689 59:2.7054626 60:1.7300556 61:0.34597184 62:-0.492768 63:0.080655244 64:-0.37048775 65:0.034337083 66:0.22308504 67:1.2180532 68:-0.49972675 
5 1.450126254369149 0.2931929875851635 0.2229337668413865 0 5 2.089327710772481 1:-0.89391849 2:-0.46770568 3:0.21458737 4:-1.1427689 5:-1.0580542 6:-0.83263322 7:0.025970825 8:-0.75021328 9:0.25782799 10:0.93654577 11:-0.77118631 12:-0.35036139 13:-0.8833031 14:0.48352558 15:0.65255581 16:0.3663905 17:-0.016856781 18:0.24531055 19:0.96778929 20:-0.079807075 21:-0.075384503 22:0.16034492 23:-0.08651978 24:0.22761786 25:-0.32371806 26:-0.018287606 27:0.31662404 28:0.58354849 29:0.34418937 30:-0.15201255 31:0.10579892 32:0.053549262 33:-0.15640353 34:0.14161393 35:-0.68183656 36:-0.61978566 37:-0.52948666 38:-0.27983578 39:0.054665079 40:-0.23155049 41:-0.33790754 42:-0.32811426 43:-0.5610186 44:-0.33192711 45:0.094745706 46:0.57608737 47:0.049823913 48:0.40989224 49:0.56965466 50:0.69320046 51:-0.35329754 52:0.59638777 53:-0.29751037 54:0.42706133 55:0.65322764 56:-0.11210758 57:-0.15267249 58:0.24730415 59:-0.43374842 60:-0.19042417 61:0.39376566 62:0.49267947 63:0.47929366 64:-0.31689011 65:-0.3240151 66:0.00093384695 67:-0.2445213 68:-0.063521188 
1.443975511535515 0 1.108319557893422 0 0 5 0 1:0.72024082 2:-0.96222622 3:0.50495432 4:0.28530249 5:-0.71850142 6:1.0446938 7:-0.39262505 8:0.83448889 9:-1.0469826 10:-0.73456009 11:-1.2641472 12:-2.3878951 13:-0.66893106 14:-1.1907746 15:-0.61239799 16:-0.032046 17:-1.7345828 18:-0.011755985 19:-0.57717459 20:-1.0496683 21:0.70302502 22:-0.43733666 23:0.35099653 24:-0.94933782 25:0.59631382 26:-0.73434711 27:0.32158761 28:-0.71320689 29:0.87458178 30:0.74876244 31:-0.27782386 32:-1.0989497 33:0.32061738 34:-1.1906139 35:0.32934595 36:-0.35042867 37:0.28748064 38:0.25523504 39:-0.40393025 40:0.52070635 41:-0.36606077 42:0.36051799 43:0.33993462 44:-0.1131908 45:0.33668611 46:0.84697834 47:0.063142535 48:1.1048134 49:0.15792371 50:0.34274889 51:0.1323623 52:-0.21001464 53:-0.03777883 54:0.83151686 55:0.24587084 56:-0.72343377 57:0.035666427 58:-0.91855265 59:0.18788881 60:-0.87798471 61:0.10284808 62:-0.82107198 63:0.41432784 64:1.1166185 65:-0.36805371 66:-0.99459366 67:-0.13599486 68:-1.1703282 
0 0.1188911874347846 0 0 0.01766896251414663 3.811694013700472 0 1:-0.39360922 2:-0.80938551 3:-0.19130723 4:-0.47038645 5:-0.6418601 6:-0.094721933 7:-0.098237712 8:-0.31842668 9:-1.8848922 10:0.19953832 11:-0.94000951 12:0.11890453 13:-0.69014554 14:-0.22589467 15:-0.26901786 16:-0.53625331 17:-0.5113799 18:0.88446269 19:0.54994499 20:0.71954784 21:2.3075486 22:-0.7193234 23:-0.24805025 24:-0.22039425 25:0.28810369 26:-0.0497951 27:2.5720341 28:-0.55199763 29:0.28974496 30:0.43704533 31:0.17110562 32:-0.085993434 33:-0.11640571 34:-0.54254854 35:-0.31526131 36:0.093755401 37:0.54040898 38:0.21783563 39:1.1555812 40:0.35173103 41:-0.12619154 42:-0.15836885 43:2.3585957 44:0.022284681 45:1.9887384 46:0.15970723 47:0.83585224 48:0.034280741 49:1.244324 50:-0.58317578 51:1.3250393 52:-0.5161857 53:0.14210503 54:0.42334855 55:0.76102629 56:-0.91068135 57:-0.32535284 58:0.12530252 59:0.77312884 60:-0.10908586 61:2.3700886 62:-0.59964492 63:0.51709424 64:1.2546591 65:0.29536635 66:0.22475605 67:-0.33105757 68:-0.40303453 
5 0.5219286815493398 0 0 0 5 5 1:0.52136011 2:-1.0496249 3:-0.25011559 4:0.35553831 5:-0.10585282 6:0.6097742 7:0.36712043 8:0.36661117 9:-0.64423484 10:-0.61739785 11:-0.70674812 12:-0.29975539 13:-0.42577323 14:-0.75126545 15:-0.2912254 16:0.71302942 17:0.022388518 18:-1.1942928 19:-0.20314592 20:-0.70629049 21:-0.67686985 22:0.061194236 23:1.4839316 24:-0.66731188 25:0.23205008 26:-0.27311921 27:0.23292579 28:-0.95553596 29:0.28862661 30:0.098525121 31:-0.14379588 32:-0.95689254 33:0.22470482 34:-0.86777319 35:0.35930958 36:-0.89971801 37:0.90918299 38:0.2565869 39:0.18843317 40:0.67280437 41:0.29601866 42:0.40662298 43:0.0044959741 44:1.5461739 45:0.93888876 46:2.1238785 47:0.92701248 48:1.5503959 49:1.6901569 50:2.551472 51:2.1378894 52:2.2024633 53:2.1780688 54:1.3348731 55:1.3016142 56:0.14843536 57:2.4587395 58:-0.43916719 59:0.64419923 60:0.275197 61:0.54396511 62:-0.92490152 63:0.37773519 64:0.17277508 65:0.5233135 66:-0.62435227 67:0.29773745 68:-0.43136954 
0 0 0 0 0 2.242892308664651 4.945565669208698 1:1.1547742 2:0.12071405 3:-0.35804478 4:0.91913513 5:-0.19308072 6:0.99039588 7:0.9922936 8:0.79190813 9:-0.068965597 10:-1.9090656 11:-1.5899475 12:-1.4745142 13:-1.9567799 14:-1.2550866 15:-3.138357 16:-2.470501 17:0.98487534 18:2.2448688 19:0.13565184 20:-0.39470014 21:-0.60998878 22:-0.39741967 23:0.070840483 24:-1.2404698 25:-0.82503584 26:-1.2002009 27:-0.16838413 28:-1.120474 29:0.80156962 30:0.78164846 31:1.0252998 32:-0.64618658 33:2.0871593 34:-0.85048761 35:1.4611258 36:0.72011083 37:1.7304824 38:1.1009491 39:1.0609077 40:0.76950753 41:0.69769785 42:0.90143364 43:0.62555332 44:1.4099158 45:1.9393205 46:1.2741286 47:2.1301023 48:2.3275781 49:1.8706344 50:2.7582985 51:3.161368 52:3.9033074 53:2.8602037 54:2.7307885 55:2.2555461 56:0.15061465 57:0.86689543 58:-1.3176726 59:-0.36701486 60:-0.76655471 61:0.37460242 62:-0.97595531 63:1.7127718 64:1.4989055 65:2.6274279 66:0.14304284 67:3.1050949 68:-0.14048534 
0 0 0 0.1307044778197968 0 3.179702155263928 0.4469424541459497 1:0.91926544 2:-0.20191316 3:0.53282338 4:0.95964163 5:0.51877761 6:1.3218313 7:-0.2979902 8:1.2700336 9:0.3299094 10:-0.40823154 11:1.1318974 12:0.058887104 13:-0.5572493 14:-0.33360591 15:1.4148602 16:-0.41036992 17:-0.077287102 18:0.56437169 19:-1.229165 20:-1.5125508 21:1.3171232 22:0.61132817 23:0.57522677 24:-0.54845342 25:-0.68502927 26:-0.50535184 27:-0.602207 28:-0.75481954 29:2.5944667 30:0.053739156 31:0.10590783 32:-0.21012876 33:0.14658569 34:-0.66697986 35:0.75595329 36:0.33085478 37:-0.4151718 38:0.54042499 39:-0.84808643 40:0.92745672 41:-0.27622917 42:0.43393285 43:0.063102473 44:1.0786027 45:0.94889962 46:0.33091797 47:0.47447953 48:-0.4036902 49:0.98097016 50:0.31116357 51:-0.39206599 52:1.0021656 53:3.1961791 54:-1.0854561 55:1.3078624 56:0.54763102 57:2.2439538 58:0.09041258 59:-0.66445337 60:-0.17385107 61:-0.43970973 62:-0.95202112 63:2.2249622 64:0.6700523 65:0.8338102 66:-0.51203512 67:0.46650556 68:-0.45808265 
2.737144280971366 1.808196891710141 0.4483876064594354 0.2250657120867094 0.2607487192380643 5 0 1:1.6804959 2:-1.156032 3:0.33403345 4:1.5491575 5:0.69172539 6:1.9135557 7:-0.50340578 8:1.6781852 9:-0.81490918 10:-1.0534941 11:0.99843735 12:0.15993686 13:-0.093733328 14:-0.36451261 15:1.4387363 16:-1.1242297 17:-0.49960172 18:1.508148 19:-0.71734372 20:-1.695328 21:0.44420792 22:0.4367377 23:-0.16142549 24:-0.91233937 25:-0.90051858 26:-0.94381516 27:-0.1344464 28:-0.91170479 29:3.1528479 30:-0.49274335 31:-0.39774573 32:-0.14072924 33:0.009138548 34:-0.86010813 35:0.7620627 36:-1.3434128 37:-0.060485762 38:0.23233611 39:-1.3130449 40:0.68417159 41:-0.34653822 42:0.21284445 43:0.37693071 44:0.77844915 45:0.2210822 46:0.28911896 47:1.0808534 48:-0.096619186 49:-0.21401191 50:-0.89481763 51:-0.21304909 52:0.34995917 53:0.57789093 54:-0.53731721 55:-0.022045183 56:-0.28560363 57:-0.22528879 58:-1.0021557 59:-0.82673585 60:-0.92476685 61:-0.35658778 62:-0.57775548 63:2.2826865 64:-0.41819591 65:0.63109988 66:0.93757108 67:0.046822459 68:-0.52466497 
3.830481173009344 0 0 0 0 0 0 1:0.13178816 2:-0.37197979 3:0.32169301 4:0.1263045 5:-0.15187987 6:0.21761612 7:1.0364809 8:0.087403429 9:-0.22804891 10:-0.2893283 11:-1.0286747 12:-1.3744182 13:-0.65166591 14:-1.2154241 15:-0.2493706 16:1.5425004 17:1.0380777 18:-0.93203542 19:-0.210711 20:0.32291363 21:-0.80408781 22:0.37295596 23:1.5091151 24:-0.96011838 25:0.20189881 26:-0.92591643 27:-0.16822955 28:-0.91857984 29:0.21769946 30:-0.50070125 31:0.98389298 32:0.064860066 33:2.256219 34:-0.48405223 35:0.37839156 36:0.36661627 37:0.51663562 38:0.69472737 39:1.30202 40:0.48634225 41:0.97952569 42:0.98673208 43:0.16113062 44:-0.042874863 45:1.210612 46:0.66279071 47:1.114275 48:1.9353943 49:2.2131835 50:2.6550627 51:3.2215623 52:3.2288683 53:2.7493117 54:2.8744109 55:0.8685881 56:1.0926175 57:1.2370335 58:-0.80201133 59:0.97765538 60:-0.47330922 61:0.64809711 62:-0.70013446 63:0.6665424 64:0.068048406 65:2.6637197 66:0.1679962 67:5.0858914 68:-0.30131271 
0 0 0 0 0 0.2332977120441125 0 1:0.85280539 2:-0.86644167 3:-0.11015773 4:0.83150476 5:0.24009223 6:1.0174598 7:-0.10584399 8:1.057131 9:-0.1929363 10:-0.85061122 11:-0.297941 12:-1.3338736 13:-1.3947589 14:-1.1468545 15:-1.2018394 16:-0.71653502 17:-0.27641012 18:-0.34790113 19:-0.2628553 20:-1.3531745 21:-1.0716905 22:-0.20937672 23:0.77524639 24:-0.46832339 25:0.83641488 26:-0.72784759 27:-0.27064273 28:-1.0389106 29:1.2806209 30:0.63565187 31:0.14893818 32:-0.76769463 33:0.455513 34:-0.66049093 35:0.78962288 36:-0.4251047 37:1.2829749 38:0.74710177 39:1.0882592 40:0.9046378 41:0.040526299 42:1.1322811 43:0.27611401 44:0.11203403 45:1.216089 46:1.0765523 47:1.615909 48:2.1212173 49:0.94246435 50:1.2307056 51:1.8885192 52:1.5069489 53:2.9615062 54:2.7285066 55:2.2038366 56:-0.19473527 57:1.0884111 58:-0.035914375 59:1.7331595 60:-0.12151204 61:-0.15842915 62:-1.0449308 63:2.0854977 64:1.4817695 65:0.91615952 66:-0.57609988 67:1.8435375 68:-0.2406085 
0.9945457016591109 0 0 0 0 0 0 1:0.3154685 2:0.37964144 3:-0.59153434 4:0.86206277 5:0.72696995 6:-0.10960463 7:1.3719211 8:0.18143652 9:0.21376163 10:0.02488293 11:-0.0095200184 12:-1.5355487 13:0.2020112 14:-1.3140772 15:-2.1534577 16:-2.0603053 17:-3.0118986 18:-1.9431429 19:-1.562946 20:-0.33053036 21:0.55302523 22:-0.18848744 23:-0.23875861 24:-0.78250608 25:2.4430368 26:0.44946958 27:5.1443739 28:-0.65474341 29:-0.41197233 30:0.38536486 31:-0.67291137 32:-1.2897295 33:-0.38176274 34:-0.0025964892 35:3.673696 36:1.1647056 37:1.7530487 38:3.6977962 39:1.7528276 40:1.3496272 41:2.1070087 42:2.6172523 43:0.30544849 44:0.38232338 45:0.82869102 46:1.7706265 47:0.50249402 48:1.2039293 49:3.193263 50:2.1114876 51:1.7343702 52:2.3571473 53:4.2137044 54:5.6907308 55:4.0562828 56:0.38221211 57:0.029311765 58:-0.58415734 59:3.2421598 60:1.6574268 61:7.6345123 62:-0.015652166 63:-0.31684004 64:1.3945163 65:-0.074292763 66:-1.0969928 67:-0.10665493 68:1.3290763 
0 0 0 0 0 2.367796047263415 0 1:1.2749931 2:-0.69208699 3:-0.69470181 4:1.4527353 5:1.5526289 6:0.81065241 7:0.77916621 8:1.5493255 9:-0.099834781 10:-0.35646065 11:-0.63565364 12:-2.2743611 13:-1.7559058 14:-0.45004719 15:-2.0994852 16:-1.8296868 17:-2.8063417 18:-3.6212424 19:-2.7309584 20:-0.15452304 21:2.2097981 22:-0.92680277 23:-0.010241606 24:-0.96958674 25:2.439094 26:1.969638 27:1.6703446 28:-0.9202021 29:0.61544836 30:0.55001869 31:-1.2226384 32:-1.201526 33:1.1099661 34:-0.41996489 35:0.35804457 36:-0.8367875 37:0.32985417 38:1.0622938 39:0.34945916 40:1.3806593 41:0.19515439 42:2.9410784 43:-0.28164161 44:-0.65519051 45:-0.51189932 46:1.6015698 47:0.2278072 48:1.4672901 49:2.2215909 50:0.54931275 51:-0.52761906 52:2.9145318 53:1.9735757 54:1.6913904 55:2.3909041 56:-0.528065 57:0.69500947 58:-0.81280491 59:2.8550916 60:1.8762681 61:1.8580901 62:-0.46503375 63:1.1296705 64:1.5221239 65:-1.1303732 66:-1.196964 67:1.2073726 68:-0.39617344 
0 0.6825371201730641 0 0 0 0 0 1:0.34170804 2:-0.42202267 3:-0.15588649 4:0.99066856 5:1.0222616 6:0.10085003 7:0.60144619 8:0.50198093 9:-0.23208667 10:0.23642298 11:-0.26861489 12:-1.5166537 13:-0.81428815 14:-2.3943985 15:-1.6951975 16:-1.7697515 17:-1.8721039 18:-1.8503228 19:-0.22250164 20:-0.051217148 21:-0.33543801 22:0.054130643 23:0.048210423 24:-0.65972175 25:0.036256852 26:0.97927952 27:2.0584193 28:-0.53222337 29:0.1986731 30:0.13406911 31:-0.58021726 32:-1.0644222 33:0.69208129 34:-0.42935716 35:2.0218229 36:-0.0048269645 37:0.86140248 38:2.1329964 39:1.8422554 40:2.0074646 41:0.54752915 42:2.322827 43:0.55070055 44:1.554914 45:1.9281424 46:1.9898158 47:0.0532993 48:0.30275599 49:2.5441396 50:2.484572 51:2.9189049 52:1.6346867 53:3.2797898 54:3.8251562 55:3.4412201 56:0.70919651 57:0.44552632 58:-0.6998888 59:0.57420306 60:3.9260042 61:3.3074039 62:-0.16441742 63:0.33784038 64:0.49938523 65:-0.24689336 66:-0.51870597 67:1.5217307 68:0.012756083 
0 0 0 0 0.1036346827752287 5 0 1:0.69616588 2:-0.45438739 3:-0.46266281 4:0.62362345 5:0.65590994 6:0.57273264 7:-0.17735773 8:0.50944829 9:0.55744068 10:0.29542667 11:-0.37810027 12:-0.44768073 13:-1.0400158 14:-1.4034276 15:0.16435608 16:-0.19515161 17:-0.092881176 18:-0.97864061 19:-0.684242 20:-0.2195293 21:-1.0161665 22:0.66628886 23:0.11450797 24:-0.76247616 25:1.1097072 26:0.059793026 27:0.62274289 28:-0.86712847 29:-0.16769252 30:-0.28668622 31:-0.16730641 32:-0.17392566 33:1.0943015 34:-0.95149072 35:1.4123466 36:-0.73258495 37:-0.35904406 38:1.1229879 39:0.24363445 40:0.56917629 41:-0.44354009 42:1.2619102 43:-0.77181644 44:-0.65354666 45:0.62253392 46:0.21049314 47:-0.18540374 48:-0.43059111 49:-0.16380029 50:-0.80070973 51:-1.4255144 52:-0.12675659 53:-1.0429327 54:-0.56013394 55:-0.23281335 56:-0.066937216 57:-0.27533332 58:-0.82490244 59:1.1352679 60:-0.91627692 61:0.31743972 62:-0.91618929 63:-0.051160841 64:-0.33619591 65:-0.03914867 66:-0.43536455 67:0.62176338 68:-0.81301956 
0 0 0 0 0 0.3521290004632537 0 1:1.0483381 2:-0.37096991 3:0.83482023 4:1.5361184 5:1.726192 6:0.76397126 7:-0.39020329 8:1.5713446 9:0.61413531 10:0.03080688 11:0.33369779 12:-1.318192 13:-0.65936282 14:-0.22620945 15:-0.21448591 16:-0.68811879 17:-0.9259511 18:-0.66639063 19:-0.30153757 20:-0.40630704 21:-0.53976785 22:1.11942 23:-0.28751725 24:-0.8691017 25:0.71231482 26:0.45675756 27:1.9918182 28:-0.22866677 29:-0.11599191 30:-0.03690405 31:-0.17047535 32:-0.45183657 33:0.97542925 34:-0.32439137 35:0.96277119 36:-0.78220037 37:-0.79080536 38:0.85958865 39:-0.14541414 40:0.72868357 41:-0.432323 42:1.8700368 43:-0.98976227 44:-0.6078903 45:-0.21361466 46:0.21662317 47:-0.41195143 48:-0.020556967 49:-0.44388045 50:0.44957457 51:0.51915329 52:0.34391928 53:0.98346236 54:0.72904603 55:1.2763207 56:1.1287435 57:-0.38948873 58:-0.93839016 59:1.3691589 60:1.5257547 61:1.6707065 62:-0.16704054 63:-0.065853112 64:0.79854648 65:-0.30711233 66:-0.47539331 67:1.0704619 68:0.052616336 
0 0 0 0 0.3074620640710642 4.201322013995901 0 1:0.83208041 2:0.12289372 3:0.60516439 4:1.0424548 5:1.1023968 6:0.83704439 7:-0.56450316 8:0.89627535 9:0.99033398 10:-0.17921641 11:0.088309979 12:-1.2595302 13:-0.93384581 14:0.046059246 15:0.74922583 16:-0.24280128 17:-0.98286554 18:-0.51887344 19:0.0013546602 20:-1.1870217 21:0.19348312 22:0.45989291 23:0.19706014 24:-0.86917231 25:-0.30230961 26:-0.1041744 27:0.49756966 28:0.14272551 29:0.14952833 30:-0.15679842 31:-0.012382717 32:-0.32604662 33:0.09799582 34:-0.49990552 35:1.0848688 36:-0.38212569 37:-0.1820275 38:0.75433797 39:0.4859771 40:1.0609865 41:-0.65949953 42:1.609453 43:-0.68772868 44:-0.31657191 45:1.2177381 46:1.0485931 47:0.91180187 48:0.12093634 49:1.2785709 50:0.60877596 51:0.53210772 52:1.0546116 53:-0.06233762 54:-0.021613249 55:0.87423945 56:0.43603051 57:0.20350593 58:-1.0150319 59:-0.38199358 60:-0.047122571 61:0.62058432 62:0.93244352 63:0.013791918 64:-0.40297609 65:0.73491863 66:-0.23787102 67:0.65322271 68:0.46822602 
5 0 0 0.02231298509826075 0 0 0 1:0.32170907 2:-0.42293601 3:0.46280943 4:0.78063532 5:1.0984318 6:0.17316942 7:-0.26011014 8:0.32295586 9:0.46851161 10:0.24023751 11:-0.054485368 12:-0.99899531 13:-0.29474643 14:-0.72048987 15:0.48789128 16:-1.6531969 17:-0.94022565 18:0.6887625 19:1.212633 20:0.26205456 21:-0.34320278 22:-0.5972556 23:-0.33257228 24:-0.64679933 25:-0.17169557 26:-0.047964776 27:0.61898599 28:0.75221003 29:0.53313326 30:0.16544675 31:0.80479265 32:-0.60394361 33:-0.14723328 34:0.15900609 35:0.79305411 36:-0.61619666 37:-0.47470972 38:1.1800819 39:1.349562 40:0.49432411 41:-0.22332045 42:1.1211231 43:-0.350133 44:-0.0012125148 45:0.36240203 46:0.50661362 47:0.69385438 48:0.39139059 49:0.61568373 50:-0.20959366 51:1.7137867 52:2.194711 53:3.3810361 54:0.96603602 55:0.36591877 56:-0.74793903 57:-0.42029838 58:-0.50646122 59:-0.12775784 60:0.89819594 61:1.0317301 62:1.1814888 63:0.44196246 64:0.49404608 65:1.5227936 66:-0.796343 67:-0.34393264 68:1.1315807 
0 0.427917004832325 0 0 0 0 0 1:2.5707355 2:-0.60783304 3:-0.28333434 4:2.3055262 5:1.4990334 6:1.1323843 7:-0.3044714 8:2.0553824 9:-0.3507757 10:0.14784974 11:1.3465427 12:-1.7085239 13:-2.1820648 14:-0.97629095 15:-1.7356664 16:-0.042451973 17:0.10666454 18:-0.72980704 19:0.26889982 20:0.90905953 21:-1.2955715 22:0.023594309 23:0.21048295 24:-1.2566231 25:-0.26862485 26:2.0497226 27:2.213111 28:-0.92595753 29:-0.57248801 30:-0.24361095 31:1.4179324 32:-1.0874803 33:1.1840348 34:-0.67011319 35:2.5570658 36:-0.26602215 37:0.96570517 38:1.5244895 39:-0.79587014 40:2.5893884 41:-0.20507592 42:2.076572 43:0.15568804 44:0.42693463 45:0.19593657 46:0.62954103 47:0.64791875 48:-0.018605741 49:-0.41816553 50:0.57732226 51:-0.83603811 52:-0.30005402 53:0.23088092 54:1.0054793 55:-2.2168204 56:-0.21506586 57:0.21492028 58:-1.4684124 59:-0.59384353 60:3.2543774 61:2.7661635 62:-0.92277718 63:-0.53865258 64:0.77606305 65:0.32467879 66:-1.0114966 67:1.3475959 68:-0.17061866 
0 0 0 0 0 3.908736477286456 0 1:0.94472444 2:-0.75541553 3:0.55038245 4:1.5002703 5:1.4486759 6:1.0274648 7:-0.48085326 8:1.5077763 9:-0.88884773 10:-0.3624907 11:0.92032384 12:-0.50141582 13:-1.5408217 14:-0.49899067 15:-0.91179627 16:-1.3660539 17:-0.095791896 18:-0.9544055 19:0.044112714 20:-0.70586844 21:-1.015573 22:2.8093399 23:-0.022766391 24:-0.78622337 25:-0.0037108407 26:-0.55289165 27:0.93932368 28:-0.77940031 29:-0.13762294 30:0.43668579 31:0.67234856 32:-0.66125652 33:0.14793374 34:-0.67404579 35:0.71197546 36:0.47694589 37:-0.75175403 38:0.50421104 39:0.48845418 40:1.2931145 41:-0.036676828 42:1.0950599 43:1.7820033 44:0.72414851 45:1.1742087 46:0.5919243 47:1.7828328 48:1.136735 49:0.85569449 50:1.0676824 51:2.0524289 52:1.3327471 53:1.4630248 54:1.5413829 55:0.67496286 56:3.8851358 57:0.19179677 58:-0.4725718 59:0.061901112 60:-0.56164741 61:2.2838923 62:-0.68393442 63:-0.23714036 64:1.0123449 65:1.3489515 66:-0.6525205 67:0.28781849 68:0.033950905 
0 0 0 0 0 1.901882398819959 0 1:1.6443073 2:-0.011294184 3:-1.2733029 4:1.2646072 5:0.59467996 6:0.94318279 7:0.39067864 8:1.3051046 9:0.067300164 10:-0.90152344 11:-0.92645864 12:-0.98721335 13:-1.0976273 14:0.53707596 15:0.62570817 16:0.94532963 17:0.190301 18:-1.8135803 19:-1.8137109 20:-1.6588495 21:0.28412958 22:-0.31909216 23:1.0020249 24:-0.43066429 25:2.0478927 26:-0.16438457 27:-0.16860819 28:-1.1497326 29:-0.32403122 30:-0.69666595 31:-0.64233105 32:-1.0306525 33:-0.35318534 34:-0.78931058 35:2.7979712 36:1.9048669 37:2.9360678 38:2.3755701 39:1.9971876 40:2.3186846 41:0.33751827 42:2.5378481 43:0.74700067 44:0.44314695 45:2.0294283 46:1.282072 47:1.1984732 48:0.11139079 49:1.0631027 50:-0.24320156 51:0.15547322 52:1.4630582 53:1.4879437 54:2.3116327 55:2.5004187 56:0.002778482 57:1.9233219 58:-0.11545546 59:1.6864089 60:0.95011407 61:0.30152887 62:-1.2404708 63:-0.4635806 64:-0.76652464 65:-0.25816406 66:-0.95477283 67:-0.42153453 68:-0.56204357 
0 0 0 0 0.04454385947341263 0 0 1:0.4108201 2:-0.90563254 3:-0.53954236 4:0.96674162 5:1.3364988 6:-0.22952798 7:0.047469332 8:0.03068957 9:-1.5608693 10:0.75123717 11:0.51082524 12:-0.87945447 13:-0.69395822 14:-0.24956364 15:0.095474402 16:-0.52224516 17:-0.61015848 18:-1.0394117 19:-0.77633434 20:-0.7448792 21:-0.54160206 22:1.0654696 23:0.10259172 24:-0.37538159 25:0.52535485 26:-0.27445525 27:-0.029617407 28:0.71849663 29:-0.41792215 30:-0.090701753 31:1.1321875 32:-0.64865129 33:-0.58439712 34:0.32479792 35:2.5791377 36:0.050081903 37:1.4948844 38:2.5958528 39:1.0638201 40:1.2483337 41:0.34260754 42:1.6325867 43:2.2299315 44:0.78369647 45:1.1185034 46:1.4497682 47:1.487834 48:0.75778744 49:-0.44733353 50:-0.44109056 51:0.9497253 52:-0.039446015 53:-0.52377379 54:-0.57418054 55:0.86199426 56:2.3203476 57:0.90109069 58:0.97417927 59:1.3802282 60:0.020873705 61:-0.17500049 62:1.3357873 63:-0.47203216 64:-0.18287466 65:1.5562241 66:-0.2367845 67:-0.62977563 68:0.8065251 
0.7557375288656548 0 0 0 0 0 0.6187901763135897 1:-0.18150298 2:1.1648104 3:0.59723622 4:-0.04488594 5:-0.44262278 6:-0.44987553 7:0.32248982 8:-0.088514595 9:0.39039541 10:0.067198585 11:0.82394607 12:-1.6587751 13:-4.5433948 14:0.12326314 15:-3.2090033 16:-1.0651173 17:0.50663472 18:-2.2839462 19:0.13261796 20:-2.0335105 21:1.3212627 22:1.1006272 23:1.4787032 24:-1.2272391 25:-0.98856747 26:-0.88448896 27:2.7921139 28:0.60329609 29:-0.81662529 30:0.62670839 31:-1.2246899 32:-1.5192539 33:-0.45440051 34:0.053598487 35:0.80042746 36:0.64591788 37:-0.029094874 38:1.1470096 39:1.7979856 40:0.13299236 41:0.018780249 42:0.78506961 43:0.0034713339 44:0.45337533 45:0.33530157 46:0.051379524 47:0.99779932 48:1.0054746 49:1.4426497 50:2.3075592 51:1.3788831 52:0.77141376 53:1.5255546 54:0.24385776 55:-0.32888612 56:1.4972811 57:1.1163371 58:-1.4163904 59:-1.0445476 60:-0.22947025 61:1.5634787 62:0.13082411 63:-0.73739737 64:0.65428821 65:-1.1642081 66:-1.6410594 67:-0.14393292 68:-0.30854109 
0 0 0 0 0 4.722121399501805 0 1:0.57829443 2:-1.2262985 3:-1.1543433 4:1.0544935 5:1.5524852 6:-0.31211566 7:-0.37288535 8:-0.29899556 9:-2.5471597 10:0.22061823 11:0.73243921 12:-1.1447514 13:0.085378452 14:0.43979659 15:-0.70057691 16:0.0024663643 17:0.31486353 18:-0.36213961 19:-0.24603369 20:-0.070172857 21:-0.1073431 22:-0.2443033 23:-0.27156569 24:1.7503639 25:-0.51678689 26:-0.3463703 27:0.28383192 28:-0.25846066 29:0.23532676 30:-0.13138875 31:-0.43448677 32:-0.26255255 33:-0.32522765 34:0.61296977 35:1.5089318 36:-0.95223157 37:0.48987786 38:1.6078114 39:1.0063897 40:0.25011333 41:-0.14846997 42:0.42903405 43:1.0464046 44:0.94050851 45:0.34480461 46:1.5100794 47:-0.26912071 48:0.45631144 49:0.92636147 50:-0.095385059 51:-0.54012696 52:-0.56990826 53:-0.69556727 54:-0.98744545 55:0.016909857 56:0.097866406 57:-0.3699446 58:0.53758938 59:-0.46603078 60:-0.38717971 61:-0.024951861 62:-0.10166199 63:0.50785657 64:0.26441817 65:-0.18995421 66:-0.37555199 67:-0.22438538 68:0.14136212 
0 1.111894541366045 0.0739018933130334 0 0.09008340565720199 0 0 1:-0.13769572 2:-1.214896 3:-1.3619508 4:0.42043556 5:1.1833068 6:-0.64185272 7:-0.0081679057 8:-0.61601627 9:-2.5301198 10:0.54116845 11:0.58755907 12:-1.3515852 13:-0.38633684 14:0.81735079 15:0.12108429 16:0.24913342 17:0.3434861 18:-0.21408573 19:0.5191784 20:-1.1194068 21:0.39625616 22:-0.062681214 23:0.46598284 24:1.28344 25:-0.50720823 26:0.21665295 27:-0.031463015 28:-0.21754228 29:0.43913338 30:-0.075980865 31:-0.4320482 32:-0.12466002 33:-0.094578175 34:0.38622742 35:0.63202566 36:-0.75997685 37:0.30503602 38:0.80971128 39:1.1617409 40:0.50288177 41:-0.084610008 42:0.54702532 43:1.6865723 44:0.67588886 45:0.37184928 46:1.7198542 47:0.01516283 48:0.0039516053 49:-0.11909824 50:0.054702749 51:-1.2376965 52:-0.97880041 53:-0.95146903 54:-0.94959653 55:-1.0732387 56:-0.069391731 57:1.4654765 58:0.76170164 59:-0.61578965 60:-0.92854161 61:-0.3720672 62:-0.40071206 63:1.8051539 64:0.43301813 65:-0.43163257 66:-0.38061815 67:-0.1311469 68:0.27053337 
0 0 0 0 0.1030490341454186 5 0 1:1.9965748 2:-0.97080553 3:-0.24753508 4:1.5578164 5:0.795296 6:0.88811728 7:-0.078443834 8:1.7591773 9:-1.0617076 10:-0.65675286 11:0.54351254 12:-0.51677652 13:-0.60045323 14:1.2908287 15:-1.4902597 16:-1.3012336 17:-0.87542848 18:0.83110263 19:1.1507078 20:0.10427269 21:-0.55946378 22:-0.61413356 23:-0.3841609 24:-1.0087235 25:-0.26109673 26:-0.61710215 27:-0.28907947 28:-1.0166322 29:0.82394306 30:0.90307451 31:0.54301201 32:-0.074104514 33:-0.55758599 34:-1.1073196 35:1.3039231 36:-0.33986752 37:0.52881462 38:1.2583516 39:1.0489047 40:1.1709417 41:-0.22177232 42:1.1934489 43:0.94143973 44:1.2863562 45:1.9092228 46:0.52154562 47:0.74765606 48:1.3143178 49:0.66224734 50:0.35815874 51:0.17571874 52:0.093106558 53:-0.21844899 54:-0.077808533 55:-0.28545291 56:-0.27460503 57:-0.46147523 58:-0.88388574 59:-0.080931093 60:-0.6164501 61:-0.099490737 62:-1.1475742 63:0.88635728 64:1.1640189 65:0.75221904 66:0.079765845 67:-0.63363767 68:-0.90369172 
0 0 0 0 0 2.522070299363846 0 1:0.084517884 2:-0.60865872 3:-0.15196137 4:0.17307535 5:0.52854338 6:-0.031318801 7:0.7410988 8:-0.25886256 9:-0.34992365 10:-0.061962046 11:-1.2464425 12:-0.30151469 13:-1.0784918 14:-1.3218395 15:-0.41159865 16:0.88026496 17:1.2041786 18:0.49741884 19:-2.5248834 20:-1.5033133 21:0.01119146 22:1.6993282 23:2.746686 24:-0.41010395 25:-0.22669171 26:-0.85780535 27:-0.11142354 28:-0.72677848 29:-0.059800195 30:-0.36323786 31:-0.16710763 32:-0.8945061 33:1.3396773 34:-0.5181169 35:0.35014657 36:-0.22515725 37:0.50093624 38:0.3310334 39:0.79369061 40:0.27651611 41:0.7537544 42:0.16391281 43:-0.0019156156 44:0.083920767 45:1.5769735 46:1.3968077 47:1.4699997 48:2.1722368 49:-0.075472799 50:1.0297986 51:2.6737348 52:1.9494279 53:1.9050439 54:0.31775421 55:-0.28499763 56:1.159226 57:4.1053883 58:0.11903535 59:-0.1744726 60:-0.52673028 61:0.60979055 62:-0.34201529 63:-0.0049914479 64:-0.31029479 65:0.055526775 66:-0.52483091 67:1.9274698 68:0.20531222 
0.8080382546259993 0 0 0 0.05269204202097669 2.695217868614938 0 1:-0.45082237 2:-1.2477557 3:-2.0211609 4:-0.035234521 5:0.4760358 6:-0.51426864 7:0.18048592 8:-0.65603364 9:-2.0275151 10:0.43919365 11:0.054230329 12:0.059695937 13:-0.017843575 14:-0.33658685 15:0.72181258 16:-0.0078392596 17:-0.89884468 18:0.7413074 19:-1.637304 20:-1.2051662 21:-0.64013402 22:0.10000287 23:-0.2617239 24:-0.076588209 25:0.93515423 26:0.75729166 27:-0.34446906 28:0.020052428 29:0.0096508873 30:0.0046308464 31:-0.38510326 32:0.060338465 33:-0.32592044 34:-0.038865238 35:-0.00055579816 36:-1.1956165 37:3.0622196 38:1.019479 39:2.9654063 40:0.50797181 41:0.24655704 42:-0.25421403 43:3.3150116 44:1.1236039 45:1.5826119 46:0.12044388 47:1.8097065 48:0.53588369 49:0.31920711 50:0.78811238 51:1.6328066 52:0.760164 53:1.7469311 54:0.3836667 55:-0.095163946 56:0.6279072 57:-0.22135304 58:0.70510451 59:1.6283536 60:1.8102868 61:-0.49057309 62:1.1051386 63:0.54199741 64:0.42801199 65:-0.26837984 66:0.46158008 67:-0.17359051 68:1.0540164 
0.230080357182012 0 0 0.07073524464446403 0 2.043302515591799 0.8656331890971705 1:-0.42453802 2:-0.77309715 3:-0.38547583 4:0.053521942 5:1.0521103 6:-0.67199775 7:-0.021006473 8:-0.67575512 9:-0.74503244 10:0.85790545 11:0.62837946 12:0.094174352 13:-0.27600276 14:-1.1492366 15:-0.50563467 16:1.7219032 17:-0.36674489 18:0.38807157 19:-0.56114029 20:-0.98632006 21:0.22270736 22:-0.65488005 23:-0.26724751 24:-0.38465421 25:0.58899824 26:0.35161502 27:-0.42715911 28:0.013014129 29:-0.57781974 30:1.6662572 31:2.1044718 32:-0.031577343 33:0.13414523 34:-0.28684359 35:-0.30383774 36:0.35127669 37:0.40007107 38:0.87253514 39:1.4295093 40:-0.076273069 41:0.18515409 42:0.15790468 43:1.4476407 44:0.71578842 45:0.56872354 46:-0.40235019 47:1.2480553 48:2.1600972 49:3.5952824 50:1.7282772 51:-0.07401726 52:-0.70325682 53:1.3337233 54:1.4174931 55:-0.44462368 56:-0.76906021 57:-0.16673779 58:-0.15883755 59:0.28011527 60:0.96032523 61:-0.24802746 62:0.0071176975 63:-0.41441372 64:2.7908621 65:2.2508827 66:-0.22570625 67:0.51588338 68:-1.0055807 
5 0 0 0 0 3.710989398886976 0 1:0.097426307 2:-0.7414022 3:0.421767 4:0.087064426 5:-0.19446006 6:0.10758014 7:0.067524869 8:0.29505336 9:-0.69804991 10:-0.086748667 11:1.2853702 12:0.68632345 13:-0.4142261 14:-0.078649766 15:-0.13824576 16:1.3831418 17:-0.12786954 18:1.1918036 19:-2.0010023 20:-1.3946358 21:0.13640457 22:-0.59848355 23:0.048568347 24:0.23903841 25:0.7909877 26:4.1901931 27:-0.65729308 28:-0.78435743 29:-0.5238764 30:-0.65572292 31:-0.31681944 32:-1.047887 33:-0.65495514 34:0.32687581 35:1.9027738 36:-0.16149632 37:0.6102102 38:2.0439941 39:1.9620568 40:2.626011 41:0.4441749 42:1.741962 43:1.4813921 44:1.7301276 45:0.61098683 46:0.068828511 47:-0.48042887 48:0.75822466 49:-0.34734752 50:0.25476566 51:-0.33669314 52:0.72983272 53:0.3001183 54:0.74236595 55:0.16664642 56:-0.36697224 57:0.0093783365 58:1.655261 59:1.0565088 60:6.2530083 61:-0.63126414 62:-0.48929232 63:-0.48685409 64:-0.65469666 65:-0.040094144 66:-0.82534862 67:-0.58031194 68:0.97878637 
0 3.326500762226507 0.946815127073097 0 0.1131806377923836 5 0 1:0.49211295 2:-1.0572532 3:-0.68084957 4:0.62321624 5:0.9281152 6:0.29625368 7:0.066444303 8:0.31912645 9:-2.0835632 10:-0.069084618 11:0.54860866 12:1.0008931 13:-0.26210979 14:0.31423486 15:-0.010799571 16:0.77216488 17:1.322756 18:-0.28970087 19:-1.0563217 20:-0.93579675 21:-0.95257089 22:-0.13472333 23:-0.2567884 24:0.26182434 25:-0.30185459 26:0.85217876 27:-0.7718653 28:0.19375498 29:-0.6438789 30:-0.46695815 31:-0.35800651 32:-0.1960939 33:-0.45096793 34:0.25116755 35:1.904994 36:-0.59912654 37:1.1581877 38:1.6268823 39:1.4139267 40:1.4650488 41:0.45497692 42:1.4616356 43:1.2910015 44:1.0733101 45:0.6426244 46:-0.60770413 47:0.62784106 48:-0.085828716 49:-0.23203804 50:0.51143654 51:0.2415836 52:-0.43929149 53:0.34568529 54:-0.16297078 55:0.24533398 56:0.088060997 57:-0.31285823 58:1.5549427 59:-0.13991061 60:1.0826718 61:-0.72800323 62:0.80743531 63:-0.56666451 64:-0.38532747 65:-0.47646019 66:-0.57320832 67:-0.57352221 68:1.7309134 
0 0 0 0 0 1.070669782561336 0 1:-0.0080833834 2:-1.267521 3:0.18938664 4:-0.10390991 5:0.039280968 6:0.20352522 7:-0.32034972 8:-0.019393685 9:-1.4595165 10:0.23051239 11:-1.1790719 12:0.073975137 13:0.18863651 14:-0.30028949 15:0.89793685 16:1.3338199 17:0.65499077 18:0.55809693 19:-0.74970513 20:-0.66523957 21:-0.42021263 22:0.29260778 23:0.15585979 24:-0.2928121 25:0.13207694 26:-0.15220973 27:-0.46124354 28:-0.33311595 29:0.084216639 30:-0.28831736 31:0.058795011 32:0.40987524 33:0.45979231 34:-0.48449329 35:0.42121381 36:-1.4257264 37:0.31896592 38:0.15241491 39:-0.37308563 40:0.17480877 41:-0.48743608 42:0.11122398 43:0.26378557 44:0.38384162 45:0.4857259 46:0.49667093 47:0.76888909 48:0.51814503 49:0.54164437 50:0.20809004 51:-0.24333359 52:-0.18409401 53:-0.16822002 54:-0.25706912 55:0.11402414 56:0.30643825 57:0.066552992 58:-0.15368637 59:-0.11515544 60:-0.38138088 61:-0.62256474 62:0.034825385 63:-0.11405556 64:-0.36897708 65:0.15026973 66:0.54893167 67:0.15779851 68:-0.042482269 
0 0 0 0 0 0 1.327853130887752 1:-0.47958279 2:-0.81406007 3:0.27670099 4:-0.39805453 5:0.13505512 6:-0.40939546 7:0.011921819 8:-0.79791341 9:-1.2627954 10:0.5598049 11:-1.111254 12:-1.1450089 13:0.86633292 14:1.1133268 15:-0.5029697 16:0.34308491 17:0.12421246 18:1.7346465 19:-0.9340002 20:-0.48119649 21:2.1202241 22:-0.16827111 23:0.11579983 24:-0.23726799 25:0.089534872 26:0.71382023 27:-0.43893613 28:-0.81520105 29:0.19144999 30:-0.32311741 31:1.6364384 32:0.10357039 33:0.25996991 34:-0.41760736 35:-0.51569244 36:0.043907983 37:-0.47153211 38:-0.37736767 39:-0.43272756 40:-0.61930749 41:-0.033838749 42:-0.95916675 43:1.7200565 44:-0.1276791 45:0.46462681 46:1.8079197 47:1.8319609 48:0.95074926 49:1.2861325 50:0.59568178 51:1.6655349 52:0.072548598 53:0.91395459 54:-0.40964182 55:-0.11468391 56:-0.23431974 57:0.38046262 58:0.31296109 59:0.32528951 60:0.58298098 61:-0.58406247 62:-0.8326447 63:0.11144596 64:-0.36351965 65:1.6472422 66:0.97890705 67:0.28684305 68:-0.60260165 
0 0 0 0 0 2.251318505078765 0.2247921178469707 1:0.77151884 2:-1.09263 3:-0.049084019 4:0.47163269 5:0.14956265 6:0.99501093 7:-0.51850718 8:0.67926249 9:-1.231048 10:-0.66059446 11:-1.9077283 12:-1.1487888 13:-0.35452226 14:1.3854812 15:-0.28965196 16:-0.7871649 17:0.69817809 18:0.47156092 19:-0.5073285 20:-0.066128959 21:-0.40557611 22:-0.5899663 23:-0.084218718 24:-0.94685576 25:0.040847653 26:-0.42178422 27:-0.036490757 28:-1.0985906 29:1.6486218 30:0.70936981 31:0.81002746 32:-0.54108058 33:0.83912344 34:-1.2333007 35:-0.15393593 36:-0.59852538 37:0.16495755 38:0.050400529 39:0.36295012 40:0.0195564 41:-0.51950641 42:0.62230851 43:0.76133489 44:-0.20775683 45:0.979342 46:0.26991051 47:0.89554722 48:0.74162843 49:0.80329796 50:1.855736 51:0.82615369 52:0.74244253 53:-0.15356339 54:0.95712211 55:0.38618601 56:-0.68492406 57:-0.24090094 58:-1.0807285 59:0.061080327 60:-0.31968167 61:-0.22639649 62:-1.2807418 63:1.2847752 64:0.70413015 65:0.89904075 66:-0.69331698 67:0.43925206 68:-1.3663037 
0 3.722489945806597 0.1219694444757427 0.4810385557149671 0.7496988924696016 5 5 1:1.1129062 2:-1.2250713 3:0.50738941 4:0.71485218 5:0.35644325 6:1.3823195 7:-0.77843182 8:1.1177889 9:-1.0261039 10:-0.700109 11:-1.7564685 12:-1.1624764 13:-0.97584769 14:1.135631 15:-0.10609949 16:-0.16889828 17:1.2472675 18:-0.68308896 19:-0.0068914428 20:-0.2785972 21:-0.1016642 22:-0.38196007 23:0.26086649 24:-0.91616184 25:0.21974749 26:-0.51799028 27:0.15266659 28:-1.0931581 29:0.94643904 30:0.38305129 31:-0.13152526 32:-0.66399217 33:0.80223061 34:-1.375604 35:-0.15322202 36:-1.0995443 37:-0.21485418 38:-0.23121685 39:-0.48944896 40:-0.25331523 41:-0.75849786 42:0.64487318 43:0.39310722 44:-0.023701404 45:-0.22044418 46:1.1292507 47:0.84482682 48:0.26337534 49:-0.11158802 50:0.52711317 51:0.54228004 52:-0.022883667 53:-0.43341485 54:0.11374137 55:-0.17593286 56:-0.58440945 57:0.06837615 58:-1.0791795 59:-0.047224589 60:-0.69272879 61:-0.14990792 62:-1.2339731 63:0.47483233 64:0.155527 65:-0.51177349 66:-0.79162518 67:0.19704339 68:-1.5230352 
4.972421429980816 2.800659171556612 0.8530104329902546 0.09236049745205129 0.523475298872535 5 0 1:0.2666643 2:-0.87076612 3:0.63778578 4:0.29145691 5:0.18055548 6:0.54491198 7:-0.49979492 8:0.35703764 9:-1.4440472 10:-0.10971053 11:-0.44267513 12:-0.44 13:-1.7200585 14:-0.62066959 15:0.81584684 16:-0.021233551 17:0.48242336 18:-1.0410324 19:-0.42929451 20:-2.2678889 21:-1.5125489 22:0.71804621 23:0.64667194 24:-0.81571808 25:1.723407 26:0.66012425 27:-0.084000435 28:-0.10298765 29:-0.085685928 30:-0.25355747 31:-0.036097042 32:-1.0046194 33:1.935171 34:-0.66733576 35:-0.41806764 36:-0.40567601 37:-0.16265013 38:-0.47163009 39:-0.49046145 40:-0.49475907 41:-0.4176955 42:-0.75413183 43:0.4603123 44:-0.49597855 45:-0.018742657 46:-1.2598774 47:-0.53752484 48:-0.41467744 49:-0.96253658 50:-1.1423842 51:-1.059564 52:-1.6552563 53:-1.3369252 54:-1.1719943 55:-1.5302258 56:0.12835386 57:0.51799938 58:-1.2703159 59:1.028132 60:-0.15788133 61:-0.59257639 62:-0.87736305 63:-0.55635659 64:-0.17214254 65:-1.0482317 66:-1.4825544 67:-0.25630244 68:-1.4104666 
0 0 0 0 0 1.953425710424074 0 1:-0.097951748 2:-0.45036458 3:0.39301404 4:-0.21310083 5:-0.52494173 6:0.05332734 7:0.050570136 8:-0.23256436 9:-0.2561835 10:-0.37382907 11:-2.9163551 12:-2.0151906 13:-0.62585802 14:-0.92291814 15:1.6774927 16:-1.5566348 17:-2.059495 18:0.15975666 19:-1.2471961 20:-0.91865062 21:0.29025014 22:-0.30476242 23:-0.11802732 24:-1.0197535 25:0.93568903 26:-0.29706057 27:1.4000524 28:-0.89883981 29:3.1946201 30:2.3509397 31:-0.26535438 32:-1.1262904 33:0.17323265 34:-0.86259765 35:-0.30199335 36:0.45058729 37:0.13772459 38:-0.21772608 39:0.10243172 40:-0.34097688 41:-0.17644959 42:-0.55126377 43:0.82315064 44:-0.079780575 45:1.2387685 46:-0.41666605 47:0.73719473 48:-0.39654755 49:-0.12536572 50:1.8118914 51:0.93720868 52:0.39129363 53:0.06812829 54:0.20007297 55:0.74070921 56:0.12445514 57:-0.015950924 58:-0.9278446 59:0.9903755 60:0.2091465 61:2.086897 62:-0.87258431 63:2.6826341 64:3.1397059 65:0.2341743 66:-0.85026728 67:0.35270532 68:-0.96044 
0 0 0 0 0 5 0 1:0.57277833 2:-0.99711302 3:-0.25575201 4:0.52814593 5:0.58624808 6:0.5838302 7:-0.42598612 8:0.69907387 9:-1.1280216 10:0.3855183 11:-0.77192763 12:-0.3977826 13:1.3550572 14:-0.28339388 15:-0.31669022 16:0.22632025 17:-0.63219352 18:0.54047508 19:-2.0769681 20:-1.3498173 21:-0.57709897 22:1.1713705 23:-0.092431754 24:-0.44400756 25:0.47633733 26:-0.29908398 27:-0.44722172 28:-0.93128834 29:0.68949479 30:0.11614556 31:0.41908483 32:0.26855571 33:0.030531904 34:-0.86969784 35:1.261734 36:-0.29426917 37:0.4367116 38:1.0331912 39:0.5198137 40:1.3434954 41:-0.58661429 42:0.80734271 43:1.7734117 44:1.415156 45:1.6859647 46:-0.10069456 47:1.9514103 48:0.2105715 49:1.0509892 50:-0.95976372 51:-0.38943845 52:0.074574082 53:-0.01949825 54:-0.91739083 55:-1.219871 56:0.34731736 57:-0.21981193 58:-0.22495095 59:-0.12789349 60:-0.52663869 61:-0.54003012 62:-0.86108799 63:0.57079021 64:-0.28852501 65:0.16605453 66:0.036597586 67:0.23623673 68:-0.74822271 
2.05722528382378 0 0 0.1057182601204882 0 0 0 1:-0.20131148 2:-0.10107465 3:0.49533159 4:-0.072404429 5:-0.30051925 6:-0.098433806 7:1.0072119 8:-0.34693617 9:-0.075902487 10:-0.82003369 11:-3.2536104 12:-2.8611419 13:-0.62130553 14:0.21647744 15:1.2679062 16:-1.2405154 17:-1.536484 18:-2.0083093 19:-0.56378186 20:-0.49952195 21:-0.78802072 22:-0.75298674 23:0.034979581 24:-1.1163117 25:-0.096905841 26:0.2972803 27:0.19725127 28:-0.94545961 29:10.635035 30:0.80318087 31:-0.62577209 32:-0.96987011 33:-0.1355305 34:-0.35278865 35:-0.51045041 36:0.81280333 37:-0.37642806 38:0.043393801 39:-0.073854754 40:-0.090562466 41:1.372704 42:-0.70320859 43:0.4631182 44:1.846083 45:0.18133593 46:1.0122998 47:1.1819486 48:0.19211545 49:0.26629917 50:1.6449945 51:0.026674519 52:0.9862583 53:0.63674347 54:1.8444844 55:2.9718786 56:-0.055988097 57:1.0934402 58:-1.15362 59:0.45603854 60:2.1803906 61:0.22166524 62:-0.7226988 63:10.097496 64:2.7516827 65:0.33865283 66:-0.83966437 67:0.16741948 68:1.1572666 
0.07037990973112673 0 0 0 0.1152469408074451 5 1.399315636086377 1:1.2690485 2:0.38437394 3:0.73996751 4:1.0499625 5:-0.044613499 6:0.8940751 7:-0.45993427 8:0.92340786 9:-0.11850491 10:-1.4667641 11:-0.58108092 12:-0.62415138 13:0.25674836 14:-0.7753372 15:-0.41950706 16:-1.1414325 17:-1.3735211 18:-0.35105536 19:0.17637018 20:-0.61286914 21:-0.53059273 22:-0.76344215 23:-0.19835686 24:-0.14218552 25:-0.36679099 26:-0.95189482 27:-0.26729286 28:0.1859226 29:0.57683152 30:2.2533881 31:-1.0182533 32:-0.97505969 33:-0.050567488 34:-0.09483202 35:4.2208689 36:3.7722144 37:-0.1945323 38:3.0972029 39:2.0266538 40:2.8615529 41:-0.31352358 42:2.6244032 43:2.9298579 44:2.28002 45:2.5995462 46:0.57963064 47:0.90910555 48:0.59876191 49:1.3800772 50:2.5111435 51:3.2677331 52:0.89909295 53:2.5190691 54:2.3779736 55:1.6929866 56:0.060781125 57:-0.0037058227 58:0.99320014 59:0.64369331 60:-0.54978424 61:0.20143017 62:2.3372688 63:0.22077354 64:5.3613708 65:-0.938377 66:-0.91994414 67:0.031730243 68:2.7881138 
0 0 0 0 0.07560158766327167 5 0 1:-0.96984313 2:-0.65737402 3:-0.37565112 4:-0.067192501 5:0.89806375 6:-1.152209 7:-0.45664224 8:-1.0792795 9:-1.1589719 10:-0.17628494 11:1.2945461 12:-0.26335535 13:-0.054663792 14:-0.2388266 15:0.36030702 16:0.34967462 17:0.72967801 18:0.35392529 19:0.57228738 20:0.59822193 21:0.87226602 22:-0.82402799 23:-0.41974741 24:2.2299527 25:-0.98078299 26:-1.1840502 27:-0.3948186 28:2.5353031 29:-0.66957756 30:-0.71530693 31:-1.0567142 32:-0.5014636 33:-0.26897895 34:2.1422301 35:0.52133615 36:0.083942425 37:0.28823661 38:-0.017448436 39:0.54503301 40:0.43859259 41:0.070533438 42:0.32944035 43:1.0278629 44:1.4399078 45:0.16959827 46:0.73861117 47:1.9547863 48:1.3696024 49:0.62743539 50:1.2834615 51:-0.13872356 52:-0.44159452 53:-0.69717578 54:-0.12913811 55:-0.20086779 56:-0.16122722 57:0.049713575 58:1.3626392 59:-0.78001499 60:-1.0968663 61:0.4229624 62:1.6714831 63:-0.34455142 64:-0.45236293 65:-0.42158927 66:-0.99141615 67:0.36172644 68:2.1561802 
0 0 0 0 0 0 1.733593228195245 1:0.52105113 2:0.06287334 3:-0.18359634 4:0.49585406 5:-0.4358485 6:0.45708213 7:1.2655652 8:0.58013926 9:-0.51176486 10:-0.94684802 11:0.22670053 12:-1.1358811 13:-0.46110063 14:-0.053328232 15:0.65924972 16:0.22096987 17:-0.048398408 18:-0.084037844 19:0.6844628 20:0.6301022 21:-0.48844753 22:0.29184634 23:0.55309456 24:0.20630891 25:0.2361506 26:-0.78249562 27:0.58565579 28:-0.79233722 29:0.15627998 30:-0.039026615 31:-1.1041038 32:-1.0205391 33:0.46952996 34:0.038841892 35:1.9133093 36:1.3072948 37:1.2233448 38:1.7222051 39:0.46013516 40:2.1001443 41:1.8690592 42:1.5081716 43:1.3052798 44:2.1789268 45:2.3657802 46:2.0740466 47:1.6525797 48:1.3359587 49:1.3384005 50:3.0404816 51:2.4402972 52:2.0840487 53:2.7238873 54:3.3670126 55:2.1977562 56:1.0504074 57:2.3113348 58:0.88858705 59:1.1198816 60:0.57326812 61:3.0094189 62:-0.58531256 63:0.44858268 64:0.92830781 65:-0.84303954 66:-0.51160314 67:0.89255457 68:0.96892953 
0 0.3939951318605997 0 0 0 0 0 1:-0.36787428 2:1.0970045 3:-0.46755307 4:-0.5149646 5:-0.85982125 6:-0.54150767 7:0.8638856 8:-0.3537972 9:0.40995382 10:0.55152913 11:-0.34648416 12:-1.9471852 13:-2.5334431 14:-0.69418801 15:0.6265077 16:-0.64107364 17:0.44696943 18:-0.29592735 19:-0.5142927 20:0.14806679 21:-0.47703729 22:0.86217909 23:2.4717405 24:-0.54660394 25:0.6969107 26:-0.0045991631 27:0.14295543 28:-0.87898011 29:-0.22963014 30:0.61144269 31:0.97768279 32:-0.48367365 33:1.4045212 34:-0.45948027 35:0.29028719 36:4.468392 37:0.84891233 38:0.5117285 39:0.47406871 40:0.53389724 41:1.4733011 42:0.12307641 43:0.66597986 44:0.68438794 45:0.40633408 46:1.2260346 47:1.300667 48:0.80315385 49:0.57242301 50:1.3963974 51:0.73698718 52:-0.13129504 53:0.1117003 54:1.8578987 55:0.71603369 56:0.56738729 57:5.546272 58:-0.42167207 59:0.63836751 60:0.47826615 61:-0.11510174 62:-0.51857624 63:-0.35909891 64:2.2880967 65:2.4135444 66:-0.19146836 67:2.3300182 68:0.30794869 
0 5 0.2821647845628379 0 0.2908530231989949 0.3414273679106798 0 1:-1.8595749 2:0.74879274 3:-2.3202519 4:-1.6992319 5:-0.32025307 6:-1.9665468 7:3.7270995 8:-1.6671902 9:-1.2412281 10:1.1825363 11:2.0727492 12:0.75359042 13:1.0643006 14:0.38150835 15:0.15356104 16:0.89636642 17:0.6152017 18:1.2523104 19:0.57018304 20:1.6954881 21:0.97609777 22:-1.3919809 23:-0.86394288 24:3.7282032 25:-1.2218024 26:-0.59079064 27:-1.0498631 28:2.6116216 29:-0.89782594 30:-1.0806208 31:-1.4258336 32:0.16392048 33:-1.0509477 34:3.5278094 35:-1.1074992 36:0.27744317 37:0.27654583 38:-0.268244 39:0.31475417 40:-1.7208851 41:2.9165752 42:-1.3577941 43:0.22362657 44:-0.48571582 45:0.33615971 46:-0.67708877 47:-0.70483436 48:-0.46890862 49:-0.46874869 50:-0.25354229 51:-1.2422052 52:-0.62859901 53:-0.77337367 54:-0.36237614 55:-1.15078 56:-1.2630856 57:-0.91434372 58:3.5903341 59:-1.0590747 60:0.0053531158 61:-0.97682247 62:2.3313807 63:-0.79905148 64:-1.0538317 65:-1.2066744 66:0.65670919 67:-1.0063646 68:1.1410237 
0 0.3026808846411739 0 0 0 0 0 1:-1.718233 2:0.91880644 3:-1.6415602 4:-2.0353329 5:-1.6355955 6:-1.8075304 7:1.2648656 8:-1.5761459 9:-0.7159529 10:1.3151792 11:0.86519099 12:0.53158816 13:0.87458725 14:2.3604653 15:-0.26591397 16:0.21451558 17:1.1220844 18:-0.10876208 19:0.48176087 20:1.7932772 21:-0.24505374 22:-1.0496232 23:-0.78255616 24:1.9029631 25:-1.0523317 26:-0.84414976 27:-0.86841551 28:4.020377 29:-0.81354003 30:-1.0912662 31:-1.2322554 32:-0.090868535 33:-0.86515454 34:3.4958586 35:-1.0705072 36:0.80898245 37:-0.051681686 38:-0.8180681 39:0.2799647 40:-1.4712066 41:0.39358655 42:-1.25835 43:-0.10521403 44:-0.30606439 45:0.64709113 46:0.46893736 47:0.74686139 48:0.46438142 49:0.68685692 50:0.62857282 51:1.1176335 52:0.14426641 53:0.38718102 54:0.23625197 55:-0.080924037 56:-0.77643552 57:-0.80583578 58:1.4968847 59:-0.91189347 60:-0.48581384 61:-0.73204968 62:1.7416494 63:-0.72303097 64:-1.0208583 65:-0.91528777 66:0.022707949 67:-0.79494111 68:0.73497202 
4.206794999541545 0.6151919860637425 0 0 0 0 0 1:-1.578764 2:0.88437575 3:-1.3248339 4:-1.5075565 5:-0.5611743 6:-1.7693668 7:0.84039605 8:-1.4644228 9:-0.21087558 10:1.7584502 11:0.53584859 12:-0.0061477046 13:0.66719952 14:0.9062524 15:0.46997399 16:0.87975635 17:0.14073358 18:-0.8259928 19:1.2396772 20:-0.20108194 21:0.71858516 22:-0.65333131 23:-0.54936944 24:2.9143618 25:-0.68095541 26:-0.22057429 27:-0.6919625 28:1.5829093 29:-0.80854906 30:-0.92777938 31:-1.1358376 32:0.3774749 33:-0.63927304 34:2.2076458 35:-0.95301972 36:-0.51998543 37:0.083443334 38:0.021061729 39:1.9158145 40:-1.5427866 41:0.062766136 42:-1.181667 43:-0.62195448 44:0.37727084 45:1.0351123 46:0.34742111 47:-0.27117513 48:-0.012267602 49:0.50609779 50:0.5851975 51:-0.11611355 52:0.2534029 53:-0.11697199 54:-0.20130134 55:0.4315163 56:-0.28344478 57:-0.24419314 58:1.3673211 59:-0.50168014 60:-0.20255133 61:-0.64747522 62:1.2045052 63:-0.71204006 64:-0.87574829 65:-0.95081145 66:0.034378067 67:-0.50593429 68:0.1302872 
0 5 1.256507320697652 2.326735550729001 0 0 0 1:-1.6650452 2:0.67076494 3:-2.0242807 4:-1.6639933 5:-0.8193992 6:-1.7654008 7:1.8204598 8:-1.5482391 9:-0.51678102 10:1.300741 11:0.5170929 12:0.98088868 13:1.1731924 14:1.2950235 15:0.34269601 16:1.1041395 17:0.46912086 18:-0.46899933 19:0.75269855 20:0.82523106 21:0.0043154928 22:-0.95525638 23:-0.77748276 24:3.0111675 25:-1.0201104 26:-0.45770151 27:-0.87420898 28:1.8958784 29:-0.76313032 30:-1.0533311 31:-1.296095 32:0.99855684 33:-0.90342734 34:2.6242195 35:-0.93787844 36:-0.043031933 37:0.23821427 38:-0.11397418 39:1.4612414 40:-1.353932 41:0.90015448 42:-1.1691068 43:-0.51188759 44:0.11094239 45:0.64093548 46:-0.063470794 47:0.35441799 48:-0.067240859 49:0.18731125 50:0.78153228 51:0.13970872 52:0.063199661 53:-0.30450004 54:-0.17824851 55:-0.21226238 56:-0.66916543 57:-0.79793268 58:2.3245613 59:-0.85392306 60:-0.30158103 61:-0.76013182 62:1.388914 63:-0.63539996 64:-0.96989032 65:-1.0282877 66:1.2290923 67:-0.83538774 68:0.70302584 
5 0 0 0 0 0 0 1:-1.4571957 2:0.15153895 3:-1.709366 4:-0.96503306 5:0.42694291 6:-1.7254669 7:1.8149239 8:-1.5041849 9:-0.75297103 10:1.3921659 11:0.96474707 12:-0.31412288 13:0.62166913 14:1.379298 15:1.1144838 16:0.93270007 17:1.1796614 18:0.14592179 19:0.10509442 20:0.82208745 21:0.30947966 22:-0.87259469 23:-0.65073279 24:1.2095689 25:-0.89922902 26:0.055014615 27:-0.8549961 28:3.0526783 29:-0.77197476 30:-1.0523543 31:-1.1251236 32:0.52104915 33:-0.86482399 34:2.4676092 35:-0.58044976 36:0.4499851 37:0.66909528 38:0.42760777 39:0.49564498 40:-1.2480902 41:1.9730506 42:-1.1387019 43:-0.12233552 44:0.1864429 45:0.30014464 46:-0.22402502 47:0.64809424 48:1.2134277 49:0.16230646 50:-0.045400958 51:-0.035938236 52:-0.4824383 53:0.046812453 54:0.15587093 55:0.93970755 56:-0.52766982 57:-0.51633433 58:1.263052 59:-0.74079438 60:0.38152853 61:-0.72098636 62:3.1373158 63:-0.68344096 64:-1.009601 65:-0.77166071 66:0.9509422 67:-0.70106061 68:2.2375068 
0 0 0 0 0 0 0.2411221262937276 1:-1.8665586 2:2.0715176 3:-1.8322855 4:-1.7722189 5:-0.98441197 6:-1.9058935 7:3.2343614 8:-1.6758064 9:-0.8333097 10:0.71358936 11:0.74626346 12:1.080234 13:0.4432157 14:2.3381116 15:1.6610608 16:1.1949396 17:0.80360923 18:0.27705422 19:0.59422537 20:1.7003704 21:0.77017668 22:-1.3855423 23:-0.85125381 24:1.8658462 25:-1.2723884 26:-1.106647 27:-1.0419042 28:4.252044 29:-0.85997519 30:-1.152393 31:-1.6017848 32:0.88917941 33:-1.0458735 34:3.7194762 35:-1.0916518 36:2.7917895 37:0.24996067 38:0.033220367 39:2.2710329 40:-1.62775 41:3.7860556 42:-1.4090573 43:0.68239134 44:0.063904152 45:0.66691418 46:0.25662369 47:0.2346206 48:2.7710113 49:0.47971878 50:-1.070277 51:-0.62898731 52:0.17444946 53:-0.95638865 54:0.017181571 55:-0.28151379 56:-1.2877774 57:-0.90695994 58:3.0803227 59:-1.1836106 60:-0.99902925 61:-0.95822241 62:3.3299246 63:-0.76110532 64:-1.1119969 65:-1.4088608 66:1.1098318 67:-1.0042152 68:1.1522728 
5 4.250444262288517 0.5853844504413457 0.7108000537191232 0 5 0 1:-1.5284809 2:0.50103909 3:-0.9373277 4:-1.4922191 5:-0.65600865 6:-1.6488428 7:1.5414829 8:-1.385856 9:-0.078490564 10:1.2872099 11:-0.54104157 12:0.071609297 13:0.80119252 14:0.90271515 15:1.2647994 16:0.2133322 17:0.40502368 18:0.47672258 19:0.79141425 20:0.88765207 21:0.37180726 22:-0.91107593 23:-0.70159064 24:1.5843168 25:-0.79769048 26:-0.34690697 27:-0.60989714 28:2.442856 29:-0.22531856 30:-0.93481464 31:-0.59458814 32:0.73372224 33:-0.53424922 34:2.2421109 35:-0.92467321 36:-0.17243226 37:-0.081500711 38:-0.43122717 39:1.2337912 40:-1.3951486 41:1.2601718 42:-1.0518288 43:-0.547682 44:-0.87179898 45:1.1492573 46:-0.062240743 47:-0.50244891 48:-0.20091644 49:0.2625486 50:0.074360088 51:0.1863552 52:0.15849083 53:0.24612092 54:0.1177685 55:-0.24444175 56:-0.75271497 57:-0.78341841 58:2.4152644 59:-0.47946876 60:-0.075177697 61:-0.44838803 62:2.2015276 63:-0.061496636 64:-0.88757198 65:-0.22940657 66:0.97709786 67:-0.50680469 68:1.9552327 
5 1.473026455421412 0 0.1198354899210724 0 1.713381391867135 0 1:-1.66455 2:0.70778186 3:-1.3060558 4:-1.4657507 5:-0.4181593 6:-1.8051696 7:1.4705083 8:-1.5438065 9:-0.42809255 10:1.2319952 11:0.67756596 12:-0.12352565 13:0.74628773 14:0.68560448 15:0.51267144 16:0.66416668 17:0.93108341 18:0.10121545 19:1.0893755 20:1.4550187 21:-0.36213779 22:-1.1557698 23:-0.79123971 24:2.7803364 25:-0.89156282 26:-0.55508723 27:-0.9349421 28:2.5009533 29:-0.81018732 30:-0.9848186 31:-0.87198624 32:0.40049744 33:-0.79457939 34:3.0647745 35:-0.97139152 36:0.21613017 37:0.029502253 38:-0.2978426 39:1.101678 40:-1.5757024 41:1.6613577 42:-1.2096203 43:-0.5634491 44:-0.55663943 45:0.10038384 46:0.01494903 47:0.066149643 48:0.53386616 49:-0.22502578 50:0.012128034 51:-0.126903 52:0.13229248 53:-0.426866 54:-0.13948951 55:-0.27284548 56:-1.0129602 57:-0.82049598 58:2.2314448 59:-0.81292639 60:-0.13765234 61:-0.87667041 62:1.9375996 63:-0.70911518 64:-0.8701016 65:-0.57836171 66:1.3528932 67:-0.59549113 68:1.3329938 
0 5 0.5442129834539251 0.6457086388493571 0.1288293730577191 3.292464229523362 3.554202513570873 1:-1.2218301 2:0.83923297 3:-1.0885624 4:-0.85907517 5:0.39617843 6:-1.6165878 7:2.0644134 8:-1.5557543 9:-0.1975979 10:0.73707168 11:1.5200305 12:1.1371725 13:0.45451813 14:1.5848878 15:0.94729393 16:-0.92725741 17:0.17695829 18:-1.3710678 19:-0.53133094 20:0.20979926 21:-1.8101231 22:-0.64421016 23:-0.84669751 24:0.86803955 25:0.0056922719 26:-0.15502875 27:-0.96911724 28:3.586379 29:-0.7560587 30:-1.1196414 31:-0.53070069 32:0.24212629 33:-0.84635805 34:2.464356 35:-1.0039344 36:0.58747857 37:-0.63818573 38:-0.73934739 39:-0.69632403 40:-1.7075703 41:1.0698018 42:-1.3346955 43:-0.79723447 44:-0.6980703 45:-0.70703356 46:-1.6497293 47:-1.2347703 48:-1.3879379 49:-0.44570851 50:-2.3584794 51:-1.5448652 52:-1.0443876 53:-1.7331587 54:-1.5642528 55:-1.5993626 56:-1.0827793 57:-0.91863663 58:0.48632168 59:-1.0460334 60:-0.056259829 61:-0.99471532 62:0.48566196 63:-0.78065499 64:-1.1198441 65:-0.77248045 66:-0.82714766 67:-0.52832164 68:-0.18520561 
0 0 0 0 0 1.568995181529563 0 1:-1.5899915 2:0.82826787 3:-2.2243831 4:-1.5548771 5:-1.0786401 6:-1.6829468 7:1.3800686 8:-1.5472288 9:-0.90289485 10:0.1328232 11:0.35256227 12:0.77801744 13:1.5666629 14:2.5983501 15:0.81479325 16:0.28169618 17:1.2075831 18:0.63386063 19:1.4351974 20:1.6285675 21:0.05306843 22:-1.4202236 23:-0.81250186 24:2.0440732 25:-1.2470745 26:-1.2512555 27:-1.0612484 28:1.7768258 29:-0.77069786 30:-1.0674018 31:-1.2013484 32:3.9209937 33:-0.96823855 34:3.1019859 35:-0.7429636 36:0.27964135 37:0.68538464 38:-0.30080524 39:0.47024528 40:-1.095401 41:0.96464424 42:-0.86792031 43:-0.50276341 44:0.67519875 45:1.7204153 46:0.17193409 47:1.4502883 48:1.7614017 49:1.0811606 50:0.47454331 51:1.2169038 52:0.60524919 53:0.69734903 54:0.80677565 55:0.5910508 56:-1.2994741 57:-0.81220204 58:2.8027129 59:-1.1513288 60:-1.0413129 61:-0.98483287 62:2.067994 63:-0.6186008 64:-1.0273459 65:-1.0011262 66:3.4425922 67:-0.89769258 68:0.63923752 
0 0 0.08258373756914533 0 0 0 0 1:-1.7566595 2:-0.63458257 3:-2.2071602 4:-1.8386347 5:-0.81475269 6:-1.9538892 7:1.9706161 8:-1.5241616 9:-1.5213412 10:1.8459181 11:0.27320137 12:-0.023812307 13:1.1415215 14:2.9998078 15:2.6225435 16:-0.068252799 17:0.44123843 18:0.32535407 19:2.1824248 20:1.2015824 21:0.39900065 22:-1.2936318 23:-0.81595643 24:2.3255336 25:-1.1581441 26:-0.5066371 27:-0.74742295 28:2.3829579 29:0.071738748 30:-1.0642507 31:-1.4222228 32:-0.01704136 33:-1.0070977 34:2.3472247 35:-1.1414504 36:-0.15821826 37:0.52811474 38:-0.44529327 39:0.57839115 40:-1.7375621 41:0.9509823 42:-1.0765689 43:0.25885347 44:0.010384635 45:0.44252559 46:0.63151604 47:-0.33628509 48:1.0561367 49:0.53682664 50:0.1134589 51:-1.1561941 52:-0.55769371 53:-0.98522374 54:-0.57578645 55:-0.75401773 56:-1.1565663 57:-0.86712285 58:1.4081875 59:-1.0514888 60:-0.41395368 61:-0.65642022 62:1.6765093 63:0.38833995 64:-1.0580165 65:-1.3255163 66:-0.28744035 67:-0.9598975 68:-0.082036002 
1.040877763612956 2.516788757256281 0 0 0 0 0 1:-1.9040805 2:3.3602849 3:-1.7535082 4:-1.9469083 5:-0.89529094 6:-2.0012955 7:3.588905 8:-1.6055367 9:-0.47934058 10:1.805798 11:2.1061827 12:-0.59094977 13:1.489195 14:0.64260062 15:0.37886122 16:1.1260131 17:0.99938551 18:0.71034804 19:0.46953852 20:0.25928493 21:-0.41657701 22:-1.2038534 23:-0.79573526 24:3.6111807 25:-1.213783 26:-0.61946058 27:-1.0385409 28:2.1935836 29:-0.88226445 30:-0.47613406 31:-1.1527647 32:0.088009233 33:-0.89408631 34:3.2952529 35:-1.252801 36:2.5121634 37:0.61691786 38:-0.42463548 39:0.71781878 40:-1.8126317 41:2.3233588 42:-1.2604045 43:0.31822062 44:0.17380701 45:0.39473809 46:2.0790827 47:-0.083620178 48:-0.74171106 49:-0.96951614 50:-1.4501948 51:-1.1153673 52:-0.86380189 53:-0.81637601 54:0.6483007 55:0.55793117 56:-1.1506424 57:-0.79700686 58:3.5437353 59:-1.1123452 60:-0.11051273 61:-0.99143713 62:2.8778249 63:-0.78795306 64:0.9051588 65:-0.89283895 66:0.71213373 67:-0.61430002 68:1.4668619 
0 0 0 0 0.06618556029121139 2.137577424942673 0 1:-0.43215667 2:-0.60243256 3:-0.45606467 4:-0.097091619 5:0.38860291 6:-0.72274311 7:-0.14054245 8:-0.60299627 9:-0.90689737 10:0.53089488 11:1.06872 12:-0.021368217 13:0.69244596 14:0.85117156 15:0.43024572 16:0.25050017 17:0.21808513 18:-0.026490389 19:0.12074436 20:0.78431709 21:0.57300287 22:-0.70258586 23:-0.48675874 24:-0.11101965 25:-0.29573789 26:0.88079233 27:-0.45551515 28:0.65149894 29:-0.5188357 30:-0.76473766 31:1.5406956 32:0.26581151 33:-0.75969596 34:0.34914006 35:1.1649519 36:0.64633327 37:-0.067449496 38:0.92857258 39:0.13450697 40:0.38916075 41:-0.28821903 42:0.52517855 43:0.45845905 44:-0.29619275 45:-0.065867912 46:0.031423853 47:-0.44688794 48:0.71263096 49:-0.58946122 50:-0.83322518 51:-1.0719338 52:-0.7192094 53:-0.44572224 54:-1.016808 55:-0.97903414 56:-0.2260265 57:-0.60484296 58:0.022685951 59:-0.4083683 60:1.2753724 61:-0.45767238 62:0.60483785 63:-0.53825093 64:-0.76668769 65:1.5023393 66:-0.69671796 67:-0.82108588 68:-0.097883997 
1.918666321970971 0 0 0 0 0 0 1:-1.0349826 2:-1.0084952 3:0.083564055 4:-1.4244198 5:-1.8487474 6:-1.1519665 7:0.18280596 8:-0.9239011 9:-1.5512245 10:1.1439964 11:-0.073776034 12:-0.31803571 13:-1.6051171 14:-0.25048503 15:-1.0785115 16:0.029949809 17:-0.13929973 18:0.18326491 19:-0.012393584 20:-2.1917038 21:-1.8471058 22:2.3997173 23:0.7281399 24:-0.37957772 25:5.3787032 26:-0.59912068 27:-0.31281771 28:-0.89031585 29:-0.35295283 30:0.92242932 31:1.4475766 32:-0.30469047 33:0.22463121 34:-0.10138727 35:-0.57365183 36:-0.090509293 37:-0.44111418 38:-0.38596224 39:-0.18446578 40:-0.35307686 41:-0.23812245 42:-0.6788027 43:0.31472755 44:1.4962739 45:-0.01679815 46:0.32582564 47:-1.0077665 48:0.0096079896 49:0.84611912 50:0.69476757 51:0.64761688 52:0.38137725 53:-0.42224549 54:-0.4780041 55:-0.10580354 56:1.477908 57:1.5597791 58:0.1717713 59:5.8044272 60:-0.66834634 61:-0.022005667 62:-0.92509775 63:-0.059163218 64:1.122538 65:0.90043233 66:-0.48577013 67:0.25902859 68:0.22649918 
2.622371925592789 0 0 0 0 0 0 1:-1.3700673 2:-0.25382611 3:0.059484559 4:-0.6896475 5:0.27304815 6:-1.5058541 7:2.1908565 8:-1.0286629 9:-0.9151665 10:1.1869834 11:2.555751 12:0.27928435 13:0.628584 14:0.69778564 15:-0.65804885 16:0.88019312 17:0.49024336 18:0.87762149 19:0.65894053 20:1.1945476 21:1.0221009 22:2.3867046 23:-0.59705942 24:3.2060699 25:-0.70467819 26:-0.22485049 27:-0.84439776 28:-0.93579795 29:-0.60736101 30:0.1225552 31:-1.2338464 32:-0.70043414 33:-0.66760224 34:1.7010157 35:-0.4058559 36:-0.27509073 37:0.32364796 38:1.6389952 39:2.5516766 40:-0.77864697 41:2.7771202 42:0.64737095 43:0.76359292 44:-0.017667893 45:2.0016419 46:1.4110265 47:2.0308892 48:1.5717909 49:1.3886997 50:1.6165758 51:0.26207819 52:0.025517094 53:0.21042501 54:1.8654172 55:0.36863465 56:2.7933173 57:-0.23590542 58:0.55344199 59:-0.31142131 60:-0.3296817 61:-0.80768541 62:-1.0381426 63:-0.2681822 64:0.27882035 65:-1.0645963 66:-0.28281617 67:-0.38571714 68:-0.19024336 
2.83626368995321 0 0 0 0.2524546500930986 3.711432579411381 0 1:-0.23809264 2:-0.81934607 3:-1.0288505 4:0.06819497 5:0.46868291 6:-0.48568346 7:0.022494341 8:-0.22673514 9:-1.4069766 10:0.46549983 11:1.5990526 12:0.29572759 13:-0.1865521 14:-0.15293421 15:0.049924405 16:-1.2785813 17:-1.2457753 18:0.24699922 19:-0.055423267 20:1.4850853 21:0.88408979 22:0.78162251 23:-0.66265021 24:-0.29705338 25:-0.51171136 26:0.22313178 27:0.64658965 28:1.6131736 29:-0.25939715 30:-0.2323798 31:-0.41578344 32:0.0011904713 33:-0.73033746 34:0.80082212 35:1.6482701 36:-0.056822046 37:1.3077394 38:2.1315589 39:0.60717491 40:1.7853828 41:0.6149417 42:1.6555714 43:0.30886086 44:1.9382925 45:0.49831267 46:1.3762579 47:0.69806187 48:0.73279701 49:0.73120542 50:0.18087667 51:0.29596853 52:-0.045555521 53:-0.3419326 54:1.0597518 55:-0.1987475 56:1.2835782 57:-0.75406597 58:-0.66533335 59:-0.54623432 60:0.33636908 61:0.73234152 62:1.8233418 63:-0.16518549 64:-0.18069727 65:-0.23395952 66:0.162121 67:-0.68490425 68:1.7636422 
0 0 0 0 0 2.075067054250191 0 1:0.56129567 2:-0.63981039 3:-1.0961823 4:0.2369442 5:-0.33390879 6:0.76846779 7:0.20066288 8:0.69201053 9:-0.18375306 10:-0.32287542 11:-1.172999 12:-1.3633352 13:-1.9729867 14:-0.61331573 15:-0.57957602 16:-0.48390832 17:-1.3458802 18:-0.88484009 19:-0.27680364 20:-0.70736541 21:-0.72312412 22:-0.17656851 23:0.29946169 24:-0.90213919 25:0.87958682 26:-0.26887845 27:0.11490928 28:-0.99493912 29:1.5686712 30:0.82096876 31:0.20061605 32:-0.99212249 33:0.58487487 34:-1.2229746 35:1.3134448 36:0.61615902 37:1.9147789 38:1.8446206 39:2.3069749 40:1.9808674 41:0.61233638 42:1.5333912 43:0.70445021 44:1.4152236 45:1.6845226 46:1.1119758 47:1.2962488 48:0.47045505 49:0.6380458 50:0.49057545 51:1.47292 52:0.45320831 53:0.52023833 54:-0.64228962 55:0.19278147 56:-0.34864544 57:0.60077416 58:-0.76089462 59:0.7774836 60:-0.4436888 61:-0.039719858 62:-1.1257453 63:2.4214947 64:0.89103772 65:0.19601215 66:-1.1980497 67:0.80334041 68:-1.1567799 
0 0 0.6318218243336537 0 0 0 0 1:0.53579323 2:-1.0887655 3:0.49181457 4:1.1032917 5:1.3690772 6:0.46618006 7:-0.25028315 8:0.87324255 9:-1.5355976 10:-0.098672359 11:0.90744675 12:-0.20828972 13:-0.10001634 14:0.11311054 15:0.4637607 16:-0.20719131 17:-0.9657435 18:0.85274996 19:0.055229748 20:-1.0411638 21:-0.83168505 22:2.5982077 23:-0.54867555 24:0.31167285 25:-0.40139115 26:-0.03256168 27:-0.29177105 28:-0.37656548 29:-0.55196559 30:-0.60117495 31:0.10826378 32:0.15463899 33:-0.081969141 34:0.13204527 35:1.0082322 36:-0.9325404 37:-0.19400214 38:0.91788355 39:-0.4213833 40:1.4695838 41:-0.099543726 42:1.7004274 43:0.37964241 44:0.073714525 45:-0.080848886 46:0.7116171 47:-0.14278321 48:-0.76847516 49:-0.78775301 50:0.18963873 51:-0.19879319 52:-0.83853041 53:-1.2230444 54:1.2747876 55:2.3118849 56:4.0710451 57:-0.48584046 58:0.28667039 59:0.12302391 60:0.2607797 61:-0.36314841 62:-0.56612158 63:-0.61767553 64:-0.65463547 65:-0.7826554 66:0.029624082 67:0.12535015 68:0.026058785 
0 1.741622789440141 0.03182610890709094 0 0 1.199993129473522 0.8120973334776614 1:-0.56460094 2:-0.47990317 3:0.39935792 4:-0.89974494 5:-0.98979834 6:-0.49879661 7:0.19061812 8:-0.30011991 9:-0.66062067 10:0.64000272 11:0.46952512 12:-0.09609255 13:-1.5376906 14:0.94257223 15:-1.2050003 16:0.98422721 17:1.2791656 18:-0.21255354 19:0.64034965 20:1.3648307 21:0.26772568 22:0.24826702 23:-0.37693088 24:1.4822883 25:-0.48930666 26:-0.24734677 27:-0.057131836 28:-0.3885616 29:-0.53826767 30:0.23818747 31:-0.77006941 32:-0.2336717 33:-0.071289839 34:0.42429563 35:-0.03776429 36:0.785688 37:0.19913748 38:-0.26355834 39:0.14449296 40:0.37579452 41:0.24090854 42:0.18835712 43:1.1685764 44:0.26904588 45:0.61825612 46:0.3962535 47:0.19165399 48:1.9422181 49:0.43317083 50:0.38433652 51:0.52769872 52:-0.48345916 53:2.118628 54:-0.1171119 55:0.12308535 56:0.077243159 57:-0.56908931 58:0.71053939 59:-0.4675793 60:-0.45964284 61:0.029551625 62:-0.37212114 63:-0.4390661 64:0.62411967 65:-0.75255972 66:0.40500798 67:0.43140676 68:-0.33172472 
0 0.82442683785521 0 0.2810470109185835 0 2.387362260220184 2.245963314692415 1:-0.10988764 2:0.16665459 3:0.44009117 4:0.14790337 5:0.28151055 6:0.077342957 7:0.24596902 8:-0.15074256 9:0.29155855 10:-0.13866991 11:0.12458448 12:-0.14969302 13:-1.0470299 14:-0.057186725 15:1.0072915 16:1.9776882 17:0.6805215 18:1.1751313 19:1.387757 20:-0.52112534 21:-0.35600616 22:-0.75132748 23:0.81186593 24:0.033070417 25:0.10874558 26:-0.19345504 27:-0.14525742 28:0.60507027 29:-0.38793215 30:-0.42861543 31:-0.20775476 32:-0.28791642 33:0.21584861 34:0.27002514 35:-0.39942919 36:1.3684731 37:-0.26808249 38:-0.54487222 39:0.83621104 40:-0.057408909 41:0.26549755 42:-0.34917296 43:0.60601125 44:0.76738143 45:0.32143137 46:0.85209771 47:3.0537073 48:0.40943156 49:0.94184553 50:3.3223625 51:1.4653203 52:2.4681152 53:2.3670547 54:-0.52531875 55:0.45687528 56:-0.78304746 57:1.2374706 58:0.34115599 59:1.3227756 60:-0.22287628 61:0.015460701 62:1.1010664 63:0.038434866 64:-0.23085109 65:-0.51649107 66:0.43107155 67:0.6070364 68:0.7961118 
1.888596288455278 0 0 0 0 0 0 1:-0.25045179 2:-0.95514519 3:-0.094416628 4:-0.24214282 5:-0.40548368 6:-0.10334971 7:1.4711941 8:-0.041987223 9:-0.94007384 10:0.22590852 11:-0.15680305 12:0.47937894 13:-0.86129315 14:-1.6605595 15:-2.4612705 16:-1.4385553 17:-0.6359972 18:-0.3442906 19:0.67612936 20:1.0113878 21:1.2528594 22:-0.19350308 23:-0.15286663 24:-1.0370544 25:-0.3815472 26:2.7953515 27:3.2853288 28:-0.42281953 29:-0.40575672 30:1.8107855 31:-0.18103836 32:-0.71851571 33:0.20280963 34:-0.028743192 35:0.73684444 36:-0.62309145 37:0.8561373 38:1.3582456 39:1.8099346 40:0.98656758 41:1.8500747 42:1.0909744 43:0.21667748 44:0.39444765 45:0.22495924 46:1.8083607 47:0.039448231 48:0.96551307 49:0.55280109 50:0.83508818 51:1.0675561 52:1.0690455 53:0.98229791 54:2.2875459 55:0.82643688 56:0.59778267 57:-0.13448703 58:-1.2163005 59:-0.67957898 60:5.2783692 61:4.5790463 62:-0.42830077 63:-0.45431758 64:2.5548742 65:0.94757705 66:-0.29986283 67:0.29454916 68:0.95148065 
0 0 0 0 0.1409193294210014 0 0 1:-0.012178409 2:-0.72704133 3:-0.1510495 4:-0.14406805 5:-0.24859488 6:0.017293136 7:0.40921168 8:0.14737726 9:-0.7088176 10:0.10192157 11:-1.061634 12:-0.58868527 13:0.33565975 14:-0.180395 15:-1.2031104 16:0.1160294 17:-0.62121567 18:-0.69726459 19:-0.5714648 20:-1.6858641 21:-1.9927605 22:1.5813993 23:1.8372908 24:-0.64131817 25:0.68390117 26:-0.67948831 27:-0.48347442 28:-0.73651652 29:2.2889943 30:0.14393357 31:0.010342067 32:-0.2389067 33:0.42984192 34:-0.60995967 35:0.69594383 36:0.44294677 37:1.484249 38:1.0514005 39:3.1610098 40:0.55609246 41:0.45888949 42:1.6041952 43:2.2314512 44:0.99024448 45:1.8739605 46:1.3772673 47:0.58632525 48:-0.15266658 49:2.3521636 50:1.0665529 51:-0.57471685 52:0.037957854 53:1.0541274 54:1.9795967 55:1.6671491 56:0.87485308 57:4.0439841 58:-0.53913806 59:1.8649682 60:-0.47169881 61:-0.39035778 62:-0.15217037 63:2.0982691 64:-0.061276673 65:-0.039679946 66:0.15244459 67:0.58654378 68:-0.37904812 
1.542345212903179 2.189760794055549 0 0 0 0 0 1:-0.48792521 2:-0.86578545 3:0.16679038 4:-0.74305201 5:-0.51475799 6:-0.52367078 7:0.35732642 8:-0.2522986 9:-0.57168326 10:0.78992296 11:0.036161537 12:1.2820234 13:0.13896828 14:1.026656 15:0.48001625 16:1.2019108 17:-0.32561145 18:0.79379222 19:1.2991875 20:-3.4733369 21:-0.60729146 22:0.21532289 23:0.6607365 24:-0.16932297 25:-0.4043625 26:0.77152501 27:-0.47621176 28:0.19147698 29:-0.15355306 30:-0.4229317 31:2.5017207 32:-0.67991243 33:0.56226219 34:-0.082006451 35:0.41042844 36:-0.95475235 37:-0.29905498 38:1.254772 39:3.1911149 40:0.15010942 41:-0.048497098 42:1.1649459 43:-0.13814503 44:-0.15930594 45:0.37633854 46:0.76451666 47:0.65223542 48:0.99936278 49:1.1037049 50:0.35530957 51:0.14358998 52:-0.3577598 53:0.29704843 54:0.73745884 55:0.98130702 56:0.15062883 57:1.0323948 58:-0.049111696 59:-0.22228003 60:0.41783238 61:-0.27005207 62:0.13813831 63:0.0051672275 64:-0.05163615 65:1.8515714 66:-0.84273133 67:1.0354819 68:-0.35006012 
0 0 0 0 0 5 3.519989438110505 1:-0.48750075 2:-0.53377718 3:0.46466276 4:-0.97942781 5:-1.4976051 6:-0.69177804 7:0.92170555 8:-0.57356449 9:-0.79772008 10:0.17526108 11:-1.0760485 12:-0.74713304 13:1.2071027 14:1.7913855 15:-1.5017163 16:-2.6250906 17:-1.9817892 18:0.21680681 19:1.4831032 20:1.4489339 21:0.74760082 22:-0.013881738 23:-0.62662701 24:-0.56075058 25:-0.37444993 26:-0.46760019 27:1.6818633 28:-0.18235305 29:1.2438314 30:4.3152105 31:0.37899747 32:-0.43722679 33:-0.73710561 34:0.011575461 35:0.0089996139 36:0.33581304 37:-0.29908996 38:-0.2917904 39:0.20244125 40:0.54540681 41:0.6421621 42:-0.34419601 43:1.3021976 44:1.9635608 45:1.3004943 46:0.87298567 47:0.73049246 48:1.5454326 49:2.7649521 50:1.4526067 51:1.8042202 52:3.0338077 53:2.5178995 54:2.8060568 55:1.888832 56:0.083690882 57:-0.50004429 58:0.48376166 59:0.51806185 60:0.034552584 61:2.7704463 62:0.43147237 63:1.6133944 64:5.3688781 65:0.93742073 66:0.90489152 67:-0.64189522 68:0.95394893 
0 0.1743756636294986 0 0 0 0 0 1:-1.1281206 2:-0.76073213 3:0.51725283 4:-1.1227215 5:-0.73340483 6:-1.4090694 7:0.26256388 8:-0.98172524 9:-1.9429456 10:1.7864746 11:0.54933182 12:-0.060637544 13:-1.9730171 14:-0.72056803 15:-0.18896612 16:0.56149901 17:0.080171651 18:-0.50016549 19:0.88287702 20:-1.1005154 21:0.45608326 22:1.184136 23:1.6875803 24:0.017284989 25:-0.52115307 26:-0.11581383 27:0.81502133 28:-0.34897313 29:-0.46779065 30:3.5702179 31:-0.051771479 32:0.33808184 33:-0.48028184 34:-0.21083136 35:-0.49771038 36:0.48709999 37:-0.85880413 38:0.16021451 39:0.50995616 40:-1.0350445 41:-0.030475761 42:-0.27630272 43:1.0510341 44:-0.81916672 45:0.42085538 46:-0.34704259 47:0.30426276 48:-0.50451847 49:-0.34717426 50:-0.52827326 51:-1.027505 52:-1.7899624 53:-1.2295891 54:-1.2426323 55:-0.80785744 56:0.087101459 57:1.868127 58:-0.29242146 59:-0.54943613 60:-0.33484608 61:0.23480781 62:-0.83859716 63:-0.66861529 64:3.7497004 65:-0.3722236 66:-0.45363498 67:-0.5157997 68:-0.91276309 
0 1.273066383892114 0 0 0 5 1.055225081907956 1:1.5616449 2:-0.67604679 3:-0.35383206 4:1.3922259 5:0.39239125 6:1.7364929 7:-0.040881872 8:1.5912575 9:0.023035961 10:-1.4905379 11:0.032309573 12:-0.31926204 13:0.19220366 14:-0.88945676 15:-0.66959063 16:0.50430368 17:-1.9323946 18:-1.4170577 19:-1.0018465 20:0.88259406 21:0.99464249 22:-0.65542677 23:-0.39608536 24:-0.91543101 25:1.0379663 26:-0.072235865 27:0.60695931 28:-0.58704824 29:-0.31628776 30:-0.58177884 31:-0.91969768 32:-0.90902464 33:-0.088456547 34:-0.86541893 35:0.93837274 36:-0.10344622 37:0.39362013 38:0.95316281 39:1.4680057 40:0.91397945 41:-0.17723036 42:1.072834 43:0.35363025 44:0.58086055 45:0.86202479 46:1.4123251 47:1.9815145 48:0.83953334 49:0.93639098 50:2.0705938 51:1.6448255 52:1.801928 53:3.2476257 54:1.2355539 55:3.5113571 56:-0.26924515 57:-0.32925936 58:-0.90582261 59:1.2629999 60:0.30685188 61:0.63819959 62:-0.14686094 63:-0.27282964 64:-0.58406688 65:-0.66115751 66:-0.57246142 67:0.75959094 68:-0.48921119 
0 0 0.7648910581742682 0.1891525241267447 0.05999840483782799 5 0 1:-0.95441535 2:-0.98494326 3:-0.64565717 4:-0.92451076 5:-0.46560221 6:-0.97472185 7:0.36293807 8:-0.83544166 9:-1.1807613 10:1.0949423 11:0.38402427 12:0.34511 13:0.21138852 14:0.15284749 15:-0.76020464 16:-0.51756908 17:-1.0475354 18:-1.023848 19:0.49242058 20:0.81249461 21:-1.1866499 22:2.4329263 23:-0.6235496 24:0.90499806 25:2.7209045 26:0.15296838 27:0.31304797 28:-0.64991113 29:0.21231917 30:-0.11467963 31:-0.28067862 32:-0.29352301 33:-0.58424774 34:0.20657557 35:-0.42000604 36:-0.312812 37:0.39539096 38:-0.25340018 39:-0.020306546 40:-0.17147962 41:-0.064600189 42:-0.33538704 43:1.0184822 44:-0.08614325 45:-0.22396988 46:-0.75305512 47:1.052255 48:0.27218057 49:-0.49252537 50:0.19949972 51:-0.29775167 52:-0.55136061 53:-1.1361512 54:-1.0317298 55:-0.7017315 56:1.3249816 57:-0.82175792 58:0.80245 59:1.9102176 60:0.027348873 61:-0.27547572 62:-0.71706067 63:0.2310943 64:-0.32638052 65:-0.38300863 66:-0.28219705 67:-0.71346301 68:-0.15032405 
0 0 0 0.07153597897435172 0 0 0 1:-0.76217134 2:-1.1245061 3:-0.45930911 4:-0.33180048 5:0.56554598 6:-0.86306069 7:0.6991346 8:-0.69490219 9:-1.282026 10:0.66810185 11:0.067627075 12:0.70264977 13:0.74133053 14:0.53495098 15:0.75949368 16:-0.17876239 17:-0.36614344 18:-0.89739987 19:0.40300267 20:0.42814661 21:0.058932919 22:-0.27433917 23:-0.2837729 24:-0.10915793 25:-0.34492996 26:1.117757 27:-0.013848745 28:-0.331194 29:0.48670771 30:0.24672934 31:4.7767352 32:-0.69188457 33:-0.22042676 34:-0.020914849 35:-0.078713564 36:-0.94647584 37:0.88456819 38:0.97674891 39:2.4826164 40:-0.019375426 41:-0.039343132 42:0.45956098 43:-0.14055414 44:0.7113928 45:1.0337888 46:1.4589143 47:-0.57524766 48:0.88098838 49:-0.32471265 50:1.0187147 51:0.50143877 52:1.7839817 53:0.95593976 54:2.0927948 55:2.0724792 56:0.38117683 57:0.049933338 58:0.11422521 59:0.13454328 60:1.511405 61:0.74762757 62:-0.29498391 63:1.2356195 64:1.0680813 65:1.1643357 66:-0.71818378 67:0.37151633 68:-0.63556753 
0 0 0 0 0 1.467332197308229 0 1:0.017216894 2:-1.3224404 3:-1.2394115 4:0.047523699 5:0.33605744 6:-0.36433826 7:-0.15797633 8:-0.09202489 9:-1.7953302 10:0.51176149 11:0.85456984 12:-0.0016073372 13:-0.26600731 14:0.076199178 15:-1.0841428 16:-0.25785337 17:0.66540827 18:-0.65199479 19:-0.36712992 20:-1.8865643 21:-0.14185063 22:0.081300071 23:-0.18510019 24:-0.31275347 25:4.5068888 26:-0.13895192 27:-0.46995068 28:-0.7622486 29:-0.56436475 30:-0.0066061036 31:1.5762449 32:0.22730047 33:-0.12134939 34:-0.48766349 35:0.86185212 36:-1.3202986 37:1.2116385 38:1.0304784 39:1.0748923 40:0.68658698 41:-0.19160476 42:1.1272093 43:0.34127055 44:0.41877645 45:0.12066958 46:0.63893897 47:0.97254386 48:0.27754808 49:0.55187155 50:-0.18955345 51:-0.34658979 52:0.15976858 53:0.39960435 54:0.21959728 55:0.57745172 56:0.37990918 57:-0.084151529 58:-0.71003534 59:1.50202 60:-0.2324901 61:-0.49068965 62:-0.88241961 63:-0.53393725 64:0.0054699204 65:0.045533627 66:-0.30215264 67:-0.035704985 68:-1.1103334 
0 0 0 0 0 2.979970572674292 0 1:-0.34327816 2:-0.24080867 3:-0.57616897 4:-0.4746213 5:-0.088535523 6:-0.5004837 7:1.2113629 8:-0.17653888 9:-0.41296502 10:0.72455918 11:-1.3643828 12:-0.99505321 13:-0.59528308 14:-0.66708458 15:0.36743918 16:0.59100478 17:-0.58573381 18:-0.60385254 19:-0.010994041 20:-1.0644064 21:-1.7144668 22:1.6921346 23:1.2786217 24:-0.10885948 25:-0.040720901 26:-0.32671547 27:1.5112979 28:-0.39791436 29:0.2229441 30:-0.30600178 31:-0.97203129 32:-0.094241312 33:0.75825378 34:-0.09535953 35:0.3677651 36:1.9276948 37:1.8084131 38:1.2026546 39:1.849937 40:1.041796 41:1.5014041 42:1.4590357 43:1.085143 44:1.4024777 45:-0.018626975 46:5.1808032 47:0.6143153 48:1.0418276 49:1.3058704 50:0.81607381 51:-0.14016342 52:0.50027154 53:0.98497916 54:2.8024711 55:3.0743488 56:2.765904 57:2.5493396 58:0.63213428 59:0.35191654 60:0.21471265 61:2.681263 62:0.19672771 63:0.075468422 64:-0.19924435 65:-1.0300642 66:0.91303534 67:1.1135558 68:0.1050414 
0 0 0 0 0 5 0 1:-0.57557782 2:-0.72121726 3:-0.14544037 4:-0.2994198 5:-0.18594007 6:-0.66681306 7:0.89634715 8:-0.49711299 9:-0.86666593 10:0.30184579 11:0.88321522 12:-0.37305263 13:1.4434831 14:0.37671423 15:-0.00078244353 16:-0.15121331 17:-0.58380581 18:-1.2266666 19:0.2732107 20:-1.0448138 21:-2.3301157 22:0.66002364 23:0.13081074 24:0.64103713 25:0.28938442 26:-0.15058367 27:-0.43584392 28:0.13277296 29:-0.14620543 30:1.0963389 31:-0.9080405 32:0.71088455 33:-0.26720084 34:0.53341985 35:1.5401962 36:-0.22277718 37:0.0031784006 38:2.0911883 39:1.6575353 40:1.2823596 41:0.42066228 42:1.3096818 43:1.759946 44:-0.085747615 45:2.6782578 46:1.5330298 47:0.043761127 48:0.87349378 49:0.51294919 50:2.4575465 51:0.096313312 52:0.049990617 53:0.98502848 54:1.3749748 55:1.0245621 56:1.6950079 57:0.35746855 58:1.5162333 59:1.6627502 60:0.80562201 61:-0.10385672 62:0.88132911 63:0.085521405 64:2.0612267 65:-0.69468589 66:1.1052036 67:1.0463226 68:1.4228565 
0 4.527998157487604 1.324536472076174 0 0 0 0 1:0.85120547 2:-1.2845274 3:-0.61176685 4:0.63430497 5:0.1619063 6:0.22176563 7:-0.20376563 8:1.0842432 9:-1.3915787 10:0.46377952 11:0.56051027 12:-1.166314 13:0.67756302 14:0.24011842 15:-0.43271206 16:-0.11061056 17:-0.091176778 18:-0.4689071 19:1.7473642 20:0.31343218 21:0.85844646 22:-0.38030686 23:-0.37534491 24:-0.61139118 25:0.13201427 26:1.051013 27:-0.58806306 28:1.2936835 29:-0.34510224 30:0.21953561 31:-0.28012263 32:-0.61187591 33:-0.31747453 34:0.35950151 35:3.7583588 36:-1.5115611 37:0.3129701 38:3.96466 39:2.9364979 40:2.6786031 41:0.18913594 42:2.7622444 43:0.55036013 44:2.483761 45:0.2254024 46:1.025907 47:-0.49757129 48:-0.0901839 49:-0.72443544 50:-0.27727528 51:-0.56862113 52:0.52825859 53:0.97021528 54:-0.4185688 55:0.98940422 56:-0.61227015 57:-0.53523232 58:-0.6852233 59:-0.084991354 60:1.221747 61:-0.19152881 62:2.4576152 63:-0.38491432 64:0.056115569 65:-0.39206749 66:-0.73209227 67:-0.31268806 68:2.5436866 
0 0 0.005085352140655967 0 0 0 0 1:-0.37158838 2:-0.44811368 3:-1.3933814 4:-0.39277888 5:-0.42086442 6:-0.76309701 7:0.76046409 8:-0.49481534 9:-0.3783548 10:0.57426605 11:2.4342642 12:-0.71651359 13:0.81213717 14:0.93347509 15:-0.43863547 16:0.08911836 17:-1.7406652 18:1.3844801 19:1.2317123 20:1.4796093 21:0.31483413 22:-0.83244641 23:-0.76917805 24:0.65989345 25:-0.42872147 26:1.1817082 27:-0.36070016 28:0.26759593 29:-0.77121593 30:-0.28042551 31:1.0066763 32:0.53030704 33:-0.67134739 34:0.30498801 35:0.53459936 36:-1.1426702 37:-0.51458213 38:0.75055635 39:-0.073495674 40:-0.17386992 41:-0.1916973 42:0.46239955 43:-0.30884106 44:-0.6011443 45:-0.13040341 46:-0.62418578 47:-0.13130102 48:-0.21320734 49:-0.4173146 50:-0.99401727 51:-1.356626 52:-0.78053855 53:-1.0663274 54:-1.2638512 55:-1.0712172 56:-0.97617644 57:-0.84626838 58:-0.23851359 59:-0.94912369 60:-0.80431392 61:0.2519734 62:0.047811263 63:-0.71485783 64:0.041355655 65:0.25126389 66:-1.0840674 67:-0.33040089 68:-0.22416369 
0 1.671322179936818 0.3980967294686927 0.8232493298004103 0.1148694087138585 3.057998101487955 3.483507674948237 1:-0.44987004 2:-0.90122348 3:0.20582788 4:-1.0864345 5:-1.1336767 6:-0.33043986 7:0.27898246 8:-0.38912354 9:-1.8883603 10:0.84555687 11:-1.1498955 12:0.08521298 13:-0.57191754 14:-1.0052139 15:3.201217 16:-0.69447357 17:-0.29970469 18:2.0862386 19:-0.40094418 20:-0.00024355453 21:3.0146914 22:-0.25851562 23:-0.45454945 24:-0.23850691 25:-0.14431258 26:-0.78870033 27:-0.24130038 28:0.46707315 29:-0.19852583 30:0.20784723 31:-1.1353352 32:0.66118414 33:-0.36409119 34:-0.058495668 35:-0.96145227 36:-0.69979899 37:-0.35608123 38:-0.96576831 39:-1.2562729 40:-1.0213993 41:-0.46385079 42:-0.8661586 43:0.51134488 44:-0.59918284 45:-0.56802183 46:-0.46554719 47:-0.72227912 48:-0.34126548 49:-0.094880957 50:-1.2907192 51:-0.73232287 52:-1.6331312 53:-2.0301172 54:-1.2112411 55:-1.7368107 56:-0.39302998 57:-0.56470099 58:-0.89103569 59:-0.6009304 60:-0.3957529 61:-0.64858179 62:-0.50743998 63:-0.044778302 64:-0.48509961 65:-1.1616682 66:-0.74201727 67:-0.27824851 68:-1.2607614 
5 0 0 1.09000819003093 1.090723102658085 5 3.350878566373323 1:0.22123808 2:-0.37362042 3:0.49836287 4:-0.0090818726 5:-0.33705585 6:0.55561942 7:-0.25967384 8:0.082181502 9:0.70161683 10:-0.47610673 11:-1.0205239 12:-0.28130812 13:-0.088151903 14:0.092021666 15:-0.72744505 16:-0.93985378 17:0.41477658 18:-0.30659618 19:-1.3958134 20:-1.3022896 21:-0.48085319 22:0.93396543 23:0.18231498 24:-0.83485336 25:0.97678166 26:-0.43319949 27:0.011539233 28:-0.92880004 29:-0.025989107 30:0.38163209 31:0.92518961 32:0.010596565 33:0.77283764 34:-0.71698427 35:0.036793799 36:-0.38947457 37:0.003087175 38:-0.19423977 39:-0.56701037 40:0.20965948 41:-0.4445634 42:0.030093627 43:-0.99891525 44:-0.47641925 45:-0.40984538 46:-0.80946352 47:-0.51931739 48:-0.0045852799 49:-1.1908674 50:0.14024139 51:-0.66386244 52:-0.24675345 53:0.16535391 54:0.065717344 55:0.54290809 56:1.2690886 57:-0.027134488 58:-0.71050054 59:1.1462629 60:-0.017006902 61:-0.057359783 62:-0.8600549 63:-0.24564104 64:0.022901918 65:1.7685732 66:-0.15523394 67:1.0344453 68:-0.47054491 
0 0 0 0 0 0 0.5741835347931814 1:2.1406625 2:-0.53995709 3:-0.90605309 4:1.9321122 5:0.5213107 6:0.90912132 7:0.63137315 8:1.8445094 9:-1.3761291 10:-0.52317829 11:2.2420204 12:-0.43603606 13:-1.1610045 14:-0.36372501 15:-0.58192221 16:1.1020839 17:0.85901861 18:-1.0862733 19:2.418995 20:0.042416674 21:0.81121205 22:-0.2902772 23:0.14450007 24:-0.79126085 25:-0.70924515 26:-0.3843723 27:-0.33438936 28:0.16272279 29:-0.53669408 30:0.55969519 31:-0.47871889 32:-0.83975345 33:-0.20718461 34:-0.4111731 35:4.4650069 36:0.90469712 37:0.99455043 38:3.3058807 39:1.0388033 40:2.827165 41:0.57427674 42:2.1752733 43:1.835864 44:2.920041 45:2.2348598 46:1.2433628 47:1.2013929 48:0.51938512 49:1.9140221 50:0.52607854 51:0.2814814 52:-0.18763645 53:0.67535236 54:1.2130013 55:0.67259299 56:-0.021591054 57:0.51172296 58:-0.62822836 59:-0.7486976 60:-0.010203481 61:0.27685298 62:1.8384821 63:-0.29265398 64:1.9873241 65:0.017917595 66:-0.46854904 67:-0.093151747 68:1.9925345 
5 1.666326834510482 0 0 0 0.9600603348329089 0 1:-1.151985 2:-0.015270288 3:-0.55508654 4:-1.1116419 5:-0.8355266 6:-1.185598 7:0.69435993 8:-1.0287144 9:-0.078162509 10:1.300166 11:0.78407317 12:0.58416236 13:0.026249719 14:1.3088818 15:0.019988772 16:-0.9106392 17:0.16544653 18:-1.1504844 19:-0.050240646 20:0.10011201 21:0.060584782 22:0.34120022 23:-0.3244052 24:0.077117455 25:0.41286058 26:1.0733993 27:0.33928855 28:-0.39323092 29:-0.48437276 30:-0.47181097 31:2.8275111 32:0.1540086 33:-0.71048167 34:-0.064695134 35:-0.57076921 36:0.88109986 37:0.35024757 38:0.13827672 39:0.7844057 40:-0.26224851 41:0.73807631 42:-0.66598439 43:0.78357914 44:0.52084369 45:0.77710328 46:0.60736808 47:1.1019475 48:0.79526846 49:0.082418573 50:1.5074225 51:0.73762236 52:0.4176521 53:-0.50005319 54:0.040107883 55:0.1918219 56:0.66656996 57:0.041611678 58:0.35161851 59:0.44202682 60:1.3361714 61:0.52569353 62:-0.4662756 63:-0.27662314 64:-0.1815824 65:3.4151724 66:0.43575167 67:-0.68870834 68:-0.55748107 
