svm_type c_svc
kernel_type linear
nr_class 8
total_sv 490
rho -1.20448 0.29821 -0.414748 -0.328394 -0.290796 -0.310506 -0.680244 1.18622 0.422927 1.13626 0.408499 0.449863 0.625231 -0.518459 -0.532147 -0.305295 -0.315596 -0.626508 0.132442 0.132628 0.47921 0.207642 -0.0579303 0.0159505 -0.175569 0.498494 0.026881 -0.237308
label 0 1 2 3 4 5 6 7
probA -3.94706 -2.28975 -3.47099 -2.01041 -2.95634 -2.8977 -2.50413 -4.25474 -3.18659 -3.76709 -3.34331 -3.41387 -3.4955 -3.22322 -3.27147 -2.78951 -2.57551 -2.5776 -3.55329 -2.21299 -3.31906 -3.14049 -3.45878 -3.73519 -2.89833 -2.27658 -1.92634 -2.71548
probB 0.0256717 -0.271746 0.168255 -0.0920264 0.375648 0.217111 -0.0251553 0.0810432 0.110325 -0.0167933 0.0828258 -0.0591516 -0.276683 0.20849 0.166298 0.178985 -0.0270794 0.100127 -0.113086 0.246372 -0.184595 -0.128652 0.290131 0.370947 0.0114277 -0.120031 -0.16826 -0.0590987
nr_sv 71 46 74 53 68 62 68 48
SV
0.01 0.01 0.01 0.01 0.01 0.01 0 1:-0.70633862 2:0.27563522 3:-0.75064109 4:-0.85695282 5:-0.28122163 6:-0.73513955 7:-0.088987617 8:-0.79130412 9:0.8491895 10:1.022692 11:-0.42047418 12:-0.40742127 13:-1.7649668 14:0.51020603 15:-0.95870955 16:0.076629368 17:1.4368484 18:-0.083012717 19:0.80494505 20:-0.043194922 21:1.8795444 22:-0.33638693 23:0.31695132 24:-0.58755273 25:-0.058390653 26:-0.4040576 27:0.94669668 28:0.055192093 29:-0.9537158 30:0.02938271 31:-0.24234883 32:0.52435874 33:2.4894882 34:-0.5933369 35:-0.46004825 36:0.032806456 37:0.34513272 38:-0.40585179 39:0.79508947 40:-0.14231682 41:-0.42453559 42:-0.6780845 43:0.71027554 44:0.42515149 45:-0.6727355 46:-0.39711694 47:0.14878359 48:0.13963117 49:0.42299469 50:-0.050990929 51:0.5101955 52:0.43464964 53:0.85433023 54:-0.020240164 55:-0.10067103 56:-0.69848337 57:0.59142519 58:-0.41392448 59:0.15154724 60:-0.13418856 61:0.67755892 62:0.20811872 63:-1.0003153 64:-0.00656045 65:-0.58590062 66:0.026325619 67:2.3848046 68:-0.20790685 69:-0.49976649 70:0.52729394 
0.01 0.01 0.01 0.01 0.01 0 0.01 1:0.45108006 2:0.027980484 3:1.3208128 4:0.45112449 5:0.093776222 6:0.85872591 7:-1.0084855 8:0.5248785 9:1.4395504 10:-0.75224054 11:-0.015346129 12:0.19593793 13:0.32098843 14:1.3149827 15:0.72103668 16:0.20287707 17:-0.15686121 18:0.74590022 19:0.3095727 20:2.1361852 21:1.5087003 22:-0.94826204 23:-0.44655914 24:0.50991127 25:-0.61280878 26:1.9812643 27:-0.10323261 28:-0.83426121 29:0.091610522 30:-0.1752565 31:-0.91681529 32:-0.45026358 33:0.63187107 34:-0.45012174 35:-0.35987863 36:-0.59461579 37:-1.2941775 38:-1.2575863 39:-1.507988 40:-0.35540921 41:-0.99220071 42:-0.43443064 43:-1.4927736 44:-0.84929895 45:-1.2435669 46:-1.1528112 47:-1.2088378 48:-0.95569818 49:-0.74900755 50:-0.5509574 51:-0.86577349 52:-0.43019892 53:-0.4797313 54:-0.48606244 55:-0.65901006 56:-1.1478494 57:-0.61577172 58:0.51626948 59:-0.91218809 60:1.8580547 61:-0.54273756 62:-0.98561392 63:0.10546886 64:-0.30627384 65:-1.1823237 66:-0.42634193 67:0.79929474 68:-0.50022676 69:0.54217975 70:-0.33222242 
0 0.01 0 0.01 0.01 0 0.006969406693534293 1:0.99483467 2:-0.87128472 3:-0.23723055 4:0.87401064 5:0.4051151 6:1.0213073 7:-0.61963513 8:1.0709386 9:0.24352508 10:-1.2095888 11:0.087530586 12:-0.69992504 13:-0.10051118 14:0.66336571 15:1.0900765 16:0.61668687 17:0.45001252 18:-0.05475172 19:-1.0093714 20:0.53257425 21:-0.39858663 22:-0.87797747 23:-0.082595976 24:-0.41028391 25:-0.3537839 26:-0.15343521 27:0.39146125 28:-0.36970438 29:0.17816321 30:0.18173615 31:-0.74929318 32:-0.44744378 33:0.34445655 34:-0.95429243 35:-0.18727741 36:-0.73065724 37:0.81523685 38:-0.61833675 39:-0.95440802 40:0.074084797 41:-0.77257143 42:0.090242035 43:-0.42643869 44:-0.71005521 45:-0.32932287 46:-0.23478967 47:0.20742896 48:-0.0083896833 49:-0.30107123 50:0.53393735 51:0.36153861 52:0.57753121 53:0.36324615 54:0.013006448 55:0.06523256 56:-0.86909566 57:-0.033727392 58:-0.47370272 59:-0.51211205 60:-0.16583147 61:0.81323759 62:-0.28775884 63:0.81691839 64:0.31379699 65:-0.71102917 66:-0.19681204 67:0.96997237 68:-0.61363315 69:-0.49976649 70:-0.03936042 
0 0.01 0 0.01 0 0.002468852211725129 0 1:-0.22664693 2:-0.75137586 3:0.42037654 4:-0.54907008 5:-0.53655041 6:-0.22768142 7:0.16734596 8:-0.24352812 9:-0.37264241 10:0.49758086 11:-0.25023876 12:-0.4572325 13:-0.55175719 14:-0.8558694 15:-0.08538584 16:-1.2035007 17:-0.96187274 18:-0.69360001 19:-1.2820596 20:-1.1947794 21:-1.5346443 22:0.064339188 23:-0.11563912 24:-0.39474355 25:2.2149356 26:-0.35115173 27:0.16011268 28:-0.99934838 29:0.959375 30:0.2326774 31:-0.054764384 32:-0.53669875 33:0.25945596 34:-0.75745544 35:0.018978244 36:-0.42211477 37:-0.3180142 38:-0.32796107 39:-0.35960911 40:0.33596025 41:-0.085140512 42:-0.0083611631 43:0.44529956 44:0.81548004 45:0.5990338 46:0.98789517 47:0.64940275 48:1.0301937 49:1.0598875 50:2.390407 51:2.7787885 52:1.9903617 53:2.4688218 54:1.2416273 55:0.54535504 56:0.31432255 57:0.35999712 58:-0.17810156 59:2.4467449 60:-0.31295431 61:0.77899795 62:-0.92646212 63:1.9805509 64:0.40835085 65:0.15121187 66:-0.42556276 67:0.66857364 68:-0.64235617 69:-0.49976649 70:-1.1445825 
0.01 0.004483674687194326 0 0.009022140506354486 0.0007294792330676188 0 0.01 1:0.93302125 2:-0.30808111 3:0.86921739 4:0.62305112 5:-0.14646619 6:1.4599075 7:-0.61726563 8:0.79499679 9:1.0814785 10:-1.2423703 11:-1.602797 12:-0.40054177 13:1.4192853 14:-0.11316105 15:-0.3053567 16:0.3265414 17:-0.10298699 18:1.25092 19:1.6962979 20:1.6641409 21:0.37214366 22:-0.94623204 23:0.89180861 24:-0.43314018 25:-0.11950842 26:-1.4602096 27:-0.062191735 28:-0.81676075 29:0.67840119 30:2.2083762 31:-1.1067634 32:-1.2198192 33:-0.46811852 34:-1.2685254 35:-0.26329639 36:-0.24791158 37:-0.47652471 38:-0.7962807 39:-1.2365261 40:-0.18198441 41:-0.73489931 42:-0.15521592 43:-0.64762495 44:-0.019906912 45:-0.33067846 46:-0.42261866 47:-0.8141038 48:-0.7000066 49:-0.14496972 50:-0.036548217 51:-0.038650261 52:0.0063927545 53:-0.46272298 54:0.019888169 55:0.17796563 56:-1.0019624 57:0.85531913 58:0.29581151 59:-0.31434829 60:-1.3104503 61:0.030389136 62:-0.84034051 63:1.3603581 64:2.5572885 65:-1.4333686 66:-0.83524487 67:-0.56973005 68:-0.39517093 69:-0.053218101 70:0.24397854 
0.01 0.01 0 0.01 0 0 0.00055813451209681 1:-0.064855471 2:-0.43982842 3:0.80465224 4:-0.066459956 5:-0.009795871 6:0.27192058 7:-0.47390776 8:-0.13015341 9:0.62875881 10:0.093321834 11:-1.0823037 12:-0.57648418 13:0.21078213 14:0.87943989 15:1.0287367 16:-0.31708337 17:0.093963792 18:0.17674682 19:-1.1784114 20:0.28492479 21:0.93502718 22:-0.57759487 23:-0.29270342 24:-0.84396854 25:1.2211558 26:0.31666108 27:0.0036088237 28:-0.9334387 29:-0.37315567 30:0.058359261 31:-0.56975625 32:-0.52234371 33:1.6047396 34:-1.2775427 35:-1.0455943 36:-0.37594882 37:-0.74196877 38:-0.98553853 39:-1.112888 40:-0.50392912 41:-0.69470997 42:-0.72163262 43:-0.66489437 44:-0.31204671 45:-0.81545517 46:-0.81038286 47:-0.69658128 48:-0.39893395 49:-0.61810247 50:-0.51925154 51:-0.60276268 52:-0.73793635 53:-0.49849451 54:-0.08219119 55:-0.43034745 56:-0.67364202 57:-0.26362176 58:-0.88213355 59:1.0631282 60:0.16007546 61:-0.13309796 62:-0.99185569 63:-0.26824133 64:0.0779469 65:-0.714415 66:-0.29565404 67:1.9835738 68:-1.0180861 69:-0.053218101 70:0.18004265 
0 0.01 0.01 0.01 0.01 0.01 0 1:-0.65273386 2:-0.3514412 3:0.38436829 4:-0.69709598 5:-0.49370965 6:-0.54515906 7:0.13377158 8:-0.61441561 9:0.27035948 10:0.37858712 11:0.35407919 12:0.48345255 13:0.034029288 14:0.39939053 15:0.15397304 16:1.2314119 17:-0.43232394 18:0.70756647 19:-0.54731712 20:0.841934 21:0.87627826 22:-0.25013085 23:-0.36539669 24:0.063005451 25:0.075782019 26:0.70464131 27:-0.50838061 28:0.44058317 29:-0.55411 30:-0.39003292 31:-0.67983072 32:0.93760115 33:-0.57902283 34:0.52597344 35:-0.010629951 36:-0.38869063 37:-0.19128257 38:0.031336684 39:1.0305804 40:0.03418849 41:-0.26567151 42:-0.19417536 43:0.29855941 44:0.75199077 45:0.85661471 46:0.92967949 47:0.94363725 48:1.2352853 49:0.99445549 50:1.5140357 51:0.54930378 52:0.98433607 53:0.78672434 54:0.91933441 55:1.5598266 56:0.074066062 57:-0.071856223 58:0.2544968 59:0.33417542 60:0.6237989 61:-0.31234237 62:0.52963663 63:-0.16507465 64:-0.14938846 65:-0.72974541 66:1.4011448 67:-0.31770049 68:0.4203418 69:-0.053218101 70:-0.069882146 
0.01 0.005238189198575669 0 0.01 0.000770248345577547 0 0.01 1:1.6363156 2:-0.63900445 3:1.1732929 4:1.0180405 5:0.25356712 6:1.5009221 7:-0.73225633 8:1.3357562 9:0.31378205 10:-1.1115026 11:0.085313952 12:-0.37513045 13:0.051950861 14:0.18045424 15:1.3654142 16:0.79683444 17:0.42605805 18:0.72307728 19:0.82164437 20:-0.45111787 21:0.78054516 22:-0.26276309 23:-0.78375644 24:-0.25517643 25:-0.42540651 26:-0.79457933 27:-0.33552367 28:-0.52858784 29:-0.17139204 30:-0.061372345 31:-0.29639556 32:-0.43411086 33:0.2259174 34:-0.98264189 35:0.71194388 36:-0.56511588 37:-0.78408942 38:-0.44180973 39:-0.78403877 40:0.2224045 41:-0.29860276 42:0.068612695 43:-0.30520684 44:0.10607965 45:-0.7475042 46:-0.54614919 47:-0.72352868 48:-0.54938384 49:-0.49109693 50:-0.59039318 51:0.22907433 52:0.44126453 53:0.27946892 54:0.34270392 55:0.078692094 56:-0.54716955 57:-0.79832462 58:-0.44948647 59:-0.65762537 60:-0.77615391 61:-0.56295722 62:-0.71539434 63:-0.071138267 64:0.24640454 65:-0.033779403 66:-0.59401584 67:0.62407657 68:-0.70579802 69:0.54217975 70:-0.90598873 
0 0.01 0 0.01 0.0008175553220593615 0.003322823491049079 0 1:0.53626147 2:-0.75547542 3:0.65418935 4:0.35553137 5:-0.038818186 6:0.86121226 7:-0.23101981 8:0.55728352 9:-0.056778655 10:-0.85510961 11:-0.21594943 12:0.3386128 13:0.27253421 14:-0.40709875 15:-0.25798458 16:-0.36677099 17:-0.69105071 18:-0.73289765 19:-1.5742221 20:-0.78402005 21:-0.11350217 22:0.019401848 23:-0.060242224 24:-0.19963735 25:0.19716165 26:0.97061737 27:-0.78438884 28:-0.62197646 29:0.70069705 30:-0.38138402 31:-1.1415661 32:0.084217089 33:-0.2776875 34:-0.5646499 35:-0.086492529 36:-0.65922779 37:-0.48218475 38:-0.60437454 39:-0.70742335 40:0.26284821 41:-0.3451535 42:0.0095044512 43:-0.058182824 44:0.36983676 45:-0.0076837995 46:-0.041772314 47:0.10721197 48:0.41642954 49:1.6984398 50:1.0581789 51:1.3097341 52:2.9782212 53:1.9268527 54:1.7325298 55:0.80290412 56:0.063033488 57:0.1489357 58:-0.21854849 59:0.37832729 60:1.7341832 61:-0.65463933 62:-0.52400848 63:1.0388228 64:-0.23632436 65:-0.87069533 66:0.35483374 67:0.0015442517 68:-0.34960506 69:0.54217975 70:-0.77963944 
0 0 0 0 0 0.01 0 1:1.8936074 2:-0.3337825 3:0.35855892 4:1.7670884 5:1.1412238 6:1.5381754 7:-0.6864285 8:1.8002414 9:0.57946466 10:-1.001746 11:0.80982205 12:-0.47246751 13:0.5593083 14:0.52281982 15:0.32676493 16:0.18905801 17:-0.12840561 18:0.37751308 19:-0.10034616 20:-0.09813746 21:-0.9209379 22:-0.090323923 23:-0.31456031 24:-0.99197951 25:-0.36352262 26:-0.64737462 27:0.61985457 28:-0.7295309 29:-0.42680326 30:-0.60757493 31:0.19837762 32:-0.046234509 33:0.13172193 34:-1.1669126 35:0.5444934 36:-0.29259015 37:0.096195375 38:-0.43053965 39:-0.21997634 40:0.32563519 41:-0.88104717 42:0.53344482 43:0.2637728 44:0.36996545 45:0.034679992 46:0.55110473 47:0.18065726 48:0.23114039 49:0.41236837 50:0.96680694 51:1.2756842 52:1.5716474 53:0.77693812 54:1.4678827 55:0.97948486 56:0.22214495 57:-0.1952799 58:-0.81749446 59:-0.3273553 60:-0.71306531 61:0.74991316 62:-0.80870275 63:-0.3472114 64:-0.33291681 65:0.64784289 66:0.023275858 67:0.47406772 68:-0.87224558 69:-1.352268 70:-0.63553007 
0 0 0 0 0.009787867820297291 0 0.01 1:2.2572791 2:-0.5839141 3:0.45014924 4:1.6739736 5:0.37060468 6:2.42666 7:-0.94328861 8:2.3345783 9:0.46654146 10:-1.9485501 11:0.2861664 12:0.07195715 13:0.57490836 14:0.75642017 15:0.36481005 16:0.38768427 17:0.3016814 18:0.65955732 19:0.56505633 20:-1.2944152 21:-0.37697263 22:-0.56393669 23:-0.58941397 24:-0.90914727 25:-0.70595416 26:-0.81961696 27:-0.71875225 28:-0.6419909 29:-0.51975229 30:-0.57734794 31:-0.46001772 32:-0.98889919 33:1.2660379 34:-1.3946851 35:0.22272587 36:-0.55505218 37:-0.28802179 38:-0.50483709 39:-0.62128182 40:0.10529026 41:-0.913845 42:0.088439741 43:0.33482626 44:-0.33050165 45:0.013661635 46:-0.46023987 47:-0.26473681 48:-0.10331028 49:-0.18725699 50:-0.12257152 51:0.24210701 52:0.28946666 53:0.32847075 54:0.58771829 55:0.84032441 56:-0.66841308 57:-0.65809831 58:-0.84920093 59:-0.70695848 60:-0.83708945 61:-0.62325034 62:-0.69302455 63:-0.465608 64:-0.53233149 65:-0.24303356 66:-0.88914912 67:1.5418764 68:-0.74898307 69:-1.1249342 70:-0.26355206 
0.006622341945012982 0.01 0 0.01 0 0 0 1:-0.64312723 2:-0.81003193 3:0.12400593 4:-0.9869406 5:-0.95709406 6:-0.53636316 7:-0.13128251 8:-0.71575087 9:-1.0049296 10:0.63813815 11:-0.64870157 12:0.045248482 13:0.037023109 14:-0.48435387 15:-2.0835501 16:-0.56833232 17:-0.42244486 18:0.20910831 19:-0.44578478 20:-0.78266755 21:-1.8370862 22:1.7412239 23:0.019933423 24:-0.64467593 25:-0.53665022 26:-0.060788385 27:0.38822101 28:-0.75107027 29:0.21856879 30:1.3638954 31:-0.32325383 32:0.40557292 33:1.6340131 34:-0.72775426 35:-0.57156696 36:-0.48479581 37:0.20646411 38:-0.48260974 39:0.30583084 40:-0.42520727 41:-0.44187503 42:-0.74494323 43:1.7843851 44:0.43916901 45:-0.018931708 46:0.13936943 47:0.36446142 48:0.2968061 49:-0.31979671 50:0.63990982 51:0.51721736 52:0.57337587 53:0.90292278 54:0.59984009 55:-0.012575781 56:1.2874465 57:0.026084061 58:-0.59147656 59:-0.59621275 60:0.14406499 61:0.5218522 62:-0.64508295 63:0.92990155 64:1.6602114 65:-0.32011422 66:-0.1784827 67:1.3828262 68:-0.72551589 69:-0.8470819 70:-0.57047066 
0 0 0 0.01 0 0 0 1:-1.2095858 2:-0.56685799 3:-0.023082577 4:-1.2640269 5:-1.1800066 6:-1.3098166 7:1.5712967 8:-1.2291186 9:-1.0361946 10:1.2209341 11:-0.73039094 12:-1.4884631 13:-2.011239 14:-2.1670257 15:-4.2609083 16:-3.8505618 17:-2.7724262 18:-3.0396354 19:-0.4064417 20:0.48071018 21:-0.28524594 22:0.24105382 23:-0.5965529 24:-1.1385498 25:2.1035055 26:0.12252898 27:4.0267614 28:-0.86959905 29:1.7216564 30:5.8822085 31:-0.87919828 32:-1.1897747 33:1.0599277 34:0.0091805743 35:-0.79403304 36:-0.36379494 37:0.44390879 38:-0.30810107 39:0.95612559 40:-0.28073557 41:1.359626 42:-0.81491384 43:1.7746329 44:1.6434606 45:1.327002 46:1.0077056 47:0.095042095 48:0.81667111 49:0.73521076 50:1.5807922 51:1.3137361 52:1.8314815 53:2.727765 54:2.3400929 55:1.9860266 56:0.69463856 57:-0.39897658 58:-0.91259161 59:3.1997432 60:1.2148116 61:5.0842416 62:-0.70261922 63:3.5870575 64:6.2477259 65:-0.67952491 66:-0.89792155 67:1.5774441 68:-0.12269851 69:0.54217975 70:-1.1359807 
0 0.0007882958724652816 0 0.01 0 0 0 1:-1.1030793 2:-0.65784568 3:0.17766001 4:-1.0294562 5:-0.55176255 6:-1.3827799 7:0.53784619 8:-1.2735474 9:-0.6064433 10:1.2217484 11:-0.0028571746 12:-0.18109713 13:-0.94956516 14:-0.99344855 15:-2.5517759 16:-2.7094203 17:-1.1148124 18:1.2203141 19:1.2588919 20:-0.66925542 21:-1.3030661 22:-0.38458938 23:0.26357313 24:-0.97937379 25:2.2166598 26:-1.0854064 27:1.6902044 28:-0.50640914 29:2.1074818 30:6.0205445 31:1.7766162 32:-0.94444489 33:0.65120014 34:0.059911176 35:-1.0382215 36:-0.36358182 37:-0.031774652 38:-0.6825846 39:0.10609879 40:-1.1238363 41:0.2720421 42:-1.1888467 43:0.46064487 44:0.044813426 45:0.030025321 46:0.12498587 47:0.096542081 48:0.71169854 49:0.32656812 50:0.24165228 51:0.52023351 52:0.28828877 53:0.053786736 54:1.4607941 55:0.98584853 56:0.208301 57:0.83215388 58:-0.71650591 59:2.9601407 60:-0.87665782 61:2.7649784 62:-0.36407232 63:2.8586643 64:6.2863481 65:2.0947833 66:-0.49436155 67:1.1425796 68:-0.19145781 69:-1.352268 70:-0.94992818 
7.134917912541964e-05 0.01 0.009473264694462415 0 0.005948604599920965 0 0.01 1:0.049020467 2:-0.65931454 3:-0.23372214 4:0.72062475 5:1.6501524 6:-0.3364136 7:-0.60142954 8:-0.27149932 9:0.26719059 10:0.69627049 11:0.056523461 12:-0.048744545 13:0.056094389 14:1.5888863 15:0.15869792 16:0.17194235 17:-0.04781353 18:-0.76708036 19:-1.1289416 20:-0.93447645 21:-2.0603803 22:0.56199091 23:-0.67481676 24:-0.67146004 25:1.2911947 26:-0.96220332 27:0.30524804 28:-0.75850594 29:-0.90010156 30:-0.82362904 31:6.0304413 32:-0.20864559 33:0.83891274 34:-0.84656082 35:0.16505934 36:-0.55500977 37:-0.19208311 38:0.31104263 39:0.81697634 40:0.21721004 41:-1.0568176 42:0.6285275 43:0.6086034 44:0.55306574 45:-1.2108521 46:-0.60319607 47:-1.026115 48:-1.2515374 49:-0.84448959 50:-1.0491503 51:-0.70405614 52:-1.6846803 53:-1.4990452 54:-1.5609582 55:-1.3255618 56:0.28735687 57:-0.79385107 58:-0.77498556 59:0.96789699 60:-0.91207537 61:0.047683117 62:-0.96261881 63:-1.1450784 64:-1.1607832 65:5.4071194 66:-0.49161819 67:0.67386709 68:-0.90055286 69:0.54217975 70:0.057175522 
0 0.01 0 0 0 0 0 1:0.33330035 2:-0.78718635 3:0.76803242 4:0.32317061 5:-0.026320845 6:0.40918695 7:-0.57771398 8:0.18428826 9:0.011015554 10:-0.37682742 11:-0.68584061 12:-1.3822022 13:-0.60487641 14:-0.15538415 15:0.35581187 16:-1.3594531 17:-1.381053 18:-3.2043162 19:-0.78045842 20:-2.2845772 21:-0.57527937 22:1.891668 23:-0.76035497 24:-1.1335535 25:2.1533061 26:-1.1766918 27:0.7953215 28:-0.91461788 29:-0.52874192 30:1.1706903 31:-0.34394087 32:-0.81098654 33:1.7523146 34:-0.95535324 35:-0.59921325 36:-0.75720203 37:-0.44293766 38:-0.2855233 39:-0.45210173 40:-0.16350436 41:-0.90364361 42:-0.09129082 43:0.083685481 44:-0.41536894 45:0.28143624 46:0.1498353 47:0.86331455 48:-0.18615603 49:0.21350323 50:-0.60887739 51:-0.21618308 52:0.48009214 53:-0.047269887 54:0.30147754 55:0.031443162 56:1.7806741 57:-0.81421239 58:-1.1744124 59:2.544539 60:-1.2891945 61:0.67493066 62:-0.90433131 63:-0.45373855 64:1.2251803 65:-0.12777341 66:-0.550406 67:2.0361436 68:-0.71358046 69:-0.49976649 70:0.73287353 
0 0.01 0 0 0 0 0 1:0.77622715 2:-0.69417486 3:0.034248389 4:0.84633519 5:0.46458398 6:0.37617436 7:-0.37758006 8:0.72095682 9:-0.054387061 10:0.054074546 11:-0.0056365239 12:-1.6554057 13:-0.59209013 14:0.039617016 15:-0.19127558 16:-1.5339062 17:-1.6262704 18:-1.5330058 19:-1.5719341 20:-0.62756966 21:-1.4057754 22:0.019708631 23:0.58548527 24:-0.92310719 25:0.030958624 26:-0.32660193 27:1.081496 28:-0.97483878 29:0.28742233 30:1.1470204 31:1.7486499 32:-0.78309764 33:0.39327439 34:-1.119701 35:1.5315584 36:-0.41590167 37:0.07506837 38:1.7460483 39:0.63207499 40:1.2635363 41:-0.82700832 42:1.452959 43:1.1056696 44:1.8591206 45:0.42747367 46:1.0355758 47:0.138999 48:0.50899012 49:0.64252979 50:0.66646636 51:0.77015108 52:0.22974328 53:0.81141506 54:1.4831125 55:1.1883752 56:0.042557544 57:1.2714222 58:-0.80588428 59:0.2200447 60:0.1260405 61:1.925084 62:-0.88929861 63:0.41832656 64:1.1078674 65:2.3078756 66:-0.21446416 67:0.75295997 68:-0.70499595 69:-0.49976649 70:-0.66420198 
0.01 0.01 0.01 0.01 0 0 0 1:0.038421996 2:-0.97283591 3:-0.3998236 4:-0.0078016521 5:-0.0013466574 6:-0.22086661 7:-0.28661712 8:-0.16906205 9:-0.42090276 10:0.19854797 11:0.80482373 12:-0.30241962 13:-0.97846171 14:0.025329686 15:-2.5894953 16:-1.1664625 17:-1.7944985 18:-1.1171584 19:-0.57529757 20:-2.0721259 21:-0.56050219 22:2.5502532 23:0.92292931 24:-1.2414911 25:-0.66819557 26:-1.556108 27:3.6020898 28:-0.14023661 29:-1.1051144 30:-0.38609904 31:-0.92907932 32:0.43512207 33:-0.29355338 34:-0.8275694 35:-0.15043011 36:-0.79792399 37:0.29781735 38:-0.36351159 39:0.050836826 40:-0.13525911 41:-0.86434284 42:-0.41439233 43:0.4092845 44:0.41997892 45:-0.88503776 46:-0.95010229 47:-0.32008671 48:-0.085370326 49:0.051496043 50:-0.44120801 51:-0.94723207 52:-0.73865526 53:-0.53252015 54:-0.30946062 55:-0.66890099 56:1.1980393 57:1.1946225 58:-1.3829956 59:-0.79913335 60:-1.789077 61:1.9326712 62:-0.31842373 63:-1.2018074 64:-0.73223442 65:-1.2449828 66:0.61466027 67:-0.38993888 68:-1.0676019 69:-1.1249342 70:0.34412541 
0.0004457435570739085 0.01 0 0.01 0 0 0 1:0.55148408 2:-0.81966297 3:0.82341582 4:0.29280597 5:-0.17628383 6:0.5760939 7:-0.61216828 8:0.38808568 9:-0.09603628 10:-0.5587427 11:-0.55824206 12:-1.5077258 13:-1.2887461 14:0.04478286 15:-1.4678187 16:-1.0113162 17:-1.6583402 18:-1.8624481 19:0.77557681 20:-1.0281091 21:0.23475462 22:0.27806181 23:-0.080893315 24:-0.97298055 25:0.28754216 26:0.55178655 27:1.3242919 28:-1.0003358 29:-0.79443883 30:0.30686032 31:-0.57112375 32:-0.95880988 33:4.0954855 34:-1.066759 35:-0.12781573 36:-0.63452049 37:-0.4898249 38:-0.31448547 39:-0.022807203 40:-0.054208179 41:-0.90053129 42:-0.088828938 43:0.62572749 44:0.060168181 45:0.72043632 46:-0.012014246 47:1.6291461 48:0.47055041 49:0.69115751 50:0.28598588 51:0.37118065 52:0.31110625 53:0.46078627 54:0.25444126 55:0.57716174 56:0.34019446 57:0.012919044 58:-0.8614341 59:0.30130354 60:0.80408286 61:0.87747406 62:-0.97203933 63:-0.82428912 64:0.49859372 65:-0.076200117 66:-0.49925049 67:3.9519605 68:-0.80938413 69:-1.1249342 70:-0.27256668 
0 0.01 0 0 0 0 0 1:-0.11156014 2:0.31465054 3:0.36640996 4:-0.03600179 5:-0.066521264 6:-0.33678981 7:-0.017890984 8:-0.33515825 9:1.1244955 10:0.25636256 11:1.226017 12:-1.3796648 13:-1.3204871 14:-0.4405066 15:-1.71255 16:-0.72691998 17:-0.72860567 18:-0.54112396 19:-1.3862249 20:-1.5545478 21:-1.4396723 22:1.596585 23:0.3831939 24:-0.93181014 25:0.93765892 26:0.28269321 27:0.30464737 28:-1.0453093 29:-0.75254229 30:0.55943181 31:0.1567227 32:-0.026057193 33:0.17689607 34:-1.094595 35:-0.24516878 36:-0.32998616 37:-0.43445389 38:-0.67803519 39:-1.0019292 40:-0.03989732 41:-0.67509334 42:-0.11756862 43:-0.77155245 44:0.030889168 45:-0.07158188 46:-0.31556929 47:-0.12475261 48:0.19462189 49:-0.068725315 50:-0.68639672 51:-0.84400174 52:-0.2635787 53:-0.47493942 54:0.25671835 55:0.07848885 56:1.6072314 57:0.7512241 58:-0.89349682 59:0.96284239 60:0.22609276 61:0.30894432 62:-1.1181276 63:-0.64300155 64:0.85280743 65:0.0038320793 66:0.16735795 67:0.37053568 68:-0.78250055 69:1.3757367 70:-0.36870247 
0 0.01 0 0 0 0 0.009551384400531319 1:0.21934857 2:-0.48287118 3:0.27930694 4:0.33144675 5:0.34595489 6:0.13683956 7:-0.53929228 8:-0.10219817 9:0.66825995 10:0.069984783 11:0.099634545 12:-0.97190766 13:-0.8136114 14:-0.44603093 15:-0.84956839 16:-0.9924108 17:0.34977407 18:-0.29527983 19:-0.36039544 20:-1.9780161 21:-0.79023413 22:-0.33879552 23:0.094321306 24:-0.98347127 25:0.29332157 26:1.1956759 27:0.39855157 28:-0.54012318 29:-0.18438923 30:1.713821 31:1.1199632 32:-0.81582422 33:1.3685764 34:-1.1201807 35:-0.61423245 36:-0.56221603 37:-0.35259346 38:-0.73830827 39:-1.3826302 40:-0.45291782 41:-1.0287465 42:-0.33047939 43:-0.46032153 44:-0.59033234 45:-0.10169822 46:-1.0936151 47:-0.54166778 48:-0.17250026 49:-1.1536668 50:-1.2473634 51:-0.47834067 52:-1.3773382 53:-0.64303775 54:-0.43211946 55:0.34814649 56:-0.50712865 57:0.036132002 58:-1.0785776 59:0.11661221 60:1.2481489 61:0.46283003 62:-0.34321157 63:0.042694771 64:1.5411149 65:0.69896824 66:-0.92517751 67:1.8383908 68:-0.6686422 69:-1.1249342 70:2.0718766 
0 0.01 0 0 0 0 0.01 1:0.6519171 2:-0.11431379 3:0.39064745 4:0.83329125 5:0.62572127 6:0.26836821 7:-0.76999121 8:0.62675357 9:0.87842182 10:-0.1570225 11:2.5046846 12:-0.78713896 13:-0.15437017 14:-0.43566328 15:-1.0703246 16:-1.3488673 17:-1.5366218 18:-1.5349627 19:1.0449603 20:0.21741712 21:0.36944213 22:1.0877125 23:-0.69047167 24:-0.062755336 25:-0.19169081 26:1.0985455 27:3.5969751 28:-0.84099366 29:-1.0880017 30:0.23500006 31:-0.4140569 32:-0.15647005 33:-0.36765612 34:-0.70996677 35:0.0059974394 36:-0.5605533 37:-0.7587682 38:-0.80388689 39:-1.6746989 40:-0.1384709 41:-1.1166496 42:0.1584221 43:-1.1234953 44:-0.99806018 45:-1.166976 46:-1.1456594 47:-0.90553918 48:-0.79614302 49:-0.75072345 50:-0.95469499 51:-0.7710468 52:-0.50380534 53:-0.58262718 54:-0.54010679 55:-0.086510211 56:0.68109158 57:-0.8287547 58:0.33966051 59:-0.28487648 60:0.53230487 61:3.5081299 62:-0.9553311 63:-1.12226 64:0.083729627 65:-0.74965034 66:-0.23779789 67:-0.51680533 68:-0.65557366 69:-1.1249342 70:0.05295128 
0 0 0 0 0 0 0.0007225137888543292 1:2.8483003 2:-0.82725361 3:0.95113367 4:2.4241792 5:1.8225505 6:1.9193734 7:-1.0029117 8:2.7165149 9:-0.16086652 10:-0.56049476 11:-0.81965175 12:-0.92324092 13:-0.38198949 14:-0.28764296 15:-0.60522214 16:-0.71646389 17:0.45120266 18:0.42365272 19:1.3385662 20:0.015896073 21:-0.12302893 22:-0.089386359 23:0.98836415 24:-0.9707341 25:-0.54704396 26:-1.4752941 27:-0.40818351 28:-1.2051608 29:2.5091979 30:0.97079468 31:0.39204239 32:-1.1230201 33:-0.2613809 34:-1.6265237 35:1.4120318 36:-0.64029888 37:-0.63794387 38:1.063363 39:0.18992573 40:0.38466697 41:-1.1334718 42:1.7671002 43:-0.08953718 44:0.2930043 45:-0.32471813 46:-0.16050741 47:-0.14871794 48:0.23588315 49:0.15707169 50:0.72585006 51:0.29238776 52:0.9415161 53:0.30835545 54:0.63305182 55:1.0799139 56:-0.24661349 57:1.0471678 58:-0.87199361 59:-0.43254634 60:-1.5490066 61:-0.34574507 62:-1.2213229 63:2.4399363 64:0.85742598 65:0.63042491 66:-0.92769739 67:-0.3936983 68:-1.0120935 69:-0.8470819 70:0.69667855 
0.0008788834978657407 0.01 0.01 0 0 0 0.01 1:0.90480939 2:-0.73605686 3:0.25662452 4:1.0733762 5:1.0589268 6:0.32536442 7:-0.69906187 8:0.72296616 9:0.23086098 10:0.078869321 11:0.95855785 12:-1.4645517 13:0.26898856 14:-0.48032469 15:-0.22533481 16:-2.2286915 17:-2.2617709 18:-0.57833268 19:-0.3472564 20:-0.29994593 21:-2.164744 22:-0.99220365 23:-0.15626022 24:-0.13981277 25:0.31901488 26:-0.84861192 27:0.68150134 28:-0.49021687 29:-0.77916309 30:0.49677608 31:3.3032962 32:-1.352264 33:-0.36899297 34:-0.95373369 35:0.31443237 36:-0.7458956 37:-0.83290554 38:-0.1762473 39:-0.4557525 40:0.22347457 41:-1.0901222 42:0.58923937 43:-0.69894501 44:-0.36661344 45:-0.7508611 46:-0.45317807 47:-0.97299803 48:-0.79390784 49:-1.1130124 50:-1.3888395 51:-1.4430962 52:-1.3680519 53:-1.2847825 54:-1.0196955 55:-0.95914364 56:-1.3185618 57:-0.23577926 58:-0.22498208 59:-0.052847102 60:-0.90270783 61:0.34776281 62:-0.73763747 63:-1.0989928 64:0.1631504 65:2.6319956 66:-1.2187449 67:-0.56563224 68:-0.88646414 69:1.3757367 70:0.71059337 
0.01 0 0 0 0 0 0.01 1:0.28750664 2:-0.77190922 3:-0.1168344 4:0.092361653 5:-0.16415995 6:0.50059958 7:-0.74252789 8:0.29043089 9:0.24523002 10:-0.20296255 11:0.13692949 12:-0.1611601 13:-0.71258185 14:0.23638131 15:0.3530418 16:-0.059126034 17:-1.1614598 18:-0.29631391 19:-1.2554096 20:-2.1444173 21:-1.6998077 22:0.37673981 23:-0.16222083 24:-1.1590341 25:0.89591111 26:-0.2431271 27:-0.40201776 28:-0.46757634 29:1.0417389 30:0.074304698 31:3.0286645 32:-1.1209729 33:-0.25289777 34:-1.2618809 35:-0.3484213 36:-0.68547086 37:0.36047933 38:-0.75211621 39:-0.97712389 40:0.0013641836 41:-1.1614235 42:-0.17876581 43:0.35151097 44:-0.64565097 45:-0.98970844 46:-0.94015693 47:-0.71321015 48:-0.77370152 49:-1.367024 50:-0.83177508 51:-1.0055926 52:-0.62864091 53:-0.7789894 54:-0.35896049 55:-0.54075775 56:0.067738214 57:-0.079019856 58:-1.2690644 59:0.1752215 60:-0.43007781 61:-0.50685591 62:-0.70490738 63:0.54729276 64:-0.34523203 65:2.45739 66:-1.0921996 67:-0.34733148 68:-1.2550235 69:1.3757367 70:-0.45518247 
0 0.01 0.01 0.004373011565193606 0.01 0.01 0.01 1:0.53934405 2:-0.76518686 3:0.23822419 4:1.0488805 5:1.5893104 6:0.48582051 7:-0.4683553 8:0.59006763 9:0.25494255 10:-0.0016356764 11:-0.99182262 12:-0.42696473 13:-0.14803517 14:0.31419198 15:0.64412766 16:-0.98841094 17:-0.011272482 18:1.9330229 19:1.0563316 20:-1.5347596 21:0.57990612 22:-1.3586607 23:-0.35609383 24:-0.81148647 25:0.61169736 26:-1.316509 27:-0.65746046 28:-0.048167221 29:0.75260129 30:0.32420003 31:0.79613707 32:1.3923027 33:-0.071367351 34:-0.52596252 35:0.39380001 36:-0.59786073 37:-0.38992513 38:0.81008322 39:1.3998818 40:0.2863368 41:-0.90020982 42:1.347013 43:-0.46649439 44:0.31437477 45:-0.23590342 46:0.31123612 47:0.57689402 48:0.1979325 49:0.24564405 50:0.42216603 51:-0.46926032 52:0.020073827 53:-0.14020728 54:0.12421241 55:0.47596008 56:-1.517041 57:-0.35519793 58:-0.82046379 59:0.40927065 60:-1.2674777 61:-0.57071836 62:-0.15012499 63:1.1566758 64:0.53413237 65:1.3530466 66:1.7119986 67:-0.067397296 68:-0.21177529 69:1.3757367 70:0.049155435 
0 0.006810181923359401 0 0 0 0 0.01 1:2.6631103 2:-0.6126057 3:0.47918911 4:2.2545461 5:1.0379533 6:1.82842 7:-1.1075644 8:2.7522633 9:0.26465604 10:-0.79467573 11:2.2821867 12:-1.3472596 13:0.66431221 14:-0.91787365 15:-0.40102453 16:-1.2758717 17:-1.6325676 18:-2.5008074 19:-1.0688241 20:-1.5452854 21:-0.25132575 22:0.61420231 23:-0.40500155 24:-0.38083514 25:-0.27492118 26:0.71507208 27:1.9166287 28:-0.72790186 29:-0.4548787 30:-0.3381948 31:-0.10339682 32:-1.2765318 33:-0.47052021 34:-1.1530333 35:1.0134775 36:-0.47621262 37:-0.90086241 38:-0.29195153 39:-1.4097973 40:0.58107299 41:-1.2478183 42:0.37463962 43:-0.53750333 44:-0.26837033 45:-0.45261393 46:-0.55653648 47:-0.23711826 48:0.51524723 49:0.48145041 50:0.41951367 51:-0.21175054 52:-0.078644106 53:-0.32644238 54:0.35622018 55:0.58073726 56:0.34200802 57:-0.30523506 58:-0.30743097 59:-0.53759152 60:0.7100539 61:2.006752 62:-0.72136828 63:-0.79740327 64:-0.53367391 65:-0.26296918 66:-0.75118675 67:-0.62268458 68:-0.89266575 69:-0.053218101 70:0.29558908 
0 0.002691513263068747 0.01 0 0.01 0.01 0.01 1:0.92741627 2:-0.21810592 3:0.044828041 4:2.0541961 5:2.2690445 6:0.36029125 7:-0.56220765 8:1.0628334 9:0.35816918 10:0.11081294 11:1.896262 12:0.82614022 13:0.42015563 14:0.68108031 15:-1.3834306 16:0.058660425 17:-0.23178725 18:-1.5534136 19:0.56598389 20:-1.5211706 21:1.0696663 22:2.1768567 23:-0.73411801 24:-0.19334625 25:-0.30914566 26:0.15226468 27:-0.15937401 28:-0.095123416 29:-0.32543117 30:-0.33399098 31:0.87428134 32:-1.1765939 33:-0.35594928 34:-0.43039761 35:1.1132575 36:-0.58259479 37:-0.42635808 38:0.99426073 39:-0.29412864 40:0.85465486 41:-0.77203326 42:2.4678124 43:0.12393408 44:0.16391687 45:0.26118339 46:-0.52183007 47:-0.45943038 48:0.13399825 49:0.25587434 50:0.25710443 51:-0.15008539 52:-0.036226804 53:-0.49437021 54:0.16384465 55:0.30617559 56:1.7483508 57:-0.72248404 58:-0.13426446 59:-0.28202952 60:0.40791934 61:-0.06085142 62:-0.1573833 63:-0.10827894 64:-0.18607908 65:1.1049941 66:-0.68287657 67:-0.17711866 68:-0.52530402 69:1.3757367 70:0.65390914 
0 0.002066379887022172 0 0 0 0 0 1:1.7428978 2:-0.75222955 3:0.72384785 4:1.9576768 5:1.7085439 6:1.2243683 7:-0.90572248 8:1.7537563 9:-0.039191621 10:-0.29069912 11:-0.93650572 12:-1.1969727 13:-0.91794554 14:-0.70348037 15:-0.28954481 16:-0.25338104 17:-0.53690581 18:-0.87759852 19:0.77952055 20:-0.31415889 21:-1.0574948 22:-0.045079158 23:-0.37070622 24:-1.0988871 25:0.31247945 26:-1.3335582 27:2.5159017 28:-1.031774 29:-0.52225697 30:0.41820293 31:-0.66289496 32:-0.64782508 33:2.5240731 34:-1.2701179 35:1.0245503 36:-0.66734588 37:-0.5085025 38:1.2056557 39:0.66119434 40:0.31479361 41:-1.0753719 42:2.1583946 43:-0.58154237 44:-0.52799247 45:-0.27547558 46:-0.27579489 47:-0.33936177 48:-0.4832056 49:0.07807375 50:0.41492707 51:0.058564428 52:1.3928069 53:-0.06113235 54:0.40616411 55:-0.00037305891 56:-0.19934694 57:-0.55638444 58:-0.94720957 59:0.14682788 60:-1.2467071 61:1.6824173 62:-1.0424712 63:-0.54018558 64:0.55163652 65:-0.56217742 66:-0.33964671 67:2.2920794 68:-0.86738416 69:-0.053218101 70:1.0777212 
0 0.01 0.01 0.01 0.01 0.01 0.01 1:-1.1022364 2:-0.44016943 3:-0.31149352 4:-1.1434354 5:-0.48042053 6:-1.1802105 7:-0.57711544 8:-1.1535174 9:-0.21502586 10:1.3995198 11:0.21625972 12:-0.3962136 13:0.1166577 14:0.026599746 15:-0.27531694 16:-0.05172148 17:0.43143818 18:-0.0096313635 19:0.22096094 20:0.049413187 21:0.61498757 22:0.17225054 23:-0.69438789 24:0.24209134 25:-0.31507422 26:1.1223971 27:-0.53498483 28:0.15845295 29:-0.71522215 30:-0.038796331 31:0.047260347 32:0.65016047 33:-0.53352953 34:-0.1638039 35:-0.47878903 36:-0.062996464 37:1.0532895 38:-0.077511462 39:-0.032960974 40:-0.16509587 41:-0.15192512 42:-0.67443893 43:0.93946708 44:1.0216071 45:-0.12255798 46:-0.8441079 47:-1.0757117 48:-1.1144883 49:-1.8871777 50:-0.90939059 51:-0.14193772 52:0.68032383 53:-0.76259459 54:-1.0018478 55:-0.17711643 56:0.43960026 57:-1.0477122 58:0.14628825 59:-0.35291525 60:0.49085301 61:-0.75649011 62:-0.1969625 63:-0.50000086 64:-0.28883493 65:-0.3612202 66:0.28779148 67:-0.57889817 68:-0.70341198 69:-0.8470819 70:0.20176795 
0.01 0.01 0 0.01 0 0 0.006069062269094316 1:1.9245046 2:-0.86663895 3:0.97213821 4:1.0053971 5:-0.69430856 6:1.9637475 7:-0.72554191 8:1.6069659 9:-0.24737384 10:-2.0644372 11:0.42185875 12:0.25827859 13:-0.92413423 14:-0.33535277 15:-1.2694223 16:-0.68844437 17:-0.31795155 18:0.47694382 19:0.19868751 20:-0.15616703 21:0.062738277 22:0.32914238 23:-0.1695314 24:-1.2331224 25:-0.73649435 26:-1.1592034 27:1.758951 28:-0.95355855 29:-0.49507259 30:-0.56392417 31:-0.86683862 32:-1.2245549 33:0.087297522 34:-1.593039 35:-0.060040772 36:-0.65303405 37:-0.58472845 38:-0.91658541 39:-1.1953162 40:-0.53624282 41:-0.51515625 42:-0.66300877 43:-0.53257153 44:0.14325372 45:-0.092783089 46:-0.3998579 47:-0.31578522 48:-0.091340945 49:0.1996401 50:-0.22645926 51:0.5717986 52:0.79083426 53:0.40947787 54:0.057804032 55:0.14601559 56:0.48693625 57:-0.20254842 58:-1.1205609 59:-0.83025391 60:-0.88958805 61:1.3158177 62:-1.050984 63:-0.56158576 64:-0.66913374 65:-1.0057411 66:-1.1808455 67:0.12655634 68:-1.0541754 69:0.54217975 70:-0.92498544 
0.01 0.01 0 0 0 0 0.01 1:0.98942602 2:-0.62239331 3:0.9437737 4:-0.0096028474 5:-1.2884313 6:1.4876232 7:-0.79709435 8:0.6562303 9:0.66764799 10:-1.3814452 11:-0.23576182 12:1.6441179 13:-0.059068787 14:0.66891905 15:-1.0943688 16:1.0784156 17:-0.70117574 18:-0.91117597 19:-0.081484314 20:-2.0004597 21:-0.55242333 22:0.69571407 23:0.14622052 24:-1.0914836 25:1.6604989 26:-0.36769205 27:-0.6399514 28:-1.0011998 29:0.081903914 30:-0.35075607 31:-0.67642238 32:-0.21145389 33:-0.87686822 34:-1.2921399 35:-0.76504303 36:-0.66184005 37:-0.71084585 38:-1.303544 39:-0.91622752 40:-1.1495453 41:-0.79590093 42:-1.145665 43:-0.60143037 44:-0.85178502 45:-1.1834419 46:-0.67799924 47:-0.89822065 48:-0.71986889 49:-0.47982319 50:0.33866838 51:-0.29820635 52:0.43618376 53:0.13786493 54:-0.30476093 55:-0.33169943 56:0.79821495 57:0.41147044 58:-1.1451328 59:2.1908964 60:-0.28392437 61:-0.7925089 62:-1.0458005 63:-0.13200267 64:-0.57059757 65:-0.80496393 66:-0.47316252 67:-1.1979923 68:-0.88937394 69:-0.49976649 70:-0.51764469 
0.01 0.01 0 0.01 0 0 0 1:-0.092268403 2:-0.5258523 3:0.89765938 4:-0.48594761 5:-0.96063513 6:0.14846314 7:-0.19365615 8:-0.013831718 9:0.30195976 10:-0.16771579 11:-0.26815849 12:0.10872064 13:-1.0495624 14:-0.4462539 15:-2.0071194 16:-0.89217474 17:-0.84111172 18:0.31189785 19:0.26852717 20:0.025860059 21:-0.36333186 22:1.7092479 23:-0.72436368 24:-0.57144847 25:0.44446791 26:-0.36592024 27:1.0611079 28:-0.82666768 29:-0.48352118 30:0.62655054 31:0.34749354 32:-0.77172981 33:1.448219 34:-0.63997969 35:-0.55705795 36:-0.60834582 37:-0.68205737 38:-0.78544368 39:-0.21080361 40:-0.57303393 41:-0.078355341 42:-0.5202449 43:-0.71627115 44:-0.68425334 45:-0.48926054 46:-0.49239236 47:-0.55522152 48:-0.61002293 49:-0.41095603 50:-0.36948252 51:0.47751939 52:0.63997298 53:-0.028671093 54:-0.2534613 55:-0.13887689 56:0.86829055 57:-0.75151031 58:-0.38650397 59:0.86705326 60:-0.0018851681 61:1.0884479 62:-0.83037331 63:-0.10362298 64:0.77513494 65:1.0322808 66:-0.57205687 67:1.6977828 68:-0.61572279 69:-0.053218101 70:-0.94157608 
0.01 0.01 0.01 0.01 0 0 0.01 1:0.56122235 2:-0.56557497 3:0.94903526 4:0.24776324 5:-0.23543724 6:1.0329444 7:-0.65234662 8:0.42294581 9:0.6578223 10:-0.90551433 11:-1.307139 12:-0.23919217 13:1.2577807 14:0.25498295 15:-0.44702241 16:0.78807914 17:-0.22536176 18:1.5527844 19:1.4871627 20:1.29181 21:0.092662683 22:-0.94808242 23:0.054211131 24:-0.31989231 25:-0.27877693 26:-1.0863389 27:-0.013973416 28:-0.69755997 29:0.65087238 30:1.3420927 31:-0.72009531 32:-0.82681262 33:-0.65250944 34:-1.1385435 35:-0.29918265 36:-0.552216 37:-0.67383338 38:-0.83145411 39:-1.253803 40:-0.14014961 41:-0.87427899 42:-0.30397481 43:-0.80224603 44:-0.17219749 45:-0.4930951 46:-0.53437587 47:-0.88518705 48:-0.81732065 49:-0.39494706 50:-0.21278793 51:-0.17395482 52:-0.22487454 53:-0.642869 54:0.042963554 55:0.11413638 56:-1.2198251 57:-0.073740167 58:0.49722046 59:-0.53490168 60:-1.0064444 61:0.054818986 62:-0.7611448 63:1.2943476 64:1.9492512 65:-1.0548017 66:-0.71325602 67:-0.84475181 68:-0.29340013 69:-0.053218101 70:0.58127206 
0 0.01 0 0.01 0 0 0 1:-0.36337951 2:-0.9972765 3:-0.049092367 4:-0.17704151 5:-0.18174821 6:-0.39801499 7:0.16614854 8:-0.28393321 9:-0.63446835 10:0.6009081 11:-0.054672099 12:-1.3832157 13:0.45896166 14:-0.543754 15:-0.23575851 16:-0.77819687 17:-0.53621839 18:-0.50905207 19:-0.87920835 20:-0.74459115 21:-1.4895807 22:2.9832585 23:0.090794124 24:-0.75173724 25:0.4123063 26:-0.32627484 27:0.36285705 28:-0.92145751 29:0.44524552 30:0.67985417 31:0.42750091 32:-0.41098687 33:0.92625731 34:-0.7118142 35:-0.10227241 36:-0.81608883 37:0.25601209 38:0.62236759 39:0.66236701 40:0.099885919 41:-0.15028041 42:0.32501663 43:0.73105215 44:0.85455546 45:1.089474 46:1.671806 47:0.96690545 48:0.79003566 49:-0.17898263 50:0.08363617 51:0.91533022 52:0.78691734 53:-0.02354329 54:0.84651546 55:0.99051376 56:2.8797375 57:0.43101992 58:-0.30503303 59:0.94430709 60:0.044353905 61:0.70106947 62:-0.91924945 63:0.78704963 64:1.0536618 65:0.83675171 66:-0.36325607 67:1.1906138 68:-0.5457138 69:-0.49976649 70:-0.85340512 
0 0.01 0.01 0.01 0.01 0.01 0.01 1:0.12448774 2:-0.8707208 3:0.51229622 4:0.10962014 5:-0.22265999 6:0.53782168 7:-0.60748516 8:0.3739631 9:-0.041494017 10:-0.4763605 11:-0.69068195 12:-1.383389 13:1.2404357 14:0.00037557969 15:-0.27219978 16:0.99891079 17:0.69584934 18:0.058523804 19:-0.63099755 20:-0.65357545 21:-0.41831378 22:-0.49901164 23:1.2301467 24:-0.041526179 25:-0.21575553 26:-0.36427714 27:-0.65142162 28:-0.18692753 29:0.10418458 30:-0.43837782 31:-0.9240882 32:0.44709678 33:0.93683366 34:-0.17290176 35:0.35505463 36:-0.67883005 37:-0.21617413 38:-0.021964145 39:-1.1085167 40:0.57623326 41:-0.71241323 42:0.37189765 43:0.035940726 44:0.27797851 45:0.31788244 46:0.88824913 47:0.41712201 48:0.079454078 49:-0.40330835 50:-0.42299687 51:-0.71864694 52:-0.54782757 53:0.11853289 54:-0.12970773 55:0.052078429 56:-0.31854243 57:1.1224776 58:0.74119183 59:-0.27128357 60:-0.56302802 61:-0.84066743 62:0.18831271 63:-0.019249838 64:-0.55790547 65:-0.93691897 66:0.68477293 67:0.94076524 68:0.61449393 69:-0.053218101 70:0.21793421 
0 0.01 0 0 0 0 0.01 1:1.5730212 2:-0.40888189 3:0.84327248 4:1.3724032 5:0.81253824 6:1.4719405 7:-0.84846428 8:1.7358657 9:0.68405099 10:-0.66365335 11:0.89086919 12:-0.63105647 13:1.0164765 14:0.26570042 15:0.98757926 16:1.2185976 17:-0.42538417 18:1.4564577 19:0.57359474 20:0.50980793 21:0.16503988 22:-0.2607587 23:0.34451233 24:-0.23106744 25:-0.85275311 26:0.052322443 27:2.02162 28:-0.56326901 29:-0.38059539 30:-0.64144177 31:0.24783465 32:-0.33081528 33:-0.4686677 34:-0.97961814 35:0.1032998 36:-0.67115573 37:-1.015103 38:-0.56157749 39:-1.1174571 40:0.052781516 41:-0.65977768 42:0.15330998 43:-0.96520918 44:-0.46095655 45:-0.45868765 46:-0.43529655 47:-0.29283959 48:-0.52953658 49:-0.51939572 50:-0.40613761 51:-0.47142316 52:-0.64491185 53:-0.21167674 54:-0.29494568 55:-0.24196038 56:-0.35011426 57:0.20528318 58:-0.19991809 59:-1.0551613 60:-0.0024016073 61:1.3269641 62:-0.74953478 63:-0.52926975 64:-0.57687582 65:-0.011952137 66:-0.52258436 67:-0.54253863 68:-1.0104471 69:-1.1249342 70:0.10364061 
0 0.01 0.01 0.01 0.01 0.01 0.01 1:1.1307983 2:-0.49555788 3:0.59124298 4:1.0226014 5:0.61802526 6:1.212393 7:-0.61531329 8:1.2744542 9:0.46038181 10:-0.79114532 11:0.85087435 12:0.91731711 13:0.5129448 14:0.20624892 15:0.78532073 16:-0.42195121 17:-0.41880445 18:0.5021811 19:0.88896474 20:0.18179695 21:0.82994801 22:-0.22066553 23:-0.76329069 24:0.2534526 25:-0.31688215 26:0.71065871 27:0.22438089 28:-0.41063153 29:-0.50907367 30:-0.41365862 31:-0.38619083 32:-0.73638007 33:-0.26767875 34:-0.69226341 35:0.54592697 36:-0.52651126 37:-0.54245443 38:-0.1491139 39:-0.65705253 40:0.66171326 41:-0.43047716 42:0.59981748 43:-0.83048505 44:-0.33479927 45:-0.14879327 46:-0.035162129 47:-0.26334791 48:0.027006663 49:-0.40452073 50:-0.018474317 51:-0.48574159 52:-0.22140388 53:-0.046277472 54:-0.17903786 55:-0.081403896 56:-0.27631326 57:-0.93368421 58:0.47173189 59:-0.28004117 60:0.74569906 61:0.33934153 62:-0.45949581 63:-0.65818149 64:-0.46259276 65:-0.38907591 66:-0.51047407 67:-0.1819275 68:-0.42180185 69:0.54217975 70:0.47458983 
0.01 0.01 0.005859756579473626 0.01 0.01 0.007550241109977427 0.01 1:0.7961389 2:-0.44975291 3:0.9489907 4:0.9978449 5:0.87877682 6:0.43135925 7:-0.8860948 8:0.99858526 9:0.34852973 10:-0.057759366 11:0.64544642 12:-1.7308281 13:1.2111266 14:-0.12895646 15:1.4657776 16:2.2398838 17:0.93693614 18:1.4212513 19:1.0776625 20:0.85333356 21:0.46262172 22:-1.163285 23:-0.78721658 24:0.21916254 25:-0.56623987 26:0.82531329 27:-0.76228067 28:-0.43634563 29:-0.37837771 30:-0.2183433 31:-0.57791506 32:0.57608915 33:-0.038284518 34:-0.32015515 35:0.094564371 36:-0.7178634 37:-0.8854373 38:-0.35078994 39:-0.88283578 40:0.094721863 41:-0.67987626 42:0.57322074 43:-0.91490482 44:-0.45056673 45:-0.61586099 46:-0.37732736 47:-0.29535651 48:-0.28324002 49:0.05720349 50:0.28581096 51:0.14236564 52:0.51843807 53:0.34826412 54:-0.47077737 55:-0.62100137 56:-1.2970227 57:-0.98383924 58:0.27937608 59:-0.73131005 60:0.6708446 61:-0.8578878 62:-0.48950629 63:-0.16511891 64:0.10942075 65:-0.81419659 66:0.23552017 67:-0.11420662 68:-0.47935378 69:2.6260722 70:-0.81662418 
0.01 0.01 0.01 0.01 0 0.002764227067214894 0.01 1:0.78382568 2:-0.56780707 3:0.72472313 4:0.6794575 5:0.3143086 6:0.87471476 7:-0.8749267 8:0.88892969 9:0.43638636 10:-0.52550586 11:0.65273247 12:-0.77774969 13:0.76276778 14:0.16943223 15:0.88289611 16:2.3012156 17:1.7660856 18:0.60020706 19:-1.4569152 20:1.1215109 21:0.45754778 22:-0.61308511 23:0.44259611 24:-1.0900345 25:-0.53907518 26:-0.7883093 27:-0.73741029 28:-0.16098741 29:0.35025817 30:-0.32880287 31:0.73597204 32:2.2333589 33:0.23521825 34:-0.44579908 35:-0.0409763 36:-0.71174348 37:-0.98831042 38:-0.45546321 39:-0.65311139 40:0.15103324 41:-0.52266669 42:0.322846 43:-0.4986267 44:-0.36429237 45:-0.56729077 46:-0.43489314 47:0.42800396 48:-0.20241564 49:-0.62348306 50:-0.70702259 51:0.1424661 52:-0.48780793 53:-0.27741962 54:0.039033543 55:0.018670155 56:-0.79341174 57:0.87373873 58:-1.2157787 59:-0.71707899 60:-0.44862598 61:-0.71033384 62:-0.1809645 63:0.19080173 64:-0.34818473 65:0.66972685 66:1.3156235 67:0.12481036 68:-0.45771735 69:-0.8470819 70:-0.13562537 
0 0.01 0 0.0017818536047964 0.01 0.01 0.01 1:1.3021022 2:-0.43891581 3:0.6463903 4:1.1615316 5:0.61598679 6:1.1657939 7:-0.80621082 8:1.2619668 9:0.41556555 10:-0.89433325 11:1.0590452 12:-0.10508658 13:0.52506016 14:0.046681275 15:0.91960383 16:1.2547365 17:-1.059386 18:0.25622999 19:1.1820427 20:1.2292516 21:0.18025866 22:-0.79496675 23:-0.79338511 24:-0.28228247 25:-0.32214462 26:0.10349315 27:0.9238283 28:-0.31002447 29:-0.90749111 30:-0.78720579 31:-0.20910523 32:-0.057602209 33:-0.50779419 34:-0.58682569 35:0.085704315 36:-0.62782182 37:-0.62343539 38:-0.61151483 39:-0.91758089 40:0.051795322 41:-0.57484246 42:0.1780394 43:-0.77691136 44:-0.10008385 45:-0.33120045 46:-0.0029552173 47:-0.32965595 48:-0.23477587 49:-0.35124273 50:-0.60642429 51:-0.30436026 52:-0.23025451 53:0.10191057 54:0.25360116 55:-0.045579432 56:-0.80807062 57:-0.98192483 58:-0.19563493 59:-0.19151188 60:0.29815945 61:0.85692162 62:-0.3066651 63:-0.95692048 64:-0.9374399 65:-0.51769814 66:-0.20657643 67:-0.64401035 68:-0.60655562 69:-0.8470819 70:0.18508451 
0 0.01 0.0002995009418455988 0 0.01 0.01 0.01 1:0.86419218 2:-0.81450681 3:-0.053522001 4:0.46311766 5:-0.41153563 6:1.3282048 7:-0.63589381 8:1.1082608 9:-0.51256048 10:-1.338013 11:0.56261947 12:-0.04956631 13:-0.07646579 14:0.6363683 15:-2.0122144 16:-0.13978465 17:-0.8838758 18:-0.93091901 19:-0.36506439 20:0.065800399 21:-2.5128157 22:-0.39050988 23:-0.55220529 24:-0.84949248 25:-0.77028852 26:-0.6755237 27:-0.98321152 28:0.0036741766 29:5.1433715 30:1.6601921 31:0.26874682 32:-0.56413053 33:-0.81016434 34:-0.69797502 35:0.41113898 36:-0.56587719 37:0.4322125 38:0.59133843 39:-0.29288689 40:0.89628049 41:-0.65145565 42:0.31928163 43:1.8206791 44:0.3008309 45:-0.094868769 46:0.64515192 47:0.80045437 48:0.96771818 49:0.86046494 50:-0.3562954 51:-0.27225015 52:-0.36105538 53:-0.35256735 54:0.11038183 55:0.72815479 56:-0.49127757 57:-0.52047575 58:-0.84794364 59:-0.90555084 60:-0.41313771 61:-1.0042674 62:0.41808418 63:3.609123 64:2.4035639 65:-0.1383249 66:-0.34096909 67:-0.83844488 68:0.15132255 69:-0.49976649 70:2.251997 
0 0.01 0.01 0.01 0.01 0.007274049170392594 0.01 1:-0.23726083 2:-0.4588072 3:0.27100092 4:0.57451051 5:1.2156456 6:-0.69968305 7:-0.68751795 8:-0.3412479 9:-0.35323637 10:0.67370784 11:1.1798317 12:-1.8272929 13:0.82634351 14:0.57998218 15:0.99401074 16:1.1591569 17:0.94296719 18:-0.49766741 19:-1.6279116 20:-0.83175697 21:-0.037975281 22:-0.14339606 23:-0.027896533 24:-0.013498779 25:-0.27146651 26:4.025678 27:-0.8907347 28:-0.7267047 29:-0.49762394 30:-0.90945866 31:0.25447492 32:0.51851442 33:-0.67484913 34:-0.041931444 35:0.33232681 36:-0.3619019 37:-0.15913828 38:0.10640218 39:-0.90237264 40:-0.10144351 41:-0.57142053 42:0.82555685 43:0.36246463 44:-0.9099066 45:-0.2748318 46:-0.31204102 47:-0.57473043 48:-0.66021641 49:-0.54663824 50:-0.60850664 51:-0.91769014 52:-1.1040662 53:-0.85668664 54:-0.062004333 55:-1.025983 56:0.22199406 57:0.034150807 58:-0.012991551 59:-0.1486394 60:3.4269199 61:-0.90240394 62:-0.67053009 63:-0.32033378 64:-0.91123224 65:0.48468278 66:0.72665768 67:-0.64891022 68:-0.50486254 69:-0.053218101 70:0.64136864 
0 0.01 0 0.01 0.002016917263737619 0.01 0.01 1:-0.5619985 2:-0.57564967 3:0.26954427 4:-0.23684248 5:0.34915654 6:-0.75631423 7:-0.30237435 8:-0.43158511 9:-0.023930902 10:1.0906465 11:0.21225809 12:-1.0081409 13:-0.30837822 14:0.91200027 15:-0.0034884037 16:0.44535648 17:0.71841797 18:-0.17846171 19:-2.3969538 20:1.7372189 21:-0.41300159 22:-0.12392565 23:0.50693593 24:0.20769101 25:-0.24140338 26:1.4187116 27:-0.4252397 28:-0.91644307 29:0.36557216 30:0.93038741 31:0.78252367 32:0.77364276 33:-0.62526916 34:-0.38247574 35:0.016587721 36:-0.52306563 37:0.026203128 38:0.52913879 39:0.30844807 40:0.22809592 41:-0.25470602 42:0.47600992 43:0.25246139 44:0.52035762 45:0.25924002 46:-0.24065291 47:0.060143025 48:-0.72346351 49:-1.3230413 50:-1.0788973 51:-1.1955391 52:-0.68408378 53:-0.96554377 54:0.054037658 55:0.65460985 56:0.1125163 57:1.0198732 58:0.28383608 59:-0.14235295 60:0.80081883 61:-0.38486116 62:-0.96470774 63:0.53938863 64:1.7180353 65:0.94316863 66:0.660295 67:-0.54584676 68:-0.63521335 69:-0.8470819 70:0.3632725 
0 0.01 0 0.003674330630479222 0 0 0 1:-0.088976243 2:-0.8705476 3:-0.080097893 4:-0.63917291 5:-1.5952467 6:0.18168506 7:0.007317079 8:0.19966092 9:-0.47768869 10:-0.42802341 11:0.44222422 12:0.56390143 13:-3.0649458 14:1.0719453 15:-3.6304527 16:-1.4999647 17:-3.0546111 18:-1.8710443 19:-2.5327413 20:-3.4841432 21:-4.3471158 22:1.3521176 23:-0.010446249 24:-0.29202298 25:0.9035782 26:3.7195951 27:0.98377068 28:-1.2859053 29:-0.37052298 30:-0.24578716 31:-1.1943839 32:-1.3430448 33:0.49070421 34:-0.42300846 35:-0.32525397 36:-0.63797697 37:0.31143651 38:-0.37372801 39:0.22575909 40:-0.21481332 41:-0.21910639 42:-0.39581129 43:0.52604279 44:0.41185541 45:0.069504762 46:-0.0028211012 47:0.44545984 48:-0.022918113 49:-0.60202834 50:-0.05216098 51:0.15858307 52:-0.5486671 53:-0.2681866 54:-0.40340724 55:0.13640754 56:1.5868271 57:0.19034477 58:0.17324215 59:0.75123852 60:4.6578352 61:1.8013222 62:-1.299142 63:-0.15666499 64:-0.27949548 65:-1.2830672 66:-1.4190299 67:0.52157876 68:-0.19781143 69:-0.49976649 70:-0.19559083 
0 0 0 0.01 0.01 0.01 0 1:-0.91969588 2:-0.94154851 3:-0.42857432 4:-0.27277371 5:0.36158883 6:-0.89489165 7:0.39263005 8:-0.57986173 9:-1.2576753 10:0.81894439 11:1.3822012 12:-0.32555615 13:0.33861156 14:-0.51520482 15:-1.3326946 16:-0.22760196 17:-1.8287169 18:-0.27230839 19:0.10681761 20:-1.1188593 21:-0.79714067 22:0.5874859 23:-0.49629405 24:0.21261585 25:-0.67458667 26:0.80582087 27:-0.24683344 28:-0.22365214 29:2.2282622 30:4.10475 31:1.4116496 32:0.13251824 33:-0.94822453 34:0.38156432 35:-0.11946647 36:-0.79841871 37:0.2552236 38:1.2744506 39:-0.026715387 40:1.1570796 41:0.6668402 42:0.96997205 43:1.8861204 44:1.2051339 45:0.3072529 46:0.13557007 47:-0.14515006 48:-0.24071612 49:0.13967857 50:-0.30109109 51:0.70538382 52:0.1464978 53:0.047058801 54:0.33785042 55:0.99815355 56:0.69476789 57:-0.38761933 58:0.08369897 59:-0.55302136 60:1.7286984 61:0.33265698 62:-0.036106903 63:1.6179304 64:3.6896997 65:1.4772483 66:0.49060515 67:-0.78077334 68:0.042910653 69:-1.7020121 70:0.42939931 
0 0.01 0 0.004497424858190813 0.01 0.01 0 1:-0.43119323 2:-0.68396742 3:-0.056959031 4:-0.52003535 5:-0.467116 6:-0.35777434 7:-0.096096814 8:-0.027931179 9:-0.30280973 10:0.60500544 11:1.0936527 12:-0.11494477 13:0.67423721 14:-0.96444909 15:-0.9795619 16:-1.1762919 17:-0.34177873 18:-0.61947176 19:0.89334008 20:-1.4126839 21:-0.90061359 22:0.28709908 23:-0.56642374 24:-0.50102562 25:-0.098427137 26:-0.46137235 27:-0.89000017 28:-0.74147771 29:-0.36430872 30:3.347973 31:3.9260597 32:-0.26107746 33:-0.69936473 34:-0.42777736 35:0.29205677 36:-0.62834768 37:-0.020289181 38:0.75239168 39:0.26573575 40:1.0442728 41:-0.047294633 42:0.58087505 43:1.3287412 44:1.7795043 45:0.29418944 46:0.73004207 47:0.86324251 48:0.23589781 49:0.46917993 50:-0.02746123 51:-0.035775279 52:-0.56927817 53:0.26741151 54:0.07049307 55:0.10473205 56:0.74444627 57:-0.28252764 58:-0.52407087 59:0.16405763 60:-0.24124892 61:-0.83574446 62:-0.77689095 63:-0.41709273 64:2.2624511 65:3.6315167 66:-0.28200436 67:-0.52865016 68:-0.61140258 69:0.54217975 70:-0.72433619 
0 0.01 0 0.007013960983378065 0 0 0 1:0.27438489 2:-0.70563047 3:-0.0034543561 4:0.28797918 5:0.30813732 6:0.35904575 7:-0.53791888 8:0.27392598 9:0.090825431 10:-0.20806226 11:0.39081918 12:-0.45375567 13:0.20326286 14:-0.12341891 15:0.095908342 16:0.42135133 17:-0.71419636 18:-0.59601537 19:-0.18384863 20:-2.1598291 21:-0.87624789 22:1.3074454 23:-0.15110878 24:-0.77080845 25:-0.16051914 26:0.64828072 27:0.93643456 28:-0.46097594 29:-0.11957148 30:0.072392665 31:-0.40247594 32:-0.39615104 33:0.14087619 34:-0.8925403 35:-0.16270368 36:-0.39861185 37:0.18304285 38:-0.39728265 39:-0.65724645 40:0.073256651 41:-0.57240437 42:0.11491185 43:0.77399028 44:-0.68329892 45:0.60992302 46:-0.24916678 47:0.91820428 48:-0.60816403 49:0.069648472 50:-0.31588642 51:0.74146224 52:0.66810761 53:0.053217025 54:0.71876602 55:0.82351566 56:1.2666391 57:0.10526428 58:-0.73863256 59:-0.0063544929 60:0.76480918 61:1.1021222 62:-0.53475983 63:0.45334747 64:0.65182627 65:-0.31883333 66:-0.55969023 67:0.31399287 68:-0.83079119 69:-1.1249342 70:-0.33506647 
0.01 0.01 0 0.01 0 0 0 1:-1.3503579 2:-0.87947426 3:-0.34682057 4:-1.6052626 5:-1.6854137 6:-1.6422576 7:1.4217249 8:-1.2976681 9:-1.3569939 10:1.1872991 11:0.10960257 12:-1.9016239 13:-2.5856369 14:-1.9561441 15:-1.3639921 16:-2.9005431 17:-2.7435854 18:-1.6971942 19:-1.2840003 20:-0.75225816 21:-2.6280838 22:1.779426 23:1.3334855 24:-0.80335837 25:2.5896238 26:2.0530107 27:1.202446 28:-1.0127618 29:-0.33076239 30:0.44999469 31:2.1131129 32:-1.3822868 33:-0.17406843 34:0.21468821 35:-1.0803771 36:-0.64995735 37:0.80728747 38:-0.64529879 39:1.2737599 40:-1.02276 41:1.0968491 42:-1.0710119 43:1.220459 44:0.52708574 45:-0.014996615 46:0.071864349 47:0.015438662 48:-0.1027752 49:0.45392128 50:0.66077156 51:0.70415012 52:1.7100125 53:1.4977587 54:1.4415609 55:1.6856033 56:2.2770898 57:1.8344359 58:-0.4449639 59:2.9729086 60:2.7180791 61:1.5125012 62:-0.84921334 63:0.25203004 64:1.0092289 65:3.2260624 66:-1.2582197 67:0.26905284 68:-0.19189698 69:-0.053218101 70:-0.82155305 
0 0.01 0 0 0 0 0 1:-0.87231825 2:-0.3661881 3:-0.62374096 4:-1.0755444 5:-1.4108816 6:-0.98436002 7:1.4964378 8:-0.94273539 9:-0.57364567 10:0.085375339 11:0.12869933 12:0.2542644 13:-0.90952091 14:-2.7380371 15:-1.6962757 16:-5.6576422 17:-5.38786 18:-3.2699719 19:-2.0530885 20:-1.860122 21:-2.9814643 22:-0.12398691 23:-0.91495217 24:-0.64152815 25:10.318411 26:1.188191 27:1.3550402 28:-1.0188575 29:0.19722081 30:1.3412325 31:-0.94492728 32:-1.6583664 33:-1.0293738 34:0.65283547 35:-0.21125785 36:0.062869053 37:0.86713077 38:-0.3784069 39:0.93451703 40:-0.15495064 41:0.8908913 42:-0.4673096 43:1.0577601 44:1.2682368 45:1.4591823 46:0.6210152 47:0.28144213 48:0.76530042 49:0.57421871 50:1.1896722 51:1.536927 52:1.0270376 53:2.2473881 54:1.641928 55:1.5669792 56:0.45208292 57:-0.86490392 58:-0.14248199 59:8.4995019 60:1.8544605 61:2.3750524 62:-0.69283135 63:0.83054742 64:2.6856291 65:-0.73321484 66:-1.4659598 67:-0.83142739 68:0.23953415 69:0.54217975 70:-1.0912098 
0 0 0 0.007592017076570225 0.002259407093727626 0 0 1:0.49670298 2:-0.8221014 3:0.024442524 4:0.83635953 5:1.3195007 6:0.06126209 7:0.18443123 8:0.80322067 9:-0.67271338 10:1.1028868 11:0.30675765 12:1.4260225 13:1.4354548 14:-1.5160266 15:1.0903665 16:-1.6737567 17:-0.25193468 18:-0.74684341 19:-1.5053548 20:-2.640736 21:-0.30922097 22:5.4336189 23:-0.58415338 24:-0.77572707 25:0.17606417 26:0.77480952 27:-0.53554958 28:-0.82482841 29:-0.75984793 30:-0.49481178 31:-0.27700532 32:-0.31161032 33:-0.73764511 34:-0.39739207 35:1.5871308 36:-0.69102089 37:-0.081415736 38:1.8293058 39:-0.15177986 40:1.448391 41:-0.041956802 42:1.9851999 43:0.54169826 44:1.1038203 45:-0.3011484 46:0.087947043 47:0.080208789 48:0.33219582 49:0.34783474 50:-0.16104986 51:0.047118225 52:0.42701516 53:1.919309 54:0.61188834 55:1.1224559 56:5.1468541 57:-0.44423604 58:-0.61719309 59:0.74452353 60:1.2134211 61:-0.39429031 62:-0.81744597 63:-0.63384919 64:-0.042645605 65:-0.21797077 66:-0.32106471 67:-0.67297297 68:-0.21637506 69:-1.352268 70:-0.85421975 
0 0.01 0 0.01 0 0 0 1:-0.61997038 2:-0.32105477 3:0.50465109 4:-0.94861018 5:-0.83853268 6:-0.83747495 7:0.86507828 8:-0.91351686 9:0.074706579 10:1.1112515 11:-1.4337666 12:-1.1421787 13:0.26618168 14:-2.0769231 15:-1.3303477 16:-0.038384563 17:-0.73742589 18:0.28074556 19:0.19901299 20:1.7976623 21:-0.16538863 22:-0.52966323 23:1.2352832 24:-0.72335094 25:1.8923201 26:-0.1506735 27:0.48148759 28:-0.58649748 29:-0.12277405 30:1.7953543 31:-0.80581318 32:-0.63444195 33:1.179647 34:-0.38381908 35:-0.66472016 36:-0.33244009 37:-0.29256557 38:-0.26345109 39:0.51764435 40:-0.71090372 41:0.46342482 42:-0.84042045 43:0.079813267 44:0.53054912 45:0.35975507 46:-0.052276945 47:0.60962502 48:0.042285614 49:0.25192842 50:0.35626789 51:0.77539161 52:0.9110104 53:1.5763775 54:1.7069886 55:1.6393112 56:-0.055967747 57:2.6644887 58:-0.29253598 59:2.8804206 60:0.38425777 61:0.7746226 62:-0.52367977 63:0.39017999 64:2.2347907 65:-0.6647247 66:-0.37379137 67:2.1625473 68:0.0089755258 69:-0.053218101 70:-0.87418293 
0.01 0.01 0.01 0.01 0 0 0 1:-1.2121143 2:-0.84307899 3:-0.31536888 4:-1.1262439 5:-0.045872569 6:-1.5730653 7:0.40286235 8:-1.3758205 9:-0.6618529 10:2.5515421 11:-0.83027096 12:-0.16768617 13:0.029161206 14:-0.32462729 15:-0.83434455 16:-0.6547768 17:-0.56615261 18:-0.86577757 19:0.24476439 20:-0.409791 21:0.16178658 22:0.58980432 23:-0.33520234 24:-0.78580142 25:2.0365176 26:0.45755475 27:0.8506471 28:-0.56521293 29:1.3235688 30:1.8056845 31:1.2202632 32:-0.22555497 33:0.94142908 34:-0.7809431 35:-0.77982804 36:-0.69001416 37:-0.019123789 38:0.19426844 39:1.1787152 40:-0.80411965 41:-0.23757003 42:-1.0481446 43:0.6111116 44:0.24623107 45:-0.1481766 46:-0.34326684 47:-0.77700364 48:-0.70443202 49:-1.3739831 50:-0.73121753 51:-1.1980534 52:-1.1862107 53:-0.97927149 54:-0.96487058 55:-0.7147394 56:0.5268876 57:-0.22586138 58:-0.89820535 59:2.2116291 60:0.11286635 61:0.53224541 62:-0.69951451 63:1.8468777 64:1.354756 65:1.053243 66:-0.5821896 67:0.43436159 68:-0.92549768 69:-1.352268 70:0.70046733 
0 0.01 0 0 0 0 0 1:-0.067754538 2:-0.52205482 3:0.48270933 4:0.13875131 5:0.86060294 6:-0.31432854 7:-0.34054219 8:-0.38687725 9:-0.097707462 10:1.1261932 11:0.011444896 12:1.1616351 13:-1.0239711 14:-1.9809635 15:0.31016077 16:-1.0198043 17:1.0963979 18:-1.827689 19:-0.22812738 20:-2.0196777 21:0.12115012 22:1.4440804 23:1.7640128 24:-0.20320638 25:-0.17978799 26:0.19776399 27:1.0999034 28:-0.71905177 29:1.1066025 30:0.88784821 31:0.035144092 32:-0.91823934 33:0.044612221 34:-0.52140095 35:0.15787674 36:-0.56439356 37:-0.41801161 38:0.058138288 39:-0.68467305 40:0.19168194 41:-0.48596609 42:0.21408889 43:0.015699371 44:0.12483292 45:-0.68268883 46:0.082246117 47:-0.35439638 48:0.34932855 49:0.17830046 50:-0.60601531 51:0.31935854 52:0.42609663 53:0.31322368 54:0.53237035 55:1.5004576 56:1.5954321 57:2.2921904 58:-0.2386846 59:0.0095140268 60:0.56473397 61:1.4632443 62:-0.76676115 63:1.191966 64:1.242737 65:0.51305579 66:-1.2226441 67:0.7329285 68:-0.6763872 69:-0.49976649 70:-0.028862594 
0.01 0.01 0 0.01 0 0 0 1:0.17180064 2:-0.74311012 3:0.96246772 4:0.19074133 5:0.85779436 6:-0.14201777 7:-0.22252744 8:-0.21363927 9:-0.20812779 10:0.82757838 11:-1.5295895 12:-0.53763337 13:-0.73849745 14:-1.972025 15:0.048004334 16:-1.4547985 17:-0.17308429 18:-0.58898455 19:-0.5026465 20:-1.5074524 21:0.83995467 22:-0.59226677 23:0.91847965 24:-1.1042112 25:1.1240961 26:1.9012325 27:-0.19864809 28:-0.77804248 29:1.199034 30:0.78908221 31:-0.74867848 32:-0.24375368 33:0.72616422 34:-0.66986638 35:-0.501744 36:-0.75144858 37:-0.76735818 38:-0.69547879 39:-0.83878088 40:-0.68093498 41:-0.44011565 42:-0.39023208 43:-0.67483152 44:-0.39247587 45:-0.13512118 46:-9.7393779e-05 47:-0.2411618 48:0.11855971 49:0.11986667 50:0.49816619 51:0.44627985 52:0.53726918 53:0.68466021 54:0.94926619 55:0.43350682 56:-0.56447543 57:1.0621676 58:-1.0926978 59:1.282405 60:1.2693702 61:-0.090446246 62:-0.79166644 63:1.269612 64:1.2042261 65:-0.35786176 66:-0.63129957 67:0.53024181 68:-0.76124562 69:0.54217975 70:-0.78559617 
0 0.01 0 0 0.004029225868053704 0.01 0 1:-0.073327105 2:-0.81294588 3:0.21300441 4:-0.0018089996 5:0.28711993 6:-0.1257145 7:0.072782635 8:-0.22139806 9:-0.30731528 10:0.59935876 11:-0.16721978 12:1.2555519 13:0.47584062 14:-1.1074985 15:-0.36113547 16:0.72305747 17:-1.1727013 18:-1.711692 19:-1.8335908 20:-1.2000497 21:-0.83655747 22:0.34943079 23:-0.01365467 24:-0.49456885 25:1.705088 26:0.14344516 27:-0.53420702 28:-1.0830608 29:-0.40362292 30:-0.46348133 31:0.72893551 32:0.78197086 33:-0.33704708 34:-0.51157613 35:0.52884953 36:-0.78526055 37:0.109904 38:0.71927287 39:0.43507768 40:0.50120812 41:-0.31217953 42:0.51156849 43:0.26136482 44:0.51157435 45:0.52185646 46:0.072339515 47:-0.21030909 48:0.26391442 49:0.85424143 50:0.79247464 51:-0.060925087 52:-0.029029335 53:-0.018341797 54:-0.13859607 55:-0.011327771 56:0.15302645 57:0.25140845 58:-0.21284154 59:2.3295264 60:0.09943307 61:-0.27058582 62:-1.0873749 63:-0.0084016379 64:-0.46957113 65:0.50622156 66:0.74804414 67:-0.25877206 68:-0.37035831 69:-0.053218101 70:-0.94537563 
0 0.01 0 0.01 0 0 0 1:-0.0090156994 2:-0.32410332 3:0.50193945 4:-0.088675517 5:0.33239315 6:-0.14040346 7:0.069417773 8:-0.10323162 9:0.38517199 10:1.0121041 11:-0.23068128 12:1.0592429 13:-1.5136244 14:-2.0977404 15:0.22017194 16:-0.23693068 17:-0.022672769 18:-0.82209499 19:-0.48292557 20:-0.97901314 21:1.4592433 22:0.018913819 23:0.33806012 24:-0.099489503 25:1.4507925 26:0.65486725 27:0.83988525 28:-0.725811 29:2.4344239 30:-0.053562525 31:-0.34502414 32:-0.79550041 33:1.1676387 34:-0.61966722 35:0.079280058 36:-0.46702907 37:-0.46352769 38:0.073479826 39:-0.38068701 40:0.35797642 41:-0.40809697 42:0.19663011 43:-0.15620778 44:0.84121845 45:-0.26758081 46:-0.47346045 47:-0.3733217 48:-0.38169749 49:-0.44199646 50:-0.40548965 51:-0.099233746 52:0.44618258 53:0.65439966 54:1.0133285 55:1.6264505 56:-0.031084793 57:0.63489923 58:-0.076414841 59:2.2736565 60:0.7950267 61:1.1216744 62:-0.73482703 63:2.6496424 64:0.44905979 65:-0.39866375 66:-0.77656592 67:1.0628457 68:-0.71689966 69:-1.1249342 70:-0.18636558 
0 0 0 0 0 0 0.01 1:0.4767273 2:-0.43230913 3:-0.13377662 4:1.0892332 5:1.7336204 6:-0.29256347 7:-0.2223175 8:0.32375576 9:-0.043484256 10:0.98716742 11:0.51297116 12:0.59463039 13:0.68962473 14:-1.7829379 15:-1.0913548 16:-4.2745357 17:-2.5870999 18:-1.5378566 19:-2.7323802 20:-2.2263365 21:-0.35339597 22:4.4100275 23:-0.93787389 24:-1.0284321 25:3.0094343 26:0.88910225 27:1.1594877 28:-0.63826768 29:-0.89809142 30:-0.71372483 31:-0.072012443 32:-0.5394576 33:-1.0313911 34:-0.23948499 35:1.0797328 36:-0.48643137 37:-0.35244595 38:0.9925436 39:-0.36029215 40:0.68517041 41:-0.50831456 42:1.3865365 43:-0.053444259 44:0.11190289 45:-0.6258445 46:-0.83568773 47:-0.34610114 48:-0.43307212 49:-0.46404297 50:-0.83870654 51:-0.52876479 52:-0.14269526 53:0.45587505 54:0.13450888 55:0.63368781 56:4.2697344 57:-1.0300202 58:-0.92282765 59:3.7270651 60:1.4058107 61:1.1473479 62:-0.61543025 63:-0.79768273 64:-0.84782498 65:0.2689609 66:-0.58362971 67:-1.0282937 68:-0.47520068 69:-0.8470819 70:-0.45020808 
0 0 0 0 0 0.003529856493826367 0 1:0.2427951 2:-0.25074676 3:0.40536923 4:0.32868088 5:0.55568881 6:0.028263871 7:0.30507686 8:0.084346487 9:0.44450046 10:0.49921754 11:-0.63370968 12:0.48223897 13:0.33768986 14:-1.1834685 15:0.037182307 16:-1.9711283 17:-1.9525932 18:0.59187567 19:-0.40537233 20:-2.2280692 21:0.75426455 22:0.53368678 23:-0.58720062 24:-0.61929112 25:2.0518519 26:-0.029718899 27:1.7173852 28:-1.0056304 29:0.037033857 30:0.36983779 31:-0.65836748 32:0.45712162 33:-0.47039495 34:-0.51948632 35:0.46195498 36:-0.2429155 37:-0.14076258 38:0.42790794 39:-0.28038379 40:0.53038469 41:-0.16774854 42:0.67072981 43:0.057551856 44:0.59155721 45:0.13810268 46:0.10752818 47:-0.19691976 48:0.26492838 49:-0.059946918 50:-0.46668514 51:0.16823718 52:0.56752636 53:0.82235008 54:1.192697 55:1.0253687 56:0.7870229 57:-0.56926469 58:-0.39465115 59:3.3474965 60:0.52610349 61:2.49747 62:-0.99561388 63:0.56734015 64:0.85739958 65:-0.52231868 66:1.1710997 67:-0.29322754 68:-0.16506816 69:0.54217975 70:-0.7788046 
0 0 0 0.01 0 0 0 1:0.79280324 2:-0.68013558 3:0.61604587 4:0.57434265 5:0.61685144 6:0.30219417 7:-0.21075286 8:0.56999797 9:0.053396048 10:0.41709573 11:0.19375106 12:-1.19229 13:-0.94240033 14:-1.5815564 15:-0.23910385 16:-1.1521862 17:-0.46552351 18:-0.59950442 19:-0.57724685 20:-1.4849063 21:-0.40300381 22:1.3192279 23:0.52197464 24:-1.0644369 25:0.59604167 26:1.0733302 27:0.00097938572 28:-0.79740706 29:0.19637206 30:0.8675095 31:-0.36732284 32:-0.99344192 33:1.2491928 34:-0.93082548 35:0.68533898 36:-0.56460171 37:-0.22901181 38:0.34897688 39:-0.53332851 40:0.24740505 41:-0.38891354 42:0.4979812 43:0.18505322 44:0.047796597 45:0.032447307 46:-0.17130653 47:-0.061801215 48:-0.039957676 49:0.021102934 50:-0.32696206 51:-0.24741511 52:0.77669134 53:0.85466028 54:0.91823587 55:0.37165576 56:1.985273 57:0.35743402 58:-0.94448548 59:0.82441948 60:1.2642592 61:0.25719158 62:-0.78758845 63:0.67560683 64:1.3088877 65:0.060295878 66:-0.96560982 67:1.2767615 68:-0.68510876 69:0.54217975 70:-0.38589921 
0.006374073356900838 0.01 0 0.01 0 0 0 1:-0.3355324 2:-0.30681158 3:0.53897334 4:-0.58456732 5:-0.25842015 6:-0.51231927 7:0.51881784 8:-0.75532687 9:0.2345559 10:1.2745706 11:-1.5512152 12:-1.3909156 13:-0.1352692 14:-2.5840938 15:-0.87414881 16:-0.56160983 17:-0.44422861 18:-1.0840669 19:-0.073034434 20:0.84280776 21:-1.6776673 22:-0.47765323 23:1.4449663 24:-0.98958856 25:3.2282116 26:0.13005712 27:-0.0087147719 28:-0.79461602 29:0.53993273 30:1.2887183 31:-0.43439896 32:-1.1121273 33:0.72453393 34:-0.7234995 35:-0.49586168 36:-0.35112787 37:-0.35445264 38:-0.22563849 39:-0.041770649 40:-0.63317872 41:0.058081055 42:-0.7293336 43:-0.016366004 44:0.31075716 45:-0.16492704 46:-0.47460531 47:-0.41390255 48:-0.017191563 49:-0.25884976 50:-0.03158681 51:0.18062165 52:0.23515532 53:1.0913846 54:1.2840739 55:0.92202875 56:-0.18897721 57:2.1237759 58:-0.74640058 59:3.7051108 60:0.65803459 61:0.30228794 62:-0.75508843 63:1.3031856 64:1.7030513 65:-0.35319862 66:-0.99453514 67:1.2073595 68:-0.47264872 69:-1.1249342 70:-0.7500372 
0 0.01 0 0 0.002196192272253477 0 0 1:0.25035145 2:-0.7507381 3:-0.17402473 4:0.14672847 5:0.65166245 6:-0.16579312 7:0.51091145 8:0.0016216167 9:-0.40642149 10:1.0845985 11:-0.85554536 12:0.55997789 13:-0.11429868 14:-2.1626968 15:0.11564093 16:-1.494655 17:-0.90809439 18:-1.7671035 19:-1.7483445 20:-1.9537002 21:-0.28105068 22:1.16274 23:0.075298026 24:-0.017074778 25:1.3346901 26:-0.25816707 27:0.61118647 28:-1.0262048 29:1.5092543 30:0.55458214 31:0.49396188 32:-0.74748228 33:-0.63896915 34:-0.73963624 35:0.3871988 36:-0.47386243 37:0.45810719 38:0.41444561 39:0.35826268 40:0.085801715 41:-0.081336882 42:0.45302331 43:0.54900533 44:0.26152204 45:0.33957931 46:-0.075175299 47:-0.10404656 48:-0.050218108 49:0.41438982 50:0.25849318 51:0.50275503 52:0.85223332 53:1.4017431 54:1.3141201 55:1.9741095 56:1.3877884 57:0.47981026 58:0.16022854 59:2.0014031 60:0.18651969 61:0.844521 62:-1.0189933 63:1.9939281 64:0.96437197 65:0.81175275 66:-0.47803308 67:-0.37941947 68:-0.60588445 69:-0.8470819 70:-0.33643337 
0 0.000116735929490859 0 0.01 0 0.01 0 1:-0.40813703 2:-0.39430859 3:0.065899931 4:-0.098689554 5:0.90941557 6:-1.0502766 7:0.9751208 8:-0.28881955 9:-0.47609028 10:2.0936167 11:0.60081606 12:0.60194652 13:-0.19958729 14:-2.1676904 15:-0.51425712 16:-2.5460867 17:-1.3275895 18:-2.1756787 19:-1.5832465 20:-1.8417407 21:-2.020948 22:4.0198159 23:0.50904095 24:-0.56379968 25:1.6015139 26:1.223087 27:0.1462855 28:-0.8650265 29:-0.65561315 30:1.4595236 31:0.45660806 32:-0.13330441 33:-0.73784796 34:0.28726415 35:0.57553623 36:-0.37920958 37:-0.34282346 38:1.2820506 39:1.3424736 40:0.081487358 41:0.76163676 42:0.72540006 43:0.76905629 44:0.81919951 45:0.41376583 46:-0.38992625 47:-0.048022922 48:0.20065666 49:0.57046684 50:0.41241747 51:0.35267672 52:1.0711445 53:1.6647597 54:1.6252595 55:0.80124231 56:4.3570982 57:1.4448016 58:-0.11707174 59:2.2223156 60:2.275622 61:0.84047432 62:-0.75541574 63:-0.21763935 64:2.1493204 65:1.0131341 66:-0.0090275588 67:-0.51642455 68:-0.13150568 69:1.3757367 70:-0.73200737 
0.001171141334031445 0.01 0 0.01 0 0 0 1:-0.020407255 2:-0.81948334 3:0.33152573 4:-0.11214998 5:0.12821488 6:-0.37408 7:0.11549277 8:-0.55577889 9:-0.38340875 10:0.60320769 11:-0.80529858 12:-0.33386887 13:-1.311412 14:-2.8663017 15:0.77287496 16:-1.5674184 17:0.13082457 18:-0.085917945 19:-1.1245598 20:-1.0658575 21:0.51966499 22:0.32681442 23:2.5304803 24:-0.93348231 25:1.647029 26:0.10684357 27:0.65733792 28:-0.90319912 29:-0.084712432 30:0.53094703 31:-0.22427642 32:-1.0872296 33:-0.15518918 34:-0.98031136 35:-0.3330965 36:-0.58404197 37:-0.22016508 38:-0.55813768 39:-0.61045291 40:-0.4100188 41:-0.25679924 42:-0.49887567 43:0.17386298 44:0.2191886 45:-0.0343718 46:0.10850601 47:-0.48107594 48:0.018017762 49:-0.16022026 50:-0.33594086 51:-0.23540165 52:-0.020541663 53:1.0948703 54:1.5716437 55:2.2263327 56:0.56669528 57:3.0608545 58:-0.69819611 59:2.3971002 60:0.43812203 61:1.058832 62:-0.84314153 63:0.18083283 64:0.65485738 65:-0.27070323 66:-1.00071 67:-0.14449492 68:-0.65699268 69:-0.8470819 70:-0.56462245 
0.01 0.01 0 0.01 0.007928518618531791 0.01 0 1:-0.19864754 2:-0.71904367 3:0.80548601 4:-0.62509419 5:-1.0523751 6:-0.042492505 7:-0.023637218 8:-0.27622631 9:-0.656582 10:-0.41783479 11:-0.0023452163 12:1.1493988 13:0.58852752 14:-0.25785214 15:0.067913016 16:0.41462397 17:1.165605 18:0.3977591 19:1.0108275 20:0.52153847 21:-0.089035284 22:0.37455195 23:-0.50179634 24:-0.42860359 25:0.097846516 26:0.15603864 27:0.83550031 28:-0.43308765 29:-0.45888342 30:-0.91065171 31:-0.58172007 32:0.11179627 33:-0.22416012 34:-0.35151581 35:-0.48565193 36:-0.58568629 37:-0.75898335 38:-0.6560785 39:-0.29399658 40:-0.393391 41:-0.095147058 42:-0.61576431 43:0.099546753 44:-0.064402515 45:0.24746535 46:0.038392984 47:0.17402919 48:1.0645587 49:0.40550361 50:0.63402867 51:0.96696315 52:0.81147162 53:1.5783921 54:0.54459577 55:1.1450816 56:0.69632058 57:-0.4502883 58:-0.36043805 59:0.76901127 60:0.34070625 61:1.272524 62:-0.52866067 63:-0.49572272 64:-0.95646512 65:-0.45334634 66:-0.12948715 67:-0.19183575 68:-0.5166987 69:0.54217975 70:-1.0305624 
0.008482169130047668 0.01 0.003916795784147594 0.01 0.01 0.01 0 1:-0.38444948 2:-0.54923241 3:0.42270912 4:-0.38081277 5:-0.16567239 6:-0.29590725 7:-0.10611755 8:-0.47627531 9:0.1498481 10:0.077278457 11:0.069133025 12:-0.13665654 13:-0.91653965 14:0.5872363 15:0.085756164 16:0.73752596 17:0.11660751 18:0.041944241 19:1.3122231 20:0.15872086 21:0.66659099 22:1.4198201 23:-0.49142747 24:0.68185737 25:-0.59689988 26:-0.38136426 27:0.27587319 28:-0.25032711 29:-0.52491884 30:-0.29267462 31:-0.84263824 32:0.12135969 33:0.06493925 34:-0.04550844 35:-0.11821661 36:-0.41436073 37:-0.20936269 38:-0.52119097 39:-0.047695409 40:-0.024106604 41:-0.092864491 42:-0.43772138 43:0.71162472 44:0.19263196 45:-0.24737998 46:-0.36041499 47:0.31879761 48:0.60318801 49:0.58868547 50:0.81747145 51:0.71503679 52:0.75542154 53:0.63790066 54:0.46843825 55:0.53990219 56:1.4248066 57:-0.4148505 58:0.7124879 59:-0.60039628 60:-0.46631525 61:0.44857253 62:0.0098324087 63:-0.16584233 64:-0.15617475 65:-0.91225451 66:-0.017346185 67:0.19838885 68:0.22282248 69:-0.49976649 70:-0.0042923197 
0 0.01 0 0.01 0.01 0.01 0.01 1:-0.18167457 2:-0.079284687 3:0.28125624 4:-0.29563696 5:-0.33995407 6:0.20277568 7:-0.33402099 8:-0.17668937 9:0.77963568 10:-0.19039771 11:-0.53395241 12:0.87783516 13:0.88542772 14:0.83150502 15:0.56821247 16:1.0634156 17:0.60798449 18:1.2383354 19:-0.1046717 20:1.2033501 21:0.76476744 22:-0.47717864 23:0.18515728 24:0.17461521 25:-0.39609431 26:-0.15974937 27:0.29696112 28:-0.24180286 29:-0.2041534 30:-0.43412536 31:0.20584938 32:0.45548841 33:-0.38738213 34:-0.29757375 35:-0.4285413 36:-0.2069527 37:-0.19586136 38:-0.54081814 39:-0.091929176 40:-0.28573539 41:-0.74606539 42:-0.48271762 43:-0.0041986101 44:-0.34945132 45:-0.26062355 46:0.14813642 47:0.080509545 48:0.19417257 49:0.49257923 50:0.56252493 51:0.70385569 52:1.1775281 53:1.0898626 54:1.3928307 55:0.33878042 56:-0.36197147 57:0.68614343 58:0.36232128 59:-0.35786092 60:0.20923277 61:0.57754227 62:-0.22232415 63:0.079642956 64:-0.26274149 65:0.60981247 66:0.60866675 67:-0.33768898 68:-0.37584435 69:-0.053218101 70:-0.22595915 
0 0.01 0.01 0.01 0.01 0.01 0.01 1:0.4751005 2:-0.30615169 3:-0.061357104 4:0.070709374 5:-0.96058739 6:0.67918512 7:-0.20117698 8:0.52190356 9:0.37430558 10:-1.4380347 11:0.27996044 12:0.48359538 13:0.44522537 14:0.42140103 15:-0.36844198 16:-0.35466376 17:-1.2126422 18:0.86600781 19:-0.14914072 20:0.11360118 21:-1.8853705 22:0.19828323 23:-0.11768907 24:0.15881744 25:-0.54622532 26:-1.8043467 27:-0.62557484 28:1.0844957 29:1.4042846 30:-0.45977915 31:-1.4287067 32:0.14053535 33:-0.15346951 34:0.52646202 35:0.54860984 36:-0.26240406 37:0.069024437 38:-0.055824061 39:-0.35655306 40:0.70680251 41:-0.47594432 42:0.30486516 43:-0.18890263 44:-0.09710328 45:0.69893381 46:0.45381981 47:0.10966989 48:0.23396244 49:0.51082781 50:0.83860987 51:-0.23702112 52:0.12615471 53:0.36719395 54:1.0507822 55:0.75929653 56:0.54636595 57:0.057843223 58:0.38333555 59:-0.35827163 60:-1.8388501 61:-0.5616169 62:1.9902719 63:1.432884 64:-0.31580097 65:-1.4847185 66:0.78805379 67:0.086683137 68:1.6424283 69:0.54217975 70:-0.59395396 
0.01 0 0 0.01 0 0.005442136677125785 0 1:1.0908349 2:-0.51121373 3:0.26650204 4:0.99150592 5:0.69294337 6:1.1123735 7:-0.48982731 8:0.93315411 9:0.10354155 10:-0.89749959 11:0.098602519 12:-0.99546142 13:-0.34898396 14:-0.67366918 15:0.13901108 16:0.2560016 17:0.63957854 18:0.43625362 19:-0.44362554 20:0.72386188 21:0.08813478 22:0.56178283 23:-0.50872669 24:-0.92883974 25:0.11897249 26:-1.3293637 27:-0.72796934 28:-0.22891297 29:-0.4910045 30:-0.2062385 31:0.18733903 32:-0.38037761 33:1.5051425 34:-0.76332315 35:-0.23509958 36:-0.33439419 37:0.50559201 38:-0.7726885 39:-0.7797954 40:-0.16771951 41:-0.65969688 42:-0.068202245 43:0.94307778 44:0.29254815 45:-0.23002496 46:0.31762155 47:0.076995825 48:0.22698147 49:0.99706439 50:1.5753544 51:2.4106413 52:1.6962831 53:1.2279701 54:2.1982654 55:1.0887284 56:1.0004346 57:-0.50238301 58:-0.85590038 59:0.46295387 60:-1.2414016 61:-0.43392488 62:-0.11020811 63:-0.16741838 64:0.039709024 65:0.76448793 66:-0.32414413 67:2.0099766 68:-0.49575365 69:0.54217975 70:-0.35553898 
0.01 0.01 0 0.01 0 0.001223911332345783 0 1:-1.3474056 2:-0.68379097 3:-0.10240326 4:-1.5697762 5:-1.0379161 6:-1.4355558 7:-0.25947694 8:-1.4142324 9:-0.38635492 10:1.944244 11:-0.11246435 12:0.69283517 13:0.75102163 14:-1.7810627 15:-0.36322121 16:-1.5527421 17:-0.72804492 18:-0.91912338 19:-0.49682886 20:-0.074622442 21:-0.32767746 22:3.982518 23:-0.96774566 24:0.37557199 25:0.18509294 26:-0.4186011 27:1.9438382 28:-0.73415055 29:1.4019921 30:1.526044 31:2.9442215 32:-1.4980747 33:0.21559515 34:-0.062453194 35:-0.92270471 36:-0.53865405 37:-0.29782569 38:-0.41074076 39:1.0839657 40:-0.98216313 41:-0.073258926 42:-1.1457405 43:0.06674825 44:0.32287319 45:-0.53730362 46:1.2125916 47:0.33209375 48:0.69756777 49:-0.27811803 50:-0.066036901 51:0.57052177 52:1.0521815 53:1.0390726 54:0.99581671 55:0.23428048 56:2.3870771 57:-1.1291432 58:-0.06970171 59:0.692876 60:-0.22661254 61:2.0245307 62:-0.81414206 63:2.1787781 64:1.4808221 65:2.2540185 66:-1.418457 67:0.3073687 68:-0.9831027 69:0.54217975 70:-1.2007729 
0 0.01 0 0.01 0.000320565789996358 0.01 0 1:0.24250643 2:-0.74619517 3:0.61625741 4:-0.019586783 5:-0.23296426 6:0.28754377 7:0.057397413 8:0.12408708 9:-0.75229101 10:-0.29109009 11:-0.014903541 12:0.51161118 13:0.30643148 14:0.0043461079 15:-0.11798305 16:0.18197693 17:0.37039807 18:-0.98110703 19:-0.13684493 20:-1.2068033 21:-2.0309217 22:2.2356763 23:0.62609312 24:0.048120889 25:-0.54609239 26:-0.41229732 27:-0.085134293 28:-1.1359033 29:0.11840674 30:-0.24312708 31:-0.79586048 32:0.46534253 33:-0.66648306 34:-0.32474951 35:0.7678885 36:-0.45913712 37:-0.19023194 38:0.92153236 39:0.025964896 40:0.59368521 41:0.19269815 42:0.32827239 43:0.40067486 44:1.2130902 45:0.5714701 46:0.45609912 47:0.20611534 48:0.31484613 49:0.1250058 50:0.0035620064 51:0.27143016 52:0.612859 53:0.37133303 54:0.35530748 55:1.0265191 56:2.8807492 57:1.1719976 58:0.053017555 59:-0.22412938 60:0.110217 61:0.30234207 62:-1.1800626 63:0.095497685 64:0.051456382 65:-0.82572867 66:0.39041579 67:-0.66762336 68:-0.21928846 69:1.3757367 70:-1.2330007 
-0 0.01 0.005121409770044666 0.005788742636981121 0 0 0 1:-1.0764466 2:-1.2098251 3:0.52869856 4:-1.7264579 5:-1.9612621 6:-1.0086912 7:0.063686928 8:-1.1299438 9:-2.4628747 10:0.8607689 11:-1.6406838 12:0.81673683 13:-0.84876457 14:-0.66805082 15:-0.021864319 16:1.2229332 17:0.86401589 18:0.24058936 19:-0.65909718 20:0.018083195 21:0.62467778 22:0.37196464 23:1.7251593 24:-0.003806506 25:-0.46492932 26:-1.1960008 27:1.6280643 28:-0.45747924 29:-0.53502025 30:-0.62810497 31:-0.23152631 32:0.47888878 33:0.091130867 34:-0.2911067 35:-1.3595308 36:-1.0581199 37:-0.70479647 38:-1.1073445 39:0.82108589 40:-1.2153779 41:-0.5321994 42:-1.5227195 43:-0.23873539 44:-0.20743656 45:-0.7395516 46:-0.39563441 47:0.0050061706 48:-0.67275574 49:-0.54789239 50:-0.60077045 51:-0.44373854 52:-0.10337868 53:-0.20612863 54:-0.49774526 55:-0.55423518 56:0.31780967 57:2.3231465 58:-0.30127151 59:-0.24719067 60:-1.2838505 61:0.88527885 62:-0.56236872 63:-0.76951226 64:-0.79075129 65:-0.37372905 66:-0.057777558 67:-0.0060599892 68:-0.69258587 69:1.3757367 70:0.41432699 
-0 0 0 0 0.0006204679518878138 0 0 1:-1.0375889 2:-1.0280993 3:-0.046232543 4:-1.5396186 5:-1.8626691 6:-0.72776662 7:-0.31181851 8:-1.0080519 9:-2.497689 10:0.33697684 11:-0.87203137 12:-0.96060177 13:-1.6758225 14:-0.85236112 15:-0.62514324 16:0.28668487 17:0.42829774 18:-1.7805907 19:-0.0065111889 20:1.7611441 21:3.0838852 22:-0.7562301 23:-0.3650179 24:-0.90218232 25:-0.87985468 26:2.8988001 27:-0.1245461 28:-0.72163888 29:-1.0670825 30:0.33948775 31:0.9490192 32:-0.24191809 33:-0.352111 34:-0.25356374 35:-1.1861947 36:-0.82368681 37:-0.92456271 38:-1.0950118 39:-0.1848989 40:-0.88953737 41:-0.17869178 42:-1.1898541 43:0.2316238 44:-0.45832851 45:-0.92391711 46:-0.56914726 47:-0.30370775 48:-0.18435218 49:1.5944098 50:1.161117 51:0.095168196 52:0.99378658 53:-0.32696378 54:-0.056496098 55:-0.63047091 56:-0.56842306 57:-0.43058643 58:-0.79599729 59:-1.2018973 60:1.9946881 61:-0.030771945 62:-0.68978791 63:-1.2388226 64:0.34801748 65:1.2233064 66:-1.2985737 67:-0.39372271 68:-0.81994002 69:0.54217975 70:0.029251719 
-0 0 0 0 0 0 0.003191466495306425 1:0.012016679 2:-0.88116489 3:1.193006 4:-0.55474601 5:-0.54382307 6:0.31010948 7:-1.2328852 8:-0.14758294 9:-0.26376213 10:0.077903297 11:-0.40481769 12:0.016526254 13:-0.52454651 14:0.13502756 15:-0.12590575 16:-1.0261917 17:0.040783662 18:-0.30231676 19:0.211743 20:2.054375 21:2.0801149 22:0.075037938 23:-0.11439104 24:-0.29031095 25:1.2494255 26:0.18205408 27:0.26632385 28:-0.1187152 29:0.20768897 30:0.52278998 31:-0.74817523 32:-0.9055551 33:-0.25952502 34:-0.49019561 35:-1.2020515 36:-0.96650758 37:-1.4602536 38:-1.5801 39:-1.2735807 40:-1.3175156 41:-1.2909887 42:-1.1891828 43:-1.9244947 44:-1.8328439 45:-1.77503 46:-1.3995702 47:-1.2498451 48:-0.96576524 49:-0.93560956 50:-0.52279001 51:-0.52889197 52:-0.26845953 53:-0.42740875 54:-0.5585773 55:-0.87407391 56:-0.55972196 57:-0.42757878 58:-0.94598762 59:-0.15519796 60:-0.82120755 61:-0.21690548 62:-0.72673153 63:-0.56851603 64:-0.23605478 65:-1.4481022 66:-1.207544 67:-0.77998834 68:-0.96521912 69:-1.1249342 70:-1.2879261 
-0.008657088349615802 0 0 0 0 0 0 1:1.5531669 2:-1.185026 3:0.3789871 4:0.77176512 5:-0.33214631 6:1.6181871 7:-0.49553096 8:1.3969858 9:-2.2409138 10:-1.7836365 11:-0.81614828 12:-0.96302637 13:-0.3045988 14:-1.1586269 15:-1.4692627 16:0.1457743 17:0.23038128 18:-1.5318653 19:0.64574208 20:0.57554781 21:0.54987874 22:-0.64539502 23:-0.13291225 24:-1.4067589 25:0.44522426 26:-0.43493808 27:-0.48728387 28:-0.59600554 29:-0.43592368 30:-0.031813551 31:-0.72912365 32:-0.85734398 33:2.1334 34:-1.0963175 35:0.019062772 36:-1.0217988 37:-0.64661737 38:-0.99245892 39:-1.7070888 40:-0.31661283 41:-0.85512014 42:-0.42290389 43:-0.68250462 44:-0.65476671 45:-1.1731044 46:-0.89996464 47:-0.65879821 48:-0.16260625 49:0.0406144 50:0.5495949 51:0.36196887 52:0.53334992 53:0.50277933 54:-0.24114864 55:-0.87008622 56:-0.84163268 57:-0.37396949 58:-1.4827029 59:0.6358333 60:-0.48864057 61:-0.57146104 62:-0.71507411 63:-0.61791819 64:-0.27081472 65:-1.0816402 66:-0.96790137 67:1.4542755 68:-0.65513212 69:-0.49976649 70:0.11821168 
-0.006503447633451139 0 0 0 0.01 0 0.01 1:1.7544429 2:-1.0574705 3:0.8542967 4:0.91893166 5:-0.31062008 6:1.7832728 7:-0.35485365 8:1.5141892 9:-1.1860739 10:-1.9669862 11:-0.83388765 12:-0.052090549 13:0.96424524 14:-0.61743152 15:-2.9029068 16:0.51786709 17:1.4753919 18:-0.3285505 19:-0.35454256 20:0.54568269 21:1.1691594 22:0.11618881 23:-0.43769699 24:-1.0235235 25:0.17339743 26:-1.0065527 27:-1.0939628 28:-0.73859553 29:1.5942452 30:-0.065828055 31:-0.14569253 32:-1.5718497 33:1.2806379 34:-1.1896765 35:-0.08275782 36:-0.87274607 37:-0.88210111 38:-1.0685502 39:-1.812305 40:-0.59959114 41:-0.82522236 42:-0.46335677 43:-0.57399275 44:-0.59515786 45:-1.2516787 46:-0.69462386 47:-0.63818638 48:0.040929647 49:0.5089245 50:1.1847104 51:0.38456533 52:1.0100468 53:0.86481293 54:0.060324331 55:-0.44608396 56:0.37311904 57:-0.44884273 58:-0.99468096 59:-0.24279725 60:-1.1537148 61:-1.2340774 62:-0.89416376 63:1.2940128 64:-0.42526597 65:-0.25419455 66:-1.5231106 67:1.3319826 68:-0.78129081 69:1.3757367 70:-0.46696441 
-0.002614648373475957 0 0 0.01 0 0 0 1:-0.52053036 2:-1.0799545 3:0.76174046 4:-0.5833329 5:-0.70654764 6:-0.4534642 7:-0.38883553 8:-0.8577822 9:-1.6244664 10:0.099747196 11:-1.5301921 12:-1.1279723 13:-0.71750878 14:-0.58445178 15:-1.5663568 16:-1.187694 17:-1.3969775 18:-0.79025093 19:0.45970734 20:-0.24265084 21:0.28407328 22:0.32690102 23:0.35638951 24:-1.0461433 25:0.72553501 26:1.1208503 27:0.45180081 28:-0.89190731 29:0.10004377 30:1.5508086 31:-0.39467657 32:-0.84278952 33:2.1489332 34:-0.62076111 35:-1.137449 36:-0.98750701 37:-1.0633557 38:-1.3413694 39:-0.72036973 40:-1.1395532 41:-0.7356672 42:-1.29198 43:-1.018476 44:-1.1145526 45:-1.3388078 46:-1.0899308 47:-0.52602944 48:-0.34850541 49:-0.04593258 50:0.53364355 51:0.41862691 52:0.81093813 53:0.70023308 54:0.020869808 55:-0.023879871 56:0.45950267 57:0.47397685 58:-1.0887531 59:0.75478966 60:1.2632531 61:0.10588383 62:-0.91852641 63:-0.17966799 64:1.5108034 65:-0.31581141 66:-0.94479341 67:1.9288623 68:-0.63269928 69:0.54217975 70:-0.47102752 
-0.01 0.01 3.364823244761945e-06 0.01 0.009791837231507318 0.005771903985495205 0.003557080710261678 1:-0.59444924 2:-0.96389219 3:0.9328279 4:-0.91735175 5:-0.61093779 6:-0.31702318 7:-0.69771587 8:-0.64945341 9:-0.81330978 10:0.53269025 11:-0.92596266 12:-0.37127272 13:0.036563819 14:1.2413588 15:0.028560618 16:-0.29442597 17:1.087489 18:0.94309068 19:0.81559219 20:1.6239611 21:2.5585834 22:-0.21201024 23:0.59872622 24:-0.080183886 25:0.63229563 26:-0.72290041 27:-0.17795633 28:-0.52620533 29:0.53616258 30:0.52749555 31:0.61509705 32:0.49978188 33:-0.56107577 34:-0.14800437 35:-0.84634793 36:-0.84245179 37:-1.06945 38:-1.1596017 39:-0.64738274 40:-0.76535047 41:-0.73083655 42:-1.034115 43:-0.92547199 44:-0.93918409 45:-0.87945575 46:-0.59513707 47:-0.30629182 48:0.057614918 49:0.56141279 50:1.0050795 51:0.63047611 52:1.3016301 53:0.98229236 54:0.38906234 55:-0.39512153 56:-0.28490631 57:0.46859979 58:-0.18124511 59:0.54459422 60:-0.80421761 61:-0.44486954 62:-0.78207047 63:0.31679262 64:0.082965571 65:0.66173747 66:0.27939641 67:-1.0355556 68:-0.37554205 69:-0.49976649 70:-0.99050385 
-0.01 0.01 0.001482636815904943 0.01 0 0.0047136657419674 0.01 1:0.43158591 2:-1.1389258 3:0.86749772 4:-0.057729165 5:-0.32064805 6:0.87497263 7:-0.691497 8:0.26233753 9:-1.3740242 10:-0.49414828 11:-1.4494187 12:-0.34489771 13:0.80160631 14:0.64487293 15:-0.86092269 16:-0.58752104 17:0.14332494 18:-0.85193003 19:0.41992648 20:0.016203562 21:0.87098291 22:1.6182471 23:-0.59878294 24:-1.1226136 25:0.47402901 26:-0.36355759 27:0.10480545 28:-0.79527985 29:0.55151758 30:-0.3191644 31:0.10442839 32:-0.49081557 33:0.38692576 34:-0.83921309 35:-0.49314595 36:-0.95517423 37:-0.70726995 38:-0.87768895 39:-1.1332582 40:-0.4686884 41:-0.93462183 42:-0.43918933 43:-0.38930976 44:-0.50999432 45:-1.0074309 46:-0.7421774 47:-0.21335387 48:0.37315796 49:0.43146343 50:0.61676969 51:0.90120698 52:1.3017429 53:0.95560616 54:0.14340128 55:-0.1639326 56:1.5564076 57:-0.78155024 58:-1.2434824 59:0.5727787 60:-0.44022572 61:-0.11423873 62:-0.92748418 63:0.22131054 64:-0.4349036 65:0.22278119 66:-0.63096466 67:0.074922044 68:-0.75296887 69:-0.053218101 70:-0.80441197 
-0.01 0.006970153523738894 0 0.01 0 0 0 1:0.061722307 2:-0.91500432 3:1.248848 4:-0.30330678 5:-0.39961529 6:0.37326184 7:-1.0857718 8:-0.19629171 9:-0.63538496 10:-0.22714757 11:-1.3786537 12:-0.58998687 13:0.12609497 14:0.19356042 15:-0.49028229 16:0.21622593 17:0.19714988 18:-0.92576149 19:0.14228702 20:1.3028918 21:2.8962131 22:1.6782343 23:-0.35759738 24:-0.63182223 25:0.80208478 26:-0.46300516 27:0.66036683 28:-0.98103987 29:1.2828465 30:0.39514287 31:0.26012536 32:-0.49542249 33:-0.58018171 34:-0.41074439 35:-0.78025197 36:-0.79013375 37:-0.75409494 38:-0.83928845 39:-0.65268249 40:-0.71392619 41:-0.88678518 42:-0.73164288 43:-0.31457453 44:-0.81937945 45:-0.74822677 46:-0.63500362 47:0.036138817 48:0.41980976 49:1.1839526 50:0.878594 51:0.91336039 52:0.91838822 53:1.3556272 54:0.44929933 55:-0.024138716 56:1.7361549 57:-0.66525384 58:-1.0232629 59:0.33476038 60:-1.1240289 61:0.22083222 62:-1.1207298 63:0.77920905 64:0.015720949 65:-0.40691628 66:-0.97206653 67:-0.96429953 68:-0.51335883 69:1.3757367 70:-0.95216305 
-0 0 0 0 0 0 0.001201449271342564 1:-0.3765962 2:-1.1858133 3:1.0472961 4:-0.23064633 5:0.15142226 6:0.066827062 7:-0.83171994 8:-0.48932532 9:-1.8885692 10:0.0090138229 11:-0.62857604 12:0.073263817 13:0.97360211 14:0.91104702 15:-1.8282889 16:-1.9746815 17:-0.27860052 18:-0.069310406 19:0.45237968 20:1.0070429 21:3.2527173 22:0.87586036 23:-0.7107142 24:-0.94392478 25:-0.28680369 26:-0.30598678 27:2.6687947 28:-0.26061587 29:0.49400094 30:-0.59186789 31:1.168517 32:0.24170649 33:-0.55740729 34:-0.071137838 35:-0.74553493 36:-1.0551219 37:-1.0936638 38:-1.1397606 39:-1.2586966 40:-0.63315004 41:-1.0527182 42:-0.76239379 43:-1.084201 44:-1.2044587 45:-1.3110799 46:-1.0247615 47:-0.63520411 48:-0.69051995 49:0.18969097 50:0.35228975 51:1.5495183 52:0.57868857 53:0.20025847 54:-0.0097368949 55:-0.52830598 56:1.4087572 57:-0.95623158 58:-1.0641705 59:-0.55334458 60:-0.65243901 61:2.0361426 62:-0.59101101 63:0.66766268 64:-0.94691802 65:1.6689779 66:-0.22655068 67:-0.84250895 68:-0.77672448 69:-0.8470819 70:-0.16622799 
-0.005151950714721894 0 0 0.01 0 0 0 1:-0.9208825 2:-1.0099103 3:0.43041449 4:-1.32504 5:-1.3201702 6:-0.64308155 7:-0.22155961 8:-0.85876742 9:-1.3326655 10:0.89577077 11:-0.93578106 12:-1.1497923 13:-1.4786224 14:-2.0363029 15:-2.1094512 16:-0.29959164 17:0.20547189 18:-0.26357217 19:1.5455266 20:1.9656679 21:2.7112896 22:0.10953187 23:-0.41316972 24:-0.76698003 25:-0.57559973 26:0.1591412 27:1.5431597 28:-0.86546961 29:-1.3086952 30:2.2929456 31:0.60172074 32:-0.69701261 33:0.84585252 34:-0.75450268 35:-1.1780914 36:-0.92085492 37:-0.43068298 38:-1.1204125 39:-0.11836025 40:-0.83538391 41:0.16486514 42:-1.1044276 43:-0.77520168 44:-0.92476399 45:-1.2055401 46:-0.87564138 47:-0.78065298 48:-0.25132218 49:-0.46357719 50:-0.7214473 51:0.67435017 52:0.23392723 53:0.71730952 54:0.10178484 55:0.45903764 56:0.16838266 57:-0.57942064 58:-0.65073027 59:-0.75550456 60:-0.29414367 61:1.6380363 62:-0.95858016 63:-1.4731415 64:1.93096 65:0.6342079 66:-1.0848912 67:0.63638399 68:-0.78353508 69:-0.49976649 70:-0.24561591 
-0 0.01 0 0.01 0 0 0 1:-1.5159266 2:-0.74698106 3:0.52216431 4:-2.0043311 5:-1.7924348 6:-2.1065354 7:-0.52542579 8:-1.6568788 9:-1.583155 10:2.4048991 11:-2.1392732 12:-2.3131984 13:-2.3699726 14:-1.6575457 15:-1.2933315 16:-0.85220452 17:-0.27828234 18:-0.3616336 19:-0.45176706 20:-0.5633981 21:-1.3144716 22:-0.46505035 23:2.7179977 24:-1.3389799 25:3.0844891 26:-0.7672416 27:1.054975 28:-0.96523131 29:-0.79888841 30:0.081890024 31:1.1304018 32:-0.27683803 33:6.9456018 34:0.32101912 35:-1.9469233 36:-0.59333382 37:-0.40754916 38:-0.6837383 39:2.7916872 40:-2.0287378 41:0.63695061 42:-1.929005 43:0.43267674 44:0.30680483 45:-0.65372951 46:-0.49262492 47:-0.40020068 48:-0.38999184 49:-0.067166372 50:0.56903815 51:0.71543546 52:0.46445223 53:0.014864181 54:-0.71898222 55:-0.080992492 56:-0.73595973 57:2.6460698 58:-1.3732727 59:3.020011 60:-0.9264739 61:0.59658025 62:-1.0279224 63:-1.0457212 64:-0.25002181 65:1.4719701 66:-0.47508362 67:4.4808478 68:-0.73009842 69:0.54217975 70:-0.69089868 
-0 0 0 0.01 0 0 0 1:-1.5954646 2:-1.1204822 3:0.46989812 4:-2.2196109 5:-1.9184754 6:-2.3910632 7:0.21431544 8:-1.7024656 9:-3.0010426 10:2.7478237 11:-1.8604407 12:-1.833633 13:-1.4580313 14:0.060218238 15:1.1223791 16:0.5208376 17:-0.3106422 18:0.49667514 19:1.1361391 20:1.5337254 21:-0.035282156 22:-0.54725244 23:4.7735563 24:-1.2689674 25:0.20882357 26:-0.32212927 27:0.98164523 28:-0.32830609 29:1.2459666 30:1.6192037 31:0.94213593 32:-1.1678353 33:-0.61588537 34:0.21574339 35:-1.9668166 36:-0.81864892 37:-0.024797656 38:-0.66319739 39:2.8625698 40:-2.390602 41:1.6541325 42:-1.9806199 43:0.75029947 44:0.99187031 45:-0.15536029 46:0.013016607 47:-0.21311362 48:0.1467636 49:-0.17992937 50:0.62415652 51:-0.19279207 52:0.037531391 53:-0.098867833 54:-1.0439774 55:-1.355725 56:-0.46444605 57:3.9407932 58:-1.2631575 59:0.8803914 60:-0.24629204 61:1.289613 62:-0.55707154 63:0.23690901 64:0.94324604 65:0.53442517 66:-1.269454 67:-0.75314016 68:0.10196898 69:1.3757367 70:-1.2144469 
-0.01 0.01 0 0.01 0.002279703362499922 0.01 0.01 1:0.5776602 2:-0.88586298 3:0.35935382 4:0.16348326 5:-0.42639271 6:0.76959696 7:-0.69645307 8:0.61760125 9:-0.58663017 10:-0.63723392 11:0.10093104 12:-1.5038887 13:-1.3998812 14:-1.1932983 15:-0.73692866 16:0.26309313 17:-1.2321332 18:-0.80308774 19:0.29822855 20:0.50222715 21:-0.074077149 22:0.10866982 23:2.6766046 24:-0.91697801 25:0.49383975 26:-0.79545042 27:3.4427352 28:-0.90205648 29:1.7069455 30:-0.21519269 31:-0.69354515 32:0.29181616 33:-0.124565 34:-0.27218016 35:0.19826951 36:-0.69822756 37:-0.65197343 38:-0.43885239 39:-1.2335025 40:0.3504069 41:-0.96619832 42:0.095675677 43:-0.014104613 44:0.063822336 45:-0.71822093 46:-0.15366747 47:0.17663549 48:0.19275238 49:1.0697444 50:1.0201527 51:2.3930479 52:1.8042413 53:1.925818 54:1.8566795 55:0.21819107 56:0.073260353 57:3.8901307 58:-0.86954026 59:1.1994167 60:-0.59820084 61:3.1316874 62:-0.87486817 63:1.2277953 64:-0.021628687 65:-0.38397813 66:0.17368754 67:-0.13258108 68:-0.43704575 69:0.54217975 70:0.48000897 
-0 0.007695998796610795 0 0.01 0 0 0 1:-1.778906 2:-1.1351965 3:0.55170964 4:-2.2958583 5:-1.9771924 6:-2.2729706 7:-0.71328506 8:-1.7510419 9:-2.3714326 10:3.1380923 11:-1.3427325 12:-0.71114006 13:-2.1719786 14:-2.0501809 15:-0.78563106 16:-0.78287969 17:-1.2784816 18:-0.29773973 19:0.55879972 20:-0.16166042 21:-1.0368235 22:0.82283158 23:0.13613586 24:-1.1546858 25:2.9745919 26:0.78447069 27:0.62292648 28:-1.0532977 29:-1.1516981 30:2.0666083 31:2.9170991 32:-1.1067372 33:0.090994847 34:-0.24839208 35:-2.0331465 36:-0.9749707 37:-0.70419192 38:-0.70543717 39:3.1168845 40:-2.3248269 41:-0.014769104 42:-1.9312669 43:0.11027092 44:0.51077577 45:-0.59173471 46:-0.21384592 47:-0.64812205 48:-0.45222044 49:-0.59366484 50:-0.057479195 51:-0.084955735 52:-0.23306278 53:-0.20007816 54:-1.010969 55:-0.43444622 56:0.578503 57:0.0074166271 58:-1.2509988 59:2.2954571 60:0.2693834 61:0.71617407 62:-1.0960779 63:-1.2806746 64:1.3676969 65:1.630179 66:-1.3199221 67:-0.10006721 68:-0.85553286 69:2.6260722 70:-1.1359807 
-0.00926121661082603 0.01 0 0.002954093406639179 0 0 0 1:-0.58695457 2:-1.0103353 3:0.80502148 4:-0.93432992 5:-1.1696168 6:-0.2791943 7:-0.53430238 8:-0.63968064 9:-0.66844391 10:0.30421789 11:-0.96376116 12:-0.56403953 13:-1.0556276 14:-1.1444145 15:-1.8649431 16:-0.6858929 17:-0.79524474 18:-0.51382559 19:0.12146445 20:0.55006076 21:-0.063345628 22:0.50348916 23:2.3833538 24:-0.39330402 25:-0.32042734 26:-1.0586423 27:2.2614282 28:-0.46451956 29:-0.03865634 30:0.46685966 31:0.59374356 32:-1.1271772 33:-0.3006621 34:-0.52951976 35:-1.1453096 36:-0.91485255 37:-1.0615473 38:-1.2469137 39:-0.46856675 40:-1.0037808 41:-0.90526736 42:-1.2784941 43:-0.4561563 44:-0.80478966 45:-1.4736319 46:-1.2508875 47:-1.3128732 48:-1.1330614 49:-1.2602461 50:-0.79411827 51:-0.25114145 52:-0.67846287 53:-0.38696185 54:-0.25104921 55:-0.066324426 56:0.025984459 57:2.142737 58:-0.59701205 59:-0.50941209 60:-1.3344258 61:1.772654 62:-0.57581779 63:-0.49903423 64:0.17398037 65:0.41809954 66:-1.205743 67:-0.52778868 68:-0.69216701 69:-0.49976649 70:-0.68336511 
-0.01 0.01 0 0.01 0 0 0 1:-0.51867495 2:-1.1492898 3:0.97139114 4:-1.1173568 5:-1.3574253 6:-0.25591795 7:-0.50544123 8:-0.58938245 9:-1.5739274 10:0.56606281 11:-0.92468465 12:-1.0612043 13:-1.7020767 14:-1.0120506 15:-0.029367471 16:0.20329464 17:0.33792199 18:-0.40760445 19:-1.6897824 20:-1.5436632 21:-0.61955214 22:0.12040978 23:0.29875113 24:-0.74667081 25:0.4543066 26:-0.32247159 27:-0.51742581 28:-0.57538619 29:0.033808484 30:0.76567143 31:0.58325385 32:-0.52243387 33:2.8167177 34:-0.69315502 35:-0.86719635 36:-1.0020656 37:-1.2366014 38:-0.94306453 39:-0.17688476 40:-0.48483228 41:-0.71383978 42:-1.0224374 43:-0.43579159 44:0.15092303 45:-0.97193093 46:-0.4319008 47:-0.71064049 48:-0.71470409 49:0.25776508 50:0.82163478 51:0.81195195 52:0.75064795 53:0.38200566 54:0.3116178 55:0.05703595 56:-0.019308059 57:-0.01210826 58:-0.78724966 59:0.17794788 60:-0.21973921 61:-0.60734566 62:-0.76092849 63:-0.15937271 64:0.53656523 65:0.52626238 66:-0.64479124 67:2.9751768 68:-1.0111637 69:-0.49976649 70:-0.92168592 
-0.01 0.01 0.01 0.002089389745766133 0 0.00216734004846733 0.01 1:-0.20892782 2:-0.68260722 3:1.1230186 4:-0.61497417 5:-0.64289315 6:-0.1343979 7:-1.1528849 8:-0.15620908 9:-0.4171012 10:0.34680322 11:0.42632078 12:-0.45790396 13:-0.94931635 14:-1.9445002 15:-2.2979786 16:-0.70939153 17:-2.0263462 18:0.0037510513 19:-0.72208857 20:-1.3594633 21:-0.20412428 22:0.67110491 23:-0.50770514 24:-0.87228884 25:3.3681061 26:-0.19500816 27:-0.34613371 28:-0.56732317 29:-0.3955234 30:1.0779183 31:1.0685038 32:1.1951348 33:-0.37769995 34:0.049850558 35:-0.74406222 36:-0.76892229 37:-1.3991661 38:-1.238773 39:-0.95165399 40:-0.83861879 41:-1.1735914 42:-0.7901792 43:-1.4437141 44:-1.3214768 45:-1.5192124 46:-1.2775688 47:-1.3948425 48:-1.1524728 49:-0.80013647 50:-1.014441 51:-0.61651527 52:-0.50601743 53:-0.16772968 54:-0.021296951 55:-0.71343687 56:-0.065426339 57:-0.67202169 58:-1.0820292 59:1.9466011 60:-0.91472554 61:-0.65231525 62:-0.52354301 63:-0.76385145 64:0.54810038 65:0.43163464 66:-0.22244197 67:-0.70641261 68:-0.61204178 69:-0.49976649 70:-0.65568941 
-0 0.0006636990066768122 0 0 0 0 0 1:0.1332718 2:-0.88469929 3:1.6079178 4:-0.23050763 5:-0.97760064 6:0.39450639 7:-0.9967705 8:-0.049906679 9:-0.85438631 10:-0.99329686 11:-1.8723693 12:-2.2453604 13:-1.3128158 14:-0.82798704 15:-0.74146255 16:0.52993841 17:0.77923095 18:0.20167526 19:-1.3849435 20:0.091453945 21:0.68114996 22:-0.8101924 23:2.1571962 24:-1.0598351 25:0.59243109 26:-0.014297147 27:-0.87338913 28:-1.3030572 29:-0.74296552 30:0.36014136 31:-0.88423539 32:-0.9749297 33:0.26388625 34:-1.1488037 35:-1.1678762 36:-0.87576223 37:-1.5548329 38:-1.4020347 39:-0.94278809 40:-0.97072648 41:-1.0252277 42:-1.0218048 43:-0.80183131 44:-0.7177731 45:-0.48607838 46:-0.14693506 47:-0.20764237 48:0.6838216 49:0.8711909 50:0.81893451 51:0.65168601 52:1.1012454 53:0.86944293 54:0.45180872 55:-0.21404443 56:-0.9208499 57:1.7540262 58:-1.096149 59:0.30617903 60:0.0067748219 61:-1.201958 62:-1.3414035 63:-1.1165102 64:-0.32435908 65:-1.0579787 66:-1.1524474 67:0.062189765 68:-0.96436339 69:-0.053218101 70:-1.1851378 
-0 0.002908547761106898 0 0 0 0 0 1:-0.12478285 2:-1.0781032 3:1.1097845 4:-0.74243047 5:-0.98505614 6:0.15307469 7:-0.73358766 8:-0.22906935 9:-0.88193718 10:0.23655638 11:-0.67776 12:-0.81032692 13:-1.0181645 14:-0.73768866 15:-0.81572204 16:-0.04723054 17:-2.010411 18:0.38497991 19:1.1155092 20:1.8228455 21:0.40498825 22:0.22080802 23:1.4030322 24:-0.76398088 25:0.60596264 26:-0.33025856 27:1.1072135 28:-0.63925153 29:0.44018337 30:0.90657777 31:0.19231633 32:-1.0535207 33:-0.56553625 34:-0.82079736 35:-0.91568539 36:-1.0030356 37:-1.2733158 38:-1.2642287 39:-0.87140075 40:-0.80004437 41:-0.6689206 42:-0.90479321 43:-1.2075165 44:-0.99553287 45:-0.94317344 46:-0.70427565 47:-0.4807143 48:-0.24108471 49:-0.1630947 50:0.16985643 51:0.5135171 52:0.55866285 53:0.33931682 54:0.018576452 55:-0.37765875 56:-0.1418335 57:1.1271651 58:-0.80831578 59:0.16093731 60:-0.47273588 61:0.65742206 62:-0.78010087 63:-0.17520124 64:0.30177919 65:0.43462082 66:-1.1196332 67:-0.89195169 68:-0.77154799 69:-0.49976649 70:-1.2510562 
-0.01 0.01 0 0.01 0.0008928592707721886 0 0 1:-0.56122249 2:-1.1481167 3:0.70939164 4:-1.0966665 5:-1.2431235 6:-0.30269596 7:0.10325146 8:-0.58140529 9:-2.513732 10:0.2676055 11:-0.69627179 12:-0.44924487 13:-0.23028577 14:1.0849445 15:1.4996315 16:2.0710889 17:-0.54716202 18:-0.96748091 19:0.55761555 20:0.3093549 21:0.65059767 22:-0.098103247 23:0.93760629 24:0.078170489 25:0.55431185 26:0.8101402 27:0.9481217 28:-0.38148168 29:-0.76318816 30:-1.1041897 31:-0.52621737 32:-0.930901 33:0.15596319 34:0.044006841 35:-0.61950933 36:-0.97957964 37:-0.63847546 38:-0.68239289 39:0.13831882 40:-0.40279582 41:0.16480652 42:-0.76734727 43:0.24166629 44:0.47828052 45:-0.52121221 46:0.0010518217 47:-0.0052567913 48:0.36967539 49:0.68469359 50:1.3564322 51:1.731455 52:1.6343268 53:1.5536796 54:1.3700888 55:0.095730377 56:-0.096346421 57:1.7438196 58:0.17112912 59:0.99109742 60:1.0602752 61:0.40511998 62:-0.33768397 63:-0.85549056 64:-1.1608682 65:-0.37760061 66:-0.93670418 67:0.17838124 68:-0.20719788 69:0.54217975 70:-1.1925934 
-0.01 0.01 0.01 0.01 0.01 0.01 0.01 1:1.0513001 2:-0.85961875 3:0.60892788 4:0.63379012 5:0.3259269 6:0.8859338 7:-0.71072302 8:1.2089949 9:-0.41615376 10:-0.061958784 11:0.35157794 12:0.16070319 13:0.019676637 14:0.24065963 15:0.90895531 16:0.1262546 17:1.4815914 18:0.5367158 19:0.53197649 20:0.26415758 21:0.39328287 22:0.34245444 23:-0.23384084 24:0.61504451 25:-0.53487715 26:-1.5293032 27:0.1224899 28:-0.66855296 29:-0.79779739 30:-0.75548108 31:0.020843292 32:-0.73800561 33:0.35889873 34:-0.51447987 35:0.31326888 36:-0.86277798 37:-0.71674901 38:0.081946109 39:-0.70047898 40:-0.16759392 41:-0.89681478 42:0.068795551 43:-1.2723383 44:-1.0143863 45:-1.6683994 46:-1.5815538 47:-1.6473754 48:-1.8558235 49:-1.1208205 50:-0.76826233 51:-0.56341104 52:-0.60525647 53:-1.1233292 54:-1.2545867 55:-1.5179576 56:-0.22067225 57:-0.48300104 58:0.53257114 59:-0.93449102 60:-1.5744998 61:-0.39473877 62:-0.7549562 63:-0.9821753 64:-1.0268643 65:-0.18090824 66:-1.0283926 67:0.29951213 68:-0.67429165 69:-0.053218101 70:0.026211982 
-0.002401260859029499 0.0005080815677873005 0 0.01 0 0 0 1:-1.8318363 2:-0.87735812 3:0.47666115 4:-2.197236 5:-1.8420884 6:-2.2372774 7:-0.81182395 8:-1.767262 9:-2.0433557 10:2.7471408 11:-1.3708837 12:-1.3181212 13:-2.685153 14:-3.3195415 15:-2.0974391 16:-1.4262293 17:-2.0279449 18:-0.80058805 19:1.26046 20:0.89242221 21:-0.10199769 22:2.6004551 23:-0.2359929 24:-1.2651977 25:1.0323003 26:0.64332184 27:1.1798999 28:-0.59372391 29:-0.82082728 30:8.0536886 31:-0.64035435 32:-1.4107881 33:0.68624321 34:-0.073040286 35:-2.0643127 36:-0.80176816 37:-0.93226658 38:-0.75915999 39:2.8026892 40:-2.4297743 41:-0.0036147377 42:-1.9612091 43:-0.37437827 44:-0.092078819 45:-1.1208565 46:-1.0592737 47:-1.2824873 48:-1.0656474 49:-1.0523798 50:-1.2583296 51:-1.255067 52:-1.0812718 53:-0.57805534 54:-0.81352978 55:-1.1678073 56:1.4436536 57:-0.39517213 58:-1.4539543 59:0.67884871 60:0.58100226 61:0.41402973 62:-0.86721498 63:-1.0208927 64:4.4197366 65:-1.4827307 66:-1.7699319 67:-0.095209447 68:-0.94755112 69:1.3757367 70:-0.76442374 
-0.0008147476883371516 0 0 0.01 0 0 0 1:0.41856044 2:-0.81358334 3:1.3355485 4:-0.27867524 5:-1.2211538 6:0.92351356 7:-1.0528656 8:0.14386499 9:-0.39984326 10:-0.97412664 11:-1.748459 12:-0.43292418 13:-1.7612657 14:-0.9892445 15:-0.64818661 16:-0.78294519 17:-0.42077239 18:0.13267325 19:0.41214626 20:-2.0758843 21:-1.8620077 22:0.59948098 23:0.79057707 24:-1.3131099 25:-0.078712633 26:-0.51060233 27:-0.12264469 28:-1.1930865 29:2.1503802 30:-0.13384263 31:-0.52298653 32:-0.86431392 33:4.6779344 34:-1.3552637 35:-1.1173646 36:-0.79539051 37:-1.4464611 38:-1.2441497 39:-0.76549161 40:-1.2671399 41:-0.97447794 42:-1.272711 43:-0.50410228 44:-1.1223234 45:-1.205472 46:-1.2091012 47:-1.2274293 48:-1.3642975 49:-0.95495857 50:-1.3272842 51:-0.76427947 52:-0.93741416 53:-1.0784343 54:-1.2121012 55:-1.0901944 56:-0.091616553 57:0.46891804 58:-1.3854945 59:-0.41483534 60:-1.0706096 61:-0.74087749 62:-1.2916467 63:1.0078197 64:-0.63986331 65:-1.0831866 66:-1.3760026 67:3.3155283 68:-1.3184799 69:-0.49976649 70:-0.87074658 
