svm_type c_svc
kernel_type linear
nr_class 2
total_sv 233
rho -0.260014
label 0 1
probA -2.45617
probB -0.0210326
nr_sv 116 117
SV
0.01 1:-0.72140465 2:-0.56589876 3:-0.13259624 4:-1.2357394 5:-1.741933 6:-0.72233109 7:0.21808757 8:-0.90957181 9:0.0016564035 10:0.16906416 11:-1.8444981 12:-1.3159251 13:-1.6760797 14:-1.1123837 15:-0.9454962 16:-1.3279944 17:-0.7200909 18:0.18802438 19:0.34997683 20:-0.19676207 21:-0.92400414 22:-0.53092385 23:-0.091850387 24:-0.99492321 25:-0.19079145 26:-0.46683842 27:0.59924139 28:-0.74397922 29:1.5140258 30:3.7688386 31:-0.073640479 32:-0.51807571 33:1.1152292 34:-0.95564156 35:-0.73101427 36:-1.0022981 37:-0.23667007 38:-0.88036304 39:-0.89219285 40:-1.2541536 41:-0.23838221 42:-1.1253061 43:-0.20147173 44:-0.19598502 45:0.12652465 46:-0.22686579 47:0.57833259 48:-0.64257391 49:-0.53308729 50:0.91967666 51:0.021459979 52:0.17846392 53:-0.96361884 54:-0.75586564 55:-0.89537045 56:-0.92806161 57:-0.55129371 58:-1.1272286 59:0.087078804 60:-0.58625479 61:0.71769462 62:-0.72733288 63:2.0599818 64:2.0604608 65:0.046058579 66:-1.1272489 67:-0.24085118 68:-0.97647461 
0.01 1:0.61380292 2:0.25873016 3:0.33364165 4:0.34169636 5:-0.1563436 6:0.28337074 7:0.59211138 8:0.57551653 9:-0.224086 10:-0.30473012 11:0.15361654 12:0.31520407 13:-0.58402337 14:0.82751909 15:1.2331086 16:1.3025336 17:0.93536608 18:-0.53546763 19:0.78074944 20:-0.12366977 21:0.089903245 22:-0.35970245 23:-0.10130443 24:-0.11671814 25:-0.24545788 26:1.1392681 27:-0.6292921 28:-0.66872428 29:-0.49472739 30:-0.68432139 31:-0.39566636 32:-0.38540424 33:-0.41928448 34:-0.41957639 35:0.0098179972 36:0.15437668 37:-0.14241647 38:0.11974328 39:0.086890243 40:-0.15592244 41:0.88921627 42:-0.13860536 43:0.015956158 44:0.034994799 45:-0.18487572 46:-0.075888589 47:0.074406527 48:-0.26323711 49:-0.28344631 50:-1.1136153 51:-1.0017583 52:-0.77782853 53:-1.0420393 54:-1.5938272 55:-1.2112379 56:-0.57670684 57:-0.40659795 58:0.28166218 59:-0.53310277 60:1.7711163 61:-0.63445171 62:-0.58119656 63:-0.80254943 64:-0.42861311 65:-0.16975387 66:0.45232401 67:-0.74415677 68:-0.46616234 
0.005125907272744366 1:1.1054078 2:-1.0183346 3:0.47221995 4:0.6532489 5:-1.3045857 6:1.2489993 7:-0.65153574 8:0.93846823 9:-0.43275601 10:-3.3079208 11:-0.93372528 12:0.66980744 13:-0.51342056 14:-0.2802131 15:0.42588093 16:-0.61080281 17:-0.19387468 18:-0.12927589 19:-0.36836671 20:-0.74531376 21:-1.5801191 22:0.23122246 23:0.065237273 24:-1.2593157 25:-1.1017076 26:-1.1038492 27:-0.61044923 28:-0.99325569 29:-0.12493172 30:-0.55131171 31:0.03302007 32:-0.78118575 33:0.9283838 34:-1.4164357 35:-0.62644916 36:-0.59116816 37:-0.58367368 38:-0.86250429 39:-0.038291634 40:-0.48295174 41:-0.67979216 42:-0.68459035 43:0.076601034 44:1.0610653 45:0.74923673 46:1.0555593 47:0.33770715 48:0.57314508 49:-0.61163623 50:-0.25859865 51:0.60274437 52:0.19302417 53:-0.23401968 54:0.13375533 55:0.56509787 56:1.0827257 57:0.40495535 58:-1.4406474 59:-1.1545355 60:-1.114757 61:-0.52276683 62:-1.0946999 63:-0.45320769 64:-0.74483123 65:0.99080492 66:-0.50371282 67:1.3306874 68:-0.5606269 
0.01 1:0.094345398 2:-0.24978861 3:0.21662171 4:0.2655987 5:0.20785334 6:0.47720686 7:0.32828564 8:0.12210246 9:-0.23517791 10:-0.73712333 11:-2.0285627 12:-0.72439512 13:-1.8690188 14:-1.0574413 15:-1.6854004 16:-2.0143882 17:-3.335706 18:-0.61740868 19:-0.41633431 20:1.3486382 21:1.2348541 22:-0.69945584 23:-0.46968351 24:-1.0923547 25:0.28559731 26:-0.15827884 27:3.9723845 28:-0.48091207 29:0.33984058 30:1.3610629 31:-0.60682427 32:-0.86291995 33:-0.19726237 34:-0.39173548 35:0.11753747 36:0.74962372 37:-0.0087003679 38:0.0069042939 39:-0.1821417 40:0.67495766 41:0.0935855 42:0.37536388 43:0.023321589 44:0.13051945 45:0.059083736 46:0.23772073 47:1.141737 48:0.51954744 49:1.145784 50:-0.32732162 51:1.8383916 52:1.214454 53:1.7127558 54:1.7722133 55:2.062174 56:-0.3661671 57:-0.3241329 58:-0.97730495 59:0.70690779 60:0.32091661 61:2.6176239 62:-0.38214957 63:0.53827911 64:2.1875718 65:-0.49468373 66:-0.52446111 67:-0.26890631 68:0.061335171 
0.01 1:-0.55474727 2:2.778268 3:-0.86727423 4:-0.55709006 5:-0.1067522 6:-1.2225858 7:1.9830278 8:-0.66447659 9:-0.22318432 10:1.4651589 11:1.3642902 12:1.0676327 13:0.76432208 14:1.0753963 15:0.32974384 16:-1.0130804 17:1.0450404 18:-0.027489678 19:-0.7992106 20:0.63857106 21:0.25230816 22:-0.66615762 23:-0.70826549 24:0.63034355 25:0.4636712 26:3.3320991 27:-0.43134202 28:-0.16667148 29:-0.61965658 30:-0.70126818 31:-0.23690855 32:-0.12521522 33:-0.9766563 34:0.5672588 35:0.93835887 36:6.8863108 37:0.50690953 38:1.4265064 39:1.5487632 40:0.89604528 41:1.4235147 42:0.896322 43:1.1891499 44:1.0977639 45:-0.024139548 46:-0.26320961 47:-0.66212615 48:-1.1652512 49:-0.17134649 50:0.79929053 51:-0.57221422 52:-0.83021115 53:-0.59501446 54:-1.0573502 55:-1.2773041 56:-0.73582352 57:-0.75682689 58:1.1568421 59:0.35285453 60:1.6917801 61:-0.21779779 62:-0.77119128 63:-0.77769297 64:-0.72229385 65:0.22168113 66:0.71649687 67:-1.0641672 68:0.29270728 
0.01 1:-0.69779294 2:-0.16828085 3:0.17967494 4:-1.228786 5:-1.6023146 6:-0.57528295 7:1.1764039 8:-0.80206542 9:0.53492835 10:0.31324455 11:-2.0087208 12:-1.0013512 13:-1.5509526 14:-1.1243383 15:-0.28101407 16:-0.51445936 17:-0.78579103 18:0.35902732 19:0.60133307 20:0.38189891 21:1.1871026 22:-0.25411818 23:0.10693728 24:-1.1021486 25:0.21179565 26:-0.67670983 27:1.4948251 28:-0.47829712 29:0.12925418 30:1.8007187 31:0.5714929 32:-0.94550461 33:1.9979095 34:-0.86866008 35:-0.26770556 36:-0.084265805 37:-0.074037328 38:-0.26306766 39:-0.63671506 40:0.32042579 41:0.57800427 42:-0.47223016 43:-0.74870161 44:1.1893479 45:-0.16585398 46:1.1293747 47:-0.40194056 48:0.65962266 49:-0.55156524 50:0.13898061 51:-0.57614849 52:-0.097733828 53:0.52667249 54:-0.022414919 55:-0.58593078 56:-0.30549588 57:-0.014358869 58:-1.3120134 59:0.42343984 60:-0.36058906 61:0.69163818 62:-0.21135804 63:0.15806846 64:0.75112764 65:0.84294382 66:-0.89438345 67:2.2364122 68:-0.71309471 
0.01 1:1.734442 2:-0.59024197 3:0.94773698 4:0.92556438 5:-0.75406238 6:2.5774299 7:-1.2923506 8:1.5890446 9:0.41861515 10:-2.7798927 11:-1.7655262 12:-0.21050968 13:0.22783401 14:-0.047021212 15:0.047839951 16:-1.6711305 17:-0.52448739 18:-0.69012872 19:-1.8368016 20:0.8616364 21:0.093490933 22:-0.81902976 23:-0.23152283 24:-1.118605 25:-0.82633536 26:-0.9445498 27:-0.4705319 28:-0.8169648 29:0.9384958 30:0.21995058 31:-0.89501149 32:-0.9418174 33:0.22968726 34:-1.9513812 35:-0.54984662 36:-1.4734356 37:-0.81223442 38:-0.70366613 39:-0.53195973 40:-1.3866929 41:-1.2093719 42:-0.67600652 43:-0.79348962 44:-0.53413118 45:-0.48494316 46:-1.5335618 47:-0.99095976 48:-1.0398754 49:-1.0636699 50:-0.5145115 51:-0.93205789 52:-0.93752236 53:-1.366716 54:-0.94064052 55:-0.7775092 56:-1.0956461 57:-0.68858059 58:-1.3984515 59:-1.0610647 60:-1.2144291 61:-0.71278402 62:-1.0986686 63:0.25078842 64:-0.025690259 65:-1.1886218 66:-1.1206211 67:-0.13623213 68:-1.8509357 
0.01 1:2.4207861 2:-0.14505195 3:0.69111218 4:1.9971786 5:-0.14990005 6:2.6659252 7:-0.83548793 8:2.562167 9:0.66064226 10:-2.1951681 11:-0.65244544 12:-1.6263698 13:-0.68129252 14:-0.79570911 15:0.020440728 16:-1.4181963 17:-0.68565306 18:-0.45481738 19:-2.6743392 20:-1.3787934 21:-1.6787355 22:-0.099261402 23:0.46798747 24:-1.0510982 25:-0.25887307 26:-0.9438283 27:-0.5113778 28:-0.91750289 29:0.62086444 30:-0.20890978 31:-0.8866663 32:-1.0737952 33:0.93001361 34:-1.3990979 35:0.64859384 36:0.060515081 37:-0.63438382 38:0.52452935 39:-0.21431309 40:-0.2492622 41:-0.9205015 42:0.43319292 43:-0.78652063 44:-0.7399769 45:0.85805675 46:0.3962295 47:0.4307673 48:-0.43247743 49:0.15939955 50:0.28415867 51:0.61764245 52:1.5449998 53:1.7489913 54:1.4712184 55:1.5447342 56:0.31382342 57:1.2750427 58:-0.96357402 59:-0.046872332 60:-0.74104113 61:-0.45373536 62:-0.83370435 63:0.66192816 64:0.19975445 65:-0.78024248 66:-1.0701016 67:0.90130693 68:-0.77891857 
0.007921266426219485 1:0.48852334 2:-1.2695525 3:-0.42990457 4:0.92692997 5:0.83603952 6:0.66186976 7:-0.67667909 8:0.73943757 9:-1.269833 10:-0.67577814 11:0.8822828 12:0.86594939 13:0.92931217 14:0.3910764 15:0.34467492 16:0.3864688 17:-0.16901244 18:0.60226755 19:1.0886224 20:-0.027803062 21:-0.011329442 22:-0.10574542 23:-0.60725001 24:-0.42864488 25:-0.51487495 26:1.138827 27:-0.33399033 28:-0.51527309 29:0.27971582 30:-0.33556965 31:0.52856608 32:0.20680117 33:-0.49291416 34:-0.70706937 35:0.13748916 36:-0.59221113 37:0.18531583 38:0.32958046 39:-0.63802674 40:0.78363196 41:-0.55913196 42:0.72929761 43:0.80348671 44:0.8297447 45:0.34550869 46:0.53969092 47:0.67486443 48:0.76449582 49:-0.65186881 50:-0.79793981 51:-0.38688017 52:-0.080745307 53:-0.43934269 54:0.15411226 55:-0.82686391 56:-0.13241563 57:-0.77190114 58:-0.64656677 59:-0.39302639 60:1.6788015 61:-0.2355458 62:-0.68003386 63:0.91951764 64:-0.12826051 65:0.50729013 66:-0.14320428 67:-0.54420486 68:-0.66787548 
0.01 1:0.90711532 2:-1.2280041 3:0.27663468 4:0.79782541 5:0.32861035 6:-0.010605805 7:-0.21360171 8:0.47244588 9:-1.5455175 10:0.043213854 11:-1.2628453 12:-1.8810006 13:0.79433431 14:-0.54668385 15:-1.6631685 16:-1.1372553 17:-1.2727479 18:-1.9137026 19:-3.0112937 20:-1.2648252 21:0.39814475 22:3.1474375 23:-0.22790148 24:-0.48981669 25:0.44936152 26:-0.16655878 27:0.16843714 28:-0.62007838 29:-0.37685701 30:-0.27633756 31:-0.7034229 32:-0.61852514 33:0.28584715 34:-0.28785835 35:1.17755 36:-0.75526871 37:-0.15720517 38:0.92085261 39:0.18046628 40:0.040740147 41:-0.13064266 42:0.75856041 43:0.39007465 44:-0.2752841 45:-0.18492857 46:-0.36034483 47:-1.2471631 48:-0.69019528 49:-1.1581533 50:-0.80823458 51:-0.43756075 52:-0.7126645 53:-0.41324804 54:0.34677954 55:1.1687186 56:0.57336774 57:-0.14490152 58:-0.18728129 59:0.66472372 60:0.29275492 61:0.052625756 62:-0.53198802 63:-0.55553647 64:-0.39282909 65:-0.65608406 66:-0.87545346 67:-0.47959044 68:-0.42048273 
0.01 1:-0.079762276 2:-0.35206867 3:-0.58228792 4:-0.29458268 5:-0.76829579 6:0.05048394 7:0.22966084 8:-0.17041494 9:-0.28811973 10:0.20458457 11:-1.5893911 12:-1.5296166 13:1.4827497 14:-1.3377318 15:0.36993655 16:-0.6293193 17:-0.9248148 18:0.52370951 19:-0.632651 20:0.33130024 21:-0.80304331 22:-0.73439843 23:0.74418673 24:-0.93039979 25:-0.84738466 26:-0.83737803 27:2.4933093 28:-0.29030165 29:0.39176617 30:0.18660761 31:0.70961951 32:-0.76115853 33:0.2708004 34:-0.85788493 35:0.14484459 36:-0.69386133 37:0.39375812 38:0.084433829 39:-0.5700515 40:-0.22075839 41:-0.44201618 42:0.10350373 43:0.8158136 44:-0.15899291 45:0.56284906 46:-0.23200799 47:0.081217272 48:-0.58146607 49:-0.4075164 50:-1.2446454 51:-0.48455405 52:-1.1465615 53:-1.6711925 54:-1.3432963 55:-0.85948377 56:-0.81468183 57:0.88553016 58:-1.1932013 59:-0.80710253 60:-0.70465958 61:0.20822962 62:-0.4419606 63:0.5256058 64:0.45812346 65:0.024955256 66:-0.83171591 67:-0.31652674 68:-0.88840109 
0.01 1:-0.038499101 2:-1.320957 3:-0.36658186 4:-0.2746168 5:-0.31294971 6:-0.34426123 7:-0.29871536 8:-0.15638185 9:-1.1364722 10:0.34277536 11:0.8164148 12:-0.60752194 13:-1.0908057 14:0.4917331 15:0.87711201 16:0.49109513 17:-1.1148071 18:0.37601867 19:0.8771885 20:-0.1385722 21:-0.60711373 22:-0.2303719 23:3.0199905 24:0.043281286 25:-0.47630479 26:0.81188846 27:-0.35447213 28:0.1101502 29:-0.21541647 30:0.77062488 31:-0.71036924 32:-0.84492468 33:-0.4363014 34:-0.43819157 35:0.15892517 36:-0.60895705 37:-0.3996579 38:0.12465467 39:-0.22063936 40:0.25212484 41:-0.53181732 42:0.29371014 43:0.050270175 44:-0.57866363 45:-0.60298606 46:0.39829828 47:-0.42310542 48:-0.3503717 49:-1.2968745 50:-1.1447896 51:-0.85803293 52:-1.7503731 53:-0.75464714 54:-1.7885313 55:-1.4712632 56:-0.48255155 57:-0.027200822 58:-0.080992073 59:-0.69063596 60:-0.39750045 61:-0.5608694 62:0.049704203 63:-0.36236184 64:-0.8715108 65:-0.87456645 66:-1.1319616 67:-0.37817263 68:-0.37410616 
0.01 1:-0.020683889 2:-0.85590136 3:0.24434526 4:-0.25135638 5:-0.86137402 6:0.50966192 7:-0.33964847 8:-0.15382409 9:-1.0857238 10:-1.7446093 11:-2.3771528 12:-1.2269885 13:-1.0793777 14:1.9694279 15:-0.5758372 16:-0.58849979 17:0.52446755 18:-0.96183129 19:-1.3779319 20:-0.44178396 21:-0.29807677 22:-0.71057987 23:-0.18980417 24:-0.20072508 25:-0.0071423072 26:-1.0784302 27:1.0220577 28:-0.8387676 29:-0.17178668 30:-0.075982217 31:0.24163846 32:-0.73092062 33:1.8688637 34:-0.65581839 35:-0.7766409 36:-0.68130877 37:-0.26854258 38:-1.0312148 39:-1.2796712 40:-0.13808752 41:-0.37359416 42:-1.0900832 43:0.23023053 44:-0.042736729 45:-0.016452855 46:2.4147764 47:0.64380222 48:0.61312279 49:0.96450248 50:1.2130986 51:0.14778754 52:0.71587003 53:1.5949369 54:1.3118507 55:0.56477317 56:-0.80171507 57:-0.30777156 58:0.58765151 59:0.11057083 60:-1.2230668 61:2.1296071 62:-0.92727368 63:-0.41729553 64:0.35130367 65:0.59429716 66:-0.47390814 67:2.4854105 68:-0.35903582 
0.01 1:-1.1746118 2:-0.13400118 3:0.18148182 4:-1.2732078 5:-0.41479657 6:-1.5953187 7:0.34035738 8:-1.5759824 9:0.3803921 10:1.4722462 11:-0.34713774 12:-0.62269697 13:-1.6043656 14:-0.30892294 15:-0.14158483 16:-0.81779688 17:-1.1046895 18:-1.3526812 19:-1.0727542 20:0.20723948 21:-0.088564362 22:0.55190842 23:0.18439223 24:-0.30093247 25:1.1093412 26:0.56915487 27:0.85487531 28:-0.32010211 29:-0.48779401 30:1.0441818 31:0.18022867 32:-0.89077086 33:0.35808731 34:-0.47001404 35:-0.87575398 36:0.3420805 37:-0.40749895 38:-0.57364971 39:1.8035387 40:-1.4309705 41:-0.28813379 42:-1.2825196 43:-0.2396218 44:-0.90542529 45:-0.19451481 46:-0.78245991 47:-0.13886426 48:0.048073231 49:-0.25776831 50:-0.21689042 51:-0.88989259 52:-0.0033254304 53:-0.90215854 54:-0.4140444 55:-0.53758933 56:0.4457847 57:0.67592245 58:0.047338729 59:0.90200231 60:0.43100188 61:0.52282603 62:-0.22302721 63:-0.66007535 64:1.0135483 65:0.026561775 66:-1.0413159 67:0.37294869 68:-0.55558838 
0.01 1:-0.93696653 2:-0.1951008 3:0.8486045 4:-1.2105855 5:-1.3052064 6:-0.77351323 7:0.46225254 8:-0.98546342 9:0.34329451 10:0.588705 11:-1.0768723 12:-0.94727808 13:-2.0825757 14:-0.54423396 15:-1.2239346 16:-0.25036509 17:-0.8789124 18:-0.3908821 19:-1.0583541 20:-0.82293807 21:-2.418185 22:1.3225526 23:1.059944 24:-0.76761824 25:0.51793753 26:-0.29222849 27:0.70959913 28:-0.59800877 29:0.83364541 30:0.0084808561 31:0.022259488 32:-0.64617555 33:1.1146675 34:-0.65484264 35:-0.86897358 36:0.4612632 37:-0.92700337 38:-0.9084292 39:-0.2499836 40:-0.42997023 41:0.055224513 42:-0.9150957 43:-0.36227767 44:0.12380269 45:0.0053005496 46:1.192416 47:-0.43827903 48:1.0984972 49:-0.65582165 50:0.77237771 51:-0.44896783 52:0.24586185 53:2.3095889 54:0.10853729 55:1.2136805 56:1.3618101 57:1.3026142 58:-0.69952526 59:0.43936494 60:-0.20962465 61:0.53625094 62:-0.60954326 63:1.2414173 64:0.27572868 65:0.64706687 66:-0.45124514 67:1.242476 68:-0.70571584 
5.75084193324023e-05 1:0.89022799 2:-1.2606773 3:-0.34672672 4:0.4601828 5:0.24236055 6:0.90175034 7:-0.62811834 8:0.80883686 9:-0.48391451 10:-0.38813326 11:-0.85472472 12:-0.80067527 13:0.26459958 14:1.5613325 15:-0.80687864 16:0.3832157 17:-0.30642583 18:0.82027441 19:-0.12290585 20:-1.2853852 21:-0.65927456 22:-0.43864223 23:0.31597254 24:-0.70992301 25:-0.17747497 26:-0.71499216 27:-0.22109497 28:-0.54756059 29:1.2510938 30:0.98140908 31:0.67500057 32:-0.60485555 33:-0.020193612 34:-1.1805593 35:0.043229529 36:-0.86092252 37:0.3961765 38:-0.080534695 39:0.44216497 40:0.21045383 41:-0.74717154 42:0.48817625 43:0.091308817 44:-0.20763402 45:0.16209837 46:0.55175132 47:-0.37044239 48:0.62628309 49:-0.71914729 50:-0.931008 51:-0.54103108 52:0.26870314 53:-0.79135908 54:0.47792998 55:-0.080733579 56:-0.70793964 57:0.41021257 58:-0.79435515 59:-0.50335344 60:-0.96862284 61:-0.38737512 62:-0.65508476 63:1.2771999 64:1.5037513 65:0.92285368 66:-0.7267116 67:0.26218496 68:-1.1513184 
0.01 1:-0.04460412 2:0.35346996 3:0.52981273 4:-0.19207702 5:-0.39094179 6:0.57324791 7:-0.19862323 8:0.32769618 9:0.99899009 10:-0.50153757 11:-0.37399519 12:-0.56581759 13:-1.221467 14:0.50987351 15:0.55894661 16:-0.088402327 17:0.5816939 18:-0.61747193 19:-0.58451824 20:-0.11743248 21:-0.86099371 22:-0.067726652 23:0.76071205 24:-0.4581844 25:0.83370697 26:-0.40613843 27:-0.37162912 28:-0.74485861 29:-2.6365497e-05 30:0.27556471 31:-0.070054004 32:-0.29906643 33:-0.011599034 34:-0.80201906 35:-0.48227408 36:0.69363759 37:-0.43954941 38:-0.40895652 39:0.49148602 40:-0.47788944 41:-0.41201609 42:0.13394621 43:-0.53470908 44:-0.68047643 45:0.65982205 46:0.24489006 47:0.80462692 48:1.0954689 49:0.58970162 50:1.6224819 51:1.2903528 52:0.49575885 53:1.1076601 54:0.14349918 55:1.6337078 56:0.75776166 57:1.1765367 58:-0.14149665 59:1.0214883 60:-0.28462874 61:-0.024982773 62:-0.87848222 63:-0.14035985 64:0.56298973 65:-0.14434222 66:0.1240536 67:-0.23260987 68:-0.46726278 
0.005220278610166722 1:-0.80619792 2:-0.6012795 3:0.32268797 4:-0.24424854 5:0.29955617 6:-0.54545292 7:0.84182375 8:-0.58818173 9:-0.38841871 10:0.24132773 11:-1.341317 12:-0.74923492 13:-0.30914927 14:-0.72403641 15:-0.97205017 16:-2.0273745 17:-0.61418857 18:-1.2340672 19:-1.3966148 20:-1.4497014 21:-1.2349908 22:1.9985889 23:0.25974506 24:-0.58917786 25:0.58089647 26:-0.32425326 27:2.1861528 28:-0.73209974 29:0.50046644 30:0.1702168 31:0.025124956 32:-0.14373391 33:0.87254884 34:0.18541712 35:-0.6252004 36:0.26815365 37:0.44590389 38:-0.53847151 39:0.018851321 40:-0.11987147 41:0.51226518 42:-0.050455441 43:0.36216158 44:0.33528058 45:1.1805298 46:1.5240354 47:0.037782614 48:0.30453226 49:-0.39844069 50:0.7034732 51:0.71303295 52:1.4579499 53:1.8305952 54:2.4894669 55:1.9529922 56:2.77734 57:1.4105597 58:-0.014543147 59:1.413534 60:-0.16379362 61:2.7974883 62:-0.53171231 63:1.8397437 64:1.1065565 65:0.63272672 66:0.86317566 67:1.301234 68:-0.079481289 
0.01 1:0.12410837 2:-0.45259471 3:0.49307108 4:-0.26622371 5:-0.83748887 6:0.80069971 7:-0.65592646 8:0.098418256 9:0.76503849 10:-0.69340536 11:-1.3357734 12:0.21613522 13:-0.4731103 14:0.50728003 15:0.5540755 16:-1.7980498 17:-1.6893825 18:0.27109219 19:-0.19981017 20:1.8716062 21:-0.11259166 22:-0.36252473 23:-0.23902157 24:-0.6196699 25:-0.35375508 26:-0.47077687 27:1.846018 28:-0.48485267 29:0.82177877 30:0.93669994 31:-0.63848502 32:-0.7472517 33:0.34752764 34:-0.89668848 35:-0.50465021 36:0.39188936 37:-0.49659927 38:-0.70025369 39:-0.58374984 40:-0.65812003 41:-0.89631877 42:-0.65974069 43:-0.37753397 44:-0.69648921 45:-0.05310222 46:-0.88916459 47:-0.96094794 48:-0.3852004 49:-0.067996901 50:0.23820639 51:1.6062206 52:0.97793485 53:-0.44100721 54:1.151303 55:-0.27602697 56:-0.41466007 57:-0.3123939 58:-0.34477327 59:-0.28505103 60:-0.46796064 61:2.1903869 62:-0.69159568 63:1.1706063 64:1.4211936 65:-0.73126603 66:-0.77264753 67:0.36326603 68:-0.81620714 
0.01 1:-0.086180992 2:0.17660407 3:0.56471325 4:0.16087481 5:-0.21164493 6:0.046006897 7:0.50396691 8:0.0066923696 9:0.026399958 10:-1.2152139 11:-0.99255642 12:-1.5309578 13:-2.1118242 14:-1.9820957 15:-1.8481452 16:-6.0245711 17:-1.448945 18:1.9511696 19:4.211986 20:1.8588146 21:-0.26940223 22:-1.3444179 23:-0.78952799 24:-1.3659387 25:-0.93987826 26:-1.3346359 27:-0.95187956 28:-0.61359733 29:6.2197298 30:9.3279331 31:0.99559428 32:-1.172841 33:-0.79664596 34:-0.14628062 35:-0.49542283 36:0.8006874 37:-0.36422671 38:-0.3721747 39:0.18422285 40:-0.20963818 41:0.33587441 42:-0.23476034 43:-0.15614531 44:0.34649592 45:-0.27382134 46:0.28443199 47:-0.082499225 48:-0.088879806 49:-0.0069634699 50:1.6402289 51:0.025252495 52:0.90177997 53:0.61597944 54:-0.54791906 55:-0.64441707 56:-1.3104997 57:-0.93811612 58:-1.4934643 59:-0.83967828 60:-1.2932504 61:-0.99891303 62:-0.21354426 63:7.242264 64:5.0081423 65:0.94852638 66:-1.3698398 67:-0.81614398 68:0.14814123 
0.01 1:0.71615852 2:-0.64259741 3:1.0497532 4:0.19293158 5:-0.42733648 6:1.7542915 7:-1.1748287 8:0.3304213 9:1.2063416 10:-1.3825268 11:-2.2100556 12:0.11886229 13:-0.18514845 14:-0.17552471 15:0.13251305 16:-1.8784511 17:-0.59158006 18:-0.40494187 19:-0.88238065 20:0.095402953 21:-0.70912538 22:-0.54207108 23:-0.046793444 24:-1.0092563 25:-0.33002187 26:-0.71718573 27:0.011137648 28:-0.81422576 29:2.437905 30:1.1200272 31:-0.50072316 32:-0.82941061 33:0.3443251 34:-1.6739053 35:-1.0765041 36:-1.2915696 37:-1.1929383 38:-1.0855999 39:-1.298236 40:-1.5053706 41:-1.153797 42:-1.146296 43:-0.90490876 44:-1.3112427 45:-1.4557477 46:-1.0444748 47:-0.96804131 48:-1.4046692 49:-1.2123496 50:-0.64133168 51:-1.3049519 52:-1.0125823 53:-0.66454889 54:-1.1948233 55:-0.24610124 56:-0.99947628 57:-0.33616474 58:-1.284361 59:-0.77038576 60:-1.0164761 61:-0.40610683 62:-0.96533444 63:1.7363709 64:1.2322816 65:-0.96706788 66:-1.1341407 67:-0.064241624 68:-1.458626 
0.004974378305420084 1:1.6862183 2:-0.6514799 3:-0.71188712 4:0.91774776 5:-0.62772819 6:1.5330727 7:-0.26098748 8:1.1374781 9:-0.21166051 10:-2.7314889 11:-0.87723335 12:-0.094476352 13:-1.2901582 14:-0.53987689 15:-2.2158892 16:-3.1386804 17:-0.19239675 18:-1.2867413 19:1.240386 20:1.3229292 21:1.0154952 22:-0.85768235 23:-0.31203005 24:-0.92315637 25:-0.82976996 26:-0.60014982 27:1.9998305 28:-0.64037081 29:0.20189559 30:0.94799867 31:-0.91396342 32:-0.97597131 33:0.038107111 34:-1.123066 35:0.26707303 36:0.5017299 37:0.64413396 38:-0.042496867 39:-0.14560033 40:0.87744236 41:-0.19295496 42:0.37668689 43:0.47491974 44:1.3800577 45:-0.32284305 46:0.80801115 47:0.27555242 48:1.0038132 49:1.8110859 50:1.0576675 51:0.55500684 52:1.6792076 53:1.7900193 54:2.1753962 55:1.1117927 56:-0.86089147 57:-0.5173924 58:-0.42174948 59:-0.82634237 60:0.11244104 61:2.5138928 62:-0.59158817 63:0.19356653 64:1.7851364 65:-0.92883196 66:-0.54220784 67:-0.30360174 68:0.058433704 
0.01 1:0.36312913 2:-0.15929544 3:0.28681466 4:0.44337342 5:-0.015098231 6:0.15015073 7:0.26525081 8:0.25940902 9:-0.30877941 10:-0.71191702 11:-0.12188769 12:-1.2527581 13:-1.3947468 14:-0.56281099 15:-0.64047816 16:-1.1949291 17:-2.1866292 18:-1.0648463 19:-0.029541736 20:0.79209238 21:0.23310432 22:-0.84954649 23:1.4189976 24:-1.1747342 25:-0.44451541 26:-0.18859895 27:2.796891 28:0.75987965 29:-0.39960633 30:-0.18027657 31:-0.75687081 32:-1.1499824 33:0.27498245 34:0.36692031 35:0.19856619 36:0.70363635 37:0.072780837 38:0.085497321 39:0.014851914 40:0.06222995 41:0.15079603 42:0.13204177 43:0.69670398 44:0.77847355 45:0.91315186 46:1.8967195 47:1.5448628 48:0.67565575 49:1.1258395 50:1.2571591 51:2.7660678 52:1.0062799 53:1.8412098 54:1.9930121 55:0.67633705 56:-0.66865914 57:3.9088453 58:-1.3289423 59:-0.15238504 60:0.36748113 61:2.6829836 62:2.3572647 63:-0.54386079 64:0.084280447 65:-0.60465964 66:-1.3706224 67:1.4186761 68:1.8807322 
0.01 1:-0.63836691 2:0.01184758 3:0.5873328 4:-0.33943743 5:0.45784623 6:-0.4862387 7:0.39549327 8:-0.68707098 9:0.60311318 10:0.64756534 11:-0.18044297 12:0.33288798 13:0.85799175 14:0.39135647 15:0.30998231 16:-0.15277257 17:0.69454439 18:0.6877705 19:0.38845478 20:-0.029081835 21:-0.42417987 22:-0.29808647 23:0.045812232 24:0.35182785 25:-0.47871359 26:0.50948129 27:-0.36685483 28:0.45283176 29:0.69104084 30:0.20258785 31:0.52699168 32:-0.34898118 33:-0.56133745 34:0.073704203 35:-0.17542011 36:-0.53330396 37:-0.91390306 38:0.033576352 39:0.63977575 40:0.40873899 41:0.21382999 42:0.16266136 43:-0.44555423 44:-0.31962894 45:0.63835731 46:-0.033581403 47:1.0327452 48:-0.39893982 49:0.40722568 50:-0.32388721 51:-0.29089061 52:-0.073678454 53:0.018051553 54:-0.45250409 55:0.45126904 56:-0.29272359 57:0.037358896 58:0.66467215 59:-0.32990015 60:1.0936501 61:-0.40107148 62:0.8447702 63:1.0787682 64:0.27114561 65:0.43295447 66:0.1448648 67:-0.45928456 68:0.62986947 
0.01 1:0.74496087 2:-1.1382096 3:-0.032980145 4:0.39369012 5:0.04624323 6:1.1156861 7:-0.79191915 8:0.57432406 9:-0.1058111 10:-0.83522648 11:0.15133402 12:0.89460675 13:-0.64001974 14:0.75905418 15:-0.11114303 16:0.82220874 17:-0.035265899 18:0.24510286 19:0.46875819 20:0.16807286 21:0.61990621 22:-0.10368704 23:0.77458292 24:0.018204263 25:-0.41546836 26:0.39042881 27:0.14754338 28:-0.50304592 29:-0.064537874 30:0.11826359 31:-0.63633763 32:-0.96683262 33:0.19694877 34:-0.85664349 35:-0.28295927 36:-0.82890393 37:0.064939565 38:-0.13179555 39:-0.083806536 40:0.39311645 41:-0.77796123 42:-0.087651113 43:0.048905328 44:0.33796013 45:0.00067492075 46:-0.5382793 47:0.63543398 48:-0.18473409 49:0.24870566 50:-0.8091434 51:-0.63010806 52:-0.55240915 53:-1.2549141 54:-0.60400685 55:-0.86887908 56:-0.0095241369 57:1.1119094 58:-0.080939233 59:-0.55513613 60:0.091287374 61:0.6003716 62:-0.85030313 63:-0.31310634 64:0.35130293 65:-0.7675765 66:-1.3157137 67:0.20994155 68:-0.86980801 
0.009726700964401801 1:-1.838949 2:0.060125834 3:0.54970636 4:-1.5630863 5:-0.77331018 6:-1.606224 7:1.1223408 8:-1.4786379 9:-0.65685898 10:1.0833108 11:0.52894861 12:1.3596434 13:1.5921948 14:0.70976781 15:0.83843907 16:1.23531 17:0.88746833 18:1.2808329 19:0.54303961 20:1.3373192 21:0.2954195 22:-1.0529825 23:-0.64120245 24:3.0035952 25:-0.87339858 26:1.1874346 27:-0.79290048 28:-0.23559717 29:-0.49608673 30:-0.86537059 31:-0.63742171 32:0.64137999 33:-0.86788655 34:1.8050271 35:-0.36380246 36:-0.043285749 37:-0.082969528 38:-0.17329406 39:1.2024436 40:-0.073625797 41:0.83507085 42:-0.36210164 43:0.45084218 44:0.43844357 45:0.97149687 46:-0.072095721 47:0.92142066 48:-0.37553609 49:0.31643611 50:0.16704374 51:-0.15540028 52:-0.18998384 53:-0.9281645 54:-1.0245746 55:-0.57609852 56:-1.0825678 57:-0.49819121 58:3.1038611 59:-0.71004385 60:1.7860415 61:-0.3981311 62:-0.23766038 63:-0.37122603 64:-0.70473203 65:0.18617801 66:2.5253909 67:-0.70000155 68:1.1521949 
0.01 1:-0.12671824 2:-1.2035349 3:0.51467713 4:-0.14662967 5:-0.93755498 6:0.57893517 7:-0.10911367 8:0.18101726 9:-0.1595223 10:-0.76958924 11:-0.52785295 12:-0.84559421 13:0.30276076 14:0.40615452 15:-0.26803351 16:-1.1716551 17:-0.33027029 18:-0.84978161 19:-1.1640735 20:-1.1219048 21:0.066415903 22:-0.48217398 23:0.14957304 24:-0.78472416 25:0.84741177 26:-0.11128969 27:-0.1300173 28:-0.57539191 29:0.58606467 30:0.77239514 31:0.25065345 32:-0.74809648 33:-0.19477472 34:-0.90087032 35:-0.60028883 36:-1.3537641 37:-0.23939514 38:-0.57273043 39:-0.49654543 40:-0.068522785 41:-0.58146767 42:-0.38650929 43:-0.11310498 44:0.55087727 45:1.1572051 46:0.49538668 47:0.23744646 48:1.6475454 49:0.3232679 50:1.1957474 51:0.27993523 52:1.4581146 53:1.3089807 54:2.926197 55:1.5571583 56:-0.15681138 57:0.24355425 58:-0.53330883 59:1.0782831 60:0.046869243 61:-0.058968331 62:-0.53819616 63:1.3733036 64:0.92992721 65:0.50350432 66:-0.45968518 67:0.11873222 68:-0.81709202 
0.01 1:-0.53340249 2:-0.92690602 3:-0.81460944 4:-0.62095373 5:0.029407518 6:-0.60593536 7:-0.057844068 8:-0.37956717 9:-0.36977501 10:1.0078266 11:-0.0988902 12:0.1384308 13:0.042193033 14:0.38731489 15:0.84125207 16:-0.012857871 17:0.78191956 18:0.5852807 19:0.13532914 20:0.29990233 21:0.57738322 22:-0.25518455 23:-0.20494151 24:0.46934058 25:-0.44663498 26:-0.4477285 27:-0.21689648 28:0.38749394 29:-0.27927795 30:-0.50180721 31:-0.012624971 32:1.4428936 33:-0.33077082 34:0.086011061 35:0.37934975 36:-0.17720697 37:0.59900328 38:0.84528979 39:1.343827 40:1.2680055 41:-0.020695844 42:0.72112586 43:-0.34911028 44:1.2416476 45:-0.52228062 46:0.48568775 47:0.044617965 48:-0.38685881 49:-0.81666504 50:-0.35206222 51:-0.19093849 52:-0.55563893 53:-0.68433387 54:-0.45676738 55:-0.92103557 56:-0.14532691 57:-0.086288111 58:-0.37292531 59:-0.56395006 60:-0.74780786 61:-0.60197006 62:0.69189866 63:-0.36158172 64:-0.76299534 65:-0.019852902 66:0.70628117 67:-0.59051677 68:-0.35347443 
0.01 1:-0.22830971 2:-1.2437747 3:0.18751922 4:-0.11604721 5:-0.27270372 6:0.037269142 7:-0.0018680632 8:0.027862984 9:-1.843318 10:-0.48278009 11:1.1239658 12:-1.0418344 13:-0.89821418 14:-1.6232479 15:-1.4979945 16:0.89476781 17:2.5340202 18:0.98295227 19:0.57748052 20:0.77604127 21:-0.06258761 22:-0.76893176 23:-0.13040941 24:-0.28939721 25:-0.54539506 26:0.57230193 27:-0.39005692 28:-0.5821267 29:-0.30334408 30:-0.78380337 31:-0.86014049 32:0.90454827 33:-0.085574758 34:-0.091393317 35:-0.21218574 36:-0.3940673 37:0.62052338 38:-0.48220133 39:-0.60551301 40:1.0096598 41:0.25982336 42:-0.14134219 43:0.91648974 44:0.94854829 45:0.60150088 46:0.89016947 47:0.25914645 48:1.5713267 49:0.28015996 50:1.1495178 51:0.80201022 52:0.64560904 53:-0.61543306 54:0.18363792 55:-0.95208611 56:-0.5471534 57:0.0036243829 58:0.90796726 59:-0.39816424 60:1.6422958 61:-0.07213025 62:-0.37507137 63:-0.57130511 64:-1.0369831 65:-1.0033675 66:1.0424854 67:-0.43772962 68:0.4898744 
0.006912359603570194 1:0.2611174 2:-1.1321996 3:-0.37168826 4:0.78877023 5:0.95555722 6:0.023408382 7:-0.054148161 8:0.20714784 9:-1.3687019 10:-0.40529109 11:1.9514319 12:0.61039075 13:0.39720136 14:1.110138 15:-0.52258377 16:0.62578171 17:0.24969681 18:1.0030693 19:-0.13020752 20:0.24983917 21:0.95527212 22:-0.37919584 23:-0.71009435 24:1.5454356 25:-0.55016744 26:0.25206125 27:-0.45119981 28:0.64593474 29:-0.62343847 30:-0.096080419 31:-0.70876502 32:-0.36544783 33:-1.0102138 34:0.65795265 35:0.72288669 36:-0.67584539 37:-0.32655447 38:0.6805353 39:-0.43922499 40:1.1056165 41:0.049688944 42:0.77390427 43:0.4766394 44:1.1866022 45:0.97469134 46:0.15892588 47:0.39077468 48:2.3987952 49:1.0885287 50:0.73634928 51:-0.069577591 52:1.4086674 53:0.20295362 54:0.18426449 55:-0.36031082 56:0.10724963 57:-0.81525394 58:0.72096057 59:-0.12523335 60:0.99537481 61:0.52657864 62:1.5340614 63:-0.76501031 64:-0.032190159 65:-0.54305549 66:-0.56612007 67:-1.0732488 68:1.1130629 
0.007905780458216735 1:0.57700992 2:0.47194334 3:-0.7016167 4:-0.25164554 5:-2.128976 6:1.2230637 7:-0.25160542 8:0.38316638 9:0.18402233 10:-2.5905807 11:-2.1335905 12:-2.0789417 13:-1.4756617 14:-0.542782 15:-0.47944808 16:-0.7998472 17:0.2078692 18:0.72764896 19:0.25343461 20:-0.2671015 21:-0.90447658 22:-0.27884355 23:0.41537966 24:-1.2555678 25:-0.41768005 26:-1.1167239 27:-0.69944331 28:-0.8914949 29:3.4665334 30:1.6835232 31:-0.57667096 32:-0.94311925 33:1.1120395 34:-1.1513408 35:-0.50785185 36:1.5382296 37:2.2188194 38:-0.96238377 39:-0.81844122 40:-0.91881213 41:-0.64997078 42:-0.78746734 43:1.5383526 44:-0.51305997 45:0.51031211 46:0.033710578 47:0.68614242 48:0.39391707 49:0.63339294 50:0.31803656 51:0.1080607 52:1.2510239 53:0.81742291 54:0.61881284 55:0.68697078 56:-0.15741622 57:0.81364788 58:-1.4372271 59:-0.41353492 60:-0.80705723 61:-0.70073266 62:-0.92966107 63:4.0894291 64:1.149487 65:0.081920265 66:-0.87003969 67:1.2183541 68:-0.62072969 
0.01 1:0.44152917 2:0.28274168 3:0.34969358 4:0.52095464 5:-0.096222792 6:0.17790359 7:-0.15141483 8:0.67689353 9:-0.11543267 10:-0.72102316 11:2.6066589 12:0.069834412 13:0.71209952 14:0.012746651 15:-1.3568496 16:0.91495767 17:-0.4564076 18:-1.212092 19:-0.4642898 20:-1.3791164 21:-0.61783742 22:0.86693803 23:-0.54770588 24:0.94642734 25:0.78679095 26:0.27241251 27:-0.066906469 28:-0.12414249 29:-0.60948343 30:-0.50530133 31:-0.70074829 32:-0.45500834 33:-0.0048905627 34:0.53353262 35:0.47306777 36:0.72310337 37:-0.25873519 38:0.37290009 39:-0.22156657 40:0.40913132 41:-0.19275615 42:0.53604821 43:0.11103399 44:0.4547207 45:0.69649755 46:1.1233454 47:1.4508521 48:0.61221348 49:0.31150281 50:0.81844715 51:-0.26245667 52:0.46645565 53:1.447932 54:1.305006 55:1.7458266 56:1.1082488 57:-0.5435864 58:1.4831814 59:0.96664916 60:1.0817281 61:0.45314846 62:0.27318428 63:-0.75313606 64:-0.090453328 65:-0.72236795 66:-0.025080431 67:0.18364166 68:0.54357069 
0.01 1:-1.0283059 2:0.35375555 3:-0.7102222 4:-0.51625467 5:1.1123561 6:-1.6247253 7:1.5998608 8:-1.4047357 9:-0.55854243 10:1.440267 11:0.72949222 12:1.1760303 13:0.97017714 14:0.49820299 15:0.71161309 16:0.019524131 17:1.0546282 18:0.55949652 19:0.74571883 20:1.4956695 21:0.22319494 22:-0.32543473 23:-0.90175398 24:-0.31449116 25:-1.1686457 26:0.02939926 27:-0.20792518 28:0.9645263 29:-0.70705872 30:-0.19827953 31:1.7415401 32:1.6504283 33:-0.85966882 34:1.037639 35:0.20224255 36:0.91069058 37:1.3651035 38:0.45547367 39:-0.42187517 40:-0.17742733 41:2.6400134 42:-0.0534014 43:0.29159281 44:0.23122147 45:-0.043786207 46:0.27653631 47:-0.37932315 48:-0.47956933 49:0.092426722 50:-0.35073984 51:-0.062972488 52:-0.30408123 53:0.49319695 54:0.78687368 55:0.15856525 56:0.40961606 57:-1.0652079 58:-0.36221531 59:-1.1735947 60:0.77691069 61:0.14501927 62:1.1317057 63:-0.86405435 64:0.045236053 65:1.7483194 66:2.5352858 67:-0.69351452 68:-0.063309181 
0.009442813723046008 1:-2.4253445 2:1.9384043 3:0.15333019 4:-2.2375158 5:-0.73050996 6:-2.3680192 7:5.2800108 8:-2.1355318 9:-1.3020513 10:1.6469406 11:1.2548641 12:1.9045048 13:1.7573049 14:0.76883919 15:1.707173 16:1.6453824 17:1.208316 18:0.72792787 19:0.4146291 20:1.1814718 21:1.9771566 22:-1.262367 23:-0.97221676 24:2.1102086 25:-0.9354835 26:2.7189288 27:-1.2586289 28:-0.47104462 29:-0.82294336 30:-1.1766182 31:-1.2397162 32:3.3686087 33:-1.1647418 34:2.583857 35:-1.1797668 36:4.9475124 37:0.12130564 38:-0.31123708 39:0.91519672 40:-1.2002882 41:6.5884906 42:-1.0378584 43:1.2384064 44:0.26608877 45:-0.10040052 46:-0.057827858 47:-0.86850862 48:0.28904567 49:-0.1940701 50:-0.38426029 51:-0.99407652 52:-0.36424806 53:-1.6177615 54:-0.94271054 55:-1.0706361 56:-1.2383333 57:-1.0689968 58:3.0819704 59:-0.78690044 60:3.3317232 61:-1.2756324 62:-0.49180063 63:-0.98378333 64:-1.2671732 65:-1.1818959 66:5.2115606 67:-1.1794685 68:0.79556882 
0.01 1:-0.70936955 2:0.33134434 3:0.44134226 4:-0.35494733 5:-0.2786212 6:-0.80784524 7:1.062073 8:-0.61251785 9:-0.015522994 10:0.36152798 11:-0.16787209 12:-1.1768391 13:0.64222059 14:0.35646743 15:-0.22080558 16:-0.67459617 17:-1.4685892 18:-1.9192448 19:-0.24830576 20:0.11168909 21:1.1767158 22:1.8832617 23:-0.1192472 24:-0.3547674 25:0.59128633 26:0.47668645 27:3.7467851 28:-0.48688876 29:-0.4082551 30:-0.51697563 31:-1.1677272 32:-0.60163411 33:0.55016866 34:0.53912208 35:0.11152402 36:1.1220269 37:-0.22645565 38:0.21973478 39:0.5311907 40:-0.029949142 41:0.68510373 42:0.3505187 43:0.41610655 44:-0.17873328 45:0.50166507 46:2.030751 47:0.1851436 48:0.3186926 49:0.089034054 50:0.58960004 51:0.38633137 52:2.3656843 53:1.2045484 54:1.4734323 55:2.0271733 56:2.2260586 57:0.5069545 58:0.55112141 59:1.8691379 60:1.4331743 61:3.3181787 62:-0.23917116 63:-0.48594357 64:-0.35922543 65:-1.0753361 66:-0.0078149664 67:1.1889566 68:0.16761793 
0.01 1:-0.84970255 2:0.013429191 3:0.10050816 4:-0.38792961 5:-0.19785668 6:-0.70009525 7:1.2965076 8:-0.62713566 9:-0.15406599 10:0.20287231 11:0.33419867 12:-0.89674215 13:0.34933699 14:-0.59534757 15:0.29857304 16:-0.13344422 17:-0.90463885 18:-1.9966663 19:-1.731068 20:-1.2841829 21:-0.54517817 22:1.2084624 23:-0.2902993 24:0.3419079 25:2.7284226 26:0.20595899 27:0.6295195 28:0.1630774 29:-0.063699117 30:-0.28193612 31:-0.85059651 32:-0.82038095 33:-0.46708001 34:0.70256319 35:-0.58012555 36:1.0808675 37:0.21119332 38:-0.32535459 39:0.44923114 40:-0.036347208 41:0.74993952 42:0.041182851 43:0.52371188 44:0.35168974 45:1.1276249 46:2.3865648 47:-0.11092848 48:1.0024547 49:0.6397672 50:0.84832707 51:1.012841 52:1.4360423 53:3.0477973 54:1.6687621 55:1.3703778 56:1.2936881 57:-0.28714893 58:0.44963061 59:3.2097768 60:0.85432431 61:1.4340784 62:1.4396475 63:0.39697549 64:0.51451827 65:-0.40770858 66:-0.76361846 67:-0.51278217 68:0.82052698 
0.01 1:-0.45456945 2:-0.3562793 3:-0.16524173 4:0.24343868 5:0.72641379 6:-0.62788181 7:0.30552217 8:-0.39821075 9:-0.84154324 10:0.047272318 11:0.47531777 12:-0.56192158 13:0.56966679 14:0.76591889 15:0.32966903 16:0.96464407 17:0.41102471 18:-0.16868621 19:-0.7044851 20:-1.8776255 21:-0.45709643 22:0.58397587 23:1.3467463 24:0.80218314 25:0.087544157 26:0.33714775 27:-0.053437699 28:0.85234373 29:-0.25946995 30:-0.62534825 31:-1.0234044 32:-0.62138795 33:-0.18052297 34:1.016366 35:0.15348027 36:0.8511777 37:0.040750957 38:0.24177017 39:1.0786011 40:-0.02916618 41:-0.075122989 42:0.73246519 43:0.77778828 44:-0.23326556 45:-0.55172733 46:1.1493956 47:-0.041082042 48:0.14488532 49:-0.23735141 50:0.95024221 51:0.68004387 52:1.344613 53:0.64130567 54:2.7576412 55:3.5225322 56:1.1337447 57:2.9435416 58:0.67821186 59:0.92814193 60:1.1492081 61:0.78372532 62:1.7084199 63:0.32138932 64:-0.39955589 65:-0.81222057 66:-0.40703037 67:0.18369111 68:1.1821294 
0.01 1:-0.58764319 2:-0.3786852 3:-0.34167577 4:-0.47859368 5:0.11602685 6:-0.57721637 7:0.55333613 8:-0.65407274 9:0.095532398 10:0.24055727 11:-0.97357831 12:-0.34822394 13:-0.13873553 14:0.30524159 15:-0.54246069 16:-0.35412252 17:-1.0400749 18:-0.70807142 19:-1.0006318 20:-1.1647459 21:-0.98440513 22:0.47600779 23:0.54562358 24:-0.6694173 25:2.451671 26:0.83908973 27:0.43615979 28:-0.081904327 29:0.66582574 30:-0.2503693 31:-0.75072724 32:-0.53961466 33:1.2127958 34:0.18637704 35:-0.2340883 36:0.42930578 37:0.3222612 38:-0.20408489 39:1.456414 40:-0.36002052 41:-0.21730936 42:-0.39725744 43:0.028131956 44:-0.23450257 45:-0.12452263 46:0.042668223 47:-0.069277015 48:-0.40086202 49:0.22196477 50:0.99654928 51:0.28322649 52:1.1323215 53:1.6130617 54:0.97842346 55:1.3382158 56:0.5108166 57:0.72723216 58:-0.83131742 59:2.1889367 60:1.1625308 61:0.58953655 62:0.12478495 63:0.8344363 64:-0.32134334 65:-0.83028532 66:-0.72242073 67:1.3840044 68:0.82378438 
0.01 1:0.82768371 2:-1.0080652 3:0.16403458 4:0.98321246 5:1.1135634 6:0.52173585 7:-0.20187662 8:0.85787203 9:0.057376481 10:0.22128469 11:-0.51717838 12:-0.45716292 13:-0.58253335 14:-0.2715266 15:0.073372538 16:0.063653515 17:-0.67106123 18:-1.4362837 19:-0.94527208 20:-1.2036072 21:-1.4681629 22:0.7210979 23:1.8464709 24:-0.27277854 25:0.89923423 26:-0.36124561 27:-0.36825721 28:-0.6881577 29:-0.0049232958 30:-0.084319007 31:0.038448859 32:-0.53356043 33:0.092875402 34:-0.90608024 35:1.0283744 36:-0.47955442 37:-0.29545475 38:0.92729821 39:0.92160625 40:0.79146792 41:0.17559952 42:1.4742007 43:-0.37246969 44:-0.6722647 45:-0.50871965 46:0.29227927 47:0.45782995 48:-0.73686062 49:-0.60236574 50:-0.35886953 51:-0.73002585 52:0.48290603 53:0.88789076 54:1.5544549 55:0.81677126 56:0.57225789 57:3.725724 58:-0.095113432 59:0.50647013 60:-0.43909987 61:-0.60989622 62:-0.81119302 63:-0.30653542 64:-0.35977947 65:-0.098496323 66:-0.64679594 67:0.3974978 68:-0.46352218 
0.01 1:0.28885542 2:-0.6958251 3:0.37046453 4:0.15118985 5:-0.33510076 6:0.80033342 7:-0.24558484 8:0.45429964 9:0.30973352 10:-0.87305181 11:-1.3083747 12:0.13394818 13:0.27699423 14:-0.093173461 15:-0.65269488 16:-1.3818231 17:0.18361707 18:-0.72463827 19:-1.0269745 20:0.21663834 21:-1.6075656 22:-0.17285116 23:0.95976548 24:-0.74149324 25:0.076991878 26:-0.51839928 27:0.094300407 28:-0.76390618 29:0.20742961 30:0.50434539 31:0.28456128 32:-0.52992566 33:0.53675542 34:-1.0749152 35:-0.22997244 36:-0.80319884 37:-0.092656025 38:-0.088276882 39:0.54561926 40:-0.44371374 41:-0.52230577 42:0.13523572 43:-0.3192189 44:-0.42846516 45:0.41577141 46:0.15237085 47:-0.38084452 48:-0.45194302 49:0.30657475 50:0.44987213 51:0.14409129 52:0.32255495 53:0.33823571 54:1.5007283 55:0.26354475 56:-0.5565087 57:0.62502882 58:-0.56178805 59:-0.0069987663 60:-0.59712417 61:0.20607138 62:-0.75264927 63:-0.15888946 64:0.5870558 65:0.89956374 66:-0.66908093 67:0.0062923391 68:-0.80207153 
0.003525088459106955 1:0.63298266 2:-1.2133873 3:-0.060088378 4:0.67593411 5:1.3678059 6:0.47187993 7:-0.11653625 8:0.80649801 9:-1.4464227 10:0.42184502 11:-0.59435892 12:-0.28761982 13:0.41385609 14:-1.0413009 15:-0.51060538 16:-0.49112922 17:-0.21117369 18:-0.45845136 19:0.53595251 20:-0.13239784 21:0.58833562 22:-0.27419692 23:-0.14420785 24:-0.55937982 25:-0.15986346 26:0.45429525 27:1.7565042 28:-0.16045001 29:0.30047252 30:0.24155725 31:0.46935445 32:-0.41086892 33:0.4665641 34:-0.5364649 35:0.2346394 36:0.22990986 37:0.13410375 38:0.13584638 39:1.1062832 40:0.54062212 41:0.10908292 42:1.1890537 43:0.76045047 44:-0.37187823 45:0.90914113 46:-0.51787001 47:0.78125561 48:-0.16104523 49:-0.31573585 50:1.0576671 51:0.4726921 52:-0.023009504 53:-0.25163144 54:-0.51994242 55:-0.63490327 56:-0.5033937 57:-0.5232103 58:-0.46204342 59:-0.21143972 60:0.99807116 61:1.5936258 62:-0.23293207 63:0.57659539 64:0.31224616 65:0.64825865 66:-0.48493438 67:0.51427233 68:-0.61296006 
0.01 1:0.7511176 2:-1.1777566 3:0.20220212 4:1.2714223 5:1.9207428 6:-0.048413737 7:-0.23413593 8:0.34481732 9:-1.8181379 10:0.82815636 11:0.042955661 12:-0.484991 13:0.53158472 14:-1.054942 15:0.30453156 16:0.20231412 17:0.94565309 18:0.7152168 19:0.92881456 20:-0.78181608 21:-0.19478039 22:0.29416569 23:0.97233593 24:-0.34222058 25:0.1872139 26:0.14768753 27:0.8970343 28:-0.41604181 29:-0.19370323 30:-0.37025049 31:-0.58717258 32:-0.10247706 33:2.3673128 34:-0.46129401 35:0.90245975 36:-0.1173476 37:-0.49743485 38:0.7980665 39:0.0032872661 40:0.49193472 41:-0.082384874 42:1.1163095 43:0.050496263 44:-0.24432581 45:-0.46534092 46:-0.030232583 47:-0.48869655 48:0.24269109 49:-0.026284762 50:-1.0352196 51:-0.40099605 52:-0.22523671 53:-0.79647216 54:-0.12056273 55:-0.17416743 56:0.15129623 57:1.6928622 58:-0.38821205 59:0.68868112 60:0.63128914 61:1.5137188 62:-0.46575458 63:-0.25646383 64:-0.36987494 65:-1.0294559 66:-0.48605436 67:1.8531185 68:-0.55579377 
0.01 1:-1.0353486 2:0.94548131 3:0.42010193 4:-0.7837845 5:-0.28885273 6:-0.8919292 7:2.1265186 8:-0.85513309 9:0.24504254 10:0.29296988 11:0.030911269 12:-0.5953543 13:-0.76903222 14:-0.56356227 15:0.92854816 16:-1.9520288 17:-0.31583497 18:-1.3219101 19:0.95805974 20:1.3218215 21:1.0422378 22:-0.5434564 23:-0.16503424 24:2.1720369 25:0.33209012 26:-0.51398589 27:1.6557526 28:0.80368216 29:-0.32458239 30:0.2204659 31:-1.002048 32:-0.77642758 33:-0.093799369 34:1.5296706 35:-0.54933401 36:0.54271508 37:-0.39941748 38:-0.050044409 39:1.2503505 40:-0.066616341 41:1.8326956 42:-0.25119456 43:-0.035375147 44:0.50549333 45:0.54277955 46:1.5727659 47:1.226379 48:0.45016923 49:0.17236437 50:1.7395492 51:2.9313703 52:1.9395758 53:2.6052446 54:4.2563694 55:3.0131469 56:0.034767631 57:0.43237184 58:3.5037854 59:0.93709858 60:0.66279825 61:3.1630923 62:0.87508523 63:-0.24942065 64:0.86560507 65:-0.81507198 66:-0.79626598 67:0.95403012 68:2.3439467 
0.01 1:-0.95144685 2:0.95501156 3:0.71585713 4:-0.61253333 5:-0.15979244 6:-0.84103811 7:2.1784417 8:-0.77420085 9:0.018719891 10:0.84448388 11:-1.0164429 12:0.16803394 13:1.151453 14:-1.1173001 15:0.99399606 16:0.03851549 17:-0.64688374 18:-1.8904708 19:-0.95929911 20:0.13732908 21:0.7295373 22:-0.77798316 23:-0.30288825 24:2.4268508 25:1.0411278 26:0.98880193 27:1.5267795 28:-0.18876871 29:-0.56646169 30:-0.64256652 31:-1.0772078 32:-0.17147949 33:-0.36088306 34:1.6003771 35:-0.6516067 36:0.17602923 37:-0.80684834 38:0.11729694 39:1.0124282 40:-0.60376826 41:0.49573361 42:-0.25715086 43:-0.18560522 44:0.18014015 45:1.2960181 46:1.1985155 47:-0.057145881 48:0.79423713 49:0.82850465 50:1.2166221 51:1.8506648 52:0.91321025 53:0.21589549 54:2.2465073 55:2.451145 56:-0.37802 57:0.12841289 58:2.8441684 59:1.4713203 60:2.2743394 61:1.8553639 62:-0.015249046 63:-0.48764899 64:-0.30214556 65:-1.0383816 66:-0.026461888 67:0.31869956 68:1.5858262 
0.01 1:-1.8311548 2:0.38597837 3:0.024298591 4:-2.1520075 5:-1.43206 6:-1.8954228 7:0.82338176 8:-1.6196947 9:-0.4396332 10:2.1060047 11:-0.060153877 12:0.95449302 13:-0.70670763 14:0.32136447 15:1.6940348 16:1.382718 17:0.61210204 18:0.69143662 19:1.4590486 20:0.89219791 21:1.027591 22:-0.81699644 23:-0.61839923 24:-0.15030154 25:-0.51001725 26:3.3447526 27:-0.60361935 28:0.31477668 29:-0.35228956 30:-0.42377508 31:-0.051121868 32:0.74320822 33:-0.45891799 34:0.53770944 35:-0.91963589 36:1.3510744 37:-0.0026333327 38:-0.725289 39:-0.20324783 40:-0.92830419 41:0.24214336 42:-1.1129829 43:0.6189677 44:0.3471407 45:0.24864731 46:-0.75001352 47:0.4108518 48:0.044457739 49:0.17670429 50:0.067866204 51:0.5762134 52:-0.81996865 53:-0.23490531 54:-0.82422724 55:-0.65989621 56:-0.51755347 57:-0.69691883 58:0.12662794 59:-0.57406275 60:2.4464124 61:-0.30489792 62:0.22370251 63:-0.20575123 64:-0.44847656 65:0.064258088 66:1.3524318 67:-0.011475919 68:-0.67215543 
0.01 1:0.18936532 2:0.32710471 3:-0.71364077 4:0.17598499 5:0.28714371 6:-0.14697618 7:0.94663269 8:-0.067949167 9:0.038511387 10:0.00021091339 11:0.55039822 12:-0.79485091 13:0.60344038 14:-1.4161167 15:-0.31653627 16:-0.99746297 17:-1.7451368 18:-0.22108593 19:-1.5365821 20:-1.1945226 21:-1.0276246 22:-0.12506059 23:-0.22549651 24:0.18566547 25:1.4474252 26:0.82707465 27:1.3120069 28:-0.08479302 29:-0.080777534 30:0.020898662 31:-0.57298194 32:-0.83437081 33:-0.78308021 34:0.19333132 35:0.51271919 36:1.8205459 37:1.3753236 38:0.16719541 39:0.17200528 40:0.62512119 41:0.44739341 42:0.38338151 43:0.68227044 44:0.17958896 45:1.3385255 46:0.35558768 47:-0.076868904 48:-0.10746747 49:0.52527863 50:0.24243184 51:0.62241267 52:1.4552891 53:1.0124661 54:2.1912637 55:2.107926 56:0.23218787 57:-0.36799331 58:0.78357296 59:1.43325 60:1.0770385 61:1.8379661 62:0.54324018 63:0.27304972 64:-0.046433661 65:-0.7690677 66:-0.6833681 67:-0.79479647 68:0.89246469 
0.00705481843844022 1:-1.7812614 2:1.7344505 3:-0.23948488 4:-1.6691205 5:-0.73572788 6:-1.8169688 7:1.6020214 8:-1.6187269 9:-0.54529257 10:1.5380611 11:2.1004568 12:1.1660426 13:0.33404415 14:0.1568409 15:1.1817551 16:-0.12380142 17:1.217832 18:0.22269557 19:-0.18948632 20:1.5296827 21:0.65115935 22:-0.80806448 23:-0.65277205 24:1.3031261 25:-0.27046826 26:3.1462848 27:0.65022994 28:-0.083139962 29:-0.76928857 30:-0.92606112 31:-0.3291302 32:0.27964118 33:-1.0046597 34:1.4443018 35:-0.5198366 36:2.6368555 37:0.9515649 38:0.0099345706 39:0.48803648 40:-0.028014613 41:1.8478694 42:-0.12750106 43:0.55032124 44:0.43937396 45:0.30415429 46:0.2757522 47:0.06313085 48:0.32027607 49:0.45984669 50:0.60380693 51:0.82101661 52:-0.087790302 53:-0.010411005 54:-0.68634529 55:-0.37647808 56:-0.38880715 57:-0.44944729 58:1.9355736 59:-0.038227538 60:4.2063712 61:1.330901 62:0.077969577 63:-0.91059426 64:-1.0173921 65:0.24246654 66:0.51562227 67:-0.99373297 68:-0.010258536 
0.01 1:-1.0986188 2:0.79110652 3:0.33882903 4:-0.87831404 5:0.12079512 6:-1.4093512 7:1.1222077 8:-1.2151545 9:0.5390915 10:1.0950427 11:-0.4410451 12:-0.774424 13:-0.21995773 14:-0.015439287 15:1.0272542 16:-0.39414648 17:-0.38241684 18:0.95342477 19:-0.21502905 20:1.2984861 21:1.1204837 22:-0.53198001 23:0.077553713 24:0.046576955 25:-0.58154112 26:-0.56835513 27:0.65602328 28:-0.17871836 29:2.0751704 30:2.2302948 31:0.66128486 32:-0.20784487 33:-0.054435007 34:-0.047206898 35:-0.69258168 36:0.25461868 37:-0.26929371 38:-0.61620253 39:-0.37884481 40:-0.8449788 41:0.75189442 42:-0.5838534 43:-0.76354769 44:-0.66118183 45:0.062895007 46:0.097156611 47:-0.30385885 48:0.85780523 49:0.014707842 50:0.80249068 51:-0.30474761 52:-0.55987427 53:-0.85993115 54:0.31680611 55:-0.40648447 56:-0.3430908 57:0.58746783 58:0.38612391 59:-0.66858563 60:-0.67040497 61:0.83283288 62:-0.13341771 63:1.5905994 64:2.3991366 65:0.45859318 66:-0.34736705 67:0.39034803 68:-0.46209602 
0.01 1:-1.6816331 2:0.31535219 3:1.1099108 4:-1.9225798 5:-1.9175126 6:-1.254952 7:-0.8286146 8:-1.3066116 9:0.1609235 10:0.81572369 11:-1.199572 12:0.32706008 13:-0.23364519 14:-0.03987952 15:-0.17670399 16:0.45183644 17:-1.032909 18:-1.7320269 19:-0.38482206 20:2.1576179 21:0.063959437 22:-0.88281207 23:-0.48477454 24:-1.2285553 25:-0.76936071 26:-0.93515138 27:-0.38051531 28:5.3646552 29:-0.43498616 30:-0.59731049 31:-0.19849619 32:-0.58392613 33:-0.50310774 34:3.560387 35:-0.75912068 36:-0.34005204 37:-0.79423394 38:-0.60451673 39:-0.027237625 40:-0.75688985 41:-0.66523736 42:-0.88987386 43:-0.72013087 44:-0.46025813 45:-0.52537501 46:-0.73318112 47:-0.80680312 48:-0.95708089 49:-0.37976661 50:0.28023974 51:-0.3097181 52:0.86488604 53:-0.34596472 54:-0.56646434 55:-1.4542241 56:-0.94993607 57:-0.65981955 58:-1.4771156 59:-0.71917545 60:-1.2953054 61:-0.55196182 62:0.22312003 63:-0.46181255 64:-0.63202753 65:-0.16889455 66:-0.83329329 67:-0.28402285 68:-0.39627734 
0.01 1:-0.48757999 2:0.032525558 3:-0.12233569 4:-0.0001674309 5:0.57423383 6:-0.12487852 7:0.98218179 8:-0.24844377 9:-0.2352369 10:-0.2953311 11:-0.0043077955 12:0.60253908 13:-0.39239319 14:1.5598606 15:0.22266201 16:0.16444554 17:-0.74599315 18:-1.4831072 19:-0.68491609 20:-0.36129979 21:0.30549747 22:-0.18035089 23:-0.48375015 24:0.55202562 25:-0.41148876 26:0.50446635 27:0.72217054 28:1.3799415 29:0.014252689 30:-0.40036007 31:-0.91494479 32:-0.18560433 33:-0.50143946 34:1.1151237 35:-0.44082346 36:1.2736613 37:0.032042524 38:-0.30991922 39:0.61381424 40:0.077224436 41:0.73826945 42:-0.26997411 43:0.73493963 44:0.31919417 45:0.244473 46:1.122338 47:0.9443083 48:2.3855362 49:2.4214242 50:1.2964472 51:1.9137988 52:1.3264489 53:1.5345161 54:0.77599246 55:2.7934173 56:0.39894118 57:-0.52783688 58:0.87955521 59:-0.19775842 60:1.877988 61:1.9076328 62:2.1610663 63:0.58496187 64:0.43516576 65:-0.49897425 66:0.068938524 67:-0.42624986 68:1.5716453 
0.01 1:-2.2588018 2:2.4041477 3:-0.41520257 4:-1.4995985 5:0.05746426 6:-2.3152936 7:2.9397273 8:-2.2219079 9:-0.76453006 10:0.71503395 11:1.937315 12:0.63634442 13:0.63669375 14:0.98980096 15:1.5784061 16:1.3991528 17:1.9991394 18:0.36189678 19:1.414254 20:1.0781651 21:1.6768412 22:-1.3821491 23:-0.99589559 24:0.90006737 25:-1.308843 26:-1.0835691 27:-1.2767264 28:3.1013715 29:-0.82799174 30:-1.2156886 31:-1.5316072 32:4.8790961 33:-1.1306701 34:3.9904895 35:-0.98669929 36:2.6443372 37:-0.50175277 38:-0.26909544 39:0.34114683 40:-1.5999532 41:1.999042 42:-1.0573031 43:-0.47253638 44:-1.1635853 45:-0.13477904 46:-0.9206661 47:-0.89645025 48:-0.049797178 49:-0.12097748 50:-1.2878774 51:-1.1676869 52:-1.6270883 53:-1.633781 54:-1.3449546 55:-1.9623672 56:-1.38159 57:-1.1573305 58:1.0762044 59:-1.29664 60:-0.98615415 61:-1.306068 62:2.9217073 63:-1.0003957 64:-1.2963814 65:-1.5831377 66:4.4360334 67:-1.1703261 68:0.62317462 
0.01 1:-0.42740452 2:-0.14097806 3:0.33996711 4:-0.9332125 5:-1.9896463 6:0.063892449 7:-0.2048435 8:-0.13763073 9:0.42576446 10:-0.6072392 11:-0.65448667 12:-1.6799986 13:-1.8055272 14:-1.8828413 15:-2.4709386 16:-1.4964545 17:-1.661776 18:-0.41689611 19:-0.73366866 20:-0.55527547 21:-1.0364198 22:0.083721617 23:0.73824587 24:-0.73088196 25:-0.096642287 26:1.7166058 27:-0.066350317 28:-0.90838912 29:0.1821876 30:0.77246058 31:-0.81004459 32:-0.42423254 33:0.80552796 34:-0.47912128 35:-0.88812172 36:-0.30022137 37:-0.44157162 38:-1.1239509 39:-1.1228839 40:-1.036509 41:-0.73889863 42:-1.0959193 43:-0.52443723 44:-0.5296729 45:-0.084319773 46:-0.55364853 47:0.36031852 48:-0.71670068 49:-0.21993818 50:-1.0152895 51:-0.20546418 52:-0.53268533 53:-0.40090931 54:-1.4518604 55:-1.3976445 56:0.095152261 57:1.0685849 58:-0.8331664 59:0.12090637 60:0.036342301 61:0.28816135 62:-1.0336663 63:0.08464959 64:0.42381677 65:-0.8943163 66:-0.8427627 67:0.47850002 68:-1.2869608 
0.01 1:-0.67016954 2:-0.36171394 3:-0.048857742 4:-0.26418924 5:0.21880005 6:-0.3493962 7:-0.061074203 8:-0.37619331 9:0.17352478 10:0.039597006 11:0.36179245 12:0.62008839 13:-0.14781018 14:1.1719775 15:0.56142212 16:0.45080454 17:-0.065551365 18:-0.027214204 19:-0.4811172 20:-0.84559926 21:-0.43185277 22:0.0065471486 23:-0.28529446 24:0.85462906 25:-0.3350664 26:-0.18938855 27:-0.57413515 28:0.35277064 29:-0.41747439 30:-0.20366607 31:0.019832166 32:0.18769588 33:-0.24612189 34:0.02822065 35:-0.097267464 36:0.2406802 37:-0.030516876 38:0.091177046 39:-0.013395482 40:0.44189436 41:-0.36372234 42:0.40386567 43:-0.068539427 44:0.22568319 45:0.20045004 46:-0.43737107 47:1.4822831 48:0.72961165 49:0.064292987 50:-1.0341194 51:-0.28347456 52:-0.4829648 53:0.16342998 54:0.32147663 55:0.056360574 56:-0.47112208 57:-0.032016173 58:0.61943711 59:-0.30507125 60:-0.3519076 61:-0.39506072 62:0.41200848 63:-0.58533481 64:-0.43526885 65:-0.033931052 66:-0.10743078 67:0.26241372 68:-0.085465974 
0.01 1:1.6884139 2:-0.63427157 3:0.10784355 4:1.2231644 5:0.19990036 6:1.3570375 7:-0.66888611 8:1.3435691 9:0.42588917 10:-1.4121246 11:-0.44790426 12:0.32549122 13:-1.0561637 14:-0.046281209 15:-0.56701071 16:0.011574 17:-0.39009729 18:-0.059496566 19:-0.52485678 20:-0.26858484 21:-0.47468346 22:-0.35473812 23:0.42458401 24:-0.96081742 25:-0.36437343 26:-0.89279442 27:0.58311218 28:-0.64534918 29:0.048324929 30:0.66402972 31:0.68018452 32:-0.82079571 33:0.13868969 34:-1.1180249 35:1.1743336 36:-0.0056901261 37:-0.01743211 38:0.69488905 39:-0.20174361 40:0.60769466 41:-0.59123305 42:0.8708604 43:-0.34896976 44:0.17772806 45:-0.39626429 46:-0.47127459 47:-0.24522839 48:-0.46172995 49:-0.96202122 50:-0.50324399 51:-0.60537231 52:-0.40951403 53:-0.87942367 54:-0.67442286 55:-0.070375503 56:-0.242922 57:0.66183647 58:-0.74645058 59:-0.38930864 60:-0.83455529 61:1.059982 62:-0.45517541 63:-0.055779447 64:1.4938162 65:0.92793704 66:-0.64628287 67:0.56834209 68:-0.32121259 
0.01 1:-0.23335298 2:-0.84005908 3:0.16921635 4:-0.17345448 5:-0.29569113 6:-0.070130316 7:-0.28886623 8:-0.28058278 9:-0.11159563 10:-0.16023176 11:-1.3478196 12:-1.341159 13:-0.3760559 14:0.39416512 15:-0.39599974 16:-1.122882 17:-0.39275544 18:-1.9984412 19:-0.89214373 20:-3.2568306 21:-2.5210417 22:3.2359213 23:0.77334977 24:-0.50482251 25:0.13869273 26:-0.83001579 27:-0.46023623 28:-0.55238101 29:1.9893237 30:1.0958332 31:-1.2804512 32:-0.9200153 33:0.47508302 34:-0.49200968 35:-0.090255845 36:-0.33269041 37:0.21434825 38:-0.42631567 39:-0.1974261 40:0.50081822 41:-0.27526771 42:-0.0022926005 43:-0.27523965 44:0.45415125 45:0.013943182 46:2.3069003 47:0.56547795 48:0.57541844 49:-0.34599151 50:0.75551569 51:0.64722145 52:0.78827512 53:-0.047770001 54:-0.38846736 55:1.2637783 56:2.4409052 57:0.84893557 58:-0.23260409 59:0.31414561 60:-0.6138471 61:-0.56282351 62:-0.098112979 63:3.3878703 64:1.2538903 65:-1.3196677 66:-1.0746153 67:0.14886052 68:0.088428984 
0.01 1:0.99427937 2:-0.21516896 3:0.59894576 4:0.64461841 5:-0.49253386 6:1.3493506 7:-0.52350121 8:1.3594155 9:0.75542494 10:-1.2787248 11:0.18808929 12:-1.5059709 13:-0.59213921 14:0.069308688 15:0.097945134 16:-1.6917465 17:-0.73022312 18:1.3565982 19:-0.47001627 20:-1.321856 21:-2.7939432 22:0.94450329 23:-0.40893684 24:-1.1604513 25:-0.82924115 26:-1.1151653 27:-0.014578613 28:-0.85580082 29:0.30654593 30:-0.095850262 31:0.71366654 32:0.13450686 33:2.5633415 34:-0.95558376 35:0.22421012 36:0.048124019 37:-0.36765423 38:-0.10489682 39:0.46552597 40:-0.05424265 41:-0.65245169 42:0.080869133 43:-0.56481455 44:-0.36864125 45:-0.49980901 46:0.70987243 47:-0.31280782 48:-0.50772204 49:0.42423526 50:-0.87121788 51:-1.16453 52:-0.51198394 53:0.47421234 54:0.0075985429 55:-0.24390219 56:0.36516241 57:-0.37819791 58:-1.3283907 59:-0.66399848 60:-1.1693736 61:0.069940575 62:-1.0760957 63:-0.13206618 64:-0.27557043 65:0.42776507 66:0.25438599 67:2.2757273 68:-0.79981864 
0.009883769639609342 1:-1.5905069 2:-1.1608548 3:0.33191922 4:-0.92280904 5:-0.039931877 6:-1.4102073 7:1.4516955 8:-1.3423632 9:-1.3551329 10:0.41816545 11:-0.44225009 12:1.100569 13:1.2949859 14:0.84294367 15:0.7664171 16:1.1008841 17:0.9126736 18:1.2725904 19:1.7928806 20:1.2160122 21:1.05503 22:-1.0947972 23:-0.49272388 24:0.62779649 25:-1.0648506 26:-1.0588467 27:-1.1036563 28:-0.16558418 29:-0.094052957 30:-0.75341748 31:-0.43325505 32:5.9203616 33:-0.86170626 34:2.1079555 35:-0.49204719 36:-0.91526842 37:-0.55076033 38:0.47150553 39:1.8058871 40:0.044824284 41:1.255488 42:0.065540872 43:0.050758482 44:0.27317752 45:-0.27816406 46:1.5200842 47:0.34225427 48:0.85896634 49:0.22797863 50:0.38170154 51:0.66937151 52:1.2935856 53:0.85328726 54:1.1196727 55:0.2228698 56:-0.75533651 57:-0.22099468 58:1.3164714 59:-1.02483 60:-1.2329332 61:-1.0343104 62:-0.075001164 63:0.91166602 64:-0.48492514 65:0.74280197 66:3.937261 67:-0.84104212 68:0.71889967 
0.01 1:-1.794018 2:-0.5435504 3:0.39709718 4:-1.3635899 5:-0.014990387 6:-2.020824 7:1.7579483 8:-1.3995203 9:-1.4594673 10:1.6291571 11:0.36273941 12:0.79198324 13:0.95463311 14:0.68363302 15:0.67887926 16:1.142108 17:0.092182443 18:0.30857555 19:0.80029161 20:-0.0095596766 21:0.85103959 22:-0.19282931 23:-0.82418863 24:-0.27474356 25:-1.0957317 26:-1.1167298 27:-1.2090595 28:3.7778953 29:-0.29892094 30:-0.81817537 31:1.647191 32:1.6139453 33:-1.0229435 34:3.23511 35:-0.17999377 36:-0.044891648 37:-0.38140127 38:0.75657169 39:2.217105 40:-0.4711221 41:1.2069253 42:0.31079827 43:0.22890074 44:0.036278007 45:0.22654814 46:-0.28180618 47:-0.54541788 48:0.34552644 49:-0.98361088 50:0.087978728 51:-0.65922926 52:-1.4354709 53:0.26743932 54:-0.14844634 55:0.38539136 56:0.71711371 57:-0.79539827 58:-0.0089549393 59:-0.97993409 60:-1.3062408 61:-1.1855026 62:2.9533203 63:0.24220161 64:-0.71187395 65:1.8993725 66:1.5174527 67:-0.94374085 68:1.3799418 
0.01 1:-1.8315716 2:-1.1751903 3:-0.59112866 4:-1.6530926 5:-0.36404789 6:-2.061811 7:1.4402075 8:-1.8184015 9:-2.9949817 10:1.3412577 11:0.78936219 12:1.4378579 13:1.8550726 14:1.2013936 15:1.0449637 16:0.66734696 17:1.0457931 18:0.47667914 19:1.4165256 20:0.57375251 21:1.387833 22:-0.56051323 23:-0.95854004 24:-0.38558001 25:-1.2476453 26:0.16626227 27:-1.2538724 28:1.8392419 29:-0.81514412 30:-1.177821 31:-0.17578344 32:4.7350278 33:-1.1485016 34:2.6360347 35:0.054151706 36:-0.31754759 37:0.26346757 38:0.49715282 39:0.32041882 40:-0.25921942 41:1.6060299 42:-0.21714955 43:0.53770311 44:0.12703619 45:-0.0030261399 46:-0.47898202 47:-1.2341165 48:-1.2579643 49:-0.40562616 50:-1.4052802 51:-1.1615152 52:-1.2717755 53:-0.94508357 54:-1.1442879 55:-0.94180261 56:0.16426304 57:-1.0807137 58:-0.5055102 59:-1.2323255 60:-0.10929831 61:-1.2712624 62:2.1731916 63:-1.007625 64:-1.2967605 65:1.3019328 66:3.8784549 67:-1.1017213 68:1.2891673 
0.01 1:-0.25948633 2:-1.0054562 3:0.0052956992 4:-0.11658133 5:-0.052030325 6:-0.081807741 7:0.84865793 8:-0.17380224 9:-1.2459605 10:-0.63273167 11:-0.97831907 12:0.45212523 13:-0.55409054 14:0.83266411 15:0.59780335 16:1.3951169 17:0.05879329 18:-0.56794422 19:-0.45653031 20:0.84183374 21:1.3533452 22:-1.0429954 23:1.832628 24:-0.39995318 25:-0.1079699 26:0.68268341 27:1.021754 28:-0.50592 29:-0.31450078 30:-0.56018814 31:-1.0475108 32:0.60992094 33:-0.742126 34:0.20575302 35:-0.22588066 36:-0.33254713 37:0.92927356 38:-0.12692502 39:1.1202969 40:0.2097609 41:0.44012578 42:0.043025598 43:0.19108365 44:-0.26872813 45:0.48801479 46:1.4106607 47:0.41264946 48:1.1955032 49:0.85527049 50:2.3619689 51:3.4911806 52:2.1961662 53:2.165465 54:-0.18630358 55:1.2096167 56:-1.0493697 57:4.3347274 58:0.20432124 59:0.55548005 60:1.656335 61:1.7567595 62:0.0083984339 63:-0.40792771 64:-0.404858 65:-0.69398845 66:2.313993 67:-0.76105468 68:1.0162016 
0.01 1:-1.7079766 2:1.2415951 3:0.38693954 4:-1.233031 5:-0.1958506 6:-1.7087823 7:1.1338466 8:-1.4537171 9:-0.22527515 10:1.1770912 11:0.081917564 12:1.3291661 13:0.6468387 14:-0.23735938 15:1.3249298 16:0.98908473 17:0.98812418 18:0.64571487 19:0.44760357 20:-0.16713225 21:0.61253507 22:0.70987436 23:-0.32523685 24:0.96358108 25:-0.68910483 26:-0.91857142 27:-1.058153 28:-0.25722344 29:-0.72013909 30:-0.97332792 31:-0.88266099 32:4.7517878 33:-0.14143609 34:1.8002791 35:-0.50090488 36:1.3832861 37:-0.72601474 38:0.40037786 39:1.2686479 40:-0.40951248 41:0.97682367 42:-0.12007503 43:-0.68089456 44:-0.26481399 45:0.1314953 46:0.3303186 47:0.093566799 48:-0.43352156 49:-0.57685632 50:-1.1197634 51:-0.92085667 52:-0.92024824 53:-0.44669881 54:-0.67991653 55:-0.51585683 56:0.28574725 57:-0.21775359 58:1.0538623 59:-0.17049234 60:-1.1672022 61:-0.88924419 62:-0.15938758 63:-0.84554192 64:-0.9795031 65:-0.81731652 66:2.2986926 67:0.3025669 68:-0.25572573 
0.01 1:0.50067305 2:-0.86791622 3:-0.28346174 4:0.23569736 5:-0.46980327 6:0.069399894 7:-1.103855 8:0.31542041 9:0.016182828 10:0.086613136 11:0.28772814 12:-0.33878474 13:-0.10624728 14:-0.43597729 15:0.50526748 16:0.9464948 17:0.10720743 18:0.040369385 19:-0.045989556 20:-1.6499378 21:0.78198497 22:0.18102818 23:0.77059918 24:2.11574 25:-0.3020958 26:0.017550789 27:-0.68922812 28:-0.97212739 29:0.32035219 30:-0.15262879 31:-0.75843901 32:-1.0697194 33:-0.37942703 34:0.26027633 35:0.34630738 36:-1.1817977 37:-0.6390382 38:0.17624051 39:-0.82912856 40:-0.9577962 41:-0.85104089 42:-0.38989464 43:-0.25950241 44:-0.68417901 45:-0.71741135 46:-0.43849621 47:-0.37465043 48:-1.1387949 49:-1.5127479 50:-0.34518718 51:-0.49253521 52:-1.1694124 53:-1.1112657 54:-1.0123804 55:-0.82698726 56:-0.31441384 57:0.53729795 58:0.070153107 59:-0.64430523 60:-0.67032753 61:-0.60145691 62:-1.2685244 63:0.21561621 64:-0.85481511 65:-0.73373292 66:-1.1807465 67:-0.48588823 68:-0.66666225 
0.01 1:-0.91694625 2:0.49318683 3:0.2198623 4:-1.0902084 5:-0.67219755 6:-0.56138356 7:0.54500059 8:-1.000182 9:0.43176706 10:0.13374113 11:-2.2935266 12:1.2017031 13:1.3718067 14:1.2242845 15:-0.27142348 16:-0.47599511 17:0.54423298 18:0.69610749 19:0.25143365 20:0.67374429 21:0.48914829 22:-0.5772505 23:-0.10574116 24:0.90188259 25:-0.45907172 26:-0.37847499 27:-0.72026361 28:0.61291546 29:0.069857891 30:0.67009356 31:-0.54136187 32:-0.32509058 33:0.11451212 34:0.25913884 35:-0.68503754 36:1.2282235 37:-0.33987532 38:-0.3126772 39:0.87443139 40:-0.12301893 41:0.58622941 42:-0.82975931 43:-0.061404004 44:0.46952516 45:0.89938633 46:0.75819389 47:0.79729954 48:0.67304988 49:1.2085506 50:0.69805091 51:0.36788493 52:1.0743922 53:-0.49616397 54:0.11038129 55:0.20270384 56:-0.31616574 57:0.21987386 58:1.5825925 59:-0.22467239 60:-0.091692653 61:-0.69404918 62:0.93228697 63:0.018932214 64:1.2483125 65:0.092059785 66:-0.31291505 67:0.38092672 68:1.2149948 
0.01 1:-0.44028016 2:-0.98287326 3:-1.5042047 4:-0.85091117 5:-0.88797159 6:-0.52096541 7:0.37192035 8:-0.49866027 9:-1.8104635 10:0.3126827 11:0.18572009 12:0.97580908 13:0.5292367 14:-0.30732446 15:0.27223064 16:1.8361226 17:0.271974 18:-0.89148252 19:-0.62268342 20:0.80152063 21:0.92112712 22:-0.06786933 23:-0.38226274 24:0.78385068 25:-0.019464001 26:0.36188506 27:-0.73541331 28:0.86763354 29:-0.51203041 30:-0.56371905 31:-0.59034351 32:0.34562413 33:-0.62332428 34:0.55577275 35:0.27540785 36:0.37773567 37:1.0725851 38:-0.016614896 39:-0.48691256 40:0.23285218 41:0.24690234 42:0.061180926 43:0.29957506 44:0.6717934 45:-0.16968666 46:-0.35880029 47:0.028127253 48:1.0724737 49:0.31988935 50:-0.040408937 51:-0.53765029 52:-0.47525535 53:-0.10532226 54:-0.1831301 55:-1.3256345 56:-0.143719 57:-0.47118619 58:0.6313322 59:0.00033940205 60:0.073237831 61:-0.86565395 62:1.0032416 63:-0.7943605 64:-0.64253904 65:-0.49188349 66:0.72512815 67:-0.74742888 68:0.89628225 
0.01 1:-0.48563145 2:-0.79457939 3:0.073390559 4:-0.5872635 5:-0.20066808 6:-0.71830739 7:0.4420771 8:-0.45639969 9:-0.044996166 10:1.0822609 11:0.11079954 12:-0.15473925 13:-0.66228575 14:0.40440482 15:-1.513243 16:-0.74727957 17:-0.17469581 18:-1.3036323 19:0.1411225 20:-0.026605823 21:-0.046552953 22:0.94838642 23:0.010232191 24:-0.076797628 25:0.42373439 26:0.27054818 27:0.14970927 28:-0.5722899 29:-0.5191105 30:0.95472891 31:0.75752162 32:-0.083691922 33:-0.05382533 34:-0.43322588 35:0.21258327 36:-0.12122956 37:-0.038699792 38:0.40266323 39:1.277462 40:0.11907997 41:0.48837252 42:0.38347705 43:-0.57661869 44:-0.37689782 45:-0.34409193 46:0.51199375 47:-0.92122126 48:0.18390694 49:-0.90546637 50:0.2538729 51:-0.56965667 52:1.4700232 53:0.81796219 54:0.73276436 55:-0.89348511 56:0.58692675 57:0.1491804 58:0.24364622 59:0.83049304 60:1.0943436 61:0.21887083 62:-0.66233169 63:-0.76519744 64:0.65299741 65:0.47684131 66:0.60701748 67:-0.21883934 68:-0.31523097 
0.01 1:0.10729745 2:-0.16006921 3:-0.57207616 4:0.037506463 5:0.24549847 6:0.023339083 7:-0.011519021 8:-0.16739057 9:-0.69812589 10:-0.11231546 11:-0.44470503 12:-0.53801842 13:-0.60252773 14:-0.68121655 15:-0.3318757 16:-0.29420715 17:-2.1996976 18:-2.0161368 19:-1.3610043 20:-1.5206436 21:-0.2721843 22:0.63727811 23:-0.41520684 24:-0.21291902 25:4.4441416 26:0.68284968 27:-0.42570496 28:-0.77666783 29:-0.26654199 30:-0.51194862 31:-0.7582827 32:-0.81868361 33:-0.1795333 34:-0.16789157 35:-0.1752317 36:-1.499488 37:0.29080537 38:-0.44923445 39:-1.0216704 40:0.34711924 41:-0.14476849 42:-0.18259079 43:-1.0480734 44:-0.26579933 45:-1.2467769 46:-1.4827604 47:-1.4600887 48:-1.3778525 49:-1.8650279 50:-1.7338206 51:-1.1000719 52:-1.2655374 53:-1.4424193 54:-0.86742078 55:-0.93447477 56:0.41385353 57:-0.77027776 58:0.03759178 59:1.7451894 60:-0.90003725 61:-0.76607529 62:-1.0892668 63:-0.59777166 64:-0.89033409 65:-0.81192592 66:-0.9549722 67:-0.076611773 68:0.21101981 
0.01 1:-0.34797291 2:-1.5538296 3:0.24987896 4:-0.47111272 5:-0.21957535 6:-0.23732558 7:-0.29459584 8:-0.35574854 9:-1.7615727 10:0.69238118 11:-1.18838 12:-0.75069044 13:-0.72110198 14:-0.29657242 15:-1.2442626 16:-1.2771065 17:-0.84119091 18:-0.702804 19:-0.16090702 20:-1.0880223 21:-0.64245061 22:0.19758836 23:0.14903316 24:-0.81403965 25:0.53331092 26:0.051622726 27:0.78410593 28:-0.62454285 29:0.79658768 30:0.97232122 31:0.90990047 32:-0.68520568 33:0.31995314 34:-1.0994993 35:-0.23539343 36:-1.0236568 37:-0.1897279 38:-0.22157398 39:-0.1265073 40:-0.020616631 41:-0.38287079 42:-0.069218508 43:-0.44352386 44:-0.64974728 45:-0.18187175 46:-0.60467758 47:-0.59112055 48:-0.56040041 49:-0.45845352 50:-0.22103152 51:-0.66810792 52:-0.74222669 53:-0.64341306 54:-0.56532923 55:-0.75321817 56:0.01007144 57:-0.13837551 58:-0.92949641 59:0.25649789 60:0.57680881 61:0.72021727 62:-0.85535819 63:0.35418171 64:0.22567876 65:0.4803846 66:-0.88020462 67:-0.0096421438 68:-0.78571048 
0.01 1:-1.2095218 2:1.2103666 3:-0.041246623 4:-1.8936225 5:-2.5113831 6:-0.97965085 7:1.0869929 8:-1.1752673 9:0.80170654 10:0.49799736 11:-2.8622235 12:-1.4662381 13:-2.840105 14:-2.7741667 15:-2.0837548 16:-0.32332605 17:-0.59982675 18:-0.33232693 19:-1.1773939 20:-0.59360471 21:-1.2681644 22:0.79925056 23:2.9075636 24:-0.9161902 25:0.40934714 26:-0.43756586 27:0.6569969 28:-0.81485698 29:0.17639678 30:0.67150765 31:0.15713649 32:-0.21201524 33:1.1585659 34:-0.65094384 35:-0.99799157 36:1.5540081 37:-0.03417261 38:-1.1166286 39:-0.48636826 40:-0.92955529 41:0.055936151 42:-1.129372 43:-0.54174044 44:-0.18019908 45:0.40987657 46:0.94145676 47:0.48236888 48:1.0431249 49:0.63236031 50:-0.57352793 51:0.014072398 52:-0.3473032 53:-0.18604745 54:-0.97570883 55:-0.35217454 56:0.78033905 57:2.6817826 58:-0.80720267 59:0.74971117 60:0.58608259 61:1.129992 62:-0.90418076 63:0.28596853 64:0.83061407 65:0.35088893 66:0.12086668 67:0.46040039 68:-0.85160951 
0.009608721156995291 1:0.039900932 2:-1.2301381 3:-0.26281177 4:-0.13450629 5:-0.17383614 6:0.53872783 7:-0.54628518 8:0.36235869 9:-0.4865921 10:-0.12873507 11:-0.018240324 12:-0.057622936 13:-1.2105486 14:0.16851505 15:0.75562554 16:-1.43361 17:-0.51422474 18:-0.52088133 19:-1.5370514 20:-0.37808384 21:-0.6593459 22:1.5227277 23:0.28249928 24:-0.85583283 25:-0.15399296 26:0.075269644 27:0.52727942 28:-0.53792946 29:-0.047506638 30:0.10729569 31:0.77556534 32:-0.51469386 33:-0.22764797 34:-1.0261979 35:-0.12354201 36:-0.60204685 37:-0.051971042 38:-0.085248575 39:0.77462022 40:0.30081563 41:-0.79695149 42:0.11310879 43:0.55694304 44:-0.26577384 45:-0.36005441 46:-0.60888504 47:-0.47125382 48:-1.0251392 49:0.35965871 50:-0.00044439065 51:-0.21321348 52:-0.26465409 53:-0.6836285 54:-0.21545688 55:-0.33309975 56:0.49558994 57:0.1984933 58:-1.0151127 59:-0.38644961 60:0.22790733 61:-0.0088541459 62:-1.0546013 63:-0.47268836 64:-0.50723528 65:0.30676077 66:-0.91319767 67:-0.5630062 68:-1.2275044 
0.01 1:-0.10555176 2:0.16501028 3:0.23955305 4:-0.1311562 5:-0.05952712 6:-0.16255425 7:-0.14761437 8:0.29824197 9:0.67122502 10:-0.1214264 11:1.0598392 12:0.10256758 13:0.52602122 14:0.39450294 15:0.82321076 16:-0.99942468 17:-0.30974422 18:0.10278889 19:0.70971449 20:0.73213371 21:-0.057822801 22:-0.80319783 23:-0.75970044 24:-0.024680406 25:-0.50385999 26:-0.24000915 27:0.64832898 28:0.39700929 29:0.24487231 30:0.17944846 31:1.3916624 32:0.171558 33:-0.8907237 34:-0.097082331 35:0.1176419 36:0.42236907 37:-0.19042605 38:0.28936565 39:1.3344861 40:0.31044631 41:-0.49901632 42:0.78645327 43:-0.099411539 44:-0.71220405 45:-0.24789982 46:1.009802 47:-0.25750094 48:0.10058319 49:-0.29691759 50:-0.12451244 51:-0.21668007 52:-0.89887276 53:-0.95592956 54:-0.96170862 55:-0.35829386 56:-0.76049282 57:-0.96723621 58:0.22588207 59:-0.59285395 60:-0.57417571 61:1.0522388 62:0.42565862 63:0.42649371 64:0.15069405 65:1.0561581 66:0.074789672 67:-0.96121681 68:-0.13990704 
0.01 1:-0.64472391 2:0.16056318 3:-0.4516045 4:-0.68711264 5:-0.10259328 6:-0.47795443 7:-0.30684975 8:-0.85114092 9:1.0319618 10:-0.020213896 11:0.26204219 12:0.57933702 13:0.31462264 14:0.19735901 15:0.055264245 16:0.55623998 17:-0.9097272 18:0.31847226 19:-0.048158066 20:0.80279108 21:0.54902823 22:-0.71441477 23:-0.76315899 24:0.38876891 25:2.0352752 26:1.1214091 27:-0.19792322 28:0.95762123 29:0.11614596 30:-0.69636668 31:-0.76178458 32:0.09585939 33:-0.58870128 34:0.41192649 35:-0.70082251 36:-0.44398209 37:-0.78017021 38:-0.81280825 39:-1.2917105 40:-0.48989203 41:-0.55686773 42:-0.60023005 43:-0.9954794 44:-1.0389881 45:-1.072715 46:-0.97803744 47:-1.405456 48:-1.6720315 49:-1.5455538 50:-1.447948 51:-1.4413888 52:-2.0411285 53:-2.1756972 54:-1.7678844 55:-1.7136944 56:-0.68551683 57:-0.96252609 58:0.029546983 59:0.31543668 60:-0.22326002 61:-0.55399779 62:1.3857017 63:0.50411226 64:-1.0524383 65:-0.65988822 66:-0.25950659 67:-0.96231895 68:0.59969029 
0.01 1:-0.56391686 2:-0.20163245 3:0.20463076 4:-0.471796 5:-0.15843533 6:0.0024831647 7:-0.61270818 8:-0.39591222 9:0.81722517 10:-0.38868504 11:0.25759344 12:0.89273031 13:0.60669204 14:0.23919873 15:0.12256001 16:0.2602641 17:-0.39138764 18:0.24437069 19:-0.40837764 20:0.4653703 21:0.14940286 22:-0.69605606 23:-0.74470056 24:0.14519741 25:1.04919 26:0.95364457 27:0.19639934 28:1.0497735 29:-0.29558928 30:-0.58740847 31:-0.60724545 32:-0.19090306 33:-0.71782729 34:0.37216204 35:-0.52683797 36:-0.094036901 37:-0.23866908 38:-0.75039579 39:-0.27319917 40:-0.11913557 41:-0.62380574 42:-0.5470534 43:-0.47896861 44:-0.64190925 45:-0.44082992 46:-0.086932442 47:-0.50888642 48:-0.75534663 49:0.59022401 50:-0.33496977 51:-0.6440988 52:-0.16583377 53:-0.76580281 54:-1.0443959 55:-0.76122139 56:-0.88163991 57:-0.94119938 58:0.22652818 59:0.8566297 60:0.64012796 61:0.4601044 62:1.8897019 63:-0.50806975 64:-0.60363716 65:-1.0128862 66:-0.19953725 67:-0.75502793 68:1.1629505 
0.01 1:0.16919221 2:0.49571672 3:0.28012041 4:0.65307082 5:0.60515603 6:0.28211163 7:0.76577275 8:0.091374826 9:-0.50604765 10:-1.4604768 11:0.51391305 12:0.41844442 13:0.46753561 14:-0.60779636 15:-0.50179244 16:0.34299412 17:-1.3128564 18:-1.4390322 19:-1.3789995 20:0.062308666 21:1.1938937 22:-0.6557914 23:-0.29221083 24:3.9415748 25:-0.38570847 26:0.44452991 27:-0.17804471 28:-0.46784659 29:-0.27944248 30:-0.87098555 31:-1.1082991 32:-1.0630086 33:-0.075371747 34:2.1489992 35:0.60759482 36:1.0070356 37:-0.080471377 38:0.39986875 39:0.13446058 40:1.6949615 41:2.9986593 42:0.75810605 43:0.5078762 44:1.6875612 45:0.95790378 46:2.772185 47:0.38414997 48:0.25161332 49:2.7353681 50:0.64660265 51:3.0527636 52:2.0882647 53:1.3282076 54:0.95156979 55:2.7080598 56:-0.0076911121 57:0.50301339 58:7.0972086 59:0.032753665 60:2.3308927 61:0.38168451 62:0.086342712 63:0.086657334 64:-0.75099632 65:-0.33821167 66:-1.1460898 67:1.6783389 68:5.6808636 
0.005221122100999707 1:-0.93865661 2:1.3556214 3:0.79429123 4:-0.11831432 5:0.33669992 6:-0.8306027 7:0.84917575 8:-0.61372404 9:0.16232861 10:-0.61872317 11:0.55582043 12:0.58895487 13:0.159002 14:-0.37817184 15:-0.61596448 16:-0.18279682 17:0.31276272 18:-0.11567835 19:0.22474213 20:-0.29411314 21:-1.0758481 22:0.54783018 23:-0.71156776 24:6.8225286 25:-0.74890325 26:-1.1139484 27:-0.91598682 28:-0.3763133 29:-0.32961287 30:0.56799452 31:-0.76059059 32:-0.84980213 33:-0.74018427 34:3.7714893 35:-0.16119797 36:-0.11373549 37:-0.96439577 38:0.5013125 39:1.9595671 40:0.067693671 41:1.0310087 42:0.61767504 43:0.18425878 44:0.12453475 45:1.8857178 46:1.2037856 47:1.521033 48:1.1262031 49:2.706117 50:0.81763872 51:2.0337668 52:1.6363756 53:3.40725 54:2.0043511 55:1.9178602 56:1.3267168 57:-0.6676132 58:5.4288048 59:-0.41577312 60:-1.1621752 61:-0.65407941 62:0.60283189 63:-0.1325297 64:2.2904683 65:-0.40211963 66:-0.72810053 67:-0.59452097 68:3.8783475 
0.01 1:-0.63578356 2:0.90819192 3:0.7163291 4:-0.13539538 5:-0.29202037 6:-0.19298907 7:0.85331003 8:-0.52559736 9:0.26623487 10:-1.3230156 11:-0.1707697 12:-0.37750334 13:-0.16433269 14:-0.79639982 15:-1.3795222 16:-0.69054509 17:-0.94275875 18:-0.76731194 19:-1.2734671 20:-1.380929 21:0.84169945 22:-0.90838482 23:0.1638526 24:3.2294305 25:3.6323191 26:-0.37753423 27:-0.47244252 28:-0.69657328 29:-0.49039176 30:-0.49921935 31:-1.1517926 32:-1.0974037 33:-0.59172405 34:1.9311942 35:-0.5524362 36:0.66655643 37:-0.58954389 38:-1.0374964 39:-1.0039343 40:-0.0046156592 41:0.57992351 42:-0.40521955 43:-0.25965839 44:-0.09261685 45:0.63038929 46:0.35580539 47:-0.059749812 48:1.4364556 49:0.56727953 50:1.0901644 51:1.2767914 52:2.9232163 53:1.7242102 54:2.9577742 55:0.94863028 56:-0.30176806 57:0.21245601 58:4.1816066 59:1.7551969 60:0.80758343 61:-0.040344864 62:-0.37911389 63:-0.58082813 64:-0.32724631 65:-0.83220012 66:-1.1059804 67:-0.30890142 68:3.8614751 
0.01 1:1.0617049 2:0.031247116 3:1.2080168 4:0.88010101 5:0.52001603 6:1.6869491 7:-1.1938185 8:1.6131704 9:1.3568383 10:-1.0450707 11:0.31381005 12:0.58440118 13:0.30954595 14:0.49863008 15:-0.4936079 16:0.42996025 17:0.17250055 18:0.96232525 19:-0.024574106 20:-0.10655511 21:-0.11746029 22:-0.65609467 23:-0.22574383 24:-0.93573627 25:-0.22438325 26:0.16011312 27:-0.55096132 28:-0.58197538 29:-0.1271084 30:-0.22543723 31:1.280871 32:0.88424668 33:-0.25633108 34:-0.79315928 35:-0.49980992 36:-1.1243247 37:-1.1524432 38:-0.37941066 39:0.75566974 40:-0.67039895 41:-1.1243443 42:0.018313796 43:-0.98408 44:-0.91410539 45:-0.98124055 46:-0.91957348 47:-0.7375423 48:-0.88341873 49:-0.7974014 50:-1.4020014 51:-0.90991536 52:-0.59508379 53:-0.11331068 54:-0.57732228 55:-0.61887908 56:-0.70221494 57:-0.52191838 58:-1.3200368 59:-0.79946638 60:-0.59122253 61:-0.70355444 62:-0.69457559 63:-0.50746696 64:-0.7225238 65:0.21070974 66:0.17574362 67:-0.36357404 68:-1.0703491 
0.01 1:0.2621981 2:0.15468358 3:0.45505406 4:0.69488461 5:1.1392548 6:0.22432195 7:-0.24019372 8:0.13679227 9:0.29636403 10:-0.47868118 11:0.099050948 12:1.4739384 13:0.99342557 14:-1.0924106 15:-0.28189377 16:1.3082403 17:0.27440596 18:0.93641606 19:-0.0095993325 20:0.2169015 21:0.28490597 22:-0.66108139 23:-0.53974204 24:1.3650394 25:-0.64957811 26:-0.57418687 27:0.086406601 28:0.80705976 29:-0.38856606 30:-0.42753939 31:-0.24511446 32:0.27872245 33:-0.75123826 34:0.98234313 35:0.71175993 36:-0.025971947 37:-0.4786526 38:0.85089805 39:0.37715728 40:0.30197464 41:-0.3314333 42:1.082776 43:0.053323261 44:0.33019629 45:0.56758691 46:-0.11002611 47:0.60403513 48:0.52970922 49:2.0230916 50:0.20508409 51:0.63030173 52:0.45953724 53:0.094388977 54:-0.50382178 55:-0.026573447 56:-0.63584672 57:-0.73631633 58:1.5952287 59:-0.51948972 60:-0.36277142 61:0.53774963 62:1.4658526 63:-0.44756689 64:-0.17953996 65:0.31711211 66:1.5896239 67:-0.79882802 68:0.7133972 
0.01 1:2.3741358 2:-0.2424159 3:0.49194192 4:2.3672913 5:1.237072 6:1.9298378 7:-0.57119226 8:2.4101015 9:0.3760843 10:-1.13046 11:0.79859211 12:-0.41451988 13:0.82168588 14:-0.09749514 15:0.8340444 16:-0.55727945 17:1.0076991 18:-1.0367951 19:-0.86854584 20:-0.93839748 21:-0.36007293 22:-0.49342896 23:-0.020233887 24:0.0028545326 25:0.07239029 26:-0.43316746 27:-0.81104331 28:-0.76060632 29:-0.10956467 30:-0.45674091 31:-0.48810889 32:-0.57939073 33:-0.38319021 34:-0.92917443 35:1.0050268 36:-0.25083923 37:-0.29993875 38:0.586971 39:0.47185811 40:0.40141895 41:-0.59815191 42:0.90535323 43:-0.49806887 44:0.47964417 45:0.35626707 46:0.5463784 47:0.38630736 48:0.36407815 49:0.046633955 50:1.1121137 51:0.77711039 52:0.61677028 53:1.4879403 54:1.4168722 55:1.7873269 56:-0.19651042 57:0.039284166 58:0.061219615 59:0.70284809 60:-0.28246302 61:-0.87273226 62:-0.99983208 63:-0.37538154 64:-0.31677793 65:-0.12055398 66:-0.39339381 67:-0.45340815 68:-0.35540878 
0.01 1:-0.62088297 2:-1.4493192 3:-0.32747379 4:0.17058871 5:1.6690166 6:-0.86198335 7:0.12019191 8:-0.84291462 9:-1.4453144 10:0.37329685 11:-0.6869999 12:0.46951041 13:0.45876078 14:0.53543816 15:0.40497588 16:-0.27855541 17:0.83924441 18:0.39952199 19:-0.25266871 20:-0.49968418 21:0.41954559 22:-0.60958653 23:-0.42955347 24:1.1695915 25:-0.78804226 26:-1.0741005 27:-0.65693062 28:3.5343247 29:0.33006893 30:-0.16333758 31:-0.7494898 32:-0.50968445 33:-0.47451882 34:2.417478 35:-0.35063383 36:-0.77846214 37:-0.68388864 38:-0.094217016 39:1.2482706 40:-0.28409985 41:-0.3032458 42:0.2121784 43:0.081985016 44:-0.57244573 45:0.35594502 46:-0.027480031 47:0.16424083 48:0.56401004 49:-1.0158266 50:-0.98101857 51:-0.028023141 52:0.59325863 53:-0.32842141 54:-0.022138639 55:-0.4685895 56:-0.63825577 57:-0.19212458 58:1.5144305 59:-0.92641507 60:-1.3142303 61:-0.47309666 62:3.3195066 63:2.2979941 64:0.60856859 65:-0.54137107 66:-0.76897176 67:-0.28476737 68:3.0221427 
0.01 1:-0.15724535 2:-0.2507433 3:0.81404814 4:-0.37361875 5:-0.40954007 6:0.17423563 7:0.21323813 8:-0.075570588 9:0.019000088 10:-0.37429274 11:-0.19960627 12:0.76729437 13:0.10849328 14:2.1004336 15:1.5003839 16:-0.046968706 17:-0.43996823 18:0.13335509 19:-0.56669818 20:-0.77527725 21:-0.75808019 22:-0.86042919 23:0.0013089946 24:-0.79798369 25:0.47641824 26:-0.14609449 27:-0.43464703 28:-0.30906186 29:1.8123226 30:0.22584234 31:1.713976 32:0.026147529 33:-0.66878962 34:-0.3298287 35:-0.20293755 36:0.39808919 37:-0.62525076 38:0.10043641 39:0.67055073 40:0.039798569 41:-0.11068198 42:0.010983592 43:-0.028879982 44:-0.41510681 45:-0.14144505 46:0.40162866 47:0.29401155 48:0.04164177 49:0.40942123 50:0.5353436 51:0.87749525 52:0.74139513 53:1.0558585 54:1.8448202 55:0.52917968 56:-0.81153226 57:0.23807047 58:-0.52373887 59:0.57987572 60:0.22892896 61:-0.029973008 62:-0.14185179 63:2.7703857 64:1.0473499 65:1.6986463 66:0.57630483 67:-0.66807401 68:-0.55376065 
0.003210122397726075 1:0.013309108 2:-0.40005281 3:0.17884932 4:-0.091932653 5:0.10712882 6:-0.5602049 7:0.50404209 8:-0.41732479 9:-0.24794366 10:0.86739031 11:-0.30338417 12:0.61945768 13:-0.9287717 14:-0.48395653 15:1.4512526 16:-0.34144992 17:-0.87778459 18:0.79287868 19:-1.026306 20:-0.71386336 21:-1.0224408 22:0.23627453 23:0.52961359 24:1.0193278 25:0.98184535 26:-0.43028617 27:-0.45436749 28:0.044491933 29:-0.17301221 30:-0.0094218643 31:-0.22196407 32:-0.63307723 33:-0.31773061 34:0.12170617 35:0.64490312 36:0.3858603 37:-0.39290802 38:0.64550196 39:0.73745949 40:0.63939422 41:0.2854226 42:0.63790699 43:0.11313152 44:0.082033948 45:0.32995126 46:-0.1740011 47:-0.60211576 48:0.75099553 49:0.0090450342 50:-0.26915964 51:-0.42843343 52:-0.48866285 53:1.3268316 54:1.3138952 55:0.9533644 56:0.31074361 57:0.65931635 58:0.99322092 59:1.725261 60:-0.52666489 61:-0.20410189 62:0.33121986 63:-0.062565142 64:0.12990295 65:-0.015272991 66:-0.90243993 67:-0.11672963 68:0.37849336 
0.01 1:-0.014085056 2:-0.70213712 3:-0.72008702 4:0.47556333 5:0.89948168 6:0.017166238 7:0.13937587 8:0.14545062 9:-0.24650398 10:-0.10195484 11:-0.94314409 12:0.88985064 13:1.389451 14:0.43856781 15:-0.096549867 16:-0.92214769 17:-1.3024755 18:0.41511283 19:-0.44990368 20:-2.9593972 21:-0.492595 22:0.053113146 23:-0.17279013 24:-0.2703693 25:-0.063314854 26:-0.11407199 27:-0.69791136 28:0.69539121 29:0.23115331 30:0.65343213 31:2.1681506 32:-0.43472791 33:-0.43939025 34:0.51292788 35:0.17738885 36:-0.83883627 37:-0.23990154 38:0.30768551 39:0.46060544 40:-0.12964086 41:-0.36417182 42:0.59778389 43:-0.057883669 44:-0.25296506 45:0.14655724 46:-0.12264491 47:0.076538518 48:-0.73105705 49:0.0075359908 50:-0.52622495 51:0.22928449 52:-0.89396582 53:0.31551656 54:0.96639046 55:0.38185363 56:0.064696276 57:0.015329964 58:-0.17994981 59:0.059242488 60:0.18783166 61:-0.67612966 62:1.9472393 63:0.48811935 64:-0.13357125 65:-0.039930987 66:-0.25395614 67:-0.51388434 68:1.3100082 
0.01 1:-0.035060503 2:-0.41452234 3:0.60190218 4:0.48910987 5:1.33646 6:-0.18977517 7:-0.12016057 8:-0.013510445 9:0.010376665 10:0.58951666 11:-0.68790535 12:-0.77418332 13:-0.076752884 14:-1.627 15:0.51237874 16:-1.8086874 17:-1.1539641 18:0.83223664 19:0.36394558 20:-0.80443233 21:-0.29796129 22:-0.37137565 23:1.8849488 24:-0.23893581 25:0.74401581 26:-0.6487107 27:-0.14510273 28:-0.43358902 29:0.75726682 30:-0.024302472 31:0.60573569 32:0.31455572 33:-0.26447753 34:-0.32745577 35:-0.20428346 36:-0.39645068 37:-0.53761098 38:0.15587176 39:0.851819 40:-0.26928586 41:-0.26334818 42:0.29619265 43:-0.078355804 44:-0.60756217 45:-0.26863106 46:-0.35852589 47:-0.26711415 48:0.30279599 49:0.27877681 50:0.27104139 51:0.38095684 52:1.0456339 53:1.1426861 54:1.6173775 55:0.78359991 56:-0.17447376 57:2.4038146 58:-0.41534759 59:0.1098668 60:-0.50587768 61:0.068586955 62:0.16939824 63:0.69079178 64:-0.55191109 65:0.45380564 66:-0.13977068 67:-0.098109513 68:-0.19124394 
0.01 1:-0.37660706 2:-1.2862896 3:-0.26382769 4:-0.33010666 5:0.078302807 6:-0.059213593 7:-0.020494208 8:-0.3766992 9:-0.75820842 10:0.25584364 11:-0.72061729 12:0.68853914 13:0.39129476 14:-0.25115022 15:-1.2715043 16:-0.0099302702 17:-0.10451322 18:0.38201818 19:-0.23517163 20:-0.048492832 21:0.89561639 22:0.745181 23:-0.32040215 24:-0.50594858 25:-0.019434944 26:0.43931694 27:0.095768124 28:-0.4994186 29:-0.11212325 30:1.6165301 31:0.59142179 32:-0.63020252 33:0.092635842 34:-0.58574496 35:-0.54378663 36:-0.76026023 37:0.231037 38:-0.2778304 39:0.67901348 40:-0.0631484 41:-0.22332068 42:-0.31733966 43:-0.070328445 44:0.3750578 45:0.59590779 46:-0.42925013 47:0.24712721 48:-0.13042802 49:-0.49236874 50:-0.31768034 51:0.25633854 52:-0.23819523 53:-0.37697011 54:-0.28776547 55:-0.30445726 56:0.67242715 57:-0.65081638 58:-0.62239881 59:0.036102814 60:0.54222202 61:0.63048452 62:-0.5488444 63:-0.14287558 64:1.9478497 65:0.98746501 66:-0.48043608 67:-0.031314719 68:-0.52763602 
0.01 1:1.600031 2:-0.83984417 3:-0.050541505 4:2.1580815 5:2.0870997 6:1.3661429 7:-0.34303632 8:2.1609737 9:-1.1614059 10:-0.99191267 11:0.093237684 12:1.4622699 13:-0.16032815 14:0.048017763 15:0.75369798 16:0.042557869 17:1.1443044 18:1.2406512 19:0.85254089 20:0.52462598 21:0.84863683 22:-1.0043503 23:-0.52390298 24:0.69600187 25:-0.71170784 26:0.067659747 27:-0.89818222 28:0.39555387 29:-0.34185878 30:-0.58347131 31:-0.49938993 32:-0.43311913 33:-0.43879158 34:0.43729469 35:1.1940404 36:0.72918881 37:0.54246388 38:1.1770417 39:0.91032553 40:1.8777887 41:0.16411671 42:2.1364189 43:1.3553471 44:0.81440348 45:-0.19810082 46:-0.11597371 47:0.23662941 48:0.45828524 49:0.1762361 50:0.35647398 51:0.58730292 52:0.14999156 53:-0.12727042 54:0.85479802 55:-0.019828065 56:-0.95021502 57:-0.47804855 58:1.963238 59:-0.65764849 60:1.1943711 61:-0.74631923 62:1.0744587 63:-0.55084914 64:-0.70259572 65:-0.0068311347 66:-0.33889214 67:-0.61356149 68:1.4973206 
0.01 1:0.75820381 2:-0.042781449 3:0.5720631 4:1.0628814 5:1.1283204 6:0.71568136 7:-0.58585493 8:0.96102807 9:-0.1846975 10:-0.71560563 11:-0.46518253 12:1.6378017 13:-0.091860283 14:0.45256025 15:1.6953332 16:0.28657683 17:0.29382611 18:1.306569 19:0.50593665 20:1.0299715 21:1.1023384 22:-1.0615773 23:-0.57037205 24:1.4100525 25:-0.41249563 26:0.52319036 27:-0.74382636 28:-0.097598323 29:-0.17256467 30:-0.22630497 31:-1.1093649 32:-0.50243912 33:-0.80544116 34:0.34872429 35:0.75061447 36:-0.023079644 37:-0.2069472 38:0.24775714 39:0.098214203 40:0.59365143 41:-0.34194597 42:0.61361219 43:-0.099489473 44:0.58601702 45:0.64231682 46:0.97597248 47:0.7594854 48:-0.10767192 49:-0.041670242 50:0.16071638 51:-0.27963594 52:-0.022416837 53:-0.92741252 54:-1.0490191 55:-0.74156887 56:-1.1491603 57:-0.84136956 58:1.6965051 59:-0.61044979 60:0.43334313 61:-0.79163728 62:-0.21692871 63:-0.23628665 64:-0.51026325 65:-1.3013473 66:0.48046744 67:-0.96437687 68:0.98648863 
0.01 1:-0.28470271 2:0.11747441 3:-0.04342243 4:0.3269877 5:1.3660725 6:-0.31595531 7:0.55154336 8:-0.17537491 9:0.025171934 10:-0.080985711 11:0.57097746 12:0.21336021 13:0.072347423 14:0.041569652 15:0.3869033 16:0.063259256 17:-0.25363718 18:-0.53850318 19:0.050603952 20:0.3169742 21:-1.0405549 22:1.433971 23:-0.60406059 24:0.93868371 25:-0.37932926 26:-0.87356915 27:-0.30635326 28:1.3141524 29:-0.27785865 30:-0.54440848 31:-0.30543132 32:-0.01399134 33:0.69949069 34:1.0023399 35:0.19661984 36:0.40395284 37:0.16963731 38:0.10762877 39:0.45328362 40:0.85102853 41:0.24953136 42:0.79442225 43:-0.29437149 44:0.088190573 45:0.29483065 46:0.66610567 47:0.62317464 48:0.85379327 49:-0.29252402 50:0.2225873 51:-0.78481485 52:0.88499713 53:0.86934044 54:1.3662477 55:1.5902691 56:0.75589448 57:-0.6068064 58:1.4928675 59:0.038642798 60:-0.86125489 61:-0.14194453 62:1.9985776 63:-0.066953758 64:-0.41221469 65:0.20004968 66:0.31714433 67:1.1552705 68:1.9363202 
0.01 1:0.098013236 2:0.088882117 3:0.19328967 4:0.2992284 5:-0.040961228 6:0.13895663 7:-0.011027221 8:0.12875608 9:-0.030110197 10:-0.37934218 11:0.78624263 12:-0.85247069 13:0.15512391 14:0.24301376 15:-0.78981617 16:0.04986092 17:0.41913465 18:-0.5556596 19:-0.050310067 20:-1.338527 21:-1.8077518 22:0.36893779 23:-0.4023373 24:0.039094581 25:-0.32647233 26:-1.0312972 27:-0.74456091 28:0.27008071 29:0.56961382 30:-0.28106492 31:1.2867896 32:-0.18353874 33:0.20832083 34:-0.022343423 35:0.051128485 36:1.6161724 37:-0.075464134 38:-0.028039367 39:0.51335438 40:0.50871608 41:-0.2688491 42:0.50383977 43:0.95859212 44:0.1296554 45:0.32188599 46:1.8687328 47:-0.170843 48:0.99179067 49:-0.14277121 50:0.09624761 51:0.11018405 52:-0.54077119 53:-0.18427011 54:0.20171576 55:1.4382753 56:0.50108533 57:-0.25579227 58:0.68736001 59:-0.60133565 60:-1.0299272 61:-0.59729625 62:1.355034 63:0.70473595 64:-0.08583623 65:1.037154 66:0.053018893 67:0.26709966 68:1.182678 
0.01 1:0.45803444 2:-0.051515582 3:0.15089181 4:1.4789568 5:1.5616203 6:0.37852961 7:0.1211758 8:0.74609119 9:-0.16746579 10:-0.52954142 11:0.87698572 12:0.4847301 13:1.284549 14:0.91389932 15:0.24345497 16:-0.43642412 17:-0.050933397 18:-0.2312841 19:-0.57383752 20:0.25610352 21:0.99218964 22:-0.1450328 23:-0.55629436 24:1.3657631 25:0.063476368 26:0.66020939 27:-0.16928305 28:0.31470506 29:0.45902726 30:-0.71831042 31:-0.83574021 32:-0.58665975 33:-0.72986329 34:0.74447516 35:0.45047882 36:0.61670741 37:0.065334169 38:0.89243327 39:1.8207136 40:0.55886158 41:0.17689943 42:1.2840992 43:0.53210453 44:0.52158637 45:0.50006255 46:1.2744797 47:0.069084945 48:0.46439493 49:0.92318791 50:0.77220874 51:1.4745273 52:0.60872316 53:1.7213853 54:0.35202334 55:1.9152292 56:0.6117939 57:-0.32213734 58:0.91748545 59:0.90391682 60:1.2867172 61:0.31504628 62:0.93197236 63:1.2162659 64:-0.63109163 65:-0.62985772 66:-0.58196184 67:-0.58726246 68:0.69921025 
0.01 1:-0.20288955 2:1.0908528 3:0.64839868 4:0.61964977 5:0.91581567 6:0.078502185 7:-0.26922581 8:0.062986041 9:0.78436406 10:-0.70503221 11:1.3451692 12:0.55560988 13:1.161411 14:0.64606533 15:-0.69711305 16:1.1336187 17:0.73404936 18:0.59473442 19:0.062330018 20:0.63699076 21:1.461596 22:-0.1872956 23:-0.6474162 24:0.094626091 25:-0.64273957 26:-0.39583393 27:-0.44084659 28:0.80139136 29:-0.53288596 30:-0.089878131 31:-0.03410344 32:2.1726509 33:-0.5284306 34:0.98077337 35:-0.42073073 36:0.30378578 37:-0.60518655 38:-0.32935722 39:-0.2400895 40:-0.0049202782 41:-0.34853199 42:0.10905523 43:-0.74445168 44:-0.75725082 45:0.23800256 46:-0.52998156 47:0.27941109 48:0.72927264 49:0.46741249 50:-0.25501561 51:0.77133188 52:1.2174326 53:0.13684117 54:-0.80979401 55:0.28924283 56:0.78995281 57:-0.69366344 58:0.93107426 59:-0.35699571 60:0.22757181 61:-0.2879293 62:1.6440632 63:-0.69994256 64:0.10645529 65:0.040920692 66:2.2985431 67:-0.19705189 68:1.2883567 
0.01 1:-0.091109649 2:0.96682523 3:0.64471415 4:0.57578616 5:0.8629092 6:0.051981268 7:-0.28426864 8:0.26448996 9:0.84555553 10:-0.52565999 11:1.669299 12:0.66684987 13:0.39030848 14:0.32736326 15:-0.54380074 16:0.64153974 17:-0.21206421 18:0.15442647 19:0.93007229 20:1.5130392 21:0.37052749 22:-0.51190044 23:-0.49941382 24:-0.60048611 25:-0.54730641 26:-0.05436116 27:0.18959319 28:0.38552559 29:-0.64578339 30:-0.45704228 31:0.59663253 32:2.1871525 33:-0.69226759 34:0.49469911 35:-0.50495429 36:0.22904661 37:-0.82512047 38:-0.39828493 39:-0.090147358 40:-0.35321195 41:-0.59001314 42:0.061931459 43:-0.32113053 44:-0.37506582 45:-0.43331198 46:-0.64968415 47:0.12480976 48:0.31535933 49:0.52150593 50:0.26749152 51:0.089402874 52:0.64919968 53:0.63404208 54:-0.61125442 55:0.45954087 56:-0.25549106 57:-0.23338475 58:-0.52609778 59:-0.20068487 60:0.11585138 61:0.47238715 62:0.85909725 63:-0.88621133 64:-0.57139435 65:0.346591 66:2.3261604 67:-0.67379306 68:0.45030961 
0.01 1:0.0037956535 2:0.83574021 3:0.66541252 4:0.48045791 5:0.76504544 6:0.46806148 7:-0.4735276 8:0.23110088 9:0.94439528 10:-0.84712885 11:0.77874865 12:0.40545705 13:0.82865594 14:0.80210743 15:-0.14592544 16:0.57999325 17:0.26115665 18:0.096440624 19:1.3819334 20:1.5552722 21:-0.96103123 22:0.59513805 23:-0.48904558 24:-0.34308829 25:-1.0149858 26:-0.94102915 27:-0.4931539 28:0.15662931 29:-0.4627587 30:-0.53674157 31:-0.019227616 32:2.5904162 33:0.2010531 34:0.28977284 35:-0.6839886 36:0.237581 37:-0.73930765 38:-0.75061349 39:-0.79733973 40:-0.49198994 41:-0.69673208 42:-0.27493826 43:-0.62683053 44:-0.73844224 45:-0.020535104 46:-0.042315032 47:0.91692497 48:0.82676096 49:0.19321748 50:-0.35087532 51:0.38974879 52:0.6497165 53:1.6195944 54:1.4418537 55:1.3087552 56:1.1541463 57:-0.4811451 58:-0.34833333 59:-1.0262056 60:-0.99646147 61:-0.31790594 62:0.19379862 63:-0.71458627 64:-0.64722822 65:0.1357961 66:1.6082452 67:0.7382939 68:-0.10191558 
0.001330585816412743 1:0.080705627 2:-0.71276446 3:-0.86826553 4:0.93511746 5:1.3798581 6:0.19986457 7:-0.010367482 8:0.51309346 9:-0.63316986 10:0.14002499 11:1.6346452 12:0.32300882 13:0.65404211 14:-0.46006057 15:0.35664593 16:0.4947593 17:-0.20909955 18:0.62020785 19:-0.079396258 20:-0.15910415 21:0.12325298 22:0.00052021888 23:-0.45412822 24:0.61873549 25:-0.030852878 26:0.21508435 27:-0.66162959 28:-0.1662958 29:-0.37522111 30:-0.26005738 31:-0.21225043 32:0.56694763 33:-0.60150377 34:-0.11468205 35:0.16980672 36:0.13888104 37:0.85172959 38:0.15675346 39:-0.092693114 40:0.66164425 41:0.14694873 42:0.68546182 43:0.16809986 44:-0.49804794 45:0.60447421 46:1.3175524 47:0.50871932 48:0.17383135 49:0.60041882 50:0.95890724 51:0.4625163 52:0.15513115 53:-0.54887882 54:-0.25368491 55:-0.87551726 56:-0.23657092 57:-0.45368237 58:0.79684695 59:0.053625359 60:0.44156943 61:-0.43019095 62:-0.36900206 63:-0.55481556 64:-0.33862915 65:-0.61262305 66:1.7363331 67:-0.47050136 68:0.26865355 
0.01 1:-0.79292748 2:-0.1179031 3:0.20706357 4:-0.45194003 5:0.12740152 6:-0.32651941 7:-0.17194409 8:-0.28661137 9:0.48424571 10:-0.0042479177 11:0.23483094 12:-0.40575511 13:-0.48713871 14:1.1713741 15:0.62643245 16:1.5068176 17:0.075478195 18:0.76560476 19:-1.308437 20:1.0604138 21:-0.057057165 22:-0.23382916 23:0.32323289 24:1.4737393 25:-0.57116849 26:-0.46660633 27:-0.033682862 28:0.11157605 29:-0.39171642 30:-0.4271606 31:-0.31177752 32:0.16335815 33:0.4141408 34:0.56899162 35:-0.66415007 36:-0.20826977 37:-0.35478527 38:-0.32154447 39:0.51531425 40:-0.43420209 41:-0.37646489 42:-0.24604298 43:-0.080861455 44:-0.20185251 45:0.24060986 46:0.4782971 47:1.1888834 48:0.034710943 49:-0.0191756 50:0.68302722 51:0.66483904 52:-0.16478414 53:-0.44880754 54:0.1375663 55:-0.38751337 56:-0.098534099 57:0.96656051 58:2.3121859 59:-0.60641061 60:-0.082507755 61:0.29049141 62:-0.26053067 63:-0.54970175 64:-0.33081794 65:0.12510111 66:0.13362833 67:1.0352303 68:1.8172614 
0.01 1:-0.14165704 2:0.21761783 3:0.61536195 4:-0.049924686 5:-0.21547723 6:0.19256646 7:-0.3051025 8:0.23364135 9:0.49060258 10:-0.63976897 11:1.449521 12:1.0152128 13:0.2376948 14:0.75680202 15:0.16920026 16:0.76683742 17:0.91903361 18:0.017046484 19:0.62830702 20:0.34743802 21:0.032004448 22:-0.081168997 23:-0.20126811 24:0.30692712 25:-0.40712405 26:0.053505259 27:-0.84034656 28:0.84768434 29:-0.35678519 30:-0.80287842 31:-0.38728936 32:0.64746183 33:-0.71163142 34:0.55373155 35:0.10364824 36:0.0071762878 37:-0.76171684 38:0.078550539 39:-0.23507832 40:0.70672269 41:-0.14612628 42:-0.031970277 43:-0.43125671 44:0.32192098 45:0.044531664 46:0.46256692 47:0.11371526 48:0.69852256 49:0.31405176 50:0.54476514 51:0.20787369 52:0.027332248 53:-0.55824661 54:-0.70462751 55:-0.75997872 56:0.02658454 57:0.012594602 58:0.15646342 59:0.24320844 60:0.45591853 61:-0.84752561 62:1.0075624 63:-0.43694267 64:-0.8540262 65:-0.6111959 66:0.88183719 67:-0.78210663 68:0.42705806 
0.01 1:1.4868629 2:-0.26425914 3:0.14229169 4:1.5042115 5:1.1957864 6:0.65610934 7:0.018234528 8:1.7546592 9:-0.11563448 10:0.94830646 11:-0.62670396 12:0.38989244 13:-0.12581618 14:0.28500727 15:0.96129048 16:-0.87710784 17:0.24350878 18:-0.70104247 19:-0.11638354 20:0.44523237 21:0.099693025 22:-0.53304988 23:0.28728992 24:-1.0156735 25:-0.85114387 26:-0.24696988 27:0.480406 28:0.58595871 29:0.092225844 30:-0.099990771 31:0.26052972 32:-0.47061832 33:-0.46281925 34:-0.53331269 35:0.93673681 36:0.25894038 37:-0.19414827 38:0.85795128 39:0.59308847 40:0.17467396 41:-0.43129687 42:0.92243517 43:-0.04650648 44:-0.44133066 45:-0.27387636 46:-0.58407607 47:-0.38140375 48:-0.020561215 49:-1.3549372 50:-0.6462348 51:-1.4991072 52:-1.0640922 53:-1.4212955 54:-1.4212237 55:-1.0612872 56:-0.42049656 57:0.032408777 58:-1.2757781 59:-1.0042883 60:-0.26323393 61:0.31530292 62:0.07862373 63:0.05190899 64:0.18117059 65:-0.020361923 66:-0.63030185 67:-0.61827281 68:-0.74157396 
0.01 1:0.014111447 2:-0.41780463 3:-0.15979181 4:0.21826677 5:0.73095894 6:-0.40288759 7:-0.041411236 8:-0.29296255 9:-0.35862349 10:0.66947233 11:0.41826845 12:0.11357456 13:-0.11967061 14:0.50524091 15:0.41859231 16:-0.62566509 17:-0.44982113 18:-0.79118012 19:-0.092627435 20:0.27835851 21:-0.27600379 22:-0.34461502 23:-0.14131535 24:-0.74276699 25:-0.19410282 26:0.10047607 27:1.6025524 28:-0.010530417 29:-0.43957058 30:0.45026996 31:1.9868775 32:-0.058234459 33:-0.85754234 34:-0.24129597 35:0.79233237 36:0.09682989 37:0.47502273 38:0.53586873 39:0.069121294 40:0.87243592 41:0.20441382 42:0.52143835 43:0.3499065 44:0.34020723 45:-0.26388804 46:-0.73474012 47:-0.34059075 48:-0.54645742 49:-0.25138802 50:-0.70817938 51:-0.49945315 52:0.71175252 53:-0.54333708 54:-0.16697781 55:-0.10275412 56:-0.17699318 57:-0.12161308 58:-0.65100165 59:-0.086341956 60:0.74427429 61:1.9197988 62:-0.044278502 63:-0.60884681 64:0.80837833 65:2.4875718 66:-0.11784365 67:-0.89813358 68:-0.29587066 
0.01 1:0.034055315 2:-0.86768069 3:-0.02432951 4:-0.40184367 5:-0.52992332 6:0.18543237 7:-0.13204084 8:-0.0073407232 9:-0.22901668 10:-0.076094684 11:-0.16227706 12:0.29983931 13:-0.87454895 14:1.3445504 15:0.87983268 16:1.493464 17:-1.4340531 18:0.078253076 19:0.71604274 20:0.043542011 21:1.2997039 22:-0.21838282 23:-0.34433243 24:1.0291242 25:0.25497768 26:0.11437027 27:0.13440638 28:-0.57402504 29:-0.023336763 30:-0.017245824 31:-1.0196662 32:-0.24739679 33:-0.38385127 34:-0.13060826 35:-0.10066918 36:-0.28590349 37:0.14444405 38:-0.0011963474 39:0.39528276 40:0.17184573 41:-0.28229967 42:-0.096447723 43:0.038631633 44:0.37120715 45:0.41792384 46:-0.67170022 47:0.13142461 48:0.08878525 49:1.1606295 50:-0.57152808 51:0.96799489 52:0.064649712 53:0.29679673 54:-0.57078047 55:0.1178462 56:-0.53086521 57:-0.47582549 58:1.0112158 59:0.2592879 60:0.30771348 61:-0.11102675 62:-0.88977748 63:0.18902541 64:0.18657761 65:-0.99187898 66:0.37071006 67:-0.64507422 68:-0.42291637 
0.01 1:-0.69767832 2:-0.55305673 3:0.26832074 4:-1.3655634 5:-1.5896638 6:-0.10247655 7:-0.18857691 8:-0.5306783 9:0.58227914 10:0.37062659 11:-0.84899085 12:1.0642922 13:-0.52521028 14:-0.24367289 15:0.7869132 16:0.64275367 17:0.026139948 18:0.32231187 19:0.80707523 20:-0.15456224 21:-0.31975535 22:0.25425983 23:-0.22913535 24:-0.58077288 25:-0.49966058 26:-0.35230934 27:0.21402991 28:-0.23974726 29:0.67362 30:-0.3522018 31:-0.0020263006 32:0.92201561 33:0.67965463 34:-0.72383652 35:-0.67097144 36:-0.59631252 37:-0.55146505 38:-0.84221532 39:-0.097250065 40:-0.59643263 41:-0.68242198 42:-0.81612606 43:-0.59186926 44:-0.73660763 45:0.24710843 46:0.056074548 47:0.0052544913 48:-0.69320512 49:-0.25984743 50:0.51488692 51:-0.54656365 52:-0.33102895 53:-1.2509069 54:-0.98936842 55:0.041009462 56:-0.18526587 57:-0.11207574 58:-0.90108184 59:-0.72162632 60:-0.94365563 61:-0.39218396 62:-0.58359713 63:1.6539431 64:-0.36213223 65:-0.059985046 66:0.53648031 67:0.84291514 68:-0.76787085 
0.01 1:-0.058557589 2:0.65896592 3:0.83960604 4:0.32179565 5:0.63354346 6:0.33028683 7:-0.75514005 8:0.19178402 9:1.1613159 10:-0.60774192 11:0.60334514 12:0.76625088 13:-0.52108195 14:0.19035634 15:-0.14732256 16:0.94069494 17:0.48411535 18:0.023722453 19:-0.24518706 20:0.099217337 21:-0.35543125 22:0.54208946 23:-0.17275313 24:0.24049915 25:-0.42768013 26:-0.26582816 27:-0.23958449 28:0.7073276 29:-0.32490981 30:-0.49692931 31:-0.28511775 32:0.69010608 33:-0.14250553 34:0.40829609 35:-0.63854175 36:-0.45630497 37:-0.93122242 38:-0.48360802 39:-0.21664061 40:-0.6273643 41:-0.84188053 42:-0.41719708 43:-0.94490674 44:-0.81241655 45:-0.53198522 46:-0.38857693 47:-0.33378622 48:-0.45108431 49:-0.24769693 50:-0.83701698 51:-1.0497165 52:-1.2162927 53:-0.61313174 54:-0.29508138 55:-0.39024255 56:0.4650729 57:-0.32517043 58:0.24517509 59:-0.60977242 60:-0.3478952 61:-0.18024274 62:1.0489542 63:-0.51069916 64:-0.39940591 65:0.038479545 66:0.66455991 67:-0.15295717 68:0.60518136 
0.01 1:-0.10499629 2:-0.13581212 3:0.49904026 4:-0.34498143 5:-0.15235348 6:0.38710703 7:-0.50307554 8:-0.16736265 9:0.94907855 10:-0.21464625 11:-0.54023084 12:0.42930632 13:-0.11618787 14:-0.12460944 15:-0.16967615 16:0.37921241 17:-1.1253152 18:-0.020301492 19:0.78127318 20:0.47060181 21:-0.019087169 22:0.23129947 23:-0.06671326 24:-0.69398351 25:0.36988765 26:0.48100635 27:0.31712977 28:0.25328588 29:0.30575844 30:-0.07239713 31:0.044328915 32:-0.51909757 33:0.36403742 34:-0.29345828 35:-0.76276484 36:-0.80010957 37:-0.66107571 38:-0.81974319 39:-0.61251324 40:-0.46340361 41:-0.55871902 42:-0.70324679 43:-0.92432586 44:-0.45934157 45:-0.0061099146 46:1.1341092 47:0.11256141 48:-0.11480758 49:0.30899131 50:0.27515632 51:0.71852189 52:1.2465813 53:0.8539733 54:0.73242648 55:0.66769627 56:0.087140379 57:0.011371819 58:-0.61618112 59:0.66777866 60:1.0380559 61:0.50123305 62:-0.19084925 63:0.24129111 64:-0.018077627 65:0.25616303 66:-0.84515662 67:0.55756266 68:0.023357649 
0.01 1:1.4502992 2:0.19078802 3:1.0065695 4:1.4091008 5:0.84452708 6:1.7500497 7:-1.0264297 8:1.7719587 9:0.88964369 10:-0.96633407 11:-0.088200606 12:0.13879356 13:1.1331966 14:0.39606923 15:0.41623386 16:0.16014777 17:0.17268992 18:-0.28818723 19:-0.22841231 20:0.54953483 21:0.12963877 22:-0.16496903 23:-0.3408123 24:0.2489594 25:-0.33882647 26:-0.73947425 27:-0.7559246 28:0.69791901 29:0.16858387 30:-0.53003521 31:-1.0085119 32:-0.25404875 33:-0.50932062 34:0.19915869 35:-0.12372521 36:-1.0365963 37:-1.015208 38:-0.49510039 39:-1.6053643 40:-0.44700011 41:-0.86489961 42:-0.43786127 43:-0.8817649 44:-0.81850185 45:-0.51632165 46:-0.065813608 47:-0.56021877 48:-0.51477049 49:-0.17023847 50:-0.17217235 51:-0.54821128 52:0.12451877 53:0.31343308 54:-0.23455755 55:-0.44165371 56:0.25168334 57:-0.45712603 58:-0.19660061 59:0.11395822 60:-0.96640714 61:-0.96801464 62:0.19869817 63:-0.32914561 64:-0.49503437 65:-0.97401188 66:-0.31141983 67:-0.65778784 68:0.11799625 
