svm_type epsilon_svr
kernel_type linear
nr_class 2
total_sv 53
rho 0.214845
SV
-0.01 1:0.48598969 2:-0.65574612 3:0.19379864 4:0.090805334 5:-0.92523371 6:0.45587903 7:-1.1317011 8:0.43959019 9:-0.87627257 10:0.093059628 11:-0.13347908 12:-0.71489436 13:-1.3073867 14:-0.75722259 15:-1.2112098 16:2.1791687 17:-0.99827648 18:-0.032600188 19:-0.66013532 20:-0.086825785 21:-1.3593048 22:-0.42096595 23:0.57608584 24:-0.15013758 25:0.46991989 26:0.63458471 27:1.2205028 28:-1.286489 29:0.16426003 30:-0.47369086 31:-0.16419632 32:0.28875428 33:1.1834975 34:-0.67222353 35:0.17030978 36:-0.45381409 37:-1.321742 38:-0.54516303 39:-1.4808109 40:-1.8999615 41:-1.2674998 42:-0.76155778 43:-1.7830479 44:-1.6454657 45:-0.70053483 46:-0.99611482 47:-1.1294835 48:-0.69512074 49:0.16991591 50:-1.0383475 51:0.077421144 52:-0.43004483 53:0.072338317 54:-0.53250478 55:0.3033627 56:-0.52308279 57:-0.44789961 58:-1.6600592 59:0.42091307 60:0.81071939 61:0.87441311 62:-1.464508 63:0.69409196 64:-0.71263711 65:-0.90648325 66:-1.6206617 67:-0.25441718 68:-1.2419569 
-0.01 1:0.087855735 2:0.083305104 3:-1.9573686 4:0.16601255 5:-1.722677 6:0.99312731 7:-0.96023916 8:0.74350163 9:0.37096733 10:-0.74955583 11:-0.22798083 12:-1.5737478 13:1.324378 14:-2.4167484 15:-0.73176656 16:1.4564137 17:-0.18259476 18:0.26779588 19:-0.015865739 20:-1.3424694 21:-0.97079964 22:0.41098279 23:0.70413553 24:-0.63439637 25:-0.45330052 26:-1.0828984 27:0.75470754 28:-0.52109485 29:3.5077432 30:-0.26401978 31:-0.70966894 32:-0.59570999 33:3.1535191 34:-0.87312086 35:-1.6821348 36:-0.28517028 37:2.9324344 38:-0.97922236 39:1.1235239 40:-1.1614557 41:-0.97561656 42:-0.5351951 43:1.7097016 44:0.27168787 45:1.0046424 46:2.0052759 47:2.1253661 48:1.0560053 49:1.4364264 50:-0.56463097 51:-0.51823623 52:-0.9408996 53:-0.88697633 54:0.40922928 55:-0.11828906 56:0.045089311 57:0.012930346 58:-1.0499386 59:-0.66543936 60:-0.93180667 61:1.5956518 62:-0.11001232 63:3.4622885 64:-0.59808268 65:-0.8526572 66:-0.44067611 67:3.1665749 68:-0.52605833 
-0.01 1:0.036158434 2:0.18346738 3:0.58343963 4:0.27668109 5:-0.76442469 6:0.69008169 7:-0.95324312 8:0.33990447 9:0.8953035 10:-0.60326114 11:-1.6173181 12:-1.4742476 13:0.73599923 14:-0.92923045 15:0.68688445 16:0.15834532 17:-0.61188186 18:-0.22613245 19:-1.324553 20:-1.6434037 21:-0.7640233 22:0.34333143 23:0.81011926 24:-0.32331914 25:0.48418012 26:-0.27733834 27:-0.79587134 28:-1.051718 29:2.5120514 30:-0.36424127 31:-0.35662603 32:-0.72582818 33:0.41785932 34:-1.3640202 35:-0.73413388 36:0.79451488 37:0.28335803 38:-0.62787951 39:-0.89567557 40:-0.3646929 41:-0.97732055 42:-0.60656709 43:0.28643231 44:0.40043177 45:1.6865182 46:2.2106704 47:0.63722391 48:-0.066350639 49:0.56286942 50:-0.23309339 51:-0.0059125205 52:0.55561981 53:-0.011053758 54:0.62502122 55:0.56987664 56:0.37499294 57:0.27221572 58:-0.6079453 59:-0.092686968 60:-0.096836387 61:-0.96048677 62:-1.0418175 63:1.6110734 64:-0.5431972 65:0.063725816 66:-0.42362907 67:0.3735991 68:-1.1122909 
-0.01 1:-0.098864928 2:-0.13444875 3:0.11861203 4:-0.39026684 5:-0.95073275 6:0.24584966 7:-0.034437701 8:-0.1142414 9:0.62519842 10:-0.67341974 11:-1.0189216 12:-1.7779153 13:-2.1075058 14:-0.82127425 15:-2.0085265 16:-0.2148367 17:-1.3553594 18:2.2045764 19:1.2577326 20:0.67765919 21:-0.63496621 22:-0.63894479 23:1.3152728 24:-0.92796266 25:-0.072788195 26:-0.32684002 27:0.55138135 28:-0.45828998 29:1.8937186 30:2.1912919 31:0.10648348 32:-0.81658742 33:0.41774326 34:-0.80919751 35:-0.38261332 36:0.52687593 37:-0.031697439 38:-1.3360489 39:-0.48489636 40:-0.62501533 41:-0.51687181 42:-0.63859624 43:-0.24681427 44:-0.31976943 45:-0.22895985 46:0.35871018 47:-0.94298323 48:-0.087519554 49:1.5771491 50:1.8637703 51:0.38502961 52:1.3555042 53:0.34686131 54:1.6918826 55:0.84061091 56:-0.5532997 57:0.87776285 58:-0.8752374 59:-0.30482509 60:-0.13978985 61:0.18939676 62:-0.27402382 63:1.7766059 64:2.0657105 65:0.0316741 66:-0.5278483 67:0.15263693 68:-0.91068644 
-0.007266803061739623 1:1.7446201 2:-0.12270302 3:-1.4223249 4:2.0440606 5:0.59955439 6:2.5650763 7:-1.7497479 8:2.3366529 9:-0.39327859 10:-2.2166452 11:-1.2851406 12:-0.15249225 13:-0.93263865 14:0.62216301 15:-1.395877 16:0.25331063 17:-1.574373 18:0.25494581 19:-1.1917351 20:0.74291552 21:1.0204008 22:-0.64414593 23:-0.49239622 24:-1.0190827 25:-0.82392613 26:-0.42048689 27:-0.0027603293 28:-1.0827082 29:0.22409818 30:0.12408322 31:-0.83196165 32:-1.0430248 33:2.3164158 34:-1.987084 35:-0.41572733 36:0.52648591 37:2.0104272 38:-0.18024565 39:-1.5456715 40:-0.23237016 41:-1.4139173 42:0.045201256 43:1.9430931 44:0.57320083 45:2.4330275 46:1.1016504 47:1.2358142 48:0.63369268 49:2.0072147 50:0.18756197 51:1.1426003 52:0.40626312 53:1.8080934 54:0.52281306 55:1.7717034 56:-0.47038626 57:-1.0092039 58:-1.0667561 59:-0.99029891 60:-0.44920741 61:-0.27465233 62:-1.1921124 63:-0.30191665 64:0.17141135 65:-1.1017557 66:-0.94750198 67:1.8409531 68:-1.852691 
-0.01 1:-0.10988347 2:-0.36939949 3:-0.24907981 4:-0.12741989 5:-0.070632561 6:-0.75923272 7:1.0516366 8:-0.31167486 9:0.60218326 10:1.1127681 11:0.79741698 12:0.46105127 13:0.2436859 14:0.41294207 15:1.1756764 16:1.1613403 17:0.97633606 18:-0.39010677 19:-0.080212214 20:0.95288548 21:-0.18039534 22:-0.57765289 23:-0.49845924 24:-0.33149213 25:-0.6983006 26:-0.43198701 27:-0.82177992 28:0.79070756 29:-1.0348994 30:-0.58669248 31:1.6574806 32:0.098703686 33:-0.17293001 34:-0.19584262 35:1.5146666 36:-0.75365956 37:-0.4124487 38:2.3579697 39:-0.81517708 40:0.75420395 41:2.3455487 42:1.2697446 43:-0.76358274 44:0.50804779 45:-1.0080626 46:-0.31748791 47:-0.24651255 48:-0.46021851 49:-0.63222186 50:-1.1281554 51:-0.81173739 52:-0.72418732 53:-0.30437455 54:-0.47684592 55:-0.72964666 56:-0.86157629 57:-0.54800408 58:-0.85104859 59:-0.82857031 60:-0.61343444 61:-0.84864865 62:0.50730634 63:-0.94674561 64:-0.37214723 65:1.2409915 66:0.23814012 67:-0.17432615 68:-0.001523414 
-0.01 1:-0.66374348 2:1.7597069 3:-0.36559346 4:-0.66890558 5:0.83151603 6:-0.90098583 7:-0.23934781 8:-0.78732436 9:1.2909139 10:1.0916705 11:2.0819882 12:1.2757423 13:1.1305117 14:0.92849263 15:0.43658521 16:1.2765525 17:0.59074197 18:1.1809085 19:-0.17311421 20:1.3252423 21:0.95469583 22:-0.38182726 23:-1.1922063 24:3.884722 25:-0.45790903 26:1.2432076 27:-0.78288071 28:0.29807557 29:-1.1435929 30:-0.92590767 31:-0.96302643 32:0.68046108 33:-1.3424391 34:1.0699769 35:0.24851811 36:1.5082341 37:-0.10567305 38:0.76942953 39:0.56977555 40:0.71443637 41:-0.24003777 42:0.43285367 43:-0.72265486 44:-0.88222964 45:-0.55844734 46:-0.98833965 47:0.53259 48:-0.60333831 49:-1.2476081 50:-1.1819255 51:-1.1313154 52:-0.909379 53:-1.6950354 54:-1.6098083 55:-1.0928729 56:-0.78497827 57:-1.2256229 58:2.9948891 59:-0.56571793 60:0.31944084 61:-0.94194675 62:-0.062274154 63:-1.1447152 64:-0.91238815 65:-1.3333688 66:0.26154549 67:-1.2516583 68:-0.19911695 
-0.00767311291849536 1:-0.2574249 2:0.96355426 3:0.57254853 4:-0.11314641 5:1.3953786 6:-0.47887591 7:1.54767 8:-0.44808951 9:-0.049437992 10:0.15490079 11:1.2481279 12:1.629386 13:1.6185594 14:1.0020728 15:0.12241915 16:-0.50042627 17:0.11919822 18:-0.80297047 19:-0.97321634 20:-1.0132922 21:-2.7858148 22:5.182308 23:-1.2334951 24:0.654294 25:-1.0418213 26:-1.6135222 27:-1.1898629 28:0.36547562 29:-0.84551007 30:-1.3730886 31:-1.01854 32:1.8541424 33:-0.94101117 34:1.9645466 35:-0.63521327 36:1.9303586 37:0.25455338 38:-0.54714258 39:-0.48967223 40:0.71558153 41:-0.018069304 42:0.2285083 43:-0.97827583 44:-0.65263033 45:-1.6777505 46:-0.5215196 47:-1.0726156 48:-1.1930592 49:-1.27743 50:-1.1139074 51:-1.0487609 52:-1.1758148 53:0.24646674 54:-1.3379786 55:0.19406399 56:4.2237914 57:-1.163576 58:0.49397561 59:-1.1689762 60:-1.6761693 61:-1.2849059 62:0.6824935 63:-0.65893769 64:-1.2433123 65:-1.2954506 66:2.1166579 67:-1.07522 68:0.76302549 
0.01 1:-1.3620732 2:2.8278993 3:-0.49247772 4:-1.3698574 5:0.19749124 6:-1.5110292 7:1.4496226 8:-1.5573316 9:0.99661425 10:1.3437056 11:0.1074456 12:0.072779681 13:0.42349737 14:0.72473945 15:0.062700655 16:0.059035063 17:-0.72937884 18:-0.81030462 19:-0.91787322 20:-1.6660879 21:-1.4164287 22:0.64588549 23:1.2857889 24:0.57999428 25:2.0553626 26:-0.73653776 27:0.24477512 28:1.1624004 29:0.80474418 30:-0.34710264 31:-0.66253876 32:-0.18339397 33:-1.0305172 34:0.9480762 35:-0.73691361 36:2.458757 37:0.49361426 38:-0.73403284 39:0.31830325 40:-0.88645582 41:1.7271364 42:-1.5166095 43:1.1158788 44:-0.46013394 45:0.71045848 46:-0.3054992 47:-0.58152616 48:-0.2315216 49:-1.4682249 50:-0.4572577 51:-1.0061636 52:-0.31059674 53:0.15403656 54:0.23506176 55:0.81189934 56:0.66426462 57:1.5804561 58:0.19234537 59:1.6140704 60:-0.68930989 61:0.28780162 62:1.3672682 63:1.9170563 64:-0.40971157 65:-0.70756841 66:0.5459721 67:-0.90235069 68:1.0503948 
0.01 1:-0.28997575 2:1.6011078 3:-0.26559456 4:-0.18755957 5:0.197449 6:-0.68938367 7:-0.53875725 8:-0.42631417 9:1.649452 10:1.0364685 11:1.4514959 12:0.65707812 13:0.79983645 14:0.031927969 15:0.92214869 16:1.2992843 17:0.32899499 18:1.371972 19:-0.14690681 20:1.2225611 21:0.74740512 22:-0.39244628 23:-0.54614883 24:1.8217721 25:0.29048969 26:1.3678994 27:-0.87156736 28:0.26531026 29:-0.81762526 30:-0.88095958 31:-0.58035037 32:0.77402596 33:-1.1782175 34:0.60909193 35:1.721103 36:1.4735331 37:-0.11503985 38:2.1811201 39:1.4326343 40:1.1370418 41:-0.72690313 42:1.9042684 43:0.84677901 44:0.1025213 45:-0.94973691 46:-1.4657695 47:-0.98094052 48:1.2790926 49:0.38297972 50:-0.63655284 51:-0.37296938 52:-1.1015109 53:-1.3228156 54:-1.4660891 55:-1.3135023 56:-0.072590529 57:-0.27142036 58:1.2421937 59:-0.019871837 60:0.80442689 61:-0.91420361 62:1.1206437 63:-0.86702688 64:-0.87350512 65:-0.81636883 66:2.1610695 67:-1.1394602 68:1.1508473 
0.01 1:-1.451873 2:-0.77601569 3:-0.19807454 4:-1.3895738 5:-1.7512675 6:-0.84422266 7:-0.16999609 8:-0.81477405 9:0.2755553 10:0.84853733 11:1.978009 12:0.8087563 13:0.37387585 14:1.257786 15:0.58468305 16:1.7658791 17:-0.44971327 18:1.0465351 19:0.17094468 20:1.0312069 21:1.0336973 22:-0.46401699 23:-1.0909362 24:1.0095494 25:-0.61747244 26:-0.59151378 27:-0.7219031 28:0.54770518 29:-0.76168123 30:-1.2698163 31:-0.58884759 32:2.7558317 33:-0.76966829 34:1.1077597 35:-0.70502207 36:-1.0727251 37:-0.73732562 38:-0.21328343 39:-0.11563499 40:-1.0715422 41:-0.061245873 42:-1.1793031 43:-0.69376615 44:-0.89553858 45:-0.22723996 46:-0.74190356 47:-0.27822 48:-1.3984612 49:-0.34764013 50:-0.947861 51:-0.61342866 52:-0.8995425 53:-1.0894011 54:-1.4533591 55:-1.312295 56:-0.79545553 57:-1.0017114 58:0.10456237 59:-0.676269 60:-0.90526496 61:-0.83145495 62:0.8047118 63:-0.67207113 64:-1.2715476 65:-0.74800887 66:1.4876769 67:-0.76377197 68:-0.15536149 
0.004388474085450047 1:0.37563583 2:0.38182312 3:1.0725641 4:0.34447892 5:0.35224121 6:0.084691358 7:-0.32741795 8:0.088653104 9:1.8112442 10:0.22496944 11:0.30937029 12:-0.5052363 13:0.18740174 14:0.42103567 15:0.30266138 16:-1.1475911 17:-0.13728406 18:-0.58963971 19:-1.7000136 20:-0.40820922 21:-2.2445996 22:1.6978967 23:0.54718045 24:-0.097175491 25:1.6332125 26:-0.95147739 27:-0.36048593 28:-0.77905355 29:1.0550165 30:-0.15924649 31:0.90075309 32:-0.41602528 33:-0.2045086 34:-0.054855331 35:0.78811083 36:-0.30491753 37:-0.44317693 38:0.78753962 39:1.2466063 40:0.19652791 41:-0.16014923 42:0.87298477 43:-0.19243401 44:-0.05344327 45:-0.0019695794 46:0.76575722 47:0.32833787 48:0.055571325 49:-0.47074613 50:-0.17209883 51:-0.4095893 52:-0.3634064 53:-0.39836908 54:1.3956671 55:0.6474336 56:2.5437976 57:1.5035519 58:0.057924437 59:1.7820641 60:-0.98221175 61:-0.17721518 62:0.032040707 63:1.1873234 64:-0.46941509 65:0.29795054 66:-0.050864777 67:-0.25244948 68:0.30512375 
0.01 1:0.81935084 2:-0.26103241 3:-2.6356543 4:0.24322713 5:0.037442169 6:0.3399505 7:-0.72799127 8:0.26775734 9:-0.33102607 10:-0.22094009 11:-0.92346869 12:0.1512551 13:0.41692133 14:1.3261655 15:-0.3780272 16:-0.25105392 17:0.004808434 18:0.26948019 19:-0.60236841 20:-1.2696236 21:-0.311852 22:-0.049618442 23:1.0099606 24:0.13415665 25:0.57924303 26:-0.30436974 27:-0.21752603 28:-0.34050821 29:0.85284408 30:1.1376461 31:0.092419579 32:-0.7119012 33:0.35572458 34:-0.61892474 35:1.5892399 36:0.31213829 37:1.1199182 38:0.91012442 39:0.88442969 40:1.024401 41:-0.74511597 42:0.89038263 43:1.3758758 44:0.99032635 45:2.0262483 46:0.5320512 47:0.9242273 48:0.58690917 49:0.021889638 50:0.7857637 51:0.12304436 52:-0.25920839 53:0.22247456 54:0.44892248 55:-0.21232991 56:-0.13404451 57:0.79121568 58:0.80223985 59:0.64628581 60:0.025942376 61:-0.012117221 62:0.8370839 63:0.41286798 64:1.3029489 65:0.43088561 66:-0.8804186 67:-0.39686595 68:1.1010997 
0.01 1:-0.2850307 2:-0.50861499 3:-1.6322021 4:-0.2426109 5:0.32751798 6:-0.08667782 7:0.51975725 8:-0.071667546 9:-0.026256905 10:0.18829768 11:-0.092050032 12:-0.29564868 13:-1.5611944 14:0.20026908 15:0.36502631 16:-1.0463524 17:-0.94668773 18:-1.9901527 19:-0.36142339 20:-0.48057963 21:0.59573292 22:-0.44137847 23:-0.79602967 24:1.3008389 25:2.2780391 26:1.4342572 27:0.34348053 28:-0.38476447 29:0.032751942 30:0.016889288 31:-0.87565524 32:-0.43494399 33:-0.20867926 34:0.12924965 35:-0.24743428 36:0.042929737 37:0.419947 38:0.27056505 39:0.88603642 40:1.3398603 41:0.74825922 42:0.68107921 43:1.3698867 44:-1.1609211 45:1.3575235 46:0.13435294 47:1.2631192 48:0.46172512 49:0.5543323 50:0.7537059 51:0.42669209 52:1.2322146 53:0.64125493 54:0.25628037 55:-0.16090456 56:-0.34615163 57:-1.0922522 58:2.5533084 59:2.2777979 60:1.7417521 61:0.28136606 62:0.1899637 63:0.04099 64:0.4072583 65:-0.91554422 66:-0.44059078 67:-0.10870824 68:1.1025411 
0.01 1:-0.98336043 2:-0.33547349 3:0.95065087 4:-1.2410922 5:-1.4304834 6:-0.72291561 7:1.2129001 8:-0.80292734 9:0.11468754 10:0.67321101 11:0.62709229 12:0.12681786 13:-1.4115934 14:-1.0591448 15:0.20784554 16:1.2364199 17:0.13297008 18:1.2049675 19:-0.27674748 20:-0.35302705 21:-1.2163482 22:0.37164183 23:2.2164444 24:0.65206123 25:-0.60009644 26:-0.25994132 27:-0.46432517 28:1.1906158 29:0.74346679 30:1.9903695 31:0.17092268 32:-0.58844859 33:0.47837099 34:0.82285246 35:-0.4642179 36:-0.34873559 37:-2.124797 38:-0.46391997 39:0.49686439 40:-1.2697294 41:1.0671053 42:-0.94033707 43:0.2290946 44:-1.189947 45:0.18282155 46:-0.44492675 47:-0.30749833 48:-1.2766886 49:-0.037679222 50:1.1309366 51:0.1230185 52:0.023815005 53:0.23468716 54:0.2234377 55:0.54404651 56:-0.21772281 57:2.2075899 58:0.89559787 59:-0.76149004 60:-0.30058384 61:-0.32695305 62:0.81510719 63:1.5397687 64:2.717446 65:0.32612445 66:-0.70853383 67:0.2447701 68:1.420694 
0.01 1:-0.33913253 2:-0.65992544 3:-0.74080463 4:-0.63042818 5:-0.93223135 6:-0.012973653 7:-0.48224286 8:-0.047253466 9:-0.63833305 10:-0.10853238 11:-0.72234922 12:0.11062916 13:-0.68237164 14:1.6664446 15:-0.35290643 16:0.26829128 17:-0.11456937 18:0.30596392 19:-0.77206554 20:-0.1617117 21:0.54260059 22:0.37101724 23:0.18609463 24:-0.31371812 25:-0.73014811 26:-0.91283397 27:-0.22639002 28:-0.43170098 29:0.52645437 30:0.15751118 31:0.27964154 32:0.65710899 33:0.081366729 34:-0.25141174 35:-0.64760295 36:0.11141047 37:0.70596856 38:-0.73135724 39:1.222323 40:-0.51529653 41:-0.51103372 42:-0.46890648 43:1.6975955 44:-0.20330434 45:1.6422673 46:-0.51137211 47:2.21826 48:0.29284585 49:-1.2409146 50:-0.59003782 51:-0.62172249 52:-0.29523223 53:0.23576505 54:-0.89124475 55:0.44874129 56:-0.38056873 57:0.074329061 58:0.3898564 59:-0.39965747 60:-0.76793608 61:-0.27484875 62:0.61640053 63:0.31202037 64:0.0098731434 65:0.36594734 66:1.8072248 67:-0.48741362 68:1.0205237 
-0.01 1:-0.6246237 2:-0.46356292 3:1.3626829 4:-0.71591237 5:-1.1152258 6:-0.21793252 7:0.5386879 8:-0.73245387 9:0.046233852 10:0.43382293 11:-0.6417076 12:0.9817477 13:0.35291357 14:0.0015258008 15:0.59059928 16:0.2029843 17:-0.2173778 18:0.96590769 19:-0.54638977 20:1.7900095 21:0.6557447 22:-0.69063092 23:-0.19018162 24:-0.19351472 25:-0.61003027 26:0.9659977 27:-0.72567318 28:0.4428759 29:-0.40764637 30:0.48641543 31:1.0096 32:-0.13007029 33:-1.0698502 34:0.30625938 35:-0.52664525 36:-0.31293907 37:-1.341915 38:-0.38088886 39:0.884494 40:-0.55329839 41:0.37253231 42:-1.4832275 43:1.4184529 44:-0.17011651 45:1.4197593 46:-1.2480528 47:0.51066155 48:-0.7872995 49:-0.13552818 50:-0.84896926 51:-0.21011355 52:-0.56355808 53:-0.67137556 54:-0.8556021 55:-1.3219455 56:-0.84469607 57:-0.32562652 58:1.5046372 59:-0.69913477 60:0.97687444 61:-0.86464573 62:1.5183267 63:-0.4227581 64:0.16763329 65:0.88041345 66:0.050148664 67:-1.0872941 68:1.354003 
-0.008316866176323932 1:-0.013966677 2:2.313211 3:0.64542717 4:-0.17601949 5:0.78170003 6:-0.76572116 7:1.7563786 8:-0.39881009 9:1.6508911 10:0.7207201 11:0.62256604 12:-0.73875564 13:-0.9925952 14:0.065131224 15:-0.56844975 16:-0.623126 17:-2.1937436 18:-1.7174607 19:-0.50094572 20:-0.70230123 21:0.29310307 22:1.8758127 23:-1.0107622 24:0.25993648 25:2.5606285 26:1.5746986 27:1.3805317 28:1.2516815 29:-1.0576787 30:0.75646614 31:-0.94379915 32:-1.2302965 33:-1.2823838 34:1.8662384 35:0.42869216 36:1.5700802 37:0.16342753 38:0.019819388 39:-0.79302149 40:-0.22699628 41:1.7072269 42:0.039789769 43:-0.59561537 44:-1.0445922 45:-0.48368485 46:-0.26203284 47:-1.0456576 48:0.10559434 49:-0.12089525 50:0.45918202 51:-0.086847316 52:0.67649265 53:0.23663557 54:0.21423958 55:-0.41648266 56:0.92177318 57:-1.1250484 58:0.2902181 59:1.7029551 60:1.0919029 61:1.2108936 62:2.0727121 63:-1.1199299 64:1.4170588 65:-0.28442814 66:-1.4388352 67:-1.1659924 68:2.4153712 
-0.007686068469295368 1:0.68365683 2:-0.85516424 3:-0.6719691 4:0.94744994 5:0.90530648 6:0.7189531 7:-0.49891606 8:0.73188607 9:0.37385445 10:-0.62222803 11:-0.1325118 12:-0.0037245856 13:0.086444736 14:-1.1171377 15:-1.217409 16:-0.31724061 17:-1.7988589 18:-1.7020976 19:0.5663706 20:-1.2739096 21:0.93097289 22:-0.64324098 23:-1.0949059 24:-0.39651505 25:3.0882351 26:1.2491613 27:1.3948168 28:0.59521635 29:-0.48799939 30:-0.065386031 31:-1.0581209 32:-0.89057157 33:-0.99849299 34:0.42727071 35:1.1881079 36:-1.1120244 37:0.87367169 38:0.58646134 39:-1.5495633 40:1.5204875 41:0.12047187 42:1.1815516 43:0.4958283 44:0.55013643 45:-0.39596076 46:0.5292407 47:-1.669971 48:2.8496083 49:0.73430831 50:1.6863166 51:0.74516083 52:1.2416833 53:0.96913981 54:0.60999331 55:0.50245285 56:-0.48641164 57:-1.220078 58:0.43922586 59:3.2897882 60:1.3345881 61:1.0406317 62:1.6951069 63:-0.40974597 64:-0.04512755 65:-1.0935671 66:-0.49173366 67:-1.0081067 68:2.0101656 
0.002641931452123111 1:2.3920386 2:-0.034056339 3:-0.080897017 4:2.396021 5:2.2784755 6:1.7279418 7:0.095739913 8:2.9402283 9:-1.404922 10:-1.3835969 11:0.7373532 12:-0.82023136 13:-0.63801511 14:-0.80586617 15:-1.7423492 16:-0.81902747 17:0.43123086 18:-0.30457483 19:1.6904256 20:1.8160504 21:-0.34191925 22:-1.0678651 23:-0.79380548 24:-0.97373037 25:-0.084421073 26:-0.63417343 27:-0.14566471 28:-0.57823859 29:1.0173389 30:1.4707075 31:-1.0496535 32:0.048158116 33:0.31973824 34:-0.78456594 35:0.072529742 36:0.16170426 37:-1.0822768 38:-0.83229302 39:-2.3202255 40:-1.3245532 41:-1.3770213 42:-0.52597795 43:-1.7478585 44:-1.2726783 45:-1.8642291 46:-0.94249545 47:-1.1935099 48:-1.0956777 49:-0.60942277 50:1.1204235 51:-0.29278087 52:-0.33333205 53:0.40337144 54:-0.17813286 55:-1.3136601 56:-0.76604843 57:-0.63718212 58:-1.47565 59:0.80454898 60:-0.52717245 61:0.071518249 62:-0.73811301 63:1.2074179 64:1.28185 65:-1.1552164 66:-1.3006649 67:1.0814304 68:-1.074778 
-0.01 1:-1.568585 2:-0.6325117 3:-0.55530978 4:-1.6096426 5:-0.47871383 6:-1.3487574 7:0.53132469 8:-1.4166447 9:-1.082703 10:1.3114581 11:0.22522776 12:1.7462282 13:1.1569668 14:0.85106927 15:1.3158769 16:0.036189987 17:1.3207573 18:1.4450163 19:0.35879165 20:0.79321454 21:1.1503026 22:-0.66739538 23:-0.8568406 24:2.8934983 25:-0.4350982 26:2.2324208 27:-1.0202735 28:1.0362073 29:-0.61961721 30:-0.74515375 31:-1.1387256 32:0.58418406 33:-1.0387611 34:1.5510171 35:-1.3887755 36:-0.72776414 37:-0.19769604 38:-0.94635942 39:1.2383342 40:-1.1069991 41:0.32322425 42:-1.522918 43:0.19190725 44:-0.58152864 45:-0.52069149 46:-0.68280404 47:-0.31157165 48:-0.49856013 49:-0.65407211 50:-0.19834187 51:-1.3359827 52:-0.85312827 53:-1.1899122 54:-1.0608222 55:-1.253339 56:-0.88833997 57:-0.69725129 58:2.098577 59:-0.38679873 60:1.4977738 61:-1.1434643 62:1.0909057 63:-0.49230065 64:-0.76734959 65:-1.4457439 66:0.51165954 67:-1.035982 68:0.059114415 
-0.01 1:-1.6437594 2:-0.35014782 3:0.19690422 4:-0.84010119 5:1.5493407 6:-1.4170779 7:1.5447262 8:-1.3956921 9:-0.96676918 10:0.88700613 11:0.71904013 12:1.4132591 13:1.3983526 14:0.96038336 15:1.2072348 16:1.3223293 17:1.596587 18:-0.21921164 19:-0.19944267 20:0.56281511 21:0.49547055 22:-1.070941 23:-0.86705579 24:0.75968263 25:-1.163673 26:-0.88418493 27:-1.0493451 28:2.2347987 29:-1.1728736 30:-1.2620871 31:0.48697427 32:1.1572448 33:-1.3406988 34:1.2735055 35:-1.4863934 36:-0.83947002 37:-1.040271 38:-0.38937724 39:-0.89831789 40:-1.8685887 41:1.3707231 42:-1.2326407 43:-2.3061898 44:-1.7618545 45:-0.67747062 46:-0.74329858 47:-1.2044543 48:-1.5785845 49:-1.4664459 50:-1.1061671 51:-1.2660588 52:-1.38274 53:-1.216684 54:-0.98662537 55:-1.0664196 56:-1.2550812 57:-0.86294567 58:0.32018914 59:-1.1182478 60:-1.090322 61:-1.1822907 62:1.0938349 63:-1.0639294 64:-1.1185163 65:0.38113213 66:0.080275481 67:-1.2843515 68:-0.13979521 
-0.01 1:-0.80299018 2:-0.37768585 3:0.60378637 4:-0.86466387 5:0.33793016 6:-0.9376365 7:0.72717159 8:-0.79110953 9:0.27005458 10:1.1547145 11:0.14420825 12:1.1791858 13:0.87832671 14:0.48529007 15:1.7695936 16:0.65280192 17:0.44594087 18:-0.79706176 19:0.032280808 20:0.60349298 21:-0.20646245 22:0.073711488 23:-0.83458406 24:0.04236353 25:-0.53019572 26:-0.69711901 27:-0.85111002 28:0.29542576 29:-0.96861018 30:-1.0641793 31:2.039381 32:1.266662 33:-1.0265028 34:0.5598044 35:-0.29869856 36:-0.84497979 37:-0.74411596 38:-0.13529107 39:-0.58103057 40:-1.0679623 41:0.42880571 42:-0.72012749 43:-1.1023393 44:-0.60303033 45:-0.56860974 46:-0.43197681 47:-0.011175177 48:-0.3442674 49:-0.86379549 50:-0.94149893 51:-1.037642 52:-0.34279092 53:-0.68328395 54:-1.0549872 55:-0.80484304 56:0.52360043 57:-0.98427496 58:-0.66056905 59:-0.61767159 60:-0.71212886 61:-1.0440479 62:0.36242526 63:-1.0655296 64:-1.0974404 65:2.7527017 66:0.51205919 67:-0.84697244 68:0.017316195 
-0.01 1:-0.38392012 2:1.0078257 3:-0.16313087 4:0.41742239 5:2.8116262 6:-0.62305181 7:0.56306462 8:-0.55491422 9:-0.5975153 10:0.086535483 11:1.3723581 12:1.2458487 13:1.34208 14:1.5500849 15:0.82446762 16:-0.018025922 17:1.0710414 18:-0.15380096 19:-0.16555902 20:-0.66838261 21:-1.487684 22:-0.026275792 23:-1.299809 24:0.10280066 25:-1.2717472 26:-1.6233629 27:-1.2977897 28:0.83304323 29:-1.1583905 30:-1.4453275 31:0.045326532 32:2.5209676 33:-0.99126398 34:1.2978635 35:0.43527491 36:2.6666126 37:0.38032243 38:0.64512679 39:-0.049875746 40:1.4447541 41:0.5253175 42:1.5195386 43:0.088965279 44:-0.21490771 45:-1.1368947 46:-0.83604662 47:-1.1627806 48:-0.94330691 49:-1.9424136 50:-1.0530014 51:-0.91515866 52:-0.78587573 53:-0.41293488 54:-0.90382288 55:-0.13217563 56:-0.14360415 57:-1.0976133 58:0.31019062 59:-1.0761562 60:-1.6476163 61:-1.3287757 62:1.5005031 63:-1.0486464 64:-1.3295523 65:0.67901155 66:2.3752109 67:-0.95173723 68:1.2419961 
-0.01 1:-1.0476088 2:-0.40063702 3:0.075335971 4:-1.2717973 5:-0.55891873 6:-0.896319 7:0.071098341 8:-1.0029799 9:-0.52455619 10:1.1267065 11:0.41733312 12:-0.030442576 13:1.3221985 14:1.0537124 15:0.71960904 16:0.27632504 17:1.624333 18:1.2488428 19:0.030351779 20:1.0532588 21:0.1582184 22:-0.26910694 23:-0.068522919 24:1.9305086 25:-0.70507835 26:1.1646062 27:-0.93260878 28:0.84320179 29:-0.60477489 30:-0.42851572 31:-0.78272978 32:0.10935177 33:-0.37706418 34:0.54178044 35:0.073556838 36:-0.45168024 37:-0.87800777 38:-0.27840605 39:-0.32484366 40:0.83454047 41:0.51053662 42:-0.38043339 43:0.56076653 44:0.38106632 45:-0.056195017 46:-0.43239271 47:-0.12558384 48:-0.41294924 49:0.53168676 50:-0.85373162 51:-0.84947263 52:-0.99877313 53:-0.52171359 54:-0.65035827 55:-0.82831803 56:-0.55007314 57:-0.051512335 58:1.5451829 59:-0.61780042 60:0.71842481 61:-1.060166 62:0.65048603 63:-0.68788629 64:-0.56936656 65:-0.72140414 66:0.19890718 67:-0.3345867 68:0.71916213 
0.01 1:-1.8040435 2:-0.25291311 3:1.3493793 4:-1.3017173 5:-0.26711588 6:-1.62204 7:1.7152557 8:-1.6397673 9:-0.99812854 10:0.95027099 11:-0.88507487 12:-0.28899005 13:-0.22921166 14:0.84694895 15:0.56671673 16:0.80471193 17:0.87071141 18:-1.1883218 19:-1.1190768 20:-0.06658789 21:0.40732829 22:-0.17893727 23:-0.50986938 24:-0.49146085 25:0.70360876 26:0.5486639 27:0.049204673 28:-0.60510635 29:-0.55022245 30:-0.46494697 31:0.065979913 32:1.139785 33:0.1809562 34:0.31435841 35:-1.7218218 36:-0.77343237 37:-0.76170379 38:-1.5049312 39:-1.10487 40:-2.4358304 41:-0.23197299 42:-2.139839 43:-1.1508473 44:-1.784937 45:-1.0984414 46:-0.96731833 47:-1.1980886 48:-1.9003467 49:-1.7203127 50:-1.3351641 51:-0.86054587 52:-0.63237719 53:-1.1284475 54:-0.83046472 55:-0.81751471 56:-0.012097264 57:-0.53815618 58:-0.82548431 59:0.71244031 60:0.22815481 61:0.41428036 62:-1.2708347 63:-0.52665768 64:-0.42488486 65:-0.081340882 66:-0.55923341 67:0.73465928 68:-1.773989 
0.0008751748883436931 1:0.25644997 2:1.3463315 3:0.39597766 4:0.32260103 5:0.64246678 6:-0.45954034 7:-0.51964232 8:-0.38881262 9:1.1275571 10:0.39569028 11:1.9912325 12:-0.13290143 13:-0.59930371 14:0.48156991 15:-0.32093106 16:-0.094195626 17:1.4918164 18:-0.83656454 19:-0.32793634 20:-1.0850255 21:-0.73280806 22:0.93457958 23:-0.10399873 24:-0.32722595 25:-0.2410148 26:0.61807007 27:0.65858118 28:0.17901534 29:-1.0746913 30:-0.71762952 31:0.84053201 32:-0.31328011 33:0.020950915 34:0.30760238 35:0.60057968 36:0.90021028 37:1.2455816 38:0.23535206 39:-0.88782409 40:0.26305231 41:-0.47106062 42:0.3323122 43:-0.35940951 44:0.31800491 45:-0.66469262 46:-0.62103235 47:-0.18286172 48:-0.90663446 49:-0.85126446 50:0.30562408 51:-0.69338264 52:-0.55887539 53:-0.10707557 54:-0.18912592 55:1.0551967 56:1.1930228 57:-0.13272339 58:0.066014747 59:-0.23262489 60:0.94030506 61:0.63251791 62:0.12623336 63:-0.99097202 64:-0.24425368 65:1.091243 66:0.3561738 67:0.81434388 68:0.15048025 
-0.003710628422318408 1:-0.21261749 2:0.10672084 3:1.4520645 4:-0.42204842 5:-0.82062824 6:-0.17151342 7:-0.70368205 8:-0.17152664 9:0.73268792 10:0.33977107 11:0.74078302 12:0.69865797 13:-1.3472214 14:1.5811251 15:0.85061281 16:-1.7471557 17:1.8638636 18:-0.88702503 19:-0.57217507 20:-0.95366385 21:-0.25479992 22:0.32522673 23:-0.88544916 24:-0.84612119 25:-0.65074237 26:-0.92455523 27:-0.60412336 28:-0.3705264 29:-0.68557611 30:0.27581957 31:3.3027651 32:-0.28294901 33:-0.50860495 34:-0.27831894 35:-0.22742601 36:-0.17997607 37:-0.54802062 38:-0.51745373 39:0.4078241 40:-0.088160337 41:-0.43899975 42:-0.18605061 43:0.05763945 44:-0.65696706 45:0.40245745 46:0.47128719 47:1.2957472 48:-0.72576681 49:-1.3895738 50:0.40382277 51:-0.23108962 52:0.96458533 53:0.4660717 54:-0.074305071 55:0.62967669 56:0.92776591 57:-1.0913264 58:-0.90076718 59:-0.53105867 60:-1.0388668 61:-0.69488337 62:-0.65230532 63:-0.86897794 64:0.32389343 65:1.7271093 66:0.15783623 67:-0.57677704 68:-0.64238341 
0.008721662166789785 1:-0.24765126 2:1.5770674 3:0.42915497 4:-0.48569638 5:-0.95757598 6:-0.21271492 7:-0.64683507 8:-0.18337072 9:1.7083381 10:0.059792231 11:0.43385697 12:1.4332411 13:1.3892543 14:1.5385235 15:1.1865018 16:0.77355533 17:0.6488984 18:1.919075 19:0.017993393 20:1.4102761 21:0.81849292 22:-0.8687753 23:-0.93721367 24:0.94838496 25:-1.0815056 26:-0.71336977 27:-0.90252158 28:0.004911608 29:-0.12437253 30:-0.66862298 31:0.19009084 32:2.5108015 33:-1.2058313 34:0.82906057 35:-0.23880833 36:1.1585682 37:-1.0009104 38:0.0058600168 39:-0.93404764 40:0.64148536 41:-0.259001 42:-0.23432416 43:-1.1677105 44:0.62386938 45:0.34309369 46:-0.072202604 47:0.20656505 48:-0.21871346 49:0.61211863 50:0.63063845 51:0.15034039 52:-0.17122672 53:-0.90659359 54:-1.2107184 55:-1.3525942 56:-0.82256682 57:-0.91821875 58:1.0980992 59:-1.0872207 60:-0.73741576 61:-0.72549305 62:-0.47913251 63:-0.092724839 64:-0.9523515 65:0.09979177 66:3.5108779 67:-1.2353141 68:0.45652674 
0.01 1:-0.56319732 2:0.18456578 3:-0.79684346 4:-0.80593648 5:-0.67699075 6:-0.47536663 7:-0.33040963 8:-0.44364266 9:0.014964896 10:0.69025161 11:0.61251882 12:1.6209815 13:0.9059942 14:-0.31882629 15:0.81454204 16:1.2045503 17:1.2284879 18:1.9500107 19:-0.086183633 20:0.71665635 21:1.6212418 22:-0.40559907 23:-0.53162367 24:2.4851039 25:-1.0551034 26:1.4606769 27:-0.61084142 28:0.49762371 29:-0.81683385 30:-0.59934833 31:-0.97286243 32:0.12142422 33:-0.65589682 34:0.51220555 35:-0.32357968 36:0.095431133 37:-0.042445406 38:0.062052624 39:-0.33914979 40:0.066885334 41:0.008737356 42:-0.22346094 43:-0.69815538 44:0.21403092 45:-0.79086126 46:-1.2314531 47:-0.69949804 48:-1.2668233 49:-0.60991014 50:-1.5290121 51:-1.1375278 52:-1.3081121 53:-1.3231434 54:-1.3084199 55:-1.5541811 56:-0.80954738 57:-0.38551401 58:1.6165509 59:-1.1387074 60:0.67736578 61:-0.7946138 62:-0.78309693 63:-0.83369265 64:-0.92154626 65:-1.2605655 66:-0.12426562 67:-0.87904529 68:-0.4718589 
0.01 1:-0.498941 2:0.80608271 3:0.37614568 4:-0.16340712 5:0.77732057 6:-0.53066149 7:-0.68183598 8:-0.70098786 9:-1.1939223 10:0.12543687 11:0.5477712 12:0.79841093 13:0.82419198 14:0.20430571 15:0.54925703 16:1.4775014 17:0.55311419 18:1.6290595 19:0.28997552 20:1.1765141 21:1.0730366 22:-0.96764928 23:0.021584864 24:0.19852439 25:-1.0066236 26:0.3726009 27:-0.82354032 28:2.3231559 29:-0.88418632 30:-0.90170658 31:-0.7389954 32:0.94664719 33:-1.1807283 34:1.4993666 35:-1.9266438 36:0.59010789 37:-1.31361 38:-1.6291782 39:-1.7282253 40:-1.3531613 41:-0.77938574 42:-2.1560833 43:-1.5596927 44:-0.77272823 45:-1.338215 46:-1.6454354 47:-1.1358732 48:-1.5605205 49:-0.88275959 50:-2.0479266 51:-1.3358682 52:-1.3848181 53:-1.5056297 54:-1.769853 55:-1.7761017 56:-1.0870801 57:1.0870398 58:0.30739465 59:-0.96231586 60:0.089037169 61:-0.94270498 62:-0.42537165 63:-0.96207027 64:-1.0393506 65:-0.63595686 66:0.28375349 67:-1.1569491 68:-0.98814692 
0.01 1:-1.5593368 2:-0.17798587 3:0.71112356 4:-1.5732127 5:-0.11531808 6:-1.4600602 7:-1.1648888 8:-1.4254864 9:-1.0515343 10:1.5369969 11:1.5658486 12:0.56785377 13:-0.67355739 14:0.36549492 15:1.2783335 16:0.79944744 17:1.3640407 18:1.3265876 19:1.1184179 20:0.40092356 21:-0.58919421 22:-0.35760059 23:-0.55253402 24:0.36824333 25:-0.81416272 26:-0.11172675 27:-0.57105125 28:0.51615395 29:-1.2265132 30:-0.7022687 31:-0.16637427 32:2.2786046 33:-0.4374192 34:0.46336117 35:-1.1925564 36:-0.57886287 37:-1.6923325 38:-1.2290929 39:-1.7969556 40:-0.57900821 41:-1.2125721 42:-1.305159 43:-2.4121559 44:-1.1383307 45:-1.9478296 46:-1.8316315 47:-1.5664046 48:-1.238431 49:-1.5914783 50:-1.3415604 51:-1.2848242 52:-1.8273141 53:-1.5680954 54:-1.7608944 55:-2.3679828 56:-0.88498539 57:-0.65669193 58:-0.64172828 59:-0.73684911 60:-0.78919626 61:-0.68165701 62:-1.348004 63:-1.225053 64:-0.5801827 65:-0.52787832 66:-0.332704 67:-0.62765341 68:-2.0717601 
0.006392543868398419 1:-1.3279474 2:0.45743302 3:1.7710982 4:-1.543677 5:-1.4163554 6:-1.2130894 7:-0.52866671 8:-1.1669969 9:1.6499792 10:1.4039956 11:0.075697427 12:1.6927289 13:1.3544315 14:0.063037409 15:-0.068568072 16:-1.5922237 17:0.53347139 18:-1.1685428 19:1.2800127 20:0.10237829 21:1.0031749 22:-1.0287377 23:-0.98332044 24:-1.0321392 25:-1.2466639 26:2.4849299 27:3.6109772 28:1.5347164 29:-0.65050414 30:0.36045344 31:0.49756199 32:-0.38591447 33:-1.0895879 34:0.71498378 35:-1.2713744 36:-0.17786857 37:-0.94861279 38:-0.97406967 39:0.10340561 40:-2.1463408 41:-0.65519342 42:-0.74932602 43:-0.59992252 44:-1.4067637 45:-0.11439729 46:-1.5187592 47:-1.4802686 48:-0.137986 49:-0.25615741 50:0.60073803 51:-0.70921941 52:-0.16372488 53:-0.79839284 54:0.28418265 55:-0.73785349 56:-1.2455438 57:-1.0082997 58:-1.293484 59:-1.2926877 60:1.891636 61:2.0084678 62:0.35398437 63:-0.64105207 64:0.21653173 65:0.47105348 66:0.5227581 67:-1.1251805 68:-0.65208478 
0.01 1:0.89022744 2:-1.2480037 3:0.78977218 4:0.90853299 5:0.011495167 6:1.1382442 7:0.93789216 8:0.90468911 9:-2.1941213 10:-1.3066554 11:0.42527852 12:-1.7912147 13:-0.051438674 14:-0.29708138 15:-1.3370488 16:-0.94633833 17:-1.3190569 18:0.53981585 19:0.91052184 20:0.50525154 21:-0.49028283 22:-0.64421112 23:-0.90478642 24:-0.66147848 25:1.0645427 26:-0.50043153 27:-0.23258116 28:-1.0617662 29:0.45500488 30:0.19865799 31:0.25326085 32:-0.35460891 33:-0.35979591 34:-0.584564 35:0.28416699 36:-0.9867622 37:0.3450797 38:-0.48945516 39:-0.2309487 40:1.0467006 41:1.3874457 42:0.13337638 43:1.5077531 44:1.2732396 45:-0.5630905 46:1.7856385 47:-0.1167844 48:0.74873509 49:0.5438937 50:-0.051548688 51:1.3452275 52:1.556501 53:1.2246771 54:1.0825668 55:0.52412326 56:-0.14720689 57:-1.0531568 58:-0.23974661 59:1.8883569 60:-0.14272481 61:-0.020855075 62:-0.85463322 63:0.62130765 64:0.34369325 65:0.9509176 66:0.44489617 67:0.021411342 68:0.33537245 
0.01 1:1.9406352 2:-0.87115085 3:0.39348192 4:1.7614446 5:-0.053928831 6:2.1333831 7:-1.0845468 8:1.6325683 9:0.37878588 10:-1.927827 11:-0.83401615 12:-1.1204062 13:-0.098055576 14:-1.434799 15:-0.56481538 16:-0.81260763 17:0.17448932 18:-0.43133792 19:-0.052036625 20:0.73189308 21:0.39822323 22:-0.90977556 23:1.203144 24:-1.1298262 25:-0.33948976 26:0.66367479 27:0.29790408 28:-1.3750275 29:0.42094352 30:-0.22430574 31:-0.31889337 32:-1.1126343 33:0.51049377 34:-1.6121576 35:0.79782173 36:-0.85575822 37:0.81683724 38:0.19346505 39:-0.20466227 40:0.009808006 41:-0.58792822 42:0.49849181 43:-0.24099635 44:0.049178764 45:0.38612638 46:1.2253254 47:0.74133575 48:1.7103622 49:0.72929608 50:1.6291552 51:1.8036738 52:1.1147497 53:0.56581708 54:1.5111495 55:0.82806644 56:-1.0610891 57:0.7722473 58:-1.1779787 59:-0.48084713 60:0.99979708 61:0.289594 62:-1.6683751 63:-0.024710493 64:-0.36710552 65:-0.093205628 66:-1.5134944 67:0.18857897 68:-1.1693632 
0.01 1:0.73374831 2:-0.58885327 3:-2.1660498 4:0.4172381 5:-0.98651836 6:0.20439525 7:-0.028289634 8:0.44791179 9:-0.22958543 10:-0.26871583 11:-0.16453266 12:-0.60886583 13:0.23275821 14:0.73330498 15:-0.9432382 16:0.56453115 17:0.62351497 18:-0.16873721 19:-0.93161078 20:-1.2109457 21:-0.6084925 22:0.97990415 23:0.37477142 24:-0.27015469 25:0.091276391 26:0.20075819 27:0.13419985 28:-0.44773368 29:-0.12484133 30:-0.55947354 31:-0.026723615 32:-0.3757457 33:1.439798 34:-0.62295583 35:1.3967714 36:-0.73813421 37:2.0112085 38:1.5197507 39:0.89850242 40:0.24346912 41:-0.1716974 42:0.78891195 43:-0.27009528 44:1.3541992 45:0.72951958 46:0.13429156 47:1.6207447 48:-0.31630174 49:0.26719557 50:0.40707609 51:0.26966124 52:-0.39868493 53:-0.41003133 54:0.43268903 55:0.82231112 56:0.78220901 57:0.35883674 58:0.17285224 59:0.1049166 60:0.30543668 61:0.14913621 62:-0.09361495 63:0.21323546 64:-0.33579233 65:-0.045258964 66:-0.43089827 67:1.7286853 68:-0.032789355 
0.01 1:2.4597353 2:-0.93828287 3:-0.13657329 4:2.0664726 5:-0.081964874 6:1.9686319 7:-1.0805683 8:1.9768741 9:-0.44282347 10:-1.9905483 11:-0.09041692 12:-2.571778 13:-1.0965891 14:-0.82500675 15:-1.8572063 16:-0.13494646 17:-0.83970147 18:-0.45343267 19:1.6315756 20:0.30710124 21:1.1548043 22:-0.55794763 23:0.10482269 24:-1.0797773 25:0.35973573 26:-0.62457068 27:-0.18938795 28:-1.4184964 29:0.74934716 30:0.7500168 31:-0.45271045 32:-0.81000838 33:0.61389827 34:-1.5505598 35:1.3575571 36:-0.83254437 37:0.17770494 38:0.87465047 39:-0.25883429 40:0.78683171 41:-0.92289413 42:1.0288565 43:-0.044278914 44:1.5113699 45:0.40323723 46:0.49292484 47:0.5821632 48:0.16201105 49:0.31225097 50:1.0545619 51:2.0619669 52:1.7453277 53:1.4714281 54:1.5214254 55:0.48380662 56:-0.49859471 57:0.35444606 58:-1.2959558 59:0.66235042 60:-0.47882634 61:-0.15106079 62:-1.7373391 63:1.3259624 64:1.1079253 65:-0.16081012 66:-0.59788785 67:0.89084742 68:-1.292218 
0.01 1:-0.68510677 2:-1.1298494 3:0.75616431 4:-0.68840635 5:-0.89007562 6:-0.55958268 7:0.59883246 8:-0.47045378 9:-1.0258241 10:0.38019818 11:-0.96726175 12:-0.097431699 13:-0.010275016 14:-0.14446869 15:-0.3656256 16:-0.5247875 17:-0.30042788 18:-0.48306854 19:-0.073355464 20:-0.83562465 21:-0.73924502 22:1.169896 23:-0.083171941 24:-0.033790336 25:0.65623489 26:-0.51479489 27:-0.41608272 28:1.5737686 29:0.67939839 30:0.19576907 31:-0.18936958 32:-0.65103845 33:1.58372 34:1.224492 35:-0.23694806 36:-1.0630116 37:0.10537457 38:0.82619049 39:1.1026529 40:-0.43331789 41:0.11084972 42:0.24423808 43:0.28186756 44:0.49145784 45:0.53720684 46:-0.18439217 47:0.55995862 48:0.97351596 49:-0.27710142 50:0.70795643 51:1.2346807 52:1.4609474 53:0.18328828 54:0.46352207 55:0.76546152 56:0.43185554 57:-0.091655844 58:0.052921194 59:0.65256556 60:0.18570332 61:-0.33036053 62:1.5069337 63:0.70128916 64:0.35673541 65:-0.0071943913 66:-0.23164538 67:1.4548362 68:1.5543428 
0.01 1:1.0699479 2:-0.88641344 3:0.97986289 4:1.4174423 5:0.85359125 6:1.2527519 7:-0.32863227 8:1.176361 9:-0.9630969 10:-1.5560067 11:-1.0511602 12:-0.47929619 13:-0.48980952 14:-1.6466618 15:-0.47524535 16:-1.6175322 17:-0.84568172 18:-0.17757344 19:-0.036686708 20:-0.29311897 21:0.016360457 22:-0.51551582 23:-0.71840408 24:-1.0047214 25:0.45039495 26:0.90351145 27:1.0482137 28:-1.2877284 29:-0.54978576 30:-0.23996317 31:-0.43185745 32:-0.37682958 33:-0.23802269 34:-0.81551563 35:0.028498395 36:-0.9918753 37:-0.14096086 38:-0.68006571 39:0.3362689 40:0.42411544 41:0.4892544 42:0.46699682 43:-0.21655454 44:0.63188108 45:0.66188849 46:1.3952614 47:0.387111 48:0.96014026 49:0.7462069 50:0.67317964 51:1.8642992 52:1.7800528 53:1.0708942 54:0.77362886 55:1.9704182 56:0.2404537 57:-0.37105909 58:-0.94557868 59:0.62030294 60:1.5853438 61:1.367278 62:-1.3345516 63:-0.80464335 64:-0.091272156 65:-0.23247413 66:0.23790433 67:-0.080648188 68:-0.028706551 
0.01 1:0.11802791 2:-0.5314944 3:-1.1672858 4:-0.32595047 5:-0.83226419 6:0.1475218 7:-0.5880348 8:0.079973945 9:0.46747776 10:0.36031453 11:-0.62569604 12:0.57101486 13:0.61554283 14:0.42313584 15:0.014384943 16:0.24344279 17:0.58025567 18:0.34443459 19:-0.88955022 20:-0.79219802 21:-0.21749248 22:0.4937611 23:-0.30028167 24:-0.13272512 25:-0.16319032 26:0.10643964 27:-0.31918262 28:-0.32919948 29:0.29819196 30:-0.22957512 31:0.33840512 32:0.030375713 33:0.68106185 34:-0.6483481 35:0.35550132 36:-0.40941567 37:0.66987129 38:0.44294479 39:0.92292022 40:0.27734824 41:-0.81161065 42:0.30687991 43:-0.023071349 44:0.33161693 45:1.100734 46:0.14897623 47:0.70755644 48:0.86488803 49:1.4074883 50:0.40127426 51:-0.49330188 52:-0.22860326 53:-0.10663493 54:-0.22324547 55:-0.21863328 56:0.72758775 57:-0.67230331 58:0.19401284 59:-0.26400237 60:-0.15513002 61:-0.38727131 62:-0.76760912 63:0.4560437 64:-0.30474313 65:0.064115764 66:0.21714812 67:0.16287365 68:-0.98159185 
0.01 1:1.0183337 2:-1.1514672 3:1.1810392 4:1.5246907 5:0.81687272 6:1.4476795 7:-0.54960273 8:1.3236292 9:-1.2624861 10:-1.9174501 11:-0.89551864 12:-0.69801879 13:-0.39655108 14:-1.5854864 15:-1.0840099 16:-1.2145633 17:0.15508424 18:0.4771231 19:0.37766278 20:-0.41398801 21:-0.26531686 22:-0.39133795 23:-0.020434018 24:-0.87844026 25:-0.33032936 26:-0.7810868 27:0.68403484 28:-1.1157393 29:-0.090021903 30:1.0453599 31:-0.39501272 32:-0.86841107 33:1.7205899 34:-0.93198985 35:-0.67184032 36:-1.3011377 37:-0.010687402 38:-1.3525212 39:0.83257858 40:0.053089241 41:-0.76883769 42:0.015446948 43:0.15857878 44:0.28077306 45:-0.161724 46:1.8840732 47:0.32997767 48:0.206096 49:1.7341153 50:1.172852 51:1.7813062 52:1.5588338 53:1.9206519 54:1.5064552 55:0.6683916 56:0.19174795 57:0.6668732 58:0.055711437 59:0.1879367 60:-0.57729308 61:1.8784158 62:-0.98510022 63:-0.34694062 64:1.2905046 65:-0.28666018 66:-0.60550559 67:2.157234 68:0.20287704 
0.01 1:0.3665495 2:-0.46718534 3:-0.93652968 4:0.22170643 5:-0.97835657 6:0.46269508 7:0.50174535 8:0.54473696 9:0.2390478 10:-0.25504597 11:-0.91514233 12:-0.92064389 13:-0.023406467 14:0.46934956 15:-0.95183417 16:-0.39338737 17:-1.0561268 18:-1.4940438 19:-1.9041638 20:-0.79828599 21:0.18082631 22:0.3819201 23:0.48693236 24:-0.44575159 25:0.84275652 26:1.4369542 27:0.45094383 28:-0.49961861 29:0.9462368 30:-0.050728575 31:-0.3216047 32:-0.91268268 33:0.35687293 34:-0.60492821 35:1.0795485 36:-0.34249921 37:1.1700024 38:1.6841618 39:1.3384847 40:0.69280557 41:0.98842359 42:1.546759 43:1.2177578 44:-0.13119855 45:2.3342818 46:0.58332896 47:1.3195046 48:0.1556169 49:0.32338665 50:0.36373356 51:0.74621791 52:1.1207538 53:0.88837037 54:0.56113415 55:1.640769 56:1.0770554 57:0.35114643 58:-0.28818371 59:0.14707403 60:1.3173132 61:0.32426471 62:0.44009373 63:1.4917442 64:-0.14424013 65:0.25180713 66:-0.97071778 67:0.36022796 68:0.9148312 
0.01 1:-0.11884099 2:-0.56252856 3:0.22350874 4:0.12800303 5:0.87831493 6:0.20118176 7:0.58336756 8:0.001103033 9:0.3967531 10:-0.32451574 11:-1.6368001 12:-0.81016365 13:-1.6369045 14:-1.5633029 15:-1.1361003 16:-1.6472302 17:0.80920927 18:0.50055534 19:2.2645903 20:0.078796118 21:0.44391601 22:0.052145048 23:0.9739389 24:-0.76276144 25:-0.21532064 26:-0.86773105 27:0.18956479 28:-0.29100855 29:1.0218251 30:2.8678512 31:-0.38705779 32:-0.79244495 33:1.2295668 34:-0.53690285 35:-0.52111344 36:-0.70727425 37:0.43183869 38:-0.30838858 39:1.094683 40:0.38053238 41:0.4759037 42:0.44598773 43:0.24651898 44:-0.44518113 45:0.38640671 46:1.0586881 47:0.73857775 48:1.0790259 49:0.83814908 50:1.7001005 51:2.531375 52:1.5467553 53:1.7039547 54:1.4487281 55:0.39564794 56:0.15622447 57:1.1695381 58:-1.0218852 59:-0.17601282 60:-0.79493709 61:0.13426417 62:0.10456147 63:1.0329249 64:1.9943202 65:0.02316826 66:-0.63632774 67:1.7523555 68:-0.33197502 
-0.005636891130777507 1:1.5579688 2:-0.74287907 3:-2.4194035 4:1.4476666 5:0.18567923 6:1.389992 7:-0.947714 8:1.5303687 9:-0.084564589 10:-1.1577348 11:0.020852383 12:-0.86998766 13:-0.68269748 14:0.23931312 15:0.5553971 16:0.44546215 17:0.55359488 18:0.31451389 19:-0.358998 20:-0.78318654 21:-0.68101587 22:0.7195343 23:1.4789165 24:-0.55979068 25:-0.44691611 26:-0.94618227 27:-0.75048547 28:-0.93896728 29:0.045020457 30:-0.16506748 31:0.3394255 32:-0.5567038 33:1.0369138 34:-1.2500606 35:1.7231513 36:-0.39534199 37:1.5292238 38:1.1328826 39:-1.2070446 40:1.0241983 41:-0.53728827 42:1.0987358 43:0.21025735 44:1.0780437 45:0.89997023 46:1.1021299 47:1.9564958 48:-0.012001427 49:1.3287369 50:-0.38172667 51:-0.021594987 52:0.034522175 53:-0.12012228 54:0.073951365 55:0.66507923 56:0.38629652 57:1.7808668 58:-0.33782951 59:-0.40656954 60:-0.75790344 61:-0.77577044 62:-0.78311465 63:-0.19213318 64:-0.012102294 65:0.55744409 66:-0.57647881 67:0.56698828 68:-0.26607705 
-0.008041119282231248 1:0.31050556 2:-0.87554774 3:0.21278238 4:0.85491122 5:0.059074987 6:0.92978054 7:-0.25216076 8:1.2725294 9:-0.12291464 10:-0.81799556 11:0.020182626 12:-2.1616932 13:-0.8806986 14:-0.86123123 15:-0.72871017 16:-0.22273999 17:-2.6429847 18:-1.7559574 19:-1.3023725 20:1.5912442 21:1.8827893 22:-0.53990406 23:0.073369228 24:-0.57548337 25:1.1497758 26:2.6420668 27:1.2319742 28:-0.98048022 29:-0.44391445 30:-0.34566583 31:-0.73310172 32:-1.0813227 33:0.8039265 34:-0.63810302 35:-0.10055586 36:-0.83562622 37:0.54180908 38:0.095906466 39:-0.54044959 40:1.0713988 41:0.082084539 42:0.53539208 43:0.66070623 44:1.0431096 45:-0.66200422 46:2.1812855 47:-0.098136263 48:0.81417444 49:0.61974591 50:0.80246719 51:1.3777377 52:0.99543198 53:2.3999564 54:1.2157883 55:1.0467354 56:-0.4029565 57:0.179379 58:-0.086466596 59:1.0826964 60:3.402032 61:0.75230424 62:-0.70800091 63:-0.501542 64:-0.15050877 65:-0.31211118 66:-0.76776841 67:1.2076428 68:-0.38317571 
-0.01 1:0.30037881 2:-0.35965986 3:0.52266225 4:0.15980419 5:0.19008703 6:0.33088486 7:-0.2834595 8:0.0062173441 9:0.16998839 10:-1.0804074 11:-2.2583596 12:-0.44375498 13:-2.0719423 14:-0.85871732 15:-0.96360072 16:-1.5353807 17:-1.642655 18:0.10731983 19:2.133375 20:1.8199699 21:0.21962436 22:-0.68857028 23:-0.21342828 24:-0.99386036 25:0.062561567 26:0.024222625 27:1.2211289 28:-0.52056369 29:2.2330608 30:3.0678224 31:-0.80001804 32:-1.0919221 33:-0.64385698 34:-0.88393437 35:-0.79324213 36:-0.28861195 37:-0.21986394 38:-0.79006446 39:0.65373783 40:0.10490528 41:-0.26604567 42:-0.46239099 43:-0.27262436 44:0.50836191 45:0.20231961 46:0.78338221 47:0.40430289 48:2.4360516 49:1.8213415 50:0.9743842 51:1.4441653 52:1.0425888 53:0.63797986 54:1.2853198 55:0.13950326 56:-0.24611042 57:-0.17671788 58:-1.1848271 59:0.097863947 60:0.2344251 61:1.5627475 62:-0.85252011 63:0.83341124 64:2.109555 65:-0.96536523 66:-1.0108533 67:-0.7924706 68:-0.85408203 
-0.005367568921029436 1:0.95043306 2:-1.4484984 3:-0.5810896 4:0.9545803 5:0.83864941 6:1.0283435 7:0.070066063 8:0.87764394 9:-1.9709555 10:-1.0206919 11:-0.24475632 12:-0.087385581 13:0.3409235 14:-0.69068515 15:1.3311394 16:0.54005382 17:-0.50213858 18:0.129122 19:-0.35686263 20:0.31727925 21:-0.180505 22:0.059315745 23:0.5423106 24:-0.021094577 25:-0.60403631 26:0.25736784 27:-0.20939 28:-0.55116571 29:0.0062559661 30:-0.62178976 31:-0.48631632 32:-0.21932817 33:0.56114671 34:-0.78453536 35:1.2205243 36:-1.3629738 37:-0.16269975 38:0.57701777 39:0.0099027514 40:1.4993414 41:1.6272205 42:1.0983761 43:0.64875746 44:1.0505855 45:-0.037817338 46:-0.25174596 47:1.2308058 48:0.0318653 49:0.37161493 50:0.092512314 51:0.28639321 52:-0.14152725 53:-0.68052853 54:-0.15635623 55:0.39874853 56:0.25311251 57:1.2512204 58:0.39397359 59:-0.6225401 60:0.46685354 61:-0.449325 62:-0.58061891 63:-0.047301109 64:-0.72550397 65:-0.63449621 66:0.52293858 67:0.61472319 68:0.12836152 
-0.01 1:-0.062068749 2:-0.23856787 3:-0.41328369 4:-0.098042327 5:-0.82415968 6:0.361183 7:-0.59037461 8:0.26886756 9:0.35026158 10:-0.19522338 11:0.028053361 12:-0.95797724 13:-0.17942256 14:-0.0089847666 15:-1.0464388 16:0.17815235 17:-0.92152513 18:-0.33489412 19:-1.5735611 20:-0.65878327 21:0.32739738 22:0.6284019 23:0.79761384 24:-0.23760033 25:0.2750663 26:0.5156642 27:1.3467899 28:-0.74124944 29:0.59834753 30:-0.23777519 31:-0.51680487 32:-0.63935151 33:1.2755875 34:-0.88028144 35:-0.44780406 36:0.12861101 37:0.86521992 38:-0.43115401 39:0.27124753 40:-0.65914376 41:-0.7943886 42:-0.54973406 43:1.3065438 44:-0.29968624 45:0.10936621 46:0.48912992 47:0.33215427 48:1.0695433 49:0.98971864 50:0.82189406 51:0.061490205 52:0.22793987 53:0.42905853 54:0.49755837 55:1.8910622 56:0.54972882 57:0.69933775 58:0.40255403 59:-0.1477791 60:0.23939838 61:1.8226882 62:-0.97719217 63:0.64358218 64:-0.29058634 65:-0.70610257 66:-0.16587617 67:1.7485099 68:-0.94587712 
-0.00743068157772744 1:0.42952958 2:-0.64192479 3:0.38332604 4:0.94395875 5:1.3451518 6:0.80878401 7:-0.58201347 8:0.72454349 9:-0.21918567 10:-0.71642033 11:-1.2654187 12:-0.28981892 13:-0.46900269 14:-1.6247977 15:-0.67996283 16:-1.0296636 17:-0.28980262 18:-0.73607858 19:1.6778984 20:0.57281476 21:0.26994288 22:-0.62383311 23:0.53343502 24:-0.32721977 25:0.04329258 26:-0.52171033 27:0.29280017 28:-0.55061649 29:0.19598139 30:1.9915502 31:-0.32227826 32:-0.8533287 33:-0.25587019 34:-0.76439646 35:-0.16447968 36:-0.35111158 37:-0.55806265 38:-0.49736236 39:-0.20781176 40:0.30080262 41:-0.78191096 42:0.20209451 43:0.2361491 44:0.1073295 45:0.58098789 46:1.1666379 47:0.51936476 48:0.923995 49:0.67068545 50:0.49081883 51:0.65544487 52:1.3529402 53:0.45169416 54:1.4784613 55:1.1870102 56:-0.52555347 57:1.2045253 58:0.41383864 59:0.10323298 60:-0.11835521 61:0.49198712 62:-0.31372589 63:0.044562954 64:2.9272563 65:-0.039829712 66:-0.73039293 67:-0.20230817 68:0.045379847 
-0.01 1:1.3251229 2:0.068524069 3:-1.1533481 4:1.3942375 5:0.32340907 6:0.9667013 7:-0.38507973 8:1.1125989 9:0.057102651 10:-1.0765185 11:-1.1507984 12:-1.1260856 13:-0.67121238 14:-1.4064131 15:-0.56348256 16:-0.70359025 17:-0.069800926 18:-0.79146677 19:0.91794869 20:-0.010254734 21:0.24778645 22:-0.46329856 23:1.4734076 24:-0.55551604 25:0.95867857 26:-0.61030835 27:-0.43401043 28:-1.1096617 29:0.18872454 30:0.22506153 31:-0.50976908 32:-0.61977435 33:0.31792511 34:-1.2940596 35:1.7871885 36:0.64446393 37:0.82215336 38:1.4136922 39:-0.44047614 40:0.83685659 41:-0.016561801 42:1.4189407 43:1.6866896 44:0.47646667 45:1.4028074 46:0.82707063 47:1.0047504 48:1.8187984 49:0.85007241 50:1.0007066 51:0.84740051 52:1.6938024 53:1.9611878 54:0.68322774 55:0.64064279 56:-0.2187289 57:1.7036107 58:-0.60216322 59:1.5865591 60:-0.486418 61:-0.34002732 62:-0.94872142 63:0.40632269 64:0.3855735 65:-0.31821153 66:-0.13646727 67:0.16490523 68:-0.58977728 
-0.01 1:0.33006545 2:-1.5898245 3:-1.4740627 4:-0.36587986 5:-0.33814087 6:-0.18207706 7:-0.44183008 8:-0.39933019 9:-2.7450866 10:0.5870323 11:-0.28805064 12:0.097857153 13:0.9395991 14:-0.67118126 15:0.1850318 16:0.59960322 17:0.63042551 18:-0.024070837 19:-0.10600368 20:0.28039669 21:0.43749803 22:-0.046133078 23:0.37826509 24:-0.50852488 25:-0.55958017 26:-0.46526079 27:-0.37019085 28:-0.11614079 29:0.02774506 30:0.63798952 31:0.55847229 32:0.10196254 33:0.85013831 34:-0.76192237 35:-0.69400391 36:-1.7727522 37:-0.5986508 38:-0.57811878 39:0.041815869 40:-0.6311589 41:-0.78079822 42:-0.68784809 43:-0.78438307 44:-0.51261635 45:0.54622689 46:-0.14744427 47:-0.41599649 48:-0.097598574 49:-0.06207239 50:-1.3106927 51:-0.85354598 52:-1.0146398 53:-1.1218585 54:-0.93653246 55:-0.89364823 56:0.055975999 57:0.29687683 58:-1.2343391 59:-0.9622338 60:-0.58856341 61:-0.62903745 62:-0.76385109 63:-0.13191236 64:0.3355633 65:0.20183618 66:-0.85758858 67:0.51874989 68:-1.3147354 
-0.002897148937250294 1:1.0650364 2:-0.015606313 3:1.3825338 4:0.3838588 5:-0.16613559 6:0.95597593 7:-0.68668486 8:0.91367816 9:0.14667036 10:-0.76068922 11:-0.98695527 12:0.46418777 13:0.18194454 14:-0.844045 15:0.90048337 16:0.27548733 17:-0.80662708 18:-0.079962854 19:-0.56009085 20:0.23720557 21:-0.94232785 22:-0.32795019 23:3.3522793 24:-0.77782224 25:-0.68323563 26:-0.46392329 27:-0.27993711 28:-0.8463787 29:0.63853276 30:-0.084594167 31:0.51454965 32:-0.75154526 33:0.48147991 34:-1.2563883 35:0.50055902 36:0.88896663 37:-1.1275173 38:-0.16609666 39:0.91018237 40:0.57106477 41:-0.35289966 42:0.51775909 43:-0.97245807 44:0.85792377 45:0.34660089 46:0.47764092 47:1.3213629 48:1.7152849 49:0.47132603 50:0.21399961 51:0.18500669 52:-0.12336679 53:0.17921006 54:1.1705479 55:0.56536184 56:-0.36966022 57:2.8402853 58:-0.96312863 59:-0.85897843 60:-0.5155276 61:-0.31136467 62:-0.73557668 63:0.19652445 64:-0.13053031 65:0.27987409 66:-0.76248007 67:0.59929948 68:-1.1411227 
-0.008992897563916439 1:0.63194724 2:-0.36893094 3:0.66707707 4:0.67324879 5:0.28494404 6:0.82220671 7:-0.73513158 8:0.3124959 9:0.010390498 10:-1.0480937 11:-1.1577773 12:-0.055098955 13:-1.2104239 14:-0.320695 15:-0.85090761 16:-2.5691811 17:-1.7995783 18:-1.6289496 19:1.0023293 20:0.15129252 21:2.5054359 22:-0.40679904 23:0.58096716 24:-0.57498591 25:1.007516 26:0.24241015 27:3.6983697 28:-0.83087518 29:0.61675296 30:0.4329457 31:-0.96299192 32:-1.1818093 33:-0.0093314821 34:-0.40228817 35:-0.70601568 36:-0.61084198 37:-0.13611398 38:-1.5201357 39:0.33284909 40:0.35245557 41:-0.76675073 42:-0.54243218 43:-0.2663949 44:0.86783696 45:-0.25319526 46:1.0588546 47:-0.27602531 48:0.07219516 49:1.2755304 50:0.30310069 51:1.0926169 52:0.95443409 53:1.4293707 54:0.57759845 55:0.88445279 56:-0.00068032347 57:1.1030404 58:-0.73270477 59:1.273959 60:0.20673592 61:3.1880851 62:-0.60574626 63:0.5066834 64:0.20886115 65:-0.77005599 66:-1.3613008 67:0.16739134 68:0.15453397 
