svm_type c_svc
kernel_type linear
nr_class 2
total_sv 431
rho -0.0589182
label 0 1
probA -3.67077
probB -0.203729
nr_sv 215 216
SV
0.001 1:0.97186516 2:-1.4250197 3:-0.1111555 4:0.68613396 5:-0.96206504 6:1.6056731 7:-0.48687 8:1.1582858 9:-0.78960872 10:-1.8764714 11:-1.4979217 12:-1.1584516 13:-0.13393341 14:-0.84316022 15:0.62564266 16:-1.1877056 17:0.006043823 18:0.40215287 19:-0.36330901 20:0.036684931 21:-0.46208449 22:-0.58090927 23:-0.20504249 24:-1.1882226 25:-0.58004653 26:-0.80437398 27:-0.14623063 28:-0.82425349 29:0.94207461 30:0.81957788 31:-0.10381506 32:-0.82168798 33:0.918218 34:-1.4444636 35:0.17322424 36:-1.1369495 37:0.74983502 38:-0.060398753 39:-0.82076946 40:0.28743664 41:-0.53795445 42:-0.016726985 43:0.18533658 44:0.50397056 45:0.83524909 46:1.14151 47:0.9175239 48:-0.89685108 49:0.16125448 50:-1.057934 51:-0.31801302 52:-0.79677987 53:0.48122325 54:0.089025654 55:0.86239566 56:-0.39777252 57:-0.55952218 58:-1.3695754 59:-0.34946412 60:-0.5064139 61:-0.15961948 62:-0.84724371 63:1.4459982 64:1.8367103 65:0.062200661 66:-0.47242608 67:1.3591384 68:-0.5563931 
0.001 1:-0.72140465 2:-0.56589876 3:-0.13259624 4:-1.2357394 5:-1.741933 6:-0.72233109 7:0.21808757 8:-0.90957181 9:0.0016564035 10:0.16906416 11:-1.8444981 12:-1.3159251 13:-1.6760797 14:-1.1123837 15:-0.9454962 16:-1.3279944 17:-0.7200909 18:0.18802438 19:0.34997683 20:-0.19676207 21:-0.92400414 22:-0.53092385 23:-0.091850387 24:-0.99492321 25:-0.19079145 26:-0.46683842 27:0.59924139 28:-0.74397922 29:1.5140258 30:3.7688386 31:-0.073640479 32:-0.51807571 33:1.1152292 34:-0.95564156 35:-0.73101427 36:-1.0022981 37:-0.23667007 38:-0.88036304 39:-0.89219285 40:-1.2541536 41:-0.23838221 42:-1.1253061 43:-0.20147173 44:-0.19598502 45:0.12652465 46:-0.22686579 47:0.57833259 48:-0.64257391 49:-0.53308729 50:0.91967666 51:0.021459979 52:0.17846392 53:-0.96361884 54:-0.75586564 55:-0.89537045 56:-0.92806161 57:-0.55129371 58:-1.1272286 59:0.087078804 60:-0.58625479 61:0.71769462 62:-0.72733288 63:2.0599818 64:2.0604608 65:0.046058579 66:-1.1272489 67:-0.24085118 68:-0.97647461 
0.001 1:-0.14440792 2:0.1486039 3:-0.11885535 4:-0.77841721 5:-1.1767463 6:-0.98036561 7:0.61354087 8:-0.30639077 9:-0.68162967 10:1.6079363 11:-1.1006156 12:-1.6553852 13:-1.6295593 14:-1.2350563 15:-0.32865968 16:0.52054967 17:-0.94367271 18:0.19709897 19:-0.95467685 20:-1.4824588 21:-2.8168871 22:2.5079058 23:4.8906054 24:-0.8129124 25:-0.14712411 26:-0.99231735 27:-0.56149162 28:-0.64940267 29:0.94912755 30:-0.90452373 31:-0.39472532 32:0.02839033 33:2.0872697 34:-0.13583201 35:0.96999133 36:0.56870481 37:-0.29474674 38:0.78631901 39:0.70616126 40:-0.019256094 41:0.094503563 42:0.56314983 43:0.20451048 44:0.18430707 45:0.65622969 46:-0.12491159 47:-0.16138285 48:-0.97091395 49:-0.21663889 50:-1.0457989 51:-0.99223766 52:-0.86357275 53:-0.05396229 54:-1.1860492 55:-0.40949975 56:1.0705097 57:-0.20575991 58:-1.0047473 59:0.12921061 60:-0.71222109 61:-0.51411822 62:-0.73557015 63:-0.46757346 64:-1.1924106 65:0.16162595 66:0.3187272 67:-0.14188688 68:-0.79665054 
0.001 1:0.61380292 2:0.25873016 3:0.33364165 4:0.34169636 5:-0.1563436 6:0.28337074 7:0.59211138 8:0.57551653 9:-0.224086 10:-0.30473012 11:0.15361654 12:0.31520407 13:-0.58402337 14:0.82751909 15:1.2331086 16:1.3025336 17:0.93536608 18:-0.53546763 19:0.78074944 20:-0.12366977 21:0.089903245 22:-0.35970245 23:-0.10130443 24:-0.11671814 25:-0.24545788 26:1.1392681 27:-0.6292921 28:-0.66872428 29:-0.49472739 30:-0.68432139 31:-0.39566636 32:-0.38540424 33:-0.41928448 34:-0.41957639 35:0.0098179972 36:0.15437668 37:-0.14241647 38:0.11974328 39:0.086890243 40:-0.15592244 41:0.88921627 42:-0.13860536 43:0.015956158 44:0.034994799 45:-0.18487572 46:-0.075888589 47:0.074406527 48:-0.26323711 49:-0.28344631 50:-1.1136153 51:-1.0017583 52:-0.77782853 53:-1.0420393 54:-1.5938272 55:-1.2112379 56:-0.57670684 57:-0.40659795 58:0.28166218 59:-0.53310277 60:1.7711163 61:-0.63445171 62:-0.58119656 63:-0.80254943 64:-0.42861311 65:-0.16975387 66:0.45232401 67:-0.74415677 68:-0.46616234 
0.001 1:1.1054078 2:-1.0183346 3:0.47221995 4:0.6532489 5:-1.3045857 6:1.2489993 7:-0.65153574 8:0.93846823 9:-0.43275601 10:-3.3079208 11:-0.93372528 12:0.66980744 13:-0.51342056 14:-0.2802131 15:0.42588093 16:-0.61080281 17:-0.19387468 18:-0.12927589 19:-0.36836671 20:-0.74531376 21:-1.5801191 22:0.23122246 23:0.065237273 24:-1.2593157 25:-1.1017076 26:-1.1038492 27:-0.61044923 28:-0.99325569 29:-0.12493172 30:-0.55131171 31:0.03302007 32:-0.78118575 33:0.9283838 34:-1.4164357 35:-0.62644916 36:-0.59116816 37:-0.58367368 38:-0.86250429 39:-0.038291634 40:-0.48295174 41:-0.67979216 42:-0.68459035 43:0.076601034 44:1.0610653 45:0.74923673 46:1.0555593 47:0.33770715 48:0.57314508 49:-0.61163623 50:-0.25859865 51:0.60274437 52:0.19302417 53:-0.23401968 54:0.13375533 55:0.56509787 56:1.0827257 57:0.40495535 58:-1.4406474 59:-1.1545355 60:-1.114757 61:-0.52276683 62:-1.0946999 63:-0.45320769 64:-0.74483123 65:0.99080492 66:-0.50371282 67:1.3306874 68:-0.5606269 
0.001 1:0.11810447 2:-0.95271019 3:0.71268669 4:-0.088828158 5:-0.74773827 6:0.53936689 7:0.54933103 8:0.26813649 9:-0.039826647 10:-0.7949391 11:-0.79953199 12:-0.66259942 13:-0.56236285 14:0.39351449 15:-1.4869648 16:-1.5690797 17:-1.5709614 18:-0.84003581 19:-0.55408029 20:0.27089465 21:-0.44900818 22:-0.38333186 23:-0.13595989 24:-0.79048581 25:-0.024228944 26:-0.10413676 27:1.152922 28:-0.40350813 29:2.0459514 30:0.63827437 31:-0.53501426 32:-0.82854208 33:0.48557622 34:-0.64276163 35:-0.47545818 36:-1.2343301 37:-0.37549497 38:-0.27251119 39:0.95699617 40:-0.15695974 41:0.41782897 42:-0.12136202 43:-0.34964577 44:0.69619379 45:0.73394847 46:0.095873248 47:1.0671265 48:0.091332585 49:2.5024992 50:0.66158737 51:0.5277674 52:0.70363443 53:2.0934255 54:1.093815 55:1.4467705 56:-0.035326367 57:-0.028937274 58:-0.75414051 59:0.24222838 60:1.1596596 61:2.222635 62:-0.052732134 63:2.8822693 64:0.21500236 65:-0.34149196 66:-0.76195531 67:0.9241593 68:0.097407442 
0.001 1:1.4571764 2:-0.37726546 3:0.25444928 4:1.3791591 5:0.25562766 6:1.3179095 7:-0.13867338 8:1.3671765 9:-0.40190881 10:-1.3662648 11:-0.079814837 12:-0.54116668 13:-1.1206568 14:0.14401338 15:0.83287227 16:-0.75154319 17:-0.92860104 18:-1.5339273 19:-1.5883766 20:-1.7102206 21:-2.6821227 22:0.30663174 23:0.006786173 24:-0.58926065 25:1.2401772 26:-1.0956619 27:-0.73885939 28:-0.75127471 29:0.52671013 30:-0.39351266 31:-0.88409931 32:-0.73390475 33:1.050148 34:-0.7780087 35:0.69670541 36:-0.40999041 37:-0.13427181 38:0.47943005 39:-0.39603646 40:0.49731589 41:-0.25766393 42:0.51015984 43:-0.063420868 44:0.21737966 45:0.59106976 46:0.44939909 47:1.5346233 48:1.9910736 49:0.82481506 50:1.1437707 51:0.041586035 52:2.1760664 53:0.99366716 54:1.580524 55:2.3079885 56:0.75409554 57:-0.24515765 58:-0.2448728 59:1.454499 60:-1.0618278 61:-0.76999972 62:-0.57197026 63:0.66109214 64:-0.22680651 65:-0.53434567 66:-0.54939454 67:2.0778488 68:0.16751844 
0.001 1:-0.096267546 2:-0.49113057 3:0.018677766 4:-0.2841495 5:-0.27574461 6:-0.42625005 7:0.029420349 8:-0.024277215 9:-0.39114601 10:1.2627516 11:-0.24183568 12:-1.0378801 13:0.018225538 14:-0.32228916 15:1.5968061 16:0.68304753 17:0.090760428 18:-1.4010019 19:-0.38072276 20:1.0882346 21:0.52293606 22:0.55088188 23:0.25972695 24:-0.19165177 25:1.0059268 26:0.056344833 27:-0.099455005 28:-0.5506119 29:-0.18104407 30:0.35646715 31:-0.16451119 32:-0.7567715 33:-0.26402985 34:-0.83212896 35:0.59697756 36:0.28273202 37:-0.38143489 38:0.8200442 39:0.91253058 40:0.7394059 41:-0.019257277 42:0.74910581 43:0.41148149 44:0.67985168 45:0.42821714 46:-0.34074421 47:-0.45040981 48:0.082689565 49:-0.15910411 50:1.4863733 51:-0.96378041 52:-0.67457522 53:-1.1099286 54:-0.78890107 55:-0.79130203 56:0.37737824 57:0.45548333 58:-0.86556306 59:0.9432376 60:-0.12680608 61:-0.33714128 62:-0.58655485 63:-0.30330218 64:0.65328432 65:0.28521952 66:-0.59523598 67:-0.43653674 68:-0.58356246 
0.001 1:0.094345398 2:-0.24978861 3:0.21662171 4:0.2655987 5:0.20785334 6:0.47720686 7:0.32828564 8:0.12210246 9:-0.23517791 10:-0.73712333 11:-2.0285627 12:-0.72439512 13:-1.8690188 14:-1.0574413 15:-1.6854004 16:-2.0143882 17:-3.335706 18:-0.61740868 19:-0.41633431 20:1.3486382 21:1.2348541 22:-0.69945584 23:-0.46968351 24:-1.0923547 25:0.28559731 26:-0.15827884 27:3.9723845 28:-0.48091207 29:0.33984058 30:1.3610629 31:-0.60682427 32:-0.86291995 33:-0.19726237 34:-0.39173548 35:0.11753747 36:0.74962372 37:-0.0087003679 38:0.0069042939 39:-0.1821417 40:0.67495766 41:0.0935855 42:0.37536388 43:0.023321589 44:0.13051945 45:0.059083736 46:0.23772073 47:1.141737 48:0.51954744 49:1.145784 50:-0.32732162 51:1.8383916 52:1.214454 53:1.7127558 54:1.7722133 55:2.062174 56:-0.3661671 57:-0.3241329 58:-0.97730495 59:0.70690779 60:0.32091661 61:2.6176239 62:-0.38214957 63:0.53827911 64:2.1875718 65:-0.49468373 66:-0.52446111 67:-0.26890631 68:0.061335171 
0.000542357919111692 1:-1.5937278 2:-0.61184377 3:-0.6390287 4:-1.5246284 5:-0.49273335 6:-1.9022307 7:0.85199126 8:-1.6614483 9:-1.0366448 10:1.9407118 11:0.40771472 12:0.37331411 13:-0.67829356 14:-0.59199659 15:-1.4902323 16:-1.118122 17:-0.021829312 18:-0.1495204 19:0.49371812 20:0.53174133 21:0.27982239 22:0.533498 23:-0.27073922 24:-0.7157604 25:-0.060753262 26:0.52947128 27:0.45881087 28:-0.0035905376 29:-0.43813108 30:4.6969891 31:2.6652225 32:-0.80306597 33:-0.27564421 34:0.28979967 35:-0.91690618 36:0.30657528 37:0.65535397 38:-0.38014518 39:0.71882365 40:-1.1483069 41:0.13958049 42:-1.0217941 43:0.90734219 44:0.13450589 45:0.55915959 46:-0.099845727 47:0.75897001 48:0.27087816 49:-0.294188 50:0.60356676 51:0.526023 52:-0.011093584 53:0.29081903 54:-0.56080597 55:0.050275973 56:1.1336505 57:-0.05931973 58:-0.57794809 59:0.4165615 60:2.5386889 61:0.54242173 62:-0.062315271 63:-0.25155396 64:4.115179 65:1.8535215 66:-0.84814769 67:-0.089685034 68:-0.65168396 
0.001 1:-0.55474727 2:2.778268 3:-0.86727423 4:-0.55709006 5:-0.1067522 6:-1.2225858 7:1.9830278 8:-0.66447659 9:-0.22318432 10:1.4651589 11:1.3642902 12:1.0676327 13:0.76432208 14:1.0753963 15:0.32974384 16:-1.0130804 17:1.0450404 18:-0.027489678 19:-0.7992106 20:0.63857106 21:0.25230816 22:-0.66615762 23:-0.70826549 24:0.63034355 25:0.4636712 26:3.3320991 27:-0.43134202 28:-0.16667148 29:-0.61965658 30:-0.70126818 31:-0.23690855 32:-0.12521522 33:-0.9766563 34:0.5672588 35:0.93835887 36:6.8863108 37:0.50690953 38:1.4265064 39:1.5487632 40:0.89604528 41:1.4235147 42:0.896322 43:1.1891499 44:1.0977639 45:-0.024139548 46:-0.26320961 47:-0.66212615 48:-1.1652512 49:-0.17134649 50:0.79929053 51:-0.57221422 52:-0.83021115 53:-0.59501446 54:-1.0573502 55:-1.2773041 56:-0.73582352 57:-0.75682689 58:1.1568421 59:0.35285453 60:1.6917801 61:-0.21779779 62:-0.77119128 63:-0.77769297 64:-0.72229385 65:0.22168113 66:0.71649687 67:-1.0641672 68:0.29270728 
0.001 1:-0.69779294 2:-0.16828085 3:0.17967494 4:-1.228786 5:-1.6023146 6:-0.57528295 7:1.1764039 8:-0.80206542 9:0.53492835 10:0.31324455 11:-2.0087208 12:-1.0013512 13:-1.5509526 14:-1.1243383 15:-0.28101407 16:-0.51445936 17:-0.78579103 18:0.35902732 19:0.60133307 20:0.38189891 21:1.1871026 22:-0.25411818 23:0.10693728 24:-1.1021486 25:0.21179565 26:-0.67670983 27:1.4948251 28:-0.47829712 29:0.12925418 30:1.8007187 31:0.5714929 32:-0.94550461 33:1.9979095 34:-0.86866008 35:-0.26770556 36:-0.084265805 37:-0.074037328 38:-0.26306766 39:-0.63671506 40:0.32042579 41:0.57800427 42:-0.47223016 43:-0.74870161 44:1.1893479 45:-0.16585398 46:1.1293747 47:-0.40194056 48:0.65962266 49:-0.55156524 50:0.13898061 51:-0.57614849 52:-0.097733828 53:0.52667249 54:-0.022414919 55:-0.58593078 56:-0.30549588 57:-0.014358869 58:-1.3120134 59:0.42343984 60:-0.36058906 61:0.69163818 62:-0.21135804 63:0.15806846 64:0.75112764 65:0.84294382 66:-0.89438345 67:2.2364122 68:-0.71309471 
0.001 1:1.734442 2:-0.59024197 3:0.94773698 4:0.92556438 5:-0.75406238 6:2.5774299 7:-1.2923506 8:1.5890446 9:0.41861515 10:-2.7798927 11:-1.7655262 12:-0.21050968 13:0.22783401 14:-0.047021212 15:0.047839951 16:-1.6711305 17:-0.52448739 18:-0.69012872 19:-1.8368016 20:0.8616364 21:0.093490933 22:-0.81902976 23:-0.23152283 24:-1.118605 25:-0.82633536 26:-0.9445498 27:-0.4705319 28:-0.8169648 29:0.9384958 30:0.21995058 31:-0.89501149 32:-0.9418174 33:0.22968726 34:-1.9513812 35:-0.54984662 36:-1.4734356 37:-0.81223442 38:-0.70366613 39:-0.53195973 40:-1.3866929 41:-1.2093719 42:-0.67600652 43:-0.79348962 44:-0.53413118 45:-0.48494316 46:-1.5335618 47:-0.99095976 48:-1.0398754 49:-1.0636699 50:-0.5145115 51:-0.93205789 52:-0.93752236 53:-1.366716 54:-0.94064052 55:-0.7775092 56:-1.0956461 57:-0.68858059 58:-1.3984515 59:-1.0610647 60:-1.2144291 61:-0.71278402 62:-1.0986686 63:0.25078842 64:-0.025690259 65:-1.1886218 66:-1.1206211 67:-0.13623213 68:-1.8509357 
0.001 1:2.4207861 2:-0.14505195 3:0.69111218 4:1.9971786 5:-0.14990005 6:2.6659252 7:-0.83548793 8:2.562167 9:0.66064226 10:-2.1951681 11:-0.65244544 12:-1.6263698 13:-0.68129252 14:-0.79570911 15:0.020440728 16:-1.4181963 17:-0.68565306 18:-0.45481738 19:-2.6743392 20:-1.3787934 21:-1.6787355 22:-0.099261402 23:0.46798747 24:-1.0510982 25:-0.25887307 26:-0.9438283 27:-0.5113778 28:-0.91750289 29:0.62086444 30:-0.20890978 31:-0.8866663 32:-1.0737952 33:0.93001361 34:-1.3990979 35:0.64859384 36:0.060515081 37:-0.63438382 38:0.52452935 39:-0.21431309 40:-0.2492622 41:-0.9205015 42:0.43319292 43:-0.78652063 44:-0.7399769 45:0.85805675 46:0.3962295 47:0.4307673 48:-0.43247743 49:0.15939955 50:0.28415867 51:0.61764245 52:1.5449998 53:1.7489913 54:1.4712184 55:1.5447342 56:0.31382342 57:1.2750427 58:-0.96357402 59:-0.046872332 60:-0.74104113 61:-0.45373536 62:-0.83370435 63:0.66192816 64:0.19975445 65:-0.78024248 66:-1.0701016 67:0.90130693 68:-0.77891857 
0.0001628646119750305 1:0.2864484 2:-1.1915893 3:-0.16925883 4:0.27011296 5:0.093952958 6:0.2406484 7:-0.023758404 8:0.29787905 9:-0.49678751 10:0.04720876 11:-0.16232976 12:-0.31491263 13:-1.1971141 14:0.068368977 15:1.0775839 16:-0.93933008 17:-0.61466734 18:0.50246758 19:-2.8078212 20:1.0877003 21:-1.3415171 22:0.3961134 23:0.12252342 24:0.088485436 25:0.23694794 26:-0.15989653 27:-0.16689279 28:-0.73442934 29:0.053917244 30:0.15905129 31:0.11180803 32:-0.10237659 33:0.11865685 34:-0.47208243 35:0.76795827 36:-0.91160762 37:0.294681 38:0.51726185 39:0.3158182 40:0.2080735 41:-0.39405637 42:0.40815955 43:-0.14792491 44:-0.084417207 45:0.49419997 46:0.32186423 47:0.45162543 48:0.79138127 49:0.22969069 50:0.22738535 51:0.21887564 52:1.3299348 53:0.28809725 54:-0.35464939 55:1.7952397 56:0.42342102 57:-0.025944459 58:0.28808967 59:0.459252 60:0.37959826 61:0.036249039 62:-0.77203554 63:0.10556714 64:0.11505533 65:0.8887809 66:0.25004255 67:0.21769627 68:0.008472319 
0.001 1:0.84212582 2:-1.0377245 3:-0.44699352 4:0.51290644 5:-0.050698831 6:0.83700358 7:-0.57005587 8:0.90577811 9:-0.033773226 10:-0.53852783 11:-0.30042866 12:-0.77036154 13:-0.68000909 14:0.64100334 15:0.29607903 16:0.05447515 17:0.36043873 18:-0.14699552 19:0.18620637 20:0.47463519 21:-0.55109663 22:-0.42743898 23:0.28385126 24:-0.11790106 25:-0.28210955 26:-0.075810401 27:0.1772877 28:-0.58654815 29:0.55437083 30:0.36688744 31:-0.25630816 32:-0.33619513 33:0.16131501 34:-0.90050125 35:0.54438441 36:-0.66478378 37:-0.0089729469 38:0.5958528 39:0.58340595 40:0.04641758 41:-0.84420163 42:0.50873868 43:-0.32452909 44:0.02152345 45:0.084632947 46:-0.17069259 47:1.2207737 48:-0.086442571 49:-0.80145733 50:-0.21540578 51:-0.70505911 52:-0.48168521 53:-1.0081112 54:-1.1291194 55:-0.83156864 56:-0.64227905 57:-0.085826208 58:0.043037238 59:-0.24574674 60:-0.13700172 61:0.58785651 62:-0.96376158 63:0.72159531 64:0.15243556 65:-0.11464802 66:-0.63644717 67:-0.30368948 68:-0.68853034 
0.001 1:0.48852334 2:-1.2695525 3:-0.42990457 4:0.92692997 5:0.83603952 6:0.66186976 7:-0.67667909 8:0.73943757 9:-1.269833 10:-0.67577814 11:0.8822828 12:0.86594939 13:0.92931217 14:0.3910764 15:0.34467492 16:0.3864688 17:-0.16901244 18:0.60226755 19:1.0886224 20:-0.027803062 21:-0.011329442 22:-0.10574542 23:-0.60725001 24:-0.42864488 25:-0.51487495 26:1.138827 27:-0.33399033 28:-0.51527309 29:0.27971582 30:-0.33556965 31:0.52856608 32:0.20680117 33:-0.49291416 34:-0.70706937 35:0.13748916 36:-0.59221113 37:0.18531583 38:0.32958046 39:-0.63802674 40:0.78363196 41:-0.55913196 42:0.72929761 43:0.80348671 44:0.8297447 45:0.34550869 46:0.53969092 47:0.67486443 48:0.76449582 49:-0.65186881 50:-0.79793981 51:-0.38688017 52:-0.080745307 53:-0.43934269 54:0.15411226 55:-0.82686391 56:-0.13241563 57:-0.77190114 58:-0.64656677 59:-0.39302639 60:1.6788015 61:-0.2355458 62:-0.68003386 63:0.91951764 64:-0.12826051 65:0.50729013 66:-0.14320428 67:-0.54420486 68:-0.66787548 
0.001 1:0.90711532 2:-1.2280041 3:0.27663468 4:0.79782541 5:0.32861035 6:-0.010605805 7:-0.21360171 8:0.47244588 9:-1.5455175 10:0.043213854 11:-1.2628453 12:-1.8810006 13:0.79433431 14:-0.54668385 15:-1.6631685 16:-1.1372553 17:-1.2727479 18:-1.9137026 19:-3.0112937 20:-1.2648252 21:0.39814475 22:3.1474375 23:-0.22790148 24:-0.48981669 25:0.44936152 26:-0.16655878 27:0.16843714 28:-0.62007838 29:-0.37685701 30:-0.27633756 31:-0.7034229 32:-0.61852514 33:0.28584715 34:-0.28785835 35:1.17755 36:-0.75526871 37:-0.15720517 38:0.92085261 39:0.18046628 40:0.040740147 41:-0.13064266 42:0.75856041 43:0.39007465 44:-0.2752841 45:-0.18492857 46:-0.36034483 47:-1.2471631 48:-0.69019528 49:-1.1581533 50:-0.80823458 51:-0.43756075 52:-0.7126645 53:-0.41324804 54:0.34677954 55:1.1687186 56:0.57336774 57:-0.14490152 58:-0.18728129 59:0.66472372 60:0.29275492 61:0.052625756 62:-0.53198802 63:-0.55553647 64:-0.39282909 65:-0.65608406 66:-0.87545346 67:-0.47959044 68:-0.42048273 
0.001 1:-0.079762276 2:-0.35206867 3:-0.58228792 4:-0.29458268 5:-0.76829579 6:0.05048394 7:0.22966084 8:-0.17041494 9:-0.28811973 10:0.20458457 11:-1.5893911 12:-1.5296166 13:1.4827497 14:-1.3377318 15:0.36993655 16:-0.6293193 17:-0.9248148 18:0.52370951 19:-0.632651 20:0.33130024 21:-0.80304331 22:-0.73439843 23:0.74418673 24:-0.93039979 25:-0.84738466 26:-0.83737803 27:2.4933093 28:-0.29030165 29:0.39176617 30:0.18660761 31:0.70961951 32:-0.76115853 33:0.2708004 34:-0.85788493 35:0.14484459 36:-0.69386133 37:0.39375812 38:0.084433829 39:-0.5700515 40:-0.22075839 41:-0.44201618 42:0.10350373 43:0.8158136 44:-0.15899291 45:0.56284906 46:-0.23200799 47:0.081217272 48:-0.58146607 49:-0.4075164 50:-1.2446454 51:-0.48455405 52:-1.1465615 53:-1.6711925 54:-1.3432963 55:-0.85948377 56:-0.81468183 57:0.88553016 58:-1.1932013 59:-0.80710253 60:-0.70465958 61:0.20822962 62:-0.4419606 63:0.5256058 64:0.45812346 65:0.024955256 66:-0.83171591 67:-0.31652674 68:-0.88840109 
0.001 1:-0.80566071 2:-1.0866403 3:0.10279429 4:-1.40168 5:-1.2570714 6:-1.0941344 7:0.37605613 8:-0.51389578 9:-0.67368943 10:1.7177969 11:0.31482798 12:0.42951629 13:-0.35314062 14:0.10754479 15:0.16444714 16:0.022117507 17:-0.51801121 18:0.46334524 19:0.32314746 20:1.0117145 21:-0.4453005 22:-0.12829034 23:-0.48855457 24:0.37836105 25:0.30179603 26:1.9864135 27:0.77731451 28:-0.52176245 29:-0.22018148 30:0.072063866 31:0.092427278 32:-0.09614422 33:-0.06635821 34:-0.25255611 35:-0.33394963 36:-0.78359835 37:-0.4107736 38:-0.3681338 39:0.32105162 40:-0.40347551 41:-0.17757474 42:0.17138104 43:-0.15581128 44:-0.014204364 45:0.62201178 46:0.088159102 47:0.22832836 48:1.3121396 49:0.44647239 50:0.67974226 51:0.60159701 52:0.63872328 53:0.42934571 54:-0.45608549 55:0.14504049 56:-0.073347675 57:-0.61298473 58:0.27258174 59:0.49811115 60:1.2317661 61:1.3932718 62:-0.86438222 63:-0.13044253 64:0.19000648 65:-0.049106766 66:-0.5436534 67:-0.011616915 68:-0.57892523 
0.001 1:-0.038499101 2:-1.320957 3:-0.36658186 4:-0.2746168 5:-0.31294971 6:-0.34426123 7:-0.29871536 8:-0.15638185 9:-1.1364722 10:0.34277536 11:0.8164148 12:-0.60752194 13:-1.0908057 14:0.4917331 15:0.87711201 16:0.49109513 17:-1.1148071 18:0.37601867 19:0.8771885 20:-0.1385722 21:-0.60711373 22:-0.2303719 23:3.0199905 24:0.043281286 25:-0.47630479 26:0.81188846 27:-0.35447213 28:0.1101502 29:-0.21541647 30:0.77062488 31:-0.71036924 32:-0.84492468 33:-0.4363014 34:-0.43819157 35:0.15892517 36:-0.60895705 37:-0.3996579 38:0.12465467 39:-0.22063936 40:0.25212484 41:-0.53181732 42:0.29371014 43:0.050270175 44:-0.57866363 45:-0.60298606 46:0.39829828 47:-0.42310542 48:-0.3503717 49:-1.2968745 50:-1.1447896 51:-0.85803293 52:-1.7503731 53:-0.75464714 54:-1.7885313 55:-1.4712632 56:-0.48255155 57:-0.027200822 58:-0.080992073 59:-0.69063596 60:-0.39750045 61:-0.5608694 62:0.049704203 63:-0.36236184 64:-0.8715108 65:-0.87456645 66:-1.1319616 67:-0.37817263 68:-0.37410616 
0.001 1:-0.020683889 2:-0.85590136 3:0.24434526 4:-0.25135638 5:-0.86137402 6:0.50966192 7:-0.33964847 8:-0.15382409 9:-1.0857238 10:-1.7446093 11:-2.3771528 12:-1.2269885 13:-1.0793777 14:1.9694279 15:-0.5758372 16:-0.58849979 17:0.52446755 18:-0.96183129 19:-1.3779319 20:-0.44178396 21:-0.29807677 22:-0.71057987 23:-0.18980417 24:-0.20072508 25:-0.0071423072 26:-1.0784302 27:1.0220577 28:-0.8387676 29:-0.17178668 30:-0.075982217 31:0.24163846 32:-0.73092062 33:1.8688637 34:-0.65581839 35:-0.7766409 36:-0.68130877 37:-0.26854258 38:-1.0312148 39:-1.2796712 40:-0.13808752 41:-0.37359416 42:-1.0900832 43:0.23023053 44:-0.042736729 45:-0.016452855 46:2.4147764 47:0.64380222 48:0.61312279 49:0.96450248 50:1.2130986 51:0.14778754 52:0.71587003 53:1.5949369 54:1.3118507 55:0.56477317 56:-0.80171507 57:-0.30777156 58:0.58765151 59:0.11057083 60:-1.2230668 61:2.1296071 62:-0.92727368 63:-0.41729553 64:0.35130367 65:0.59429716 66:-0.47390814 67:2.4854105 68:-0.35903582 
0.001 1:-1.1746118 2:-0.13400118 3:0.18148182 4:-1.2732078 5:-0.41479657 6:-1.5953187 7:0.34035738 8:-1.5759824 9:0.3803921 10:1.4722462 11:-0.34713774 12:-0.62269697 13:-1.6043656 14:-0.30892294 15:-0.14158483 16:-0.81779688 17:-1.1046895 18:-1.3526812 19:-1.0727542 20:0.20723948 21:-0.088564362 22:0.55190842 23:0.18439223 24:-0.30093247 25:1.1093412 26:0.56915487 27:0.85487531 28:-0.32010211 29:-0.48779401 30:1.0441818 31:0.18022867 32:-0.89077086 33:0.35808731 34:-0.47001404 35:-0.87575398 36:0.3420805 37:-0.40749895 38:-0.57364971 39:1.8035387 40:-1.4309705 41:-0.28813379 42:-1.2825196 43:-0.2396218 44:-0.90542529 45:-0.19451481 46:-0.78245991 47:-0.13886426 48:0.048073231 49:-0.25776831 50:-0.21689042 51:-0.88989259 52:-0.0033254304 53:-0.90215854 54:-0.4140444 55:-0.53758933 56:0.4457847 57:0.67592245 58:0.047338729 59:0.90200231 60:0.43100188 61:0.52282603 62:-0.22302721 63:-0.66007535 64:1.0135483 65:0.026561775 66:-1.0413159 67:0.37294869 68:-0.55558838 
0.001 1:-0.93696653 2:-0.1951008 3:0.8486045 4:-1.2105855 5:-1.3052064 6:-0.77351323 7:0.46225254 8:-0.98546342 9:0.34329451 10:0.588705 11:-1.0768723 12:-0.94727808 13:-2.0825757 14:-0.54423396 15:-1.2239346 16:-0.25036509 17:-0.8789124 18:-0.3908821 19:-1.0583541 20:-0.82293807 21:-2.418185 22:1.3225526 23:1.059944 24:-0.76761824 25:0.51793753 26:-0.29222849 27:0.70959913 28:-0.59800877 29:0.83364541 30:0.0084808561 31:0.022259488 32:-0.64617555 33:1.1146675 34:-0.65484264 35:-0.86897358 36:0.4612632 37:-0.92700337 38:-0.9084292 39:-0.2499836 40:-0.42997023 41:0.055224513 42:-0.9150957 43:-0.36227767 44:0.12380269 45:0.0053005496 46:1.192416 47:-0.43827903 48:1.0984972 49:-0.65582165 50:0.77237771 51:-0.44896783 52:0.24586185 53:2.3095889 54:0.10853729 55:1.2136805 56:1.3618101 57:1.3026142 58:-0.69952526 59:0.43936494 60:-0.20962465 61:0.53625094 62:-0.60954326 63:1.2414173 64:0.27572868 65:0.64706687 66:-0.45124514 67:1.242476 68:-0.70571584 
0.001 1:0.19170866 2:-1.3269774 3:-1.9829542 4:-0.42736346 5:-0.50815878 6:-0.048832706 7:-0.38593481 8:0.089815594 9:-0.69793145 10:0.55564014 11:-0.32044006 12:0.38020597 13:-0.55431995 14:0.52806095 15:-0.65967374 16:-0.2988021 17:-1.0960378 18:1.0202967 19:-0.073029941 20:0.33697607 21:-0.35920133 22:-0.31886857 23:-0.37345514 24:-0.45290644 25:0.35201396 26:-0.046457976 27:0.33018292 28:-0.30113904 29:0.79814021 30:0.32794954 31:1.1017916 32:0.081903021 33:0.12038799 34:-0.9241738 35:0.4014299 36:-1.0167282 37:1.2137876 38:0.4787219 39:0.81361263 40:0.79634882 41:-0.42881362 42:0.58192004 43:0.3471069 44:0.39171654 45:0.8959402 46:-0.13021525 47:-0.8265384 48:-0.041802163 49:-0.32549458 50:-0.17510991 51:-1.5292486 52:-0.10349377 53:0.083104164 54:-0.6499842 55:-1.0370937 56:-0.69266875 57:-0.54528934 58:-0.30031173 59:-0.26666591 60:-0.018998208 61:0.076796473 62:-0.40068949 63:0.95748775 64:-0.029643814 65:0.62729802 66:-0.093050075 67:-0.28370923 68:-0.54033437 
0.001 1:0.89022799 2:-1.2606773 3:-0.34672672 4:0.4601828 5:0.24236055 6:0.90175034 7:-0.62811834 8:0.80883686 9:-0.48391451 10:-0.38813326 11:-0.85472472 12:-0.80067527 13:0.26459958 14:1.5613325 15:-0.80687864 16:0.3832157 17:-0.30642583 18:0.82027441 19:-0.12290585 20:-1.2853852 21:-0.65927456 22:-0.43864223 23:0.31597254 24:-0.70992301 25:-0.17747497 26:-0.71499216 27:-0.22109497 28:-0.54756059 29:1.2510938 30:0.98140908 31:0.67500057 32:-0.60485555 33:-0.020193612 34:-1.1805593 35:0.043229529 36:-0.86092252 37:0.3961765 38:-0.080534695 39:0.44216497 40:0.21045383 41:-0.74717154 42:0.48817625 43:0.091308817 44:-0.20763402 45:0.16209837 46:0.55175132 47:-0.37044239 48:0.62628309 49:-0.71914729 50:-0.931008 51:-0.54103108 52:0.26870314 53:-0.79135908 54:0.47792998 55:-0.080733579 56:-0.70793964 57:0.41021257 58:-0.79435515 59:-0.50335344 60:-0.96862284 61:-0.38737512 62:-0.65508476 63:1.2771999 64:1.5037513 65:0.92285368 66:-0.7267116 67:0.26218496 68:-1.1513184 
0.001 1:-0.68449703 2:-0.77509991 3:-0.54935139 4:-0.9876831 5:-1.0732033 6:-0.30187099 7:-0.054225103 8:-0.53527535 9:-0.2607534 10:0.31153714 11:-0.65091107 12:-0.36669474 13:-0.57156219 14:0.8150008 15:-1.2325185 16:-0.56770455 17:-1.1327835 18:-0.4218847 19:-0.5014218 20:-0.15428136 21:-0.98590538 22:0.15215453 23:-0.1427654 24:-0.78741132 25:1.0095557 26:0.57435417 27:-0.040986325 28:-0.80011895 29:0.96432501 30:0.28455996 31:0.37284197 32:-0.23772561 33:1.0326882 34:-0.80330974 35:-0.55666969 36:0.3531341 37:0.30818386 38:-0.56961579 39:-0.75710997 40:0.16730391 41:-0.060225772 42:-0.53151749 43:0.46427662 44:0.79197514 45:1.169457 46:0.49998048 47:0.25612107 48:1.205686 49:0.11287596 50:-0.46559876 51:0.22246634 52:0.5253636 53:0.56473925 54:-0.24343578 55:0.44598026 56:0.13589058 57:0.1020882 58:-0.77592655 59:1.5446816 60:1.1861367 61:-0.34106204 62:-1.017076 63:1.2379513 64:0.2454929 65:0.30254316 66:-0.12486524 67:1.2163308 68:-0.42116635 
0.001 1:-0.04460412 2:0.35346996 3:0.52981273 4:-0.19207702 5:-0.39094179 6:0.57324791 7:-0.19862323 8:0.32769618 9:0.99899009 10:-0.50153757 11:-0.37399519 12:-0.56581759 13:-1.221467 14:0.50987351 15:0.55894661 16:-0.088402327 17:0.5816939 18:-0.61747193 19:-0.58451824 20:-0.11743248 21:-0.86099371 22:-0.067726652 23:0.76071205 24:-0.4581844 25:0.83370697 26:-0.40613843 27:-0.37162912 28:-0.74485861 29:-2.6365497e-05 30:0.27556471 31:-0.070054004 32:-0.29906643 33:-0.011599034 34:-0.80201906 35:-0.48227408 36:0.69363759 37:-0.43954941 38:-0.40895652 39:0.49148602 40:-0.47788944 41:-0.41201609 42:0.13394621 43:-0.53470908 44:-0.68047643 45:0.65982205 46:0.24489006 47:0.80462692 48:1.0954689 49:0.58970162 50:1.6224819 51:1.2903528 52:0.49575885 53:1.1076601 54:0.14349918 55:1.6337078 56:0.75776166 57:1.1765367 58:-0.14149665 59:1.0214883 60:-0.28462874 61:-0.024982773 62:-0.87848222 63:-0.14035985 64:0.56298973 65:-0.14434222 66:0.1240536 67:-0.23260987 68:-0.46726278 
0.001 1:0.22308442 2:-0.24932525 3:0.57989054 4:0.079514979 5:-0.75633035 6:0.62864211 7:0.23044898 8:0.15903281 9:0.016535202 10:-1.7970814 11:-1.7936805 12:0.22732786 13:-0.85858212 14:-0.727329 15:-0.31245282 16:-1.0999951 17:-1.4971021 18:-2.2285164 19:-3.8874038 20:-1.6774747 21:-1.2975653 22:-0.26088033 23:-0.0011280549 24:-0.43940622 25:1.0534756 26:0.19180797 27:-0.52175879 28:-0.96822815 29:0.28598324 30:-0.5520322 31:-0.61775542 32:-1.0464859 33:-0.17573174 34:-0.75356701 35:-0.48041668 36:0.31932202 37:-0.30324205 38:-0.55217307 39:0.37447488 40:-0.32533701 41:-0.092022542 42:-0.18898999 43:0.35381518 44:1.0398834 45:0.45532126 46:2.1883706 47:1.5477452 48:1.794711 49:0.089922433 50:0.99443894 51:0.48346901 52:2.5017835 53:0.53352564 54:1.2718002 55:2.3401834 56:0.44947259 57:-0.147033 58:0.45136664 59:1.2762805 60:1.1687531 61:-0.058854731 62:-1.1175364 63:0.30850332 64:-0.76670799 65:0.078808155 66:-1.0144451 67:0.18486592 68:0.28099207 
0.001 1:-0.80619792 2:-0.6012795 3:0.32268797 4:-0.24424854 5:0.29955617 6:-0.54545292 7:0.84182375 8:-0.58818173 9:-0.38841871 10:0.24132773 11:-1.341317 12:-0.74923492 13:-0.30914927 14:-0.72403641 15:-0.97205017 16:-2.0273745 17:-0.61418857 18:-1.2340672 19:-1.3966148 20:-1.4497014 21:-1.2349908 22:1.9985889 23:0.25974506 24:-0.58917786 25:0.58089647 26:-0.32425326 27:2.1861528 28:-0.73209974 29:0.50046644 30:0.1702168 31:0.025124956 32:-0.14373391 33:0.87254884 34:0.18541712 35:-0.6252004 36:0.26815365 37:0.44590389 38:-0.53847151 39:0.018851321 40:-0.11987147 41:0.51226518 42:-0.050455441 43:0.36216158 44:0.33528058 45:1.1805298 46:1.5240354 47:0.037782614 48:0.30453226 49:-0.39844069 50:0.7034732 51:0.71303295 52:1.4579499 53:1.8305952 54:2.4894669 55:1.9529922 56:2.77734 57:1.4105597 58:-0.014543147 59:1.413534 60:-0.16379362 61:2.7974883 62:-0.53171231 63:1.8397437 64:1.1065565 65:0.63272672 66:0.86317566 67:1.301234 68:-0.079481289 
0.001 1:-0.47008134 2:0.60993592 3:0.77908229 4:-0.91363443 5:-1.5112442 6:-0.16519924 7:0.474295 8:-0.59382722 9:0.71625423 10:-0.10983786 11:-1.0659538 12:-0.8239646 13:-0.74889561 14:0.29573049 15:0.57099658 16:-1.5690032 17:-0.16839767 18:-0.42121194 19:0.58183947 20:0.45215571 21:-0.53182746 22:-0.65267534 23:-0.48890229 24:-1.0559747 25:-0.24168664 26:0.37354611 27:0.75123612 28:-0.6130752 29:0.12879065 30:1.117787 31:1.3807841 32:-0.74740421 33:0.19544198 34:-0.64971751 35:-0.65117806 36:-0.041064413 37:-0.42918188 38:-0.83066151 39:-0.18288391 40:-0.29977883 41:0.11610099 42:-0.84366821 43:-0.47241532 44:0.16370562 45:0.82178688 46:1.0750011 47:1.2454725 48:1.0974437 49:0.22880815 50:2.0456983 51:0.058578239 52:0.29875461 53:0.16164166 54:0.67818144 55:-0.29429338 56:-0.69330112 57:-0.51284221 58:-0.78820621 59:-0.033027591 60:1.8325482 61:1.0939535 62:-0.38033484 63:0.57923122 64:2.7455678 65:1.517663 66:-0.76717799 67:0.78434215 68:-0.11949245 
0.001 1:0.12410837 2:-0.45259471 3:0.49307108 4:-0.26622371 5:-0.83748887 6:0.80069971 7:-0.65592646 8:0.098418256 9:0.76503849 10:-0.69340536 11:-1.3357734 12:0.21613522 13:-0.4731103 14:0.50728003 15:0.5540755 16:-1.7980498 17:-1.6893825 18:0.27109219 19:-0.19981017 20:1.8716062 21:-0.11259166 22:-0.36252473 23:-0.23902157 24:-0.6196699 25:-0.35375508 26:-0.47077687 27:1.846018 28:-0.48485267 29:0.82177877 30:0.93669994 31:-0.63848502 32:-0.7472517 33:0.34752764 34:-0.89668848 35:-0.50465021 36:0.39188936 37:-0.49659927 38:-0.70025369 39:-0.58374984 40:-0.65812003 41:-0.89631877 42:-0.65974069 43:-0.37753397 44:-0.69648921 45:-0.05310222 46:-0.88916459 47:-0.96094794 48:-0.3852004 49:-0.067996901 50:0.23820639 51:1.6062206 52:0.97793485 53:-0.44100721 54:1.151303 55:-0.27602697 56:-0.41466007 57:-0.3123939 58:-0.34477327 59:-0.28505103 60:-0.46796064 61:2.1903869 62:-0.69159568 63:1.1706063 64:1.4211936 65:-0.73126603 66:-0.77264753 67:0.36326603 68:-0.81620714 
0.001 1:-0.086180992 2:0.17660407 3:0.56471325 4:0.16087481 5:-0.21164493 6:0.046006897 7:0.50396691 8:0.0066923696 9:0.026399958 10:-1.2152139 11:-0.99255642 12:-1.5309578 13:-2.1118242 14:-1.9820957 15:-1.8481452 16:-6.0245711 17:-1.448945 18:1.9511696 19:4.211986 20:1.8588146 21:-0.26940223 22:-1.3444179 23:-0.78952799 24:-1.3659387 25:-0.93987826 26:-1.3346359 27:-0.95187956 28:-0.61359733 29:6.2197298 30:9.3279331 31:0.99559428 32:-1.172841 33:-0.79664596 34:-0.14628062 35:-0.49542283 36:0.8006874 37:-0.36422671 38:-0.3721747 39:0.18422285 40:-0.20963818 41:0.33587441 42:-0.23476034 43:-0.15614531 44:0.34649592 45:-0.27382134 46:0.28443199 47:-0.082499225 48:-0.088879806 49:-0.0069634699 50:1.6402289 51:0.025252495 52:0.90177997 53:0.61597944 54:-0.54791906 55:-0.64441707 56:-1.3104997 57:-0.93811612 58:-1.4934643 59:-0.83967828 60:-1.2932504 61:-0.99891303 62:-0.21354426 63:7.242264 64:5.0081423 65:0.94852638 66:-1.3698398 67:-0.81614398 68:0.14814123 
0.001 1:-0.54282679 2:-0.18362673 3:0.3127439 4:-0.5663068 5:-0.45697739 6:-0.85828093 7:-0.078001887 8:-0.52194123 9:0.32468425 10:1.0085425 11:0.059205938 12:-0.63987016 13:-1.2926436 14:-0.38817884 15:1.4858248 16:-0.10937501 17:-0.26464542 18:-0.30375521 19:-1.263893 20:0.11682285 21:0.38157769 22:-0.6909333 23:0.13646587 24:-0.38512956 25:3.2363663 26:0.68939711 27:-0.47121849 28:-0.66786619 29:-0.06538312 30:0.47138654 31:0.91045342 32:-0.69293483 33:-0.79942726 34:-0.47436359 35:0.062859015 36:-0.076209599 37:-0.32916921 38:0.56910555 39:2.1215223 40:-0.15083749 41:-0.16853727 42:0.55855722 43:-0.1671958 44:-0.76309593 45:-0.21704261 46:-0.48273284 47:-0.1555191 48:-0.53210306 49:-0.023709024 50:-0.75700594 51:-1.4552688 52:-0.6757652 53:-1.2210362 54:0.12499328 55:-0.060126626 56:-0.58434486 57:0.71478282 58:-0.085969393 59:1.7850994 60:0.41419732 61:-0.09195651 62:-0.63253401 63:0.5750515 64:0.42771988 65:0.43682567 66:-0.71622266 67:-0.96519568 68:-0.71721955 
0.001 1:-0.88187255 2:0.35899571 3:0.27401044 4:-0.88988575 5:-1.1850328 6:-0.55897779 7:0.14367376 8:-0.50962867 9:0.21420651 10:-0.075227754 11:0.5270024 12:-1.6561163 13:-1.4899633 14:2.2888702 15:1.5958509 16:0.37946456 17:0.81221098 18:-0.82103851 19:0.17422248 20:-0.37169881 21:-2.8107804 22:1.3915444 23:0.4409282 24:-0.46398196 25:0.59849921 26:-0.71962338 27:0.55601525 28:-0.3883095 29:0.38505915 30:-0.82355964 31:-0.71595083 32:-0.69988723 33:3.5316687 34:-0.3669022 35:-0.92683122 36:1.7003089 37:0.43827191 38:-0.89020289 39:-0.19221171 40:-0.79390144 41:-0.2846236 42:-0.70736494 43:0.92404778 44:-0.16552234 45:0.24212429 46:0.76598806 47:0.81759524 48:2.3696889 49:0.65831521 50:0.62494771 51:-0.0914536 52:-0.018398355 53:1.7521508 54:1.6017404 55:2.0403892 56:0.92764775 57:0.56932715 58:0.073838602 59:1.9771416 60:-0.79760023 61:0.25590718 62:-0.23556724 63:0.84395202 64:-0.94471234 65:-0.68954549 66:-0.47028873 67:4.197869 68:-0.71253608 
0.001 1:-0.32138109 2:-0.64323187 3:-0.10030595 4:-0.90826075 5:-1.3199255 6:-0.64866543 7:0.22793146 8:-0.6465723 9:-0.67220474 10:0.37320282 11:0.23707548 12:-0.015877951 13:-0.8815072 14:-0.14927746 15:0.61362024 16:-0.090630631 17:-0.60073815 18:-0.31564606 19:-0.19083582 20:0.30743443 21:0.031618462 22:-0.30341189 23:-0.2961023 24:0.042008083 25:-0.19335009 26:-0.29454399 27:0.12243976 28:-0.34981478 29:-0.14549989 30:0.54195887 31:1.1322054 32:-0.005134413 33:-0.068561257 34:-0.39349749 35:0.46565429 36:0.28837722 37:0.57443218 38:0.050033097 39:-0.14358733 40:0.5288596 41:0.070636809 42:0.10879644 43:0.61787845 44:0.78138483 45:0.27233106 46:-0.091372016 47:0.32416118 48:0.64385506 49:-0.28127065 50:-0.15637534 51:0.35429133 52:0.053689986 53:-0.31802211 54:-0.643488 55:0.016156584 56:0.1377224 57:-0.4247787 58:0.3550473 59:0.058925982 60:-0.060280055 61:0.12616374 62:-0.50399302 63:-0.1352623 64:0.3856958 65:1.4116424 66:0.15021553 67:0.16317492 68:0.47658996 
0.001 1:0.71615852 2:-0.64259741 3:1.0497532 4:0.19293158 5:-0.42733648 6:1.7542915 7:-1.1748287 8:0.3304213 9:1.2063416 10:-1.3825268 11:-2.2100556 12:0.11886229 13:-0.18514845 14:-0.17552471 15:0.13251305 16:-1.8784511 17:-0.59158006 18:-0.40494187 19:-0.88238065 20:0.095402953 21:-0.70912538 22:-0.54207108 23:-0.046793444 24:-1.0092563 25:-0.33002187 26:-0.71718573 27:0.011137648 28:-0.81422576 29:2.437905 30:1.1200272 31:-0.50072316 32:-0.82941061 33:0.3443251 34:-1.6739053 35:-1.0765041 36:-1.2915696 37:-1.1929383 38:-1.0855999 39:-1.298236 40:-1.5053706 41:-1.153797 42:-1.146296 43:-0.90490876 44:-1.3112427 45:-1.4557477 46:-1.0444748 47:-0.96804131 48:-1.4046692 49:-1.2123496 50:-0.64133168 51:-1.3049519 52:-1.0125823 53:-0.66454889 54:-1.1948233 55:-0.24610124 56:-0.99947628 57:-0.33616474 58:-1.284361 59:-0.77038576 60:-1.0164761 61:-0.40610683 62:-0.96533444 63:1.7363709 64:1.2322816 65:-0.96706788 66:-1.1341407 67:-0.064241624 68:-1.458626 
0.0001167422273562358 1:-0.17833542 2:0.1372078 3:-0.077185038 4:-0.23819612 5:-0.57513528 6:-0.69214315 7:0.97207526 8:-0.33687645 9:0.047569313 10:0.24355171 11:0.39880784 12:1.3192309 13:0.6196926 14:1.2143977 15:1.1515746 16:1.0776579 17:-0.11209048 18:0.19793585 19:0.65486137 20:0.63926859 21:-0.094674707 22:-0.69828271 23:-0.75319613 24:1.6587949 25:-0.13394375 26:2.1612956 27:-0.72759735 28:-0.46349434 29:-0.38497669 30:-0.4377447 31:-0.695289 32:-0.43543203 33:-0.87365271 34:0.88459603 35:1.7405093 36:-0.33253121 37:0.083789537 38:1.5411693 39:1.0323304 40:0.75849075 41:1.5158384 42:1.0967303 43:0.23554418 44:0.81084902 45:0.82964082 46:-0.088264352 47:0.11842913 48:-0.8059653 49:1.3256749 50:-0.53018 51:0.86127247 52:-0.24648495 53:-1.1366291 54:-0.41874383 55:-0.63293831 56:-0.5027308 57:-0.92154032 58:2.8480836 59:-0.14909433 60:2.2487551 61:-0.6339451 62:-0.22394977 63:-0.29833764 64:0.13331478 65:-0.031478438 66:0.76110905 67:-0.88714471 68:0.95441387 
0.001 1:-0.50981625 2:-0.46472212 3:-1.1930343 4:-0.77407342 5:-0.57872402 6:-0.96089452 7:0.56717725 8:-0.60640862 9:-0.4747116 10:1.3048936 11:0.27707254 12:1.0669598 13:-0.15904767 14:-0.07146498 15:1.2537723 16:1.4000855 17:0.24947329 18:0.037185411 19:-0.67541077 20:-0.060286435 21:0.98317928 22:0.41306888 23:-0.085261846 24:0.56942905 25:-0.57803 26:0.82443776 27:-0.24723159 28:-0.082934751 29:-0.64292808 30:-0.73402469 31:-0.38878391 32:1.0083324 33:-0.36529954 34:0.28464056 35:0.35674056 36:-0.72313844 37:0.68919853 38:0.51445371 39:1.589212 40:0.038102041 41:0.32319703 42:-0.086822612 43:0.76334808 44:0.43638199 45:0.55943333 46:0.31560935 47:0.16005641 48:-0.44113254 49:1.0282373 50:-0.22416074 51:-0.89416972 52:0.46656141 53:-0.96864169 54:-0.14194931 55:-0.57447107 56:0.32565279 57:0.062989665 58:1.0860597 59:-0.56810108 60:0.71233987 61:-0.42609137 62:0.67211584 63:-0.80877631 64:-0.8855475 65:-0.6302205 66:0.61469336 67:-0.5344645 68:0.26751416 
0.001 1:-1.2171358 2:-0.012898003 3:0.61604477 4:-1.2243924 5:-0.90786423 6:-1.147449 7:1.0678479 8:-1.0074405 9:0.32820419 10:0.80497407 11:0.42952142 12:-0.74537085 13:0.71852616 14:-0.79284888 15:0.12359004 16:-1.0044585 17:-0.91184409 18:0.24828466 19:-0.29465622 20:-1.0037263 21:-2.2557669 22:2.8896729 23:-0.42163318 24:-0.31411535 25:0.36835531 26:-0.27567366 27:-0.50622095 28:-0.3514296 29:0.28511999 30:0.13635226 31:1.2480374 32:0.26027286 33:0.86154745 34:0.44069097 35:-0.61284145 36:-0.78250375 37:-0.10728182 38:-0.69014193 39:-0.27999833 40:-0.44484583 41:0.69810397 42:-0.4519284 43:-0.46521076 44:-0.138385 45:1.7365915 46:0.89775115 47:0.36326678 48:0.59842455 49:1.2968766 50:1.918502 51:0.87557695 52:0.51018009 53:0.14050984 54:1.1806363 55:0.70376547 56:3.0156037 57:-0.17570644 58:0.74837681 59:0.96243397 60:1.0655041 61:-0.6169733 62:0.032559497 63:0.90787444 64:0.35026256 65:1.5023286 66:1.1447276 67:1.6053059 68:0.18858116 
0.001 1:1.6862183 2:-0.6514799 3:-0.71188712 4:0.91774776 5:-0.62772819 6:1.5330727 7:-0.26098748 8:1.1374781 9:-0.21166051 10:-2.7314889 11:-0.87723335 12:-0.094476352 13:-1.2901582 14:-0.53987689 15:-2.2158892 16:-3.1386804 17:-0.19239675 18:-1.2867413 19:1.240386 20:1.3229292 21:1.0154952 22:-0.85768235 23:-0.31203005 24:-0.92315637 25:-0.82976996 26:-0.60014982 27:1.9998305 28:-0.64037081 29:0.20189559 30:0.94799867 31:-0.91396342 32:-0.97597131 33:0.038107111 34:-1.123066 35:0.26707303 36:0.5017299 37:0.64413396 38:-0.042496867 39:-0.14560033 40:0.87744236 41:-0.19295496 42:0.37668689 43:0.47491974 44:1.3800577 45:-0.32284305 46:0.80801115 47:0.27555242 48:1.0038132 49:1.8110859 50:1.0576675 51:0.55500684 52:1.6792076 53:1.7900193 54:2.1753962 55:1.1117927 56:-0.86089147 57:-0.5173924 58:-0.42174948 59:-0.82634237 60:0.11244104 61:2.5138928 62:-0.59158817 63:0.19356653 64:1.7851364 65:-0.92883196 66:-0.54220784 67:-0.30360174 68:0.058433704 
0.001 1:0.36312913 2:-0.15929544 3:0.28681466 4:0.44337342 5:-0.015098231 6:0.15015073 7:0.26525081 8:0.25940902 9:-0.30877941 10:-0.71191702 11:-0.12188769 12:-1.2527581 13:-1.3947468 14:-0.56281099 15:-0.64047816 16:-1.1949291 17:-2.1866292 18:-1.0648463 19:-0.029541736 20:0.79209238 21:0.23310432 22:-0.84954649 23:1.4189976 24:-1.1747342 25:-0.44451541 26:-0.18859895 27:2.796891 28:0.75987965 29:-0.39960633 30:-0.18027657 31:-0.75687081 32:-1.1499824 33:0.27498245 34:0.36692031 35:0.19856619 36:0.70363635 37:0.072780837 38:0.085497321 39:0.014851914 40:0.06222995 41:0.15079603 42:0.13204177 43:0.69670398 44:0.77847355 45:0.91315186 46:1.8967195 47:1.5448628 48:0.67565575 49:1.1258395 50:1.2571591 51:2.7660678 52:1.0062799 53:1.8412098 54:1.9930121 55:0.67633705 56:-0.66865914 57:3.9088453 58:-1.3289423 59:-0.15238504 60:0.36748113 61:2.6829836 62:2.3572647 63:-0.54386079 64:0.084280447 65:-0.60465964 66:-1.3706224 67:1.4186761 68:1.8807322 
0.001 1:-0.63836691 2:0.01184758 3:0.5873328 4:-0.33943743 5:0.45784623 6:-0.4862387 7:0.39549327 8:-0.68707098 9:0.60311318 10:0.64756534 11:-0.18044297 12:0.33288798 13:0.85799175 14:0.39135647 15:0.30998231 16:-0.15277257 17:0.69454439 18:0.6877705 19:0.38845478 20:-0.029081835 21:-0.42417987 22:-0.29808647 23:0.045812232 24:0.35182785 25:-0.47871359 26:0.50948129 27:-0.36685483 28:0.45283176 29:0.69104084 30:0.20258785 31:0.52699168 32:-0.34898118 33:-0.56133745 34:0.073704203 35:-0.17542011 36:-0.53330396 37:-0.91390306 38:0.033576352 39:0.63977575 40:0.40873899 41:0.21382999 42:0.16266136 43:-0.44555423 44:-0.31962894 45:0.63835731 46:-0.033581403 47:1.0327452 48:-0.39893982 49:0.40722568 50:-0.32388721 51:-0.29089061 52:-0.073678454 53:0.018051553 54:-0.45250409 55:0.45126904 56:-0.29272359 57:0.037358896 58:0.66467215 59:-0.32990015 60:1.0936501 61:-0.40107148 62:0.8447702 63:1.0787682 64:0.27114561 65:0.43295447 66:0.1448648 67:-0.45928456 68:0.62986947 
0.001 1:0.74496087 2:-1.1382096 3:-0.032980145 4:0.39369012 5:0.04624323 6:1.1156861 7:-0.79191915 8:0.57432406 9:-0.1058111 10:-0.83522648 11:0.15133402 12:0.89460675 13:-0.64001974 14:0.75905418 15:-0.11114303 16:0.82220874 17:-0.035265899 18:0.24510286 19:0.46875819 20:0.16807286 21:0.61990621 22:-0.10368704 23:0.77458292 24:0.018204263 25:-0.41546836 26:0.39042881 27:0.14754338 28:-0.50304592 29:-0.064537874 30:0.11826359 31:-0.63633763 32:-0.96683262 33:0.19694877 34:-0.85664349 35:-0.28295927 36:-0.82890393 37:0.064939565 38:-0.13179555 39:-0.083806536 40:0.39311645 41:-0.77796123 42:-0.087651113 43:0.048905328 44:0.33796013 45:0.00067492075 46:-0.5382793 47:0.63543398 48:-0.18473409 49:0.24870566 50:-0.8091434 51:-0.63010806 52:-0.55240915 53:-1.2549141 54:-0.60400685 55:-0.86887908 56:-0.0095241369 57:1.1119094 58:-0.080939233 59:-0.55513613 60:0.091287374 61:0.6003716 62:-0.85030313 63:-0.31310634 64:0.35130293 65:-0.7675765 66:-1.3157137 67:0.20994155 68:-0.86980801 
0.001 1:-0.051451153 2:-0.78088196 3:-0.70475836 4:-0.46912739 5:-0.57855036 6:0.21550289 7:0.082078304 8:0.069720312 9:0.0058999903 10:0.096584337 11:-0.75966041 12:0.73786626 13:-0.78921547 14:0.50049709 15:0.56998379 16:0.78767544 17:-0.63864269 18:-0.19691377 19:1.0699137 20:0.64945197 21:0.95591125 22:-0.68002926 23:0.61172776 24:-0.53087555 25:-0.048881299 26:0.94071743 27:1.7909129 28:-0.12724987 29:0.11688919 30:-0.13962427 31:-0.38031695 32:-0.99749615 33:-0.086882706 34:-0.55086693 35:0.2407799 36:-0.26338827 37:1.0161821 38:0.17957429 39:0.54147811 40:0.80249983 41:-0.1690788 42:0.15783418 43:0.36690091 44:0.79035068 45:1.0703652 46:-0.45598639 47:0.79692489 48:0.21436438 49:0.26082822 50:0.0091669395 51:0.20591009 52:-0.50488867 53:0.71070885 54:0.92405019 55:-0.25310316 56:-0.8084768 57:1.3279964 58:-0.42436859 59:0.048244179 60:1.2691346 61:2.2136848 62:-0.36768964 63:0.72049381 64:-0.2212331 65:-0.58412316 66:-1.0144456 67:-0.067516796 68:-0.64124618 
0.001 1:-1.6431781 2:-0.42280034 3:0.12473167 4:-1.0808159 5:-0.13978293 6:-1.5419833 7:2.5872421 8:-1.405811 9:-0.6598042 10:0.95373251 11:0.45820396 12:0.60845889 13:1.1336087 14:0.83581687 15:-0.22502365 16:-0.028533641 17:1.6050754 18:-0.78476839 19:0.65727516 20:0.089566552 21:-1.0317627 22:1.2815202 23:-0.76918066 24:0.19293514 25:-0.20231577 26:-1.1158386 27:-1.0626131 28:-0.13802066 29:-0.42944878 30:-0.55292862 31:0.22112933 32:4.2235423 33:-0.6515103 34:1.6283766 35:-0.55420187 36:0.3715023 37:-0.14692555 38:0.012832561 39:1.1010861 40:-0.63177507 41:2.3774166 42:-0.32822828 43:0.30494474 44:0.10453239 45:0.47427796 46:0.66805768 47:-0.43359084 48:1.0949309 49:0.5078657 50:0.83362314 51:0.68834222 52:0.85726354 53:-0.61328776 54:1.1474711 55:0.50676092 56:3.0565822 57:-0.83154521 58:0.49473864 59:0.90485146 60:-1.4703165 61:-1.0439783 62:0.41097274 63:-0.38417342 64:-0.64234387 65:1.2327128 66:3.5428151 67:-0.32790181 68:0.56773741 
0.000267633937298862 1:-1.5595056 2:-0.058943938 3:-0.10316916 4:-1.2734441 5:-0.32818427 6:-1.618159 7:2.4727003 8:-1.3655264 9:-0.73709694 10:1.3299907 11:0.24959694 12:1.0158569 13:1.9623985 14:0.10607525 15:0.60783139 16:0.61005344 17:1.6763599 18:-0.063659392 19:0.22413447 20:0.18175207 21:0.28961841 22:0.96235714 23:-0.71909497 24:0.15910961 25:-0.87041148 26:-1.0204129 27:-1.096573 28:0.26404696 29:-0.57704424 30:-0.38058771 31:1.4208776 32:3.6076334 33:-0.75499653 34:1.4141695 35:-0.24228039 36:0.97074393 37:-0.12549845 38:0.41028574 39:2.017711 40:-0.4732472 41:1.6497578 42:-0.049710107 43:0.52008211 44:0.49927281 45:1.4697089 46:0.99796825 47:0.82688276 48:0.75314403 49:0.031048089 50:1.0905586 51:0.62276688 52:0.12226101 53:0.77244816 54:1.0207654 55:0.7150499 56:2.8114243 57:-0.71885612 58:0.0854139 59:-0.58849327 60:-1.1885346 61:-1.0840441 62:0.68885831 63:-0.53686624 64:0.36547537 65:2.3934285 66:3.880487 67:-0.44961359 68:0.68202842 
0.001 1:-1.838949 2:0.060125834 3:0.54970636 4:-1.5630863 5:-0.77331018 6:-1.606224 7:1.1223408 8:-1.4786379 9:-0.65685898 10:1.0833108 11:0.52894861 12:1.3596434 13:1.5921948 14:0.70976781 15:0.83843907 16:1.23531 17:0.88746833 18:1.2808329 19:0.54303961 20:1.3373192 21:0.2954195 22:-1.0529825 23:-0.64120245 24:3.0035952 25:-0.87339858 26:1.1874346 27:-0.79290048 28:-0.23559717 29:-0.49608673 30:-0.86537059 31:-0.63742171 32:0.64137999 33:-0.86788655 34:1.8050271 35:-0.36380246 36:-0.043285749 37:-0.082969528 38:-0.17329406 39:1.2024436 40:-0.073625797 41:0.83507085 42:-0.36210164 43:0.45084218 44:0.43844357 45:0.97149687 46:-0.072095721 47:0.92142066 48:-0.37553609 49:0.31643611 50:0.16704374 51:-0.15540028 52:-0.18998384 53:-0.9281645 54:-1.0245746 55:-0.57609852 56:-1.0825678 57:-0.49819121 58:3.1038611 59:-0.71004385 60:1.7860415 61:-0.3981311 62:-0.23766038 63:-0.37122603 64:-0.70473203 65:0.18617801 66:2.5253909 67:-0.70000155 68:1.1521949 
0.001 1:-1.2531138 2:-0.84404358 3:-0.28635576 4:-1.3526271 5:-0.81526601 6:-1.2292079 7:0.27810175 8:-1.2709105 9:-0.56821778 10:1.4817912 11:-0.12637152 12:0.57722462 13:-0.38910943 14:-0.81564923 15:-0.5085456 16:-1.1371312 17:-0.84972027 18:-0.6435799 19:-0.49836538 20:-0.59889594 21:1.3309102 22:3.6425894 23:-0.50137782 24:-0.2897967 25:-0.14428389 26:0.089747264 27:-0.10320702 28:-0.062965334 29:0.36094864 30:1.3322665 31:-0.74566639 32:0.048001781 33:-0.033586155 34:0.10881129 35:-0.89819346 36:-1.0243694 37:-0.054434406 38:-0.42580155 39:0.70126302 40:-0.70246602 41:0.72630843 42:-0.94373954 43:0.35377354 44:0.16043179 45:0.84387493 46:0.20217081 47:1.6414674 48:1.5412342 49:1.0943722 50:-0.32356577 51:0.76252859 52:0.1691553 53:-0.25666407 54:-0.074694733 55:-0.53100546 56:2.3040222 57:-0.31778716 58:-0.1247557 59:-0.56816048 60:0.81776707 61:-0.19495043 62:-0.19284534 63:1.0257589 64:1.7450661 65:-0.58257133 66:0.62099965 67:-0.17251999 68:-0.20113465 
0.001 1:-0.12671824 2:-1.2035349 3:0.51467713 4:-0.14662967 5:-0.93755498 6:0.57893517 7:-0.10911367 8:0.18101726 9:-0.1595223 10:-0.76958924 11:-0.52785295 12:-0.84559421 13:0.30276076 14:0.40615452 15:-0.26803351 16:-1.1716551 17:-0.33027029 18:-0.84978161 19:-1.1640735 20:-1.1219048 21:0.066415903 22:-0.48217398 23:0.14957304 24:-0.78472416 25:0.84741177 26:-0.11128969 27:-0.1300173 28:-0.57539191 29:0.58606467 30:0.77239514 31:0.25065345 32:-0.74809648 33:-0.19477472 34:-0.90087032 35:-0.60028883 36:-1.3537641 37:-0.23939514 38:-0.57273043 39:-0.49654543 40:-0.068522785 41:-0.58146767 42:-0.38650929 43:-0.11310498 44:0.55087727 45:1.1572051 46:0.49538668 47:0.23744646 48:1.6475454 49:0.3232679 50:1.1957474 51:0.27993523 52:1.4581146 53:1.3089807 54:2.926197 55:1.5571583 56:-0.15681138 57:0.24355425 58:-0.53330883 59:1.0782831 60:0.046869243 61:-0.058968331 62:-0.53819616 63:1.3733036 64:0.92992721 65:0.50350432 66:-0.45968518 67:0.11873222 68:-0.81709202 
0.001 1:-0.45972734 2:-0.061488039 3:-0.9843464 4:-0.97551757 5:-0.84185999 6:-1.4953834 7:0.39693535 8:-1.0042952 9:-0.61436206 10:1.6764735 11:0.97317958 12:0.045645697 13:-0.54577881 14:0.12847347 15:0.41146365 16:0.25243134 17:0.057814949 18:0.64624071 19:0.076351247 20:-0.16887517 21:-0.45788684 22:0.14647603 23:0.020711814 24:-0.2838003 25:0.20864813 26:-0.27762774 27:-0.4275106 28:-0.49318212 29:-0.60115005 30:-0.49539357 31:2.290371 32:1.1395074 33:-0.16488548 34:-0.47120908 35:0.8819494 36:-0.19931518 37:-0.12321381 38:0.98912024 39:-0.34411812 40:0.10525823 41:-0.20306995 42:0.3217144 43:0.19625744 44:0.92233234 45:0.21462158 46:-0.76856066 47:0.33716009 48:-1.0944799 49:1.2237462 50:-1.5713544 51:-0.72329342 52:-1.1943557 53:-0.85705642 54:-1.1144267 55:-1.2582062 56:0.050850032 57:0.46801102 58:-0.86912019 59:-0.52047256 60:-0.42007731 61:-0.53354693 62:-0.79883711 63:-0.78752583 64:-0.51637375 65:0.52086986 66:0.096770784 67:-0.17570562 68:-0.81719811 
0.001 1:0.44152917 2:-0.42801298 3:-0.0031258435 4:0.26247299 5:0.20520089 6:0.61550186 7:-0.052425641 8:0.50583496 9:-1.1857461 10:-0.01694668 11:-0.12154307 12:0.68257446 13:-1.4950987 14:-0.19466737 15:0.50828971 16:1.7404052 17:0.65088586 18:-0.22551421 19:0.57746052 20:-0.29462124 21:0.017991938 22:-0.1238077 23:0.004667389 24:-0.80667716 25:-0.55078995 26:0.33424895 27:-0.03866188 28:-0.31887368 29:-0.24792737 30:-0.4321146 31:-0.051647271 32:-0.58151798 33:2.4322193 34:-0.89612092 35:0.43862332 36:1.594039 37:0.41969865 38:0.48752628 39:0.10471324 40:0.96118886 41:-0.23288487 42:0.67717949 43:1.6578413 44:0.37508125 45:0.89972829 46:-0.27653458 47:0.46395801 48:0.33611619 49:0.34149493 50:-0.44845197 51:-0.11589945 52:0.39316756 53:-0.55141142 54:-0.36621563 55:-0.91686429 56:-0.34864522 57:-0.27082666 58:-0.70144377 59:-0.68777334 60:0.75921606 61:-0.16049974 62:-0.16603586 63:-0.39513737 64:-0.71345058 65:-0.059528292 66:-0.77401388 67:3.236302 68:-0.54998856 
0.001 1:-0.53340249 2:-0.92690602 3:-0.81460944 4:-0.62095373 5:0.029407518 6:-0.60593536 7:-0.057844068 8:-0.37956717 9:-0.36977501 10:1.0078266 11:-0.0988902 12:0.1384308 13:0.042193033 14:0.38731489 15:0.84125207 16:-0.012857871 17:0.78191956 18:0.5852807 19:0.13532914 20:0.29990233 21:0.57738322 22:-0.25518455 23:-0.20494151 24:0.46934058 25:-0.44663498 26:-0.4477285 27:-0.21689648 28:0.38749394 29:-0.27927795 30:-0.50180721 31:-0.012624971 32:1.4428936 33:-0.33077082 34:0.086011061 35:0.37934975 36:-0.17720697 37:0.59900328 38:0.84528979 39:1.343827 40:1.2680055 41:-0.020695844 42:0.72112586 43:-0.34911028 44:1.2416476 45:-0.52228062 46:0.48568775 47:0.044617965 48:-0.38685881 49:-0.81666504 50:-0.35206222 51:-0.19093849 52:-0.55563893 53:-0.68433387 54:-0.45676738 55:-0.92103557 56:-0.14532691 57:-0.086288111 58:-0.37292531 59:-0.56395006 60:-0.74780786 61:-0.60197006 62:0.69189866 63:-0.36158172 64:-0.76299534 65:-0.019852902 66:0.70628117 67:-0.59051677 68:-0.35347443 
0.001 1:-1.4927551 2:-0.74070839 3:-0.59181886 4:-1.8515805 5:-1.1284273 6:-1.6822902 7:0.43778957 8:-1.36226 9:-0.40524557 10:1.7968512 11:-0.18677009 12:0.13478283 13:-0.054158197 14:-0.26283643 15:0.55044967 16:1.2001838 17:-0.026882154 18:0.64979551 19:0.14433244 20:0.26952362 21:-0.032905999 22:-0.10862044 23:-0.035337763 24:0.077095353 25:-0.17774995 26:-0.27702128 27:0.23866595 28:-0.047340014 29:0.078983346 30:-0.51214587 31:0.31869635 32:2.6748119 33:0.0065710028 34:0.31857349 35:-0.81600307 36:-0.40934878 37:-0.080799755 38:-0.2030667 39:0.69001342 40:-0.42247857 41:-0.080985791 42:-0.54345486 43:-0.44759905 44:0.20927891 45:0.36077871 46:1.1600226 47:0.43382804 48:-0.32163953 49:-0.025271682 50:-0.66101866 51:0.17443644 52:-1.0742281 53:-0.37023081 54:-0.99140221 55:-0.90174842 56:-0.052209078 57:0.25147421 58:-0.44078086 59:-0.10759109 60:-0.62328704 61:-0.22675617 62:0.41871661 63:1.0142445 64:-0.62642095 65:0.15729586 66:1.5138923 67:0.21629764 68:-0.27186752 
0.001 1:-0.22830971 2:-1.2437747 3:0.18751922 4:-0.11604721 5:-0.27270372 6:0.037269142 7:-0.0018680632 8:0.027862984 9:-1.843318 10:-0.48278009 11:1.1239658 12:-1.0418344 13:-0.89821418 14:-1.6232479 15:-1.4979945 16:0.89476781 17:2.5340202 18:0.98295227 19:0.57748052 20:0.77604127 21:-0.06258761 22:-0.76893176 23:-0.13040941 24:-0.28939721 25:-0.54539506 26:0.57230193 27:-0.39005692 28:-0.5821267 29:-0.30334408 30:-0.78380337 31:-0.86014049 32:0.90454827 33:-0.085574758 34:-0.091393317 35:-0.21218574 36:-0.3940673 37:0.62052338 38:-0.48220133 39:-0.60551301 40:1.0096598 41:0.25982336 42:-0.14134219 43:0.91648974 44:0.94854829 45:0.60150088 46:0.89016947 47:0.25914645 48:1.5713267 49:0.28015996 50:1.1495178 51:0.80201022 52:0.64560904 53:-0.61543306 54:0.18363792 55:-0.95208611 56:-0.5471534 57:0.0036243829 58:0.90796726 59:-0.39816424 60:1.6422958 61:-0.07213025 62:-0.37507137 63:-0.57130511 64:-1.0369831 65:-1.0033675 66:1.0424854 67:-0.43772962 68:0.4898744 
0.001 1:0.2611174 2:-1.1321996 3:-0.37168826 4:0.78877023 5:0.95555722 6:0.023408382 7:-0.054148161 8:0.20714784 9:-1.3687019 10:-0.40529109 11:1.9514319 12:0.61039075 13:0.39720136 14:1.110138 15:-0.52258377 16:0.62578171 17:0.24969681 18:1.0030693 19:-0.13020752 20:0.24983917 21:0.95527212 22:-0.37919584 23:-0.71009435 24:1.5454356 25:-0.55016744 26:0.25206125 27:-0.45119981 28:0.64593474 29:-0.62343847 30:-0.096080419 31:-0.70876502 32:-0.36544783 33:-1.0102138 34:0.65795265 35:0.72288669 36:-0.67584539 37:-0.32655447 38:0.6805353 39:-0.43922499 40:1.1056165 41:0.049688944 42:0.77390427 43:0.4766394 44:1.1866022 45:0.97469134 46:0.15892588 47:0.39077468 48:2.3987952 49:1.0885287 50:0.73634928 51:-0.069577591 52:1.4086674 53:0.20295362 54:0.18426449 55:-0.36031082 56:0.10724963 57:-0.81525394 58:0.72096057 59:-0.12523335 60:0.99537481 61:0.52657864 62:1.5340614 63:-0.76501031 64:-0.032190159 65:-0.54305549 66:-0.56612007 67:-1.0732488 68:1.1130629 
0.001 1:1.015775 2:-0.85702496 3:-0.56275701 4:0.34128436 5:-0.2654164 6:-0.056947659 7:-0.44556656 8:0.31239604 9:-0.25091273 10:0.63375574 11:0.31957351 12:-0.86437978 13:-0.75383234 14:1.3078049 15:1.8834535 16:-1.202384 17:0.36008706 18:0.2788104 19:-1.5172375 20:0.96857274 21:-0.57482124 22:0.6351956 23:0.1897969 24:0.044902007 25:-0.43159747 26:-0.2154616 27:-0.31759067 28:-0.75131094 29:1.0350782 30:-0.36147141 31:-0.60083269 32:0.3202622 33:-0.28368121 34:-0.69749623 35:0.9352137 36:-0.74936267 37:0.23909005 38:0.92964384 39:0.64663739 40:0.27213604 41:-0.43582004 42:0.74723688 43:0.30326447 44:-0.11336653 45:0.25392344 46:-0.10976992 47:0.16967454 48:-0.47502281 49:-0.10869448 50:-1.0611895 51:0.11500726 52:-1.5658737 53:-0.79226451 54:-0.95502219 55:-0.65075191 56:0.67307 57:0.58982154 58:-0.20276715 59:-0.3134944 60:-0.34917069 61:-0.48458324 62:-0.99936735 63:0.94839086 64:-0.58093649 65:-0.86019831 66:0.28844439 67:-0.43512405 68:-0.53411914 
0.001 1:-1.2575967 2:1.0477346 3:-0.15428506 4:-0.80848729 5:-0.14386421 6:-1.5174532 7:2.5972736 8:-1.2277359 9:-0.89224924 10:0.84052505 11:1.0320975 12:1.0969367 13:1.1897314 14:0.20349212 15:1.2113033 16:1.3001054 17:1.7516513 18:2.4154452 19:0.51715564 20:0.25923711 21:1.0549055 22:-0.8888631 23:-0.82443313 24:1.0725176 25:-1.1798656 26:0.56031138 27:-0.94560865 28:0.39162507 29:-0.67411121 30:-0.85139587 31:-0.76451235 32:3.093863 33:-0.77115228 34:1.8417895 35:0.54645675 36:1.8905609 37:0.55292177 38:0.98410504 39:1.1894619 40:0.50600762 41:3.1295491 42:0.55942331 43:1.2959649 44:1.4376598 45:0.78790941 46:0.45162716 47:0.54512896 48:-0.0079292659 49:0.35102552 50:-0.064323008 51:-0.12869369 52:0.69397036 53:-0.30599139 54:-0.65514133 55:-0.26141564 56:-0.70037493 57:-0.8707723 58:2.2807251 59:-1.0611248 60:2.2532409 61:-0.49281746 62:1.3968617 63:-0.75740102 64:-0.63382515 65:-0.026990703 66:3.6094171 67:-0.63205946 68:1.2634524 
0.0002544543352292237 1:-0.50537253 2:-0.53614327 3:-0.68720675 4:-0.83832617 5:-1.1290103 6:-0.11467226 7:0.087961354 8:-0.2933627 9:0.13945224 10:-0.16264662 11:0.15764429 12:-0.59260346 13:-1.3639293 14:-1.1810765 15:-0.78128612 16:0.062582065 17:0.071083558 18:0.75194742 19:-0.79848589 20:0.71676911 21:-0.58197023 22:-0.19166296 23:1.4052795 24:-0.56699938 25:-0.29126471 26:-0.034959932 27:0.21091224 28:-0.25904397 29:-0.21753903 30:0.83521724 31:-0.087610419 32:-0.56062268 33:1.6603512 34:-0.83436637 35:-0.57492175 36:0.49081842 37:0.61404537 38:-0.72367758 39:-0.14257854 40:-0.1354948 41:-0.22281271 42:-0.61755667 43:0.36123901 44:-0.093080962 45:0.48865705 46:1.4472615 47:2.35418 48:1.2967242 49:1.8366355 50:0.55792297 51:-0.26137369 52:0.73086623 53:0.78929265 54:0.23748177 55:0.084941482 56:-0.3410553 57:2.3484009 58:-0.47451855 59:-0.44123264 60:0.23030396 61:-0.029028571 62:-0.29349301 63:-0.3791607 64:0.99226459 65:-0.016713815 66:-0.49241013 67:2.2483936 68:-0.77341369 
0.001 1:-0.42327821 2:-0.69492035 3:0.023612308 4:-0.38672786 5:-0.051094522 6:-0.45281205 7:0.40314082 8:-0.22182929 9:-0.78403474 10:0.48942192 11:-0.078008371 12:0.81533847 13:0.52441767 14:-0.3509572 15:-1.0154234 16:1.4574807 17:0.96424852 18:-0.62819582 19:-0.98861648 20:-0.61335517 21:-0.89018407 22:2.0426278 23:0.70882567 24:-0.33508994 25:-0.26786366 26:-0.2200886 27:-0.33411045 28:0.45779195 29:-0.10434083 30:-0.7281329 31:0.29324782 32:0.24476143 33:0.87510835 34:0.27670735 35:0.032896631 36:-0.064908111 37:0.037192918 38:0.14105509 39:1.4563353 40:0.20822489 41:0.040733365 42:0.33279762 43:0.054137552 44:0.44879561 45:0.37381883 46:0.17856404 47:1.4059996 48:0.6668599 49:-0.8856366 50:0.32974616 51:1.2558945 52:-0.080848689 53:0.35247756 54:0.26313541 55:1.6948968 56:1.4722123 57:2.021598 58:-0.37923773 59:0.24710082 60:-0.28926335 61:0.14174839 62:-0.035003121 63:0.7037853 64:-0.86262972 65:0.30875105 66:0.46964833 67:1.0237977 68:0.042608402 
0.001 1:0.57700992 2:0.47194334 3:-0.7016167 4:-0.25164554 5:-2.128976 6:1.2230637 7:-0.25160542 8:0.38316638 9:0.18402233 10:-2.5905807 11:-2.1335905 12:-2.0789417 13:-1.4756617 14:-0.542782 15:-0.47944808 16:-0.7998472 17:0.2078692 18:0.72764896 19:0.25343461 20:-0.2671015 21:-0.90447658 22:-0.27884355 23:0.41537966 24:-1.2555678 25:-0.41768005 26:-1.1167239 27:-0.69944331 28:-0.8914949 29:3.4665334 30:1.6835232 31:-0.57667096 32:-0.94311925 33:1.1120395 34:-1.1513408 35:-0.50785185 36:1.5382296 37:2.2188194 38:-0.96238377 39:-0.81844122 40:-0.91881213 41:-0.64997078 42:-0.78746734 43:1.5383526 44:-0.51305997 45:0.51031211 46:0.033710578 47:0.68614242 48:0.39391707 49:0.63339294 50:0.31803656 51:0.1080607 52:1.2510239 53:0.81742291 54:0.61881284 55:0.68697078 56:-0.15741622 57:0.81364788 58:-1.4372271 59:-0.41353492 60:-0.80705723 61:-0.70073266 62:-0.92966107 63:4.0894291 64:1.149487 65:0.081920265 66:-0.87003969 67:1.2183541 68:-0.62072969 
0.0004530469853205316 1:-1.8119228 2:2.2913593 3:0.27412405 4:-1.3294605 5:-0.52438968 6:-1.7655055 7:3.8863958 8:-1.4593711 9:-0.2082448 10:1.0609613 11:1.5890699 12:0.92669498 13:0.80179667 14:-0.097732871 15:0.76112208 16:0.75565757 17:1.4622248 18:1.7794655 19:0.96704484 20:1.7423965 21:0.38145831 22:-0.94753087 23:-0.87935973 24:1.6351762 25:-0.83586854 26:-0.12747972 27:-1.0624854 28:-0.53465012 29:-0.76486921 30:-0.81794247 31:-0.37475139 32:4.677523 33:-0.84688613 34:2.340101 35:-0.37580182 36:3.0615249 37:0.16951335 38:0.55235396 39:1.1141238 40:-0.14838288 41:6.2886139 42:0.10944317 43:0.4272581 44:0.58306705 45:0.46627979 46:0.0083343154 47:0.84327651 48:1.7663012 49:0.33818363 50:-0.3850462 51:0.072322908 52:-0.38710596 53:-0.76976162 54:-0.60398768 55:0.2554839 56:-0.80614356 57:-1.0040149 58:2.3845871 59:-0.41054658 60:0.55470227 61:-0.89056426 62:-0.51931546 63:-0.91630959 64:-0.7575934 65:1.0481253 66:6.1999294 67:-0.77965039 68:1.5131346 
0.001 1:0.33550573 2:-1.2901406 3:-0.55825434 4:-0.57932267 5:-2.0857432 6:0.57933269 7:-0.52582303 8:0.10577084 9:-0.78589786 10:-1.3840286 11:-0.44002111 12:-1.2840496 13:-1.832946 14:-0.18210879 15:-0.92990992 16:-0.89690207 17:-1.6304584 18:-0.23104585 19:-1.0212428 20:-0.89366584 21:0.11806214 22:-0.82853338 23:0.33442397 24:-0.99233639 25:3.538596 26:-0.54439827 27:0.38826164 28:-0.81462799 29:0.03644224 30:0.74544114 31:0.25278125 32:-1.0874598 33:0.066099148 34:-0.67982333 35:-0.41752936 36:-0.71652866 37:0.71887188 38:-0.93562865 39:-0.92181294 40:-0.19462131 41:-0.63785742 42:-0.75519456 43:0.88758417 44:0.35501843 45:1.155196 46:0.88902896 47:0.25440444 48:0.46260439 49:-0.73797802 50:0.082312461 51:-0.58231307 52:0.1583078 53:-0.5308056 54:-0.52118773 55:-0.44259731 56:-0.76814388 57:0.46440373 58:-1.1821283 59:2.5574036 60:-0.32600971 61:0.91750232 62:-0.90268533 63:-0.033456854 64:1.0487518 65:-0.2343781 66:-1.2583665 67:0.13354448 68:0.22368852 
0.001 1:-0.35013432 2:0.85170609 3:-0.36336998 4:-0.044613815 5:0.55581361 6:-0.53599934 7:0.950613 8:-0.67470761 9:0.41212306 10:-0.12815781 11:0.64721443 12:-0.26922642 13:-0.2556731 14:0.12491093 15:-0.6919189 16:-0.65276398 17:-1.6404752 18:-2.7451506 19:-2.013803 20:-1.6182917 21:-0.66752772 22:0.50718608 23:-0.0051570804 24:1.4541795 25:2.3563773 26:0.055800226 27:1.7410872 28:0.12292225 29:-0.47811594 30:-0.42710339 31:-1.3481668 32:-0.84976376 33:-0.72536758 34:1.1861144 35:0.074921596 36:1.1125616 37:0.90409472 38:-0.017268078 39:2.0901597 40:0.17654754 41:0.70044359 42:-0.19599257 43:0.32247706 44:0.5872963 45:0.043728796 46:1.1475535 47:0.5440383 48:1.4795036 49:1.2510719 50:0.69173467 51:-0.091401164 52:1.2627244 53:1.2388436 54:3.0987605 55:4.7926711 56:0.86953132 57:0.27624174 58:2.2091562 59:2.7029887 60:0.7551486 61:3.2739191 62:1.0538214 63:-0.5710508 64:0.21699234 65:-1.2662802 66:-0.047452502 67:-0.71131292 68:1.5385558 
0.001 1:0.44152917 2:0.28274168 3:0.34969358 4:0.52095464 5:-0.096222792 6:0.17790359 7:-0.15141483 8:0.67689353 9:-0.11543267 10:-0.72102316 11:2.6066589 12:0.069834412 13:0.71209952 14:0.012746651 15:-1.3568496 16:0.91495767 17:-0.4564076 18:-1.212092 19:-0.4642898 20:-1.3791164 21:-0.61783742 22:0.86693803 23:-0.54770588 24:0.94642734 25:0.78679095 26:0.27241251 27:-0.066906469 28:-0.12414249 29:-0.60948343 30:-0.50530133 31:-0.70074829 32:-0.45500834 33:-0.0048905627 34:0.53353262 35:0.47306777 36:0.72310337 37:-0.25873519 38:0.37290009 39:-0.22156657 40:0.40913132 41:-0.19275615 42:0.53604821 43:0.11103399 44:0.4547207 45:0.69649755 46:1.1233454 47:1.4508521 48:0.61221348 49:0.31150281 50:0.81844715 51:-0.26245667 52:0.46645565 53:1.447932 54:1.305006 55:1.7458266 56:1.1082488 57:-0.5435864 58:1.4831814 59:0.96664916 60:1.0817281 61:0.45314846 62:0.27318428 63:-0.75313606 64:-0.090453328 65:-0.72236795 66:-0.025080431 67:0.18364166 68:0.54357069 
0.001 1:-0.47588875 2:1.035367 3:0.010153497 4:-0.24879939 5:-0.10566409 6:-0.2099279 7:0.80947776 8:-0.37892197 9:0.39237535 10:-0.27039735 11:-0.63264417 12:0.30172708 13:-0.7226282 14:-0.38754018 15:-1.4593144 16:-1.3370778 17:-1.8274657 18:-0.92989973 19:-0.28746129 20:0.48323025 21:-0.21120341 22:0.25832124 23:0.51893686 24:-0.49243063 25:0.82862722 26:-0.52850758 27:1.6686002 28:-0.3685753 29:0.36386807 30:1.505363 31:-0.31217015 32:-0.65055142 33:0.21412502 34:-0.14826212 35:-0.14485824 36:1.7879748 37:0.39897258 38:-0.08622476 39:0.055127639 40:0.10443838 41:0.27526988 42:-0.030587963 43:0.91277697 44:0.71169581 45:1.1448211 46:1.3145412 47:2.086334 48:1.6705253 49:1.0959651 50:1.8993393 51:2.3239548 52:2.990062 53:3.6515422 54:3.6143218 55:2.5753633 56:0.30726406 57:1.591763 58:-0.25442074 59:1.7544334 60:-0.081472065 61:2.3413875 62:-0.070833733 63:1.118951 64:2.3182039 65:0.37754616 66:-0.22312229 67:0.76136502 68:-0.43859061 
0.001 1:-1.196275 2:-1.2772 3:-2.0339683 4:-0.36798875 5:1.0099506 6:-1.7098629 7:2.2284814 8:-1.1962824 9:-2.0463644 10:1.6497873 11:1.7403663 12:0.61875126 13:0.57050029 14:0.43785063 15:0.70708929 16:0.91680953 17:0.95937407 18:0.72775303 19:0.56486732 20:0.31435274 21:-0.045206013 22:0.064208573 23:-0.78674133 24:1.4620095 25:-0.63582572 26:1.2277976 27:-0.9593614 28:-0.35579857 29:-0.71680296 30:-0.7625673 31:-0.21053374 32:2.1552441 33:-0.67446064 34:1.3521098 35:0.099817368 36:-0.83481711 37:-0.34169536 38:0.51448331 39:0.20290765 40:-0.34823753 41:1.1489898 42:0.33556673 43:0.21093352 44:-0.27612464 45:-0.27895157 46:-1.3389664 47:-0.94880194 48:-0.98669114 49:-0.80024663 50:-1.0269484 51:-1.2814203 52:-1.7653814 53:-1.2092473 54:-1.2771276 55:-0.62781021 56:0.12792261 57:-1.0052982 58:1.398339 59:-0.68712022 60:1.3005303 61:-1.1771341 62:-0.40807706 63:-0.77032756 64:-0.96096416 65:0.099104174 66:1.4848779 67:-0.95610998 68:-0.070043409 
0.001 1:-1.0283059 2:0.35375555 3:-0.7102222 4:-0.51625467 5:1.1123561 6:-1.6247253 7:1.5998608 8:-1.4047357 9:-0.55854243 10:1.440267 11:0.72949222 12:1.1760303 13:0.97017714 14:0.49820299 15:0.71161309 16:0.019524131 17:1.0546282 18:0.55949652 19:0.74571883 20:1.4956695 21:0.22319494 22:-0.32543473 23:-0.90175398 24:-0.31449116 25:-1.1686457 26:0.02939926 27:-0.20792518 28:0.9645263 29:-0.70705872 30:-0.19827953 31:1.7415401 32:1.6504283 33:-0.85966882 34:1.037639 35:0.20224255 36:0.91069058 37:1.3651035 38:0.45547367 39:-0.42187517 40:-0.17742733 41:2.6400134 42:-0.0534014 43:0.29159281 44:0.23122147 45:-0.043786207 46:0.27653631 47:-0.37932315 48:-0.47956933 49:0.092426722 50:-0.35073984 51:-0.062972488 52:-0.30408123 53:0.49319695 54:0.78687368 55:0.15856525 56:0.40961606 57:-1.0652079 58:-0.36221531 59:-1.1735947 60:0.77691069 61:0.14501927 62:1.1317057 63:-0.86405435 64:0.045236053 65:1.7483194 66:2.5352858 67:-0.69351452 68:-0.063309181 
0.001 1:-0.68564323 2:-0.37641314 3:0.065806467 4:-0.46118372 5:-0.38477696 6:-0.3908051 7:0.51457193 8:-0.59164967 9:0.20101489 10:-0.00099814557 11:0.59341887 12:0.3541356 13:-0.2198633 14:-0.54243571 15:0.3798747 16:0.17391275 17:-0.70840003 18:0.47663188 19:-0.59414092 20:0.32109759 21:1.0703365 22:1.601329 23:-0.4930198 24:0.31190244 25:-0.059860287 26:0.25182586 27:-0.11717861 28:-0.45642308 29:-0.28809787 30:0.55461078 31:-0.39211889 32:-0.56543572 33:-0.15078938 34:-0.19920621 35:-0.20150445 36:-0.049068235 37:-0.060480751 38:-0.19290832 39:-0.0085030833 40:0.31214244 41:0.10567375 42:-0.05515596 43:-0.18134149 44:0.13329925 45:1.4974595 46:-0.18229342 47:0.16323266 48:-0.29932431 49:0.74556812 50:-0.07550007 51:-0.089705184 52:-0.33803875 53:-0.25073787 54:-1.2008298 55:-0.5372218 56:0.17152586 57:-0.4644919 58:-0.072753317 59:0.14276634 60:0.69152099 61:-0.25554176 62:-0.42807561 63:-0.20515521 64:1.1906234 65:-0.35645046 66:-0.39054835 67:-0.0848855 68:-0.50905665 
0.001 1:0.64096785 2:-0.29934737 3:-0.37529645 4:0.26549714 5:-0.20364861 6:0.27733665 7:0.70112769 8:0.22565701 9:-0.12125395 10:-0.053057158 11:-0.21317475 12:-1.0698326 13:1.206712 14:-0.50522816 15:0.45614183 16:0.23179035 17:-1.4789249 18:0.45375054 19:-0.08107737 20:1.3457257 21:-0.88831744 22:-0.57294212 23:-0.3472505 24:-0.58137191 25:-0.10680193 26:0.12297459 27:1.0385499 28:-0.52466573 29:0.27730657 30:2.3958616 31:-0.39099262 32:-0.94002024 33:-0.13344124 34:-0.89583609 35:0.8293482 36:0.021500494 37:0.44676156 38:0.69055582 39:0.1113075 40:1.0348914 41:0.22705379 42:0.76258402 43:0.39698019 44:0.82813431 45:0.9450157 46:-0.1137674 47:0.023395357 48:-0.21776577 49:-0.15463504 50:-1.3199496 51:-0.77606853 52:-1.0318851 53:-0.32094033 54:-0.46695183 55:-0.67270246 56:-0.25123843 57:-0.61938116 58:-0.36581731 59:-0.23999821 60:0.52144836 61:1.5273327 62:-0.69677635 63:-0.20180197 64:0.68903355 65:-0.62882382 66:-1.0998248 67:-0.46744717 68:-0.43107877 
0.001 1:-0.24080328 2:0.30565593 3:-0.30769085 4:-0.29397568 5:-0.17875808 6:-0.47571219 7:0.31505433 8:-0.13871951 9:0.18424218 10:0.75477624 11:-0.14104607 12:-0.16362855 13:0.56418917 14:0.40182711 15:0.056289532 16:0.81431751 17:-0.089971433 18:-0.80204611 19:0.014402215 20:0.25739923 21:-0.054769236 22:-0.18250547 23:-0.29498935 24:-0.7479499 25:-0.32776622 26:-0.53547199 27:-0.5412906 28:-0.035120919 29:-0.3902758 30:0.099765723 31:3.2479171 32:0.257235 33:-0.61829495 34:-0.33659957 35:0.58929971 36:1.1872202 37:0.71953652 38:0.6839177 39:1.2711295 40:0.84004428 41:0.055535846 42:0.66047833 43:0.42534222 44:0.88271539 45:0.66840209 46:1.7726017 47:0.37601028 48:0.45994562 49:-0.15073074 50:1.0283774 51:0.57976798 52:-0.9059028 53:-0.029005006 54:-0.63005521 55:0.27693611 56:-0.18209988 57:-0.33301787 58:-0.72644858 59:-0.31075809 60:-0.46809758 61:-0.527388 62:0.67289925 63:-0.47466876 64:-0.0061287654 65:2.8099332 66:0.26620915 67:-0.55031978 68:-0.011321928 
0.001 1:-0.2702606 2:0.42528329 3:0.1166976 4:0.06697015 5:0.23520824 6:-0.50467698 7:1.1764128 8:-0.26937244 9:0.011513868 10:0.32793778 11:-0.14307653 12:-0.5496487 13:0.33047502 14:0.67313331 15:-0.64586208 16:-0.32200931 17:-0.035277503 18:-2.0089848 19:-0.56799399 20:-1.2488266 21:-0.49947853 22:0.8755223 23:0.21612846 24:0.11403507 25:0.54369915 26:1.6046905 27:-0.67585339 28:-0.32889829 29:-0.11773129 30:-0.068984289 31:-0.20541021 32:-0.072508749 33:-0.5268854 34:0.63026112 35:0.52974804 36:0.90213174 37:0.2832983 38:0.64792438 39:1.2327323 40:0.73754276 41:0.40324599 42:0.66666645 43:0.46932819 44:0.48246698 45:0.4028544 46:1.1389455 47:-0.14121334 48:0.6379703 49:-0.12547982 50:0.98470991 51:0.96235541 52:1.1356168 53:0.73440984 54:2.1343213 55:2.4758796 56:1.4010706 57:0.80838868 58:0.70945625 59:1.4391373 60:2.5621542 61:-0.6727155 62:0.2371333 63:0.068908386 64:0.67947606 65:0.33582366 66:-0.0012585123 67:-0.61695333 68:0.42414503 
0.001 1:-1.5342892 2:0.81877983 3:-0.15360667 4:-1.586089 5:-1.0961276 6:-1.8695635 7:2.225726 8:-1.318951 9:-1.0990214 10:2.1905952 11:1.2216097 12:1.6992738 13:0.34828051 14:0.077052458 15:2.5375742 16:0.34421965 17:0.61426536 18:-0.4202804 19:0.020032173 20:1.1442752 21:0.92357756 22:-1.1166465 23:-0.80185867 24:1.9609512 25:-0.24364959 26:3.1462202 27:-0.96342644 28:-0.24745342 29:-0.7437693 30:-0.72104488 31:-0.21433374 32:0.55551442 33:-1.12267 34:1.5401058 35:-0.02391115 36:0.22192437 37:-0.0071918295 38:0.43094851 39:0.49334219 40:-0.22846724 41:0.16065842 42:0.19884273 43:0.075302438 44:-0.086287549 45:-0.37656115 46:-0.81773041 47:-0.61542291 48:-1.1446863 49:-0.95802327 50:-1.5545836 51:-1.708668 52:-1.710697 53:-1.3725228 54:-1.4478516 55:-1.4471198 56:-1.1816653 57:-1.0547427 58:0.29440761 59:-0.073677215 60:2.4889286 61:-0.92341138 62:-0.19307166 63:-0.92262145 64:-1.0593734 65:0.39083162 66:0.63034416 67:-1.1071156 68:-0.79493177 
0.001 1:1.1271856 2:-1.4235924 3:-0.46511179 4:0.74062593 5:0.15864522 6:0.98862856 7:-0.48696908 8:0.88509139 9:-1.5170678 10:-0.41579189 11:0.28930429 12:-0.41899717 13:0.43947384 14:-1.2241389 15:-0.94647688 16:-0.22160722 17:-0.70515641 18:1.275018 19:-0.56109625 20:0.26333041 21:-0.77370193 22:0.57008201 23:-0.17020803 24:-0.73902078 25:-0.48590033 26:-0.40132436 27:-0.1048273 28:-0.31427205 29:0.2919424 30:0.45551301 31:0.31622734 32:-0.69293319 33:0.067332789 34:-0.97113037 35:0.34760468 36:-1.2587332 37:0.20523745 38:0.33232071 39:-0.087135265 40:0.56770874 41:-0.64186381 42:0.75281604 43:1.0668777 44:0.31415962 45:0.90790186 46:0.82291606 47:0.66461873 48:0.31087939 49:0.32961809 50:-0.13493351 51:0.83712242 52:-0.19887672 53:-0.28321615 54:0.35676857 55:-0.2316889 56:-0.20584651 57:-0.28550503 58:-1.2280758 59:-0.59041884 60:-0.32513033 61:-0.11221868 62:-0.33645262 63:0.034566471 64:0.13221999 65:0.5082697 66:-0.65515689 67:-0.11157194 68:-0.97820185 
0.001 1:-2.4253445 2:1.9384043 3:0.15333019 4:-2.2375158 5:-0.73050996 6:-2.3680192 7:5.2800108 8:-2.1355318 9:-1.3020513 10:1.6469406 11:1.2548641 12:1.9045048 13:1.7573049 14:0.76883919 15:1.707173 16:1.6453824 17:1.208316 18:0.72792787 19:0.4146291 20:1.1814718 21:1.9771566 22:-1.262367 23:-0.97221676 24:2.1102086 25:-0.9354835 26:2.7189288 27:-1.2586289 28:-0.47104462 29:-0.82294336 30:-1.1766182 31:-1.2397162 32:3.3686087 33:-1.1647418 34:2.583857 35:-1.1797668 36:4.9475124 37:0.12130564 38:-0.31123708 39:0.91519672 40:-1.2002882 41:6.5884906 42:-1.0378584 43:1.2384064 44:0.26608877 45:-0.10040052 46:-0.057827858 47:-0.86850862 48:0.28904567 49:-0.1940701 50:-0.38426029 51:-0.99407652 52:-0.36424806 53:-1.6177615 54:-0.94271054 55:-1.0706361 56:-1.2383333 57:-1.0689968 58:3.0819704 59:-0.78690044 60:3.3317232 61:-1.2756324 62:-0.49180063 63:-0.98378333 64:-1.2671732 65:-1.1818959 66:5.2115606 67:-1.1794685 68:0.79556882 
0.001 1:0.18594756 2:-1.1416878 3:-0.48725724 4:0.065544024 5:-0.51790014 6:0.37906497 7:-0.20951366 8:0.30688618 9:-1.000856 10:-0.20473935 11:-1.0061591 12:-1.4879596 13:-0.93093565 14:-1.1961016 15:1.4061302 16:-0.10405571 17:-1.2641506 18:0.29140196 19:0.40771536 20:-0.28992783 21:0.81711066 22:-0.42077441 23:0.9781669 24:-0.81298744 25:0.4748411 26:-0.28587003 27:1.2622043 28:-0.69053804 29:0.57495407 30:0.16550857 31:-0.77409649 32:-1.0125556 33:0.61209954 34:-1.0783041 35:0.14597713 36:-0.23163178 37:0.60621697 38:0.11681738 39:0.081263968 40:-0.16483367 41:-0.12100462 42:0.070684044 43:1.2628228 44:-0.46763382 45:0.70495292 46:-0.051179819 47:0.70245855 48:0.32343842 49:1.0404952 50:0.55557655 51:0.64793936 52:-0.010878651 53:0.26038047 54:0.13984471 55:0.1940469 56:-0.2193228 57:2.1135282 58:-0.75169989 59:1.1924886 60:-0.22623908 61:1.1441587 62:-0.85684006 63:0.93622463 64:0.021795231 65:-0.53414141 66:-1.1598465 67:0.87454879 68:-0.74575303 
0.001 1:-1.8668016 2:2.289223 3:0.04031067 4:-1.6043142 5:-0.58777427 6:-2.0335433 7:3.5106601 8:-1.6524789 9:-0.84239816 10:1.7114733 11:1.0914902 12:0.49757225 13:-0.0354685 14:0.93971291 15:1.9672846 16:2.5084583 17:1.5886201 18:0.052374618 19:0.94087799 20:0.59786429 21:1.9342457 22:-1.1727353 23:-0.7785232 24:0.27170928 25:-0.97569987 26:0.88086492 27:-1.0708697 28:-0.23536219 29:-0.70267218 30:-0.73868458 31:-0.32696084 32:5.0775566 33:-0.74566042 34:2.2625424 35:-0.68749469 36:0.057950048 37:-0.31544489 38:0.19830533 39:1.2589088 40:-1.1138378 41:1.4788089 42:-0.34197479 43:0.095768363 44:0.15464773 45:0.11961082 46:-0.39083681 47:-0.077224531 48:0.0056518283 49:-0.65481977 50:-1.2687601 51:-0.90240414 52:-1.1364104 53:-1.5204645 54:-1.6679461 55:-1.4674623 56:-1.0622931 57:-0.86302269 58:0.66786755 59:-0.92604006 60:1.1462025 61:-0.98588198 62:-0.29835976 63:-0.79169148 64:-0.20661827 65:0.37903092 66:2.3756927 67:-0.29205746 68:-0.18201123 
0.001 1:-0.70936955 2:0.33134434 3:0.44134226 4:-0.35494733 5:-0.2786212 6:-0.80784524 7:1.062073 8:-0.61251785 9:-0.015522994 10:0.36152798 11:-0.16787209 12:-1.1768391 13:0.64222059 14:0.35646743 15:-0.22080558 16:-0.67459617 17:-1.4685892 18:-1.9192448 19:-0.24830576 20:0.11168909 21:1.1767158 22:1.8832617 23:-0.1192472 24:-0.3547674 25:0.59128633 26:0.47668645 27:3.7467851 28:-0.48688876 29:-0.4082551 30:-0.51697563 31:-1.1677272 32:-0.60163411 33:0.55016866 34:0.53912208 35:0.11152402 36:1.1220269 37:-0.22645565 38:0.21973478 39:0.5311907 40:-0.029949142 41:0.68510373 42:0.3505187 43:0.41610655 44:-0.17873328 45:0.50166507 46:2.030751 47:0.1851436 48:0.3186926 49:0.089034054 50:0.58960004 51:0.38633137 52:2.3656843 53:1.2045484 54:1.4734323 55:2.0271733 56:2.2260586 57:0.5069545 58:0.55112141 59:1.8691379 60:1.4331743 61:3.3181787 62:-0.23917116 63:-0.48594357 64:-0.35922543 65:-1.0753361 66:-0.0078149664 67:1.1889566 68:0.16761793 
0.001 1:-0.84970255 2:0.013429191 3:0.10050816 4:-0.38792961 5:-0.19785668 6:-0.70009525 7:1.2965076 8:-0.62713566 9:-0.15406599 10:0.20287231 11:0.33419867 12:-0.89674215 13:0.34933699 14:-0.59534757 15:0.29857304 16:-0.13344422 17:-0.90463885 18:-1.9966663 19:-1.731068 20:-1.2841829 21:-0.54517817 22:1.2084624 23:-0.2902993 24:0.3419079 25:2.7284226 26:0.20595899 27:0.6295195 28:0.1630774 29:-0.063699117 30:-0.28193612 31:-0.85059651 32:-0.82038095 33:-0.46708001 34:0.70256319 35:-0.58012555 36:1.0808675 37:0.21119332 38:-0.32535459 39:0.44923114 40:-0.036347208 41:0.74993952 42:0.041182851 43:0.52371188 44:0.35168974 45:1.1276249 46:2.3865648 47:-0.11092848 48:1.0024547 49:0.6397672 50:0.84832707 51:1.012841 52:1.4360423 53:3.0477973 54:1.6687621 55:1.3703778 56:1.2936881 57:-0.28714893 58:0.44963061 59:3.2097768 60:0.85432431 61:1.4340784 62:1.4396475 63:0.39697549 64:0.51451827 65:-0.40770858 66:-0.76361846 67:-0.51278217 68:0.82052698 
0.001 1:-0.45456945 2:-0.3562793 3:-0.16524173 4:0.24343868 5:0.72641379 6:-0.62788181 7:0.30552217 8:-0.39821075 9:-0.84154324 10:0.047272318 11:0.47531777 12:-0.56192158 13:0.56966679 14:0.76591889 15:0.32966903 16:0.96464407 17:0.41102471 18:-0.16868621 19:-0.7044851 20:-1.8776255 21:-0.45709643 22:0.58397587 23:1.3467463 24:0.80218314 25:0.087544157 26:0.33714775 27:-0.053437699 28:0.85234373 29:-0.25946995 30:-0.62534825 31:-1.0234044 32:-0.62138795 33:-0.18052297 34:1.016366 35:0.15348027 36:0.8511777 37:0.040750957 38:0.24177017 39:1.0786011 40:-0.02916618 41:-0.075122989 42:0.73246519 43:0.77778828 44:-0.23326556 45:-0.55172733 46:1.1493956 47:-0.041082042 48:0.14488532 49:-0.23735141 50:0.95024221 51:0.68004387 52:1.344613 53:0.64130567 54:2.7576412 55:3.5225322 56:1.1337447 57:2.9435416 58:0.67821186 59:0.92814193 60:1.1492081 61:0.78372532 62:1.7084199 63:0.32138932 64:-0.39955589 65:-0.81222057 66:-0.40703037 67:0.18369111 68:1.1821294 
0.001 1:-0.58764319 2:-0.3786852 3:-0.34167577 4:-0.47859368 5:0.11602685 6:-0.57721637 7:0.55333613 8:-0.65407274 9:0.095532398 10:0.24055727 11:-0.97357831 12:-0.34822394 13:-0.13873553 14:0.30524159 15:-0.54246069 16:-0.35412252 17:-1.0400749 18:-0.70807142 19:-1.0006318 20:-1.1647459 21:-0.98440513 22:0.47600779 23:0.54562358 24:-0.6694173 25:2.451671 26:0.83908973 27:0.43615979 28:-0.081904327 29:0.66582574 30:-0.2503693 31:-0.75072724 32:-0.53961466 33:1.2127958 34:0.18637704 35:-0.2340883 36:0.42930578 37:0.3222612 38:-0.20408489 39:1.456414 40:-0.36002052 41:-0.21730936 42:-0.39725744 43:0.028131956 44:-0.23450257 45:-0.12452263 46:0.042668223 47:-0.069277015 48:-0.40086202 49:0.22196477 50:0.99654928 51:0.28322649 52:1.1323215 53:1.6130617 54:0.97842346 55:1.3382158 56:0.5108166 57:0.72723216 58:-0.83131742 59:2.1889367 60:1.1625308 61:0.58953655 62:0.12478495 63:0.8344363 64:-0.32134334 65:-0.83028532 66:-0.72242073 67:1.3840044 68:0.82378438 
0.001 1:-0.15472371 2:0.46253696 3:-0.94489905 4:-0.34634906 5:-0.958434 6:0.13874332 7:0.63537022 8:-0.15214772 9:0.17868987 10:-1.3315277 11:-2.5716774 12:-2.2360904 13:-1.5515275 14:0.07602812 15:-2.6563898 16:-2.1812665 17:-0.96398345 18:0.82963505 19:1.1856199 20:1.1266148 21:-0.78152384 22:-1.0756702 23:-0.35370867 24:-1.0842677 25:-0.27425855 26:-0.83281835 27:0.33796332 28:-0.7262409 29:2.429061 30:2.743207 31:0.41104251 32:-0.68343073 33:1.3350438 34:-0.73201173 35:-0.5882805 36:1.1052586 37:1.3744979 38:-0.8626875 39:-0.22505432 40:-0.26989222 41:0.39674385 42:-0.44832224 43:0.26745772 44:0.82240385 45:1.0018879 46:1.7203922 47:0.83887721 48:1.3766649 49:1.4912294 50:1.7103455 51:2.5920439 52:4.0422281 53:3.3004268 54:3.5397997 55:1.0647961 56:-0.98921888 57:-0.51795709 58:-0.95618487 59:-0.059371429 60:-0.35118343 61:1.4343046 62:-0.53385579 63:3.3427602 64:2.804831 65:1.2694334 66:-0.18491295 67:1.9908397 68:-0.61326719 
0.001 1:-0.20893894 2:-1.3796954 3:-0.06924022 4:-0.52060409 5:-0.69437802 6:0.082919738 7:-0.32591491 8:-0.10678212 9:-0.73439381 10:0.28079808 11:-0.90628588 12:-0.46419214 13:-0.25819705 14:-0.14739091 15:-0.26757261 16:-0.20907921 17:-1.1322923 18:0.059501842 19:-0.47184476 20:0.13852839 21:0.25611913 22:-0.24882217 23:-0.096739157 24:-0.77905159 25:0.74464105 26:0.04682159 27:0.8298409 28:-0.51351612 29:0.34993672 30:0.16937137 31:-0.31021296 32:-0.1715885 33:0.64272764 34:-0.88028263 35:0.020232256 36:-1.3122949 37:0.058861062 38:0.040513631 39:-0.21662844 40:-0.2296337 41:-0.63812324 42:0.018901871 43:-0.31678192 44:-0.2924384 45:0.58562828 46:0.14854378 47:-0.3697218 48:-0.096344579 49:0.31377511 50:-0.014981779 51:-0.27115098 52:-0.37533997 53:-0.2648806 54:-0.59877884 55:-0.18476957 56:-0.4497321 57:-0.26290261 58:-0.91601775 59:1.171112 60:0.23773903 61:0.30626086 62:-0.40030002 63:0.13726091 64:0.086758508 65:-0.65448906 66:-0.28329724 67:1.0928654 68:-0.58029264 
0.001 1:0.82768371 2:-1.0080652 3:0.16403458 4:0.98321246 5:1.1135634 6:0.52173585 7:-0.20187662 8:0.85787203 9:0.057376481 10:0.22128469 11:-0.51717838 12:-0.45716292 13:-0.58253335 14:-0.2715266 15:0.073372538 16:0.063653515 17:-0.67106123 18:-1.4362837 19:-0.94527208 20:-1.2036072 21:-1.4681629 22:0.7210979 23:1.8464709 24:-0.27277854 25:0.89923423 26:-0.36124561 27:-0.36825721 28:-0.6881577 29:-0.0049232958 30:-0.084319007 31:0.038448859 32:-0.53356043 33:0.092875402 34:-0.90608024 35:1.0283744 36:-0.47955442 37:-0.29545475 38:0.92729821 39:0.92160625 40:0.79146792 41:0.17559952 42:1.4742007 43:-0.37246969 44:-0.6722647 45:-0.50871965 46:0.29227927 47:0.45782995 48:-0.73686062 49:-0.60236574 50:-0.35886953 51:-0.73002585 52:0.48290603 53:0.88789076 54:1.5544549 55:0.81677126 56:0.57225789 57:3.725724 58:-0.095113432 59:0.50647013 60:-0.43909987 61:-0.60989622 62:-0.81119302 63:-0.30653542 64:-0.35977947 65:-0.098496323 66:-0.64679594 67:0.3974978 68:-0.46352218 
0.001 1:0.19738872 2:-1.4324858 3:-0.25692133 4:0.074925468 5:0.17162194 6:-0.34508484 7:-0.19165281 8:-0.22037759 9:-1.4851243 10:0.93213597 11:-0.33559242 12:0.21809416 13:0.63117441 14:-0.30947626 15:-0.4111633 16:-0.76355707 17:0.48574921 18:0.23382747 19:0.85570062 20:-0.43351257 21:-0.24668958 22:-0.12081447 23:-0.059919748 24:-0.451797 25:0.54193024 26:0.59684128 27:0.88916708 28:-0.26673954 29:0.039907485 30:0.34285407 31:0.14229202 32:-0.3431171 33:0.37693132 34:-0.69584408 35:0.77171768 36:-1.5181584 37:0.55851414 38:0.75411019 39:-0.05275659 40:0.02646837 41:-0.045042447 42:0.44364556 43:0.066570475 44:-0.1791614 45:0.92710865 46:-0.3708485 47:0.16919463 48:0.070537833 49:-0.44796339 50:0.46745206 51:-0.47900584 52:-0.059954784 53:-1.0580849 54:-0.45453992 55:-0.4004894 56:-0.29066113 57:-0.42758438 58:-0.31481135 59:0.54844099 60:0.42777425 61:0.34941234 62:-0.60710188 63:0.14099852 64:0.22250352 65:-0.36095365 66:-0.79543113 67:0.57278482 68:-0.4360985 
0.001 1:-2.1093555 2:1.3314695 3:-0.21148254 4:-1.6948153 5:-0.33148361 6:-2.1127253 7:3.4977323 8:-2.0105074 9:-0.49799385 10:1.630954 11:0.96892217 12:0.73581357 13:-0.036408363 14:1.1917128 15:0.72220739 16:1.5197205 17:1.333334 18:0.76072548 19:0.43523788 20:0.94417333 21:1.3937651 22:-0.70728092 23:-0.78873544 24:1.2517578 25:-0.86178235 26:0.16203855 27:-0.9646476 28:-0.41533729 29:-0.71167164 30:-0.55112498 31:-0.09594211 32:4.1689304 33:-0.80882747 34:2.0214896 35:-0.90927523 36:4.2741158 37:0.44624324 38:-0.030323283 39:1.6745854 40:-1.0157422 41:3.3383543 42:-1.2471417 43:0.41363649 44:0.081533637 45:0.072575095 46:0.56865855 47:0.88030526 48:0.75629989 49:0.08598085 50:-0.4408283 51:-0.58404065 52:-0.18740712 53:-1.6082265 54:-0.57299624 55:-0.98903722 56:-0.65084552 57:-0.86687798 58:2.5948538 59:-0.66554799 60:1.0927476 61:-0.86089791 62:-0.28527969 63:-0.71938056 64:-0.11491385 65:0.27066254 66:5.921497 67:-0.89150561 68:1.8938968 
0.001 1:-1.8196928 2:0.33339678 3:0.7607288 4:-2.0360601 5:-1.4212486 6:-1.9977325 7:2.5531977 8:-1.613283 9:-0.5565948 10:2.292023 11:0.41928215 12:-0.035616998 13:-0.9229321 14:0.3809439 15:-0.64377335 16:0.7168829 17:0.73699228 18:1.1328586 19:0.24025427 20:0.74621019 21:0.48288697 22:-0.62486819 23:0.10137438 24:-0.88336122 25:0.43904921 26:4.0005257 27:1.0703351 28:-0.11430189 29:-0.61978951 30:0.10859926 31:0.41635243 32:-0.75914721 33:0.15893748 34:0.6000251 35:-0.54417886 36:0.98796011 37:-0.54514373 38:-0.29979646 39:0.57937267 40:-0.37543521 41:1.8449802 42:-0.70916774 43:0.052832222 44:0.25146336 45:0.6609144 46:-0.29041944 47:0.10691063 48:-0.16313791 49:-0.082987419 50:0.42581275 51:0.17783238 52:-0.49319091 53:-0.44779433 54:-0.88929912 55:-0.5343844 56:-0.46669881 57:0.70296909 58:-0.21904946 59:1.0020752 60:1.869323 61:1.62191 62:-0.030979906 63:-0.65792318 64:1.0859811 65:0.50660838 66:-0.5522173 67:0.38050378 68:-0.31382798 
0.001 1:-1.1735803 2:0.031371519 3:0.42883701 4:-1.1800577 5:-0.51249742 6:-1.4611293 7:1.4980979 8:-1.1239394 9:-0.20770139 10:1.3480591 11:0.88201736 12:0.84777141 13:-0.80040564 14:0.28352879 15:-0.035064385 16:0.48123103 17:0.62641814 18:0.64890626 19:0.31531145 20:0.55213201 21:0.52768228 22:-0.33482126 23:0.1159908 24:-0.59971245 25:0.82450241 26:2.0745005 27:0.91162272 28:0.40200941 29:-0.68018711 30:-0.30295521 31:0.32955696 32:-0.6688466 33:-0.29185958 34:0.33347466 35:0.086839933 36:0.41396803 37:-0.46833687 38:0.49232572 39:1.1382321 40:0.45421765 41:0.64527184 42:0.23697605 43:-0.26764482 44:1.0114536 45:0.65622234 46:0.18978764 47:0.32843468 48:-0.39091953 49:0.48586227 50:-0.47119839 51:-0.36541357 52:-0.51838699 53:0.02956394 54:-1.2256217 55:-0.75753856 56:-0.04571344 57:0.61997559 58:-0.15115354 59:1.2904553 60:2.5821289 61:1.3553939 62:0.47291819 63:-0.87350519 64:-0.25136403 65:0.24205816 66:-0.83935634 67:-0.026111847 68:-0.43361724 
0.001 1:0.28885542 2:-0.6958251 3:0.37046453 4:0.15118985 5:-0.33510076 6:0.80033342 7:-0.24558484 8:0.45429964 9:0.30973352 10:-0.87305181 11:-1.3083747 12:0.13394818 13:0.27699423 14:-0.093173461 15:-0.65269488 16:-1.3818231 17:0.18361707 18:-0.72463827 19:-1.0269745 20:0.21663834 21:-1.6075656 22:-0.17285116 23:0.95976548 24:-0.74149324 25:0.076991878 26:-0.51839928 27:0.094300407 28:-0.76390618 29:0.20742961 30:0.50434539 31:0.28456128 32:-0.52992566 33:0.53675542 34:-1.0749152 35:-0.22997244 36:-0.80319884 37:-0.092656025 38:-0.088276882 39:0.54561926 40:-0.44371374 41:-0.52230577 42:0.13523572 43:-0.3192189 44:-0.42846516 45:0.41577141 46:0.15237085 47:-0.38084452 48:-0.45194302 49:0.30657475 50:0.44987213 51:0.14409129 52:0.32255495 53:0.33823571 54:1.5007283 55:0.26354475 56:-0.5565087 57:0.62502882 58:-0.56178805 59:-0.0069987663 60:-0.59712417 61:0.20607138 62:-0.75264927 63:-0.15888946 64:0.5870558 65:0.89956374 66:-0.66908093 67:0.0062923391 68:-0.80207153 
0.001 1:0.63298266 2:-1.2133873 3:-0.060088378 4:0.67593411 5:1.3678059 6:0.47187993 7:-0.11653625 8:0.80649801 9:-1.4464227 10:0.42184502 11:-0.59435892 12:-0.28761982 13:0.41385609 14:-1.0413009 15:-0.51060538 16:-0.49112922 17:-0.21117369 18:-0.45845136 19:0.53595251 20:-0.13239784 21:0.58833562 22:-0.27419692 23:-0.14420785 24:-0.55937982 25:-0.15986346 26:0.45429525 27:1.7565042 28:-0.16045001 29:0.30047252 30:0.24155725 31:0.46935445 32:-0.41086892 33:0.4665641 34:-0.5364649 35:0.2346394 36:0.22990986 37:0.13410375 38:0.13584638 39:1.1062832 40:0.54062212 41:0.10908292 42:1.1890537 43:0.76045047 44:-0.37187823 45:0.90914113 46:-0.51787001 47:0.78125561 48:-0.16104523 49:-0.31573585 50:1.0576671 51:0.4726921 52:-0.023009504 53:-0.25163144 54:-0.51994242 55:-0.63490327 56:-0.5033937 57:-0.5232103 58:-0.46204342 59:-0.21143972 60:0.99807116 61:1.5936258 62:-0.23293207 63:0.57659539 64:0.31224616 65:0.64825865 66:-0.48493438 67:0.51427233 68:-0.61296006 
0.001 1:0.7511176 2:-1.1777566 3:0.20220212 4:1.2714223 5:1.9207428 6:-0.048413737 7:-0.23413593 8:0.34481732 9:-1.8181379 10:0.82815636 11:0.042955661 12:-0.484991 13:0.53158472 14:-1.054942 15:0.30453156 16:0.20231412 17:0.94565309 18:0.7152168 19:0.92881456 20:-0.78181608 21:-0.19478039 22:0.29416569 23:0.97233593 24:-0.34222058 25:0.1872139 26:0.14768753 27:0.8970343 28:-0.41604181 29:-0.19370323 30:-0.37025049 31:-0.58717258 32:-0.10247706 33:2.3673128 34:-0.46129401 35:0.90245975 36:-0.1173476 37:-0.49743485 38:0.7980665 39:0.0032872661 40:0.49193472 41:-0.082384874 42:1.1163095 43:0.050496263 44:-0.24432581 45:-0.46534092 46:-0.030232583 47:-0.48869655 48:0.24269109 49:-0.026284762 50:-1.0352196 51:-0.40099605 52:-0.22523671 53:-0.79647216 54:-0.12056273 55:-0.17416743 56:0.15129623 57:1.6928622 58:-0.38821205 59:0.68868112 60:0.63128914 61:1.5137188 62:-0.46575458 63:-0.25646383 64:-0.36987494 65:-1.0294559 66:-0.48605436 67:1.8531185 68:-0.55579377 
0.001 1:-1.0353486 2:0.94548131 3:0.42010193 4:-0.7837845 5:-0.28885273 6:-0.8919292 7:2.1265186 8:-0.85513309 9:0.24504254 10:0.29296988 11:0.030911269 12:-0.5953543 13:-0.76903222 14:-0.56356227 15:0.92854816 16:-1.9520288 17:-0.31583497 18:-1.3219101 19:0.95805974 20:1.3218215 21:1.0422378 22:-0.5434564 23:-0.16503424 24:2.1720369 25:0.33209012 26:-0.51398589 27:1.6557526 28:0.80368216 29:-0.32458239 30:0.2204659 31:-1.002048 32:-0.77642758 33:-0.093799369 34:1.5296706 35:-0.54933401 36:0.54271508 37:-0.39941748 38:-0.050044409 39:1.2503505 40:-0.066616341 41:1.8326956 42:-0.25119456 43:-0.035375147 44:0.50549333 45:0.54277955 46:1.5727659 47:1.226379 48:0.45016923 49:0.17236437 50:1.7395492 51:2.9313703 52:1.9395758 53:2.6052446 54:4.2563694 55:3.0131469 56:0.034767631 57:0.43237184 58:3.5037854 59:0.93709858 60:0.66279825 61:3.1630923 62:0.87508523 63:-0.24942065 64:0.86560507 65:-0.81507198 66:-0.79626598 67:0.95403012 68:2.3439467 
0.001 1:-0.95144685 2:0.95501156 3:0.71585713 4:-0.61253333 5:-0.15979244 6:-0.84103811 7:2.1784417 8:-0.77420085 9:0.018719891 10:0.84448388 11:-1.0164429 12:0.16803394 13:1.151453 14:-1.1173001 15:0.99399606 16:0.03851549 17:-0.64688374 18:-1.8904708 19:-0.95929911 20:0.13732908 21:0.7295373 22:-0.77798316 23:-0.30288825 24:2.4268508 25:1.0411278 26:0.98880193 27:1.5267795 28:-0.18876871 29:-0.56646169 30:-0.64256652 31:-1.0772078 32:-0.17147949 33:-0.36088306 34:1.6003771 35:-0.6516067 36:0.17602923 37:-0.80684834 38:0.11729694 39:1.0124282 40:-0.60376826 41:0.49573361 42:-0.25715086 43:-0.18560522 44:0.18014015 45:1.2960181 46:1.1985155 47:-0.057145881 48:0.79423713 49:0.82850465 50:1.2166221 51:1.8506648 52:0.91321025 53:0.21589549 54:2.2465073 55:2.451145 56:-0.37802 57:0.12841289 58:2.8441684 59:1.4713203 60:2.2743394 61:1.8553639 62:-0.015249046 63:-0.48764899 64:-0.30214556 65:-1.0383816 66:-0.026461888 67:0.31869956 68:1.5858262 
0.001 1:-1.8311548 2:0.38597837 3:0.024298591 4:-2.1520075 5:-1.43206 6:-1.8954228 7:0.82338176 8:-1.6196947 9:-0.4396332 10:2.1060047 11:-0.060153877 12:0.95449302 13:-0.70670763 14:0.32136447 15:1.6940348 16:1.382718 17:0.61210204 18:0.69143662 19:1.4590486 20:0.89219791 21:1.027591 22:-0.81699644 23:-0.61839923 24:-0.15030154 25:-0.51001725 26:3.3447526 27:-0.60361935 28:0.31477668 29:-0.35228956 30:-0.42377508 31:-0.051121868 32:0.74320822 33:-0.45891799 34:0.53770944 35:-0.91963589 36:1.3510744 37:-0.0026333327 38:-0.725289 39:-0.20324783 40:-0.92830419 41:0.24214336 42:-1.1129829 43:0.6189677 44:0.3471407 45:0.24864731 46:-0.75001352 47:0.4108518 48:0.044457739 49:0.17670429 50:0.067866204 51:0.5762134 52:-0.81996865 53:-0.23490531 54:-0.82422724 55:-0.65989621 56:-0.51755347 57:-0.69691883 58:0.12662794 59:-0.57406275 60:2.4464124 61:-0.30489792 62:0.22370251 63:-0.20575123 64:-0.44847656 65:0.064258088 66:1.3524318 67:-0.011475919 68:-0.67215543 
0.001 1:0.82252582 2:-1.5512911 3:-1.1221696 4:0.70186994 5:0.02875706 6:0.52391032 7:0.11971139 8:1.3126168 9:-1.4338374 10:0.21736009 11:0.13782058 12:-0.93982339 13:-0.72642168 14:0.47714574 15:1.083434 16:1.5557761 17:-0.3035092 18:1.5743776 19:-0.50557868 20:0.9725033 21:1.4985986 22:-0.75636025 23:0.42968451 24:-0.41785122 25:-0.1822422 26:1.0067527 27:-0.17614232 28:-0.58454824 29:0.25158863 30:-0.55366807 31:-0.39024489 32:-0.66413645 33:0.184407 34:-0.98453047 35:0.40567439 36:-1.3217144 37:0.46733231 38:0.58158676 39:0.069549272 40:-0.031998753 41:-0.48752059 42:0.26662827 43:0.20714763 44:0.097580784 45:0.29487182 46:-0.6540785 47:-0.05055525 48:-0.12643969 49:-0.14140048 50:-0.61471484 51:-0.081295941 52:-0.97740348 53:-0.86415664 54:-1.3420194 55:-1.02522 56:-0.88548154 57:0.47397601 58:-0.69328704 59:-0.078632982 60:-0.37818461 61:-0.53441982 62:-0.91560997 63:0.38749277 64:-0.94926764 65:-0.26389759 66:-0.95310657 67:-0.16108128 68:-1.1472447 
0.001 1:0.18936532 2:0.32710471 3:-0.71364077 4:0.17598499 5:0.28714371 6:-0.14697618 7:0.94663269 8:-0.067949167 9:0.038511387 10:0.00021091339 11:0.55039822 12:-0.79485091 13:0.60344038 14:-1.4161167 15:-0.31653627 16:-0.99746297 17:-1.7451368 18:-0.22108593 19:-1.5365821 20:-1.1945226 21:-1.0276246 22:-0.12506059 23:-0.22549651 24:0.18566547 25:1.4474252 26:0.82707465 27:1.3120069 28:-0.08479302 29:-0.080777534 30:0.020898662 31:-0.57298194 32:-0.83437081 33:-0.78308021 34:0.19333132 35:0.51271919 36:1.8205459 37:1.3753236 38:0.16719541 39:0.17200528 40:0.62512119 41:0.44739341 42:0.38338151 43:0.68227044 44:0.17958896 45:1.3385255 46:0.35558768 47:-0.076868904 48:-0.10746747 49:0.52527863 50:0.24243184 51:0.62241267 52:1.4552891 53:1.0124661 54:2.1912637 55:2.107926 56:0.23218787 57:-0.36799331 58:0.78357296 59:1.43325 60:1.0770385 61:1.8379661 62:0.54324018 63:0.27304972 64:-0.046433661 65:-0.7690677 66:-0.6833681 67:-0.79479647 68:0.89246469 
0.001 1:-1.7812614 2:1.7344505 3:-0.23948488 4:-1.6691205 5:-0.73572788 6:-1.8169688 7:1.6020214 8:-1.6187269 9:-0.54529257 10:1.5380611 11:2.1004568 12:1.1660426 13:0.33404415 14:0.1568409 15:1.1817551 16:-0.12380142 17:1.217832 18:0.22269557 19:-0.18948632 20:1.5296827 21:0.65115935 22:-0.80806448 23:-0.65277205 24:1.3031261 25:-0.27046826 26:3.1462848 27:0.65022994 28:-0.083139962 29:-0.76928857 30:-0.92606112 31:-0.3291302 32:0.27964118 33:-1.0046597 34:1.4443018 35:-0.5198366 36:2.6368555 37:0.9515649 38:0.0099345706 39:0.48803648 40:-0.028014613 41:1.8478694 42:-0.12750106 43:0.55032124 44:0.43937396 45:0.30415429 46:0.2757522 47:0.06313085 48:0.32027607 49:0.45984669 50:0.60380693 51:0.82101661 52:-0.087790302 53:-0.010411005 54:-0.68634529 55:-0.37647808 56:-0.38880715 57:-0.44944729 58:1.9355736 59:-0.038227538 60:4.2063712 61:1.330901 62:0.077969577 63:-0.91059426 64:-1.0173921 65:0.24246654 66:0.51562227 67:-0.99373297 68:-0.010258536 
0.001 1:-1.0986188 2:0.79110652 3:0.33882903 4:-0.87831404 5:0.12079512 6:-1.4093512 7:1.1222077 8:-1.2151545 9:0.5390915 10:1.0950427 11:-0.4410451 12:-0.774424 13:-0.21995773 14:-0.015439287 15:1.0272542 16:-0.39414648 17:-0.38241684 18:0.95342477 19:-0.21502905 20:1.2984861 21:1.1204837 22:-0.53198001 23:0.077553713 24:0.046576955 25:-0.58154112 26:-0.56835513 27:0.65602328 28:-0.17871836 29:2.0751704 30:2.2302948 31:0.66128486 32:-0.20784487 33:-0.054435007 34:-0.047206898 35:-0.69258168 36:0.25461868 37:-0.26929371 38:-0.61620253 39:-0.37884481 40:-0.8449788 41:0.75189442 42:-0.5838534 43:-0.76354769 44:-0.66118183 45:0.062895007 46:0.097156611 47:-0.30385885 48:0.85780523 49:0.014707842 50:0.80249068 51:-0.30474761 52:-0.55987427 53:-0.85993115 54:0.31680611 55:-0.40648447 56:-0.3430908 57:0.58746783 58:0.38612391 59:-0.66858563 60:-0.67040497 61:0.83283288 62:-0.13341771 63:1.5905994 64:2.3991366 65:0.45859318 66:-0.34736705 67:0.39034803 68:-0.46209602 
0.001 1:0.85588022 2:0.45350418 3:-0.089525826 4:0.23778873 5:-0.42266694 6:0.078374905 7:1.2922399 8:0.60455051 9:-0.072845111 10:0.16538568 11:-1.3056379 12:0.030449569 13:-0.60824182 14:0.40964915 15:-0.63044348 16:-1.0842374 17:-1.9211251 18:-2.7511687 19:-0.28245176 20:-1.7230651 21:1.3942219 22:0.43818185 23:-0.63569875 24:-0.76617407 25:1.4466443 26:0.51248775 27:3.1879802 28:-0.86802691 29:0.013648664 30:-0.6548423 31:-0.91639984 32:-0.20315059 33:-0.62288714 34:0.0034820842 35:1.5361387 36:0.55119881 37:0.48594409 38:1.1239797 39:1.3843102 40:0.74217665 41:0.93855363 42:1.0934412 43:0.43600895 44:0.42546034 45:-0.10305272 46:0.066060411 47:-0.56143248 48:-0.64097846 49:-0.77381436 50:0.94454046 51:-0.24310299 52:0.54569425 53:0.52622427 54:1.6497595 55:1.0608242 56:-0.27592673 57:-0.88130047 58:-0.015126029 59:2.7535282 60:0.84943631 61:2.2789813 62:-1.0128194 63:-0.61506919 64:-0.40798431 65:-0.93241767 66:-0.55957412 67:-0.4510418 68:0.17727772 
0.001 1:-1.6816331 2:0.31535219 3:1.1099108 4:-1.9225798 5:-1.9175126 6:-1.254952 7:-0.8286146 8:-1.3066116 9:0.1609235 10:0.81572369 11:-1.199572 12:0.32706008 13:-0.23364519 14:-0.03987952 15:-0.17670399 16:0.45183644 17:-1.032909 18:-1.7320269 19:-0.38482206 20:2.1576179 21:0.063959437 22:-0.88281207 23:-0.48477454 24:-1.2285553 25:-0.76936071 26:-0.93515138 27:-0.38051531 28:5.3646552 29:-0.43498616 30:-0.59731049 31:-0.19849619 32:-0.58392613 33:-0.50310774 34:3.560387 35:-0.75912068 36:-0.34005204 37:-0.79423394 38:-0.60451673 39:-0.027237625 40:-0.75688985 41:-0.66523736 42:-0.88987386 43:-0.72013087 44:-0.46025813 45:-0.52537501 46:-0.73318112 47:-0.80680312 48:-0.95708089 49:-0.37976661 50:0.28023974 51:-0.3097181 52:0.86488604 53:-0.34596472 54:-0.56646434 55:-1.4542241 56:-0.94993607 57:-0.65981955 58:-1.4771156 59:-0.71917545 60:-1.2953054 61:-0.55196182 62:0.22312003 63:-0.46181255 64:-0.63202753 65:-0.16889455 66:-0.83329329 67:-0.28402285 68:-0.39627734 
0.001 1:-1.4899313 2:-0.91264259 3:-1.0117922 4:-1.8104694 5:-1.5225801 6:-1.8663513 7:1.7996783 8:-1.40569 9:-1.7602431 10:2.5487084 11:0.65371005 12:0.55113596 13:1.4775384 14:0.0088478362 15:1.5026369 16:1.1299461 17:1.6897538 18:0.65902475 19:1.6973078 20:0.80900325 21:1.1210094 22:-1.2079243 23:-0.89812293 24:1.2324837 25:-0.84288444 26:2.7319685 27:-0.80151956 28:0.36198008 29:-0.58750459 30:-0.99171556 31:-1.1428735 32:1.6134585 33:-0.98397802 34:1.2928657 35:0.58153625 36:-1.6488835 37:-0.60671856 38:0.91209366 39:0.48938774 40:-0.2695044 41:1.0113339 42:0.23170695 43:-0.039322047 44:0.077718694 45:0.22840693 46:-0.24863968 47:-0.62856958 48:-0.54949871 49:-1.0615063 50:-0.012830277 51:-1.2594678 52:-0.88146225 53:-1.7075073 54:-1.5465353 55:-1.4299088 56:-1.2098369 57:-1.0442497 58:0.22757685 59:-0.89776813 60:2.8863354 61:-0.62263297 62:0.085368024 63:-0.59998956 64:-0.96694601 65:-1.1478735 66:0.56730188 67:-0.94581487 68:-0.61768231 
0.001 1:-0.46233085 2:0.11871383 3:-0.17419997 4:0.011174699 5:0.77869242 6:-0.5063752 7:0.62491273 8:-0.62856431 9:-0.13127712 10:-0.24544049 11:0.90438028 12:0.41730563 13:-0.26454523 14:1.0420023 15:-0.43986954 16:1.4577583 17:-0.48768666 18:0.38804064 19:0.74799381 20:-1.4693675 21:-0.60441965 22:1.3515887 23:-0.18300864 24:0.54856766 25:-0.52290157 26:-0.82619874 27:-0.91783652 28:1.2950649 29:-0.55150746 30:-0.49763792 31:0.013463692 32:0.21495146 33:-0.05926899 34:1.0481785 35:-0.33994546 36:0.92872081 37:-0.089714694 38:-0.29889726 39:0.43328705 40:0.13725143 41:0.24536923 42:-0.11637742 43:0.16921855 44:0.52661117 45:1.689488 46:0.95426952 47:0.5983337 48:2.3699788 49:2.0751246 50:0.10754309 51:0.21444849 52:-0.13202368 53:0.45989632 54:1.7958529 55:1.1079682 56:3.2921706 57:0.36504129 58:0.93939755 59:-0.3101903 60:-0.60828987 61:-0.78165767 62:2.3297295 63:-0.58385007 64:0.08921158 65:0.55652697 66:0.39336027 67:0.61344398 68:1.6467671 
