svm_type epsilon_svr
kernel_type linear
nr_class 2
total_sv 72
rho 0.159562
SV
-0.003990166314390601 1:0.70878245 2:-1.3567074 3:1.0279985 4:0.58510864 5:-0.99190428 6:1.079106 7:0.57209326 8:1.1477312 9:-1.4674947 10:-1.402375 11:-0.67530033 12:-1.8754928 13:-0.64975608 14:-1.0832656 15:-2.1521411 16:-2.6794874 17:-0.46490805 18:-2.0029928 19:1.0000538 20:-1.2868641 21:-1.3522302 22:0.67653405 23:0.49379154 24:-0.8941647 25:-0.15006198 26:-1.7507654 27:0.53810772 28:-0.49476302 29:0.93995642 30:2.1227986 31:1.3116146 32:0.22656699 33:0.76497262 34:-0.32171761 35:0.35594958 36:-0.95232323 37:0.92028887 38:0.58183311 39:0.88174286 40:0.52543735 41:0.91224261 42:0.90969546 43:-0.491595 44:0.87781397 45:1.3098581 46:1.3465732 47:-0.33915003 48:2.2404272 49:1.4514655 50:3.1224716 51:0.83775467 52:1.9981528 53:2.225477 54:1.5177582 55:3.3798536 56:0.84998086 57:1.0973911 58:-0.71189321 59:0.29444677 60:-1.5460159 61:1.0591405 62:0.71840583 63:0.79051998 64:2.1114374 65:0.90907337 66:0.64766283 67:0.84251379 68:0.33087867 
-0.01 1:0.74264299 2:-0.46990303 3:1.5542394 4:0.79388666 5:-0.55566444 6:1.0180629 7:-0.65592066 8:1.003674 9:-0.7210629 10:-1.5271039 11:-0.0029575873 12:-1.2972447 13:0.28655046 14:-1.7398611 15:-0.08055141 16:-0.54934253 17:-2.0509942 18:-1.9071036 19:-0.48045815 20:-0.91443347 21:-0.46663692 22:-0.22398031 23:0.082275126 24:0.40748983 25:-0.51919006 26:-1.5755962 27:1.8978146 28:-0.54046001 29:-0.5243633 30:-0.26051102 31:1.013341 32:0.11139015 33:-0.45827482 34:0.82849264 35:0.37155384 36:-0.69166796 37:-0.74821025 38:-0.019048725 39:0.71876442 40:0.40260875 41:0.14794698 42:0.44714893 43:0.21899138 44:0.74860536 45:0.95085197 46:2.4771244 47:-1.0478895 48:1.3008843 49:-0.52956558 50:-0.19148464 51:0.84364804 52:0.70360624 53:0.66720668 54:1.6281579 55:1.5499203 56:-0.406412 57:0.43192846 58:-0.063658849 59:-0.33968131 60:-1.2855366 61:2.6512653 62:-0.5850751 63:-0.53423887 64:-0.40774699 65:0.95376511 66:0.74326942 67:-0.53562469 68:-0.269382 
0.01 1:2.1691949 2:-1.294922 3:-1.2995475 4:2.1978809 5:0.72338286 6:2.0443204 7:0.23975968 8:2.3707762 9:-2.0601912 10:-2.6078968 11:-0.78147364 12:0.33836139 13:-0.58695866 14:-1.5742418 15:-1.0241718 16:0.023847583 17:-0.22171437 18:-0.43430426 19:2.3372207 20:-0.66713612 21:0.78363172 22:-0.7293653 23:-0.57618816 24:-1.3013033 25:-1.3138137 26:-1.905446 27:2.0666112 28:1.1344227 29:-0.046320326 30:0.29289294 31:-0.36530576 32:-0.027460688 33:1.510835 34:-0.46133399 35:1.660922 36:-1.3085325 37:3.4554344 38:1.0892231 39:-0.13116475 40:1.6669254 41:1.3623015 42:1.9291935 43:-1.2399811 44:1.3340851 45:-1.1612386 46:0.99437837 47:-0.8623227 48:-0.013627958 49:-0.40957185 50:0.34806266 51:0.14530338 52:2.2673977 53:0.43443477 54:0.24586417 55:0.53349321 56:-0.57602624 57:-0.91780316 58:-1.52307 59:-1.3705986 60:-1.5856768 61:3.1426758 62:1.0877336 63:0.069590994 64:0.23779306 65:0.028734425 66:0.25442544 67:1.6705897 68:0.96201005 
0.01 1:0.95660715 2:-0.012122885 3:0.52827224 4:1.2450429 5:0.95876538 6:1.209391 7:-0.29656129 8:0.74242872 9:-0.6890409 10:-1.7561435 11:-1.9766771 12:0.33647896 13:-0.044655552 14:-1.8073325 15:-0.63140798 16:-0.85722822 17:0.92488961 18:-0.71607036 19:0.94439446 20:-1.1920369 21:-0.55907867 22:1.1986684 23:0.074099754 24:-0.85369367 25:-0.72677652 26:-1.6544469 27:0.30440363 28:1.4604386 29:-0.951183 30:-0.81207015 31:0.87901464 32:0.055189255 33:2.3134155 34:0.81546098 35:0.50941609 36:0.55096227 37:0.2565422 38:-0.101678 39:-0.85468695 40:1.3889844 41:0.18843765 42:1.0407839 43:-1.237356 44:-0.06021758 45:-1.1532162 46:1.3494079 47:-1.2978445 48:-0.72912049 49:-0.37587757 50:0.94007753 51:0.33135425 52:1.6246258 53:0.65319697 54:0.026874514 55:0.21556186 56:2.3222827 57:0.36416039 58:-0.50428168 59:-0.15689359 60:-1.3826719 61:-0.39378127 62:1.3902143 63:-1.0228906 64:-0.24870572 65:1.582411 66:0.79108457 67:2.6919704 68:0.70714336 
-0.002473480324281909 1:0.60261586 2:-0.96574291 3:0.57294128 4:1.1650231 5:1.6682435 6:0.41386747 7:-1.6862597 8:0.13747716 9:-1.4885591 10:-0.94204839 11:0.60144958 12:0.85480794 13:1.1512543 14:-0.59038852 15:0.11300384 16:-0.17991393 17:-0.62181236 18:-1.4067966 19:0.25809326 20:-1.081859 21:0.52002431 22:-0.31690362 23:-1.2297898 24:-0.33426956 25:2.2517545 26:-0.397463 27:0.49800522 28:2.0610675 29:-0.74712728 30:-0.94593019 31:-1.0890038 32:0.048553733 33:-1.2016911 34:0.91496518 35:-0.36189947 36:-0.91004554 37:0.029080117 38:-0.13541066 39:-1.1244767 40:-0.34905593 41:-0.92650754 42:-0.15254841 43:-1.3885144 44:-0.81047515 45:-1.4576402 46:-0.30222392 47:-2.0212543 48:-0.77695903 49:-0.73610597 50:-0.63597688 51:-0.66449281 52:0.34299233 53:-0.020341229 54:-0.14372454 55:-0.031671905 56:-0.29889585 57:-1.2617918 58:-0.69278445 59:1.3603933 60:-0.17315562 61:0.15166721 62:-0.066661417 63:-0.34073433 64:-0.4988521 65:-1.2960672 66:0.00986022 67:-1.4130907 68:-1.0237333 
0.01 1:-0.19957 2:-0.40485182 3:1.4549829 4:-0.164669 5:-0.82001998 6:0.19829229 7:-0.34257308 8:-0.038191623 9:0.022052027 10:-0.064710664 11:1.2175937 12:-0.25708899 13:0.46862602 14:-1.0289448 15:0.33883432 16:0.77478424 17:-1.3528298 18:0.7655462 19:0.52934083 20:0.746971 21:1.4493546 22:-0.51181332 23:-0.47570966 24:-0.16204802 25:-0.36743919 26:0.95723624 27:0.83699073 28:0.07966034 29:0.027778399 30:0.60655949 31:-0.23783465 32:-0.26832695 33:-0.62438603 34:-0.35035527 35:-0.41659248 36:-0.91361611 37:-1.7402139 38:-0.38999155 39:-0.29668219 40:-0.27648893 41:-0.15781963 42:-0.59850409 43:-0.53890527 44:-0.42932342 45:-0.18470463 46:-0.64482903 47:0.031971283 48:0.10572341 49:-0.89549039 50:-0.37437845 51:-0.31157457 52:-0.27131277 53:-0.58883258 54:-1.4109278 55:-1.1039017 56:-0.38665912 57:-0.4886794 58:-0.18985644 59:0.025917778 60:0.54337143 61:0.89527531 62:-1.5611003 63:0.19785251 64:0.73427013 65:0.4057442 66:-0.19715489 67:-0.98975998 68:-1.9355351 
-0.01 1:0.21987175 2:-0.48348349 3:0.60525625 4:0.48195812 5:0.28364713 6:0.95500235 7:-1.0799419 8:0.77317868 9:-0.2795765 10:-0.63915944 11:-1.0042911 12:0.38981092 13:1.5102201 14:-0.068947762 15:-0.11669233 16:-0.047903508 17:-0.13447938 18:0.7936431 19:0.36924522 20:0.77857276 21:0.27124037 22:-0.72244166 23:-0.73739656 24:-0.59974692 25:-0.94388607 26:0.28482579 27:0.51844961 28:0.42194023 29:1.4267749 30:-0.23018436 31:-0.50436084 32:0.43946148 33:-0.38356195 34:-0.716325 35:0.042020464 36:-0.48347417 37:0.39990843 38:-0.098495669 39:0.16457708 40:0.1980984 41:-0.21336722 42:0.16468658 43:-0.099875571 44:-0.92081588 45:0.33420745 46:-0.19790994 47:-0.041622904 48:-1.013229 49:0.58977816 50:-0.15182206 51:1.0447345 52:-0.71478298 53:-0.11207003 54:-0.6620587 55:-0.2700803 56:-0.99153738 57:-0.90595617 58:-0.75363032 59:-1.3264316 60:0.15635347 61:0.6341749 62:-0.16471035 63:0.9233409 64:-0.38318933 65:-0.88052008 66:0.67559694 67:-0.7286244 68:-0.85707388 
-0.01 1:-0.022201232 2:0.24812581 3:1.5331001 4:-0.046088724 5:-1.1867808 6:0.3765179 7:0.38059947 8:0.47317153 9:0.90256942 10:-0.12140229 11:0.12377233 12:0.28855073 13:1.155888 14:-0.7158954 15:0.90683233 16:0.84139231 17:-0.33975292 18:-0.19814578 19:0.53474483 20:0.84788422 21:1.6156225 22:-0.74842912 23:-1.0337678 24:-0.79112832 25:-0.094097235 26:0.97929589 27:-0.2619355 28:-1.3243861 29:0.26150259 30:-0.031653535 31:0.24739708 32:1.7873616 33:-0.88707275 34:-0.42835449 35:0.049749673 36:-0.34025468 37:-1.4844872 38:0.15064642 39:0.63588341 40:0.036207313 41:0.67093445 42:-0.20810839 43:-0.9597252 44:0.73303315 45:0.53258248 46:0.29998532 47:-0.38932688 48:-0.07034794 49:0.31598813 50:-0.23604963 51:0.35819233 52:-0.87852908 53:-0.16289621 54:-0.0068369753 55:-0.5431914 56:-0.97088078 57:-0.92506976 58:-0.434849 59:0.07201661 60:1.824048 61:-0.42569297 62:-1.0038187 63:-0.26370086 64:-0.19289252 65:0.90131333 66:0.75925863 67:-1.1616188 68:-0.88937606 
-0.01 1:-0.62595707 2:0.093034436 3:0.39480042 4:-0.49179435 5:0.084853973 6:-0.25186174 7:0.49941878 8:-0.19726594 9:-0.28333616 10:0.020909982 11:0.1389388 12:0.29739947 13:1.1767733 14:-0.64530978 15:0.10092706 16:1.3915927 17:0.046732526 18:0.61832229 19:0.72293964 20:0.28656479 21:0.54581332 22:-0.51634617 23:-0.58660242 24:-0.41575389 25:-0.88116534 26:-0.65328387 27:0.17348812 28:-0.51700042 29:-0.71718458 30:-0.43776013 31:-0.33128502 32:3.42298 33:-0.61872832 34:1.1362463 35:-0.65056341 36:-0.1164531 37:-0.23334077 38:-0.66766307 39:0.089655722 40:-0.40724584 41:-0.50017931 42:-0.42930551 43:-0.57357565 44:-1.048284 45:-0.50829113 46:-0.12477112 47:-0.20865635 48:-0.73167074 49:0.87174964 50:-1.1763889 51:-0.4425307 52:-0.95330411 53:-0.39925089 54:-0.96208984 55:-1.1775102 56:-0.65323049 57:-0.4022566 58:0.68361401 59:-0.67800186 60:-0.86070994 61:0.10942646 62:-0.98116879 63:-0.73176796 64:-0.58567857 65:-0.27767233 66:-0.45024806 67:-0.75876976 68:-0.38946531 
-0.01 1:-0.87167166 2:-0.81835098 3:0.38746835 4:-1.2536707 5:-0.79227504 6:-0.66203781 7:2.5400837 8:-0.56720622 9:-1.1214502 10:0.49682657 11:-0.6316001 12:1.550019 13:1.852541 14:-1.2623435 15:1.3276994 16:0.55578917 17:0.19015494 18:0.99315677 19:0.036814702 20:0.032169004 21:0.17861585 22:-0.26287753 23:-1.0232631 24:0.36528308 25:-1.0109427 26:-0.094188287 27:-0.30745925 28:-0.68358898 29:1.6456723 30:-0.47019951 31:0.0050580304 32:2.2292275 33:-0.75417187 34:0.89883785 35:-0.59529711 36:-0.97175812 37:-1.9253922 38:-0.56358114 39:0.37644256 40:-1.3580562 41:1.7629453 42:-1.0486541 43:-1.1542667 44:-1.1081328 45:-0.37550316 46:-1.3734279 47:-1.2176033 48:-1.1075203 49:-0.91328007 50:-0.58352659 51:-1.1428046 52:-1.3209417 53:-0.39706473 54:-0.99247341 55:-0.3980679 56:-0.0074145332 57:-1.1481762 58:0.80465248 59:-1.0713245 60:0.11890352 61:-0.46704447 62:-0.93507766 63:1.4285332 64:-0.67255202 65:0.10324284 66:2.6157035 67:-1.1179786 68:-1.0897824 
0.01 1:0.49820124 2:-0.53009274 3:-0.084617967 4:0.4787699 5:-0.98849569 6:0.74061456 7:-0.44137375 8:0.6646949 9:0.39369504 10:-0.47683354 11:0.54494771 12:-0.31951814 13:0.12155493 14:-0.47485533 15:0.023840112 16:1.4331793 17:-0.37222668 18:0.084090154 19:-0.12455204 20:0.13405247 21:0.94056182 22:-0.5391611 23:0.49406194 24:-0.62597859 25:-0.23534129 26:0.32641784 27:0.60043375 28:-0.67952604 29:-0.35437665 30:-0.50818534 31:-0.22863886 32:0.095796801 33:0.27200933 34:-1.3013144 35:0.99125284 36:-0.71102089 37:0.1032295 38:0.70379533 39:1.0644261 40:0.61237007 41:-1.1191213 42:0.50607739 43:1.0986615 44:0.17326708 45:1.2879626 46:-0.094914526 47:-0.21858522 48:2.2686899 49:0.23061497 50:-1.1658174 51:0.096153591 52:0.69927389 53:-0.14351799 54:-0.25712951 55:0.11873929 56:-0.59959019 57:1.1229158 58:0.045849912 59:-0.19752856 60:-0.038700897 61:-0.055895201 62:-0.34019574 63:-0.5744553 64:-0.48515428 65:-0.18178078 66:0.32062137 67:0.92088413 68:-0.18115043 
-0.01 1:0.93187449 2:1.1382178 3:0.39922638 4:0.83974962 5:-1.5741708 6:1.0305243 7:-0.36337077 8:1.1549631 9:1.6429434 10:-0.616329 11:0.88522077 12:-0.4958223 13:0.43339418 14:-1.1650126 15:-0.17016613 16:0.41010669 17:-0.93179442 18:0.54236116 19:0.49265823 20:1.0030829 21:0.83377329 22:-0.85361197 23:-0.69774576 24:-1.1844341 25:-0.12075305 26:0.72851391 27:1.4369951 28:-1.0607608 29:0.10840769 30:1.6640122 31:0.84631461 32:-0.1704234 33:-0.41183856 34:-1.4583725 35:1.1246507 36:0.80479032 37:0.35973055 38:1.3179451 39:0.35390012 40:0.52315275 41:0.017197988 42:0.85592827 43:-0.20941646 44:1.2798701 45:1.3644081 46:0.22731898 47:0.17275235 48:-0.12074617 49:0.32680671 50:-0.11524518 51:-0.063048922 52:-0.10663228 53:0.95078613 54:0.18361194 55:0.19697121 56:-0.90929062 57:-0.81472616 58:-0.69765254 59:0.020121183 60:1.5760323 61:0.95530855 62:-0.98679045 63:-0.36395046 64:1.7769133 65:1.5886941 66:0.47361154 67:-0.33414208 68:-0.91201027 
-0.01 1:1.1189168 2:0.83438216 3:-0.11751448 4:0.9944829 5:0.70848804 6:1.0507586 7:-1.4728924 8:0.99125127 9:0.91690013 10:-0.52100328 11:-0.34923791 12:0.97603604 13:0.90260935 14:-1.1588524 15:-0.1147317 16:1.1942712 17:-0.35772743 18:0.54946162 19:0.87223422 20:0.70093583 21:1.1557664 22:-0.30742307 23:-0.82981672 24:0.032080932 25:-0.77209059 26:0.30765621 27:-0.30436765 28:-0.25188383 29:0.010124159 30:-0.017782452 31:-0.49655614 32:0.32036482 33:-0.073736488 34:-0.48174568 35:1.3046689 36:0.99200974 37:0.72800655 38:0.87354128 39:1.0367159 40:0.99601845 41:-1.151127 42:0.94783906 43:0.48905848 44:-0.016496555 45:0.8897349 46:0.067420681 47:-0.35750023 48:0.15277244 49:-1.0248479 50:-0.45489544 51:-0.21457052 52:-0.42053771 53:-0.39734927 54:-0.62314855 55:-0.64641717 56:0.15209094 57:-1.0679648 58:-0.3136533 59:-0.84835059 60:0.27844982 61:-0.65639531 62:-0.24135445 63:-0.66093627 64:-0.1749027 65:-0.47661069 66:0.0036548774 67:0.073177632 68:-0.78129907 
0.01 1:1.4757394 2:0.1068346 3:0.10738927 4:0.88189534 5:-1.578815 6:1.3966996 7:0.23533455 8:1.544819 9:0.99748617 10:-0.7084373 11:0.79745289 12:0.30578821 13:-0.18536491 14:-0.72556978 15:-0.077625784 16:1.2793824 17:-0.99360704 18:-0.023462841 19:0.31528478 20:0.39556173 21:0.70432052 22:-0.45270969 23:0.031552725 24:-0.83854051 25:-0.2457795 26:0.10071497 27:0.33582222 28:-0.88109595 29:-0.13372174 30:0.5000003 31:0.47138622 32:-0.26338265 33:-0.55754039 34:-1.4981511 35:2.3540327 36:-0.15195255 37:0.81968744 38:2.070584 39:1.4163208 40:1.7251477 41:1.5549074 42:1.9222337 43:0.34467973 44:1.0980147 45:1.6926844 46:0.59815401 47:0.58532024 48:1.7410892 49:0.58060996 50:0.90504442 51:2.2815899 52:0.60386967 53:0.7688148 54:0.92931417 55:0.15452211 56:-0.39479492 57:-0.36399787 58:-0.58902164 59:-0.3735252 60:0.31149507 61:0.71968833 62:-0.10408488 63:-0.50766032 64:0.054522258 65:1.1825296 66:1.0024622 67:-0.79327859 68:-0.2335728 
0.01 1:-0.81477416 2:0.7939508 3:1.1859853 4:-0.2593364 5:-0.90645425 6:-0.10431317 7:1.9312189 8:0.062299031 9:0.74323645 10:0.019672727 11:1.8183207 12:0.14968326 13:0.38282037 14:-2.5819608 15:-1.4648071 16:0.91796651 17:-1.9419219 18:0.43653725 19:-1.1760194 20:-0.63253831 21:0.12595862 22:0.37645583 23:-0.53743321 24:1.6014681 25:-0.060066988 26:-0.47640536 27:-0.88056422 28:-1.0806036 29:-0.78013035 30:0.38500205 31:0.37164076 32:0.090708309 33:-0.33114792 34:1.3691495 35:-0.42019145 36:0.41934296 37:-1.3087285 38:0.14680256 39:0.93716157 40:-0.17345841 41:2.1404187 42:-0.31631355 43:1.4288866 44:-0.27908476 45:0.8375761 46:0.44855387 47:0.99299858 48:2.2741434 49:1.2843079 50:0.51667542 51:1.6517204 52:-0.4954107 53:1.4758582 54:0.51205265 55:0.56536782 56:0.6141696 57:0.066871434 58:3.7983993 59:0.34492094 60:0.75313476 61:-0.30682142 62:-1.0806336 63:-0.48959048 64:0.55082211 65:1.1739016 66:0.56301536 67:-0.35005819 68:3.6689009 
0.01 1:0.37353461 2:-0.53541662 3:0.12905485 4:0.13556381 5:-0.74583989 6:0.70294415 7:-0.2877719 8:0.39845534 9:0.22802751 10:-1.1998177 11:-0.90496859 12:-0.097893622 13:0.76018847 14:0.22371542 15:-0.38688584 16:-1.1270172 17:-0.4869886 18:0.11913956 19:-1.1479013 20:-0.17368117 21:-0.25491753 22:-0.39181883 23:-0.63482701 24:0.47503667 25:-0.53795754 26:-1.551626 27:0.32929465 28:0.052237894 29:0.62776509 30:-0.057447997 31:-0.36643298 32:0.35439813 33:0.021428442 34:-0.22712185 35:0.23319061 36:-0.69390932 37:-0.61856362 38:-0.12239018 39:0.90820461 40:-0.18688173 41:1.2010077 42:-0.025729828 43:1.9720708 44:-0.66532224 45:0.76707367 46:0.21880246 47:0.34871152 48:-0.11351981 49:1.6237399 50:2.4087556 51:0.50187505 52:0.37409322 53:1.5562492 54:1.5548415 55:1.1104308 56:-0.82420134 57:-0.73536606 58:0.8083986 59:-0.71121261 60:-1.1160083 61:1.0351982 62:0.12268932 63:-0.15481568 64:-0.11380742 65:-0.15965217 66:0.83193252 67:-0.25271036 68:0.52751077 
0.01 1:-1.1669421 2:-0.6967186 3:-1.838999 4:-1.3359596 5:0.67808267 6:-1.399657 7:0.268366 8:-1.3759661 9:-0.33686112 10:0.66340431 11:-0.65482169 12:1.3267343 13:2.6074563 14:-0.68975662 15:2.0032313 16:0.99846855 17:0.20430884 18:1.3381473 19:1.6732081 20:1.1528195 21:1.5860967 22:-0.96164162 23:-1.3341142 24:1.0000215 25:-1.2732166 26:-1.0753369 27:0.69738934 28:0.84342214 29:-1.1750737 30:-1.2857671 31:-1.3307723 32:2.8433632 33:-1.4503606 34:1.6964221 35:-0.88318286 36:-0.75526653 37:-0.79326627 38:-1.3781081 39:-1.8515906 40:-0.96044836 41:0.38278853 42:-0.67379855 43:-0.38708017 44:-2.240448 45:-2.3919698 46:-1.8359813 47:-1.6884073 48:-1.9879405 49:-1.5426702 50:-0.44470675 51:-0.11127509 52:-1.911081 53:-1.543464 54:-1.0832123 55:-1.1057314 56:-0.71645868 57:-1.0111007 58:-0.95657731 59:-1.144696 60:-0.96872008 61:0.28661446 62:-1.0123526 63:-0.94431048 64:-1.0439285 65:-1.3013751 66:-1.3987669 67:-1.5522403 68:-1.6488215 
0.01 1:-0.40278353 2:-0.21559094 3:-2.6542017 4:-1.0409558 5:-2.0068084 6:-0.76314412 7:-0.065230589 8:-0.49920767 9:0.48617255 10:1.465416 11:1.2293535 12:-2.2892812 13:0.10906391 14:0.17382901 15:-0.7711181 16:0.034725776 17:0.21561961 18:0.40819556 19:-0.89293398 20:0.25668134 21:-0.42803318 22:0.3774354 23:0.99393774 24:-0.43772524 25:0.69472057 26:-0.024937057 27:-1.2952605 28:-1.3432464 29:-0.42519149 30:0.14040694 31:2.1845802 32:0.36234301 33:0.98549867 34:-1.3030999 35:-0.31395566 36:-0.05588527 37:2.3832143 38:-0.26374237 39:0.40329231 40:-0.5890567 41:-0.29997517 42:-0.7046622 43:-0.73378516 44:0.49386486 45:1.0524294 46:0.7033659 47:-0.10025605 48:0.78679894 49:0.55296388 50:0.40821068 51:0.35685341 52:0.061456537 53:0.18710865 54:-0.53719059 55:-0.27059431 56:0.12373606 57:0.75752623 58:-1.2401684 59:0.36198411 60:0.20397703 61:-1.4164622 62:-1.8765677 63:-0.57322058 64:-0.33934685 65:1.4370336 66:0.42301261 67:0.74700323 68:-1.2323953 
0.002416713144006899 1:-0.27034773 2:-0.087320775 3:-1.5382475 4:-0.59865115 5:-1.4906916 6:-0.92020359 7:0.08633313 8:-0.54976618 9:0.2378751 10:1.0264212 11:1.0075677 12:-1.5650644 13:0.91791358 14:0.26627976 15:-0.12538979 16:-0.23289376 17:-0.41674567 18:-0.013711993 19:-0.26579947 20:-0.015844837 21:0.36865349 22:1.4640984 23:-0.54280543 24:-0.11438839 25:0.32233291 26:0.87540039 27:-0.23400093 28:-1.1923374 29:-0.56548419 30:-0.38939126 31:0.49657982 32:-0.074838752 33:0.7744097 34:-0.74271038 35:-0.24773958 36:-0.62126806 37:-0.20372837 38:-0.23886218 39:0.48536196 40:-0.83701019 41:-0.63948306 42:-0.60585042 43:-0.39902679 44:0.82256448 45:0.67925398 46:1.0356976 47:-0.72627391 48:-0.13417387 49:-0.046846835 50:-0.39524962 51:0.030311914 52:-0.41248468 53:-0.49605079 54:-0.12871758 55:-0.20354457 56:0.81807211 57:-0.58615291 58:-0.36360245 59:0.055362625 60:1.7821031 61:-0.50403467 62:-0.92921806 63:-0.55092573 64:-0.48906836 65:0.21702698 66:-0.31544995 67:0.56456003 68:-1.062131 
-0.002003030453112587 1:0.78978461 2:-0.18782521 3:1.3540416 4:1.2534998 5:0.86550013 6:1.2952577 7:0.62747701 8:1.0884269 9:-0.72062851 10:-1.4855408 11:-0.90603735 12:-0.90841234 13:0.6905848 14:-0.87456071 15:-0.76645813 16:-1.1293206 17:-1.048561 18:-1.9087479 19:-1.3726788 20:-2.799122 21:-1.9372713 22:0.7087618 23:1.0670699 24:1.0694582 25:1.4185221 26:-1.5477962 27:-0.58495829 28:-0.48194107 29:0.59859789 30:-0.015533068 31:-1.018053 32:-0.41677367 33:-0.52310775 34:1.0826949 35:0.01827587 36:-0.395185 37:-0.47038528 38:-0.014016339 39:-0.41214995 40:1.0852409 41:1.7907293 42:0.73892873 43:-0.65372684 44:1.0324868 45:-1.4074658 46:0.75382638 47:-1.1080354 48:-0.63657432 49:-0.68725263 50:0.030453867 51:-0.41822805 52:0.55540633 53:0.89578672 54:1.2969026 55:1.0569757 56:2.2149931 57:0.41916719 58:0.30563332 59:1.2213608 60:-1.4539898 61:-0.61682415 62:-1.003654 63:0.53362604 64:0.081893547 65:-1.0149989 66:-0.059887873 67:-0.029360399 68:0.29945758 
0.01 1:0.40244221 2:0.50965258 3:-0.13673906 4:-0.112135 5:-0.82026545 6:-0.34417596 7:-0.78638683 8:-0.15633763 9:1.076281 10:0.95094573 11:0.8063637 12:-0.66581112 13:0.6650293 14:0.49960981 15:-0.1397567 16:-0.61490523 17:0.038025368 18:-0.21143411 19:-0.079430436 20:0.52663749 21:0.68544128 22:-0.46019448 23:-0.40948158 24:-0.46319174 25:0.4006663 26:1.3044543 27:0.48761844 28:-0.69245302 29:-0.19594458 30:-0.36767885 31:0.91051926 32:-0.36129551 33:1.0483075 34:-1.1088797 35:0.64156938 36:-0.24339375 37:-0.61091576 38:0.42742162 39:-0.82795021 40:-0.026899868 41:-0.95348316 42:0.031451897 43:-0.75056252 44:0.15749584 45:0.70337058 46:-0.39350126 47:-0.0085951822 48:-0.73100047 49:-0.25781268 50:-0.10321745 51:0.018796032 52:0.039086545 53:-0.3424424 54:-0.25786074 55:-1.0343101 56:-0.52052965 57:-0.38720067 58:-0.33444376 59:-0.022668189 60:0.19576293 61:0.20858745 62:-1.5249794 63:-0.29095237 64:-0.41510522 65:0.15904712 66:-0.79850882 67:1.0094588 68:-1.4880485 
-0.01 1:-0.14944055 2:-0.53510457 3:-0.3187924 4:-0.78568796 5:-1.4598773 6:-0.45470273 7:-0.92467686 8:-0.27663673 9:1.06509 10:0.77215886 11:0.3883473 12:-0.93094474 13:-0.46554149 14:1.3367363 15:-0.7386095 16:-0.20659313 17:0.0023866731 18:0.4857937 19:0.03365598 20:1.2851412 21:0.4673582 22:0.57622105 23:-0.29530842 24:-0.60847801 25:-0.21460849 26:0.50814862 27:-1.2043691 28:-0.89338562 29:0.10521192 30:-0.30466575 31:2.3921984 32:0.023697466 33:0.35730361 34:-1.3166227 35:-0.20874196 36:-0.96809393 37:-0.20731549 38:-0.087141166 39:0.14065065 40:0.057602317 41:-0.50725918 42:-0.004709378 43:-1.1290584 44:0.56384193 45:0.56897783 46:-0.11556917 47:-0.39741866 48:-0.37232031 49:-0.11299129 50:0.53614898 51:0.50071249 52:0.6336972 53:-0.16320778 54:0.038046773 55:0.13221819 56:0.3437849 57:-0.59939883 58:-0.84301489 59:-0.52520921 60:0.1571126 61:-1.0898779 62:-1.2956436 63:-0.14379977 64:-0.49012817 65:0.46984191 66:-0.85629993 67:0.08603037 68:-1.2654231 
0.01 1:-0.90402063 2:-0.68675473 3:0.19766414 4:-0.48924102 5:0.13674615 6:-0.47366182 7:0.35890043 8:-0.924186 9:-1.1615584 10:-0.48667028 11:1.0965321 12:1.3727081 13:0.20223472 14:0.5245251 15:-0.38553262 16:-0.43565941 17:0.68188431 18:0.049372026 19:0.19261628 20:0.28186091 21:-0.0090169928 22:-0.54209251 23:-1.0883635 24:0.13833078 25:0.5914929 26:0.49150077 27:0.60319181 28:0.6478917 29:-0.94928499 30:-0.52954316 31:0.51886541 32:-0.42290485 33:0.43722074 34:0.32357211 35:-1.2388476 36:-0.32211477 37:-0.53216931 38:-0.8290022 39:1.2767127 40:-0.75398996 41:1.1541857 42:-1.2080724 43:1.1096472 44:0.27710305 45:0.67348865 46:-0.27627523 47:0.79335179 48:-1.5491065 49:0.37816309 50:0.17888197 51:0.95510106 52:0.050190962 53:0.10336431 54:-0.41053308 55:-0.29965141 56:-0.15647392 57:-1.0016697 58:0.20592949 59:1.3585344 60:0.097516165 61:0.58020968 62:1.1838368 63:-0.7432031 64:-0.66775656 65:0.07003365 66:-0.56662668 67:0.62873161 68:0.49602623 
-0.01 1:-0.78955502 2:-1.4977782 3:-0.73741428 4:-0.89948747 5:-0.93531786 6:-0.54488416 7:-0.83775375 8:-0.39481405 9:-1.0392448 10:0.87936874 11:0.75251356 12:0.82842146 13:-0.5055714 14:0.1837746 15:1.0816645 16:0.72998326 17:-2.1892507 18:0.84661028 19:-0.63377482 20:0.72776577 21:-0.40932947 22:0.34859417 23:0.55406828 24:-0.43545804 25:-0.16277278 26:1.101637 27:-0.28452039 28:-0.54125991 29:-0.88521747 30:-0.11366901 31:0.63800437 32:0.085603401 33:0.78549045 34:-0.90548908 35:-0.80042209 36:-1.6100672 37:-0.083746079 38:-0.2493103 39:0.52672591 40:-0.19275455 41:-1.0716351 42:-0.18804611 43:-0.091968659 44:0.58850919 45:0.11274714 46:-0.89547405 47:0.30813732 48:0.23074363 49:-0.39020485 50:-0.24749478 51:0.044620171 52:-0.28033524 53:-0.46821627 54:-0.58592583 55:-0.18432879 56:-0.069761711 57:0.49016508 58:-0.46536945 59:-0.34909784 60:0.43002241 61:-0.52804423 62:-0.68720242 63:-0.84435445 64:-0.28500008 65:-0.13794019 66:0.039668769 67:1.711148 68:-1.1915513 
0.004825997810239544 1:-0.042849516 2:-0.51545283 3:0.45236274 4:-0.18855971 5:-0.85132672 6:-0.36239281 7:0.097818312 8:-0.16185737 9:-0.16885693 10:0.64565072 11:1.2096502 12:-0.26115746 13:-0.45068811 14:0.17049735 15:0.29841545 16:-0.96156607 17:-0.23184085 18:0.09288595 19:0.028798973 20:0.36701909 21:-0.1795703 22:-0.28333362 23:-0.57264353 24:-0.77570295 25:0.5418827 26:1.6473536 27:0.040767483 28:-1.1612494 29:-0.86396382 30:0.1360982 31:1.7294186 32:-0.22703896 33:-0.26208322 34:-1.2305446 35:-0.17750353 36:-0.49910653 37:-1.246027 38:-0.34153539 39:-0.20469655 40:-0.38401975 41:-0.07388525 42:-0.25305949 43:-0.02749466 44:-0.0072048492 45:0.27912591 46:0.20014988 47:0.10933061 48:0.64287147 49:0.29835794 50:0.24307795 51:-0.59082438 52:0.036318443 53:0.12138382 54:-0.069101641 55:-0.44072353 56:-0.29064727 57:-0.6101362 58:-0.45770977 59:0.51208473 60:1.2479683 61:0.38557572 62:-1.053427 63:-0.87909191 64:0.42195214 65:1.3454738 66:0.19481588 67:0.11239229 68:-1.7455734 
0.0008738420146496213 1:-0.71990676 2:-0.35204608 3:-0.4330147 4:-0.52318292 5:0.4448745 6:-0.35269242 7:-0.68692125 8:-0.67131798 9:-0.68460403 10:-0.15017481 11:1.2980167 12:0.67302159 13:-0.59535054 14:1.3291772 15:-1.1899131 16:-0.13456304 17:1.458622 18:-0.14178185 19:0.13802227 20:0.56684755 21:0.594464 22:-0.92509664 23:-0.91271727 24:1.777379 25:-0.69966882 26:0.31796939 27:-0.71525132 28:0.48494787 29:-0.74359864 30:0.57798781 31:0.21144953 32:-1.1629587 33:-0.23945245 34:0.98893013 35:-0.84788707 36:0.45847143 37:-0.47934793 38:-1.3762231 39:-0.15743805 40:-0.086657542 41:-0.67999402 42:-0.37355768 43:2.8081238 44:-0.31336653 45:0.77359801 46:1.0051736 47:2.7686161 48:-0.24091922 49:2.2967219 50:0.11433426 51:-1.0406562 52:0.4594773 53:-0.78986462 54:-0.71145849 55:-0.51237793 56:-0.70085427 57:-0.88552942 58:2.3583154 59:-0.64970194 60:-0.49693947 61:-0.55872352 62:0.89480001 63:-0.28509994 64:1.3483207 65:0.66957387 66:-1.1678991 67:-0.0663157 68:2.3039626 
-0.003573198251761196 1:-1.1948173 2:-0.30065071 3:-1.5310577 4:-0.37559385 5:0.95095573 6:-0.59882481 7:0.17544248 8:-0.78006868 9:-0.12620523 10:0.56130971 11:0.24351605 12:1.1637809 13:0.79883225 14:0.76162825 15:1.4628985 16:-1.0124618 17:1.1764886 18:0.26987454 19:-0.21483534 20:1.2916917 21:-0.18127874 22:-0.53360745 23:-0.62175737 24:0.61543929 25:-0.8992802 26:0.83241076 27:0.87151275 28:0.97601621 29:-0.5615234 30:-0.92857332 31:0.18936965 32:-0.37272768 33:-0.67699835 34:0.38788573 35:-1.7717908 36:0.016116933 37:0.85235793 38:-0.82090868 39:0.68248297 40:-0.9561731 41:-0.018079037 42:-1.3390329 43:-0.098768158 44:-0.63615934 45:-1.4274478 46:-0.18863478 47:0.079077087 48:-0.72593428 49:-1.6242458 50:-0.80101918 51:0.13328849 52:-0.43805595 53:-0.26300438 54:-0.95301063 55:-0.98161638 56:-0.71840429 57:-0.81324284 58:0.00316347 59:-1.1021027 60:-0.12097102 61:1.2117798 62:0.82340469 63:-0.16500186 64:-0.87782665 65:0.22646728 66:0.34686451 67:-0.78484227 68:-0.58421265 
-0.01 1:2.0008144 2:-0.53794704 3:1.0722434 4:1.7212359 5:0.24309376 6:1.8958043 7:-1.1601249 8:1.6025463 9:-0.10824114 10:-1.9757109 11:-1.375502 12:0.76424287 13:0.63467189 14:-0.77482824 15:-0.17180043 16:-0.80243647 17:-0.025555755 18:-2.8686851 19:-1.1086403 20:-2.037942 21:-0.63585542 22:0.44111435 23:0.040904025 24:-0.87494987 25:3.5088486 26:-0.96280487 27:-0.44167211 28:0.051955373 29:-0.95133303 30:-0.92684424 31:-1.2601099 32:-0.51676609 33:-0.41985051 34:-0.5413489 35:0.99496679 36:-0.42447538 37:0.93610115 38:0.35699827 39:-0.64260381 40:0.84900875 41:0.18470312 42:0.70696132 43:-0.54603243 44:0.31484941 45:0.2711647 46:1.9125936 47:-1.1139981 48:0.4061029 49:0.13932257 50:0.74967889 51:0.35669903 52:2.1634729 53:1.5336963 54:1.7593506 55:0.34554005 56:0.88651927 57:-0.16098608 58:-1.055813 59:3.5129163 60:-0.56136111 61:-0.68722022 62:0.60475249 63:-1.0232153 64:-0.84831856 65:-1.3542222 66:-0.44517047 67:-0.53517278 68:0.78560395 
0.001326325591988176 1:-0.41442687 2:-0.62981928 3:-2.4631178 4:-0.4917807 5:0.96778986 6:-1.1482398 7:-0.73497243 8:-1.0313932 9:-0.23102035 10:0.64742031 11:0.92656187 12:1.3081379 13:1.616961 14:0.81189475 15:0.95484719 16:0.61303241 17:2.1419717 18:0.68241767 19:1.1906566 20:1.6954029 21:1.2549865 22:-1.3049484 23:-1.3260751 24:1.2253387 25:-0.86271901 26:1.421986 27:-1.6289056 28:0.87709071 29:-1.3336871 30:-1.3530499 31:-0.73743644 32:0.50770538 33:-1.1007642 34:0.9752579 35:0.71827612 36:-0.26543667 37:0.54926339 38:0.13358846 39:-1.8357087 40:0.034156308 41:-1.0869803 42:0.22573787 43:-0.4677678 44:-1.0175113 45:-1.2982499 46:-1.0700176 47:-1.107076 48:-1.1586462 49:-2.5320593 50:-1.5255135 51:-1.1409887 52:-1.1522921 53:-0.68098429 54:-0.58185286 55:-0.98137893 56:-1.1102362 57:-0.73567779 58:0.97408303 59:-0.74204305 60:1.4981746 61:-1.7590757 62:0.49215505 63:-1.1861422 64:-1.1005986 65:-0.85339652 66:-0.8877701 67:-0.82961223 68:-0.11673458 
0.01 1:-0.16137067 2:-0.71583507 3:-0.8010412 4:0.23752595 5:0.97549949 6:-0.39044597 7:-0.58136033 8:-0.36690998 9:-0.28304627 10:0.096074399 11:0.20243084 12:1.3310388 13:1.2427838 14:1.5714578 15:0.69882116 16:-1.2972252 17:1.6035143 18:-0.33594362 19:0.0001162123 20:1.0009284 21:1.1323946 22:-1.1042008 23:-1.6000438 24:2.0490507 25:-0.49781091 26:0.41566489 27:-0.4720498 28:0.15321106 29:-0.79128216 30:-1.0750794 31:-0.42193519 32:-0.69228129 33:-1.1675032 34:1.0707797 35:0.67985008 36:-0.11039375 37:0.484896 38:0.39837606 39:-0.95189126 40:0.43097785 41:0.31725851 42:0.51529723 43:1.4639575 44:-0.82830386 45:-1.9128258 46:-0.66736939 47:-0.64855631 48:-0.80347546 49:-0.74997394 50:-0.68221515 51:-2.0963489 52:0.31656046 53:-0.95262958 54:-0.41906496 55:-0.66569405 56:-0.88219148 57:-1.4078819 58:1.7693113 59:-0.31107914 60:-0.28937648 61:-0.64007889 62:0.18134709 63:-0.5304556 64:-0.82362157 65:0.083794381 66:-0.013049778 67:-1.1182626 68:1.5200578 
0.009893105602124488 1:0.21102721 2:4.2959027 3:0.83222729 4:0.29432633 5:0.05933808 6:0.19756527 7:1.4349473 8:0.5384489 9:3.3591473 10:0.53620219 11:0.74195349 12:0.10555576 13:-2.2922686 14:0.64873455 15:0.30186989 16:-1.509808 17:0.60406351 18:0.017755742 19:-1.4621708 20:-8.824022e-05 21:-1.7904134 22:3.3216132 23:-0.65324982 24:-0.70328412 25:-0.61193929 26:-1.1748397 27:-0.63437134 28:-1.583758 29:-0.81994256 30:0.63041342 31:3.2901065 32:0.1176355 33:1.0195434 34:-1.0636785 35:1.181883 36:1.8380983 37:-0.35612911 38:2.0778715 39:-0.34436354 40:2.1525443 41:1.8065746 42:2.1483595 43:-0.78667441 44:0.95702896 45:1.2844798 46:-0.75349329 47:1.4421089 48:0.48491786 49:0.95435242 50:-0.33997561 51:0.15066092 52:-0.033510053 53:0.29971862 54:0.013041997 55:-0.33728567 56:2.7373125 57:-0.57733057 58:-0.30748001 59:-0.76255332 60:-0.75251262 61:-0.49006022 62:-0.357044 63:-0.87669908 64:0.45749908 65:2.8005037 66:0.10600553 67:0.66667941 68:0.1349461 
0.001424771502663669 1:-0.28649927 2:0.55980331 3:1.0279323 4:-0.52915985 5:0.11683162 6:-0.39581664 7:1.0363129 8:-0.14536861 9:1.4494652 10:1.101628 11:-0.32066554 12:0.4051359 13:-0.46352893 14:-0.1918142 15:0.62164565 16:-0.033351964 17:-0.60071008 18:-0.13512366 19:0.12294513 20:-0.072959706 21:-0.95894734 22:0.91962139 23:0.027414273 24:1.1234114 25:1.9407661 26:1.4752335 27:-1.3689262 28:-1.3718762 29:-0.39068859 30:-0.3237382 31:-0.6962871 32:-1.0658574 33:0.44835346 34:0.17909817 35:0.012882564 36:-0.39676774 37:-1.1827504 38:-0.0091075031 39:-1.0055911 40:0.29421 41:1.7099938 42:-0.019664991 43:-1.2015843 44:0.68828228 45:0.82950552 46:-0.97924289 47:1.3205896 48:-1.0472109 49:1.1188169 50:0.29804287 51:0.99216175 52:-0.25365336 53:0.028266185 54:0.10922981 55:-0.37939065 56:0.20579997 57:-0.21905486 58:0.86244634 59:1.5047864 60:1.2459227 61:-1.5311927 62:-0.96202075 63:-0.46208362 64:-0.47393889 65:-0.97995865 66:-1.4119649 67:0.0098013551 68:0.44015569 
-0.007630471093591012 1:-0.76655312 2:0.49277315 3:-1.5052454 4:-0.32089949 5:1.0510498 6:-0.38813779 7:-0.35615202 8:-0.56440364 9:1.0865151 10:0.45685358 11:0.54813851 12:0.59794877 13:-1.7529394 14:0.36624185 15:0.47698691 16:-0.48115067 17:-0.013553913 18:0.12696675 19:-0.95489791 20:0.7777221 21:-0.35948255 22:-0.45534245 23:-0.92236853 24:0.069107352 25:0.71971318 26:1.3021527 27:0.31959236 28:0.96546968 29:0.037927741 30:-1.1561059 31:-0.25342693 32:-0.50662218 33:1.6035363 34:1.0364066 35:-0.662799 36:0.039143117 37:1.1594955 38:-0.4160243 39:-1.4268563 40:0.63429084 41:-0.53840528 42:0.11065004 43:0.67262348 44:0.3903809 45:0.34428369 46:-1.5300633 47:-0.29195579 48:-0.86927104 49:-0.18848514 50:0.43128272 51:0.11683614 52:-0.45978792 53:0.20247872 54:-0.047853863 55:-0.40055277 56:-0.28763196 57:-1.0641767 58:-0.11250689 59:0.44723749 60:1.7105992 61:0.21779949 62:1.5073299 63:-0.063234676 64:-1.0657341 65:-0.64232322 66:-0.64663824 67:1.4599387 68:0.94172495 
-0.0001608495974947136 1:1.4021498 2:1.2895191 3:1.0565609 4:1.229043 5:0.55517449 6:1.0622005 7:-0.14103776 8:1.1666531 9:1.3925155 10:-0.35697928 11:1.2156215 12:0.56405121 13:-0.39157194 14:0.30979852 15:0.26477454 16:-0.31834333 17:0.96862049 18:-0.33245451 19:0.67317701 20:-0.64103048 21:-0.14360379 22:-0.058649622 23:-0.25823623 24:-0.19930131 25:0.82601349 26:1.1421744 27:-0.27591635 28:-0.57548217 29:-0.60635557 30:-1.0042001 31:-0.75443226 32:-1.087215 33:-0.2223675 34:-0.73477945 35:2.1344871 36:1.1330866 37:-0.77364176 38:2.2017169 39:-1.2481412 40:2.4396977 41:1.018971 42:2.4869627 43:-0.43871125 44:1.996838 45:0.57122242 46:-0.94129888 47:-0.11977943 48:0.82359588 49:1.822901 50:0.024259563 51:0.089664993 52:-0.6535679 53:-0.23409574 54:-0.63074917 55:-0.062895553 56:-0.11088018 57:-0.2107227 58:0.68868758 59:0.95643903 60:2.426131 61:-0.40732008 62:-0.28717527 63:-0.85470811 64:-1.0907389 65:-0.88007105 66:-0.71260763 67:-0.59215574 68:0.76608435 
-0.01 1:1.1989383 2:-0.95190205 3:-1.6503098 4:1.2130234 5:0.77087095 6:1.1107399 7:-0.74072101 8:1.1339906 9:0.17847627 10:-0.71527257 11:1.0029233 12:0.40802213 13:-1.4133223 14:0.47935594 15:0.7955304 16:-0.50406292 17:0.92387704 18:0.24235931 19:-0.17547685 20:-0.097855024 21:-0.4235433 22:0.53875128 23:-0.44131279 24:-0.21330772 25:0.19059318 26:-0.56103306 27:0.26266984 28:0.35231088 29:-0.23131136 30:-0.12882765 31:-0.73724514 32:-0.86122628 33:0.41093222 34:-0.66361956 35:0.8219371 36:-1.1128395 37:0.68052049 38:1.1875583 39:-0.58529641 40:0.99891999 41:-1.0928627 42:1.1272131 43:-0.42145139 44:1.3594556 45:0.14341288 46:-0.53238859 47:0.8021005 48:0.15806768 49:-0.42645526 50:-0.61330521 51:-0.10245096 52:-0.35145458 53:-0.28067032 54:-0.23780891 55:-0.24690629 56:0.37620559 57:-0.69114139 58:-0.13185423 59:-0.49283657 60:-0.90614015 61:-0.20011071 62:0.56233249 63:-0.60123262 64:-0.15829404 65:-0.64226203 66:-1.1389701 67:-0.096640687 68:0.22164037 
0.00810073507780569 1:2.4259511 2:-0.40970689 3:0.94162261 4:2.2108148 5:-0.57097697 6:2.3665233 7:0.92419168 8:2.6175098 9:-1.0149117 10:-2.1159036 11:-0.85713586 12:-3.4913803 13:-0.69438861 14:-3.2228725 15:-1.9939738 16:-2.2837714 17:-1.4741757 18:-1.3766942 19:-0.13845044 20:-0.51448844 21:-0.59564826 22:0.3724654 23:1.0576587 24:-0.93871099 25:1.1173309 26:-1.2954942 27:0.39231712 28:-1.637313 29:2.4369612 30:1.635693 31:-0.53819425 32:-0.46219507 33:0.37173159 34:-1.3994659 35:1.3377261 36:-0.23931506 37:1.0502466 38:1.2341447 39:-0.45311332 40:1.8672447 41:1.3098456 42:1.7599062 43:1.1210161 44:1.6714102 45:1.2587437 46:3.1873552 47:-0.10735287 48:2.2180647 49:2.5834462 50:3.8376849 51:2.2297474 52:2.4885619 53:2.3890616 54:3.2614088 55:0.88944767 56:1.0343815 57:0.82766336 58:-0.5167642 59:1.572892 60:-0.71785305 61:1.3531412 62:-0.8219287 63:2.2081026 64:1.4640475 65:-0.26638813 66:0.29587813 67:0.50739443 68:0.46016461 
-0.003829056431285109 1:0.49151662 2:-0.82158901 3:-1.4684451 4:0.37098769 5:0.72011219 6:0.075957898 7:0.1106263 8:0.5104944 9:-0.33904521 10:0.63682068 11:2.0539621 12:0.89345956 13:-1.3940639 14:1.145167 15:-0.68964248 16:1.2292328 17:0.75076613 18:0.20072712 19:0.11492258 20:-0.55240245 21:-0.08220224 22:0.95075608 23:0.92612648 24:0.22918953 25:-0.52501422 26:-0.23836938 27:-0.19614444 28:-0.12144416 29:-1.0334958 30:-0.25114372 31:-0.79501566 32:-0.21409136 33:-0.89409796 34:-0.29992776 35:0.47820922 36:-1.1412708 37:1.0913406 38:0.96613536 39:-0.60647935 40:0.95580251 41:-0.62105115 42:0.99914385 43:-0.70456532 44:0.54045226 45:-0.35115612 46:-0.97965336 47:0.85946325 48:-0.56413484 49:0.36140045 50:0.10175326 51:-0.92679982 52:-0.69745111 53:-0.69217689 54:-0.1543602 55:-0.45588154 56:0.25872116 57:0.68740931 58:0.04365496 59:-0.56411208 60:-0.58980791 61:-0.5740193 62:-0.40668173 63:-0.91126715 64:-0.30752831 65:-0.4823389 66:-0.23246472 67:-1.2195889 68:-0.088089893 
-0.01 1:-0.10984828 2:-0.005364188 3:-0.33360627 4:-0.17708377 5:0.62244818 6:0.011722568 7:-0.83137705 8:-0.042167852 9:0.51099304 10:0.12621236 11:0.86354796 12:0.4109901 13:-0.78596614 14:0.48775517 15:-1.2188944 16:0.89606512 17:-0.6032663 18:-0.088260962 19:0.70728696 20:-0.21186677 21:0.67050215 22:0.08176081 23:-0.36541811 24:-0.0053242167 25:0.029625132 26:0.58662668 27:0.86819117 28:0.55265757 29:0.10973293 30:-0.80321949 31:-0.37941093 32:-0.61691939 33:0.26083788 34:0.1647429 35:-0.35651911 36:-0.2681668 37:-0.82603921 38:-0.26309659 39:-1.6604138 40:-0.11426675 41:-1.1874775 42:-0.39774588 43:-0.49593168 44:0.093534404 45:-0.0033916869 46:-1.00551 47:-0.1782409 48:-0.30437247 49:0.75450043 50:0.62337161 51:-0.39845885 52:-1.0223501 53:-0.43436642 54:-0.34583398 55:-0.44144957 56:-0.35429095 57:-0.30936948 58:0.32089395 59:0.66261586 60:0.70730257 61:0.088219292 62:-0.050682186 63:0.46710698 64:-0.8845813 65:-0.099640116 66:-0.69965894 67:0.41030236 68:-0.77832103 
-0.01 1:0.049471258 2:-0.16117572 3:-0.84131878 4:-0.072793018 5:0.053388177 6:0.32912644 7:-0.85390341 8:0.22194098 9:0.6486765 10:-0.23345704 11:0.24539824 12:-0.74157291 13:-1.1733262 14:1.9056617 15:-2.3775783 16:0.34483225 17:-0.2695043 18:0.35433642 19:-0.94158319 20:0.67175474 21:-0.81677316 22:0.28247791 23:0.26497992 24:0.48181394 25:-0.81601852 26:-0.46483163 27:-0.22217069 28:-0.60408905 29:0.85127352 30:2.2192885 31:0.79638039 32:-0.60808478 33:-0.51549016 34:-0.68453849 35:0.28442565 36:-0.5135218 37:1.4329609 38:-0.11030667 39:-0.27933348 40:0.54558469 41:-1.1689401 42:0.4231096 43:1.0333764 44:-0.086637113 45:0.057066164 46:-0.89362993 47:1.9162107 48:-0.95537723 49:2.156154 50:0.16547965 51:0.67902732 52:0.15262837 53:-1.291391 54:-0.22402425 55:0.53090271 56:0.33177999 57:-0.025828019 58:0.23451062 59:-1.1758504 60:0.053799916 61:-0.79050502 62:-0.27273683 63:0.42064717 64:2.1499421 65:0.63606388 66:-0.91120454 67:-0.58587295 68:0.10979065 
0.01 1:-1.2028308 2:-0.15899182 3:-0.67694457 4:-0.63409383 5:1.6142745 6:-1.0713155 7:-0.2126966 8:-1.0207228 9:-0.006020401 10:0.82819028 11:0.51169259 12:0.59129735 13:0.059969553 14:-0.35727929 15:-0.60678125 16:-0.26029102 17:0.81067102 18:1.1392899 19:-0.44536251 20:-0.12621954 21:-0.5560211 22:0.56862411 23:-0.9770752 24:-0.22668424 25:-1.0715403 26:0.1639632 27:4.0013941 28:1.5719149 29:-1.3854673 30:-0.87543823 31:-0.53406841 32:-0.67960063 33:0.18976498 34:0.71480462 35:-0.81721985 36:-0.35946992 37:0.94456054 38:-1.1875927 39:-1.8658046 40:-0.59436218 41:-0.63537467 42:-0.68387346 43:-0.49060144 44:-0.74625439 45:-1.1862292 46:-0.73823906 47:0.13123822 48:-0.1065152 49:-0.51639945 50:-1.4864947 51:-0.36598598 52:-1.6873424 53:-0.55324842 54:0.58568467 55:0.41501656 56:0.89217078 57:-1.0378214 58:0.50105343 59:-0.97573418 60:0.3265719 61:2.3906745 62:1.5124546 63:-1.1670197 64:-0.85529746 65:-0.55142645 66:-0.76788255 67:0.55188276 68:0.22735679 
-0.009070362003733942 1:-0.51101495 2:0.46600763 3:-0.90941255 4:-0.25406704 5:1.7511913 6:-0.70616714 7:-0.41152959 8:-0.44794452 9:0.66546102 10:0.71355303 11:-0.086537368 12:1.2883056 13:0.83716198 14:0.97345273 15:-0.14955391 16:0.3991736 17:-0.30606974 18:0.6464959 19:0.11378496 20:-0.3473879 21:-0.68460917 22:-0.52569228 23:-0.8871112 24:1.0660742 25:-0.05798498 26:0.15257003 27:0.72925131 28:0.56274768 29:-0.74476581 30:-0.90162463 31:-0.70911645 32:0.10905119 33:-1.0405608 34:0.65990895 35:-0.15093523 36:1.0995884 37:0.6436622 38:-0.058581972 39:-1.0046283 40:-0.15323121 41:-0.39069293 42:0.0030899755 43:1.1067855 44:-0.55533257 45:-1.1461083 46:-1.593623 47:-0.20944867 48:-0.77834892 49:-0.35592054 50:-1.1671199 51:-1.0979313 52:-1.3514353 53:-1.0823595 54:-0.49415967 55:-0.56183889 56:-0.72439325 57:-0.87119451 58:0.83287745 59:0.40749717 60:-0.27660054 61:1.1209597 62:0.28240795 63:-0.88274418 64:-0.76364168 65:-0.81397354 66:0.35769043 67:-1.1805654 68:0.32829215 
0.006705437751788415 1:1.607499 2:-1.121365 3:-0.57163336 4:2.0154468 5:0.75779191 6:2.5617662 7:-1.9728433 8:2.1035864 9:-0.17359547 10:-2.7610845 11:-0.24277095 12:0.75113283 13:1.9830598 14:0.054771286 15:-0.41220248 16:0.87094586 17:-1.840724 18:1.866215 19:-1.2235958 20:-0.25234626 21:-0.053876754 22:-1.0762557 23:-0.87362718 24:-0.54635801 25:0.27693784 26:-0.074212499 27:-0.66779785 28:1.5720988 29:0.89036894 30:-0.59170654 31:-0.63572405 32:-0.73472125 33:-0.80789303 34:-0.36131611 35:-0.64354197 36:-0.88617268 37:-0.15476188 38:-1.1076284 39:-2.2340423 40:-0.18735539 41:-0.64279022 42:-0.30260083 43:-1.9923342 44:-0.76386178 45:-1.7966877 46:-1.0849418 47:-1.0239358 48:-1.2405623 49:-1.2934683 50:-1.8469922 51:0.073250467 52:-1.0127426 53:-1.5322164 54:-2.1443539 55:-0.99699883 56:-1.417351 57:-1.0930726 58:-0.71624722 59:-0.097586331 60:-0.15579458 61:-0.77652165 62:-0.75709245 63:-0.13371154 64:-0.81420197 65:-0.77791627 66:-0.63187254 67:-0.9371443 68:-0.74613961 
-0.005879143343458334 1:-1.1855256 2:0.87671631 3:0.61134995 4:-0.39538574 5:1.2943712 6:-0.73329964 7:0.65356668 8:-0.71811302 9:-0.046847483 10:0.19178906 11:0.18572526 12:0.6458135 13:-0.082536789 14:0.21993422 15:-0.0029722157 16:0.1322205 17:0.66817674 18:-0.2367447 19:1.5688389 20:0.098475019 21:0.95435989 22:-0.96884576 23:-0.54009143 24:3.4481501 25:-0.87396489 26:0.0053387229 27:-1.6942277 28:-0.60098854 29:-0.46765442 30:0.046898719 31:0.44811313 32:-0.97878615 33:-0.30188098 34:3.1058518 35:-1.0886347 36:1.1016078 37:-0.7402799 38:-0.50962946 39:-0.87882436 40:-1.1625993 41:0.95920504 42:-0.9224795 43:0.0022346727 44:-1.2594415 45:-0.68602052 46:-0.2977113 47:-0.29516325 48:-0.091110579 49:-0.088474633 50:-1.0372249 51:-0.64159831 52:-0.86207564 53:-0.47330679 54:0.29407387 55:-0.51670415 56:-0.86057415 57:-0.68493514 58:2.7173702 59:-0.63619264 60:0.20287554 61:-1.4787797 62:-1.4186009 63:0.14871529 64:0.1760615 65:1.2954575 66:-0.35745934 67:-0.5869938 68:1.7659938 
0.01 1:-0.32077543 2:-0.9366565 3:-0.40097653 4:-0.15063069 5:-0.025120149 6:0.16709817 7:-0.30856007 8:-0.018954729 9:-0.35190574 10:0.14699287 11:-0.48682556 12:0.41512751 13:-0.51015647 14:1.1186898 15:0.6144921 16:-1.4544472 17:1.7448368 18:0.74530069 19:1.3218892 20:0.17941701 21:0.85608642 22:-0.22082778 23:0.5804912 24:0.69384275 25:-0.51466523 26:0.80651254 27:-0.57939487 28:-1.0801079 29:0.056660867 30:1.0555464 31:0.72308651 32:-1.3644077 33:0.33024289 34:-0.59559432 35:-0.31933312 36:-1.127981 37:0.19802042 38:0.057704222 39:-0.55633894 40:0.29192878 41:-0.82194804 42:0.14770012 43:-0.66809787 44:-0.26330321 45:-0.60629423 46:-0.89869324 47:-0.2130691 48:0.26386263 49:-0.45795221 50:-0.075988123 51:-1.2820701 52:-0.97508873 53:-0.35464896 54:-0.72378575 55:-1.0847507 56:-0.51039371 57:0.27296363 58:0.99188849 59:-0.56825444 60:-0.16980462 61:-0.25747874 62:-0.83037712 63:-0.044374502 64:0.58714163 65:0.52794427 66:-1.7535347 67:0.37204837 68:-0.14101259 
0.0006011507454513239 1:0.21428062 2:-0.17877925 3:1.0457245 4:1.0713087 5:1.9316847 6:-0.27218013 7:-1.464722 8:-0.32259265 9:-0.44062985 10:0.34924852 11:0.3029743 12:-0.043145876 13:-0.2565627 14:0.3357343 15:0.61107204 16:1.1637146 17:1.1556448 18:0.59156095 19:0.22358511 20:0.19707865 21:0.78516188 22:-0.3917297 23:2.0429744 24:0.44305848 25:-0.22865146 26:1.9777831 27:-0.90443766 28:0.0063892553 29:-0.52747274 30:-0.19669838 31:-0.22550869 32:-0.99837499 33:-0.53291795 34:0.007088516 35:0.84067386 36:-0.44110284 37:-1.3454626 38:0.98598359 39:0.95719957 40:-0.003604942 41:-0.85691252 42:0.73324336 43:-0.92643981 44:-1.097739 45:-0.67343885 46:-0.32206351 47:0.91414637 48:-1.5806415 49:-1.248591 50:0.17026084 51:-0.23521233 52:-1.2322287 53:-0.69787099 54:0.27074058 55:-0.48791908 56:-0.67973743 57:1.2170179 58:0.90304522 59:0.12252868 60:1.4473899 61:-0.79488419 62:-0.34918776 63:-0.33980606 64:-0.37694058 65:-0.43863711 66:-1.381572 67:-0.64866129 68:0.13607446 
-0.001994574365396839 1:-0.28154368 2:-1.1986311 3:-0.28686723 4:-0.097679179 5:0.36272813 6:-0.080185515 7:-1.3081358 8:-0.52503303 9:-0.95706424 10:0.06972843 11:-0.14092445 12:0.72340064 13:0.17353192 14:0.14476081 15:0.76497753 16:-0.74572087 17:1.1704723 18:0.62079692 19:1.3901174 20:0.14932375 21:1.5786125 22:-0.19196132 23:-0.21202013 24:0.074117216 25:-0.52637367 26:1.2593659 27:-1.1609105 28:-0.01021738 29:0.62791793 30:0.5321795 31:-0.072874951 32:-1.0112648 33:0.18855473 34:-0.82980496 35:-1.0190435 36:-1.3834894 37:-1.1731696 38:-0.9557692 39:-0.61461149 40:-0.76739408 41:-1.3376103 42:-1.1489816 43:-0.80439903 44:-0.64408742 45:-0.1210092 46:-0.46174562 47:0.097846156 48:-0.063496203 49:0.17557556 50:-0.42714671 51:-1.5432267 52:-0.53867816 53:-0.38296095 54:-1.0599974 55:-1.1923815 56:-0.17415546 57:-0.087613908 58:0.079788805 59:-0.76795884 60:0.090258869 61:-1.1468154 62:-0.72096238 63:0.59346188 64:0.26814254 65:-0.40445057 66:-1.0020373 67:0.051515544 68:-0.60065671 
0.00492744320156044 1:0.97901531 2:-1.0952324 3:1.256736 4:1.1643323 5:0.24206291 6:1.1837492 7:0.82876195 8:0.90664545 9:-2.1601205 10:-1.2167843 11:0.59456289 12:-1.9449687 13:0.39876149 14:-2.1504414 15:-1.7556644 16:-1.7319066 17:-2.8498492 18:-1.5892586 19:0.22592973 20:-0.74048326 21:-0.66391312 22:0.086458057 23:-0.40139987 24:-1.6037411 25:1.8463446 26:-0.39445514 27:0.42203161 28:0.13588494 29:-0.48383945 30:2.8152918 31:-0.41443096 32:0.38674476 33:-0.99423776 34:-0.21685847 35:0.49403305 36:-0.57703984 37:1.0411444 38:-0.21771788 39:0.66624546 40:0.96721915 41:1.3656781 42:0.059484049 43:0.67623822 44:0.95287591 45:-1.2789263 46:2.5693141 47:-0.66708595 48:1.2345695 49:1.0827711 50:2.4976966 51:1.7869618 52:3.0873111 53:2.4798901 54:2.8929817 55:1.7463543 56:1.1580572 57:-0.27591567 58:-1.0244829 59:1.8115334 60:0.60884163 61:0.65849603 62:0.74352685 63:-0.72053335 64:3.3022928 65:-0.1127315 66:1.1397642 67:-1.0486776 68:0.49340989 
0.01 1:0.07181729 2:0.055993406 3:0.68452595 4:0.2618496 5:0.76082722 6:-0.30388189 7:-1.0532247 8:-0.384902 9:0.037334742 10:0.33076534 11:0.1749032 12:-0.6852383 13:-0.026829958 14:-0.35706173 15:0.24387136 16:1.9292327 17:0.084926192 18:0.65959202 19:1.0830193 20:-0.19919335 21:1.5812321 22:-0.6830479 23:1.6903178 24:-0.16908313 25:0.32272205 26:0.81311287 27:-1.166277 28:0.067541397 29:-1.0127741 30:0.74796098 31:0.13713525 32:-0.90342765 33:1.4355903 34:-0.72011801 35:0.035394116 36:-0.28642638 37:-1.0294372 38:0.19202616 39:0.11195291 40:-0.26023105 41:-1.2456057 42:-0.31196505 43:-0.37839857 44:0.0074132781 45:0.19970734 46:-0.083128365 47:0.42184278 48:-0.65644667 49:-0.20543382 50:-0.91149856 51:-1.1872584 52:-0.63316647 53:-0.51374945 54:-0.86800222 55:-0.70562574 56:-0.96129748 57:1.5959652 58:0.05308078 59:0.22943063 60:0.34381182 61:-1.0298333 62:-0.47965634 63:-1.0073701 64:0.68826006 65:0.11992308 66:-0.90268472 67:1.0913822 68:-0.30795299 
-0.01 1:-0.92139961 2:-1.1060717 3:-0.62796989 4:-0.8458844 5:-0.029189438 6:-0.70659107 7:-0.57859601 8:-0.88735136 9:-0.39676667 10:0.61221965 11:1.0358837 12:-0.39034082 13:-0.80421755 14:-0.25038915 15:-0.61384864 16:1.1389879 17:0.52956974 18:1.7184554 19:1.4302808 20:0.2200582 21:2.0380643 22:-0.47065521 23:0.2247144 24:0.71678358 25:-0.71036264 26:0.92455899 27:-1.3643816 28:-1.0436007 29:-0.63689721 30:0.37249568 31:2.0142474 32:0.014005453 33:0.33948011 34:-0.12113242 35:-0.93755008 36:-1.2675625 37:-0.19686936 38:-0.99420861 39:0.74293267 40:-1.0295684 41:-0.73499744 42:-0.88691356 43:-0.08202247 44:-1.0570236 45:-0.54653362 46:0.38067718 47:0.49742071 48:-0.49943257 49:1.0862574 50:-0.27200543 51:-0.38119144 52:-0.81480907 53:-0.77528748 54:-0.46576423 55:-0.80840524 56:-0.56762348 57:0.049799665 58:0.98865602 59:-1.0044333 60:0.89914526 61:-1.3263588 62:-0.95353332 63:-0.39239595 64:0.045877265 65:1.9428778 66:0.17694733 67:0.50167294 68:0.23747566 
0.01 1:-1.0822104 2:-0.12489542 3:0.44315899 4:-0.67570539 5:-0.39077876 6:-0.39263423 7:0.051718585 8:-0.73994568 9:-0.29291063 10:-0.21125086 11:1.0618784 12:-0.16695238 13:-1.4275899 14:1.1291085 15:-1.4197687 16:1.0095752 17:1.3882923 18:0.40344475 19:1.5562308 20:-0.11121705 21:1.3052205 22:-0.62792921 23:0.77753505 24:0.20301294 25:-0.71195267 26:1.2253666 27:-1.058901 28:-0.69102071 29:-0.68117115 30:3.1974824 31:0.63498788 32:-0.82468918 33:0.47183517 34:-0.41983394 35:-0.99819325 36:-0.38839653 37:-0.59777007 38:-0.78796169 39:0.3536046 40:-0.70759526 41:-0.26183119 42:-1.0817983 43:0.95361276 44:-0.51818045 45:0.532285 46:-0.25960537 47:2.2931277 48:0.68850107 49:0.73664203 50:-0.60278417 51:-0.83843955 52:-0.72919998 53:-0.87110859 54:-0.62164562 55:-0.53419799 56:-0.70272556 57:1.1579289 58:1.8009567 59:-0.90953038 60:1.2010804 61:-0.72608632 62:-0.86632193 63:-0.51454614 64:2.5421666 65:0.55039145 66:-1.0557574 67:0.75309423 68:0.90725666 
-0.001271698977242828 1:-0.75272134 2:2.019452 3:-0.0098432624 4:-1.0945462 5:-0.77908232 6:-0.8631755 7:-0.575933 8:-1.0647189 9:1.4234699 10:0.68259067 11:0.018831723 12:-1.5196299 13:-1.9973266 14:-0.47965065 15:-0.78017106 16:0.010922161 17:0.57602577 18:0.056196083 19:0.34681872 20:0.38429143 21:-0.023547244 22:0.32382074 23:1.0744894 24:-1.0075178 25:0.21356853 26:0.80372176 27:-0.070594724 28:-0.67173329 29:0.020735573 30:1.4284067 31:2.0160654 32:-0.72612299 33:1.6403859 34:-1.3087637 35:-1.2474108 36:1.5755362 37:0.022653581 38:-1.5387767 39:-0.28504499 40:-1.7520222 41:-1.1704185 42:-1.5166186 43:1.8362183 44:-0.12729954 45:0.81176715 46:1.136789 47:3.3212602 48:2.4244029 49:1.6329342 50:0.79920409 51:2.2084881 52:-0.089262621 53:1.4586372 54:0.17981452 55:0.40725854 56:0.8070755 57:1.8740895 58:-0.56517453 59:0.093376304 60:1.3573884 61:-0.17012552 62:0.47910013 63:0.36046187 64:0.9699798 65:1.4464084 66:-0.020131646 67:2.1285984 68:-1.1053557 
0.01 1:-1.1581666 2:1.0268363 3:0.074614566 4:-0.50587764 5:1.6313393 6:-1.0759448 7:-0.76113636 8:-1.3848329 9:-0.74246042 10:0.18600593 11:1.0860667 12:0.088171179 13:-0.73950624 14:0.084031 15:-0.15866868 16:0.64700533 17:0.66303921 18:0.66668202 19:1.323275 20:-0.27647005 21:0.11464349 22:-0.63099676 23:-0.66366299 24:1.1148356 25:-0.96565447 26:0.89443596 27:-0.95757077 28:-0.030884142 29:-0.97500805 30:1.4250736 31:1.6685848 32:-0.78796656 33:-0.26871778 34:0.8141708 35:-2.0325311 36:0.81725525 37:-0.70638792 38:-2.3481837 39:-2.4832941 40:-2.0786143 41:-0.87098276 42:-1.9649601 43:-0.74374393 44:-1.923102 45:-1.6951652 46:0.10279257 47:-0.75114897 48:-0.23057583 49:-0.49593052 50:-1.0464823 51:-0.93185149 52:-0.96102518 53:-0.56702649 54:0.14669731 55:-0.11211334 56:-0.41103084 57:-0.14982475 58:0.92439452 59:-1.0002996 60:0.68420772 61:-0.75159059 62:-0.69674368 63:-0.76309323 64:1.4964888 65:1.3310527 66:-0.64323525 67:-0.52996179 68:0.05063984 
0.008726583782182069 1:3.0009141 2:1.2711933 3:0.10893476 4:3.1570127 5:0.54697295 6:2.8420007 7:-0.97845371 8:2.7966079 9:-0.19559742 10:-2.4723547 11:-1.1661195 12:-1.478919 13:-2.6751445 14:2.2312425 15:-1.9872507 16:-1.0148104 17:-0.13082128 18:-0.28058185 19:-2.8111843 20:1.5305963 21:-2.382659 22:-0.1857174 23:1.831283 24:-0.70766159 25:1.3072314 26:-0.69571345 27:-0.24937428 28:-0.76127294 29:0.73988214 30:0.3713604 31:-0.40231235 32:-1.8887638 33:0.25608731 34:-1.4229366 35:2.5368196 36:2.6901495 37:1.4445865 38:2.4136061 39:-0.58750322 40:1.4355157 41:-0.98603543 42:2.0047029 43:4.3324904 44:1.1804775 45:1.231445 46:1.4505776 47:1.919795 48:-0.92758906 49:2.1265713 50:1.4573338 51:4.5452401 52:1.7332772 53:4.4955988 54:2.7007126 55:3.7522927 56:0.74139749 57:2.9956911 58:1.0087402 59:2.8329908 60:0.71274705 61:0.23729188 62:0.51965858 63:0.19733674 64:0.7082379 65:0.74984843 66:-1.9190981 67:0.18657271 68:0.96128853 
-0.01 1:-1.7918969 2:-0.81426261 3:-1.421089 4:-1.588466 5:0.41823495 6:-1.7234882 7:2.338318 8:-1.7917085 9:-0.17772015 10:0.60409911 11:0.10009116 12:1.4241395 13:0.51560358 14:1.2750872 15:1.0184587 16:0.90906154 17:1.5492183 18:1.2367536 19:0.85961772 20:0.1979733 21:0.58754791 22:-0.64976271 23:-0.39894824 24:2.0967056 25:-1.4952155 26:0.98724959 27:-0.87933748 28:1.6046837 29:-1.2670973 30:-0.41225609 31:-0.85520746 32:-0.73042301 33:-0.39957202 34:1.9436828 35:-1.1701223 36:-0.4113972 37:-0.20820789 38:-1.7893679 39:-0.22896742 40:-1.6169701 41:-1.0224117 42:-1.4782516 43:-0.40120029 44:-2.2004047 45:-0.35957974 46:-1.9747603 47:0.48557001 48:-1.4590987 49:-1.5596545 50:-0.64822185 51:-0.65083594 52:-0.30066057 53:-0.86425114 54:-1.5212645 55:-0.83857692 56:-0.33119756 57:0.26948845 58:0.082412827 59:-1.5064107 60:0.10877238 61:-1.1266706 62:1.5143062 63:-0.97768336 64:-0.15583782 65:-0.93247809 66:-1.4186051 67:0.17796997 68:1.3514914 
-0.01 1:0.3608015 2:-0.20866563 3:-0.075521418 4:0.81637363 5:1.1472546 6:-0.52171268 7:-0.33016932 8:-0.2851708 9:-1.0910158 10:-0.72504607 11:-0.11029048 12:-0.14799226 13:0.87367583 14:1.0849111 15:1.6593974 16:0.17775934 17:1.2020759 18:0.87018074 19:2.438173 20:1.9249519 21:-0.18605365 22:-1.5932696 23:-0.49273944 24:2.2023441 25:-1.100095 26:-0.16455967 27:-0.37343795 28:1.4710608 29:0.04146434 30:-0.81454795 31:-1.3319273 32:-1.3428629 33:-0.7603535 34:2.0325831 35:1.2284645 36:0.75740273 37:-1.3142832 38:1.3361553 39:-0.48716821 40:-0.43502924 41:-1.520815 42:0.38916115 43:0.88035461 44:-0.21353774 45:-1.1422924 46:0.13774937 47:-0.92863385 48:-1.1128034 49:-1.1858139 50:-2.1486443 51:-0.24328086 52:-0.59214477 53:0.25762647 54:0.0048162581 55:-1.5977521 56:-1.5688136 57:0.01937571 58:2.0738815 59:-0.48208805 60:-0.275638 61:-0.021531719 62:1.5205583 63:0.033224145 64:-0.61652766 65:-1.2662905 66:-1.4049032 67:-0.074045628 68:1.9254183 
-0.009937906914064699 1:0.46572832 2:-1.5567236 3:1.0950229 4:0.21065392 5:-0.69707885 6:0.82678562 7:0.63977231 8:0.3002292 9:-1.7900543 10:-0.8646831 11:-1.4109819 12:-0.17890527 13:-0.39185041 14:-1.624228 15:-0.85327627 16:-2.7400448 17:-2.3012377 18:-2.9233718 19:-2.3247751 20:-2.5725677 21:-1.6217186 22:1.5599499 23:0.76964395 24:-0.2776605 25:2.9290312 26:-0.51364507 27:-0.23438317 28:-0.90463236 29:0.66000303 30:-0.40528202 31:-1.087617 32:-0.29372533 33:-0.80703241 34:-0.049983599 35:0.020779103 36:-1.7258874 37:1.1655332 38:-0.28452677 39:0.058472528 40:0.58707484 41:1.7111656 42:-0.35663558 43:0.18675197 44:1.1110653 45:-0.11797013 46:1.2799346 47:-1.4738853 48:1.2064262 49:0.066563917 50:0.52107305 51:0.88470304 52:2.2769296 53:1.4272455 54:1.3343644 55:2.3418105 56:1.0850433 57:0.41876519 58:0.48530413 59:1.953489 60:0.59368112 61:-0.03962427 62:0.42034639 63:0.26565503 64:-0.40048972 65:-1.1630503 66:0.11549001 67:-1.118545 68:0.76464818 
-0.01 1:-1.3338491 2:1.3652293 3:-0.31398707 4:-0.98735881 5:0.2421387 6:-1.1407584 7:-0.15328844 8:-1.4086148 9:0.25860566 10:0.31525204 11:0.15537801 12:0.25135087 13:-1.563212 14:0.27026763 15:-1.7740621 16:0.97189555 17:1.3882664 18:1.1169605 19:1.3771349 20:1.148724 21:-0.17536316 22:-0.85231948 23:2.9651431 24:2.2887881 25:-1.1318333 26:-0.78505888 27:-0.60458112 28:-0.52348461 29:-0.67715828 30:3.7302738 31:0.12942155 32:-1.0210126 33:0.43431674 34:1.4625543 35:-1.3459259 36:1.429302 37:0.68993354 38:-1.178843 39:-0.54579663 40:-1.2263606 41:-0.080439005 42:-1.3157872 43:0.40297237 44:-1.2984831 45:-0.22574192 46:0.1386393 47:1.5447908 48:1.1208954 49:0.78452452 50:-1.1310119 51:-0.16456715 52:-0.81160081 53:0.42005127 54:-1.2123278 55:0.10494056 56:-0.69183263 57:2.7228497 58:1.5000501 59:-0.98935944 60:-1.1219203 61:-0.051839448 62:-0.57053999 63:-0.040572072 64:4.4283028 65:0.87512158 66:-0.53249631 67:1.5747098 68:0.91528128 
0.01 1:-1.6186233 2:-0.66215711 3:-0.61653392 4:-2.2071894 5:-1.4459236 6:-1.6532581 7:3.5169421 8:-1.4064422 9:-1.2118366 10:2.1057507 11:-0.17114346 12:-0.69603242 13:-0.42095047 14:0.55431234 15:0.53958743 16:2.8008083 17:-0.23776657 18:0.25481436 19:0.17143863 20:-0.39698619 21:0.64906391 22:0.8578307 23:1.8768083 24:-0.59865606 25:0.36290986 26:-0.84439212 27:0.11146845 28:0.64692984 29:-0.67520894 30:-0.52232315 31:-0.83050572 32:1.688246 33:0.53806417 34:0.25786022 35:-1.2267087 36:-0.082776862 37:-0.35915653 38:-0.41868939 39:2.1116539 40:-1.0992355 41:1.161463 42:-1.0555131 43:0.11899978 44:0.33888812 45:0.6536853 46:0.71694489 47:2.542 48:0.48123311 49:0.5346819 50:0.27755067 51:-0.16949631 52:0.54361765 53:-0.51492157 54:0.39856954 55:-0.0092995391 56:0.82363306 57:1.6796948 58:-1.0432457 59:0.88788841 60:-1.1330799 61:0.19033431 62:1.3002843 63:-0.50533281 64:-0.57046978 65:-0.83530877 66:2.29448 67:0.85308118 68:-0.59839339 
-0.002366458507057438 1:0.18603672 2:-0.14587507 3:-0.26044235 4:0.083200323 5:0.10018709 6:0.55412492 7:-0.13787767 8:0.35341658 9:-0.12476389 10:-0.1076916 11:-2.1763753 12:0.029450566 13:-0.78714882 14:1.126197 15:0.42278994 16:0.54158657 17:-0.22175828 18:-0.37574962 19:-0.22537249 20:0.30285232 21:0.74864664 22:-0.42740377 23:-0.26309217 24:-0.81728034 25:0.64945897 26:-0.27388859 27:-0.07050647 28:0.087326701 29:0.64449576 30:0.77705995 31:-0.13911212 32:-0.25471532 33:0.3620891 34:-1.0020356 35:0.40502025 36:-0.014676047 37:1.6670473 38:0.23855886 39:0.47821427 40:1.1201878 41:-0.017461608 42:0.96032627 43:0.65020218 44:1.1888796 45:1.5611006 46:0.17253253 47:0.27248324 48:0.78293643 49:-1.1862818 50:1.3598248 51:0.54620197 52:2.1099481 53:-0.28545706 54:-0.068785277 55:-0.034562345 56:-0.64774109 57:-0.43403804 58:-0.96428293 59:1.0811096 60:-0.66571631 61:-0.31893902 62:0.59821891 63:0.45459119 64:0.79471492 65:0.085124154 66:0.62303386 67:0.63172465 68:-0.14984821 
0.003750278714580542 1:-0.044879931 2:1.1735695 3:0.75856559 4:-0.53414617 5:-0.85247744 6:-0.25139025 7:0.054879302 8:0.0025018069 9:1.3729398 10:1.4024297 11:-0.65523834 12:-0.89788046 13:-1.0866026 14:-0.35361925 15:0.9159323 16:0.87201644 17:0.20288151 18:0.059290602 19:-0.75679678 20:0.284533 21:-0.011115138 22:-0.086096251 23:1.1161458 24:-0.47109592 25:0.63854397 26:0.16246674 27:0.048074025 28:-0.55984442 29:1.4761246 30:0.21955445 31:-0.1927887 32:-0.058071389 33:-0.1912033 34:-1.1336552 35:-0.24116107 36:0.81774025 37:-0.79446626 38:0.2446491 39:0.86490809 40:-0.068438303 41:-0.41388245 42:-0.016766342 43:0.14564287 44:1.2505185 45:1.3862239 46:0.45925527 47:0.02942417 48:-0.15402372 49:0.28682665 50:-0.42737622 51:0.43656673 52:-0.3552114 53:0.21641623 54:0.29770871 55:-0.02887573 56:-0.64837275 57:0.96680052 58:-0.48102329 59:0.38325267 60:-0.098907597 61:-0.21204644 62:-0.64645564 63:1.1823988 64:-0.094796025 65:-0.36118753 66:-0.16820422 67:-0.59277967 68:-1.0243276 
-0.01 1:-0.4829677 2:1.0418002 3:-0.3626389 4:-0.71007215 5:-1.1249891 6:-0.48396899 7:1.020279 8:-0.47683509 9:0.51124612 10:0.65553636 11:-0.936349 12:-0.46512875 13:-0.47657986 14:1.1658427 15:0.29191864 16:0.58012424 17:-0.050184467 18:-0.39214117 19:-0.19226551 20:0.067176997 21:-0.093680216 22:-0.26189631 23:0.94738756 24:-1.0800393 25:0.012012041 26:-0.60645371 27:0.88023399 28:1.2492637 29:1.1671056 30:0.48745616 31:-0.27109803 32:0.21769331 33:-0.44334053 34:-0.13276856 35:-0.34586414 36:1.4683383 37:0.74746744 38:0.28382953 39:-0.1883764 40:-0.49560131 41:0.20229699 42:-0.25427516 43:0.097302066 44:0.47101388 45:0.35856475 46:0.2518174 47:0.85896463 48:1.0871876 49:0.39157395 50:0.66953486 51:0.20321263 52:-0.069409682 53:-0.32447344 54:-0.45423433 55:0.0026703825 56:-0.39252583 57:2.182071 58:-0.97239181 59:-0.028821503 60:-0.68650341 61:0.25340507 62:1.4596139 63:1.6863169 64:0.31781181 65:-0.33343274 66:1.3754301 67:-0.31633419 68:0.18227507 
0.006384768187467847 1:-0.47517767 2:-0.20171482 3:0.13410912 4:-1.430031 5:-1.3306722 6:-0.81329693 7:2.1217878 8:-0.55514713 9:-0.10347684 10:1.8328478 11:-1.8025411 12:0.049048002 13:0.83163845 14:0.34296371 15:1.6754607 16:0.484651 17:-0.42948885 18:-0.42813427 19:-0.37539203 20:0.031837014 21:-0.10016742 22:-0.046880146 23:0.44262366 24:-0.74940867 25:0.37956789 26:0.25055497 27:0.34064783 28:1.0725026 29:0.69130848 30:-0.58465802 31:-0.43405342 32:0.46791448 33:-0.42862265 34:0.066492471 35:-0.29458659 36:0.049047119 37:-0.21244351 38:0.13885046 39:2.168568 40:-0.45443515 41:0.7116932 42:-0.31389925 43:1.3908431 44:0.61443964 45:0.32086748 46:0.39085569 47:-0.91856322 48:-0.0055886243 49:-0.46855738 50:-0.2103257 51:-0.50461792 52:-0.55949645 53:-0.86435876 54:-1.0579163 55:-0.56473017 56:-0.47610951 57:0.69047937 58:-0.56652423 59:0.18191068 60:0.31603322 61:0.85643063 62:0.7639405 63:0.78573305 64:-0.74201282 65:-0.63038687 66:1.2674964 67:-0.59675994 68:-0.15516598 
0.005941660888997977 1:-0.48417218 2:-1.2991493 3:-1.2572215 4:-1.1475575 5:-1.9091548 6:-0.44622505 7:1.162696 8:-0.24430121 9:-2.8408432 10:0.61061026 11:-0.66388075 12:-0.90849609 13:-0.42402716 14:0.7226527 15:1.6216107 16:0.74341122 17:-0.46992145 18:0.20088146 19:-0.40352911 20:0.55394078 21:-0.18407122 22:-0.11307739 23:-0.15410573 24:-0.66108137 25:-0.37634606 26:-1.503456 27:1.0713739 28:1.6103865 29:0.9502786 30:-0.9385832 31:-0.66081352 32:0.6938827 33:0.1703623 34:0.44653982 35:0.14812696 36:-0.085982516 37:0.038837034 38:0.28595317 39:1.4650099 40:0.29888762 41:0.24949134 42:0.060781022 43:0.37085212 44:1.3807062 45:0.97153527 46:1.1003071 47:0.36655876 48:2.2468476 49:0.65937221 50:1.1005151 51:-0.25680299 52:0.12237252 53:-0.58382817 54:-0.34348664 55:0.46750796 56:-0.051631002 57:-0.27311237 58:-1.3582466 59:-0.28077035 60:-1.8304252 61:0.75756729 62:1.9956892 63:0.69558138 64:-0.80165613 65:-0.43197415 66:0.27266084 67:0.42093698 68:1.381079 
-0.01 1:0.50769274 2:0.82062551 3:0.49572336 4:0.056482291 5:-1.4224946 6:0.37319008 7:0.52245319 8:0.81019468 9:1.2572155 10:0.83583512 11:-0.20821471 12:-1.8600767 13:-0.49208652 14:-0.62530296 15:1.4780452 16:0.527481 17:-0.33634741 18:0.17339249 19:-1.0459451 20:0.92043202 21:-1.5129871 22:0.62038848 23:0.66384594 24:-1.2371318 25:0.66149335 26:-0.80703351 27:1.2636273 28:-0.64018037 29:-0.16693379 30:-0.22707351 31:-0.56149939 32:0.81390495 33:0.53939353 34:-1.1040417 35:1.2635912 36:0.41889824 37:-0.48994648 38:2.0638255 39:1.7448336 40:1.7802173 41:0.44589386 42:1.9163806 43:0.7936946 44:1.430316 45:1.4601885 46:0.93672067 47:0.98984016 48:0.38647256 49:0.79015267 50:0.66576088 51:0.055617748 52:0.59585508 53:0.59983308 54:-0.13655422 55:0.65455957 56:0.23693484 57:0.11589322 58:-1.0115161 59:0.94993442 60:-1.2670905 61:0.90912896 62:0.41183272 63:-0.55852921 64:-0.45761766 65:-0.64936399 66:2.0450611 67:0.44406953 68:0.67012722 
0.01 1:0.09260323 2:1.6544678 3:0.63994898 4:-0.38251725 5:0.021702344 6:-0.14080325 7:-0.26323179 8:-0.17189861 9:0.75740286 10:0.63537802 11:-2.0964297 12:-0.055031065 13:-0.49207419 14:0.32893532 15:2.0203347 16:-0.33002438 17:0.24786832 18:-0.48557525 19:-0.38324831 20:-0.14263081 21:-0.70350554 22:0.44995742 23:0.0095528301 24:-0.72194524 25:0.60640639 26:-0.011347275 27:0.72540583 28:-0.34816471 29:3.5091835 30:-0.61970665 31:-0.76340507 32:0.59475746 33:0.32379341 34:-1.1271476 35:-0.12951055 36:2.0271419 37:-0.79046793 38:-0.06049169 39:1.8188018 40:0.0059727049 41:-0.044013573 42:-0.21972844 43:-0.40985031 44:0.19940961 45:0.70373735 46:-0.10148533 47:-0.20550448 48:0.081528787 49:-0.57671759 50:0.71555904 51:0.42761134 52:1.2504606 53:-0.30955846 54:-0.11854181 55:-0.39139751 56:-0.023175242 57:0.052398301 58:-1.2290305 59:0.97996088 60:0.027289369 61:0.78783824 62:-1.1636683 63:3.622665 64:-0.60717938 65:-0.92973728 66:0.42339665 67:-0.13954469 68:-1.9123063 
-0.01 1:0.25830571 2:2.1680304 3:1.0184202 4:-0.36045204 5:-0.40096124 6:-0.16719572 7:1.4093951 8:-0.18933865 9:-0.11476436 10:0.56059178 11:-2.6208405 12:-0.76259493 13:-1.2453631 14:-0.13848676 15:1.4690969 16:0.31466951 17:0.24903228 18:-0.23925612 19:0.24115142 20:0.67570758 21:-0.16496394 22:-0.54893626 23:1.4947322 24:-1.6223236 25:0.62142123 26:-0.68376163 27:0.082986374 28:-0.76268611 29:1.7307009 30:0.79485816 31:-0.51936065 32:2.54792 33:-0.65191625 34:-0.50484297 35:0.71578487 36:2.7564047 37:0.42253562 38:0.63637087 39:1.5976407 40:0.7882388 41:1.0533563 42:0.53334374 43:0.6114449 44:-0.091977878 45:2.4339539 46:0.59443388 47:0.52854119 48:0.96636743 49:-0.78283805 50:0.7185864 51:-0.201512 52:0.83144422 53:-0.36837654 54:-0.43918564 55:-0.09349306 56:-0.34929932 57:0.9584534 58:-1.5949551 59:0.35759671 60:-0.86431122 61:0.93139413 62:-0.054239092 63:1.6228936 64:0.83501964 65:-0.35699021 66:0.022417781 67:-0.92830393 68:-0.70611493 
-0.01 1:1.4940954 2:-1.5847584 3:0.87990564 4:1.1246347 5:-1.841629 6:1.6187445 7:-0.008077416 8:1.6594301 9:-1.4417708 10:-1.6232596 11:-1.4872747 12:-1.0772477 13:-0.48619385 14:-1.315164 15:-0.44289267 16:-1.5367372 17:-0.097281828 18:-2.4934151 19:-0.17693242 20:-2.8218296 21:-2.7976669 22:4.7457279 23:1.4460917 24:-1.6622882 25:0.63765708 26:-1.5797027 27:-0.41135533 28:-0.92021259 29:2.4000167 30:-1.1342589 31:-0.90497308 32:-0.80258769 33:5.8329955 34:-1.3332876 35:0.81830346 36:-1.6841182 37:0.76164448 38:1.1609165 39:0.85092827 40:0.59099562 41:1.1393459 42:0.6234971 43:-0.56211358 44:1.3667304 45:0.881919 46:1.6860082 47:-1.3945847 48:1.506549 49:0.64469922 50:0.6746453 51:0.33698672 52:0.38331592 53:0.6860617 54:0.61151136 55:1.9215335 56:3.591113 57:1.2576046 58:-1.4265992 59:0.52384952 60:-1.806221 61:-0.33138751 62:-0.59103012 63:2.9555694 64:-0.99176021 65:-0.65618569 66:-0.59889489 67:4.4363408 68:0.51665212 
-0.001630754210743176 1:-0.638877 2:-0.55236939 3:-0.66732975 4:-0.87473646 5:-0.44127286 6:-0.85399655 7:-0.12269069 8:-0.80516086 9:0.14177195 10:0.68292984 11:0.34735692 12:-0.074095688 13:-0.50152497 14:0.95941779 15:0.71509957 16:0.66546389 17:0.95678353 18:-0.27241281 19:-0.25489369 20:-0.16529705 21:-0.61820808 22:-0.032442281 23:0.17465405 24:-0.40906781 25:-0.34772878 26:-1.141369 27:0.33332565 28:1.2957852 29:-1.0525892 30:-0.69980521 31:-0.53418907 32:1.2795348 33:-0.278641 34:0.51853614 35:-0.16679684 36:-0.36667077 37:-0.32577017 38:0.099047695 39:1.6352553 40:-0.6305688 41:-0.56245798 42:-0.45495635 43:-0.18938765 44:0.65338872 45:-0.018236721 46:0.46257577 47:0.38424905 48:0.48309353 49:-0.722819 50:-0.18992561 51:-1.6331557 52:0.044364515 53:-1.2946698 54:-0.68612135 55:-0.40929196 56:0.23991901 57:0.066684896 58:-0.93975299 59:-0.27891118 60:-1.7349026 61:-0.11435878 62:1.360399 63:-1.0381409 64:-0.67507971 65:-0.53994448 66:1.3583365 67:-0.1093596 68:-0.1745812 
0.01 1:-1.0829724 2:-0.23859661 3:-0.84314365 4:-1.2918737 5:-0.24454851 6:-0.88723982 7:0.99436819 8:-1.0905836 9:-1.2665719 10:-0.18234698 11:-2.221816 12:1.5006399 13:-0.34045883 14:0.51547793 15:0.29945026 16:-0.57181037 17:0.99793632 18:0.47737831 19:-1.024328 20:0.27858711 21:-1.3153123 22:-0.86428084 23:1.0744717 24:-1.1168821 25:-1.0965934 26:-2.2143285 27:0.97228505 28:2.7850361 29:1.0797886 30:-0.37311398 31:-0.6684481 32:2.4028561 33:-0.62131007 34:1.8479904 35:-0.45445445 36:0.31061737 37:0.023362411 38:-1.1809461 39:-0.71048222 40:-0.80596139 41:-0.63658717 42:-0.99109369 43:1.7252365 44:-0.76043331 45:-0.38575634 46:-0.10816606 47:-0.38487408 48:0.49170102 49:0.39979793 50:-0.56156399 51:0.1133575 52:0.31643431 53:-0.21454977 54:-0.84221629 55:0.73184267 56:-0.82047794 57:1.8053301 58:-1.0806607 59:-0.95012715 60:-2.2916882 61:1.057533 62:3.4171345 63:1.7235896 64:-0.029626682 65:-0.45042532 66:2.9426759 67:-0.19582504 68:0.48099305 
0.01 1:-0.67528353 2:0.076657282 3:1.5749048 4:-0.23987776 5:0.69752468 6:-0.32872468 7:-0.76211606 8:-0.19779443 9:0.19561305 10:0.44281981 11:-0.97981711 12:1.0565904 13:-0.087524664 14:0.12353072 15:0.44577997 16:-0.94900783 17:-0.03227234 18:0.52392743 19:-1.0952664 20:0.0011232079 21:0.79992813 22:-0.54847205 23:-0.85720617 24:0.95598501 25:-0.91649931 26:-1.6239234 27:-0.46428066 28:0.58014347 29:0.63455206 30:-1.1131328 31:-0.90017617 32:2.0525346 33:-0.74994979 34:1.3837683 35:0.025541977 36:0.68139429 37:-2.0082887 38:0.23179089 39:0.80007824 40:0.49847053 41:0.20562012 42:0.49607705 43:-0.12738972 44:-0.73950116 45:-0.39876694 46:-1.2560686 47:-0.040725264 48:-0.37329547 49:-0.5795676 50:-0.22036411 51:0.6242219 52:-0.20937708 53:-0.57719717 54:0.39850929 55:-0.74049063 56:-0.64643839 57:-0.3314973 58:0.11696482 59:-1.1081669 60:-1.6907335 61:-0.54609525 62:0.35152235 63:0.61015003 64:-0.86935858 65:-0.88079073 66:1.9398131 67:-0.39647723 68:-0.46087901 
-0.006104143990053798 1:-0.32013303 2:1.138054 3:0.37500814 4:-0.10902529 5:1.5436588 6:-0.5440664 7:0.74740929 8:-0.61424148 9:0.74499592 10:0.68957824 11:0.68080725 12:-0.21022813 13:0.22238603 14:-0.17924012 15:-0.36686748 16:0.49776231 17:0.73789741 18:0.44158712 19:-1.2185426 20:0.086178709 21:-0.12772084 22:-0.33228289 23:-0.40546048 24:0.10989128 25:-0.22157578 26:0.27845936 27:-0.28328655 28:0.034818738 29:-1.0379515 30:-0.46618037 31:-0.5515628 32:1.56453 33:-0.69082715 34:0.4084775 35:-0.1558711 36:2.2932305 37:0.95727264 38:-0.55364291 39:-0.32166969 40:-0.060350814 41:0.83738596 42:-0.2076008 43:0.30122634 44:-0.76091882 45:-0.1279961 46:-0.089158508 47:-0.92294501 48:-0.51971149 49:-0.78717915 50:-1.1154726 51:-0.48184436 52:-0.3589722 53:0.0031993597 54:-0.55203222 55:-0.54126697 56:-0.5292064 57:-0.7022993 58:-0.47144308 59:-0.077298479 60:0.16775644 61:-0.31454488 62:0.58700245 63:-0.93488629 64:-0.36499575 65:-0.73608829 66:2.8092955 67:-0.64068502 68:0.19413132 
-0.00398351923783852 1:1.1308678 2:0.35737225 3:1.3026373 4:1.0774262 5:-0.39599305 6:0.4936612 7:0.41659854 8:1.1627637 9:0.21801365 10:-0.76942827 11:-0.8492862 12:-1.2180425 13:-0.3875824 14:0.25113318 15:-1.0850423 16:-0.25759833 17:-0.46464202 18:-2.1384879 19:-1.5889702 20:-3.0899106 21:-1.6393132 22:0.80980943 23:3.1306885 24:1.3440285 25:0.84458375 26:-1.552519 27:-1.4428159 28:-0.85373903 29:0.73258315 30:0.60925362 31:-0.89850513 32:-0.38147195 33:-0.90316092 34:1.1937392 35:1.4527605 36:0.47607574 37:-0.58865 38:1.6271796 39:0.18221098 40:0.56655841 41:1.5762967 42:1.3535923 43:-0.027090247 44:1.0519093 45:-0.044386612 46:0.43587046 47:-1.1457858 48:-0.69728834 49:-0.32053731 50:-0.1616292 51:-0.37743654 52:1.5577145 53:1.6414238 54:3.2199729 55:2.6881953 56:1.799619 57:2.5397326 58:0.79772051 59:0.7003146 60:-1.4907908 61:-1.4468606 62:-0.53839618 63:0.89776434 64:1.0840243 65:-0.97121724 66:-0.37772697 67:-1.1275068 68:0.92102558 
